[[[-0.8218894,-0.135765,0.3773176,-0.4547795,0.4760809,0.8118804,-0.2602733,0.9943349,-0.1315223,-0.1252962,-0.519479,-0.5324626,0.1973203,-0.7730415,0.6342947,-0.6468668],[-0.4485043,0.4613049,0.9200613,0.4731421,-0.9684465,-0.5459428,0.8691759,-0.3146032,-0.493369,-0.207702,0.1926306,-0.03124845,0.1026226,-0.6272137,-0.5690122,0.5805748],[-0.4132408,0.7673059,-0.2101024,0.3231928,-0.1042312,-0.1841553,-0.6596262,0.6736951,-0.6180437,-0.0989095,0.7676628,-0.7043824,-0.7402673,-0.2983953,-0.4346603,-0.1224049],[0.4986033,0.9162621,-0.3268811,0.9392524,0.9954724]],[[-0.8218894,-0.135765,0.3773176,-0.4547795,0.4760809,0.8118804,-0.2602733,0.9943349,-0.1315223,-0.1252962,-0.519479,-0.5324626,0.1973203,-0.7730415,0.6342947,-0.6468668],[-0.4485043,0.4613049,0.9200613,0.4731421,-0.9684465,-0.5459428,0.8691759,-0.3146032,-0.493369,-0.207702,0.1926306,-0.03124845,0.1026226,-0.6272137,-0.5690122,0.5805748],[-0.4132408,0.7673059,-0.2101024,0.3231928,-0.1042312,-0.1841553,-0.6596262,0.6736951,-0.6180437,-0.0989095,0.7676628,-0.7043824,-0.7402673,-0.2983953,-0.4346603,-0.1224049],[0.4986033,0.9162621,-0.3268811,0.9392524,0.9954724]],[[-0.8218894,-0.135765,0.3773176,-0.4547795,0.4760809,0.8118804,-0.2602733,0.9943349,-0.1315223,-0.1252962,-0.519479,-0.5324626,0.1973203,-0.7730415,0.6342947,-0.6468668],[-0.4485043,0.4613049,0.9200613,0.4731421,-0.9684465,-0.5459428,0.8691759,-0.3146032,-0.493369,-0.207702,0.1926306,-0.03124845,0.1026226,-0.6272137,-0.5690122,0.5805748],[-0.4132408,0.7673059,-0.2101024,0.3231928,-0.1042312,-0.1841553,-0.6596262,0.6736951,-0.6180437,-0.0989095,0.7676628,-0.7043824,-0.7402673,-0.2983953,-0.4346603,-0.1224049],[0.4986033,0.9162621,-0.3268811,0.9392524,0.9954724]],[[-0.8218894,-0.135765,0.3773176,-0.4547795,0.4760809,0.8118804,-0.2602733,0.9943349,-0.1315223,-0.1252962,-0.519479,-0.5324626,0.1973203,-0.7730415,0.6342947,-0.6468668],[-0.4485043,0.4613049,0.9200613,0.4731421,-0.9684465,-0.5459428,0.8691759,-0.3146032,-0.493369,-0.207702,0.1926306,-0.03124845,0.1026226,-0.6272137,-0.5690122,0.5805748],[-0.4132408,0.7673059,-0.2101024,0.3231928,-0.1042312,-0.1841553,-0.6596262,0.6736951,-0.6180437,-0.0989095,0.7676628,-0.7043824,-0.7402673,-0.2983953,-0.4346603,-0.1224049],[0.4986033,0.9162621,-0.3268811,0.9392524,0.9954724]],[[-0.8218894,-0.135765,0.3773176,-0.4547795,0.4760809,0.8118804,-0.2602733,0.9943349,-0.1315223,-0.1252962,-0.519479,-0.5324626,0.1973203,-0.7730415,0.6342947,-0.6468668],[0.8182018,0.4613049,0.2181612,0.4731421,-0.9684465,-0.5459428,0.8691759,-0.3146032,-0.493369,-0.207702,0.1926306,-0.03124845,0.1026226,-0.6272137,-0.5690122,0.5805748],[-0.4132408,0.7673059,-0.2101024,0.3231928,-0.1042312,-0.1841553,-0.6596262,0.6736951,-0.6180437,-0.0989095,0.7676628,-0.7043824,-0.7402673,-0.2983953,-0.4346603,-0.1224049],[0.4986033,0.9162621,-0.3268811,0.9392524,0.9954724]],[[-0.8218894,-0.135765,0.3773176,-0.4547795,0.4760809,0.8118804,-0.2602733,0.9943349,-0.1315223,-0.1252962,-0.519479,-0.5324626,0.1973203,-0.7730415,0.6342947,-0.6468668],[-0.4485043,0.4613049,0.9200613,0.4731421,-0.9684465,-0.5459428,0.8691759,-0.3146032,-0.493369,-0.207702,0.1926306,-0.03124845,0.1026226,-0.6272137,-0.5690122,0.5805748],[-0.4132408,0.7673059,-0.2101024,0.3231928,-0.1042312,-0.1841553,-0.6596262,0.6736951,-0.6180437,-0.0989095,0.7676628,-0.7043824,-0.7402673,-0.2983953,-0.4346603,-0.1224049],[0.4986033,0.9162621,-0.3268811,0.9392524,0.9954724]],[[-0.8218894,-0.135765,0.3773176,-0.4547795,0.4760809,0.8118804,-0.2602733,0.9943349,-0.1315223,-0.1252962,-0.519479,-0.5324626,0.1973203,-0.7730415,0.6342947,-0.6468668],[-0.07980859,0.4613049,0.9200613,0.4731421,-0.9684465,-0.5459428,-0.2629164,-0.3146032,-0.493369,0.169928,0.1926306,-0.03124845,0.1026226,-0.6272137,-0.5690122,0.5805748],[-0.4132408,0.7673059,-0.2101024,0.3231928,-0.1042312,-0.1841553,-0.6596262,0.6736951,-0.6180437,-0.0989095,0.7676628,-0.7043824,-0.7402673,-0.2983953,-0.4346603,-0.1224049],[0.4986033,0.9162621,-0.3268811,0.9392524,0.9954724]],[[-0.8218894,-0.135765,0.3773176,-0.4547795,0.4760809,0.8118804,-0.2602733,0.9943349,-0.1315223,-0.1252962,-0.519479,-0.5324626,0.1973203,-0.7730415,0.6342947,-0.6468668],[-0.4485043,0.4613049,0.9200613,0.4731421,-0.9684465,-0.5459428,-0.2629164,-0.3146032,-0.493369,0.169928,0.1926306,-0.03124845,0.1026226,-0.6272137,-0.5690122,0.5805748],[-0.4132408,0.7673059,-0.2101024,0.3231928,-0.1042312,-0.1841553,-0.6596262,0.6736951,-0.6180437,-0.0989095,0.7676628,-0.7043824,-0.7402673,0.08465827,-0.4346603,-0.1224049],[0.4986033,0.9162621,-0.3268811,0.9392524,0.9954724]],[[-0.8218894,-0.135765,0.3773176,-0.4547795,0.4760809,0.8118804,-0.2602733,0.9943349,-0.1315223,-0.1252962,-0.519479,-0.5324626,0.1973203,-0.7730415,0.6342947,-0.6468668],[-0.4485043,0.4613049,0.9200613,0.4731421,-0.9684465,-0.5459428,0.8691759,-0.3146032,-0.493369,-0.8490157,0.1926306,-0.03124845,0.1026226,-0.6272137,-0.5690122,0.5805748],[-0.4132408,0.7673059,-0.2101024,-0.8971016,-0.1042312,-0.1841553,-0.6596262,0.6736951,-0.6180437,-0.0989095,0.7676628,-0.7043824,-0.7402673,-0.2983953,-0.4346603,-0.1224049],[0.4986033,0.9162621,-0.3268811,0.9392524,0.9954724]],[[-0.8218894,-0.135765,0.3773176,-0.4547795,0.4760809,0.8118804,-0.2602733,0.9943349,-0.1315223,-0.1252962,-0.519479,-0.5324626,0.1973203,-0.7730415,0.6342947,-0.6468668],[-0.4485043,0.4613049,0.9200613,0.4731421,-0.9684465,-0.5459428,0.8691759,-0.3146032,-0.493369,-0.207702,0.1926306,-0.03124845,0.1026226,-0.6272137,-0.5690122,0.5805748],[-0.4132408,0.7673059,-0.2101024,0.3231928,-0.1042312,-0.1841553,-0.6596262,0.6736951,-0.6180437,-0.0989095,0.7676628,-0.7043824,-0.7402673,-0.2983953,-0.4346603,-0.1224049],[0.4986033,0.9162621,-0.3268811,0.9392524,0.9954724]],[[-0.8218894,-0.135765,0.3773176,-0.4547795,0.4760809,0.8118804,-0.2602733,0.9943349,-0.1315223,-0.1252962,-0.519479,-0.5324626,0.1973203,-0.7730415,0.6342947,-0.6468668],[-0.4485043,0.4613049,0.9200613,0.4731421,-0.9684465,-0.5459428,0.8691759,-0.3146032,-0.493369,-0.207702,0.1926306,-0.03124845,0.1026226,-0.6272137,-0.5690122,0.5805748],[-0.4132408,0.7673059,-0.2101024,0.3231928,-0.1042312,-0.1841553,-0.6596262,0.6736951,-0.6180437,-0.0989095,0.7676628,-0.7043824,-0.7402673,-0.2983953,-0.4346603,-0.1224049],[0.4986033,0.9162621,-0.3268811,0.9392524,0.9954724]],[[-0.8218894,-0.135765,0.3773176,-0.4547795,0.4760809,0.8118804,-0.2602733,0.9943349,-0.1315223,-0.1252962,-0.519479,-0.5324626,0.1973203,-0.7730415,0.6342947,-0.6468668],[-0.4485043,0.4613049,0.9200613,0.4731421,-0.9684465,-0.5459428,0.8691759,-0.3146032,-0.493369,-0.207702,0.1926306,-0.03124845,0.1026226,-0.6272137,-0.5690122,0.5805748],[-0.4132408,0.7673059,-0.2101024,0.3231928,-0.1042312,-0.1841553,-0.6596262,0.6736951,-0.6180437,-0.0989095,0.7676628,-0.7043824,-0.7402673,-0.2983953,-0.4346603,-0.1224049],[0.4986033,0.9162621,-0.3268811,0.9392524,0.9954724]],[[-0.8218894,-0.135765,0.3773176,-0.4547795,0.4760809,0.8118804,-0.2602733,0.9943349,-0.1315223,-0.1252962,-0.519479,-0.5324626,0.1973203,-0.7730415,0.6342947,-0.6468668],[-0.4485043,0.4613049,0.9200613,0.4731421,-0.9684465,-0.5459428,0.8691759,-0.3146032,-0.493369,-0.207702,0.1926306,-0.03124845,0.1026226,-0.6272137,-0.5690122,0.5805748],[-0.4132408,0.7673059,-0.2101024,0.3231928,-0.1042312,-0.1841553,-0.6596262,0.6736951,-0.6180437,-0.0989095,0.7676628,-0.7043824,-0.7402673,-0.2983953,-0.4346603,-0.1224049],[0.4986033,0.9162621,-0.3268811,0.9392524,0.9954724]],[[-0.8218894,-0.135765,0.3773176,-0.4547795,0.4760809,0.8118804,-0.2602733,0.9943349,-0.1315223,-0.1252962,-0.7712915,-0.5324626,0.1973203,-0.7730415,0.6342947,-0.6468668],[-0.4485043,0.4613049,0.9200613,0.4731421,-0.9684465,-0.5459428,0.8691759,-0.3146032,-0.493369,-0.207702,0.1926306,-0.03124845,0.1026226,-0.6272137,-0.5690122,0.5805748],[-0.4132408,0.7673059,-0.2101024,0.3231928,-0.1042312,-0.1841553,-0.6596262,0.6736951,-0.6180437,-0.0989095,0.7676628,-0.7043824,-0.7402673,-0.2983953,-0.4346603,-0.1224049],[0.4986033,0.9162621,-0.3268811,0.9392524,0.9954724]],[[-0.8218894,-0.135765,0.3773176,-0.4547795,0.4760809,0.8118804,-0.2602733,0.9943349,-0.1315223,-0.1252962,-0.519479,-0.5324626,0.1973203,-0.7730415,0.6342947,-0.6468668],[-0.4485043,0.4613049,0.9200613,0.4731421,-0.9684465,-0.5459428,0.8691759,-0.3146032,-0.493369,-0.207702,0.1926306,-0.03124845,0.1026226,-0.6272137,-0.5690122,0.5805748],[-0.4132408,0.7673059,-0.2101024,0.3231928,-0.1042312,-0.1841553,-0.6596262,0.6736951,-0.6180437,-0.0989095,0.7676628,-0.7043824,-0.7402673,-0.2983953,-0.4346603,-0.1224049],[0.4986033,0.9162621,-0.3268811,0.9392524,0.9954724]],[[-0.8218894,-0.135765,0.3773176,-0.4547795,0.4760809,0.8118804,-0.2602733,0.9943349,-0.1315223,-0.1252962,-0.519479,-0.5324626,0.1973203,-0.7730415,0.6342947,-0.6468668],[-0.4485043,0.4613049,0.9200613,0.4731421,-0.9684465,-0.5459428,0.8691759,-0.3146032,-0.493369,-0.207702,0.1926306,-0.03124845,0.1026226,-0.6272137,-0.5690122,0.5805748],[-0.4132408,0.7673059,-0.2101024,0.3231928,-0.1042312,0.9374087,-0.6596262,0.6736951,-0.6180437,-0.0989095,0.7676628,-0.7043824,-0.7402673,-0.2983953,-0.4346603,-0.1224049],[0.4986033,0.9162621,-0.3268811,0.9392524,0.9954724]],[[-0.8218894,-0.135765,0.3773176,-0.4547795,0.4760809,0.8118804,-0.2602733,0.9943349,-0.1315223,-0.1252962,-0.519479,-0.5324626,0.1973203,-0.7730415,0.6342947,-0.6468668],[-0.4485043,0.4613049,0.9200613,0.4731421,-0.9684465,-0.5459428,0.8691759,-0.3146032,-0.493369,-0.207702,0.1926306,-0.03124845,0.1026226,-0.6272137,-0.5690122,0.5805748],[-0.4132408,0.7673059,-0.2101024,0.3231928,-0.1042312,-0.1841553,-0.6596262,0.6736951,-0.6180437,-0.0989095,0.7676628,-0.7043824,-0.7402673,-0.2983953,-0.4346603,-0.1224049],[0.4986033,0.9162621,-0.3268811,0.9392524,0.9954724]],[[-0.8218894,-0.135765,0.3773176,-0.4547795,0.4760809,0.8118804,-0.2602733,0.9943349,-0.1315223,-0.1252962,-0.519479,-0.5324626,0.1973203,-0.7730415,0.6342947,-0.6468668],[-0.4485043,0.4613049,0.9200613,0.4731421,-0.9684465,-0.5459428,0.8691759,-0.3146032,-0.493369,-0.207702,0.1926306,-0.03124845,0.1026226,-0.6272137,-0.5690122,0.5805748],[-0.4132408,0.7673059,-0.2101024,0.3231928,-0.1042312,-0.1841553,-0.6596262,0.6736951,-0.6180437,-0.0989095,0.7676628,-0.7043824,-0.7402673,-0.2983953,-0.4346603,-0.1224049],[0.4986033,0.9162621,-0.3268811,0.9392524,0.9954724]],[[-0.8218894,-0.135765,0.3773176,-0.4547795,0.4760809,0.8118804,-0.2602733,0.9943349,-0.1315223,-0.1252962,-0.519479,-0.5324626,0.1973203,-0.7730415,0.6342947,-0.6468668],[-0.4485043,0.4613049,0.9200613,0.4731421,-0.9684465,-0.5459428,0.8691759,-0.3146032,-0.493369,-0.207702,0.1926306,-0.03124845,0.1026226,-0.6272137,-0.5690122,0.5805748],[-0.4132408,0.7673059,-0.2101024,0.3231928,-0.1042312,-0.1841553,-0.6596262,0.6736951,-0.6180437,-0.0989095,0.7676628,-0.7043824,-0.7402673,-0.2983953,-0.4346603,-0.1224049],[0.4986033,0.9162621,-0.3268811,0.9392524,0.9954724]],[[-0.8218894,-0.135765,0.3773176,-0.4547795,0.4760809,0.8118804,-0.2602733,0.9943349,-0.1315223,-0.1252962,-0.519479,-0.5324626,0.1973203,-0.7730415,0.6342947,-0.6468668],[-0.4485043,0.4613049,0.9200613,0.4731421,-0.9684465,-0.5459428,0.8691759,-0.3146032,-0.493369,-0.207702,0.1926306,-0.03124845,0.1026226,-0.6272137,-0.5690122,0.5805748],[-0.4132408,0.7673059,-0.2101024,0.3231928,-0.1042312,-0.1841553,-0.6596262,0.6736951,-0.6180437,-0.0989095,0.7676628,-0.7043824,-0.7402673,-0.2983953,-0.4346603,-0.1224049],[0.4986033,0.9162621,-0.3268811,0.9392524,0.9954724]],[[-0.8218894,-0.135765,0.3773176,-0.4547795,0.4760809,0.8118804,-0.2602733,0.9943349,-0.1315223,-0.1252962,-0.519479,-0.5324626,0.1973203,-0.7730415,0.6342947,-0.6468668],[-0.4485043,0.4613049,0.9200613,0.4731421,-0.9684465,-0.5459428,0.8691759,-0.3146032,-0.493369,-0.207702,0.1926306,-0.03124845,0.1026226,-0.6272137,-0.5690122,0.5805748],[-0.4132408,0.7673059,-0.2101024,0.3231928,-0.1042312,-0.1841553,-0.6596262,0.6736951,-0.6180437,-0.0989095,0.7676628,-0.7043824,-0.7402673,-0.2983953,-0.4346603,-0.1224049],[0.4986033,0.9162621,-0.3268811,0.9392524,0.9954724]],[[-0.8218894,-0.135765,0.3773176,-0.4547795,0.4760809,0.8118804,-0.2602733,0.9943349,-0.1315223,-0.1252962,-0.519479,-0.5324626,0.1973203,-0.7730415,0.6342947,-0.6468668],[-0.4485043,0.4613049,0.9200613,0.4731421,-0.9684465,-0.5459428,-0.2629164,-0.3146032,-0.493369,0.169928,0.1926306,-0.03124845,0.1026226,-0.6272137,-0.5690122,0.5805748],[-0.4132408,0.7673059,-0.2101024,0.3231928,-0.1042312,-0.1841553,-0.6596262,-0.6860182,-0.6180437,0.7821131,0.7676628,-0.7043824,-0.7402673,-0.2983953,-0.4346603,-0.1224049],[0.4986033,0.9162621,-0.3268811,0.9392524,0.9954724]],[[-0.8218894,-0.135765,0.3773176,-0.4547795,0.4760809,0.8118804,-0.2602733,0.9943349,-0.1315223,-0.1252962,-0.519479,-0.5324626,0.1973203,-0.7730415,0.6342947,-0.6468668],[-0.4485043,0.4613049,0.9200613,0.4731421,-0.9684465,-0.5459428,0.8691759,-0.3146032,-0.493369,-0.207702,0.1926306,-0.03124845,0.1026226,-0.6272137,-0.5690122,0.5805748],[-0.4132408,0.7673059,-0.2101024,0.3231928,-0.1042312,-0.1841553,-0.6596262,0.6736951,-0.6180437,-0.0989095,0.7676628,-0.7043824,-0.7402673,-0.2983953,-0.4346603,-0.1224049],[0.4986033,0.9162621,-0.3268811,0.9392524,0.9954724]],[[-0.8218894,-0.135765,0.3773176,-0.4547795,0.4760809,0.8118804,-0.2602733,0.9943349,-0.1315223,-0.1252962,-0.519479,-0.5324626,0.1973203,-0.7730415,0.6342947,-0.6468668],[-0.4485043,0.4613049,0.9200613,0.4731421,-0.9684465,-0.5459428,0.8691759,-0.3146032,-0.493369,-0.207702,0.1926306,-0.03124845,0.1026226,-0.6272137,-0.5690122,0.5805748],[-0.4132408,0.7673059,-0.2101024,0.3231928,-0.1042312,-0.1841553,-0.6596262,0.6736951,-0.6180437,-0.0989095,0.7676628,-0.7043824,-0.7402673,-0.2983953,-0.4346603,-0.1224049],[0.4986033,0.9162621,-0.3268811,-0.5788074,0.9954724]],[[-0.8218894,-0.135765,0.3773176,-0.4547795,0.4760809,0.8118804,-0.2602733,0.9943349,-0.1315223,-0.1252962,-0.519479,-0.5324626,0.1973203,-0.7730415,0.6342947,-0.6468668],[-0.4485043,0.4613049,0.9200613,0.4731421,-0.9684465,-0.5459428,0.8691759,-0.3146032,-0.493369,-0.207702,0.1926306,-0.03124845,0.1026226,-0.6272137,-0.5690122,0.5805748],[-0.4132408,0.7673059,-0.2101024,0.3231928,-0.1042312,-0.1841553,-0.6596262,0.6736951,-0.6180437,-0.0989095,0.7676628,-0.7043824,-0.7402673,-0.2983953,-0.4346603,-0.1224049],[0.4986033,0.9162621,-0.3268811,0.8502903,0.9954724]],[[-0.8218894,-0.135765,0.3773176,-0.4547795,0.4760809,0.8118804,-0.2602733,0.9943349,-0.1315223,-0.1252962,-0.519479,-0.5324626,0.1973203,-0.7730415,0.6342947,-0.6468668],[-0.4485043,0.4613049,0.9200613,0.4731421,-0.9684465,-0.5459428,-0.2629164,-0.3146032,-0.493369,0.169928,0.1926306,-0.03124845,0.1026226,-0.6272137,-0.5690122,0.5805748],[-0.4132408,0.7673059,-0.2101024,0.3231928,-0.1042312,-0.1841553,-0.6596262,0.6736951,-0.6180437,-0.0989095,0.7676628,-0.7043824,-0.7402673,-0.2983953,-0.4346603,-0.1224049],[0.4986033,0.9162621,-0.3268811,0.9392524,0.9954724]],[[-0.8218894,0.3627541,0.3773176,-0.4547795,0.4760809,0.8118804,-0.2602733,0.9943349,-0.1315223,-0.1252962,-0.519479,-0.5324626,0.1973203,-0.7730415,0.6342947,-0.6468668],[-0.4485043,0.4613049,0.9200613,0.4731421,-0.9684465,-0.5459428,0.8691759,-0.3146032,-0.493369,-0.207702,0.1926306,-0.03124845,0.1026226,-0.6272137,-0.5690122,0.5805748],[-0.4132408,0.7673059,-0.2101024,0.3231928,-0.1042312,-0.1841553,-0.6596262,0.6736951,-0.6180437,-0.0989095,0.7676628,-0.7043824,-0.7402673,-0.2983953,-0.4346603,-0.1224049],[0.4986033,0.9162621,-0.3268811,0.9392524,0.9954724]],[[-0.8218894,-0.135765,0.3773176,-0.4547795,0.4760809,0.8118804,-0.2602733,0.9943349,-0.1315223,-0.1252962,-0.519479,-0.5324626,0.1973203,-0.7730415,0.6342947,-0.6468668],[-0.4485043,0.4613049,0.9200613,0.4731421,-0.9684465,-0.5459428,0.8691759,-0.3146032,-0.493369,-0.207702,0.1926306,-0.03124845,0.1026226,-0.6272137,-0.5690122,0.5805748],[-0.4132408,0.7673059,-0.2101024,0.3231928,-0.1042312,-0.1841553,-0.6596262,0.6736951,-0.6180437,-0.0989095,0.7676628,-0.7043824,-0.7402673,-0.2983953,-0.4346603,-0.1224049],[0.4986033,0.9162621,-0.3268811,0.9392524,0.9954724]],[[-0.8218894,-0.135765,0.3773176,-0.4547795,0.4760809,0.8118804,-0.2602733,0.9943349,-0.1315223,-0.1252962,-0.519479,-0.5324626,0.1973203,-0.7730415,0.6342947,-0.6468668],[-0.4485043,0.4613049,0.2551098,0.4731421,-0.9684465,-0.5459428,0.8691759,-0.3146032,-0.493369,-0.207702,0.1926306,-0.03124845,0.1026226,0.9681544,-0.5690122,0.5805748],[-0.4132408,0.7673059,-0.2101024,0.3231928,-0.1042312,0.9374087,-0.6596262,0.6736951,-0.6180437,-0.0989095,0.7676628,-0.7043824,-0.7402673,-0.2983953,-0.4346603,-0.1224049],[0.4986033,0.9162621,-0.3268811,0.9392524,0.9954724]],[[-0.8218894,-0.135765,0.3773176,-0.4547795,0.4760809,0.8118804,-0.2602733,0.9943349,-0.1315223,-0.1252962,-0.519479,-0.5324626,0.1973203,-0.7730415,0.6342947,-0.6468668],[-0.4485043,0.4613049,0.9200613,0.4731421,-0.9684465,-0.5459428,0.8691759,-0.3146032,-0.493369,-0.207702,0.1926306,-0.03124845,0.1026226,-0.6272137,-0.5690122,0.5805748],[-0.4132408,0.7673059,-0.2101024,0.3231928,-0.1042312,-0.1841553,-0.6596262,0.6736951,-0.6180437,-0.0989095,0.7676628,-0.7043824,-0.7402673,-0.2983953,-0.4346603,-0.1224049],[0.4986033,0.9162621,-0.3268811,0.9392524,0.9954724]],[[-0.8218894,-0.135765,0.3773176,-0.4547795,0.4760809,0.8118804,-0.2602733,0.9943349,-0.1315223,-0.1252962,-0.519479,-0.5324626,0.1973203,-0.7730415,0.6342947,-0.6468668],[-0.4485043,0.4613049,0.9200613,0.4731421,-0.9684465,-0.5459428,-0.2629164,-0.3146032,-0.493369,0.169928,0.1926306,-0.03124845,0.1026226,-0.6272137,-0.5690122,0.5805748],[-0.4132408,0.7673059,-0.2101024,0.3231928,-0.1042312,-0.1841553,-0.6596262,0.6736951,-0.6180437,-0.0989095,0.7676628,-0.7043824,-0.7402673,-0.2983953,-0.4346603,-0.1224049],[0.4986033,0.9162621,-0.3268811,0.9392524,0.9954724]],[[-0.8218894,-0.135765,0.3773176,-0.4547795,0.4760809,0.8118804,-0.2602733,0.9943349,-0.1315223,-0.1252962,-0.519479,-0.5324626,0.1973203,-0.7730415,0.6342947,-0.6468668],[-0.4485043,0.4613049,0.9200613,0.4731421,-0.9684465,-0.5459428,-0.2629164,-0.3146032,-0.493369,0.169928,0.1926306,-0.03124845,0.1026226,-0.6272137,-0.5690122,0.5805748],[-0.4132408,0.7673059,-0.2101024,0.3231928,-0.1042312,-0.1841553,-0.6596262,0.6736951,-0.6180437,-0.0989095,0.7676628,-0.7043824,-0.7402673,-0.2983953,-0.4346603,-0.1224049],[0.4986033,0.9162621,-0.3268811,0.9392524,0.9954724]],[[-0.8218894,-0.135765,0.3773176,-0.4547795,0.4760809,0.8118804,-0.2602733,0.9943349,-0.1315223,-0.1252962,-0.519479,-0.5324626,0.1973203,-0.7730415,0.6342947,-0.6468668],[-0.4485043,0.4613049,0.9200613,0.4731421,-0.9684465,-0.5459428,-0.2629164,-0.3146032,-0.493369,0.169928,0.1926306,-0.03124845,0.1026226,-0.6272137,-0.5690122,0.5805748],[-0.4132408,0.7673059,-0.2101024,0.3231928,-0.1042312,-0.1841553,-0.6596262,0.6736951,-0.6180437,-0.0989095,0.7676628,-0.7043824,-0.7402673,-0.2983953,-0.4346603,-0.1224049],[0.4986033,0.9162621,-0.3268811,0.9392524,0.9954724]],[[-0.8218894,-0.135765,0.3773176,-0.4547795,0.4760809,0.8118804,-0.2602733,0.9943349,-0.1315223,-0.1252962,-0.519479,-0.5324626,0.1973203,-0.7730415,0.6342947,-0.6468668],[-0.4485043,0.4613049,0.9200613,0.4731421,-0.9684465,-0.5459428,-0.2629164,-0.3146032,-0.493369,0.169928,0.1926306,-0.03124845,0.1026226,-0.6272137,-0.5690122,0.5805748],[-0.4132408,0.7673059,-0.2101024,0.3231928,-0.1042312,-0.1841553,-0.6596262,0.6736951,-0.6180437,-0.0989095,0.7676628,-0.7043824,-0.7402673,-0.2983953,-0.4346603,-0.1224049],[0.4986033,0.9162621,-0.3268811,0.9392524,0.9954724]],[[-0.8218894,-0.135765,0.3773176,-0.4547795,0.4760809,0.8118804,-0.2602733,0.9943349,-0.1315223,-0.1252962,-0.519479,-0.5324626,0.1973203,-0.7730415,0.6342947,-0.6468668],[-0.4485043,0.4613049,0.9200613,0.4731421,-0.9684465,-0.5459428,-0.2629164,-0.3146032,-0.493369,0.169928,0.1926306,-0.03124845,0.1026226,-0.6272137,-0.5690122,0.5805748],[-0.4132408,0.7673059,-0.2101024,0.3231928,-0.1042312,-0.1841553,-0.6596262,-0.6860182,-0.6180437,0.7821131,0.7676628,-0.7043824,-0.7402673,-0.2983953,-0.4346603,-0.1224049],[0.4986033,0.9162621,-0.3268811,0.9392524,0.9954724]],[[-0.8218894,-0.135765,0.3773176,-0.4547795,0.4760809,0.8118804,-0.2602733,0.9943349,-0.1315223,-0.1252962,-0.519479,-0.4801115,0.1973203,-0.7730415,0.6342947,-0.6468668],[-0.4485043,0.4613049,0.9200613,0.4731421,-0.9684465,-0.5459428,0.8691759,-0.3146032,-0.493369,-0.207702,0.1926306,-0.03124845,0.1026226,-0.6272137,-0.5690122,0.5805748],[-0.4132408,0.7673059,-0.2101024,0.3231928,-0.1042312,-0.1841553,-0.6596262,0.6736951,-0.6180437,-0.0989095,0.7676628,-0.7043824,-0.7402673,-0.2983953,-0.4346603,-0.1224049],[0.4986033,0.9162621,-0.3268811,0.9392524,0.9954724]],[[-0.8218894,-0.135765,0.3773176,-0.4547795,0.4760809,0.8118804,-0.2602733,0.9943349,-0.1315223,-0.1252962,-0.519479,-0.5324626,0.1973203,-0.7730415,0.6342947,-0.6468668],[-0.4485043,0.4613049,0.9200613,0.4731421,-0.9684465,-0.5459428,-0.2629164,-0.3146032,-0.493369,0.169928,0.1926306,-0.03124845,0.1026226,-0.6272137,-0.5690122,0.5805748],[-0.4132408,0.7673059,-0.2101024,0.3231928,-0.1042312,-0.1841553,-0.6596262,-0.6860182,-0.6180437,0.7821131,0.7676628,-0.7043824,-0.7402673,-0.2983953,-0.4346603,-0.1224049],[0.4986033,0.9162621,-0.3268811,0.9392524,0.9954724]],[[-0.8218894,-0.135765,0.3773176,-0.4547795,0.4760809,0.8118804,-0.2602733,0.9943349,-0.1315223,-0.1252962,-0.519479,-0.4801115,0.1973203,-0.7730415,0.6342947,-0.6468668],[-0.4485043,0.4613049,0.9200613,0.4731421,-0.9684465,-0.5459428,0.8691759,-0.3146032,-0.493369,-0.207702,0.1926306,-0.03124845,0.1026226,-0.6272137,-0.5690122,0.5805748],[-0.4132408,0.7673059,-0.2101024,0.3231928,-0.1042312,-0.1841553,-0.6596262,0.6736951,-0.6180437,-0.0989095,0.7676628,-0.7043824,-0.7402673,-0.2983953,-0.4346603,-0.1224049],[0.4986033,0.9162621,-0.3268811,0.9392524,0.9954724]],[[-0.8218894,-0.135765,0.3773176,-0.4547795,0.4760809,0.8118804,-0.1764261,0.9943349,-0.1315223,-0.1252962,-0.519479,-0.5324626,0.1973203,-0.7730415,0.6342947,-0.6468668],[-0.4485043,0.4613049,0.9200613,0.4731421,-0.9684465,-0.5459428,-0.2629164,-0.3146032,-0.493369,0.169928,0.1926306,-0.03124845,0.1026226,-0.6272137,-0.5690122,0.5805748],[-0.4132408,0.7673059,-0.2101024,0.3231928,-0.1042312,-0.1841553,-0.6596262,0.6736951,-0.6180437,-0.0989095,0.7676628,-0.7043824,-0.7402673,-0.2983953,-0.4346603,-0.1224049],[0.4986033,0.9162621,-0.3268811,0.9392524,0.9954724]],[[-0.8218894,-0.135765,0.3773176,-0.4547795,0.4760809,0.8118804,-0.2602733,0.9943349,-0.1315223,-0.1252962,-0.519479,-0.5324626,0.1973203,-0.7730415,0.6342947,-0.6468668],[-0.4485043,0.4613049,0.9200613,0.4731421,-0.9684465,-0.5459428,0.8691759,-0.3146032,-0.493369,-0.207702,0.1926306,-0.03124845,0.1026226,-0.6272137,-0.5690122,0.5805748],[-0.4132408,0.7673059,-0.2101024,0.3231928,-0.1042312,-0.1841553,-0.9007261,0.6736951,-0.6180437,-0.0989095,0.7676628,-0.7043824,-0.7402673,-0.2983953,-0.4346603,-0.1224049],[0.4986033,0.9162621,-0.3268811,0.9392524,0.9954724]],[[-0.8218894,-0.135765,0.3773176,-0.4547795,0.4760809,0.8118804,-0.2602733,0.9943349,-0.1315223,-0.1252962,-0.519479,-0.5324626,0.1973203,-0.7730415,0.6342947,-0.6468668],[-0.4485043,0.4613049,0.9200613,0.4731421,-0.9684465,-0.5459428,0.8691759,-0.3146032,-0.493369,-0.207702,-0.4077893,-0.03124845,0.1026226,-0.6272137,-0.5690122,0.5805748],[-0.4132408,0.7673059,-0.2101024,0.3231928,-0.1042312,-0.1841553,-0.6596262,0.6736951,-0.6180437,-0.0989095,0.7676628,-0.7043824,-0.7402673,-0.2983953,-0.4346603,-0.1224049],[0.4986033,0.9162621,-0.3268811,0.9392524,0.9954724]],[[-0.8218894,-0.135765,0.3773176,-0.4547795,0.4760809,0.8118804,-0.2602733,0.9943349,-0.1315223,-0.1252962,-0.519479,-0.5324626,0.1973203,-0.7730415,0.6342947,-0.6468668],[-0.4485043,0.4613049,0.9200613,0.4731421,-0.9684465,-0.5459428,0.8691759,-0.3146032,-0.493369,-0.207702,0.1926306,-0.03124845,0.1026226,-0.6272137,-0.5690122,0.5805748],[-0.4132408,0.7673059,-0.2101024,0.3231928,-0.1042312,-0.1841553,-0.6596262,0.6736951,-0.6180437,-0.0989095,0.7676628,-0.4055189,-0.7402673,-0.2983953,-0.4346603,-0.1224049],[0.4986033,0.9162621,-0.8519619,0.9392524,0.9954724]],[[-0.8218894,-0.135765,0.3773176,-0.4547795,0.4760809,0.8118804,-0.2602733,0.9943349,-0.1315223,-0.1252962,-0.519479,-0.5324626,0.1973203,-0.7730415,0.6342947,-0.6468668],[-0.4485043,0.4613049,0.9200613,0.4731421,-0.9684465,-0.5459428,-0.2629164,-0.3146032,-0.493369,0.169928,0.1926306,-0.03124845,0.1026226,-0.6272137,-0.5690122,0.5805748],[-0.4132408,0.7673059,-0.2101024,0.3231928,-0.1042312,-0.1841553,-0.6596262,0.6736951,-0.6180437,-0.0989095,0.7676628,-0.7043824,-0.7402673,-0.2983953,0.3453028,-0.1224049],[0.4986033,0.9162621,-0.3268811,0.9392524,0.9954724]],[[-0.8218894,-0.135765,0.3773176,-0.4547795,0.4760809,0.8118804,-0.2602733,0.413249,-0.1315223,-0.1252962,-0.519479,-0.5324626,0.1973203,-0.7730415,0.6342947,-0.6468668],[-0.07980859,0.4613049,0.9200613,0.4731421,-0.9684465,-0.5459428,-0.2629164,-0.3146032,-0.493369,0.169928,0.1926306,-0.03124845,0.1026226,-0.6272137,-0.5690122,0.5805748],[-0.4132408,0.7673059,-0.2101024,0.3231928,-0.1042312,-0.1841553,-0.6596262,0.6736951,-0.6180437,0.5313997,0.7676628,-0.7043824,-0.7402673,-0.2983953,-0.4346603,-0.1224049],[0.4986033,0.9162621,-0.3268811,0.9392524,0.9954724]],[[-0.8218894,-0.135765,0.3773176,-0.4547795,0.4760809,0.8118804,-0.2602733,0.9943349,-0.1315223,-0.1252962,-0.519479,-0.5324626,0.1973203,-0.7730415,0.6342947,-0.6468668],[-0.4485043,0.4613049,0.9200613,0.4731421,-0.9684465,-0.5459428,0.8691759,-0.3146032,-0.493369,-0.207702,0.1926306,-0.03124845,0.1026226,-0.6272137,-0.5690122,0.5805748],[-0.4132408,0.7673059,-0.2101024,0.3231928,-0.1042312,-0.1841553,-0.6596262,0.6736951,-0.6180437,-0.0989095,0.7676628,-0.7043824,-0.7402673,-0.2983953,-0.4346603,-0.1224049],[0.4986033,0.9162621,-0.3268811,0.9392524,0.9954724]],[[-0.8218894,-0.135765,0.3773176,-0.4547795,0.4760809,0.8118804,-0.2602733,0.9943349,-0.1315223,-0.1252962,-0.519479,-0.5324626,0.1973203,-0.7730415,0.6342947,-0.6468668],[-0.4485043,0.4613049,0.9200613,0.4731421,-0.9684465,-0.5459428,0.8691759,-0.3146032,-0.493369,-0.207702,0.1926306,-0.03124845,0.1026226,-0.6272137,-0.5690122,0.5805748],[-0.4132408,0.7673059,-0.2101024,0.3231928,-0.1042312,-0.1841553,-0.6596262,0.6736951,-0.6180437,-0.0989095,0.7676628,-0.7043824,-0.7402673,-0.2983953,-0.4346603,-0.1224049],[0.4986033,0.9162621,-0.3268811,0.9392524,0.9954724]],[[-0.8218894,-0.135765,0.3773176,-0.4547795,0.4760809,0.8118804,-0.2602733,0.9943349,-0.1315223,-0.1252962,-0.519479,-0.5324626,0.1973203,-0.7730415,0.6342947,-0.6468668],[-0.4485043,0.4613049,0.9200613,0.4731421,-0.9684465,-0.5459428,0.8691759,-0.3146032,-0.493369,-0.207702,0.1926306,-0.03124845,0.1026226,-0.6272137,-0.5690122,0.5805748],[-0.4132408,0.7673059,-0.2101024,0.3231928,-0.1042312,-0.1841553,-0.6596262,0.6736951,-0.6180437,-0.0989095,0.7676628,-0.7043824,-0.7402673,-0.2983953,-0.4346603,-0.1224049],[0.4986033,0.9162621,-0.3268811,0.9392524,0.9954724]],[[-0.8218894,-0.135765,0.3773176,-0.4547795,0.4760809,0.8118804,-0.2602733,0.9943349,-0.1315223,-0.1252962,-0.519479,-0.5324626,0.1973203,-0.7730415,0.6342947,-0.6468668],[-0.4485043,0.4613049,0.9200613,0.4731421,-0.9684465,-0.5459428,0.8691759,-0.3146032,-0.493369,-0.207702,0.1926306,-0.03124845,0.1026226,-0.6272137,-0.5690122,0.5805748],[-0.4132408,0.7673059,-0.2101024,0.3231928,-0.1042312,-0.1841553,-0.6596262,0.6736951,-0.6180437,-0.0989095,0.7676628,-0.7043824,-0.7402673,-0.2983953,-0.4346603,-0.1224049],[0.4986033,0.9162621,-0.3268811,0.9392524,0.9954724]],[[-0.8218894,-0.135765,0.3773176,-0.4547795,0.4760809,0.8118804,-0.2602733,0.9943349,-0.1315223,-0.1252962,-0.519479,-0.5324626,0.1973203,-0.7730415,0.6342947,-0.6468668],[-0.4485043,0.4613049,0.9200613,0.4731421,-0.9684465,-0.5459428,-0.2629164,-0.3146032,-0.493369,0.169928,0.1926306,-0.03124845,0.1026226,-0.6272137,-0.5690122,0.5805748],[-0.4132408,0.7673059,-0.2101024,0.3231928,-0.1042312,-0.1841553,-0.6596262,-0.6860182,-0.6180437,0.7821131,0.7676628,-0.7043824,-0.7402673,-0.2983953,-0.4346603,-0.1224049],[0.4986033,0.9162621,-0.3268811,0.9392524,0.9954724]],[[-0.8218894,-0.135765,0.3773176,-0.4547795,0.4760809,0.8118804,-0.2602733,0.9943349,-0.1315223,-0.1252962,-0.519479,-0.5324626,0.1973203,-0.7730415,0.6342947,-0.6468668],[-0.4485043,0.4613049,0.9200613,0.4731421,-0.9684465,-0.5459428,0.8691759,-0.3146032,-0.493369,-0.207702,0.1926306,-0.03124845,0.1026226,-0.6272137,-0.5690122,0.5805748],[-0.4132408,0.7673059,-0.2101024,0.3231928,-0.1042312,-0.1841553,-0.6596262,0.6736951,-0.6180437,-0.0989095,0.7676628,-0.7043824,-0.7402673,-0.2983953,-0.4346603,-0.1224049],[0.4986033,0.9162621,-0.3268811,0.9392524,0.9954724]],[[-0.8218894,-0.135765,0.3773176,-0.4547795,0.4760809,0.8118804,-0.2602733,0.9943349,-0.1315223,-0.1252962,-0.519479,-0.5324626,0.1973203,-0.7730415,0.6342947,-0.6468668],[-0.4485043,0.4613049,0.9200613,0.4731421,-0.9684465,-0.5459428,0.8691759,-0.3146032,-0.493369,-0.207702,0.1926306,-0.03124845,0.1026226,-0.6272137,-0.5690122,0.5805748],[-0.4132408,0.7673059,-0.2101024,0.3231928,-0.1042312,-0.1841553,-0.6596262,0.6736951,-0.6180437,-0.0989095,0.7676628,-0.7043824,-0.7402673,-0.2983953,-0.4346603,-0.1224049],[0.4986033,0.9162621,-0.3268811,0.9392524,0.9954724]],[[-0.8218894,-0.135765,0.3773176,-0.4547795,0.4760809,0.8118804,-0.2602733,0.9943349,-0.1315223,-0.1252962,-0.519479,-0.5324626,0.1973203,-0.7730415,0.6342947,-0.6468668],[-0.4485043,0.4613049,0.9200613,0.4731421,-0.9684465,-0.5459428,0.8691759,-0.3146032,-0.493369,-0.207702,0.1926306,-0.03124845,0.1026226,-0.6272137,-0.5690122,0.5805748],[-0.4132408,0.7673059,-0.2101024,0.3231928,-0.1042312,-0.1841553,-0.6596262,0.6736951,-0.6180437,-0.0989095,0.7676628,-0.7043824,-0.7402673,-0.2983953,-0.4346603,-0.1224049],[0.4986033,0.9162621,-0.3268811,0.9392524,0.9954724]],[[-0.8218894,-0.135765,0.3773176,-0.4547795,0.4760809,0.8118804,-0.2602733,0.9943349,-0.1315223,-0.1252962,-0.519479,-0.5324626,0.1973203,-0.7730415,0.6342947,-0.6468668],[-0.4485043,0.4613049,0.9200613,0.4731421,-0.9684465,-0.5459428,0.8691759,-0.3146032,-0.493369,-0.207702,0.1926306,-0.03124845,0.1026226,-0.6272137,-0.5690122,0.5805748],[-0.4132408,0.7673059,-0.2101024,0.3231928,-0.1042312,-0.1841553,-0.6596262,0.6736951,-0.6180437,-0.0989095,0.7676628,-0.7043824,-0.7402673,-0.2983953,-0.4346603,-0.1224049],[0.4986033,0.9162621,-0.3268811,0.9392524,0.9954724]],[[-0.8218894,-0.135765,0.3773176,-0.4547795,0.4760809,0.8118804,-0.1764261,0.9943349,-0.1315223,-0.1252962,-0.519479,-0.5324626,0.1973203,-0.7730415,0.6342947,-0.6468668],[-0.4485043,0.4613049,0.9200613,0.4731421,-0.9684465,-0.5459428,-0.2629164,-0.3146032,-0.493369,0.169928,0.1926306,-0.03124845,0.1026226,-0.6272137,-0.5690122,0.5805748],[-0.4132408,0.7673059,-0.2101024,0.3231928,-0.1042312,-0.1841553,-0.6596262,0.6736951,-0.6180437,-0.0989095,0.7676628,-0.7043824,-0.7402673,-0.2983953,-0.4346603,-0.1224049],[0.4986033,0.9162621,-0.3268811,0.9392524,0.9954724]],[[-0.8218894,-0.135765,0.3773176,-0.4547795,0.4760809,0.8118804,-0.2602733,0.9943349,-0.1315223,-0.1252962,-0.519479,-0.5324626,0.1973203,-0.7730415,0.6342947,-0.6468668],[-0.4485043,0.4613049,0.9200613,0.4731421,-0.9684465,-0.5459428,0.8691759,-0.3146032,-0.493369,-0.207702,0.1926306,-0.03124845,0.1026226,-0.6272137,-0.5690122,0.5805748],[-0.4132408,0.7673059,-0.2101024,0.3231928,-0.1042312,-0.1841553,-0.6596262,0.6736951,-0.6180437,-0.0989095,0.7676628,-0.7043824,-0.7402673,-0.2983953,-0.4346603,-0.1224049],[0.4986033,0.9162621,-0.3268811,0.9392524,0.9954724]],[[-0.8218894,-0.135765,0.3773176,-0.4547795,0.4760809,0.8118804,-0.2602733,0.9943349,-0.1315223,-0.1252962,-0.519479,-0.5324626,0.1973203,-0.7730415,0.6342947,-0.6468668],[-0.4485043,0.4613049,0.9200613,0.4731421,-0.9684465,-0.5459428,0.8691759,-0.3146032,-0.493369,-0.207702,0.1926306,-0.03124845,0.1026226,-0.6272137,-0.5690122,0.5805748],[-0.4132408,0.7673059,-0.2101024,0.3231928,-0.1042312,-0.1841553,-0.6596262,0.6736951,-0.6180437,-0.0989095,0.7676628,-0.7043824,-0.7402673,-0.2983953,-0.4346603,-0.1224049],[0.4986033,0.9162621,-0.3268811,0.9392524,0.9954724]],[[-0.8218894,-0.135765,0.3773176,-0.4547795,0.4760809,0.8118804,-0.2602733,0.9943349,-0.1315223,-0.1252962,-0.519479,-0.5324626,0.1973203,-0.7730415,0.6342947,-0.6468668],[-0.4485043,0.4613049,0.9200613,0.4731421,-0.9684465,-0.5459428,0.8691759,-0.3146032,-0.493369,-0.207702,0.1926306,-0.03124845,0.1026226,-0.6272137,-0.5690122,0.5805748],[-0.4132408,0.7673059,-0.2101024,0.3231928,-0.1042312,-0.1841553,-0.6596262,-0.8681395,-0.6180437,-0.0989095,0.7676628,-0.7043824,-0.7402673,-0.2983953,-0.4346603,-0.1224049],[0.4986033,0.9162621,-0.3268811,0.9392524,0.9954724]],[[-0.8218894,-0.135765,0.3773176,-0.4547795,0.4760809,0.8118804,-0.2602733,0.9943349,-0.1315223,-0.1252962,-0.519479,-0.5324626,0.1973203,-0.7730415,0.6342947,-0.6468668],[-0.4485043,0.4613049,0.9200613,0.4731421,-0.9684465,-0.5459428,0.8811321,-0.3146032,-0.493369,0.169928,0.1926306,-0.03124845,0.1026226,-0.6272137,-0.5690122,0.5805748],[-0.4132408,0.7673059,-0.2101024,0.3231928,-0.1042312,-0.1841553,-0.6596262,0.6736951,-0.6180437,-0.0989095,0.7676628,-0.7043824,-0.7402673,-0.2983953,-0.4346603,-0.1224049],[0.4986033,0.9162621,-0.3268811,0.9392524,0.9954724]],[[-0.8218894,-0.135765,0.3773176,-0.4547795,0.4760809,0.8118804,-0.2602733,0.9943349,-0.1315223,-0.1252962,-0.519479,-0.5324626,0.1973203,-0.7730415,0.6342947,-0.6468668],[-0.4485043,0.4613049,0.9200613,0.4731421,-0.9684465,-0.5459428,0.8691759,-0.3146032,-0.493369,-0.207702,0.1926306,-0.03124845,0.1026226,-0.6272137,-0.5690122,0.5805748],[-0.4132408,0.7673059,-0.2101024,0.3231928,-0.1042312,-0.1841553,-0.6596262,0.6736951,0.8152874,-0.0989095,0.7676628,-0.7043824,-0.7402673,-0.2983953,-0.4346603,-0.1224049],[0.4986033,0.9162621,-0.3268811,0.9392524,0.9954724]],[[-0.8218894,-0.135765,0.3773176,-0.4547795,0.4760809,0.8118804,-0.2602733,0.9943349,-0.1315223,-0.1252962,0.9511678,-0.5324626,0.1973203,-0.7730415,0.6342947,-0.6468668],[-0.4485043,0.4613049,0.9200613,0.4731421,-0.7152514,-0.5459428,0.8691759,-0.3146032,-0.493369,-0.207702,0.1926306,-0.03124845,0.1026226,-0.6272137,-0.5690122,0.5805748],[-0.4132408,0.7673059,-0.2101024,0.3231928,-0.6278982,-0.1841553,-0.6596262,0.6736951,-0.6180437,-0.0989095,0.7676628,-0.7043824,-0.7402673,-0.2983953,-0.4346603,-0.1224049],[0.4986033,0.9162621,-0.3268811,0.9392524,0.9954724]],[[-0.8218894,-0.135765,0.3773176,-0.4547795,0.4760809,-0.395137,-0.2602733,0.9943349,-0.1315223,-0.5107427,-0.519479,-0.5324626,0.1973203,-0.7730415,0.6342947,-0.6468668],[-0.4485043,0.4613049,0.9200613,0.4731421,0.50752,-0.5459428,-0.2629164,-0.3146032,-0.493369,0.169928,0.1926306,-0.03124845,0.1026226,-0.6272137,-0.5690122,0.5805748],[-0.4132408,0.7673059,-0.2101024,0.3231928,-0.1042312,-0.1841553,-0.6596262,0.6736951,-0.6180437,-0.0989095,0.7676628,-0.7043824,-0.7402673,-0.2983953,-0.4346603,-0.1224049],[0.4986033,0.9162621,-0.3268811,0.9392524,0.9954724]],[[-0.8218894,-0.135765,0.3773176,-0.4547795,0.4760809,0.8118804,-0.2602733,0.9943349,-0.1315223,-0.1252962,-0.519479,-0.5324626,0.1973203,-0.7730415,0.6342947,-0.6468668],[-0.4485043,0.4613049,0.9200613,0.4731421,-0.9684465,-0.5459428,0.218455,-0.3146032,-0.493369,-0.207702,0.1926306,-0.03124845,0.1026226,-0.6272137,-0.5690122,0.5805748],[-0.4132408,0.7673059,-0.2101024,0.3231928,-0.1042312,-0.1841553,-0.6596262,0.6736951,-0.6180437,-0.0989095,0.7676628,-0.7043824,-0.7402673,-0.2983953,-0.4346603,-0.1224049],[0.4986033,0.9162621,-0.3268811,0.9392524,0.9954724]],[[-0.8218894,-0.135765,0.3773176,-0.4547795,0.4760809,0.8118804,-0.2602733,0.9943349,-0.1315223,-0.1252962,-0.519479,-0.5324626,0.1973203,-0.7730415,0.6342947,-0.6468668],[-0.4485043,0.4613049,0.9200613,0.4731421,-0.9684465,-0.5459428,0.8691759,-0.3146032,-0.493369,-0.207702,0.1926306,-0.03124845,0.1026226,-0.6272137,-0.5690122,0.5805748],[-0.4132408,0.7673059,-0.2101024,0.3231928,-0.1042312,-0.1841553,-0.6596262,0.6736951,-0.6180437,-0.0989095,0.7676628,-0.7043824,-0.7402673,-0.2983953,-0.4346603,-0.1224049],[0.4986033,0.9162621,-0.3268811,0.9392524,0.9954724]],[[-0.8218894,-0.135765,0.3773176,-0.4547795,0.4760809,0.8118804,-0.2602733,0.9943349,-0.1315223,-0.1252962,-0.519479,-0.5324626,0.1973203,-0.7730415,0.6342947,-0.6468668],[-0.4485043,0.4613049,0.9200613,0.4731421,-0.9684465,-0.5459428,0.8691759,-0.3146032,-0.493369,-0.207702,0.1926306,-0.03124845,0.1026226,-0.6272137,-0.5690122,0.5805748],[-0.4132408,0.7673059,-0.2101024,0.3231928,-0.1042312,-0.1841553,-0.6596262,0.6736951,-0.6180437,-0.0989095,0.7676628,-0.7043824,-0.7402673,-0.2983953,-0.4346603,-0.1224049],[0.4986033,0.9162621,-0.3268811,0.9392524,0.9954724]],[[-0.8218894,-0.135765,0.3773176,-0.4547795,0.4760809,0.8118804,-0.2602733,0.9943349,-0.1315223,-0.1252962,-0.519479,-0.5324626,0.1973203,-0.7730415,0.6342947,-0.6468668],[-0.4485043,0.4613049,0.9200613,0.4731421,-0.9684465,-0.5459428,0.8691759,-0.3146032,-0.493369,-0.207702,0.1926306,-0.03124845,0.1026226,-0.6272137,-0.5690122,0.5805748],[-0.4132408,0.7673059,-0.2101024,0.3231928,-0.1042312,-0.1841553,-0.6596262,0.6736951,-0.6180437,-0.0989095,0.7676628,-0.7043824,-0.7402673,-0.2983953,-0.4346603,-0.1224049],[0.4986033,0.9162621,-0.3268811,0.9392524,0.9954724]],[[-0.8218894,-0.135765,0.3773176,-0.4547795,0.4760809,0.8118804,-0.2602733,0.9943349,-0.1315223,-0.1252962,-0.519479,-0.5324626,0.1973203,-0.7730415,0.6342947,-0.6468668],[-0.4485043,0.4613049,0.9200613,0.4731421,-0.9684465,-0.5459428,0.8691759,-0.3146032,-0.493369,-0.207702,0.1926306,-0.03124845,0.1026226,-0.6272137,-0.5690122,0.5805748],[-0.4132408,0.7673059,-0.2101024,0.3231928,-0.1042312,-0.1841553,-0.6596262,0.6736951,-0.6180437,-0.0989095,0.7676628,-0.7043824,-0.7402673,-0.2983953,-0.4346603,-0.1224049],[0.4986033,0.9162621,-0.3268811,0.9392524,0.9954724]],[[-0.8218894,-0.135765,0.3773176,-0.4547795,0.4760809,0.8118804,-0.2602733,0.9943349,-0.1315223,-0.1252962,-0.519479,-0.5324626,0.1973203,-0.7730415,0.6342947,-0.6468668],[-0.4485043,0.4613049,0.9200613,0.4731421,-0.9684465,-0.5459428,0.8691759,-0.3146032,-0.493369,-0.207702,0.1926306,-0.03124845,0.1026226,-0.6272137,-0.5690122,0.5805748],[-0.4132408,0.7673059,-0.2101024,0.3231928,-0.1042312,-0.1841553,-0.6596262,0.6736951,-0.6180437,-0.0989095,0.7676628,-0.7043824,-0.7402673,-0.2983953,-0.4346603,-0.1224049],[0.4986033,0.9162621,-0.3268811,0.9392524,0.9954724]],[[-0.8218894,-0.135765,0.3773176,-0.4547795,0.4760809,0.8118804,-0.2602733,0.9943349,-0.1315223,-0.1252962,-0.519479,-0.5324626,0.1973203,-0.7730415,0.6342947,-0.6468668],[-0.4485043,0.4613049,0.9200613,0.4731421,-0.9684465,-0.5459428,0.8691759,-0.3146032,-0.493369,-0.207702,0.1926306,-0.03124845,0.1026226,-0.6272137,-0.5690122,0.5805748],[-0.4132408,0.7673059,-0.2101024,0.3231928,-0.1042312,-0.1841553,-0.6596262,0.6736951,-0.6180437,-0.0989095,0.7676628,-0.7043824,-0.7402673,-0.2983953,-0.4346603,-0.1224049],[0.4986033,0.9162621,-0.3268811,0.9392524,0.9954724]],[[-0.8218894,-0.135765,0.3773176,-0.4547795,0.4760809,0.7489717,-0.2602733,0.9943349,-0.1315223,-0.1252962,-0.519479,-0.5324626,0.1973203,0.9768636,0.6342947,-0.6468668],[-0.4485043,0.4613049,0.9200613,0.4731421,-0.9684465,-0.5459428,0.8691759,-0.3146032,-0.493369,-0.207702,0.1926306,-0.03124845,0.1026226,-0.6272137,-0.5690122,0.5805748],[-0.4132408,0.7673059,-0.2101024,0.3231928,-0.1042312,-0.1841553,-0.6596262,0.6736951,-0.6180437,-0.0989095,0.7676628,-0.7043824,-0.7402673,-0.2983953,-0.4346603,-0.1224049],[0.4986033,0.9162621,-0.3268811,0.9392524,0.9954724]],[[-0.8218894,-0.135765,0.3773176,-0.4547795,0.4760809,0.8118804,-0.2602733,0.9943349,-0.1315223,-0.1252962,-0.519479,-0.5324626,0.1973203,-0.7730415,0.6342947,-0.6468668],[-0.4485043,0.4613049,0.9200613,0.4731421,-0.9684465,-0.5459428,0.8691759,-0.3146032,-0.493369,-0.207702,0.1926306,-0.3789314,0.1026226,-0.6272137,-0.5690122,0.5805748],[-0.4132408,0.7673059,-0.2101024,0.3231928,-0.1042312,-0.1841553,-0.9007261,0.6736951,-0.6180437,-0.0989095,0.7676628,-0.7043824,-0.7402673,-0.2983953,-0.4346603,-0.1224049],[0.4986033,0.9162621,-0.3268811,0.9392524,0.9954724]],[[-0.8218894,-0.135765,0.3773176,-0.4547795,0.4760809,0.8118804,-0.2602733,0.9943349,-0.1315223,-0.1252962,-0.519479,-0.5324626,0.1973203,-0.7730415,0.6342947,-0.6468668],[-0.4485043,0.4613049,0.9200613,0.4731421,-0.9684465,-0.5459428,0.8691759,-0.3146032,-0.493369,-0.207702,0.1926306,-0.03124845,0.1026226,-0.6272137,-0.5690122,0.5805748],[-0.4132408,0.7673059,-0.2101024,0.3231928,-0.1042312,-0.1841553,-0.6596262,0.6736951,-0.6180437,-0.0989095,0.7676628,-0.7043824,-0.7402673,-0.2983953,-0.4346603,-0.1224049],[0.4986033,0.9162621,-0.3268811,0.9392524,0.9954724]],[[-0.8218894,-0.135765,0.3773176,-0.4547795,0.4760809,0.8118804,-0.2602733,0.9943349,-0.1315223,-0.1252962,-0.519479,-0.5324626,0.1973203,-0.7730415,0.6342947,-0.6468668],[-0.4485043,0.4613049,0.9200613,0.4731421,-0.9684465,-0.5459428,-0.2532667,-0.3146032,-0.493369,-0.207702,0.1926306,-0.03124845,0.1026226,-0.6272137,-0.5690122,0.5805748],[-0.4132408,0.7673059,-0.2101024,0.3231928,-0.1042312,-0.1841553,-0.6596262,0.6736951,-0.6180437,-0.0989095,0.7676628,-0.7043824,-0.7402673,-0.2983953,-0.4346603,-0.1224049],[0.4986033,0.9162621,-0.3268811,0.9392524,0.9954724]],[[-0.8218894,-0.135765,0.3773176,-0.4547795,0.4760809,0.8118804,-0.2602733,0.9943349,-0.1315223,-0.1252962,-0.519479,-0.5324626,0.1973203,-0.7730415,0.6342947,-0.6468668],[-0.4485043,0.4613049,0.4954848,0.4731421,-0.9684465,-0.5459428,0.8691759,-0.3575255,-0.493369,-0.207702,0.1926306,-0.03124845,0.1026226,-0.6272137,-0.5690122,0.5805748],[-0.4132408,0.7673059,-0.2101024,-0.06538665,-0.1042312,-0.1841553,-0.6596262,0.6736951,-0.6180437,-0.0989095,0.7676628,-0.7043824,-0.7402673,-0.2983953,-0.4346603,-0.1224049],[0.4986033,0.9162621,-0.3268811,0.9392524,0.9954724]],[[-0.8218894,-0.135765,0.3773176,-0.4547795,0.4760809,0.7489717,-0.2602733,0.9943349,-0.1315223,-0.1252962,-0.519479,-0.5324626,0.1973203,0.9768636,0.6342947,-0.6468668],[-0.4485043,0.4613049,0.9200613,0.4731421,-0.9684465,-0.5459428,0.8691759,-0.3146032,-0.493369,-0.207702,0.1926306,-0.03124845,0.1026226,-0.6272137,-0.5690122,0.5805748],[-0.4132408,0.7673059,-0.2101024,0.3231928,-0.1042312,-0.1841553,-0.6596262,0.6736951,-0.6180437,-0.0989095,0.7676628,-0.7043824,-0.7402673,-0.2983953,-0.4346603,-0.1224049],[0.4986033,0.9162621,-0.3268811,0.9392524,0.9954724]],[[-0.8218894,-0.135765,0.3773176,-0.4547795,0.4760809,0.8118804,-0.2602733,0.9943349,-0.1315223,-0.1252962,-0.519479,-0.5324626,0.1973203,-0.7730415,0.6342947,-0.6468668],[-0.4485043,0.4613049,0.9200613,0.4731421,-0.9684465,-0.5459428,0.8691759,-0.3146032,-0.493369,-0.207702,0.1926306,-0.03124845,0.1026226,-0.6272137,-0.5690122,0.5805748],[-0.4132408,0.7673059,-0.2101024,0.3231928,-0.1042312,-0.1841553,-0.004500747,0.6736951,-0.6180437,-0.0989095,0.005587935,-0.7043824,-0.7402673,-0.2983953,-0.4346603,-0.1224049],[0.4986033,0.9162621,-0.3268811,0.3815345,0.9954724]],[[-0.8218894,-0.135765,0.3773176,-0.4547795,0.4760809,0.8118804,-0.2602733,0.9943349,-0.1315223,-0.1252962,-0.519479,-0.5324626,0.1973203,-0.7730415,0.6342947,-0.6468668],[-0.4485043,0.4613049,0.9200613,0.4731421,-0.9684465,-0.5459428,0.8691759,-0.3146032,-0.493369,-0.207702,0.1926306,-0.03124845,0.1026226,-0.6272137,-0.5690122,0.5805748],[-0.4132408,0.7673059,-0.2101024,0.3231928,-0.1042312,-0.1841553,-0.6596262,0.6736951,-0.6180437,-0.0989095,0.7676628,-0.7043824,-0.7402673,-0.2983953,-0.4346603,-0.1224049],[0.4986033,0.9162621,-0.3268811,0.9392524,0.9954724]],[[-0.8218894,-0.135765,0.3773176,-0.4547795,0.4760809,0.8118804,-0.2602733,0.9943349,-0.1315223,-0.1252962,-0.519479,-0.5324626,0.1973203,-0.7730415,0.6342947,-0.6468668],[-0.4485043,0.4613049,0.9200613,0.4731421,-0.9684465,-0.5459428,0.8691759,-0.3146032,-0.493369,-0.8490157,0.1926306,-0.03124845,0.1026226,-0.6272137,-0.5690122,0.5805748],[-0.4132408,0.7673059,-0.2101024,-0.8971016,-0.1042312,-0.1841553,-0.6596262,0.6736951,-0.6180437,-0.0989095,0.7676628,-0.7043824,-0.7402673,-0.2983953,-0.4346603,-0.1224049],[0.4986033,0.9162621,-0.3268811,0.9392524,0.9954724]],[[-0.8218894,-0.135765,0.3773176,-0.4547795,0.4760809,0.8118804,-0.2602733,0.9943349,-0.1315223,-0.1252962,-0.519479,-0.5324626,0.1973203,-0.7730415,0.6342947,-0.6468668],[-0.4485043,0.4613049,0.9200613,0.4731421,-0.9684465,-0.5459428,0.8691759,-0.3146032,-0.493369,-0.207702,0.1926306,-0.03124845,0.1026226,-0.6272137,-0.5690122,0.5805748],[-0.4132408,0.7673059,-0.2101024,0.3231928,-0.1042312,-0.1841553,-0.6596262,0.6736951,-0.6180437,-0.0989095,0.7676628,-0.7043824,-0.7402673,-0.2983953,-0.4346603,-0.1224049],[0.4986033,0.9162621,-0.3268811,0.9392524,0.9954724]],[[-0.8218894,-0.135765,0.3773176,-0.4547795,0.4760809,0.8118804,-0.2602733,0.9943349,-0.1315223,-0.1252962,-0.519479,-0.5324626,0.1973203,-0.7730415,0.6342947,-0.6468668],[-0.4485043,0.4613049,0.9200613,0.4731421,-0.9684465,-0.5459428,0.8691759,-0.3146032,-0.493369,-0.207702,0.1926306,-0.03124845,0.1026226,-0.6272137,-0.5690122,0.5805748],[-0.4132408,0.7673059,-0.2101024,0.3231928,-0.1042312,-0.1841553,-0.6596262,0.6736951,-0.6180437,-0.0989095,0.7676628,-0.7043824,-0.7402673,-0.2983953,-0.4346603,-0.1224049],[0.4986033,0.9162621,-0.3268811,0.9392524,0.9954724]],[[-0.8218894,-0.135765,0.3773176,-0.4547795,0.4760809,0.8118804,-0.1764261,0.9943349,-0.1315223,-0.1252962,-0.519479,-0.5324626,0.763957,-0.7730415,0.6342947,-0.6468668],[-0.4485043,0.4613049,0.9200613,0.4731421,-0.9684465,-0.5459428,-0.2629164,-0.3146032,-0.493369,0.169928,0.1926306,-0.03124845,0.1026226,-0.6272137,-0.5690122,0.5805748],[-0.4132408,0.7673059,-0.2101024,0.3231928,-0.1042312,-0.1841553,-0.6596262,0.6736951,-0.6180437,-0.0989095,0.7676628,-0.7043824,-0.7402673,-0.2983953,-0.4346603,-0.1224049],[0.4986033,0.9162621,-0.3268811,0.9392524,0.9954724]],[[-0.8218894,-0.135765,0.3773176,-0.4547795,0.4760809,0.8118804,-0.2602733,0.9943349,-0.1315223,-0.1252962,-0.519479,-0.5324626,0.1973203,-0.7730415,0.6342947,-0.6468668],[-0.4485043,0.4613049,0.9200613,0.4731421,-0.9684465,-0.5459428,0.8691759,-0.3146032,-0.493369,-0.207702,0.1926306,-0.03124845,0.1026226,-0.6272137,-0.5690122,0.5805748],[-0.4132408,0.7673059,-0.2101024,0.3231928,-0.1042312,-0.1841553,-0.6596262,-0.520858,-0.6180437,-0.0989095,0.7676628,-0.7043824,-0.7402673,-0.2983953,-0.4346603,-0.1224049],[0.4986033,0.9162621,-0.3268811,0.9392524,0.9954724]],[[-0.8218894,-0.135765,0.3773176,-0.4547795,0.4760809,0.8118804,-0.2602733,0.9943349,-0.1315223,-0.1252962,-0.519479,-0.5324626,0.1973203,-0.7730415,0.6342947,-0.6468668],[-0.4485043,0.4613049,0.9200613,0.4731421,-0.9684465,-0.5459428,0.8691759,-0.3146032,-0.493369,-0.207702,0.1926306,-0.03124845,0.1026226,-0.6272137,-0.5690122,0.5805748],[-0.4132408,0.7673059,-0.2101024,0.3231928,-0.1042312,-0.1841553,-0.9007261,0.6736951,-0.6180437,-0.0989095,0.7676628,-0.7043824,-0.7402673,-0.2983953,-0.4346603,-0.1224049],[0.4986033,0.9162621,-0.3268811,0.9392524,0.9954724]],[[-0.8218894,-0.135765,0.3773176,-0.4547795,0.4760809,0.8118804,-0.2602733,0.9943349,-0.1315223,-0.1252962,-0.519479,-0.5324626,0.1973203,-0.7730415,0.6342947,-0.6468668],[-0.4485043,0.4613049,0.9200613,0.4731421,-0.9684465,-0.5459428,0.8691759,-0.3146032,-0.493369,-0.207702,0.1926306,-0.03124845,0.1026226,0.318922,-0.5690122,0.5805748],[-0.4132408,0.7673059,-0.2101024,0.3231928,-0.1042312,-0.1841553,-0.6596262,0.6736951,-0.6180437,-0.0989095,0.7676628,-0.7043824,-0.7402673,-0.2983953,-0.4346603,-0.1224049],[0.4986033,0.9162621,-0.3268811,0.9392524,0.9954724]],[[-0.8218894,-0.3611668,0.3773176,-0.4547795,0.4760809,0.8118804,-0.2602733,0.9943349,-0.1315223,-0.1252962,-0.519479,-0.5324626,0.4094894,-0.7730415,0.6342947,-0.6468668],[-0.4485043,0.4613049,0.9200613,0.4731421,-0.9684465,-0.5459428,-0.2629164,-0.3146032,0.4042017,0.169928,0.1926306,-0.03124845,0.1026226,-0.6272137,-0.5690122,0.5805748],[-0.4132408,0.7673059,-0.2101024,0.3231928,-0.1042312,-0.1841553,-0.6596262,-0.6860182,-0.6180437,0.7821131,0.7676628,-0.7043824,-0.7402673,-0.2983953,-0.4346603,-0.1224049],[0.4986033,0.9162621,-0.3268811,0.9392524,0.9954724]],[[-0.8218894,-0.135765,0.8901327,-0.4547795,0.4760809,0.8118804,-0.2602733,0.9943349,-0.1315223,-0.1252962,-0.519479,-0.5324626,0.1973203,-0.7730415,0.6342947,-0.6468668],[-0.4485043,0.4613049,0.9200613,-0.6048372,-0.9684465,-0.5459428,0.8691759,-0.3146032,-0.493369,-0.207702,0.1926306,-0.03124845,0.1026226,-0.2352253,-0.5690122,0.5805748],[-0.4132408,0.7673059,-0.2101024,0.3231928,-0.1042312,-0.1841553,-0.6596262,0.6736951,-0.6180437,-0.0989095,0.7676628,-0.7043824,-0.7402673,-0.2983953,-0.4346603,-0.1224049],[0.4986033,0.9162621,-0.3268811,0.9392524,0.9954724]],[[-0.8218894,-0.135765,0.3773176,-0.4547795,0.4760809,0.8118804,-0.2602733,0.9943349,-0.1315223,-0.1252962,-0.519479,-0.5324626,0.1973203,-0.7730415,0.6342947,-0.6468668],[-0.4485043,0.4613049,0.9200613,0.4731421,-0.9684465,-0.5459428,0.1959785,-0.3146032,-0.493369,-0.207702,0.1926306,-0.03124845,0.1026226,-0.6272137,-0.5690122,0.5805748],[-0.4132408,0.7673059,-0.2101024,0.3231928,-0.1042312,-0.1841553,-0.6596262,0.6736951,0.880856,-0.0989095,0.7676628,-0.7043824,-0.7402673,-0.2983953,-0.4346603,-0.1224049],[0.4986033,0.9162621,-0.3268811,0.8502903,0.9954724]],[[-0.8218894,-0.135765,0.3773176,-0.4547795,0.4760809,0.8118804,-0.2602733,0.9943349,-0.1315223,-0.1252962,-0.519479,-0.5324626,0.1973203,-0.7730415,0.6342947,-0.6468668],[-0.4485043,0.4613049,0.9200613,0.4731421,-0.9684465,-0.5459428,0.8691759,-0.3146032,-0.493369,-0.207702,-0.7127147,-0.03124845,0.1026226,-0.6272137,-0.5690122,0.5805748],[-0.4132408,0.7673059,-0.2101024,0.3231928,-0.1042312,-0.1841553,-0.6596262,0.6736951,-0.6180437,-0.0989095,0.7676628,-0.7043824,-0.7402673,-0.2983953,-0.4346603,-0.1224049],[0.4986033,0.9162621,-0.3268811,0.9392524,0.9954724]],[[-0.8218894,-0.135765,0.3773176,-0.4547795,0.4760809,0.8118804,-0.2602733,0.9943349,-0.1315223,-0.1252962,-0.519479,-0.5324626,0.1973203,-0.7730415,0.6342947,-0.6468668],[-0.4485043,0.4613049,0.9200613,0.4731421,-0.9684465,-0.5459428,-0.2629164,-0.3146032,-0.493369,0.169928,0.1926306,-0.03124845,0.1026226,-0.6272137,-0.5690122,0.5805748],[-0.4132408,0.7673059,-0.2101024,0.3231928,-0.1042312,-0.1841553,-0.6596262,0.6736951,-0.6180437,-0.0989095,0.7676628,-0.7043824,-0.7402673,-0.2983953,-0.4346603,0.05939186],[0.4986033,0.9162621,-0.3268811,0.9392524,0.9954724]],[[-0.8218894,-0.135765,0.3773176,-0.4547795,0.4760809,0.8118804,-0.2602733,0.9943349,-0.1315223,-0.1252962,-0.519479,-0.5324626,0.1973203,-0.7730415,0.6342947,-0.6468668],[-0.4485043,0.4613049,0.9200613,0.4731421,-0.9684465,-0.5459428,0.8691759,-0.3146032,-0.493369,-0.207702,0.1926306,-0.03124845,0.1026226,-0.6272137,-0.5690122,0.5805748],[-0.4132408,0.7673059,-0.2101024,0.3231928,-0.1042312,-0.1841553,-0.6596262,0.6736951,-0.6180437,-0.0989095,0.7676628,-0.7043824,-0.7402673,-0.2983953,-0.4346603,-0.1224049],[0.4986033,0.9162621,-0.3268811,0.9392524,0.9954724]],[[-0.8218894,-0.135765,0.3773176,-0.4547795,0.4760809,0.8118804,-0.2602733,0.9943349,-0.1315223,-0.1252962,-0.519479,0.915921,0.1973203,-0.7730415,0.6342947,-0.6468668],[-0.4485043,0.4613049,-0.4712387,0.4731421,-0.9684465,-0.5459428,0.8691759,-0.3146032,-0.493369,-0.207702,0.1926306,-0.03124845,0.1026226,-0.6272137,-0.5690122,0.5805748],[-0.4132408,0.7673059,-0.2101024,0.3231928,-0.1042312,-0.1841553,-0.6596262,0.6736951,-0.6180437,-0.0989095,0.7676628,-0.7043824,-0.7402673,-0.5255101,-0.4346603,-0.1224049],[0.4986033,0.9162621,-0.3268811,0.9392524,0.9954724]],[[-0.8218894,-0.135765,0.3773176,-0.9750724,0.4760809,0.8118804,-0.1764261,0.9943349,-0.1315223,-0.1252962,0.6441114,-0.5324626,0.1973203,-0.7730415,0.6342947,-0.6468668],[-0.4485043,0.4613049,0.9200613,-0.6357968,-0.9684465,-0.5459428,-0.2629164,-0.3146032,-0.493369,0.169928,0.1926306,-0.03124845,0.1026226,-0.6272137,-0.5690122,0.5805748],[-0.4132408,0.7673059,-0.2101024,0.3231928,-0.1042312,-0.1841553,-0.6596262,0.6736951,-0.6180437,-0.0989095,0.7676628,-0.7043824,-0.7402673,-0.2983953,-0.4346603,-0.1224049],[-0.7397134,0.9162621,-0.3268811,0.9392524,0.9954724]],[[-0.8218894,-0.135765,0.3773176,-0.4547795,0.4760809,0.8118804,-0.2602733,0.9943349,-0.1315223,-0.1252962,-0.519479,-0.5324626,0.1973203,-0.7730415,0.6342947,-0.6468668],[-0.4485043,0.4613049,0.9200613,0.4731421,-0.9684465,-0.5459428,0.8691759,-0.3146032,-0.493369,-0.207702,0.1926306,-0.03124845,0.1026226,-0.6272137,-0.5690122,0.5805748],[-0.4132408,0.7673059,-0.2101024,0.3231928,-0.1042312,-0.1841553,-0.6596262,0.6736951,-0.6180437,-0.0989095,0.7676628,-0.7043824,-0.7402673,-0.2983953,-0.4346603,-0.1224049],[0.4986033,0.9162621,-0.3268811,0.9392524,0.9954724]],[[0.4389658,-0.135765,0.3773176,-0.4547795,0.4760809,0.8118804,-0.2602733,0.9943349,-0.1315223,-0.1252962,-0.519479,-0.5324626,0.1973203,-0.7730415,0.6342947,-0.6468668],[-0.4485043,0.4613049,0.9200613,0.4731421,-0.9684465,-0.5459428,0.8691759,-0.3146032,-0.493369,-0.207702,0.1926306,-0.03124845,0.1026226,-0.6272137,-0.5690122,0.5805748],[-0.4132408,0.7673059,-0.2101024,0.3231928,-0.1042312,-0.1841553,-0.6596262,0.6736951,-0.6180437,-0.0989095,0.7676628,-0.7043824,-0.7402673,-0.2983953,-0.4346603,-0.1224049],[0.4986033,0.9162621,-0.3268811,0.9392524,0.9954724]],[[-0.8218894,-0.135765,0.3773176,-0.4547795,0.4760809,0.8118804,-0.2602733,0.9943349,-0.1315223,-0.1252962,-0.7712915,-0.5324626,0.1973203,-0.7730415,0.6342947,-0.6468668],[-0.4485043,0.4613049,0.9200613,0.4731421,-0.9684465,-0.5459428,0.8691759,-0.3146032,-0.493369,-0.207702,0.1926306,-0.03124845,0.1026226,-0.6272137,-0.5690122,0.5805748],[-0.4132408,0.7673059,-0.2101024,0.3231928,-0.1042312,-0.1841553,-0.6596262,0.6736951,-0.6180437,-0.0989095,0.7676628,-0.7043824,-0.7402673,-0.2983953,-0.4346603,-0.1224049],[0.4986033,0.9162621,-0.3268811,0.9392524,0.9954724]],[[-0.8218894,-0.135765,0.3773176,-0.4547795,0.4760809,0.8118804,-0.2602733,0.9943349,-0.1315223,-0.1252962,-0.519479,-0.5324626,0.1973203,-0.7730415,0.6342947,-0.6468668],[-0.4485043,0.4613049,0.9200613,0.4731421,-0.9684465,-0.5459428,0.8691759,-0.3146032,-0.493369,-0.207702,0.1926306,-0.03124845,0.523972,-0.6272137,-0.5690122,0.5805748],[-0.4132408,0.7673059,-0.2101024,0.3231928,-0.1042312,-0.1841553,-0.6596262,0.6736951,-0.6180437,-0.0989095,0.7676628,-0.7043824,-0.7402673,-0.2983953,-0.4346603,-0.1224049],[0.4986033,0.9162621,-0.3268811,0.9392524,0.9954724]],[[-0.8218894,-0.135765,0.3773176,-0.4547795,0.4760809,0.8118804,-0.2602733,0.9943349,-0.1315223,-0.1252962,-0.519479,-0.5324626,0.1973203,-0.7730415,0.6342947,-0.6468668],[-0.4485043,0.4613049,0.9200613,0.4731421,-0.9684465,-0.5459428,0.8691759,-0.3146032,-0.493369,-0.207702,0.1926306,-0.03124845,0.1026226,-0.6272137,-0.5690122,0.5805748],[-0.4132408,0.7673059,-0.2101024,0.3231928,-0.1042312,-0.1841553,-0.6596262,0.6736951,-0.6180437,-0.0989095,0.7676628,-0.7043824,-0.7402673,-0.2983953,-0.4346603,-0.1224049],[0.4986033,0.9162621,-0.3268811,0.9392524,0.9954724]],[[-0.8218894,-0.135765,0.3773176,-0.4547795,0.4760809,0.8118804,-0.2602733,0.9943349,-0.1315223,-0.1252962,-0.519479,-0.5324626,0.1973203,-0.7730415,0.6342947,-0.6468668],[-0.4485043,0.4613049,0.9200613,0.4731421,-0.9684465,-0.5459428,-0.2629164,-0.3146032,-0.493369,0.169928,0.1926306,-0.03124845,0.1026226,-0.6272137,-0.5690122,0.5805748],[-0.4132408,0.7673059,-0.2101024,0.3231928,-0.1042312,-0.1841553,-0.6596262,-0.6860182,-0.6180437,0.7821131,0.7676628,-0.7043824,-0.7402673,-0.2983953,-0.4346603,-0.1224049],[0.4986033,0.9162621,-0.3268811,0.9392524,0.9954724]],[[-0.8218894,-0.135765,0.3773176,-0.4547795,0.4760809,0.8118804,-0.2602733,0.9943349,-0.1315223,-0.1252962,-0.519479,-0.5324626,0.1973203,-0.7730415,0.6342947,-0.6468668],[-0.4485043,0.4613049,0.9200613,0.4731421,-0.9684465,-0.5459428,0.8691759,-0.3146032,-0.493369,-0.207702,0.1926306,-0.03124845,0.1026226,-0.6272137,-0.5690122,0.5805748],[-0.4132408,0.7673059,-0.2101024,0.3231928,-0.1042312,-0.1841553,-0.6596262,0.6736951,-0.6180437,-0.0989095,0.7676628,-0.7043824,-0.7402673,-0.2983953,-0.4346603,-0.1224049],[0.4986033,0.9162621,-0.3268811,0.9392524,0.9954724]],[[-0.8218894,-0.135765,0.3773176,-0.4547795,0.4760809,0.8118804,-0.2602733,0.9943349,-0.1315223,-0.1252962,-0.519479,-0.5324626,0.1973203,-0.7730415,0.6342947,-0.6468668],[-0.4485043,0.4613049,0.9200613,0.4731421,-0.9684465,-0.5459428,0.8691759,-0.3146032,-0.493369,-0.207702,0.1926306,-0.03124845,0.1026226,-0.6272137,-0.5690122,0.5805748],[-0.4132408,0.7673059,-0.2101024,0.3231928,-0.1042312,-0.1841553,-0.6596262,0.6736951,-0.6180437,0.8305805,0.7676628,0.3809964,-0.7402673,-0.2983953,-0.4346603,-0.1224049],[0.4986033,0.9162621,-0.3268811,0.9392524,0.9954724]],[[-0.8218894,-0.135765,0.3773176,-0.4547795,0.4760809,0.8118804,-0.2602733,0.9943349,-0.1315223,-0.1252962,-0.519479,-0.5324626,0.1973203,-0.7730415,0.6342947,-0.6468668],[-0.4485043,0.4613049,0.9200613,0.4731421,-0.9684465,-0.5459428,0.8691759,-0.3146032,-0.493369,-0.207702,0.1926306,-0.03124845,0.1026226,-0.6272137,-0.5690122,0.5805748],[-0.4132408,0.6681185,-0.2101024,0.3231928,-0.1042312,-0.1841553,-0.6596262,0.6736951,-0.6180437,-0.0989095,0.7676628,-0.7043824,-0.7402673,-0.2983953,-0.4346603,-0.1224049],[0.4986033,0.9162621,-0.3268811,0.9392524,0.9954724]],[[-0.8218894,-0.135765,0.3773176,-0.4547795,0.4760809,0.8118804,-0.2602733,0.9943349,-0.1315223,-0.1252962,-0.519479,-0.5324626,0.1973203,-0.7730415,-0.02466667,-0.6468668],[-0.4485043,0.4613049,0.9200613,0.4731421,-0.9684465,-0.5459428,0.8691759,-0.3146032,-0.493369,-0.207702,0.1926306,-0.03124845,0.1026226,-0.6272137,-0.5690122,0.5805748],[-0.4132408,0.7673059,-0.2101024,0.3231928,-0.1042312,-0.1841553,-0.6596262,0.6736951,-0.6180437,-0.0989095,0.7676628,-0.7043824,-0.7402673,-0.2983953,-0.4346603,-0.1224049],[0.4986033,0.9162621,-0.3268811,0.9392524,0.9954724]],[[-0.8218894,-0.135765,0.3773176,-0.4547795,0.4760809,0.8118804,-0.2602733,0.9943349,-0.1315223,-0.1252962,-0.519479,-0.5324626,0.1973203,-0.7730415,0.6342947,-0.6468668],[-0.4485043,0.4613049,0.9200613,0.4731421,-0.9684465,-0.5459428,0.8691759,-0.3146032,-0.493369,-0.207702,0.1926306,-0.03124845,0.1026226,-0.6272137,-0.5690122,0.5805748],[-0.4132408,0.7673059,-0.2101024,0.3231928,-0.1042312,-0.1841553,-0.6596262,0.6736951,-0.6180437,-0.0989095,0.7676628,-0.7043824,-0.7402673,-0.2983953,-0.4346603,-0.1224049],[0.4986033,0.9162621,-0.3268811,0.9392524,0.9954724]],[[-0.8218894,-0.135765,0.3773176,-0.4547795,0.4760809,0.8118804,-0.2602733,0.9943349,-0.1315223,-0.1252962,-0.519479,-0.5324626,0.1973203,-0.7730415,0.6342947,-0.6468668],[-0.4485043,0.4613049,0.9200613,0.4731421,-0.9684465,-0.5459428,0.8691759,-0.3146032,-0.493369,-0.207702,0.1926306,-0.03124845,0.1026226,-0.6272137,-0.5690122,0.5805748],[-0.4132408,0.7673059,-0.2101024,0.3231928,-0.1042312,-0.1841553,-0.6596262,0.6736951,-0.6180437,-0.0989095,0.7676628,-0.7043824,-0.7402673,-0.2983953,-0.4346603,-0.1224049],[0.4986033,0.9162621,-0.3268811,0.9392524,0.9954724]],[[-0.8218894,-0.135765,0.3773176,-0.4547795,0.4760809,0.8118804,-0.2602733,0.9943349,-0.1315223,-0.1252962,-0.519479,-0.5324626,0.1973203,-0.7730415,0.6342947,-0.6468668],[-0.4485043,0.4613049,0.9200613,0.4731421,-0.9684465,-0.5459428,0.8691759,-0.3146032,-0.493369,-0.207702,-0.4077893,-0.03124845,0.1026226,-0.6272137,-0.5690122,0.5805748],[-0.4132408,0.7673059,-0.2101024,0.4359767,-0.1042312,-0.1841553,-0.6596262,0.6736951,-0.6180437,-0.0989095,0.7676628,-0.7043824,-0.7402673,-0.2983953,-0.4346603,-0.1224049],[0.4986033,0.9162621,-0.3268811,0.9392524,0.9954724]],[[-0.8218894,-0.135765,0.3773176,-0.4547795,0.4760809,0.8118804,-0.2602733,0.9943349,-0.1315223,-0.1252962,-0.519479,-0.5324626,0.1973203,-0.7730415,0.6747658,-0.6468668],[-0.4485043,0.4613049,0.9200613,0.4731421,-0.9684465,-0.5459428,0.8691759,-0.3146032,-0.493369,-0.207702,0.1926306,-0.03124845,0.1026226,-0.6272137,-0.5690122,0.5805748],[-0.4132408,0.7673059,-0.2101024,0.3231928,-0.1042312,-0.1841553,-0.6596262,0.6736951,-0.6180437,-0.0989095,0.7676628,-0.7043824,-0.7402673,-0.2983953,-0.4346603,0.795521],[0.4986033,0.9162621,-0.3268811,0.9392524,0.9954724]],[[-0.8218894,-0.135765,0.3773176,-0.4547795,0.4760809,-0.2448419,-0.2602733,0.9943349,-0.1315223,-0.1252962,-0.519479,-0.5324626,0.1973203,-0.7730415,0.6342947,-0.6468668],[-0.4485043,0.4613049,0.9200613,0.4731421,-0.9684465,-0.5459428,0.8691759,-0.3146032,-0.493369,-0.207702,0.1926306,-0.03124845,0.1026226,-0.6272137,-0.5690122,0.5805748],[-0.4132408,0.7673059,-0.2101024,0.3231928,-0.1042312,-0.1841553,-0.6596262,0.6736951,-0.6180437,-0.1779064,0.7676628,-0.7043824,-0.7402673,-0.2983953,-0.4346603,-0.1224049],[0.4986033,0.9162621,-0.3268811,0.9392524,0.9954724]],[[-0.8218894,-0.135765,0.3773176,-0.4547795,0.4760809,0.8118804,-0.2602733,0.9943349,-0.1315223,-0.1252962,-0.519479,-0.5324626,0.1973203,-0.7730415,0.6342947,-0.6468668],[-0.4485043,0.4613049,0.9200613,0.4731421,-0.9684465,-0.5459428,0.8691759,-0.3146032,-0.493369,-0.207702,0.1926306,-0.03124845,0.1026226,-0.6272137,-0.5690122,0.5805748],[-0.4132408,0.7673059,-0.2101024,0.3231928,-0.1042312,-0.1841553,-0.6596262,0.6736951,-0.6180437,-0.0989095,0.7676628,-0.7043824,-0.7402673,-0.2983953,-0.4346603,-0.1224049],[0.4986033,0.9162621,-0.3268811,0.9392524,0.9954724]],[[-0.8218894,-0.135765,0.3773176,-0.4547795,0.4760809,0.8118804,-0.2602733,0.9943349,-0.1315223,-0.1252962,-0.519479,-0.4801115,0.1973203,-0.7730415,0.6342947,-0.6468668],[-0.4485043,0.4613049,0.9200613,0.4731421,-0.9684465,-0.5459428,0.8691759,-0.3146032,-0.493369,-0.207702,0.1926306,-0.03124845,0.1026226,-0.6272137,-0.5690122,0.5805748],[0.9878492,0.7673059,-0.2101024,0.3231928,-0.1042312,-0.1841553,-0.6596262,0.6736951,-0.6180437,-0.0989095,0.7676628,-0.7043824,-0.7402673,-0.2983953,-0.4346603,-0.1224049],[0.4986033,0.9162621,-0.3268811,0.9392524,0.9954724]],[[-0.8218894,-0.135765,0.3773176,-0.4547795,0.4760809,0.8118804,-0.2602733,0.9943349,-0.1315223,-0.1252962,-0.519479,-0.5324626,0.1973203,-0.7730415,0.6342947,-0.6468668],[0.6325395,0.4613049,0.9200613,0.4731421,-0.9684465,-0.5459428,0.8691759,-0.3146032,-0.493369,-0.207702,0.1926306,-0.03124845,0.1026226,-0.6272137,-0.5690122,0.5805748],[-0.4132408,0.7673059,-0.2101024,0.3231928,-0.1042312,-0.1841553,-0.6596262,0.6736951,-0.6180437,-0.0989095,0.7676628,-0.7043824,-0.7402673,-0.2983953,-0.4346603,-0.1224049],[0.4986033,0.9162621,-0.3268811,0.9392524,0.9954724]],[[-0.8218894,-0.135765,0.3773176,-0.4547795,0.4760809,0.8118804,-0.2602733,0.9943349,-0.1315223,-0.1252962,-0.519479,-0.5324626,0.1973203,-0.7730415,0.6342947,-0.6468668],[-0.4485043,0.4613049,0.9200613,0.4731421,-0.9684465,-0.5459428,0.8691759,-0.3146032,0.497184,-0.207702,0.1926306,-0.03124845,0.1026226,-0.6272137,-0.5690122,0.5805748],[-0.4132408,0.7673059,-0.2101024,0.3231928,-0.1042312,-0.1841553,-0.6596262,0.6736951,-0.6180437,-0.0989095,0.7676628,-0.7043824,-0.7402673,-0.2983953,-0.4346603,-0.1224049],[0.4986033,0.9162621,-0.3268811,0.9392524,0.9954724]],[[-0.8218894,-0.135765,0.3773176,-0.4547795,0.4760809,0.8118804,-0.2602733,0.9943349,-0.1315223,-0.1252962,-0.519479,-0.5324626,0.1973203,-0.7730415,0.6342947,0.03839934],[-0.4485043,0.4613049,0.9200613,0.4731421,-0.9684465,-0.5459428,-0.2629164,-0.3146032,-0.493369,0.169928,0.1926306,-0.03124845,0.1026226,-0.6272137,-0.5690122,0.5805748],[-0.4132408,0.7673059,-0.2101024,0.3231928,-0.1042312,-0.1841553,-0.6596262,-0.6860182,-0.6180437,0.7821131,0.7676628,-0.7043824,-0.7402673,-0.2983953,-0.4346603,-0.1224049],[0.4986033,0.9162621,-0.3268811,0.9392524,0.9954724]],[[-0.8218894,-0.135765,0.3773176,-0.4547795,0.4760809,0.8118804,-0.2602733,0.9943349,-0.1315223,-0.1252962,-0.519479,-0.5324626,0.1973203,-0.7730415,0.6342947,-0.6468668],[-0.4485043,0.4613049,0.9200613,0.4731421,-0.9684465,-0.5459428,0.8691759,-0.3146032,-0.493369,-0.207702,0.1926306,-0.03124845,0.1026226,-0.6272137,-0.5690122,0.5805748],[-0.4132408,0.7673059,-0.2101024,0.3231928,-0.1042312,-0.1841553,-0.6596262,0.6736951,-0.6180437,-0.0989095,0.7676628,-0.7043824,-0.7402673,-0.2983953,-0.4346603,-0.1224049],[0.4986033,0.9162621,-0.3268811,0.9392524,0.9954724]],[[-0.8218894,-0.135765,0.3773176,-0.4547795,0.4760809,0.8118804,-0.2602733,0.9943349,-0.1315223,-0.1252962,-0.519479,-0.5324626,0.1973203,-0.7730415,0.6342947,-0.6468668],[-0.4485043,0.4613049,0.9200613,0.4731421,-0.9684465,-0.5459428,0.8691759,-0.3146032,-0.493369,-0.207702,0.1926306,-0.03124845,0.1026226,-0.6272137,-0.5690122,0.5805748],[-0.4132408,0.7673059,-0.2101024,0.3231928,-0.1042312,-0.1841553,-0.6596262,0.6736951,-0.6180437,-0.0989095,0.7676628,-0.7043824,-0.7402673,-0.2983953,-0.4346603,-0.1224049],[0.4986033,0.9162621,-0.3268811,0.9392524,0.9954724]],[[-0.8218894,-0.135765,0.3773176,-0.4547795,0.4760809,0.8118804,-0.2602733,0.9943349,-0.1315223,-0.1252962,-0.519479,-0.5324626,0.1973203,-0.7730415,0.6342947,-0.6468668],[-0.4485043,0.4613049,0.9200613,0.4731421,-0.9684465,-0.5459428,0.8691759,-0.3146032,-0.493369,-0.207702,0.1926306,-0.03124845,0.731801,-0.6272137,-0.5690122,0.5805748],[-0.4132408,-0.1817142,-0.2101024,0.3231928,-0.1042312,-0.1841553,-0.6596262,0.6736951,-0.6180437,-0.0989095,0.7676628,-0.7043824,-0.7402673,-0.2983953,-0.4346603,-0.1224049],[0.4986033,0.9162621,-0.3268811,0.9392524,0.9954724]],[[-0.8218894,-0.135765,0.3773176,-0.4547795,0.4760809,0.8118804,-0.2602733,0.9943349,-0.1315223,-0.1252962,-0.519479,-0.5324626,0.1973203,-0.7730415,0.6342947,-0.6468668],[-0.4485043,0.4613049,0.9200613,0.4731421,-0.9684465,-0.5459428,0.8691759,-0.3146032,-0.493369,-0.207702,0.1926306,-0.03124845,0.1026226,-0.6272137,-0.5690122,0.5805748],[-0.4132408,0.7673059,-0.2101024,0.3231928,-0.1042312,-0.1841553,-0.6596262,0.6736951,-0.6180437,-0.0989095,0.7676628,-0.7043824,-0.7402673,-0.2983953,-0.4346603,-0.1224049],[0.4986033,0.9162621,-0.3268811,0.9392524,0.9954724]],[[-0.8218894,-0.135765,0.3773176,-0.4547795,0.4760809,0.8118804,-0.2602733,0.9943349,-0.1315223,-0.1252962,-0.519479,-0.5324626,0.1973203,-0.7730415,0.6342947,-0.6468668],[-0.4485043,0.4613049,0.9200613,0.4731421,-0.9684465,-0.5459428,0.8691759,-0.3146032,-0.493369,-0.207702,0.4097981,-0.03124845,0.1026226,-0.6272137,-0.5690122,0.5805748],[-0.4132408,0.7673059,-0.2101024,0.3231928,-0.1042312,-0.1841553,-0.6596262,0.6736951,-0.6180437,-0.0989095,0.7676628,-0.7043824,-0.7402673,-0.2983953,-0.4346603,-0.9642429],[0.4986033,-0.8038497,-0.3268811,0.9392524,0.9954724]],[[-0.8218894,-0.135765,0.3773176,-0.4547795,0.4760809,0.8118804,-0.2602733,0.9943349,-0.1315223,-0.1252962,-0.519479,-0.5324626,0.1973203,-0.7730415,0.6342947,-0.6468668],[-0.4485043,0.4613049,0.9200613,0.4731421,-0.9684465,-0.5459428,0.8691759,-0.3146032,-0.493369,-0.207702,0.1926306,-0.03124845,0.1026226,-0.6272137,-0.5690122,0.5805748],[-0.4132408,0.7673059,-0.2101024,0.3231928,-0.1042312,-0.1841553,-0.6596262,0.6736951,-0.6180437,-0.0989095,0.7676628,-0.7043824,-0.7402673,-0.2983953,-0.4346603,-0.1224049],[0.4986033,0.9162621,-0.3268811,0.9392524,0.9954724]],[[-0.8218894,-0.135765,0.3773176,-0.4547795,0.4760809,0.8118804,-0.2602733,0.9943349,-0.1315223,-0.1252962,-0.519479,-0.5324626,0.1973203,-0.7730415,0.6342947,-0.6468668],[-0.4485043,0.4613049,0.9200613,0.4731421,-0.9684465,-0.5459428,-0.2629164,-0.3146032,-0.493369,0.169928,0.1926306,-0.03124845,0.1026226,-0.6272137,-0.5690122,0.5805748],[-0.4132408,0.7673059,-0.2101024,0.3231928,-0.1042312,-0.1841553,-0.6596262,-0.6860182,-0.6180437,0.7821131,0.7676628,-0.7043824,-0.7402673,-0.2983953,-0.4346603,-0.1224049],[0.4986033,0.9162621,-0.3268811,0.9392524,0.9954724]],[[-0.8218894,0.4971885,0.3773176,-0.4547795,0.4760809,0.8118804,-0.2602733,0.9943349,-0.1315223,-0.1252962,-0.519479,-0.5324626,0.1973203,-0.7730415,0.6342947,-0.6468668],[-0.4485043,0.4613049,0.9200613,0.4731421,-0.9684465,-0.5459428,-0.2629164,-0.3146032,-0.493369,0.169928,0.1926306,-0.03124845,0.1026226,-0.6272137,-0.5690122,0.5805748],[-0.4132408,0.7673059,-0.2101024,0.3231928,-0.1042312,-0.3738216,-0.6596262,0.6736951,-0.6180437,-0.0989095,0.7676628,-0.7043824,-0.7402673,-0.2983953,-0.4346603,-0.1224049],[0.4986033,0.9162621,-0.3268811,0.9392524,0.9954724]],[[-0.8218894,0.2242578,0.3773176,-0.4547795,0.4760809,0.8118804,-0.2602733,0.9943349,-0.1315223,-0.1252962,-0.519479,-0.924705,0.1973203,-0.7730415,0.6342947,-0.6468668],[-0.4485043,0.4613049,0.9200613,0.4731421,-0.9684465,-0.5459428,-0.2629164,-0.3146032,-0.493369,0.169928,0.1926306,-0.03124845,0.1026226,-0.6272137,-0.5690122,0.5805748],[-0.4132408,0.7673059,-0.2101024,0.3231928,-0.1042312,-0.1841553,-0.6596262,0.6736951,-0.6180437,-0.0989095,0.7676628,-0.7043824,-0.7402673,0.08465827,-0.4346603,-0.7609487],[0.4986033,0.9162621,-0.3268811,0.9392524,0.9954724]],[[-0.8218894,-0.135765,0.3773176,-0.4547795,0.4760809,0.8118804,-0.2602733,0.9943349,-0.1315223,-0.1252962,-0.519479,-0.5324626,0.1973203,-0.7730415,0.6342947,-0.6468668],[-0.4485043,0.4613049,0.9200613,0.4731421,-0.9684465,-0.5459428,0.8691759,-0.3146032,-0.493369,-0.207702,0.1926306,-0.03124845,-0.2120506,-0.6272137,-0.5690122,0.5805748],[-0.4132408,0.7673059,-0.2101024,0.3231928,-0.1042312,-0.1841553,-0.6596262,0.6736951,-0.6180437,-0.0989095,0.7676628,-0.775099,-0.7402673,-0.2983953,-0.4346603,-0.1224049],[0.4986033,0.9162621,-0.3268811,0.9392524,0.9954724]],[[-0.8218894,-0.135765,0.3773176,-0.4547795,0.4760809,0.1413876,-0.2602733,0.9943349,-0.1315223,-0.1252962,-0.519479,-0.5324626,0.1973203,-0.7730415,0.6342947,-0.6468668],[-0.4485043,0.4613049,0.9200613,0.4731421,-0.9684465,-0.5459428,0.8691759,-0.3146032,-0.493369,-0.207702,0.1926306,-0.03124845,0.1026226,-0.6272137,-0.5690122,0.5805748],[-0.4132408,0.7673059,-0.2101024,0.3231928,-0.1042312,-0.1841553,-0.6596262,0.6736951,-0.6180437,-0.0989095,0.7676628,-0.7043824,-0.7402673,-0.2983953,-0.4346603,-0.1224049],[0.4986033,0.9162621,-0.3268811,0.9392524,0.9954724]],[[-0.8218894,-0.135765,0.3773176,-0.4547795,0.4760809,0.8118804,-0.2602733,0.9943349,-0.1315223,-0.1252962,-0.519479,-0.5324626,0.1973203,-0.7730415,0.6342947,-0.6468668],[-0.4485043,0.4613049,0.9200613,0.4731421,-0.9684465,-0.5459428,0.8691759,-0.3146032,-0.493369,-0.207702,0.1926306,-0.6049421,0.1026226,-0.6272137,-0.5690122,0.5805748],[-0.4132408,0.7673059,-0.2101024,0.3231928,-0.1042312,-0.1841553,-0.6596262,0.6736951,-0.6180437,-0.0989095,0.7676628,-0.7043824,-0.7402673,-0.2983953,-0.4346603,-0.1224049],[0.4986033,0.9162621,-0.3268811,0.9392524,0.9954724]],[[-0.8218894,-0.135765,0.3773176,-0.4547795,0.4760809,0.8118804,-0.2602733,0.9943349,-0.1315223,-0.1252962,-0.519479,-0.5324626,0.1973203,-0.7730415,0.6342947,-0.6468668],[-0.4485043,0.4613049,0.9200613,0.4731421,-0.9684465,-0.5459428,0.8691759,-0.3146032,-0.493369,-0.207702,0.1926306,-0.03124845,0.1026226,-0.6272137,-0.5690122,0.5805748],[-0.4132408,0.7673059,-0.2101024,0.3231928,-0.1042312,-0.1841553,-0.6596262,0.6736951,-0.6180437,-0.0989095,0.7676628,-0.7043824,-0.7402673,-0.2983953,-0.4346603,-0.1224049],[0.4986033,0.9162621,-0.3268811,0.9392524,0.9954724]],[[-0.8218894,-0.135765,0.3773176,-0.4547795,0.4760809,0.8118804,-0.2602733,0.9943349,-0.1315223,-0.1252962,-0.519479,-0.5324626,0.1973203,-0.7730415,0.6342947,-0.6468668],[-0.4485043,0.4613049,0.9200613,0.4731421,-0.9684465,-0.5459428,0.8691759,-0.3146032,-0.493369,-0.207702,0.1926306,-0.03124845,0.1026226,-0.6272137,-0.5690122,0.5805748],[-0.4132408,0.7673059,-0.2101024,0.3231928,-0.1042312,-0.1841553,-0.6596262,0.6736951,-0.6180437,-0.0989095,0.7676628,-0.7043824,-0.7402673,-0.2983953,-0.4346603,-0.1224049],[0.4986033,0.9162621,-0.3268811,0.9392524,0.9954724]],[[-0.8218894,-0.135765,0.3773176,-0.4547795,0.4760809,0.8118804,-0.2602733,0.9943349,-0.1315223,-0.1252962,-0.519479,-0.5324626,0.1973203,-0.7730415,0.6342947,-0.6468668],[-0.4485043,0.4613049,0.9200613,0.4731421,-0.9684465,-0.5459428,-0.2629164,-0.3146032,-0.493369,0.169928,0.1926306,-0.03124845,0.1026226,-0.6272137,0.0852834,0.5805748],[-0.4132408,0.7673059,-0.2101024,-0.1541589,-0.1042312,-0.1841553,-0.6596262,-0.6860182,-0.6180437,0.7821131,0.7676628,-0.7043824,-0.7402673,-0.2983953,-0.4346603,-0.1224049],[0.4986033,0.9162621,-0.3268811,0.9392524,0.9954724]],[[-0.8218894,-0.135765,0.3773176,-0.4547795,0.4760809,0.8118804,-0.2602733,0.9943349,-0.1315223,-0.467527,-0.519479,-0.5507579,0.1973203,-0.7730415,0.6342947,-0.6468668],[-0.4485043,0.4613049,0.9200613,0.4731421,-0.9684465,-0.5459428,0.8691759,-0.3146032,-0.493369,-0.207702,0.1926306,-0.03124845,0.1026226,-0.6272137,-0.5690122,0.5805748],[-0.4132408,0.7673059,-0.2101024,0.3231928,-0.1042312,-0.1841553,-0.6596262,0.6736951,-0.6180437,-0.0989095,0.7676628,-0.7043824,-0.7402673,-0.2983953,-0.4346603,-0.1224049],[0.4986033,0.9162621,-0.3268811,0.9392524,0.9954724]],[[-0.8218894,-0.135765,-0.9214752,-0.4547795,0.4760809,0.8118804,-0.2602733,0.9943349,-0.1315223,-0.2481869,-0.519479,-0.5324626,0.1973203,-0.7730415,0.6342947,-0.6468668],[-0.4485043,0.4613049,0.9200613,0.4731421,-0.9684465,-0.5459428,0.8691759,-0.3146032,-0.493369,-0.207702,0.1926306,-0.03124845,0.1026226,-0.6272137,-0.5690122,0.5805748],[-0.4132408,0.7673059,-0.2101024,0.3231928,-0.1042312,-0.1841553,-0.6596262,0.6736951,-0.6180437,-0.0989095,0.7676628,-0.7043824,-0.7402673,-0.2983953,-0.4346603,-0.1224049],[0.4986033,0.9162621,-0.3268811,0.9392524,0.9954724]]]