[[[0.03200662,-0.0618633,0.2085801,-0.4119624,-0.2077421,-0.3414956,-0.000944972,0.9949453,-0.6348324,0.2739103,-0.5470335,-0.8646393,0.3325312,0.8952191,0.3120916,0.6258075],[0.3011152,0.98511,0.5251746,0.09087217,0.714469,0.2405032,-0.9407063,-0.8515477,0.7555625,0.7183764,0.7455049,-0.3929678,0.4162807,-0.2190965,0.7083333,-0.8045115],[0.1472052,-0.9233301,-0.8541529,0.4654946,-0.636606,0.2138876,0.2616601,-0.824837,0.1356872,-0.6576171,0.9876676,-0.6275494,-0.3035201,-0.9003599,-0.2255415,0.9087598],[0.7970939,0.65447,-0.5371959,0.4984109,-0.168002,-0.9909072,0.004642129,0.9216201,-0.2948605,0.8180385,-0.9100747,0.7423728,-0.4446386,0.4697892,0.2566943,-0.08130753],[0.3345973,-0.3819159,0.1895207]],[[-0.5935018,0.4552369,0.9945509,-0.7416389,0.4011931,-0.02225244,-0.6069746,-0.7486846,0.06632817,-0.7132535,-0.704916,-0.5823181,0.4137306,-0.3592473,-0.1073228,-0.6226575],[-0.9969044,-0.9104266,-0.5891869,0.7934439,0.7920332,-0.2694942,-0.2053126,-0.3574661,-0.5144751,-0.715168,0.3512616,-0.5774181,0.9555542,-0.5659146,-0.9744244,-0.3855416],[0.4267316,-0.349393,0.4807098,0.436702,-0.5779443,0.8642662,-0.08855569,0.6726925,-0.5835853,-0.3342904,-0.584007,-0.2555856,0.07691634,-0.07109177,0.9470134,0.1933092],[0.1570581,-0.1633559,0.3329308,-0.6200879,0.2825565,0.8037746,0.4917531,0.3826558,-0.8947277,-0.5952215,-0.851383,-0.6542959,-0.8248813,0.2306329,-0.1203257,-0.6280935],[-0.5955439,-0.4620298,0.0438863]],[[-0.6385806,0.2844295,-0.6348815,0.2299122,-0.2510315,-0.5769997,0.2646982,0.9712608,-0.8468428,0.005367398,-0.4222871,-0.9857771,0.7487435,-0.7207937,0.6601181,-0.8880799],[0.5413778,-0.3955575,0.4754154,-0.2325033,-0.4368476,-0.4606029,0.5461164,-0.75808,-0.3901705,-0.5810759,-0.43358,0.7896957,0.7736483,0.3057925,-0.8795075,0.592025],[0.1580313,-0.599901,0.7372317,-0.8784046,-0.7811763,0.6255097,-0.4642886,0.501193,-0.879323,0.4274604,0.1054038,0.4297602,-0.3591973,-0.9483905,-0.8791094,0.640578],[0.04763877,0.09640205,0.4393303,0.7834487,-0.491727,-0.8169003,-0.3758813,-0.4352976,-0.8443027,0.5567923,0.6726167,-0.9513805,-0.7762628,0.02785528,-0.703475,-0.997654],[-0.2535666,0.03924644,-0.2968591]],[[0.2348224,0.5264766,-0.8765137,0.7535176,0.8342581,0.756556,0.5501931,0.6046772,0.2943792,0.3963539,-0.5109344,0.5427978,0.1609033,0.05237257,-0.4420863,0.4625492],[-0.9050326,-0.699086,-0.7703021,-0.5534449,-0.1636673,-0.3173715,0.318541,-0.8090525,-0.673085,0.2110251,0.6324432,0.5841858,-0.8344922,0.7215726,-0.4549295,-0.5546219],[-0.7525411,-0.2028674,-0.3100442,-0.4351147,-0.06653988,0.233323,-0.6990831,0.5590057,-0.9323583,0.05656731,0.5554965,0.9987018,-0.5158062,-0.2777942,-0.9969289,-0.434069],[-0.7426338,-0.07266152,-0.009145617,0.5408952,0.7459579,0.3758921,0.02874839,0.8110859,0.5534663,-0.4508787,-0.7571559,0.4759009,-0.690145,-0.8497357,0.9978983,0.1958784],[-0.4576899,0.2770667,0.1622518]],[[0.7479763,0.6445007,-0.8554792,0.5807037,-0.924216,-0.06840646,0.2725796,0.7110677,0.4334945,-0.2308983,-0.7880099,0.9446418,-0.654712,0.4909689,0.5477226,-0.7856908],[0.8890026,-0.6015649,-0.7355697,0.7195935,0.8652661,-0.8547735,-0.3165714,0.1115679,0.3997972,-0.7555797,-0.8108222,-0.5295494,-0.3771721,0.6872492,-0.9245856,-0.3996967],[-0.5510254,0.2570469,0.7739196,0.05373609,0.4019344,0.667275,0.6611142,-0.04367578,-0.8535326,-0.9740481,-0.6179078,-0.4363648,0.8589642,-0.623755,0.1138529,0.2611813],[0.9190946,-0.9004414,0.2642328,0.916913,-0.6637917,0.2415413,-0.5463414,0.1273078,0.4311576,0.629539,-0.008063912,-0.417945,0.9133773,0.2106444,-0.6485524,-0.4051551],[0.2735889,0.4294355,0.00921309]],[[0.6863871,-0.7450473,-0.4668764,-0.178224,0.811069,0.1972562,-0.5504622,-0.8577454,0.4021818,0.2790994,0.4282002,-0.8717508,0.3509712,0.8284736,0.7049568,-0.3755299],[-0.1309921,-0.673429,0.201455,-0.3731071,0.9964275,-0.2292358,-0.1897093,0.3454001,-0.8796732,-0.8604567,-0.9119837,0.757411,-0.5049119,0.8064051,0.9188309,-0.8694923],[-0.2635835,-0.7788069,0.5174315,-0.9851656,0.5618155,0.2685635,-0.04851615,0.812005,-0.02996671,-0.8081279,0.8169208,0.9360449,0.152356,-0.3099726,0.5504818,-0.5134478],[-0.4354736,0.181866,0.8754072,0.3249428,0.9417753,0.4249558,0.7913973,0.3132894,0.8320405,-0.5877771,0.3291471,0.7622876,0.8326261,0.2308642,0.08552802,-0.5533283],[-0.5850129,-0.3293499,0.7321548]],[[0.2659218,-0.6706862,-0.2887071,-0.1327254,-0.007754207,0.2929721,-0.8862364,0.2906201,-0.05324996,-0.2274646,-0.3094937,0.2581289,-0.6803396,0.3815493,0.08479154,-0.9844024],[0.5179307,-0.3726455,-0.5514877,0.6371508,0.9690387,-0.1149408,0.5282247,0.9426866,-0.9174807,0.3455724,-0.4355148,-0.02377689,-0.2581481,0.6723244,0.1040345,-0.1698023],[0.8084257,6.783009E-05,0.00280273,0.9077208,0.6461115,0.3657047,-0.7936842,-0.6991384,-0.9586396,0.3758208,0.5027823,-0.1017898,0.7313933,0.00729382,-0.8762515,-0.5321727],[-0.7809706,-0.5227458,0.3953623,0.151204,0.7925372,0.2474486,-0.4023122,0.3171353,0.8941617,-0.7877395,-0.1668588,0.5798447,0.9222546,0.4425811,-0.4488815,-0.4190661],[-0.1674119,-0.6289496,0.4415009]],[[-0.5935018,0.4552369,0.9945509,-0.7416389,0.4011931,-0.02225244,-0.6069746,-0.7486846,0.06632817,-0.7132535,-0.5297356,-0.5823181,0.4137306,-0.3592473,-0.1073228,-0.6226575],[-0.9969044,-0.9104266,-0.5891869,0.7934439,0.7920332,-0.2694942,-0.2053126,-0.3574661,-0.5144751,-0.715168,0.3512616,-0.5774181,0.9555542,-0.5659146,-0.9744244,-0.3855416],[0.4267316,-0.349393,0.4807098,0.436702,-0.5779443,0.8642662,-0.08855569,0.6726925,-0.5835853,-0.3342904,-0.584007,-0.2555856,0.07691634,-0.07109177,0.9470134,0.1933092],[0.1570581,-0.1633559,0.3329308,-0.6200879,0.2825565,0.8037746,0.4917531,0.3826558,-0.8947277,-0.5952215,-0.851383,-0.6542959,-0.8248813,0.2306329,-0.1203257,-0.6280935],[-0.5955439,-0.4620298,0.0438863]],[[0.2348224,0.5264766,-0.8765137,0.7535176,0.8342581,0.756556,0.5501931,0.6046772,0.2943792,0.3963539,-0.5109344,0.5427978,0.1609033,0.05237257,-0.4420863,0.4625492],[-0.9050326,-0.699086,-0.7703021,-0.5534449,-0.1636673,-0.3173715,0.318541,-0.8090525,-0.673085,0.2110251,0.6324432,0.5841858,-0.8344922,0.7215726,-0.4549295,-0.5546219],[-0.7525411,-0.2028674,-0.3100442,0.7793097,-0.06653988,0.233323,-0.6990831,0.5590057,-0.9323583,0.05656731,0.5554965,0.9987018,-0.5158062,-0.2777942,-0.9969289,-0.434069],[-0.7426338,-0.07266152,-0.009145617,0.5408952,0.7459579,0.3758921,0.01580632,0.8110859,0.5534663,-0.4508787,-0.7571559,0.4759009,-0.690145,-0.8497357,0.9978983,0.1958784],[-0.4576899,0.2770667,0.1622518]],[[-0.6396697,-0.2312707,-0.7280982,0.01620734,-0.9567058,-0.07591712,-0.6741626,0.4312067,-0.9021513,-0.1242045,-0.3176423,0.4410054,-0.1983036,0.08291495,0.4357018,0.7993591],[-0.940366,-0.6261883,0.6177099,-0.6318171,0.6492217,0.6916101,-0.9136786,-0.55586,-0.5911918,-0.03638566,0.4887676,-0.1949393,0.1747626,0.6366944,-0.8334363,0.9344327],[0.2527997,-0.9553802,-0.5715673,-0.4868454,0.8538988,-0.6679571,0.8356531,-0.1085933,0.8569944,0.2424046,0.6946559,-0.8082798,0.8716254,-0.8521841,0.7845325,0.3654115],[0.8075788,-0.5863736,0.6980872,-0.3018237,-0.6566257,0.8985956,0.2891729,-0.4115909,-0.892931,0.009764314,0.7056606,0.7345445,0.05991638,0.5346532,0.02332914,0.2366034],[0.6538112,0.6902692,-0.5435612]],[[-0.5935018,0.4552369,0.9945509,-0.7416389,0.4011931,-0.02225244,-0.6069746,-0.7486846,0.06632817,-0.7132535,-0.704916,-0.5823181,0.4137306,-0.3592473,-0.1073228,-0.6226575],[-0.9969044,-0.9104266,-0.5891869,0.7934439,0.7920332,-0.2694942,-0.2053126,-0.3574661,-0.5144751,-0.715168,0.3512616,-0.5774181,0.9555542,-0.5659146,-0.9744244,-0.3855416],[0.4267316,-0.7151873,0.4807098,0.436702,-0.5779443,0.8642662,-0.08855569,0.6726925,-0.5835853,-0.3342904,-0.584007,-0.2555856,0.07691634,-0.07109177,0.9470134,0.1933092],[0.1570581,-0.1633559,0.3329308,-0.6200879,0.2825565,0.8037746,0.4917531,0.3826558,-0.8947277,-0.5952215,-0.851383,-0.6542959,-0.8248813,0.2306329,-0.1203257,-0.6280935],[-0.5955439,-0.4620298,0.0438863]],[[0.7479763,0.6445007,-0.8554792,0.5807037,-0.924216,-0.06840646,0.2725796,0.7110677,0.4334945,-0.2308983,-0.7880099,0.9446418,-0.654712,0.4909689,0.5477226,-0.7856908],[0.8890026,-0.6015649,-0.7355697,0.7195935,0.8652661,-0.8547735,-0.3165714,0.1115679,0.3997972,-0.7555797,-0.8108222,-0.5295494,-0.3771721,0.6872492,-0.9245856,-0.3996967],[-0.5510254,0.2570469,0.7739196,0.05373609,0.4019344,0.667275,0.6611142,-0.04367578,-0.8535326,-0.9740481,-0.6179078,-0.4363648,0.8589642,-0.623755,0.1138529,0.2611813],[0.9190946,-0.9004414,0.2642328,0.916913,-0.6637917,0.2415413,-0.5463414,0.1273078,0.4311576,0.629539,-0.008063912,-0.417945,0.9133773,0.2106444,-0.6485524,-0.4051551],[0.2735889,0.4294355,0.00921309]],[[0.2348224,0.5264766,-0.8765137,0.7535176,0.8342581,0.756556,0.5501931,0.6046772,0.2943792,0.3963539,-0.5109344,0.5427978,0.1609033,0.05237257,-0.4420863,0.4625492],[-0.9050326,-0.6312995,-0.7703021,-0.5534449,-0.1636673,-0.3173715,0.318541,-0.8090525,-0.673085,0.2110251,0.9390247,0.5841858,-0.8344922,0.7215726,-0.4549295,-0.5546219],[-0.7525411,-0.2028674,-0.3100442,-0.4351147,-0.06653988,0.233323,-0.6990831,0.5590057,-0.9323583,0.05656731,0.5554965,0.9987018,-0.5158062,-0.2777942,-0.9969289,-0.434069],[-0.7426338,-0.07266152,-0.009145617,0.82552,0.7459579,0.3758921,0.02874839,0.8110859,0.5534663,-0.4508787,-0.7571559,0.4759009,-0.690145,-0.8497357,0.9978983,0.1958784],[-0.4576899,0.2770667,0.1622518]],[[-0.6385806,0.2844295,-0.6348815,0.2299122,-0.2510315,-0.5769997,0.2646982,0.9712608,-0.8468428,0.005367398,-0.4222871,-0.9857771,0.7487435,-0.7207937,0.6601181,-0.8880799],[0.5413778,-0.3955575,0.4754154,-0.2325033,-0.4368476,-0.4606029,0.5461164,-0.75808,-0.3901705,-0.5810759,-0.43358,0.7896957,0.7736483,0.3057925,-0.8795075,0.592025],[0.1580313,-0.599901,0.7372317,-0.8784046,-0.7811763,0.6255097,-0.4642886,0.501193,-0.879323,0.4274604,0.1054038,0.4297602,-0.3591973,-0.9483905,-0.8791094,0.640578],[0.04763877,0.09640205,0.4393303,0.7834487,-0.491727,-0.8169003,-0.3758813,-0.4352976,-0.8443027,0.5567923,0.6726167,-0.9513805,-0.7762628,0.02785528,-0.703475,-0.997654],[-0.2535666,0.03924644,-0.2968591]],[[0.03200662,-0.0618633,0.2085801,-0.4119624,-0.2077421,-0.3414956,-0.000944972,0.9949453,-0.6348324,0.2739103,-0.5470335,-0.8646393,0.3325312,0.8952191,0.3120916,0.6258075],[0.3011152,0.98511,0.5251746,0.09087217,0.714469,0.2405032,-0.9407063,-0.8515477,0.7555625,0.7183764,0.7455049,-0.3929678,0.4162807,-0.2190965,0.7083333,-0.8045115],[0.1472052,-0.9233301,-0.8541529,0.4654946,-0.636606,0.2138876,0.2616601,-0.824837,0.1356872,-0.6576171,0.9876676,-0.6275494,-0.3035201,-0.9003599,-0.2255415,0.9087598],[0.7970939,0.65447,-0.5371959,0.4984109,-0.168002,-0.9909072,0.004642129,0.9216201,-0.2948605,0.8180385,-0.9100747,0.7423728,-0.4446386,0.4697892,0.2566943,-0.08130753],[0.3345973,-0.3819159,0.1895207]],[[0.2348224,0.5264766,-0.8765137,0.7535176,0.8342581,0.756556,0.5501931,0.6046772,0.2943792,0.3963539,-0.5109344,0.5427978,0.1609033,0.05237257,-0.4420863,0.4625492],[-0.9050326,-0.699086,-0.7703021,-0.5534449,-0.1636673,-0.5249121,0.318541,-0.8090525,-0.673085,0.2110251,0.6324432,0.5841858,-0.8344922,0.7215726,-0.4549295,-0.5546219],[-0.7525411,-0.2028674,-0.3100442,0.7793097,-0.06653988,0.233323,-0.6990831,0.5590057,-0.9323583,0.05656731,0.5554965,0.9987018,-0.5158062,-0.2777942,-0.6308126,-0.434069],[-0.7426338,-0.07266152,-0.009145617,0.5408952,0.7459579,0.3758921,0.01580632,0.8110859,0.5534663,-0.4508787,-0.7571559,0.4759009,-0.690145,-0.8497357,0.9978983,0.1958784],[-0.4576899,0.2770667,0.1622518]]]