[[[-0.1225852,0.2457794,0.2608325,-0.3767515,0.2395424,-0.4029359,-0.170226,0.2677927,0.1845883,-0.679127,0.5515761,0.1979347,0.00721252,0.6454647,-0.2161826,0.5729251],[0.9373331,-0.07102239,-0.982192,-0.7065439,-0.1453019,0.2133914,-0.09093916,0.01875079,-0.2924162,0.4350633,-0.003043056,0.1187862,-0.4713358,0.867501,0.9096379,0.2056681],[0.2802095,0.5035043,0.6211579]],[[-0.2272745,-0.6505957,0.5109537,0.06104004,0.8240402,0.9792986,-0.401028,-0.2795712,-0.3877839,-0.951849,0.2682049,-0.2147342,-0.30834,0.3850763,0.03465378,0.7037797],[0.2193183,0.6232498,-0.7638717,0.1474856,-0.913317,-0.4051243,0.01853669,0.1830798,0.01401365,0.3792491,0.9685619,-0.889343,0.3015411,0.8688126,-0.8490601,-0.6238799],[-0.8056412,0.9567633,0.9347827]],[[0.3754329,0.4879503,0.7782102,-0.01492107,-0.01035678,0.01373708,-0.7466066,0.3841362,-0.5584934,-0.6724603,-0.2776083,-0.4492468,-0.4089228,-0.7375219,-0.2300173,-0.3057858],[0.1567103,0.5271688,0.7157404,-0.5476921,-0.6513281,0.624105,0.557915,0.2992394,0.2775054,0.3966839,0.1021911,0.1118225,0.5395875,0.5016112,-0.7198429,-0.6074514],[0.9530511,0.4053018,0.07241738]],[[0.1390816,0.09122145,0.7173011,-0.9682503,0.9322529,-0.2184726,-0.2364882,0.7127175,-0.7228684,-0.4147633,0.6243122,-0.7792404,-0.4871899,0.969197,0.7339642,-0.6448872],[0.5752504,0.312773,0.2714941,-0.9252901,-0.07295287,0.5451131,-0.6482654,0.1559457,0.7001374,0.2469932,-0.7457232,-0.02798665,-0.8900976,0.2519498,-0.01712978,-0.3520502],[-0.7955675,-0.7310648,-0.5151353]],[[0.4914012,0.358814,0.5043828,0.8602171,0.7942822,-0.09770072,-0.4629334,0.5782781,-0.8562367,-0.8596499,-0.8666663,0.0847491,-0.1163577,0.1293956,0.9500601,0.8461008],[-0.8571322,-0.7532794,0.2476975,-0.4421412,0.7931685,0.6779547,0.5012126,-0.8876324,0.03398931,-0.7200208,-0.8993232,-0.9601281,-0.3506047,0.3407533,-0.09579861,-0.5510271],[0.3111372,-0.05912817,-0.08881581]],[[0.613205,-0.2497686,0.3131628,0.5362251,-0.8106384,0.2963867,-0.1534969,0.2659287,-0.2672476,0.04689991,0.4636483,0.423443,0.3462228,0.7690599,-0.5322986,-0.5483592],[0.8868239,0.544956,-0.6810014,-0.1283768,-0.638629,0.4424247,-0.5044689,0.851557,-0.2823778,0.1809961,0.1057626,-0.017084,-0.5629635,-0.6949632,0.3313315,-0.03199637],[-0.01460898,0.7565694,0.5542347]],[[0.1983069,0.9107375,-0.9333367,0.8727832,-0.8623767,0.3295214,-0.941067,-0.7148271,-0.6731303,-0.8274393,-0.5623722,-0.9454246,-0.7695806,-0.5544853,0.2539174,-0.6478522],[0.9039738,-0.1425859,-0.8715935,-0.01119983,-0.5610929,0.6631057,0.9217758,0.7777252,-0.2499391,-0.2499169,0.7907155,0.2807839,0.7289102,-0.1729771,-0.493107,0.8418181],[-0.5600584,0.02460897,0.917582]],[[0.01482809,0.4212837,0.5408821,-0.08596027,-0.5575345,-0.5745358,-0.06620395,0.8280449,-0.3375653,0.9287078,0.7043061,-0.3430074,0.2632584,-0.08313525,-0.3894359,0.8766706],[0.3915212,-0.8571477,-0.1273364,0.9234765,-0.8457632,0.9012167,-0.2992398,-0.4749132,-0.006615281,-0.5556355,0.1295615,0.2194225,-0.7847261,0.4277427,-0.5493793,-0.5321496],[0.02316964,-0.7760923,0.3661217]],[[-0.63749,-0.6971879,0.1722852,0.5461481,0.6433821,0.851217,0.684422,-0.940912,0.776108,0.427587,0.4456973,0.8405974,0.270293,-0.1858426,-0.1471583,0.7117503],[-0.05219734,0.1710111,-0.1127664,0.1305014,-0.2588595,0.4852533,0.5365222,0.2196091,-0.9000981,-0.8007104,0.3719048,-0.1797024,-0.5633185,0.5458002,0.771085,0.3436765],[0.1209019,0.9970212,0.4930355]],[[0.5049245,0.4792988,0.2534508,0.3450408,0.9198892,-0.9620805,-0.5229931,0.7467473,0.2369708,-0.9439998,0.6938846,-0.606461,0.6821404,0.6885383,0.3764064,0.08946788],[0.677351,-0.5210767,0.306261,0.5253022,-0.791786,0.2918663,0.985162,0.8123167,0.2613291,0.3017146,-0.3679963,-0.4766198,-0.7556076,-0.1707259,-0.4819814,-0.9219446],[-0.7111704,0.2467088,-0.4786936]],[[-0.9057367,0.3555877,-0.3225363,0.8172607,0.3950309,-0.7374611,-0.07135808,0.08330643,-0.1110715,0.918364,-0.7574232,0.01688564,0.949713,-0.1077787,-0.5754375,-0.09451115],[-0.8471472,0.2360851,-0.6708417,0.02252758,0.8561859,-0.04158819,-0.09139621,-0.1851543,-0.5992348,-0.2723962,-0.2476207,-0.7435298,0.8353069,-0.6067607,-0.222041,0.9294658],[0.1882769,0.07528389,-0.8387218]],[[0.7427924,0.2692635,-0.05069363,0.4628009,-0.9153647,0.878844,-0.1760167,0.4013912,0.7852232,-0.560271,-0.1344277,-0.0131768,-0.1905123,0.7408328,-0.1835891,-0.5644097],[-0.5577657,0.9682641,-0.7416053,0.9180322,-0.953326,0.9204664,0.2722742,0.7905803,-0.7940242,-0.2867755,-0.2894081,0.527163,-0.9248159,-0.9031041,0.2115365,0.7331817],[-0.8614507,-0.5447063,0.8861785]],[[0.7138064,-0.8950541,0.1005751,0.5237143,-0.3643693,-0.04156148,0.5721827,0.7049115,0.7110322,-0.1530915,0.3476171,-0.492138,0.7126088,0.6546211,-0.5680368,-0.3831114],[0.2479123,0.477293,0.7698975,0.6875095,-0.1849815,-0.6869187,-0.8136632,-0.2553767,-0.4853724,-0.3579663,-0.3429748,-0.0250591,0.6968522,0.6904376,0.08438814,-0.7202356],[0.7125676,0.2161824,0.4551401]],[[0.5941589,-0.242498,0.7582989,0.8506575,-0.8878503,0.1868654,0.5173981,-0.4013697,0.4090571,0.5067556,-0.9052382,-0.2074467,-0.6043034,-0.5428782,0.2964318,-0.3017002],[0.6435874,-0.835129,0.3753886,0.01720631,0.8524284,-0.3822564,-0.2727937,-0.09628689,0.02733386,0.6834824,0.9952052,-0.1157662,0.8474581,-0.8595402,0.3546135,-0.8378394],[0.005572677,0.6640961,-0.4445125]],[[-0.4373852,-0.507884,-0.04778278,-0.6850169,0.8297813,0.6662641,0.5140522,0.4359624,0.4822836,-0.1541151,-0.3705579,-0.1225973,0.8453684,0.2400709,-0.9167378,0.4616086],[-0.3484832,-0.8618016,0.4444809,-0.0928632,-0.5772023,0.1081992,0.1440636,-0.6039445,0.8642495,-0.4544626,0.5066779,0.6590908,0.1572198,0.16001,0.7192159,0.4052047],[0.7158527,-0.1079458,-0.6517897]],[[-0.2183791,-0.5830026,0.00203979,-0.610321,-0.6964662,0.6479023,-0.6517901,-0.9111426,-0.4222268,-0.5304179,0.6107936,-0.3143104,-0.1092409,-0.7344253,0.9349391,-0.3796791],[-0.592097,0.8030996,0.3227689,-0.9514375,0.3111934,0.3443024,0.1297358,0.1592113,-0.9224665,-0.42022,0.11473,-0.9914458,-0.9970205,0.925585,0.3039503,0.3631644],[-0.8825262,-0.7112384,0.101797]]]