[[[0.7369235,0.3002805,-0.7833493,0.1468905,0.9127162,0.7645676,0.9386702,-0.14615,-0.0003045797,-0.1568717,0.3329854,-0.2791091],[0.4008505,-0.7849538,0.6601071,-0.2787544,-0.6690221,-0.242355,0.5283449,-0.6244893,0.728873,-0.0920552,-0.6087832,0.4474947],[-0.4913779,0.3094558,0.1492561,0.8659375,-0.5519841]],[[-0.5745811,-0.9290488,0.5866418,0.3462825,0.08288443,0.8548892,0.4276361,-0.5232613,-0.2549666,-0.7849874,-0.02095234,0.4099729],[0.9894097,0.6287925,-0.5028384,0.6194558,-0.5875139,-0.416087,-0.4223248,0.8947122,-0.01634872,0.4814107,-0.6827309,-0.2612718],[-0.1872901,-0.3902014,-0.8166451,0.4207854,0.7467601]],[[-0.8541806,-0.5113029,-0.7399936,-0.4548854,0.6925578,-0.05875742,0.1971513,0.1732725,-0.6288271,-0.5448158,-0.9046309,0.4494657],[-0.3769277,0.4090151,-0.5886221,-0.9258292,0.964606,-0.6901031,0.5945244,0.02202713,-0.6945388,0.1286715,0.1383902,-0.3121871],[0.5007238,0.1912278,0.4764988,-0.5172317,-0.0139538]],[[-0.806108,-0.1505274,0.6064408,-0.4740406,0.8789942,0.3105335,-0.4298798,0.1756693,0.5471549,-0.08118856,0.494523,-0.05498993],[-0.1248735,-0.6581342,-0.7944543,0.4372158,-0.4797183,0.8944285,-0.01569784,0.1980883,0.9280958,-0.9403503,0.7739398,-0.7835531],[0.1357738,0.5938299,0.4050884,-0.2452761,0.7580264]],[[-0.6772833,0.8107536,-0.9506822,0.2014865,-0.1515096,-0.44745,0.5626583,-0.4101814,0.4204261,0.7376616,0.2570915,0.7451506],[0.2391881,0.6554587,0.1657184,0.6810982,-0.3790065,0.7795572,-0.8051357,0.8103805,-0.5237768,0.5043247,-0.8953893,0.5282037],[-0.8829923,-0.4040133,0.001186013,0.9369454,-0.4993128]],[[-0.2764238,-0.2556261,0.8301167,0.1836783,-0.7065771,0.6149688,-0.9049361,-0.4052306,-0.3594936,0.4557941,-0.4418,-0.178851],[-0.8621395,-0.7863231,0.1181034,-0.1419317,-0.9125154,0.7469981,-0.4301995,-0.7299743,-0.05837071,-0.6700532,-0.6866972,-0.4643286],[0.7189102,-0.9579446,0.897857,0.1767875,0.7083645]],[[0.3062992,-0.4395233,0.5185723,-0.2375931,0.6626976,0.1738909,-0.9033337,-0.317489,0.07667816,-0.2312254,-0.09941566,-0.06556308],[0.3199072,-0.8647196,0.7086732,-0.158466,-0.2033552,0.8660176,-0.3482205,0.695992,-0.2046171,-0.8022146,-0.2715994,-0.4584357],[0.6825287,-0.1024717,0.2776875,0.4127202,-0.4347764]],[[0.001049399,0.290709,-0.6096332,0.2816171,0.7713945,0.5407879,-0.5996759,0.671078,-0.7805667,0.6207154,-0.9138889,0.9707026],[0.6524155,-0.4260665,0.234141,0.6887167,0.2792878,0.954385,-0.3274244,-0.6713512,0.07388651,0.3556523,-0.4157149,0.1578358],[-0.6284025,0.2079998,0.08214605,-0.7565718,-0.1478492]],[[0.5752389,0.3294623,-0.1297375,-0.06907427,-0.8264964,-0.4345654,0.276458,-0.2909268,0.05887115,0.9296381,0.007363677,-0.9365466],[0.06887043,-0.1153756,0.9111125,-0.9326301,-0.4947008,0.2341946,-0.4379119,0.07892764,0.2167391,-0.07242644,-0.9879103,0.3334181],[0.02799213,0.330374,-0.2665616,0.2518263,0.4718618]],[[-0.9670208,0.9808733,-0.7338078,-0.4937476,0.8149269,-0.5365303,0.7835054,-0.8710642,-0.0370065,0.9085245,0.8494809,-0.5158117],[-0.5378945,0.3114381,0.7193065,-0.6638751,-0.06961453,0.4233553,0.7776988,-0.2763575,0.09778368,-0.6745679,0.4101987,0.1711706],[0.676548,0.1258734,0.4071562,0.06479967,0.1024574]],[[0.883137,-0.867543,0.7166305,-0.9140744,0.252475,0.6935613,0.3377468,0.09295094,-0.6381333,-0.4880573,-0.3622624,-0.4657646],[0.9342408,-0.2427555,-0.568876,-0.1280488,0.3500154,-0.1483716,-0.2894889,-0.04544747,0.1669701,-0.9580593,0.7848048,-0.1689128],[0.6598773,0.2368928,-0.4400898,-0.4286665,-0.1962529]],[[0.05026782,-0.2396246,0.09891927,0.8080468,0.2466663,0.0377053,-0.3071934,-0.844485,0.0572747,-0.5272069,-0.3666483,0.2626404],[-0.2122561,0.779177,0.1338245,-0.5680494,0.6027699,-0.3343405,-0.141034,-0.1350945,-0.8665502,-0.5985739,-0.04961622,-0.1001509],[-0.03322899,-0.5037012,0.8365245,0.8678141,0.1489712]],[[0.7878973,0.9895251,0.164868,0.745014,-0.3436927,-0.03774107,0.8466516,0.7092898,-0.06630075,-0.3758484,-0.6859884,-0.1840428],[-0.3591465,0.3764229,0.6716766,-0.5063417,0.7150156,-0.8850913,0.8636072,0.8868196,-0.8841829,-0.7871068,0.868324,-0.8510742],[-0.2379676,0.02644002,-0.3711733,-0.7363262,0.002316356]],[[0.1538237,0.1951801,-0.6230888,0.6788628,0.8960481,-0.7154408,0.8488243,-0.989146,-0.08548844,-0.7756374,0.3034675,0.3577928],[-0.8492599,-0.1552137,-0.2379748,0.07527387,0.3690781,0.04634821,0.95402,-0.3934628,-0.020661,0.7782834,-0.6556277,-0.6094248],[-0.7032616,-0.8192489,-0.7768815,0.9786487,-0.5521157]],[[-0.1476866,-0.7479866,0.4455623,-0.3074681,0.5842083,-0.1534261,0.02174342,0.368819,0.2870633,-0.1627899,0.1155783,0.1432375],[-0.04441774,0.6939793,0.03029501,0.6123416,0.4764127,0.7041214,-0.8144336,0.04619944,0.34972,-0.835434,-0.4540204,-0.9284561],[-0.5423861,0.001770139,-0.5095878,-0.03691494,0.5744312]],[[0.018525,0.9327168,-0.2707919,-0.6386805,-0.1001059,0.6450248,0.4738266,0.4185419,0.3701205,0.318933,0.04057109,0.1772448],[0.5911145,-0.1312717,-0.5680676,-0.7133405,-0.4712197,0.7557635,-0.3742617,-0.3664523,-0.7800829,-0.6682048,0.5411119,0.09691417],[-0.1984109,0.5875444,-0.3384508,-0.5696688,0.5067849]],[[0.2701673,0.6822996,-0.6199517,0.9226351,-0.02270067,0.2165402,-0.07582819,-0.07574308,-0.6489086,-0.454394,0.497523,-0.2533094],[-0.7235439,-0.9521165,-0.7973757,0.8348534,0.7328858,-0.6819561,0.2418698,0.8579159,0.07094777,0.2290956,-0.265093,-0.7424808],[0.963037,-0.5545073,0.5058117,0.2183164,0.3060009]],[[0.5248885,-0.4016889,0.8146093,0.9222505,-0.9316244,-0.6946175,0.2377459,-0.2850217,0.3833129,-0.1209873,-0.003474355,0.2119154],[0.04697835,0.2348484,-0.05793297,0.4006803,0.4529636,-0.0153712,-0.355848,-0.2727505,-0.9596434,-0.8158495,-0.1506954,0.4787109],[-0.7010882,0.6769917,-0.8675928,-0.6077168,0.4506249]],[[0.7219005,0.1096612,-0.9341424,-0.8061807,-0.2055031,0.5108292,-0.5833714,-0.1295677,0.6463358,-0.9159834,0.4813981,-0.4261776],[-0.6410983,0.1044286,0.9460423,-0.02708137,0.5937929,-0.8180287,-0.1149858,-0.8667121,-0.8367445,0.9168301,-0.09219897,0.9059689],[0.5966954,-0.4418467,0.4150133,-0.5800629,0.5189281]],[[-0.1635154,-0.6422307,0.03832257,0.5312352,0.2607205,-0.8049533,-0.2678794,-0.3172024,0.3370585,0.3452356,-0.6225815,-0.2882761],[0.02571285,-0.2494911,-0.1089171,0.9351308,0.28358,-0.8370745,0.02997553,-0.4454635,-0.5332034,0.127354,0.8553798,0.4171583],[0.8030961,0.4714458,0.4815376,-0.7423239,0.1351033]],[[0.9587443,0.4586518,-0.892379,-0.6130829,-0.452051,-0.5670173,-0.7146223,-0.7801878,0.1240026,0.5162525,-0.4013275,-0.6252453],[-0.2422234,-0.07054198,0.2848425,0.645355,0.7609355,-0.6099944,-0.2794248,-0.1448692,0.3786466,-0.599385,-0.3318797,0.5335898],[-0.1031009,-0.622277,0.7118208,-0.5736902,-0.1412638]],[[-0.3798679,-0.9818954,-0.8030071,-0.9155083,0.5956483,-0.5247779,0.6630473,0.2398947,0.7112732,0.5136771,-0.1338528,-0.3866328],[0.1236709,-0.3540698,-0.5577691,0.1393505,-0.9084523,-0.06612933,-0.149727,-0.9000294,0.2214748,-0.69154,-0.4723111,0.9190071],[0.8120468,-0.9553869,0.05763924,0.343857,0.7158527]],[[0.5604837,0.5088179,0.0732106,0.72224,-0.01099789,-0.01708043,-0.9582112,0.3714678,-0.8345678,-0.4035224,0.7988732,0.9781084],[0.9166462,-0.2056578,0.3351016,0.855931,0.3432402,-0.747746,-0.1111535,-0.6263711,-0.869822,-0.4187216,-0.116644,0.2101592],[0.1131104,-0.3365313,0.4708864,-0.9858494,0.2875046]],[[0.8731284,0.0182029,0.4079971,-0.1897172,-0.8063886,0.3552899,-0.0548116,0.2612879,0.01427472,0.4983625,-0.2597185,0.9888115],[-0.8641362,0.499645,0.7587776,-0.8436334,-0.8303299,-0.6121173,0.8704832,-0.8841116,-0.3909999,0.4800591,0.5659292,-0.3871573],[-0.3913857,0.516217,-0.4784433,-0.3104848,-0.5446196]],[[-0.6059618,0.06536877,0.3253751,-0.6653819,-0.7179461,-0.07734144,-0.5143363,-0.9117734,-0.1227552,0.9811053,-0.6633213,0.6415551],[-0.8749702,0.8524029,0.3723976,-0.4428629,-0.06508911,-0.6261756,-0.9815671,0.249221,-0.4362823,0.9985948,0.9174402,-0.9626234],[-0.1743282,0.8728921,-0.7104993,0.9728754,-0.9766295]],[[-0.5774891,0.02375138,-0.8781025,0.09921801,0.7153018,-0.9529812,0.5450065,-0.06961668,-0.8975713,-0.8235381,0.9745262,-0.592047],[0.717088,0.2087122,-0.9981556,-0.4159862,-0.2268084,-0.8673077,0.9587119,-0.674823,0.1578306,0.543632,-0.01566947,-0.3554074],[-0.6722014,-0.7673194,0.8892884,-0.3734299,0.2050244]],[[0.4977953,-0.7913263,0.5961585,0.782228,0.238737,-0.5934787,-0.1437653,0.8439028,0.6100698,-0.5200014,-0.5663624,-0.5832448],[-0.3660144,0.860729,-0.6556704,0.9239028,0.04392898,0.8038399,-0.2687045,-0.4640349,-0.4300996,-0.9285121,0.6371984,-0.6833162],[0.08843791,-0.4422318,0.02172816,-0.6644533,0.006422877]],[[-0.6683977,-0.3197173,-0.246972,0.1346709,0.8536963,-0.4718195,0.00229919,-0.8194447,-0.8756597,-0.2616142,0.8174255,-0.6579673],[-0.2702054,-0.11124,-0.6992028,0.3180887,0.48175,0.6335473,0.935015,-0.9136937,0.4589266,0.04756081,-0.8081179,-0.1918985],[0.9335568,0.6295004,-0.3772901,-0.4521004,-0.904804]],[[-0.8926973,-0.001930356,-0.9892101,0.989342,0.8686626,-0.4119099,-0.9878695,0.03053129,0.9157574,-0.1538249,0.884944,0.4999559],[0.6626868,0.5951147,-0.9760244,0.2798347,-0.124247,0.008541942,-0.511441,0.606962,0.338438,0.1825777,-0.6306446,0.8657911],[0.2873995,-0.4119128,0.7364631,0.2820799,-0.06907618]],[[-0.1595751,0.1712033,-0.5384104,0.1126889,-0.01221073,0.9897449,-0.6727335,0.357605,-0.4944216,-0.1232883,-0.912751,0.0830878],[0.9418161,0.943192,0.001154304,-0.5794449,0.1997958,-0.5455441,0.9628434,0.02716339,-0.5344217,-0.06159437,-0.6047611,-0.9127536],[0.8432829,-0.280687,0.7783263,-0.6484971,0.6092043]],[[0.6534345,0.949266,-0.9234285,0.5947051,0.6447415,-0.9644532,0.6077528,0.4505889,-0.5319586,0.3544085,-0.7374928,-0.9312644],[0.9306674,-0.09999573,-0.626811,-0.4148566,0.6153746,0.425986,-0.05412662,0.995142,0.2871167,0.5336177,-0.08197963,-0.9416678],[-0.4542164,0.8558278,-0.4853247,-0.5912001,0.3347978]],[[-0.2345399,-0.3589481,0.770067,0.5607133,0.6122332,-0.2681464,0.2502167,-0.4250101,0.2407352,-0.1459092,-0.3902353,-0.5156024],[0.2384509,0.01426995,0.8590298,0.7506318,0.7226062,-0.3648523,0.3490882,-0.9573052,0.3345525,0.8104916,-0.7528868,-0.7312922],[-0.2478179,-0.7998388,0.009983897,-0.178048,0.4623983]],[[0.9939444,0.8350413,0.4023709,-0.2690772,-0.04656446,0.1336383,0.5864756,0.9582207,0.7722111,0.6700356,0.645931,0.5710325],[0.4045345,0.2110494,0.4756441,-0.3119107,0.4153945,0.9199493,-0.7059171,-0.6079211,-0.9454153,0.8195088,-0.841063,0.6186423],[0.5245767,0.04288208,0.5915837,0.3539889,-0.7650571]],[[-0.4328884,0.3437426,-0.7124252,0.2261018,0.6740057,0.232757,0.6522725,-0.5194595,0.7462511,-0.3951126,-0.3877791,0.7350407],[0.229127,0.6061702,-0.5667629,-0.7074716,0.6671302,0.2372338,0.3994014,-0.3641511,0.3108973,0.4587691,-0.426025,0.8019574],[-0.4025236,0.7670543,0.2179238,-0.7205203,0.6624534]],[[0.6368103,0.3019008,-0.4534951,0.3498554,-0.7792215,0.05582225,-0.6499391,0.636946,-0.5218012,0.4056871,0.8065977,0.9527993],[-0.7921991,0.764571,-0.01212704,0.2756321,0.1796631,0.04316413,-0.9471698,0.1677443,0.4958884,0.6196496,-0.2061275,-0.8461263],[-0.3389412,-0.1581179,-0.09285629,0.9229825,-0.4636108]],[[-0.2059933,0.2329267,-0.4193348,0.9094987,-0.7213762,-0.04588091,0.8161733,-0.396804,-0.5043857,0.6459239,0.4472334,-0.6097476],[-0.1764516,0.6201181,0.04331958,-0.9942465,-0.604938,0.7437015,-0.1128145,0.8008728,0.4263184,-0.4842116,0.8419087,-0.09942353],[-0.4363137,-0.7211812,-0.5405819,-0.5357211,0.7254524]],[[-0.404431,-0.9880197,0.2158934,-0.9667435,-0.007412076,0.7381084,-0.1462737,-0.06163347,-0.4852172,0.09393108,0.4064409,0.941479],[0.3519673,0.1866649,-0.6696558,-0.4283961,0.2327319,-0.104858,0.1826462,0.162707,0.9185996,0.3590772,-0.8539004,-0.6188948],[0.8474591,-0.5827656,0.3540592,0.9108777,0.1691211]],[[-0.9525809,0.7043469,0.1573743,0.906739,-0.4685725,0.8817167,0.007446885,0.3878841,-0.6994665,-0.4830719,-0.3285593,-0.6509295],[-0.879678,0.9124358,-0.4073423,-0.4698442,0.07942235,0.8273287,-0.7807775,0.9250042,0.7313273,-0.6049912,0.09480631,0.1091515],[0.6913738,0.3634343,-0.7191269,0.3988602,0.0007745028]],[[0.01569712,0.9447143,-0.0262748,0.7705657,-0.2983502,0.9727027,-0.1999434,0.9454851,-0.2528895,-0.5483456,0.2709524,-0.4964112],[0.1659449,0.9304636,-0.242889,0.8559854,0.7385862,0.2258755,-0.5853622,0.6607227,-0.7714522,0.9980307,0.30447,0.2061549],[0.7925124,0.322304,0.3846299,0.6378746,0.6155016]],[[0.3434167,0.5612106,-0.1050481,0.2804529,0.5671976,0.9043276,-0.1011556,0.400717,0.59045,0.5361838,0.3907287,-0.08529961],[0.446706,-0.2170092,-0.9786055,-0.9415205,0.9836705,0.01675737,-0.4916946,-0.08939183,0.7934971,-0.4236428,0.4926247,0.9374042],[-0.1136011,0.03320324,-0.4680001,-0.3344876,-0.3306361]],[[-0.733016,-0.8638365,0.8502345,-0.7036109,-0.5554969,0.6148455,0.7177098,-0.647275,0.7354963,-0.3604857,-0.3871676,0.2318214],[0.6370916,-0.3817307,-0.3765374,-0.7100232,0.6850729,-0.6992681,-0.2227312,-0.8971117,-0.6681507,0.3030526,-0.5046215,0.3176253],[0.7064643,0.21268,0.1149708,-0.927999,0.4260804]],[[0.3625202,-0.565069,0.7687528,-0.5391409,-0.9888461,-0.1388177,0.08131802,0.03291667,-0.4934005,-0.7053142,-0.6315606,-0.06441414],[-0.830292,0.8435078,-0.9562337,-0.25697,-0.2995328,-0.4045359,-0.278747,0.8209975,-0.7428434,0.8134704,-0.6896651,0.7679753],[0.1399051,0.02032673,-0.8156881,-0.3182074,0.6641693]],[[0.9037294,0.94559,-0.4402806,0.9585965,0.4492306,-0.1980757,-0.6850204,0.3429968,-0.6185198,0.590874,0.04961479,-0.9406378],[-0.02991712,-0.5291123,-0.1221033,0.2832315,0.3286307,-0.8904495,-0.4568354,0.1266557,0.1686207,-0.8161387,-0.3582662,0.1970948],[-0.435331,-0.4642037,-0.06734669,0.6096196,-0.6828327]],[[-0.9505506,-0.6743658,-0.9522359,0.3011987,0.61343,-0.9423804,0.6528423,-0.2450255,-0.0301007,-0.3454937,0.4269483,0.2132157],[0.1114491,0.9459596,0.8975556,0.08060324,-0.4989301,0.7719078,-0.6874402,-0.05510795,-0.0404619,-0.4354316,0.311593,-0.3508426],[0.8594673,0.531281,0.4398997,-0.7102156,-0.7578807]],[[0.1824399,0.2354265,0.2944557,-0.3689519,0.03506482,-0.4353207,0.7434702,0.05441034,0.796262,0.4497707,-0.8432789,0.8883116],[0.06798589,0.364448,0.01007068,-0.1783823,0.5981302,0.7441633,0.2656269,0.6656642,0.3922109,0.354361,0.1446294,0.06277335],[-0.6986544,0.8363512,0.4884867,-0.821007,-0.5997908]],[[-0.5461464,-0.6325185,0.3812716,0.005627036,0.2982344,-0.7156551,-0.2316154,0.1615149,-0.08417332,0.3363173,-0.236729,0.8277693],[-0.9671857,0.4631636,-0.8282197,-0.5172892,0.9405158,0.6429245,0.7144175,-0.08528483,-0.5851345,0.1567167,-0.4671074,0.3353944],[0.6529965,0.02493703,0.5975585,0.9135611,-0.5451653]],[[-0.8367901,0.1005923,0.1073064,0.5367405,-0.4379641,-0.5764132,-0.8026721,-0.0168308,-0.6353543,-0.5584226,0.8175447,0.164184],[-0.8326173,0.2118217,0.2122132,0.9802926,0.3365071,-0.792928,0.5017014,-0.5182331,-0.4543465,-0.3530282,0.9007576,-0.03230989],[0.7826743,-0.8506186,0.09303033,0.4105317,-0.8633194]],[[-0.1755463,-0.4561898,0.7218637,-0.3706802,-0.391188,0.0270294,-0.9780354,-0.6947267,0.4741814,-0.9120152,0.1023306,0.9770858],[-0.1992229,0.9572291,0.9659283,0.0373131,-0.2050608,0.4712524,-0.9415917,-0.7858534,0.3006198,0.1621457,0.6960785,-0.4815887],[0.600167,-0.5541456,0.3353209,0.2766771,0.7887626]],[[0.5508087,0.9036021,-0.1528131,-0.309333,0.0085572,0.3888812,0.7862089,-0.5739443,-0.8452425,0.9951088,-0.07890046,-0.2662143],[-0.7216794,-0.5373824,-0.4362289,-0.2933849,0.4212508,-0.716912,0.1968135,-0.3648227,-0.9367094,0.7588065,0.0968262,0.07743871],[-0.9117913,0.6101861,-0.3465103,0.4037766,0.2494828]],[[0.08969367,0.6180413,0.5498469,0.5408885,-0.8228898,-0.1071774,-0.9462278,-0.1224591,-0.4155725,-0.2913102,-0.09947431,-0.0001128912],[-0.9755318,-0.9327881,0.5935023,-0.445388,0.9914846,-0.6287181,0.6971235,0.07281601,0.4961807,0.3626325,0.1631845,0.6000516],[-0.7730846,-0.7540309,0.0613879,0.3541875,0.1138424]],[[-0.5249107,0.2049581,-0.5136712,-0.7938781,0.1035153,0.04592693,-0.5802796,-0.07548225,-0.7425354,0.3968944,-0.3617181,0.6937585],[0.05709755,-0.9594054,0.1375142,-0.02003062,0.9297702,-0.3654782,0.7146432,-0.6629176,-0.86448,-0.2898065,-0.9310439,-0.5008507],[0.6385205,-0.9062819,0.8821478,-0.9277685,0.367157]],[[0.5871911,0.7612658,0.8111062,-0.1247658,-0.7728341,-0.8903298,-0.7411211,-0.795923,-0.1755911,-0.5582547,-0.5074821,-0.4734572],[0.8162818,0.7528858,0.8495755,0.1921984,-0.7770529,0.1448294,-0.8655677,-0.1923383,0.03828704,-0.9952655,-0.206412,-0.4452633],[-0.8215644,-0.3380803,0.9737706,0.01751506,-0.0571388]],[[-0.4032587,0.9156017,0.3701107,-0.3025242,0.5415576,0.6827579,-0.8811731,-0.2489048,-0.9201794,-0.5206814,-0.8662314,0.1899425],[0.3148331,0.4957394,-0.4984721,0.8753109,0.1648122,-0.1996981,0.4228453,-0.5016587,0.5002604,0.9917369,0.8735409,0.2692494],[-0.4306594,-0.02680266,0.01028311,-0.3427793,0.8008955]],[[0.1179315,0.674062,-0.8254871,-0.809706,-0.4759337,-0.1259247,0.3726606,0.8931019,-0.4898483,0.6741643,-0.1223255,0.8673434],[0.7683702,-0.9243898,-0.984041,-0.7808435,0.3351791,-0.1341921,-0.9983978,-0.2123679,0.5676806,0.1237906,0.6988819,0.8928969],[0.8701031,0.4703119,0.2076136,0.9832025,-0.290624]],[[-0.6804135,-0.1122078,0.1512245,0.4238417,0.6435518,0.9207571,-0.1289228,0.2438363,0.70608,0.8627284,-0.1944474,0.1498064],[0.6729171,-0.08692968,0.04453957,-0.003867984,-0.9414513,-0.9783962,-0.1752111,0.4322679,0.1791683,0.9950364,-0.3090738,-0.4038094],[-0.08810651,0.009396672,0.6915898,0.6110156,-0.4495312]],[[0.1666268,-0.4713255,-0.9986398,0.9591012,-0.635067,0.5999236,0.3522134,-0.5340185,0.1691045,0.6605906,-0.9445505,-0.961827],[0.8390837,0.5838282,0.5523977,-0.838027,-0.6833262,-0.366033,0.9484487,0.3157465,-0.3710643,-0.8650968,-0.1580549,-0.5909822],[0.1720806,-0.2011081,0.1105379,0.1495396,-0.6604125]],[[0.07064831,0.6568255,-0.02947319,0.8628838,0.7164729,0.1412445,0.6592965,0.3961656,0.1752511,0.4081695,0.4146115,-0.4221843],[-0.54458,0.8210382,0.006343007,-0.6170561,-0.9316683,-0.8752682,0.4781551,-0.5436921,0.577599,-0.8274493,0.447598,0.7268181],[0.7614775,-0.3444759,-0.2461191,-0.7812293,0.4994275]],[[-0.5031352,0.5617955,0.6967137,-0.07062995,0.9109085,-0.3144544,-0.7544227,0.9732692,0.1342384,-0.2528859,0.7977736,-0.4738041],[-0.1308571,0.7562428,-0.7153912,0.3730263,-0.1003214,0.7670548,-0.3864454,0.3120517,-0.04260552,0.2029096,-0.04007137,-0.4118463],[-0.09522188,-0.273806,-0.3587371,-0.3777117,0.07335007]],[[-0.6990767,-0.466771,0.4648506,-0.799032,-0.5682123,0.3953213,0.9395795,0.3869602,-0.2390109,-0.5806048,-0.2249755,0.4246576],[0.08348787,-0.2998194,-0.5989966,-0.9684551,-0.3709792,-0.2768785,0.1946787,-0.2113394,0.1875025,0.5494282,-0.9331324,0.2590627],[-0.5762796,0.8318229,-0.2076615,-0.1623548,0.7500482]],[[0.05312765,0.9624269,0.5788178,0.7244964,0.1145211,0.1072544,-0.5443144,-0.6286614,0.8508041,0.7038956,-0.1909426,0.1678292],[0.6121163,0.08210981,-0.5646722,0.6324022,-0.6391141,-0.5026617,-0.9183013,-0.7988384,0.7815673,0.5129042,-0.3313142,-0.3785135],[0.4071874,-0.008974195,-0.5355885,0.1811558,0.5233147]],[[-0.9592524,-0.6189179,-0.04324329,-0.7576468,-0.4579147,0.9609225,0.8695383,0.6108761,0.4009008,0.7310278,-0.4267961,-0.9742405],[0.9028072,-0.2109379,0.4129467,0.7997968,-0.7805369,0.1601774,-0.9651747,-0.4609522,-0.7911422,-0.7104294,-0.2605075,-0.1331426],[-0.6768041,-0.2985095,0.7627034,0.9284434,-0.4796094]],[[0.1844093,0.3289342,0.4379446,-0.1279527,0.8256302,0.8275077,0.09153092,0.3624696,-0.1191944,0.9763169,-0.4139408,0.663625],[0.9848633,-0.3808867,0.6299443,0.3083934,0.9155834,0.8380721,0.4145112,0.6816995,0.7783353,-0.6053665,0.09271228,-0.5699563],[-0.291726,-0.227506,0.2859008,0.8729661,-0.6178482]],[[0.8685336,-0.2136258,0.5587459,0.5852675,0.871593,0.7202349,-0.9797978,-0.979389,-0.08852494,0.5299284,-0.4133321,0.8555443],[0.6610384,0.8956327,-0.7180884,-0.09716809,-0.5936332,0.7731972,0.9377947,-0.09896576,0.1866342,0.5766463,-0.4586598,-0.04409897],[0.9854038,0.5642188,-0.9418604,-0.186087,-0.08311522]],[[0.4763376,-0.2689987,-0.9751678,0.5840163,0.4710014,0.3874149,-0.9577963,-0.2725493,0.1141876,-0.7703967,0.5569746,0.51668],[0.347007,0.3295371,-0.9583888,-0.07691658,-0.340819,-0.2287096,-0.3720301,0.1233953,0.06038463,-0.6429811,-0.3899013,0.5889132],[0.6790223,-0.07345283,0.467416,-0.5513859,-0.3073901]],[[0.200574,0.3829705,0.03846419,-0.2782167,-0.005854964,-0.4476417,-0.1981579,0.8487825,0.2392904,-0.6976526,0.9015934,-0.9982021],[-0.6052184,0.07147372,-0.390839,-0.5901687,0.6966419,-0.7118244,0.5024033,-0.3494197,-0.6354325,-0.3762666,0.7801163,-0.8961627],[0.8259957,0.6740174,-0.3010286,-0.4825076,0.04194129]],[[0.7708817,-0.2361921,0.9504042,-0.2649432,0.4206755,-0.6259089,0.5409074,0.6666744,-0.1298283,0.144293,-0.9536302,0.4016339],[-0.9523263,0.3327956,-0.6987538,-0.3059002,-0.05916011,-0.06444705,0.6795428,0.5751076,0.3547313,0.4710405,-0.7364829,0.8663015],[0.5283041,-0.06695473,0.3703122,0.8592641,0.4681959]],[[0.1778299,-0.8169725,0.7279618,0.1534954,-0.9313161,0.9641805,0.80581,-0.2814239,0.5886252,0.4743576,0.8692997,-0.8729305],[-0.7066665,-0.03267968,0.8653898,-0.5218022,-0.9188766,-0.8008375,0.5468416,-0.8908041,0.4656963,0.04211056,0.2395962,-0.1051022],[-0.5452607,0.3583734,0.1255449,-0.6741953,-0.06872737]],[[0.9706287,0.8628132,-0.6169744,0.444268,0.7865906,0.5855167,0.1893913,0.9966962,0.9022653,-0.9900939,-0.7740726,-0.7972963],[0.2408236,-0.7776608,-0.05978644,0.2467531,-0.3508097,0.1967248,-0.2683953,-0.4628865,-0.3356849,-0.8448684,0.1638769,0.5264175],[0.6123369,0.05126321,0.1816777,0.4754352,0.8522182]],[[-0.3657511,0.1268286,0.4632983,-0.264552,-0.5972688,0.1135744,0.4910435,0.514559,0.05235016,-0.3892072,-0.4010741,0.6081336],[-0.3503917,0.2713132,-0.8440597,-0.07160747,-0.1225535,-0.6980855,0.0485791,-0.03462064,0.9877291,-0.8362885,0.6363714,-0.8724952],[0.8571935,0.007549882,0.9455056,-0.4187921,0.6480687]],[[-0.9409513,0.5017939,-0.5681901,0.8153436,0.6087945,-0.2659489,-0.7266104,0.2410723,0.885349,0.5426841,-0.4138416,-0.8975616],[0.7481639,-0.06519163,0.8836546,0.7458668,0.9127748,0.5959921,-0.3597416,-0.3834535,0.3061411,-0.6919723,0.3949034,-0.8937936],[0.09712374,0.2404569,0.7977271,0.7439516,0.06174409]],[[-0.9854124,-0.1481603,-0.3145884,0.8204877,-0.9763143,-0.7288303,-0.6780796,0.4303097,0.7843211,-0.09402573,-0.5408609,-0.4861377],[-0.2080842,0.7645814,-0.5033998,-0.5794361,-0.9850445,0.6275616,0.09107816,0.7401319,-0.2767776,0.1548239,0.7831483,-0.9960387],[0.661396,-0.6694148,0.7013981,0.5793691,0.9595666]],[[-0.5568702,-0.4050144,-0.936789,-0.5379536,0.7469423,0.7369134,-0.1584278,-0.3819844,-0.4303948,-0.9319484,-0.9249823,-0.6788626],[0.322488,0.04096949,-0.1160003,-0.7538047,0.2435063,-0.8545561,-0.728147,0.4601338,0.9268949,-0.8151445,0.4807603,0.2395087],[-0.8262868,-0.9753838,-0.9748142,0.004629731,-0.5972202]],[[-0.8411751,-0.8361771,-0.9472208,-0.03199565,0.13366,0.9615164,0.5800056,-0.6779177,0.5663161,0.7868245,-0.5668898,0.1908101],[-0.339991,0.6170568,0.6905282,0.4017992,-0.7197104,-0.5965769,0.7889001,0.9482241,0.1951331,-0.06510746,-0.6556444,-0.07611525],[-0.6477072,0.2575972,-0.9171638,0.7603614,-0.6751444]],[[-0.7112832,-0.3021187,0.4816072,-0.0921334,0.2582895,0.8429952,0.05979455,-0.947829,-0.0822283,0.8705254,0.01209867,-0.2247778],[-0.2286803,0.535316,0.2614865,-0.9203749,-0.85164,-0.4814352,-0.5822573,0.770345,-0.702507,-0.2213823,-0.5391393,-0.3820525],[0.1301333,0.6002216,-0.8975229,-0.04898918,0.9022071]],[[-0.1951503,-0.2066847,-0.2533973,-0.1847953,0.8797026,0.741662,-0.2737333,-0.2482163,0.5164697,0.08856237,0.5945232,0.2593455],[0.9013586,-0.6395872,-0.2694772,0.361377,0.4817576,0.153788,-0.5598629,-0.5058258,0.9138055,-0.2966977,-0.6209633,-0.03850877],[-0.5848827,-0.07725489,0.809664,0.3696963,-0.289658]],[[0.06044805,0.4077465,-0.3102375,-0.06265438,-0.2568055,-0.8411901,-0.3344699,-0.1107453,0.2769231,0.1133667,0.4920585,-0.8656628],[-0.04022801,-0.1049765,0.7815857,0.4143901,0.5718124,-0.7476423,0.5798624,-0.584317,-0.4809448,-0.1301881,-0.881896,-0.8011141],[0.7497163,-0.8158689,0.1187638,-0.2414335,-0.1948239]],[[-0.4422117,0.7023551,-0.1398927,0.08645976,-0.6023088,-0.5001099,0.724761,-0.483431,0.5990186,-0.7834628,0.5093672,-0.5085671],[-0.672205,0.03230321,-0.6652873,-0.2330812,0.3278966,-0.8724127,-0.7203107,0.4914734,-0.161883,0.006598115,0.2697749,-0.03565776],[-0.7717767,-0.1623749,0.4122128,-0.7793612,-0.8064325]],[[0.8576474,0.1704339,0.5818837,-0.8346283,0.0641669,-0.6733086,-0.4376222,0.5209434,0.2061018,0.7673438,0.3723669,-0.697757],[-0.6701672,0.09093726,-0.3729089,-0.4865388,-0.2208959,0.5950732,-0.2101768,0.9360485,0.7943337,0.06876123,-0.4607886,0.6479084],[0.2353679,-0.7234113,-0.7729058,0.4532213,0.08503997]],[[0.1365365,0.0495466,0.3519599,0.3375859,-0.1857275,-0.7963684,-0.7429583,0.6941664,-0.7976863,-0.6901364,0.4574203,-0.78192],[0.9018326,-0.8636329,-0.6963134,-0.7096224,-0.06145632,0.03963244,-0.4864053,-0.1169647,-0.156443,0.3715918,0.8630009,0.05047882],[0.2988774,0.9640093,-0.5699389,0.9372568,-0.650111]],[[0.787077,-0.959697,0.3727915,-0.1425513,0.3596272,0.3085718,-0.500098,-0.8183286,-0.07290781,0.2858541,0.4842608,-0.2053858],[-0.9950802,-0.4232765,-0.4497899,0.6900828,0.8159432,-0.805151,-0.6186533,0.8591583,0.2069136,0.3875534,-0.8768055,0.2282606],[0.9611361,-0.1952111,0.4567208,-0.4895028,-0.05710685]],[[0.3170581,-0.3090752,-0.7320342,0.1585883,-0.3193477,0.7224791,0.9606702,0.06791103,-0.04006732,-0.7013559,-0.2463731,-0.07278574],[-0.6603231,0.3391194,-0.7263234,0.7347422,0.8501589,0.2598011,-0.9531915,-0.8242714,0.2257301,-0.9187188,-0.4703068,-0.5820405],[0.4758653,-0.5638938,-0.4394287,0.9753256,-0.9471102]],[[0.1185595,0.3644449,0.5062084,0.5671821,-0.05537355,0.5073133,-0.6341553,-0.3971165,0.529778,-0.7293959,0.9217825,0.5443962],[0.1544818,-0.8356485,-0.3098203,-0.8730087,-0.873033,-0.1955861,0.2203068,-0.746628,-0.5649605,-0.1097156,-0.6878979,-0.2249607],[0.02337849,-0.355904,-0.947268,-0.855128,-0.8233175]],[[-0.2373892,-0.7398658,0.3249466,0.1857349,0.08620489,0.9422615,0.01476991,-0.4535547,0.197112,-0.5116365,0.4532571,-0.6775093],[0.5742331,0.6215594,-0.4643382,0.06216252,-0.5847845,0.7830639,-0.9149404,0.6150732,0.7487047,-0.9408765,0.3412301,0.5754104],[-0.4739412,-0.8554022,0.6386685,-0.4098803,-0.2329715]],[[-0.7599807,0.8243408,0.8693233,-0.7154791,-0.2914418,-0.4679106,0.3310482,0.3919992,-0.3980211,0.9731705,0.733429,0.6568205],[0.837404,-0.6711895,-0.578882,-0.6477327,0.9376354,-0.1561185,-0.3173398,-0.1632382,-0.8771446,-0.3537008,0.88271,0.924911],[-0.7892504,-0.3546959,-0.01324165,-0.6632748,-0.8922698]],[[0.7656348,-0.726572,0.6031237,0.7866232,0.1005691,0.3066754,-0.09307134,0.5660093,0.3545294,0.4431152,0.7088296,-0.8008549],[-0.7885137,0.3709767,0.3100631,0.6695487,-0.1026081,-0.7606611,-0.3116053,-0.2040898,0.03348935,0.3800189,-0.1745566,0.9692481],[0.4035313,-0.5531883,0.3403933,-0.6140106,0.3526151]],[[0.2258209,-0.05863082,-0.9533648,-0.03637564,0.9662533,-0.8810415,0.320724,-0.3771511,0.4902675,0.5344048,0.8862133,0.8460758],[-0.5819719,0.6640458,-0.7627385,0.2813649,-0.93694,0.285001,0.6896453,-0.8611586,-0.8859451,-0.8065064,0.7500105,0.8882561],[-0.2021221,0.6941698,-0.1587793,0.949322,0.04840624]],[[0.758601,-0.1887044,0.3596248,-0.164826,0.6979587,0.01929295,-0.3601693,0.8321288,-0.2487639,0.7860808,0.9838951,-0.3351623],[0.1887068,0.03761137,-0.2777718,-0.05577624,0.7969379,-0.5678771,-0.3740979,0.764075,0.8772769,-0.9754837,0.08480728,0.1421338],[0.6021631,-0.8751619,0.8971522,-0.7787533,0.4482464]],[[0.1332761,-0.4328295,-0.1648985,-0.4389812,-0.190611,-0.7814925,-0.01883543,-0.1727136,-0.526943,-0.782515,-0.5714042,-0.8252542],[-0.1977462,-0.6598139,0.13617,-0.1057924,-0.6166205,-0.1314641,-0.807586,-0.4209715,0.6956592,-0.5205655,0.8585744,0.1615227],[-0.1958662,-0.8463752,-0.6435738,-0.5718365,-0.5783122]],[[-0.2079271,0.9162881,0.9248698,0.4257052,0.03406513,-0.07135332,-0.01331627,0.1035951,0.1460255,0.2949357,0.0203234,-0.6351621],[0.08208454,0.06563604,-0.2648982,-0.6946769,0.9906447,0.3516032,0.06491196,0.5819082,-0.8937345,0.08347785,0.4084434,0.4743571],[-0.8653216,0.06592381,-0.3573142,-0.3046342,0.4365544]],[[-0.4555,-0.7775884,-0.1845521,0.5071394,-0.7362795,-0.4844369,-0.3671409,-0.6408393,0.6159031,-0.1455542,0.5560055,0.6156859],[0.2109948,-0.7496061,-0.5092518,0.3359313,0.07345402,0.03391397,-0.9942434,0.7925732,-0.4996971,-0.4526016,0.003866076,-0.4916254],[0.5186055,0.07456887,-0.1805259,0.190992,0.7714341]],[[-0.08701575,0.1060792,-0.2313935,0.9227707,0.06278408,0.3878181,0.9691238,0.2021383,-0.5197258,-0.8565092,-0.006041646,0.4748845],[0.3236127,-0.06553113,-0.2495879,0.1641685,-0.8304412,-0.7905152,0.124276,-0.6196516,0.9478328,0.9621587,0.2201515,0.4295976],[0.07358778,0.8196745,-0.3570093,-0.1045207,-0.1120156]],[[0.5667233,0.6914032,-0.5442121,0.4762432,0.7812283,-0.1829756,0.9166689,0.7184386,0.5024846,0.9926047,0.3059723,0.2492081],[-0.4489278,-0.4276742,0.7834527,0.2148081,-0.7990446,-0.591435,0.5693305,0.6679361,0.7843297,-0.2147087,-0.9545517,0.8514364],[0.02401769,0.04328024,-0.8142669,0.4599287,0.850713]],[[-0.774729,-0.9632123,-0.6179328,0.6517916,0.5195191,0.2404667,0.7382913,-0.4197887,-0.08770788,0.5029573,-0.4555985,0.964216],[0.02460158,0.6691377,-0.9878135,-0.20126,0.9035909,-0.8160279,-0.6729336,-0.7997024,0.1896023,0.9575355,0.1968032,-0.95085],[-0.7609572,0.5496767,0.5277429,0.8588605,-0.686646]],[[-0.1457287,-0.7743244,0.5749614,-0.2484585,-0.7671802,-0.1210188,-0.1896027,0.8927035,0.7385595,0.8273621,0.2970791,-0.4191214],[0.7312214,0.8549068,-0.7614596,0.4420743,-0.7315052,-0.4293946,-0.9909029,-0.8858509,0.128158,-0.1756068,0.1342591,0.3816557],[-0.1495587,-0.1427723,0.3620331,-0.7157061,0.8690717]],[[0.7547872,0.7084517,0.7858508,0.0183636,-0.6467893,-0.2781261,-0.1437398,-0.8098021,-0.1410025,0.4928772,-0.3962432,-0.3460444],[-0.7207253,0.02718389,0.1988198,-0.5648284,0.420367,-0.8217273,-0.3216792,0.2372156,-0.07882464,-0.6582711,-0.1399049,0.4183106],[-0.3443145,-0.03331578,0.7792094,-0.5837562,0.7011452]],[[-0.2113062,0.7073443,0.6439176,-0.8225262,0.7568269,-0.586539,0.7431788,0.5291901,0.6391246,-0.08478653,-0.2248882,0.7225435],[-0.05076182,0.9323924,0.1129297,-0.05235803,0.7549791,0.1784111,0.2141322,0.6292853,-0.3437601,0.9411647,0.8025231,0.2102422],[0.2104014,0.7206154,0.4611304,-0.89376,-0.6340532]],[[0.5031993,-0.5894952,-0.8214691,0.3214645,0.3540489,-0.1884989,0.3138876,-0.5985367,0.3352098,-0.05757058,0.03117907,-0.3319999],[-0.6130185,-0.8250082,0.5748558,-0.1616288,-0.3790768,-0.3356558,-0.4372858,0.5441213,0.3924265,0.3348119,-0.4645571,0.5537632],[0.1463374,-0.773973,-0.9820762,0.2714977,-0.7554874]],[[0.4960849,0.2340704,-0.6022968,0.7001429,0.243045,0.9675398,-0.05064571,0.8058732,-0.7767088,0.6153791,0.7707176,-0.9647501],[0.6311407,-0.6465042,0.9650567,0.7788861,0.4006679,-0.3402299,-0.7510641,-0.6617332,0.7286,-0.8270574,-0.5154879,-0.3864957],[-0.9902506,0.7103665,0.02486312,-0.8852596,0.9196694]],[[0.5962319,0.7529545,-0.4966897,-0.5396442,-0.6853244,0.7555885,0.4305336,0.7199705,-0.5622077,0.9854476,0.5201521,-0.798928],[0.0188688,-0.7131212,0.4278006,-0.3021654,0.3328497,-0.8011494,0.08039916,-0.7734971,0.05938089,-0.6498692,-0.105539,0.8840106],[0.8330979,-0.168687,0.2895903,-0.4151469,-0.7717762]],[[0.3173835,0.6650894,-0.8608685,0.7944841,0.4351752,0.9247987,-0.5596006,0.333143,-0.847055,-0.7677219,-0.8980739,-0.5594583],[-0.3531376,-0.9390213,0.1482917,-0.1955019,-0.5768406,-0.784652,-0.204295,0.07737076,-0.4058539,-0.4526144,0.4692475,-0.05373824],[0.3270719,-0.3362964,0.6843231,0.4131896,-0.1749843]],[[0.9559803,-0.4453446,-0.2174481,-0.240944,0.8689499,0.7343657,-0.01130211,0.04914105,0.1377269,0.1325792,-0.661469,-0.3985142],[0.8477883,0.3503709,-0.4461669,-0.9338944,-0.8380988,0.4742958,-0.632812,0.9987354,-0.009564281,0.3802859,-0.6829023,-0.5431545],[-0.02159917,-0.9618869,-0.3860067,0.2689726,-0.874747]],[[0.5178533,-0.2862204,0.5170133,-0.03412235,0.04166734,-0.5492105,0.8124812,0.8841653,-0.5103574,0.1595381,-0.962914,0.6149404],[-0.3697172,-0.977227,-0.1382381,0.08937061,-0.7650673,0.8235335,0.302191,-0.3824857,-0.706403,-0.06236088,-0.04839885,-0.8010428],[-0.360689,0.6397419,0.7304962,-0.9608889,-0.9558008]],[[0.7134356,-0.8326199,-0.1628441,-0.7167423,-0.05712569,0.251734,-0.3898085,0.8283689,-0.1052068,-0.8091474,-0.4378191,0.9591665],[-0.9857109,0.7507789,0.3072388,-0.2518767,0.549396,-0.4105166,-0.4454616,0.6441529,0.3337924,0.2712416,0.04096115,-0.9221456],[-0.4959182,0.3595779,0.647584,0.6224012,-0.1763605]],[[-0.6284833,-0.2942933,-0.3745602,-0.4906167,-0.842829,0.3854809,-0.6947498,-0.03889644,0.285166,0.7940717,-0.7684724,-0.1992632],[-0.6419535,-0.4397615,-0.1510159,-0.6867824,0.5046239,0.3983237,-0.2308801,0.7951915,0.3137288,0.5046771,-0.1716613,0.4686813],[-0.030743,-0.6984401,-0.6495275,0.747927,0.1385204]],[[0.04494965,0.3630676,0.8857708,-0.8011489,-0.2071704,-0.2212213,0.6665413,-0.3811976,0.8936205,0.3966596,-0.4750847,0.5669296],[0.2510309,0.8333595,0.728086,-0.3372256,0.9787476,0.5974054,-0.356629,0.7657073,-0.7233281,-0.2543575,0.8782313,0.9772382],[-0.2439338,0.3191743,-0.4754561,0.5882726,-0.4377779]],[[0.9599438,-0.2491733,-0.4042057,-0.250635,-0.1307997,-0.3871981,-0.7453592,-0.04776347,0.9013548,-0.4632896,0.2301236,-0.2518963],[-0.4825019,-0.4520615,-0.258454,0.184399,-0.2871891,0.1997257,0.7856104,-0.9510772,-0.8610351,-0.6443031,-0.9785998,-0.8749971],[-0.2864505,0.1877288,-0.2224025,0.9644713,0.5662777]],[[0.3313892,-0.9358134,0.969856,0.532171,-0.6005397,-0.8081934,-0.9165599,0.7179708,0.4054956,-0.3603672,0.8085229,0.3583107],[0.1370035,-0.8974521,-0.4370893,0.416691,0.003910661,0.3966868,0.5817378,0.555218,-0.8816965,-0.1369406,-0.1301862,-0.5613446],[-0.9944131,-0.3311864,-0.9574354,-0.5195212,-0.02163208]],[[-0.2024683,-0.3588582,0.207158,-0.3047673,0.9543867,0.2556851,0.6299593,-0.05608809,0.3581149,0.7529294,-0.3652405,0.1630079],[-0.1435987,0.5004826,-0.7199695,-0.8440919,0.8634226,0.8315015,0.7517648,-0.1076249,-0.8714757,0.4659021,-0.7953055,0.2135509],[0.1517659,0.665566,-0.5088394,-0.3706716,-0.6118073]],[[-0.4433378,-0.2164305,-0.627317,0.2885697,-0.1228763,0.6969981,-0.2293912,-0.2539221,0.6788099,0.03452551,-0.6881993,-0.3598546],[0.6578584,0.8047059,0.2737662,-0.5522377,-0.2141961,0.7471776,-0.05265129,-0.9097559,0.6023214,0.04212129,-0.9406817,0.6682649],[-0.3726536,0.39343,0.4348538,0.3764758,0.4477765]],[[0.7659345,0.2626328,0.2572794,-0.3264116,-0.1521691,0.8028495,0.05434215,0.04248202,-0.9038756,0.3395624,-0.2199069,-0.9611311],[0.04384482,-0.7743633,0.03170335,-0.5200934,0.5404155,-0.9725924,0.5916352,-0.7884145,-0.1944264,-0.3958453,-0.8720763,0.7905211],[-0.8143716,0.8343513,0.4394407,-0.09378493,0.588412]],[[-0.9421637,-0.6162801,-0.2882048,0.4335203,0.2370099,-0.9260547,0.3206086,0.7389512,0.002467036,0.3898627,0.605834,0.4139967],[-0.5061007,-0.5682199,-0.2514888,-0.5174055,-0.6721077,-0.8498445,0.2754948,-0.9001811,-0.8519583,0.5723822,-0.1269478,0.07786644],[0.7104154,-0.9706721,-0.4280502,0.4206965,0.1293265]],[[-0.8361285,0.9773555,0.4193048,0.8733838,-0.07020795,0.4826851,-0.2375761,0.8643374,-0.5262597,0.6668637,0.5692828,0.432312],[-0.5159585,0.5215847,-0.7168007,0.2002317,-0.317185,0.6885326,0.4918136,0.7051878,-0.198763,-0.4610223,-0.7976224,-0.1179453],[0.8830638,-0.6588728,0.8692839,0.2625389,0.06891334]],[[0.9716444,0.468812,0.5458124,0.8932319,0.957684,-0.522979,0.285881,0.6158538,0.8220668,0.1051122,0.5955114,0.19462],[0.5868495,0.17845,0.4316466,0.7114449,0.3605299,-0.38741,-0.8046706,-0.03329504,-0.5035021,-0.615329,-0.02794445,0.2010366],[-0.3542272,-0.1925811,0.2635727,-0.1655713,-0.5772483]],[[0.6707702,-0.3355459,0.4020843,-0.7119224,-0.7621555,-0.6335902,0.1738728,0.2151488,-0.5483663,0.1567966,0.580359,-0.1960255],[-0.02769887,0.7907302,0.6598012,-0.3085495,0.3120193,0.2385625,0.440228,-0.1004761,-0.8189042,-0.7440257,0.6710823,0.9943061],[0.4939809,0.9435003,-0.4156781,0.6888685,0.6504302]],[[-0.669879,0.9439445,-0.3233374,0.1134573,-0.07324374,-0.4649626,-0.2550582,0.6973045,-0.1338791,-0.6188707,-0.5918643,-0.05771172],[0.7775755,0.03009665,0.7532976,-0.5211806,-0.2060665,0.2947333,-0.8512676,0.9816928,0.4396946,0.2267944,-0.8888218,0.1786112],[0.5584157,0.6650622,0.7839215,0.1415421,0.7032628]],[[0.869812,0.2219042,0.06916773,0.4696545,-0.8456497,-0.04038227,0.6838579,-0.6252446,-0.9121983,-0.1873497,0.6965582,-0.9868948],[0.4123759,-0.9149578,0.6155546,-0.09932792,0.3178324,0.2268325,-0.3627449,-0.9998162,-0.4722732,0.005038619,-0.1230441,0.08184898],[0.7935822,-0.9656672,0.1855675,-0.5797734,0.4989845]],[[-0.3417901,-0.3914944,-0.9821126,0.5276747,-0.3401078,0.443525,-0.7672143,-0.3330978,-0.795707,0.8751874,-0.8362136,0.175645],[-0.2944521,-0.3149923,0.4488663,0.1641799,-0.3249761,-0.6056271,-0.3458616,0.3106444,-0.3865639,-0.3928834,-0.2897648,0.3287902],[-0.3881999,0.6391959,0.2017416,-0.9946337,-0.9342577]],[[-0.4152247,0.918066,-0.03869569,0.8720555,0.4109864,-0.3781749,-0.1440095,0.5330801,-0.832139,0.1844946,-0.6791477,0.2388581],[0.897419,-0.0777179,0.02497756,0.5906084,-0.08906424,-0.9372749,0.005084395,-0.7628078,-0.04496396,-0.8661242,-0.7362337,-0.5942347],[0.356389,0.4567651,0.1348578,-0.3829337,0.2201892]],[[0.7936673,0.7732124,-0.9388559,-0.395691,0.6295202,-0.3849183,-0.01204574,0.7059364,0.3554234,-0.04165494,0.604666,0.1469942],[-0.8610759,-0.8118346,-0.8905766,-0.06708944,0.0688535,0.9224861,-0.04267657,-0.1707526,-0.8015285,-0.9203806,0.1407086,0.7368913],[-0.7951465,0.3149874,-0.007594466,-0.9955649,-0.6295998]],[[0.8182492,-0.4882621,-0.8749182,0.6305099,-0.326269,-0.7751822,0.0277983,0.1109072,0.9852839,-0.3951753,-0.4992665,0.3955738],[-0.8850715,0.4607806,-0.9518793,0.76089,-0.4256216,-0.7439065,0.4939897,0.6882048,-0.3190521,0.83318,-0.9005425,-0.08256996],[0.7972333,0.7761719,-0.4600135,0.8008299,0.8501992]],[[0.7466152,-0.4529041,0.1173414,-0.3303632,-0.4623059,-0.9355292,0.7236297,-0.9010336,-0.6493766,0.08763564,0.675915,-0.4754332],[-0.3268837,0.540729,-0.9498205,-0.5542142,0.8072262,-0.196453,0.7388353,0.8267765,0.7078841,0.694767,-0.5622199,-0.680598],[0.2328886,-0.691499,0.8541083,0.1233026,-0.6598079]],[[-0.4127988,0.4148771,0.2993893,-0.5500553,-0.1730496,0.157678,-0.5681393,0.5481896,0.5489979,0.9047639,0.2976758,0.2439097],[-0.0872525,0.05374658,-0.01316607,0.5188358,0.3603477,-0.08571637,0.1333481,-0.958117,0.17919,0.1670159,0.9380274,0.6560144],[0.3312492,0.9510903,-0.360885,-0.9292967,0.0483638]],[[-0.8680973,0.7923985,0.6594987,0.6814215,0.3224096,-0.9617274,0.6147225,-0.7569764,0.7365162,0.8156955,-0.4708194,0.683475],[-0.6352463,-0.6966946,-0.2314585,-0.4547189,-0.7433221,0.4697206,0.6196208,-0.8304746,0.5252409,-0.185846,-0.4670805,-0.499807],[-0.4484357,-0.5943916,0.1383268,-0.8104467,-0.4903158]],[[0.2040278,0.5278194,0.2250286,0.7722213,-0.2171594,0.5126238,0.2059098,-0.8159294,0.4586706,0.5713928,0.2657597,-0.7268033],[0.741658,-0.7097561,0.992182,0.3365104,0.4723613,0.8107355,-0.6833897,0.5209825,-0.771142,0.09563053,-0.2262927,0.3235197],[0.4275131,-0.4990019,-0.04997671,0.2775445,-0.377987]],[[-0.9658427,-0.1311373,-0.9370959,-0.09450281,-0.8416655,0.1385404,-0.9365904,-0.3821312,0.6499119,-0.4416827,-0.3918623,-0.1583511],[0.3332152,0.380805,-0.8419023,-0.7798791,0.2692983,0.9613571,-0.2140886,0.0828625,0.3693056,0.3681717,-0.9075601,0.4443736],[0.422373,-0.9492333,0.1927222,-0.1465367,0.7541289]],[[0.09533584,0.1775566,-0.6059988,-0.02018154,-0.5096545,-0.7857292,0.1907896,-0.8706613,0.7372408,-0.8848739,0.425653,-0.3769053],[-0.02649724,0.4251773,-0.4907898,0.5712543,-0.5328205,0.6237063,0.810106,-0.3415858,-0.4789361,0.8430865,-0.887953,0.8844068],[-0.4955856,-0.790694,0.8147831,0.2496325,0.1459903]],[[-0.5857399,-0.8615084,0.7256243,-0.5797203,0.4454078,0.4419257,0.4265096,-0.6187129,0.1458513,-0.1465749,-0.9810638,0.9511878],[0.2155417,0.05024612,-0.2160829,-0.04463923,-0.8965461,0.6563184,0.4041705,-0.6732111,0.01491225,0.8424537,0.3514414,-0.07585704],[0.8302686,-0.9150546,0.8925891,0.7853873,0.4127533]],[[0.04505813,0.2771659,-0.4051508,0.8978839,-0.3739346,-0.6150079,0.4614417,0.699779,-0.09731615,0.09787548,0.8952415,-0.8542008],[-0.6402991,0.01001704,-0.2220172,-0.5227673,0.4063239,0.8077059,-0.8932972,-0.4570144,0.01908338,-0.7901888,-0.4631141,0.1112679],[-0.35348,0.8219011,0.9018035,0.5629296,0.7889557]]]