[[[0.8881552,0.07006609,-0.593549,0.156298,0.2393132,-0.4524013,-0.2299803,0.8248065,0.4690747,0.3224539,0.872216,-0.3701214,-0.4355184,0.1140987,0.001691699,-0.2478656],[-0.03532064,0.07546151,0.4490466,-0.2203685,-0.5236833,-0.3885142,0.4581678,-0.3673848,-0.6860135,0.2379695,0.3954656,-0.7686145,0.05334985,0.4390015,-0.01910579,-0.8380332],[-0.3428622,0.3150947,0.2660441,0.9575837,0.4355807,-0.8386526,-0.2271131,-0.2506298,0.07472456,-0.4311143,-0.8693085,0.9004514,-0.1683751,-0.03499258,-0.1177007,0.4269316],[-0.04021966,-0.2662464,0.8309841,-0.4731964,0.01015913,-0.006049514,0.1178674,-0.4209906,-0.9043441,-0.4722263,0.9338367,0.1301228,-0.4314486,0.2950198,0.7501867,-0.4392828],[0.6260891,0.171724,-0.758147,0.8319445,-0.7982435]],[[0.8881552,0.07006609,-0.593549,0.156298,0.2393132,-0.4524013,-0.2299803,0.8248065,0.4690747,0.3224539,0.1033288,-0.3701214,-0.4355184,0.1140987,0.001691699,-0.2478656],[-0.03532064,0.07546151,0.4490466,-0.2203685,-0.5236833,-0.3885142,0.4581678,-0.3673848,-0.6860135,0.2379695,0.3954656,-0.7686145,0.05334985,0.2562229,-0.9944201,-0.8380332],[-0.3428622,0.3150947,0.2660441,0.9575837,0.4355807,-0.8386526,-0.443873,-0.2506298,-0.3708664,-0.4311143,-0.8693085,0.9004514,-0.1683751,-0.5810602,-0.1177007,-0.9405007],[0.7377353,-0.2662464,0.8309841,-0.4731964,0.01015913,-0.006049514,0.1178674,-0.4209906,-0.9043441,-0.4722263,0.9338367,0.1301228,-0.4314486,0.2950198,0.7501867,-0.4392828],[0.6260891,0.171724,-0.758147,0.8319445,-0.7982435]],[[0.8881552,0.07006609,-0.593549,0.156298,0.2393132,-0.4524013,-0.2299803,0.8248065,0.4690747,0.3224539,0.1033288,-0.3701214,-0.4355184,0.1140987,0.001691699,-0.2478656],[-0.03532064,0.07546151,0.4490466,-0.2203685,-0.5236833,-0.3885142,0.4581678,-0.3673848,-0.6860135,0.2379695,0.3954656,-0.7686145,0.05334985,0.2562229,-0.9944201,-0.8380332],[-0.3428622,0.3150947,0.2660441,0.9575837,0.4355807,-0.8386526,-0.443873,-0.2506298,-0.3708664,-0.4311143,-0.8693085,0.9004514,-0.1683751,-0.5810602,-0.1177007,-0.9405007],[0.7377353,-0.2662464,0.8309841,-0.4731964,0.01015913,-0.006049514,0.1178674,-0.4209906,-0.9043441,-0.4722263,0.9338367,0.1301228,-0.4314486,0.2950198,0.7501867,-0.4392828],[0.6260891,0.171724,-0.758147,0.8319445,-0.7982435]],[[0.8881552,0.07006609,-0.9519668,0.156298,0.2393132,-0.4524013,-0.2299803,0.8248065,0.4690747,0.3224539,0.1033288,-0.3701214,-0.4355184,-0.4400128,0.001691699,-0.2478656],[-0.03532064,0.07546151,0.4490466,-0.2203685,-0.5236833,-0.3885142,0.4581678,-0.3673848,-0.6860135,0.2379695,0.3954656,-0.7686145,0.05334985,0.2562229,-0.01910579,-0.8380332],[-0.3428622,0.3150947,0.2660441,0.9575837,0.4355807,-0.8386526,-0.2271131,0.1947628,0.07472456,-0.4311143,-0.2367212,0.9004514,-0.1683751,-0.5810602,-0.1177007,-0.9405007],[-0.04021966,-0.2662464,0.8309841,-0.4731964,0.01015913,-0.8940566,0.1178674,-0.4209906,-0.9043441,-0.4722263,0.9338367,0.1301228,0.6288092,0.2950198,0.7501867,-0.4392828],[0.6260891,0.171724,-0.758147,0.8319445,-0.7982435]],[[0.8881552,0.07006609,-0.593549,0.156298,0.2393132,-0.4524013,-0.2299803,0.8248065,0.4690747,0.3224539,0.1033288,-0.3701214,-0.4355184,0.1140987,0.001691699,-0.2478656],[-0.03532064,0.07546151,0.4490466,-0.2203685,-0.5236833,-0.3885142,0.4581678,-0.3673848,-0.6860135,0.2379695,0.3954656,-0.7686145,0.05334985,0.2562229,-0.9944201,-0.8380332],[-0.3428622,0.3150947,0.2660441,0.9575837,0.4355807,-0.8386526,-0.443873,-0.2506298,-0.3708664,-0.4311143,-0.8693085,0.9004514,-0.1683751,-0.5810602,-0.1177007,-0.9405007],[0.7377353,-0.2662464,0.8309841,-0.4731964,0.01015913,-0.006049514,0.1178674,-0.4209906,-0.9043441,-0.4722263,0.9338367,0.1301228,-0.4314486,0.2950198,0.7501867,-0.4392828],[0.6260891,0.171724,-0.758147,0.8319445,-0.7982435]],[[0.8881552,0.07006609,-0.593549,0.156298,0.2393132,-0.4524013,-0.2299803,0.8248065,0.4690747,0.3224539,0.1033288,-0.3701214,-0.4355184,0.1140987,0.001691699,-0.2478656],[-0.03532064,0.07546151,0.4490466,-0.2203685,-0.5236833,-0.3885142,0.4581678,-0.3673848,-0.6860135,0.2379695,0.3954656,-0.7686145,0.05334985,0.2562229,-0.9944201,-0.8380332],[-0.3428622,0.3150947,0.2660441,0.9575837,0.4355807,-0.8386526,-0.443873,-0.2506298,0.07472456,-0.4311143,-0.8693085,0.9004514,-0.1683751,-0.5810602,-0.1177007,-0.9405007],[0.7377353,-0.2662464,0.8309841,-0.4731964,0.01015913,-0.006049514,0.1178674,-0.4209906,-0.9043441,-0.4722263,0.9338367,0.1301228,-0.4314486,0.2950198,0.7501867,-0.4392828],[0.6260891,0.171724,-0.758147,0.8319445,-0.7982435]],[[0.8881552,0.07006609,-0.9519668,0.156298,0.2393132,-0.4524013,-0.2299803,0.8248065,0.4690747,0.8055263,0.1033288,-0.3701214,-0.4355184,0.4951205,0.001691699,-0.2478656],[-0.03532064,0.07546151,0.4490466,-0.2203685,-0.5236833,-0.3885142,0.4581678,0.2194735,-0.6860135,0.2379695,0.7740111,-0.5409966,0.05334985,0.2562229,-0.01910579,-0.8380332],[-0.3428622,0.3150947,0.2660441,0.9575837,0.4355807,0.1317447,-0.2271131,0.1947628,0.07472456,-0.4311143,-0.8693085,0.9004514,-0.1683751,-0.5810602,-0.1177007,-0.9405007],[-0.04021966,-0.3295144,0.8309841,-0.4731964,0.01015913,-0.006049514,-0.1536075,-0.4209906,-0.9043441,-0.4722263,0.9338367,0.1301228,-0.4314486,0.2950198,0.7501867,-0.4392828],[0.6260891,0.171724,-0.758147,-0.8789694,-0.7982435]],[[0.8881552,0.07006609,0.08238375,0.156298,0.2393132,-0.4524013,-0.2299803,0.8248065,0.4690747,0.3224539,0.1033288,-0.3701214,-0.4355184,0.1140987,0.001691699,-0.2478656],[-0.03532064,0.07546151,0.4490466,-0.2203685,-0.5236833,-0.3885142,0.4581678,-0.3673848,-0.6860135,0.2379695,0.3954656,-0.7686145,0.05334985,0.2562229,0.8114207,-0.8380332],[-0.3428622,0.3150947,0.2660441,0.9575837,0.4355807,-0.8386526,-0.443873,-0.2506298,-0.3708664,-0.4311143,-0.8693085,0.9004514,-0.1683751,-0.5810602,-0.1177007,-0.9405007],[0.7377353,-0.2662464,0.8309841,-0.4731964,0.01015913,-0.006049514,0.1178674,-0.4209906,-0.9043441,-0.4722263,0.9338367,0.1301228,-0.4314486,0.2950198,0.7501867,-0.4392828],[0.6260891,0.171724,-0.758147,0.8319445,-0.7982435]],[[0.8881552,0.07006609,-0.593549,0.156298,0.2393132,-0.4524013,-0.2299803,0.8248065,0.4690747,0.3224539,0.1033288,-0.3701214,-0.4355184,0.1140987,0.001691699,-0.2478656],[-0.03532064,0.07546151,0.4490466,-0.2203685,-0.5236833,-0.3885142,0.4581678,-0.3673848,-0.6860135,0.2379695,0.3954656,-0.7686145,0.05334985,0.2562229,-0.9944201,-0.8380332],[-0.3428622,0.3150947,0.2660441,0.9575837,0.4355807,-0.8386526,-0.443873,-0.2506298,-0.3708664,-0.4311143,-0.8693085,0.9004514,-0.1683751,-0.5810602,-0.1177007,-0.9405007],[0.7377353,-0.2662464,0.8309841,-0.4731964,0.01015913,-0.006049514,0.1178674,-0.4209906,-0.9043441,-0.4722263,0.9338367,0.1301228,-0.4314486,0.2950198,0.7501867,-0.4392828],[0.6260891,0.171724,-0.758147,0.8319445,-0.7982435]],[[0.8881552,0.07006609,-0.593549,0.156298,0.2393132,-0.4524013,-0.2299803,0.8248065,0.4690747,0.3224539,0.1033288,-0.3701214,-0.4355184,0.1140987,0.001691699,-0.2478656],[-0.03532064,0.07546151,0.4490466,-0.2203685,-0.5236833,-0.3885142,0.4581678,-0.3673848,-0.6860135,0.2379695,0.3954656,-0.7686145,0.05334985,0.2562229,-0.01910579,-0.8380332],[-0.3428622,0.3150947,0.2660441,0.9575837,0.4355807,-0.8386526,-0.2271131,-0.2506298,0.1050977,-0.4311143,-0.509181,0.9004514,-0.1683751,-0.5810602,-0.6491175,-0.9405007],[-0.04021966,0.4441411,0.8309841,-0.4731964,0.01015913,-0.006049514,0.1178674,-0.4209906,-0.9043441,-0.4722263,0.9338367,0.1301228,-0.4314486,0.2950198,0.7501867,-0.4392828],[0.6260891,0.171724,-0.758147,0.8319445,-0.7982435]],[[0.8881552,0.07006609,-0.593549,0.156298,0.2393132,-0.4524013,-0.2299803,0.8248065,0.4690747,0.3224539,0.1033288,-0.3701214,-0.4355184,0.1140987,-0.4054691,-0.2478656],[-0.03532064,0.07546151,-0.04030645,-0.2203685,-0.5236833,-0.3885142,0.4581678,-0.4605829,-0.8188133,0.2379695,0.3954656,-0.7686145,0.4096417,0.2562229,-0.01910579,-0.8380332],[-0.3428622,0.3150947,0.2660441,0.9575837,0.4355807,-0.8386526,-0.2271131,-0.2506298,0.1050977,-0.4311143,-0.509181,0.9004514,-0.1683751,-0.5810602,-0.1177007,-0.9405007],[-0.04021966,-0.6515908,0.8309841,-0.4731964,0.01015913,-0.006049514,0.1178674,-0.4209906,-0.9043441,-0.4722263,0.9338367,0.1301228,0.7958145,0.2950198,-0.2441331,-0.4392828],[0.6260891,0.171724,-0.758147,0.8319445,-0.7982435]],[[0.8881552,0.07006609,-0.593549,0.156298,0.2393132,-0.4524013,-0.2299803,0.8248065,0.4690747,0.3224539,0.1033288,-0.3701214,-0.4355184,0.1140987,0.001691699,-0.2478656],[-0.03532064,0.07546151,0.4490466,-0.2050875,-0.5236833,-0.3885142,0.4581678,-0.3673848,0.2047063,0.2379695,0.3954656,-0.7686145,0.6808522,0.2562229,-0.01910579,-0.8380332],[-0.3428622,0.3150947,0.2660441,0.9575837,0.4355807,-0.8386526,-0.2271131,-0.2506298,0.07472456,-0.4311143,-0.8693085,0.9004514,0.1829017,-0.6951332,-0.1177007,-0.9405007],[-0.04021966,-0.2662464,0.8309841,-0.4731964,0.01015913,-0.006049514,0.1178674,-0.4209906,-0.9043441,-0.4722263,0.9338367,0.1301228,-0.4314486,0.2950198,0.7501867,-0.4392828],[0.6260891,0.171724,-0.758147,0.8319445,-0.7982435]],[[0.8881552,0.07006609,-0.9519668,0.156298,0.2393132,-0.4524013,-0.2299803,0.8248065,0.4690747,0.3224539,0.1033288,-0.3701214,-0.4355184,-0.4400128,0.001691699,-0.2478656],[-0.03532064,0.07546151,0.4490466,-0.2203685,-0.5236833,-0.3885142,0.4581678,0.2194735,-0.6860135,0.2379695,0.3954656,-0.7686145,0.05334985,0.2562229,-0.01910579,-0.8380332],[-0.3428622,0.3150947,0.2660441,0.9575837,0.4355807,-0.8386526,-0.2271131,0.1947628,0.07472456,-0.4311143,-0.8693085,0.9004514,-0.1683751,-0.5810602,-0.1177007,-0.9405007],[-0.04021966,-0.2662464,0.8309841,-0.4731964,0.01015913,-0.006049514,0.1178674,-0.4209906,-0.9043441,-0.4722263,0.9338367,0.1301228,-0.4314486,0.2950198,0.7501867,-0.4392828],[0.6260891,0.171724,-0.758147,0.8319445,-0.7982435]],[[0.8881552,0.07006609,-0.593549,0.156298,0.2393132,-0.4524013,-0.2299803,0.8248065,0.4690747,0.3224539,0.1033288,-0.3701214,-0.4355184,0.1140987,0.001691699,0.6177893],[-0.03532064,0.07546151,0.4490466,-0.2203685,-0.5236833,-0.3885142,0.4581678,-0.3673848,-0.6860135,0.2379695,0.3954656,-0.7686145,0.05334985,0.2562229,-0.01910579,-0.8380332],[-0.3428622,0.3150947,0.2660441,0.9575837,0.4355807,-0.8386526,-0.2271131,-0.2506298,0.07472456,-0.4311143,-0.8693085,0.9004514,-0.1683751,-0.5810602,-0.1177007,-0.9405007],[-0.04021966,-0.2662464,0.8309841,-0.4731964,0.01015913,-0.006049514,0.1178674,-0.4209906,-0.9043441,-0.4722263,0.9338367,0.1301228,-0.4314486,0.2950198,0.7501867,-0.4392828],[0.6260891,0.171724,-0.758147,0.8319445,-0.7982435]],[[0.8881552,0.07006609,-0.593549,0.156298,0.2393132,-0.4524013,-0.2299803,0.8248065,0.4690747,0.3224539,0.1033288,-0.3701214,-0.4355184,0.1140987,0.001691699,-0.2478656],[-0.03532064,0.07546151,0.4490466,-0.2203685,-0.5236833,-0.3885142,0.4581678,-0.3673848,-0.6860135,0.2379695,0.3954656,-0.7686145,0.05334985,0.2562229,-0.9944201,-0.8380332],[-0.3428622,0.3150947,0.2660441,0.9575837,0.4355807,-0.8386526,-0.443873,-0.2506298,-0.3708664,-0.4311143,-0.8693085,0.9004514,-0.1683751,-0.5810602,-0.1177007,-0.9405007],[0.7377353,-0.2662464,0.8309841,-0.4731964,0.01015913,0.5161457,0.1178674,-0.4209906,-0.9043441,-0.4722263,0.9338367,0.1301228,-0.4314486,0.2950198,0.7501867,-0.4392828],[0.6260891,0.171724,-0.758147,0.8319445,-0.7982435]],[[0.8881552,0.07006609,-0.593549,0.8456635,0.2393132,-0.4524013,-0.2299803,0.8248065,0.4690747,0.3224539,0.1033288,-0.3701214,-0.4355184,0.1140987,0.001691699,-0.2478656],[-0.03532064,0.07546151,0.4490466,-0.2203685,-0.5236833,-0.3885142,0.4581678,-0.3673848,0.9634452,0.2379695,0.3954656,-0.7686145,0.05334985,0.2562229,-0.9944201,-0.8380332],[-0.3428622,0.3150947,0.2660441,0.9575837,0.4355807,-0.8386526,-0.443873,-0.2506298,-0.3708664,-0.4311143,-0.8693085,0.9004514,-0.1683751,-0.7288339,-0.1177007,-0.9405007],[0.7377353,-0.2662464,0.8309841,-0.4731964,0.01015913,-0.006049514,0.1178674,-0.4209906,-0.9043441,-0.4722263,0.9338367,0.1301228,-0.4314486,0.2950198,0.7501867,-0.4392828],[0.6260891,0.171724,-0.758147,0.8319445,-0.7982435]],[[0.8881552,0.07006609,-0.593549,0.156298,0.2393132,-0.4524013,-0.2299803,0.8248065,0.4690747,0.3224539,0.1033288,-0.3701214,-0.4355184,0.1140987,0.001691699,-0.2478656],[-0.03532064,0.07546151,0.4490466,-0.5691419,-0.5236833,-0.3885142,0.4581678,-0.3673848,-0.6860135,0.2379695,0.3954656,-0.7686145,0.05334985,0.2562229,-0.9944201,-0.8380332],[-0.3428622,0.3150947,0.2660441,0.9575837,0.4355807,-0.8386526,-0.443873,-0.2506298,-0.3708664,-0.4311143,-0.8693085,0.9004514,-0.1683751,-0.5810602,-0.1177007,-0.9405007],[0.7377353,-0.2662464,0.8309841,-0.4731964,0.01015913,-0.006049514,0.1178674,-0.4209906,-0.9043441,-0.4722263,0.9338367,0.2880695,-0.4314486,0.2950198,0.7501867,-0.4392828],[0.6260891,0.171724,-0.758147,0.8319445,-0.7982435]],[[0.8881552,0.07006609,-0.593549,0.156298,0.2393132,-0.4524013,-0.2299803,0.8248065,0.4690747,0.3224539,0.872216,-0.3701214,-0.4355184,0.1140987,0.001691699,-0.2478656],[-0.03532064,0.07546151,0.4490466,-0.2203685,-0.5236833,-0.3885142,0.4581678,-0.3673848,-0.6860135,0.2379695,0.3954656,-0.7686145,0.05334985,0.4390015,-0.01910579,-0.8380332],[-0.3428622,0.3150947,0.2660441,0.9575837,0.4355807,-0.8386526,-0.2271131,-0.2506298,0.07472456,-0.4311143,-0.8693085,0.9004514,-0.1683751,-0.03499258,-0.1177007,0.4269316],[-0.04021966,-0.2662464,0.8309841,-0.4731964,0.01015913,-0.006049514,0.1178674,-0.4209906,-0.9043441,-0.4722263,0.9338367,0.1301228,-0.4314486,0.2950198,0.7501867,-0.4392828],[0.6260891,0.171724,-0.758147,0.8319445,-0.7982435]],[[0.8881552,0.07006609,-0.593549,0.156298,0.2393132,-0.4524013,-0.2299803,0.8248065,0.4690747,0.3224539,0.1033288,-0.3701214,-0.4355184,0.1140987,0.001691699,-0.2478656],[-0.03532064,0.07546151,0.4490466,-0.2203685,-0.5236833,-0.3885142,0.4581678,-0.3673848,-0.6860135,0.2379695,0.3954656,-0.7686145,0.05334985,0.2562229,-0.9944201,-0.8380332],[-0.3428622,0.3150947,0.2660441,0.9575837,0.4355807,-0.8386526,-0.443873,-0.2506298,0.07472456,-0.4311143,-0.8693085,0.9004514,-0.1683751,-0.5810602,-0.1177007,-0.9405007],[0.7377353,-0.2662464,0.2085756,-0.4731964,0.01015913,-0.006049514,0.1178674,-0.4209906,-0.9043441,-0.4722263,0.9338367,0.1301228,-0.4314486,0.2950198,0.7501867,-0.4392828],[0.6260891,0.171724,-0.758147,0.8319445,-0.7982435]],[[0.8881552,0.07006609,-0.593549,0.156298,0.2393132,-0.4524013,-0.2299803,0.8248065,0.4690747,0.3224539,0.1033288,-0.3701214,-0.4355184,0.1140987,0.001691699,-0.2478656],[-0.03532064,0.07546151,0.4490466,-0.2203685,-0.5236833,-0.3885142,0.4581678,-0.3673848,-0.6860135,0.2379695,0.3954656,-0.7686145,0.05334985,0.2562229,-0.9944201,-0.8380332],[-0.3428622,0.3150947,0.2660441,0.9575837,0.4355807,-0.8386526,-0.443873,-0.2506298,-0.3708664,-0.4311143,-0.8693085,0.9004514,-0.1683751,-0.5810602,-0.1177007,-0.9405007],[0.7377353,-0.2662464,0.8309841,-0.4731964,0.01015913,-0.006049514,0.1178674,-0.4209906,-0.9043441,-0.4722263,0.9338367,0.1301228,-0.4314486,0.2950198,0.7501867,-0.4392828],[0.6260891,0.171724,-0.758147,0.8319445,-0.7982435]],[[0.8881552,0.07006609,-0.9519668,0.156298,0.2393132,-0.4524013,-0.2299803,0.8248065,0.4690747,0.3224539,0.1033288,-0.3701214,-0.4355184,-0.4400128,0.001691699,-0.2478656],[-0.03532064,0.07546151,0.4490466,-0.2203685,-0.5236833,-0.3885142,0.4581678,0.2194735,-0.6860135,0.2379695,0.3954656,-0.7686145,0.05334985,0.2562229,-0.01910579,-0.8380332],[-0.3428622,0.3150947,0.2660441,0.9575837,0.4355807,-0.8386526,-0.2271131,0.1947628,0.07472456,-0.4311143,-0.8693085,0.9004514,-0.1683751,-0.5810602,-0.1177007,-0.9405007],[-0.04021966,-0.2662464,0.8309841,-0.4731964,0.01015913,-0.006049514,0.1178674,-0.4209906,-0.9043441,-0.4722263,0.9338367,0.1301228,-0.4314486,0.2950198,0.7501867,-0.4392828],[0.6260891,0.171724,-0.758147,0.8319445,-0.7982435]],[[0.8881552,0.07006609,-0.593549,0.156298,0.2393132,-0.4524013,-0.2299803,0.8248065,0.4690747,0.3224539,0.1033288,-0.3701214,-0.4355184,0.1140987,0.001691699,-0.2478656],[-0.03532064,0.07546151,0.4490466,-0.2203685,-0.5236833,-0.3885142,0.4581678,-0.3673848,-0.6860135,0.2379695,0.3954656,-0.7686145,0.05334985,0.2562229,-0.9944201,-0.8380332],[-0.3428622,0.3150947,0.2660441,0.9575837,0.4355807,-0.4803745,-0.443873,-0.2506298,0.07472456,-0.4311143,-0.8693085,-0.7265704,-0.1683751,-0.5810602,-0.1177007,-0.9405007],[0.7377353,-0.2662464,0.2085756,-0.4731964,0.01015913,-0.006049514,0.1178674,-0.4209906,-0.9043441,-0.4722263,0.9338367,0.1301228,-0.4314486,0.2950198,0.7501867,-0.4392828],[0.6260891,0.171724,-0.758147,0.8319445,-0.7982435]],[[0.8881552,0.07006609,-0.593549,0.156298,0.2393132,-0.4524013,-0.2299803,0.8248065,0.4690747,0.3224539,0.1033288,-0.3701214,-0.4355184,0.1140987,0.001691699,-0.2478656],[-0.03532064,0.07546151,0.4490466,-0.2203685,-0.5236833,-0.3885142,0.4581678,-0.3673848,-0.6860135,0.2379695,0.3954656,-0.7686145,0.05334985,0.2562229,-0.01910579,-0.8380332],[-0.3428622,0.3150947,0.2660441,0.9575837,0.4355807,-0.8386526,-0.2271131,-0.2506298,0.1050977,-0.4311143,-0.509181,0.9004514,-0.1683751,-0.5810602,-0.1177007,-0.9405007],[-0.04021966,-0.2662464,0.8309841,-0.4731964,0.01015913,-0.006049514,0.1178674,-0.4209906,-0.9043441,-0.4722263,0.9338367,0.1301228,-0.4314486,0.2950198,0.7501867,-0.4392828],[0.6260891,0.171724,-0.758147,0.8319445,-0.7982435]],[[0.8881552,0.07006609,-0.9519668,0.156298,0.2393132,-0.4524013,-0.2299803,0.8248065,0.4690747,0.3224539,0.1033288,-0.3701214,-0.4355184,-0.4400128,0.001691699,-0.2478656],[-0.03532064,0.07546151,0.4490466,-0.2203685,-0.5236833,-0.3885142,0.4581678,0.2194735,-0.6860135,0.2379695,0.3954656,-0.7686145,0.05334985,0.2562229,-0.01910579,-0.8380332],[-0.3428622,0.3150947,0.2660441,0.9575837,0.4355807,-0.8386526,-0.2271131,0.1947628,0.07472456,-0.5383842,-0.8693085,0.9004514,-0.1683751,-0.2072021,-0.9909551,-0.9405007],[-0.04021966,-0.2662464,0.8309841,-0.4731964,0.01015913,-0.006049514,0.1178674,-0.4209906,-0.9043441,-0.4722263,0.9338367,0.1301228,-0.4314486,0.2950198,0.7501867,-0.4392828],[0.6260891,0.171724,-0.758147,0.8319445,-0.7982435]],[[0.8881552,0.07006609,-0.9519668,0.156298,0.2393132,-0.4524013,-0.2299803,0.8248065,0.4690747,0.3224539,0.1033288,-0.3701214,-0.4355184,-0.4400128,0.001691699,-0.2478656],[-0.03532064,0.07546151,0.4490466,-0.2203685,-0.5236833,-0.3885142,0.4581678,-0.3673848,-0.6860135,0.2379695,0.3954656,-0.7686145,0.05334985,0.2562229,-0.01910579,-0.07618248],[-0.3428622,0.3150947,0.2660441,0.9575837,0.4355807,-0.8386526,-0.2271131,0.1947628,0.07472456,-0.4311143,-0.8693085,0.9004514,-0.1683751,-0.5810602,-0.1177007,-0.9405007],[-0.04021966,-0.2662464,0.8309841,-0.4731964,0.01015913,-0.006049514,0.1178674,-0.4209906,-0.9043441,-0.4722263,0.9338367,0.1301228,-0.4314486,0.2950198,0.7501867,-0.4392828],[0.6260891,0.171724,-0.758147,0.8319445,-0.7982435]],[[0.8881552,0.07006609,-0.593549,0.156298,0.2393132,-0.4524013,-0.2299803,0.8248065,0.4690747,0.3224539,0.1033288,-0.3701214,-0.4355184,0.1140987,0.001691699,-0.2478656],[-0.03532064,0.07546151,0.4490466,-0.2203685,-0.5236833,-0.3885142,0.4581678,-0.3673848,-0.6860135,0.2379695,0.3954656,-0.7686145,0.05334985,0.2562229,-0.9944201,-0.8380332],[-0.3428622,0.3150947,0.2660441,0.9575837,0.4355807,-0.8386526,-0.443873,-0.2506298,0.07472456,-0.4311143,-0.8693085,0.9004514,-0.1683751,-0.5810602,-0.1177007,-0.9405007],[0.7377353,-0.2662464,0.2085756,-0.4731964,0.01015913,-0.006049514,0.1178674,-0.4209906,-0.9043441,-0.4722263,0.9338367,0.1301228,-0.4314486,0.2950198,0.7501867,-0.4392828],[0.6260891,0.171724,-0.758147,0.8319445,-0.7982435]],[[0.8881552,0.07006609,-0.9519668,0.156298,0.2393132,-0.4524013,-0.2299803,0.8248065,0.4690747,0.3224539,0.1033288,-0.3701214,-0.4355184,-0.4400128,0.001691699,-0.2478656],[-0.03532064,0.07546151,0.4490466,-0.2203685,-0.5236833,-0.3885142,0.4581678,0.2194735,-0.6860135,0.2379695,0.3954656,-0.7686145,0.05334985,0.2562229,-0.01910579,-0.8380332],[-0.3428622,0.3084242,0.2660441,0.9575837,0.4355807,-0.8386526,-0.2271131,0.1947628,0.07472456,-0.4311143,-0.8693085,0.9004514,-0.1683751,-0.2072021,-0.1177007,-0.9405007],[-0.04021966,-0.2662464,0.8309841,-0.4731964,0.01015913,-0.006049514,0.1178674,-0.4209906,-0.9043441,-0.4722263,0.9338367,0.1301228,-0.4314486,0.2950198,0.7501867,-0.4392828],[0.6260891,0.171724,-0.758147,0.8319445,-0.7982435]],[[0.8881552,0.07006609,-0.593549,0.156298,0.2393132,-0.4524013,-0.2299803,0.8248065,0.4690747,0.3224539,0.1033288,-0.3701214,-0.4355184,0.1140987,0.001691699,-0.2478656],[-0.03532064,0.07546151,0.4490466,-0.2203685,-0.5236833,-0.3885142,0.4581678,-0.3673848,-0.6860135,0.2379695,0.3954656,-0.7686145,0.05334985,0.2562229,-0.9944201,-0.8380332],[-0.3428622,0.3150947,0.2660441,0.9575837,0.4355807,-0.8386526,-0.443873,-0.2506298,0.07472456,-0.4311143,-0.8693085,0.9004514,-0.1683751,-0.5810602,-0.1177007,-0.9405007],[0.7377353,-0.2662464,0.8309841,-0.3141867,0.01015913,-0.006049514,0.1178674,-0.4209906,-0.9043441,-0.4722263,0.9338367,0.1301228,-0.4314486,0.2950198,0.7501867,-0.4392828],[0.6260891,0.171724,-0.758147,0.8319445,-0.7982435]],[[0.8881552,0.07006609,-0.593549,0.156298,0.2393132,-0.4524013,-0.2299803,0.8248065,0.4690747,0.3224539,0.1033288,-0.3701214,-0.4355184,0.1140987,0.001691699,-0.2478656],[-0.03532064,0.07546151,0.4490466,-0.2203685,-0.5236833,-0.3885142,0.4581678,-0.3673848,-0.6860135,0.2379695,0.3954656,-0.7686145,0.05334985,0.2562229,-0.9944201,-0.8380332],[0.06629145,0.3150947,0.2660441,0.9575837,0.4355807,-0.8386526,-0.443873,-0.2506298,0.07472456,-0.4311143,-0.8693085,0.9004514,-0.1683751,-0.5810602,-0.1177007,-0.9405007],[0.7377353,-0.2662464,0.8309841,-0.4731964,0.01015913,-0.006049514,0.1178674,-0.4209906,-0.9043441,-0.4722263,0.9338367,0.1301228,-0.4314486,0.2950198,0.7501867,-0.4392828],[0.6260891,0.171724,-0.758147,0.8319445,-0.7982435]],[[0.8881552,0.07006609,-0.9519668,0.156298,0.2393132,-0.4524013,-0.2299803,0.8248065,0.4690747,0.3224539,0.1033288,-0.3701214,-0.4355184,-0.4400128,0.001691699,-0.2478656],[-0.03532064,0.07546151,0.4490466,-0.2203685,-0.5236833,-0.3885142,0.4581678,0.2194735,-0.6860135,0.2379695,0.3954656,-0.7686145,0.05334985,0.2562229,-0.01910579,-0.8380332],[-0.3428622,0.3150947,0.2660441,0.9575837,0.4355807,-0.8386526,-0.2271131,0.1947628,0.07472456,-0.4311143,-0.8693085,0.9004514,-0.1683751,-0.2072021,-0.1177007,-0.9405007],[-0.04021966,-0.2662464,0.8309841,-0.4731964,0.01015913,-0.006049514,0.1178674,-0.4209906,-0.9043441,-0.4722263,0.9338367,0.1301228,-0.4314486,0.2950198,0.7501867,-0.4392828],[0.6260891,0.171724,-0.758147,0.8319445,-0.7982435]],[[0.8881552,0.07006609,-0.593549,0.156298,0.2393132,-0.4524013,-0.2299803,0.8248065,0.4690747,0.3224539,0.1033288,-0.3701214,-0.4355184,0.1140987,0.001691699,-0.2478656],[-0.03532064,0.07546151,0.4490466,-0.2203685,-0.5236833,-0.3885142,0.4581678,-0.3673848,-0.6860135,0.2379695,0.3954656,-0.7686145,0.05334985,0.2562229,-0.01910579,-0.8380332],[-0.3428622,0.3150947,0.2660441,0.9575837,0.4355807,-0.8386526,-0.2271131,-0.2506298,0.1050977,-0.4311143,-0.509181,0.9004514,-0.1683751,-0.5810602,-0.1177007,-0.9405007],[-0.04021966,0.4441411,0.8309841,-0.4731964,0.01015913,-0.006049514,0.1178674,-0.4209906,-0.9043441,-0.4722263,0.9338367,0.1301228,-0.4314486,0.2950198,0.7501867,-0.4392828],[0.6260891,0.171724,-0.758147,0.8319445,-0.7982435]],[[0.8881552,0.07006609,-0.593549,0.156298,0.2393132,-0.4524013,-0.2299803,0.8248065,0.4690747,0.3224539,0.1033288,-0.3701214,-0.4355184,0.1140987,-0.5418353,-0.2478656],[-0.03532064,0.07546151,-0.04030645,-0.2203685,-0.5236833,-0.3885142,0.4581678,-0.4605829,-0.8188133,0.2379695,0.3954656,-0.7686145,0.4096417,0.2562229,-0.01910579,-0.8380332],[-0.3428622,0.3150947,0.2660441,0.9575837,0.4355807,-0.8386526,-0.2271131,-0.2506298,0.1050977,-0.4311143,-0.509181,0.9004514,-0.1683751,-0.5810602,-0.1177007,-0.9405007],[-0.04021966,-0.6515908,0.8309841,-0.4731964,0.01015913,-0.006049514,0.1178674,-0.4209906,-0.9043441,-0.4722263,0.9338367,0.1301228,-0.4314486,0.2950198,-0.2441331,-0.4392828],[0.6260891,0.171724,-0.758147,0.8319445,-0.7982435]],[[0.8881552,0.07006609,-0.593549,0.156298,0.2393132,-0.4524013,-0.2299803,0.8248065,0.4690747,0.3224539,0.872216,-0.3701214,-0.4355184,0.1140987,0.001691699,-0.2478656],[-0.03532064,0.07546151,0.4490466,-0.2203685,-0.5236833,-0.3885142,0.4581678,-0.3673848,-0.6860135,0.2379695,0.3954656,-0.7686145,0.05334985,0.4390015,-0.01910579,-0.8380332],[-0.3428622,0.3150947,0.2660441,0.9575837,0.4355807,-0.8386526,-0.2271131,-0.2506298,0.07472456,-0.4311143,-0.8693085,0.9004514,-0.1683751,-0.03499258,-0.1177007,0.4269316],[-0.04021966,-0.2662464,0.8309841,-0.4731964,0.01015913,-0.006049514,0.1178674,-0.4209906,-0.9043441,-0.4722263,0.9338367,0.1301228,-0.4314486,0.2950198,0.7501867,-0.4392828],[0.6260891,0.171724,-0.758147,0.8319445,-0.7982435]],[[0.8881552,0.07006609,-0.9519668,0.156298,0.2393132,-0.4524013,-0.2299803,0.8248065,0.4690747,0.3224539,0.1033288,-0.3701214,-0.4355184,-0.4400128,0.001691699,-0.2478656],[-0.03532064,0.07546151,0.4490466,-0.2203685,-0.5236833,-0.3885142,0.4581678,0.2194735,-0.6860135,0.2379695,0.3954656,-0.7686145,0.05334985,0.2562229,-0.01910579,-0.8380332],[-0.3428622,0.3150947,0.2660441,0.9575837,0.4355807,-0.8386526,-0.2271131,0.1947628,0.07472456,-0.4311143,-0.8693085,0.9004514,-0.1683751,-0.5810602,-0.1177007,-0.9405007],[-0.04021966,-0.2662464,0.4042144,-0.4731964,0.01015913,-0.006049514,0.1178674,-0.4209906,-0.9043441,-0.4722263,0.9338367,0.1301228,-0.4314486,0.2950198,0.7501867,-0.4392828],[0.6260891,0.171724,-0.758147,0.8319445,-0.7982435]],[[0.8881552,0.07006609,-0.593549,0.156298,0.2393132,-0.4524013,-0.2299803,0.8248065,0.4690747,0.3224539,0.1033288,-0.3701214,-0.4355184,0.1140987,0.001691699,-0.2478656],[-0.03532064,0.07546151,0.4490466,-0.2203685,-0.5236833,-0.3885142,0.4581678,-0.3673848,-0.6860135,0.2379695,0.3954656,-0.7686145,0.05334985,0.2562229,-0.9944201,-0.8380332],[-0.3428622,0.3150947,0.2660441,0.9575837,0.4355807,-0.8386526,-0.443873,-0.2506298,-0.3708664,-0.3346223,-0.8693085,0.9004514,-0.1683751,-0.5810602,-0.1177007,-0.9405007],[0.7377353,-0.2662464,0.8309841,-0.4731964,0.01015913,-0.006049514,0.1178674,-0.4209906,-0.9043441,-0.4722263,0.9338367,0.1301228,-0.4314486,0.2950198,0.7501867,-0.4392828],[0.6260891,0.171724,-0.758147,0.8319445,-0.7982435]],[[0.8881552,0.07006609,-0.9519668,0.156298,0.2393132,-0.4524013,-0.2299803,0.8248065,0.4690747,0.8055263,0.1033288,-0.3701214,-0.4355184,0.4951205,0.001691699,-0.2478656],[-0.03532064,0.07546151,0.4490466,-0.2203685,-0.5236833,-0.3885142,0.4581678,0.2194735,-0.6860135,0.2379695,0.7740111,-0.7686145,0.05334985,0.2562229,-0.01910579,-0.8380332],[-0.3428622,0.3150947,0.2660441,0.9575837,0.4355807,-0.8386526,-0.2271131,0.1947628,0.07472456,-0.4311143,-0.8693085,0.9004514,-0.1683751,-0.5810602,-0.1177007,-0.9405007],[-0.04021966,-0.3295144,0.8309841,-0.4731964,0.01015913,-0.006049514,-0.1536075,-0.4209906,-0.9043441,-0.4722263,0.9338367,0.1301228,-0.4314486,0.2950198,0.7501867,-0.4392828],[0.6260891,0.171724,-0.758147,-0.8789694,-0.7982435]],[[0.8881552,0.07006609,-0.9519668,0.156298,0.2393132,-0.4524013,-0.2299803,0.8248065,0.4690747,0.8055263,0.1033288,-0.3701214,-0.4355184,0.4951205,0.001691699,-0.2478656],[-0.03532064,0.07546151,0.4490466,-0.2203685,-0.5236833,-0.3885142,0.4581678,0.2194735,-0.6860135,0.2379695,0.7740111,-0.7686145,0.05334985,0.2562229,-0.01910579,-0.8380332],[-0.3428622,0.3150947,0.2660441,0.9575837,0.4355807,-0.8386526,-0.2271131,0.1947628,0.07472456,-0.4311143,-0.8693085,0.9004514,-0.1683751,-0.5810602,-0.1177007,-0.9405007],[-0.04021966,-0.3295144,0.8309841,-0.4731964,0.01015913,-0.006049514,-0.1536075,-0.4209906,-0.9043441,-0.4722263,0.9338367,0.1301228,-0.4314486,0.2950198,0.7501867,-0.4392828],[0.6260891,0.171724,-0.758147,-0.8789694,-0.7982435]],[[0.8881552,0.07006609,-0.593549,0.156298,0.2393132,-0.4524013,-0.2299803,0.8248065,0.4690747,0.3224539,0.1033288,-0.3701214,-0.4355184,0.1140987,0.001691699,-0.2478656],[-0.03532064,0.07546151,0.4490466,-0.2203685,-0.5236833,-0.3885142,0.4581678,-0.3673848,-0.6860135,0.2379695,0.3954656,-0.7686145,0.05334985,0.2562229,-0.9944201,-0.8380332],[-0.3428622,0.3150947,0.2660441,0.9575837,0.4355807,-0.4803745,-0.443873,-0.2506298,0.07472456,-0.4311143,-0.8693085,0.9004514,-0.1683751,-0.5810602,-0.1177007,-0.9405007],[0.7377353,-0.2662464,0.2085756,-0.4731964,0.01015913,-0.006049514,0.1178674,-0.4209906,-0.9043441,-0.4722263,0.9338367,0.1301228,-0.4314486,0.2950198,0.7501867,-0.4392828],[0.6260891,0.171724,-0.758147,0.8319445,-0.7982435]],[[0.8881552,0.07006609,-0.6525745,0.156298,0.2393132,-0.4524013,-0.2299803,0.8248065,0.4690747,0.3224539,0.1033288,-0.3701214,-0.4355184,0.1140987,0.001691699,-0.2478656],[-0.03532064,0.07546151,0.4490466,0.8160911,-0.5236833,-0.3885142,0.4581678,-0.3673848,-0.6860135,-0.09194458,0.3954656,-0.7686145,0.05334985,0.2562229,-0.9944201,-0.8380332],[-0.3428622,0.3150947,0.2660441,0.9206502,0.4355807,-0.8386526,-0.443873,-0.2506298,-0.3708664,-0.4337288,-0.8693085,0.9004514,-0.1683751,-0.5810602,-0.1177007,-0.9405007],[0.7377353,-0.2662464,0.8309841,-0.4731964,0.01015913,-0.006049514,0.1178674,-0.4209906,-0.9043441,-0.4722263,0.9338367,0.1301228,-0.4314486,0.2950198,0.7501867,-0.4392828],[0.6260891,0.171724,-0.758147,0.8319445,-0.7982435]],[[0.8881552,0.07006609,-0.593549,0.156298,0.2393132,-0.4524013,-0.2299803,0.8248065,0.4690747,0.3224539,0.872216,-0.3701214,-0.4355184,0.1140987,0.001691699,-0.2478656],[0.7391963,0.07546151,0.4490466,-0.2203685,-0.5236833,-0.3885142,0.4581678,-0.3673848,-0.6860135,0.2379695,0.3954656,-0.7686145,0.05334985,0.4390015,-0.01910579,-0.8380332],[-0.3428622,0.3150947,0.2660441,0.9575837,0.4355807,-0.8386526,-0.2271131,-0.2506298,0.07472456,-0.4311143,-0.8693085,0.9004514,-0.1683751,-0.03499258,-0.1177007,-0.9405007],[-0.04021966,-0.2662464,0.8309841,-0.4731964,0.01015913,-0.006049514,0.1178674,-0.4209906,-0.9043441,-0.4722263,0.9338367,0.1301228,-0.4314486,0.2950198,0.7501867,-0.4392828],[0.6260891,0.171724,-0.758147,0.8319445,-0.7982435]],[[0.8881552,0.07006609,-0.9519668,0.156298,0.2393132,-0.4524013,-0.2299803,0.8248065,0.4690747,0.8055263,0.1033288,-0.3701214,-0.4355184,0.4951205,0.001691699,-0.2478656],[-0.03532064,0.07546151,0.4490466,-0.2203685,-0.5236833,-0.3885142,0.4581678,0.2194735,-0.6860135,0.2379695,0.7740111,-0.7686145,0.05334985,0.2562229,-0.01910579,-0.8380332],[-0.3428622,0.3150947,0.2660441,0.9575837,0.4355807,-0.8386526,-0.2271131,-0.6773586,0.07472456,-0.4311143,-0.8693085,0.9004514,-0.1683751,-0.5810602,-0.1177007,-0.9405007],[-0.04021966,-0.3295144,0.8309841,-0.4731964,0.01015913,-0.006049514,-0.1536075,-0.4209906,-0.9043441,-0.4722263,0.9338367,0.1301228,-0.4314486,0.2950198,0.7501867,-0.4392828],[0.6260891,0.171724,-0.758147,-0.8789694,-0.7982435]],[[0.8881552,0.07006609,-0.593549,0.156298,0.2393132,-0.4524013,-0.2299803,0.8248065,0.4690747,0.3224539,0.1033288,-0.3701214,-0.4355184,0.1140987,0.001691699,-0.2478656],[-0.03532064,0.07546151,0.4490466,-0.2203685,-0.5236833,-0.3885142,0.4581678,0.9920561,-0.6860135,0.2379695,0.3954656,-0.7686145,0.05334985,0.2562229,-0.9944201,-0.8380332],[-0.3428622,0.3150947,0.2660441,0.9575837,0.4355807,-0.8386526,-0.443873,-0.2506298,-0.3708664,-0.4311143,-0.8693085,0.9004514,-0.1683751,-0.5810602,-0.1177007,-0.9405007],[0.7377353,-0.2662464,0.8309841,-0.4731964,0.01015913,-0.006049514,0.1178674,-0.4209906,-0.9043441,-0.4722263,0.9338367,0.1301228,-0.4314486,0.2950198,0.7501867,-0.4392828],[0.6260891,0.171724,-0.758147,0.8319445,-0.7982435]],[[0.8881552,0.07006609,-0.593549,0.156298,0.2393132,-0.4524013,-0.2299803,0.8248065,0.4690747,0.3224539,0.1033288,-0.3701214,-0.4355184,0.1140987,0.001691699,-0.2478656],[-0.03532064,0.07546151,0.4490466,-0.2050875,-0.5236833,-0.3885142,0.4581678,-0.3673848,0.2047063,0.2379695,0.3954656,-0.7686145,0.6808522,0.2562229,-0.01910579,-0.8380332],[-0.3428622,0.3150947,0.2660441,0.9575837,0.4355807,-0.8386526,-0.2271131,-0.2506298,0.07472456,-0.4311143,-0.8693085,0.9004514,0.1829017,-0.6951332,-0.1177007,-0.9405007],[-0.04021966,-0.2662464,0.8309841,-0.4731964,0.01015913,-0.006049514,0.1178674,-0.4209906,-0.9043441,-0.4722263,0.9338367,0.1301228,-0.4314486,0.2950198,0.7501867,-0.4392828],[0.6260891,0.171724,-0.758147,0.8319445,-0.7982435]],[[0.8881552,0.07006609,-0.9519668,0.156298,0.2393132,-0.4524013,-0.2299803,0.8248065,0.4690747,0.3224539,0.1033288,-0.3701214,-0.4355184,-0.4400128,0.001691699,-0.2478656],[-0.03532064,0.07546151,0.4490466,-0.2203685,-0.5236833,-0.3885142,0.4581678,0.2194735,-0.6860135,0.2379695,0.3954656,-0.7686145,0.05334985,0.2562229,-0.01910579,-0.8380332],[-0.3428622,0.3150947,0.2660441,0.9575837,0.4355807,-0.8386526,-0.2271131,0.1947628,-0.7518613,-0.4311143,-0.8693085,0.9004514,-0.1683751,-0.5810602,-0.1177007,-0.9405007],[-0.04021966,-0.2662464,0.8309841,-0.1771432,0.01015913,-0.006049514,0.1178674,-0.4209906,-0.9043441,-0.4722263,0.9338367,0.1301228,-0.4314486,0.7724869,0.7501867,-0.4392828],[0.6260891,0.171724,-0.758147,0.8319445,-0.9989159]],[[0.8881552,0.07006609,-0.9519668,0.156298,0.2393132,-0.4524013,-0.2299803,0.8248065,0.4690747,0.3224539,0.1033288,-0.3701214,-0.4355184,-0.4400128,0.001691699,-0.2478656],[-0.03532064,0.07546151,0.4490466,-0.2203685,-0.5236833,-0.3885142,0.4581678,0.2194735,-0.6860135,0.2379695,0.3954656,-0.7686145,0.05334985,0.2562229,-0.01910579,-0.8380332],[-0.3428622,0.3150947,0.2660441,0.9575837,0.4355807,-0.8386526,-0.2271131,0.1947628,0.07472456,-0.4311143,-0.8693085,0.9004514,-0.1683751,-0.5810602,-0.1177007,-0.9405007],[-0.04021966,-0.2662464,0.8309841,-0.4731964,0.01015913,-0.006049514,0.1178674,-0.4209906,-0.9043441,-0.4722263,0.9338367,0.1301228,-0.4314486,0.2950198,0.7501867,-0.4392828],[0.6260891,0.171724,-0.758147,0.8319445,-0.7982435]],[[0.8881552,0.07006609,-0.593549,0.156298,0.2393132,-0.4524013,-0.2299803,0.8248065,0.4690747,0.3224539,0.1033288,-0.3701214,-0.4355184,0.1140987,-0.5418353,-0.2478656],[-0.03532064,0.07546151,-0.04030645,-0.2203685,-0.5236833,-0.3885142,0.4581678,-0.4605829,-0.8188133,0.2379695,0.3954656,-0.7686145,0.4096417,0.2562229,-0.01910579,-0.8380332],[-0.3428622,0.3150947,0.2660441,0.9575837,0.4355807,-0.8386526,-0.2271131,-0.2506298,0.1050977,-0.4311143,-0.509181,0.9004514,-0.1683751,-0.5810602,-0.1177007,-0.9405007],[-0.04021966,-0.6515908,0.8309841,-0.4731964,0.01015913,-0.006049514,0.1178674,-0.4209906,-0.9043441,-0.4722263,0.9338367,0.1301228,-0.4314486,0.2950198,-0.2441331,-0.4392828],[0.6260891,0.171724,-0.758147,0.8319445,-0.7982435]],[[0.8881552,0.07006609,-0.9519668,0.156298,0.1105794,-0.9264662,-0.05420983,0.8248065,0.4690747,0.3224539,0.2866711,-0.3701214,-0.4355184,-0.4400128,0.001691699,-0.2478656],[-0.03532064,-0.7101293,0.4490466,-0.2203685,-0.5236833,-0.3885142,0.4581678,0.2194735,-0.6860135,0.2379695,0.3954656,-0.7686145,0.05334985,0.2562229,-0.01910579,-0.8380332],[-0.3428622,0.3150947,0.2660441,0.9575837,0.4355807,-0.8386526,-0.2271131,0.1947628,0.07472456,-0.4311143,-0.8693085,0.9004514,-0.1683751,-0.5810602,-0.1177007,-0.9405007],[-0.04021966,-0.2662464,0.8309841,-0.4731964,0.01015913,-0.006049514,0.1178674,-0.4209906,-0.9043441,-0.2217926,0.9338367,0.1301228,-0.4314486,0.2950198,0.7501867,-0.4392828],[0.6260891,0.171724,-0.758147,0.8319445,-0.7982435]],[[0.8881552,0.07006609,-0.593549,0.156298,0.2393132,-0.4524013,-0.2299803,0.8248065,0.4690747,0.3224539,0.1033288,-0.3701214,-0.4355184,0.1140987,0.001691699,-0.2478656],[-0.03532064,0.07546151,0.4490466,-0.2203685,-0.5236833,-0.3885142,0.4581678,-0.3673848,-0.6860135,0.2379695,0.3954656,-0.7686145,0.05334985,0.2562229,-0.9944201,-0.8380332],[-0.3428622,0.3150947,0.2660441,0.9575837,0.4355807,-0.8386526,-0.443873,-0.2506298,-0.3708664,-0.4311143,-0.8693085,0.9004514,-0.1683751,-0.5810602,-0.1177007,-0.9405007],[0.7377353,-0.2662464,0.8309841,-0.4731964,0.01015913,-0.006049514,0.1178674,-0.4209906,-0.9043441,-0.4722263,0.9338367,0.1301228,-0.4314486,0.2950198,0.7501867,-0.4392828],[0.6260891,0.171724,-0.758147,0.8319445,-0.7982435]],[[0.8881552,0.07006609,-0.593549,0.156298,0.2393132,-0.4524013,-0.2299803,0.8248065,0.4690747,0.3224539,0.872216,-0.3701214,-0.4355184,0.1140987,0.001691699,-0.2478656],[-0.03532064,0.07546151,0.4490466,-0.2203685,-0.5236833,-0.3885142,0.4581678,-0.3673848,-0.6860135,0.2379695,0.3954656,-0.7686145,0.05334985,0.4390015,-0.01910579,-0.8380332],[-0.3428622,0.3150947,0.2660441,0.9575837,0.4355807,-0.8386526,-0.2271131,-0.2506298,0.07472456,-0.4311143,-0.8693085,0.9004514,-0.1683751,-0.03499258,-0.1177007,-0.9405007],[-0.04021966,-0.2662464,0.8309841,-0.4731964,0.01015913,-0.006049514,0.1178674,-0.4209906,-0.9043441,-0.4722263,0.9338367,0.1301228,-0.4314486,0.2950198,0.7501867,-0.4392828],[0.6260891,0.171724,-0.758147,0.8319445,-0.7982435]],[[0.8881552,0.2029339,-0.593549,0.156298,0.2393132,-0.4524013,-0.2299803,0.8248065,0.4690747,0.3224539,0.1033288,-0.3701214,-0.4355184,0.1140987,0.001691699,-0.2478656],[-0.03532064,0.07546151,0.4490466,-0.2203685,-0.5236833,-0.3885142,0.4581678,-0.3673848,-0.6860135,0.2379695,0.3954656,-0.7686145,0.05334985,0.2562229,-0.9944201,-0.8380332],[-0.3428622,0.3150947,0.2660441,0.9575837,0.4355807,-0.8386526,-0.443873,-0.2506298,-0.3708664,-0.4311143,-0.8693085,0.9004514,-0.1683751,-0.5810602,-0.1177007,-0.9405007],[0.7377353,-0.2662464,0.8309841,-0.4731964,0.01015913,-0.006049514,0.1178674,-0.4209906,-0.9043441,-0.4722263,0.9338367,0.1301228,-0.4314486,0.2950198,0.7501867,-0.07710207],[0.6260891,0.171724,-0.758147,0.8319445,-0.7982435]],[[0.8881552,0.07006609,-0.593549,0.156298,0.2393132,-0.4524013,-0.2299803,0.8248065,0.4690747,0.3224539,0.1033288,-0.3701214,-0.4355184,0.1140987,-0.4054691,-0.2478656],[-0.03532064,0.07546151,-0.04030645,-0.2203685,-0.5236833,-0.3885142,0.4581678,-0.4605829,-0.8188133,0.2379695,0.3954656,-0.7686145,0.4096417,0.2562229,-0.01910579,-0.8380332],[0.462384,0.3150947,0.6831059,0.9575837,0.4355807,-0.8386526,-0.2271131,-0.2506298,0.1050977,-0.4311143,-0.509181,0.9004514,-0.1683751,-0.5810602,-0.1177007,-0.9405007],[-0.04021966,-0.6515908,0.8309841,-0.4731964,0.01015913,-0.006049514,0.1178674,-0.4209906,-0.9043441,-0.4722263,0.9338367,0.1301228,0.7958145,0.2950198,-0.2441331,-0.4392828],[0.6260891,0.171724,-0.758147,0.8319445,-0.7982435]],[[0.8881552,0.07006609,-0.593549,0.156298,0.2393132,-0.4524013,-0.2299803,0.8248065,0.4690747,0.3224539,0.1033288,-0.3701214,-0.4355184,0.1140987,0.001691699,-0.2478656],[-0.03532064,0.07546151,0.4490466,-0.2203685,-0.5236833,-0.3885142,0.4581678,-0.3673848,-0.6860135,0.2379695,0.3954656,-0.7686145,0.05334985,0.2562229,-0.9944201,-0.8380332],[-0.3428622,0.3150947,0.2660441,0.9575837,0.4355807,-0.8386526,-0.443873,-0.2506298,-0.3708664,-0.4311143,-0.8693085,0.9004514,-0.1683751,-0.5810602,-0.1177007,-0.9405007],[0.7377353,-0.2662464,0.8309841,-0.4731964,0.01015913,0.5161457,0.1178674,-0.4209906,-0.9043441,-0.4722263,0.9338367,0.1301228,-0.4314486,0.2950198,0.7501867,-0.4392828],[0.6260891,0.171724,-0.758147,0.8319445,-0.7982435]],[[0.8881552,0.07006609,-0.9519668,0.156298,0.2393132,-0.4524013,-0.05420983,0.8248065,0.4690747,0.3224539,0.9736557,-0.3701214,-0.4355184,-0.4400128,0.001691699,-0.2478656],[-0.03532064,-0.7101293,0.4490466,-0.2203685,-0.5236833,-0.8296306,-0.3146905,0.2194735,-0.6860135,0.2379695,0.3954656,-0.7686145,0.05334985,0.2562229,-0.01910579,-0.8380332],[-0.3428622,0.3150947,0.2660441,0.9575837,0.4355807,-0.8386526,-0.2271131,-0.04918253,0.07472456,-0.4311143,-0.8693085,0.9004514,-0.1683751,-0.5810602,-0.1177007,-0.9405007],[-0.04021966,-0.2662464,0.8309841,-0.4731964,0.01015913,-0.006049514,0.1178674,-0.4209906,-0.9043441,-0.4722263,0.9338367,0.1301228,-0.4314486,0.2950198,0.7501867,-0.4392828],[0.6260891,0.171724,-0.758147,-0.3004481,-0.7982435]],[[0.8881552,0.07006609,-0.593549,0.156298,0.2393132,-0.4524013,-0.2299803,0.8248065,0.4690747,0.3224539,0.1033288,-0.3701214,-0.4355184,0.1140987,0.001691699,-0.2478656],[-0.03532064,0.07546151,0.4490466,-0.2203685,-0.5236833,-0.3885142,0.4581678,-0.3673848,-0.6860135,0.2379695,0.3954656,-0.7686145,0.05334985,0.2562229,-0.9944201,-0.8380332],[-0.3428622,0.3150947,0.2660441,0.9575837,0.4355807,-0.8386526,-0.443873,-0.2506298,0.07472456,-0.4311143,-0.8693085,0.9004514,-0.1683751,-0.5810602,-0.1177007,-0.9405007],[0.7377353,-0.2662464,0.8309841,-0.4731964,0.01015913,-0.006049514,0.1178674,-0.4209906,-0.9043441,-0.4722263,0.9338367,0.1301228,-0.4314486,0.2950198,0.7501867,-0.4392828],[0.6260891,0.171724,-0.758147,0.8319445,-0.7982435]],[[0.8881552,0.07006609,-0.9519668,0.156298,0.2393132,-0.4524013,-0.2299803,0.8248065,0.4690747,0.3224539,0.1033288,-0.3701214,-0.4355184,-0.4400128,0.001691699,-0.2478656],[-0.03532064,0.07546151,0.4490466,-0.2203685,-0.5236833,-0.3885142,0.4581678,-0.3673848,-0.6860135,0.2379695,0.3954656,-0.7686145,0.05334985,0.2562229,-0.01910579,-0.8380332],[-0.3428622,0.3150947,0.2660441,0.9575837,0.4355807,-0.8386526,-0.2271131,0.1947628,0.07472456,-0.4311143,-0.8693085,0.9004514,-0.1683751,-0.5810602,-0.1177007,-0.9405007],[-0.04021966,-0.2662464,0.8309841,-0.4731964,0.01015913,-0.8940566,0.1178674,-0.4209906,-0.9043441,-0.4722263,0.9338367,0.1301228,-0.4314486,0.2950198,0.7501867,-0.4392828],[0.6260891,0.171724,-0.758147,0.8319445,-0.7982435]],[[0.8881552,0.07006609,-0.593549,0.156298,0.2393132,-0.4524013,-0.2299803,0.8248065,0.4690747,0.3224539,0.1033288,-0.3701214,-0.4355184,0.1140987,0.001691699,-0.2478656],[-0.03532064,0.07546151,0.4490466,-0.2203685,-0.5236833,-0.3885142,0.4581678,-0.3673848,-0.6860135,0.2379695,0.3954656,-0.7686145,0.05334985,0.2562229,-0.9944201,-0.8380332],[-0.3428622,0.3150947,0.2660441,0.9575837,0.4355807,-0.8386526,-0.443873,-0.2506298,0.07472456,-0.4311143,-0.8693085,0.9004514,-0.1683751,-0.5810602,-0.1177007,-0.9405007],[0.7377353,-0.2662464,0.2085756,-0.4731964,0.01015913,-0.006049514,0.1178674,-0.4209906,-0.9043441,-0.4722263,0.9338367,0.1301228,-0.4314486,0.2950198,0.7501867,-0.4392828],[0.6260891,0.171724,-0.758147,0.8319445,-0.7982435]],[[0.8881552,0.07006609,-0.593549,0.156298,0.2393132,-0.4524013,-0.2299803,0.8248065,0.4690747,0.3224539,0.1033288,-0.3701214,-0.4355184,0.1140987,0.001691699,-0.2478656],[-0.03532064,0.07546151,0.4490466,-0.2203685,-0.5236833,-0.3885142,0.4581678,-0.3673848,-0.6860135,0.2379695,0.3954656,-0.7686145,0.05334985,0.2562229,-0.9944201,-0.8380332],[-0.3428622,0.3150947,0.2660441,0.9575837,0.4355807,0.8674541,0.1527737,-0.2506298,0.07472456,-0.4311143,-0.8693085,0.9004514,-0.1683751,-0.5810602,-0.1177007,-0.9405007],[0.7377353,-0.2662464,0.8309841,-0.4731964,0.01015913,-0.006049514,0.1178674,-0.4209906,-0.9043441,-0.4722263,0.9338367,0.1301228,-0.4314486,0.2950198,0.7501867,-0.4392828],[0.6260891,0.171724,-0.758147,0.8319445,-0.7982435]],[[0.8881552,0.07006609,-0.9519668,0.156298,0.2393132,-0.4524013,-0.05420983,0.8248065,0.4690747,0.3224539,0.9736557,-0.3701214,-0.4355184,-0.4400128,0.001691699,-0.2478656],[-0.03532064,-0.7101293,0.4490466,-0.2203685,-0.5236833,-0.8296306,0.4581678,0.2194735,-0.6860135,0.2379695,0.3954656,-0.7686145,0.05334985,0.2562229,-0.01910579,-0.8380332],[-0.3428622,0.3150947,0.2660441,0.9575837,0.4355807,-0.8386526,-0.2271131,-0.04918253,0.07472456,-0.4311143,-0.8693085,0.9004514,-0.1683751,-0.5810602,-0.1177007,-0.9405007],[-0.04021966,-0.2662464,0.8309841,-0.4731964,0.01015913,-0.006049514,0.1178674,-0.4209906,-0.9043441,-0.4722263,0.9338367,0.1301228,-0.4314486,0.2950198,0.7501867,-0.4392828],[0.6260891,0.171724,-0.758147,-0.3004481,-0.7982435]],[[0.8881552,0.07006609,-0.9519668,0.156298,0.2393132,-0.4524013,-0.2299803,0.8248065,0.4690747,0.3224539,0.1033288,-0.3701214,-0.4355184,-0.4400128,0.001691699,-0.2478656],[-0.03532064,0.07546151,0.4490466,-0.2203685,-0.5236833,-0.3885142,0.4581678,0.2194735,-0.6860135,0.2379695,0.3954656,-0.7686145,0.05334985,0.2562229,-0.01910579,-0.8380332],[-0.3428622,0.3150947,0.2660441,0.9575837,0.4355807,-0.8386526,-0.2271131,0.1947628,0.07472456,-0.4311143,-0.8693085,0.9004514,-0.1683751,-0.5810602,-0.1177007,-0.9405007],[-0.04021966,-0.2662464,0.8309841,-0.4731964,0.01015913,-0.006049514,0.1178674,-0.4209906,-0.9043441,-0.4722263,0.9338367,0.1301228,-0.4314486,0.2950198,0.7501867,-0.4392828],[0.6260891,0.171724,-0.758147,0.8319445,-0.7982435]],[[0.8881552,0.07006609,-0.9519668,0.156298,0.2393132,-0.4524013,-0.2299803,0.8248065,0.4690747,0.3224539,0.1033288,-0.3701214,-0.4355184,-0.4400128,0.001691699,-0.2478656],[-0.03532064,0.07546151,0.4490466,-0.2203685,-0.5236833,-0.3885142,0.4581678,-0.3673848,-0.6860135,0.2379695,0.3954656,-0.7686145,0.05334985,0.2562229,-0.01910579,-0.8380332],[-0.3428622,0.3150947,0.2660441,0.9575837,0.4355807,-0.8386526,-0.2271131,0.1947628,0.07472456,-0.4311143,-0.8693085,0.9004514,-0.1683751,-0.5810602,-0.1177007,-0.9405007],[-0.04021966,-0.2662464,0.8309841,-0.4731964,0.01015913,-0.8940566,0.1178674,-0.4209906,-0.9043441,-0.4722263,0.9338367,0.1301228,-0.4314486,0.2950198,0.7501867,-0.4392828],[0.6260891,0.171724,-0.758147,0.8319445,-0.7982435]],[[0.8881552,0.07006609,-0.593549,0.156298,0.2393132,-0.4524013,-0.2299803,0.8248065,0.4690747,0.3224539,0.1033288,-0.3701214,-0.4355184,0.1140987,0.001691699,-0.2478656],[-0.03532064,0.07546151,0.4490466,-0.2203685,-0.5236833,-0.3885142,0.4581678,-0.3673848,-0.6860135,0.2379695,0.3954656,-0.7686145,0.05334985,0.2562229,-0.9944201,-0.8380332],[-0.3428622,0.3150947,0.2660441,0.9575837,0.4355807,-0.8386526,-0.443873,-0.2506298,0.07472456,-0.4311143,-0.8693085,0.9004514,-0.1683751,-0.5810602,-0.1177007,-0.9405007],[0.7377353,-0.2662464,0.8309841,-0.4731964,0.01015913,-0.006049514,0.1178674,-0.4209906,-0.9043441,-0.4722263,0.9338367,0.1301228,-0.4314486,0.2950198,0.7501867,-0.4392828],[0.6260891,0.171724,-0.758147,0.8319445,-0.7982435]],[[0.8881552,0.07006609,-0.593549,0.156298,0.2393132,-0.4524013,-0.2299803,0.8248065,0.4690747,0.3224539,0.1033288,-0.3701214,-0.4355184,0.1140987,0.001691699,-0.2478656],[-0.03532064,0.07546151,0.4490466,-0.2203685,-0.5236833,-0.3885142,0.4581678,-0.3673848,-0.6860135,0.2379695,0.3954656,-0.7686145,0.05334985,0.2562229,-0.9944201,-0.8380332],[-0.3428622,0.3150947,0.2660441,0.9575837,0.4355807,-0.8386526,-0.443873,-0.2506298,-0.3708664,-0.4311143,-0.8693085,0.9004514,-0.1683751,-0.5810602,-0.1177007,-0.9405007],[0.7377353,-0.2662464,0.8309841,-0.4731964,0.01015913,-0.006049514,0.1178674,-0.4209906,-0.9043441,-0.4722263,0.9338367,0.1301228,-0.4314486,0.2950198,0.7501867,-0.4392828],[0.6260891,0.171724,-0.758147,0.8319445,-0.7982435]],[[0.8881552,0.07006609,-0.9519668,0.156298,0.2393132,-0.4524013,-0.2299803,0.8248065,0.4690747,0.3224539,0.1033288,-0.3701214,-0.4355184,-0.4400128,0.001691699,-0.2478656],[-0.03532064,0.07546151,0.4490466,-0.2203685,-0.5236833,-0.3885142,0.4581678,0.2194735,-0.6860135,0.2379695,0.3954656,-0.7686145,0.05334985,0.2562229,-0.01910579,-0.8380332],[-0.3428622,0.3150947,0.2660441,0.9575837,0.4355807,-0.8386526,-0.2271131,0.1947628,0.07472456,-0.4311143,-0.8693085,0.9004514,-0.1683751,-0.5810602,-0.1177007,-0.9405007],[-0.04021966,-0.2662464,0.8309841,-0.4731964,0.01015913,-0.006049514,0.1178674,-0.4209906,-0.9043441,-0.4722263,0.9338367,0.1301228,-0.4314486,0.2950198,0.7501867,-0.4392828],[0.6260891,0.171724,-0.758147,0.8319445,-0.7982435]],[[0.8881552,0.07006609,-0.593549,0.156298,0.2393132,-0.4524013,-0.2299803,0.8248065,0.4690747,0.3224539,0.872216,-0.3701214,-0.4355184,0.1140987,0.001691699,-0.2478656],[-0.03532064,0.07546151,0.4490466,-0.2203685,-0.5236833,-0.3885142,0.4581678,-0.3673848,-0.6860135,0.2379695,0.3954656,-0.7686145,0.05334985,0.2562229,-0.01910579,-0.8380332],[-0.3428622,0.3150947,0.2660441,0.9575837,0.4355807,-0.8386526,-0.2271131,-0.2506298,0.07472456,-0.4311143,-0.8693085,0.9004514,-0.1683751,-0.03499258,-0.1177007,-0.9405007],[-0.04021966,-0.2662464,0.8309841,-0.4731964,0.01015913,-0.006049514,0.1178674,-0.4209906,-0.9043441,-0.4722263,0.9338367,0.1301228,-0.4314486,0.2950198,0.7501867,-0.4392828],[0.6260891,0.171724,-0.758147,0.8319445,-0.7982435]],[[0.8881552,0.07006609,-0.593549,0.156298,0.2393132,-0.4524013,-0.2299803,0.8248065,0.4690747,0.3224539,0.1033288,-0.3701214,-0.4355184,0.1140987,0.001691699,-0.2478656],[-0.03532064,0.07546151,0.4490466,-0.2203685,-0.5236833,-0.3885142,0.4581678,-0.3673848,-0.6860135,0.2379695,0.3954656,-0.7686145,0.05334985,0.5455906,-0.01910579,-0.8380332],[-0.3428622,0.3150947,0.2660441,0.9575837,0.4355807,-0.8386526,-0.2271131,-0.2506298,0.1050977,-0.4311143,-0.509181,0.9004514,-0.1683751,-0.5810602,-0.1177007,-0.9405007],[-0.04021966,0.4441411,0.8309841,-0.4731964,0.01015913,-0.006049514,0.1178674,-0.4209906,-0.9043441,-0.4722263,0.9338367,0.1301228,-0.4314486,0.2950198,0.7501867,-0.4392828],[0.6260891,0.171724,-0.758147,0.8319445,-0.7982435]],[[0.8881552,0.07006609,-0.593549,0.156298,0.2393132,-0.4524013,-0.2299803,0.8248065,0.4690747,0.3224539,0.1033288,-0.3701214,-0.4355184,0.1140987,0.001691699,-0.2478656],[-0.03532064,0.07546151,0.4490466,-0.2203685,-0.5236833,-0.3885142,0.4581678,-0.3673848,-0.6860135,0.2379695,0.3954656,-0.8281705,0.05334985,0.2562229,-0.01910579,-0.8380332],[-0.3428622,0.3150947,0.2660441,0.9575837,0.4355807,-0.8386526,-0.2271131,-0.2506298,0.1050977,-0.4311143,-0.509181,0.9004514,-0.1683751,-0.5810602,-0.1177007,-0.9405007],[-0.04021966,0.4441411,0.8309841,-0.4731964,0.01015913,-0.006049514,0.1178674,-0.4209906,-0.9043441,-0.4722263,0.9338367,0.1301228,-0.4314486,0.2950198,0.7501867,-0.4392828],[0.6260891,0.171724,-0.758147,0.8319445,-0.7982435]],[[0.8881552,0.07006609,-0.9519668,0.156298,0.2393132,-0.4524013,-0.2299803,0.8248065,0.4690747,0.3224539,0.1033288,-0.3701214,-0.4355184,-0.4400128,0.001691699,-0.2478656],[-0.03532064,0.07546151,0.4490466,-0.2203685,-0.5236833,-0.3885142,0.4581678,0.2194735,-0.6860135,0.2379695,0.3954656,-0.7686145,0.05334985,0.2562229,-0.01910579,-0.8380332],[-0.3428622,0.3150947,0.2660441,0.9575837,0.4355807,-0.8386526,-0.2271131,0.1947628,0.07472456,-0.4311143,-0.8693085,0.7774599,-0.1683751,-0.5810602,-0.1177007,-0.9405007],[-0.04021966,-0.2662464,0.8309841,-0.4731964,0.01015913,-0.006049514,0.1178674,-0.4209906,-0.9043441,0.7894924,0.9338367,0.1301228,-0.4314486,0.2950198,0.7501867,-0.4392828],[0.6260891,0.171724,-0.758147,0.8319445,0.1882879]],[[0.8881552,0.07006609,-0.9519668,0.156298,0.2393132,-0.4524013,-0.2299803,0.8248065,0.4690747,0.3224539,0.1033288,-0.3701214,-0.4355184,-0.4400128,0.001691699,-0.2651249],[-0.03532064,0.07546151,0.4490466,-0.2203685,-0.5236833,-0.3885142,0.4581678,0.2194735,-0.6860135,0.2379695,0.3954656,-0.7686145,0.05334985,0.2562229,-0.01910579,-0.8380332],[-0.3428622,0.3150947,0.2660441,0.9575837,0.4355807,-0.8386526,-0.2271131,0.1947628,0.07472456,-0.5383842,-0.8693085,0.9004514,-0.1683751,-0.2072021,-0.9909551,-0.9405007],[-0.04021966,-0.2662464,0.8309841,-0.4731964,0.01015913,-0.006049514,0.1178674,-0.4209906,-0.9043441,-0.4722263,0.9338367,0.1301228,-0.4314486,0.2950198,0.7501867,-0.4392828],[0.6260891,0.171724,-0.758147,0.8319445,-0.7982435]],[[0.8881552,0.07006609,-0.9519668,0.156298,0.2393132,-0.4524013,-0.2299803,0.8248065,0.4690747,0.3224539,0.1033288,-0.3701214,-0.4355184,-0.4400128,0.001691699,-0.2478656],[-0.03532064,0.07546151,0.4490466,-0.2203685,-0.5236833,-0.3885142,0.4581678,0.2194735,-0.6860135,0.2379695,0.3954656,-0.7686145,0.05334985,0.2562229,-0.01910579,-0.8380332],[-0.3428622,0.3150947,0.2660441,0.9575837,0.4355807,-0.8386526,-0.2271131,0.1947628,0.07472456,-0.4311143,-0.8693085,0.9004514,-0.1683751,-0.5810602,-0.1177007,-0.9405007],[-0.04021966,-0.2662464,0.8309841,-0.4731964,0.01015913,-0.006049514,0.1178674,-0.4209906,-0.9043441,-0.4722263,0.9338367,0.1301228,-0.4314486,0.2950198,0.7501867,-0.4392828],[0.6260891,0.171724,-0.758147,0.8319445,-0.7982435]],[[0.8881552,0.07006609,-0.593549,0.156298,0.2393132,-0.4524013,-0.2299803,0.8248065,0.4690747,0.3224539,0.1033288,-0.3701214,-0.4355184,0.1140987,0.001691699,-0.2478656],[-0.03532064,0.07546151,0.4490466,-0.2203685,-0.5236833,-0.3885142,0.4581678,-0.3673848,-0.6860135,0.2379695,0.3954656,-0.7686145,0.05334985,0.2562229,-0.9944201,-0.8380332],[-0.3428622,0.3150947,0.2660441,0.9575837,0.4355807,-0.8386526,-0.443873,-0.2506298,-0.3708664,-0.4311143,-0.8693085,0.9004514,-0.1683751,-0.5810602,-0.1177007,-0.9405007],[0.7377353,-0.2662464,0.8309841,-0.4731964,0.01015913,-0.006049514,0.1178674,-0.4209906,-0.9043441,-0.4722263,0.9338367,0.1301228,-0.4314486,0.2950198,0.7501867,-0.4392828],[0.6260891,0.171724,-0.758147,0.8319445,-0.7982435]],[[0.8881552,0.07006609,-0.9519668,0.156298,0.2393132,-0.4524013,-0.2299803,0.8248065,0.4690747,0.3224539,0.1033288,-0.3701214,-0.4355184,-0.4400128,0.001691699,-0.2478656],[-0.03532064,0.07546151,0.4490466,-0.2203685,-0.5236833,-0.3885142,0.4581678,0.2194735,-0.6860135,0.3547911,0.3954656,-0.7686145,0.05334985,0.2562229,-0.01910579,-0.8380332],[-0.3428622,0.3150947,0.2660441,0.9575837,0.4355807,-0.8386526,-0.2271131,0.1947628,0.7717323,-0.4311143,-0.8693085,0.9004514,-0.1683751,-0.5810602,-0.1177007,-0.9405007],[-0.04021966,-0.2662464,0.8309841,-0.4731964,0.01015913,-0.006049514,0.1178674,-0.4209906,-0.9043441,-0.4722263,0.9338367,0.1301228,-0.4314486,0.2950198,0.7501867,-0.4392828],[0.6260891,0.171724,-0.758147,0.8319445,-0.7982435]],[[0.8881552,0.07006609,-0.593549,0.156298,0.2393132,-0.4524013,-0.8979275,0.8248065,0.4690747,0.3224539,0.872216,-0.3701214,-0.4355184,0.1140987,0.001691699,-0.2478656],[-0.03532064,0.07546151,0.4490466,-0.2203685,-0.5236833,-0.3885142,0.4581678,-0.3673848,-0.6860135,0.2379695,0.3954656,-0.7686145,0.05334985,0.4390015,-0.01910579,-0.8380332],[-0.3428622,0.3150947,0.2660441,0.9575837,0.4355807,-0.8386526,-0.2271131,-0.2506298,0.07472456,-0.4311143,-0.8693085,0.9004514,-0.1683751,-0.03499258,-0.1177007,0.4269316],[-0.04021966,-0.2662464,0.8309841,-0.4731964,0.01015913,-0.006049514,0.1178674,-0.4209906,-0.9043441,-0.4722263,0.9338367,0.1301228,-0.4314486,0.2950198,0.7501867,-0.4392828],[0.6260891,0.171724,-0.758147,0.8319445,-0.7982435]],[[0.8881552,0.07006609,-0.593549,0.156298,0.2393132,-0.4524013,-0.2299803,0.8248065,0.4690747,0.3224539,0.1033288,-0.3701214,-0.4355184,0.1140987,0.001691699,-0.2478656],[-0.03532064,0.07546151,0.4490466,-0.2203685,-0.5236833,-0.3885142,0.4581678,-0.3673848,-0.6860135,0.2379695,0.3954656,-0.7686145,0.05334985,0.2562229,-0.9944201,-0.8380332],[0.06629145,0.3150947,0.2660441,0.9575837,0.4355807,-0.8386526,-0.443873,-0.2506298,0.07472456,-0.4311143,-0.8693085,0.9004514,-0.1683751,-0.5810602,-0.1177007,-0.9405007],[0.7377353,-0.2662464,0.8309841,-0.4731964,0.01015913,-0.006049514,0.1178674,-0.950408,-0.9043441,-0.4722263,0.9338367,0.1301228,-0.4314486,0.2950198,0.7501867,-0.4392828],[0.6260891,0.171724,-0.758147,0.8319445,-0.7982435]],[[0.8881552,0.07006609,-0.593549,0.8456635,0.2393132,-0.4524013,-0.2299803,0.8248065,0.4690747,0.3224539,0.1033288,-0.3701214,-0.4355184,0.1140987,0.001691699,-0.2478656],[-0.03532064,0.07546151,0.4490466,-0.2203685,-0.5236833,-0.3885142,0.4581678,-0.3673848,0.9634452,0.2379695,0.3954656,-0.7686145,0.05334985,0.2562229,-0.9944201,-0.8380332],[-0.3428622,0.3150947,0.2660441,0.9575837,0.5809712,-0.8386526,-0.443873,-0.2506298,-0.3708664,-0.4311143,-0.8693085,0.9004514,-0.1683751,-0.7288339,-0.1177007,-0.9405007],[0.7377353,-0.2662464,0.8309841,-0.4731964,0.01015913,-0.006049514,0.1178674,-0.4209906,-0.9043441,-0.4722263,0.9338367,0.1301228,-0.4314486,0.2950198,0.7501867,-0.4392828],[0.6260891,0.171724,-0.758147,0.8319445,-0.7982435]],[[0.8881552,0.07006609,-0.593549,0.156298,0.2393132,-0.4524013,-0.2299803,0.8248065,0.4690747,0.3224539,0.1033288,-0.3701214,-0.4355184,0.1140987,0.001691699,-0.2478656],[-0.03532064,0.07546151,0.4490466,-0.2050875,-0.5236833,-0.3885142,0.4581678,-0.3673848,0.2047063,0.2379695,0.3954656,-0.7686145,0.6808522,0.2562229,-0.01910579,-0.8380332],[-0.3428622,0.3150947,0.2660441,0.9575837,0.4355807,-0.8386526,-0.2271131,-0.2506298,0.07472456,-0.4311143,-0.8693085,0.9004514,0.1829017,-0.6951332,-0.1177007,-0.9405007],[-0.04021966,-0.2662464,0.8309841,-0.4731964,0.01015913,-0.006049514,0.1178674,-0.4209906,-0.9043441,-0.4722263,0.9338367,0.1301228,-0.4314486,0.2950198,0.7501867,-0.4392828],[0.6260891,0.171724,-0.758147,0.8319445,-0.7982435]],[[0.8881552,0.07006609,-0.9519668,0.156298,0.2393132,-0.4524013,-0.2299803,0.8248065,0.4690747,0.3224539,0.1033288,-0.3701214,-0.4355184,-0.4400128,0.001691699,-0.2478656],[-0.03532064,0.07546151,0.4490466,-0.2203685,-0.5236833,-0.3885142,0.4581678,0.2194735,-0.6860135,0.2379695,0.3954656,-0.7686145,0.05334985,0.2562229,-0.01910579,-0.8380332],[-0.3428622,0.3150947,0.2660441,0.9575837,0.4355807,-0.8386526,-0.2271131,0.1947628,0.07472456,-0.4311143,-0.8693085,0.9004514,-0.1683751,-0.5810602,-0.1177007,-0.9405007],[-0.04021966,-0.2662464,0.4042144,-0.4731964,0.01015913,-0.006049514,0.1178674,-0.4209906,-0.646354,-0.4722263,0.9338367,0.1301228,-0.8397386,0.2950198,0.7501867,-0.4392828],[0.6260891,0.171724,-0.758147,0.8319445,-0.7982435]],[[0.8881552,0.07006609,-0.593549,0.156298,0.3732738,-0.4524013,-0.2299803,0.8248065,0.4690747,0.3224539,0.1033288,-0.3701214,-0.4355184,-0.8616073,0.001691699,-0.2478656],[-0.03532064,0.07546151,0.4490466,-0.2203685,0.7000704,-0.3885142,0.4581678,-0.3673848,-0.6860135,0.2379695,0.3954656,-0.7686145,0.05334985,0.2562229,-0.9944201,-0.8380332],[0.06629145,0.3150947,0.2660441,0.9575837,0.4355807,-0.8386526,-0.443873,-0.2506298,0.07472456,-0.4311143,-0.8693085,0.9004514,-0.1683751,-0.5810602,-0.1177007,-0.9405007],[0.7377353,-0.2662464,0.8309841,-0.4731964,0.01015913,-0.006049514,0.1178674,-0.4209906,-0.9043441,-0.4722263,0.9338367,0.1301228,-0.4314486,0.2950198,0.7501867,-0.4392828],[0.6260891,0.171724,-0.758147,0.8319445,-0.7982435]],[[0.8881552,0.07006609,-0.593549,0.156298,0.2393132,-0.4524013,-0.2299803,0.8248065,0.4690747,0.3224539,0.1033288,-0.3701214,-0.4355184,0.1140987,0.001691699,-0.2478656],[-0.03532064,0.07546151,0.4490466,-0.2203685,-0.5236833,-0.3885142,0.4581678,-0.3673848,-0.6860135,0.2379695,0.3954656,-0.7686145,0.05334985,0.2562229,-0.9944201,-0.8380332],[-0.3428622,0.3150947,0.2660441,0.9575837,0.4355807,-0.8386526,-0.443873,-0.2506298,-0.3708664,-0.4311143,-0.8693085,0.9004514,-0.1683751,-0.5810602,-0.1177007,-0.9405007],[0.7377353,-0.2662464,0.8309841,-0.4731964,0.01015913,-0.006049514,0.1178674,-0.4209906,-0.9043441,-0.4722263,0.9338367,0.1301228,-0.4314486,0.2950198,0.7501867,-0.4392828],[0.6260891,0.171724,-0.758147,0.8319445,0.6212964]],[[0.8881552,0.07006609,-0.593549,0.156298,0.2393132,-0.4524013,-0.2299803,0.8248065,0.4690747,0.3224539,0.872216,-0.3701214,-0.4355184,0.1140987,0.001691699,-0.2478656],[-0.03532064,0.07546151,-0.8870564,-0.2203685,-0.5236833,-0.3885142,0.4581678,-0.3673848,-0.6860135,0.2379695,0.3954656,-0.7686145,0.05334985,0.4390015,-0.01910579,-0.8380332],[-0.3428622,0.3150947,0.2660441,0.9575837,0.4355807,-0.8386526,-0.2271131,-0.2506298,0.07472456,-0.4311143,-0.8693085,0.9004514,-0.1683751,-0.03499258,-0.1177007,0.4269316],[-0.04021966,-0.2662464,0.8309841,-0.4731964,0.01015913,-0.006049514,0.1178674,-0.4209906,-0.9043441,-0.4722263,0.9338367,0.1301228,-0.4314486,0.2950198,0.7501867,-0.4392828],[0.6260891,0.171724,-0.758147,0.8319445,-0.7982435]],[[0.8881552,0.07006609,0.2365552,0.156298,0.2393132,-0.4524013,-0.2299803,0.8248065,0.4690747,0.3224539,0.872216,-0.3701214,-0.4355184,0.1140987,0.001691699,-0.2478656],[-0.03532064,0.07546151,0.4490466,-0.2203685,-0.5236833,-0.3885142,0.4581678,-0.3673848,-0.6860135,0.2379695,0.3954656,-0.7686145,0.05334985,0.4390015,-0.01910579,-0.8380332],[-0.3428622,0.3150947,0.2660441,0.9575837,0.4355807,-0.8386526,-0.2271131,-0.2506298,0.07472456,-0.4311143,-0.8693085,0.9004514,-0.1683751,-0.03499258,-0.1177007,0.4269316],[-0.04021966,-0.2662464,0.8309841,-0.4731964,0.01015913,-0.006049514,0.1178674,-0.4209906,-0.9043441,-0.4722263,0.9338367,0.1301228,-0.4314486,0.2950198,0.7501867,-0.4392828],[0.6260891,0.171724,0.1662918,0.8319445,-0.7982435]],[[0.8881552,0.07006609,-0.593549,0.156298,0.2393132,-0.4524013,-0.2299803,0.8248065,0.4690747,0.3224539,0.872216,-0.3701214,-0.4355184,0.1140987,0.001691699,-0.2478656],[-0.03532064,0.07546151,0.4490466,-0.2203685,-0.5236833,-0.3885142,0.4581678,-0.3673848,-0.6860135,0.2379695,0.3954656,-0.7686145,0.05334985,0.4390015,-0.01910579,-0.8380332],[-0.3428622,0.3150947,0.2660441,0.9575837,-0.5041728,-0.8386526,-0.2271131,-0.2506298,0.07472456,-0.4311143,-0.8693085,0.9004514,-0.1683751,-0.03499258,-0.1177007,0.4269316],[-0.04021966,-0.2662464,0.8309841,-0.4731964,0.01015913,-0.006049514,0.1178674,-0.4209906,-0.9043441,-0.4722263,0.9338367,0.1301228,-0.4314486,0.2950198,0.7501867,-0.4392828],[0.6260891,0.171724,-0.758147,0.8319445,-0.7982435]],[[0.8881552,0.07006609,-0.593549,0.156298,0.2393132,-0.4524013,-0.2299803,0.8248065,0.4690747,-0.04751527,0.1033288,-0.3701214,-0.4355184,0.1140987,0.001691699,-0.2478656],[-0.03532064,0.07546151,0.4490466,-0.2203685,-0.5236833,-0.3885142,0.4581678,-0.3673848,-0.6860135,0.2379695,0.3954656,-0.7686145,0.05334985,0.2562229,-0.01910579,-0.8380332],[-0.3428622,0.3150947,0.2660441,0.9575837,0.4355807,-0.8386526,-0.2271131,-0.2506298,0.1050977,-0.4311143,-0.509181,0.9004514,-0.1683751,-0.5810602,-0.1177007,-0.9405007],[-0.04021966,-0.2662464,0.8309841,-0.4731964,0.01015913,-0.006049514,0.1178674,-0.4209906,-0.9043441,-0.4722263,0.9338367,0.1301228,-0.4314486,0.2950198,0.7501867,-0.4392828],[0.6260891,0.171724,-0.758147,0.8319445,-0.7982435]],[[-0.7994323,0.07006609,-0.593549,0.156298,0.2393132,-0.4524013,-0.2299803,0.8248065,0.4690747,0.3224539,0.872216,-0.3701214,-0.4355184,0.1140987,0.001691699,-0.2478656],[-0.03532064,0.07546151,0.4490466,-0.2203685,-0.5236833,-0.3885142,0.4581678,-0.3673848,-0.6860135,0.2379695,0.3954656,-0.7686145,0.05334985,0.4390015,-0.01910579,-0.8380332],[-0.3428622,0.3150947,0.2660441,0.9575837,0.4355807,-0.8386526,-0.2271131,-0.2506298,0.07472456,-0.4311143,-0.8693085,0.9004514,-0.1683751,-0.03499258,-0.1177007,0.4269316],[-0.04021966,-0.2662464,0.8309841,-0.4731964,0.01015913,-0.006049514,0.1178674,-0.4209906,-0.9043441,-0.4722263,0.9338367,0.1301228,-0.4314486,0.2950198,0.7501867,-0.4392828],[0.6260891,0.171724,-0.758147,0.8319445,-0.7982435]],[[0.8881552,0.07006609,-0.593549,0.156298,0.2393132,-0.4524013,-0.2299803,0.8248065,0.4690747,0.3224539,0.1033288,-0.3701214,-0.4355184,0.1140987,0.001691699,-0.2478656],[-0.03532064,0.07546151,0.4490466,-0.5691419,-0.5236833,-0.3885142,0.4581678,-0.3673848,-0.6860135,0.2379695,0.3954656,-0.7686145,0.05334985,0.2562229,-0.9944201,-0.8380332],[-0.3428622,0.3150947,0.2660441,0.9575837,0.4355807,-0.8386526,-0.443873,-0.2506298,-0.3708664,-0.4311143,-0.8693085,-0.3113285,-0.1683751,-0.5810602,-0.1177007,-0.9405007],[0.7377353,-0.2662464,0.8309841,-0.4731964,0.01015913,-0.006049514,0.1178674,-0.4209906,-0.9043441,-0.4722263,0.9338367,0.2880695,-0.4314486,0.2950198,0.9695244,-0.4392828],[0.6260891,0.171724,-0.758147,0.8319445,-0.7982435]],[[0.8881552,0.07006609,-0.593549,0.156298,0.2393132,-0.4524013,-0.2299803,0.8248065,0.4690747,0.3224539,0.1033288,-0.3701214,-0.4355184,0.1140987,0.001691699,-0.2478656],[-0.03532064,0.07546151,0.4490466,-0.2203685,-0.5236833,-0.3885142,0.4581678,-0.3673848,-0.6860135,0.2379695,0.3954656,-0.7686145,0.05334985,0.2562229,-0.9944201,-0.8380332],[-0.3428622,0.3150947,0.2660441,0.9575837,0.4355807,-0.8386526,-0.443873,-0.2506298,-0.3708664,-0.4311143,-0.8693085,0.9004514,-0.1683751,-0.5810602,-0.1177007,-0.9405007],[0.7377353,-0.2662464,0.8309841,-0.4731964,0.01015913,-0.006049514,0.1178674,-0.4209906,-0.9043441,-0.4722263,0.9338367,0.1301228,-0.4314486,0.2950198,0.7501867,-0.4392828],[0.6260891,0.171724,-0.758147,0.8319445,-0.7982435]],[[0.8881552,-0.8440616,-0.593549,0.156298,0.2393132,-0.4524013,-0.2299803,0.8248065,0.4690747,0.3224539,0.1033288,-0.3701214,-0.4355184,0.1140987,0.001691699,-0.2478656],[-0.03532064,0.07546151,0.4490466,-0.2203685,-0.5236833,-0.3885142,-0.4576522,-0.3673848,-0.6860135,0.2379695,0.3954656,-0.7686145,0.05334985,0.2562229,-0.9944201,-0.8380332],[-0.3428622,0.3150947,0.2660441,0.9575837,-0.4372171,-0.4803745,-0.443873,-0.2506298,0.07472456,-0.4311143,-0.8693085,-0.7265704,-0.1683751,-0.5810602,-0.1177007,-0.9405007],[0.7377353,-0.2662464,0.2085756,-0.4731964,0.01015913,-0.006049514,0.1178674,-0.4209906,-0.9043441,-0.4722263,0.9338367,0.1301228,-0.4314486,0.2950198,0.7501867,-0.4392828],[0.6260891,0.171724,-0.758147,0.8319445,-0.7982435]],[[0.8881552,0.07006609,-0.593549,0.156298,0.2393132,-0.4524013,-0.2299803,0.8248065,0.4690747,0.3224539,0.1033288,-0.3701214,-0.4355184,0.5741472,0.001691699,-0.2478656],[-0.03532064,0.07546151,0.4490466,-0.2203685,-0.5236833,-0.3885142,0.4581678,-0.3673848,-0.6860135,-0.9523773,0.3954656,-0.7686145,0.05334985,0.2562229,-0.9944201,-0.8380332],[-0.3428622,0.3150947,0.2660441,0.9575837,0.4355807,-0.8386526,-0.443873,-0.2506298,0.07472456,-0.4311143,-0.8693085,0.9004514,-0.1683751,-0.5810602,-0.1177007,-0.9405007],[0.7377353,-0.2662464,0.2085756,-0.4731964,0.01015913,-0.006049514,0.1178674,-0.4209906,-0.9043441,-0.4722263,0.9338367,0.1301228,-0.4314486,0.2950198,0.7501867,-0.4392828],[0.6260891,0.171724,-0.758147,0.8319445,-0.7982435]],[[0.8881552,-0.6817706,-0.593549,0.156298,0.2393132,-0.4524013,-0.2299803,0.8248065,0.4690747,0.3224539,0.1033288,-0.3701214,-0.4355184,0.1140987,0.001691699,-0.2478656],[-0.03532064,0.07546151,0.4490466,-0.2203685,-0.5236833,-0.3885142,0.4581678,-0.3673848,-0.6860135,0.2379695,0.3954656,-0.7686145,0.05334985,0.2562229,-0.9944201,-0.8380332],[-0.3428622,0.3150947,0.2660441,0.9575837,0.4355807,-0.4803745,0.04061711,-0.2506298,0.07472456,-0.4311143,-0.8693085,0.9004514,-0.1683751,-0.5810602,-0.1177007,-0.9405007],[0.7377353,-0.2662464,0.2085756,-0.4731964,0.01015913,-0.006049514,0.1178674,-0.4209906,-0.9043441,-0.4722263,0.9338367,0.1301228,-0.8675783,0.2950198,0.7501867,-0.4392828],[0.6260891,0.171724,-0.758147,0.8319445,-0.7982435]],[[0.8881552,0.07006609,-0.9519668,0.156298,0.2393132,-0.4524013,-0.05420983,0.8248065,0.4690747,0.3224539,0.9736557,-0.3701214,-0.4355184,-0.4400128,0.001691699,-0.2478656],[-0.03532064,-0.7101293,0.4490466,-0.2203685,-0.5236833,-0.8296306,-0.3146905,0.2194735,-0.6860135,0.2379695,0.3954656,-0.7686145,0.05334985,0.2562229,-0.01910579,-0.8380332],[-0.3428622,0.3150947,0.2660441,0.9575837,0.4355807,-0.8386526,-0.2271131,-0.04918253,0.07472456,-0.4311143,-0.8693085,0.9004514,-0.1683751,-0.5810602,-0.1177007,-0.9405007],[-0.04021966,-0.2662464,0.8309841,-0.4731964,0.01015913,-0.006049514,0.1178674,-0.4209906,-0.9043441,-0.4722263,0.9338367,0.1301228,-0.4314486,0.2950198,0.7501867,-0.4392828],[0.6260891,0.171724,-0.3574477,-0.3004481,-0.7982435]],[[0.8881552,0.07006609,-0.593549,0.156298,0.2393132,-0.4524013,-0.2299803,0.8248065,0.4690747,0.3224539,0.872216,-0.3701214,-0.4355184,0.1140987,0.001691699,-0.2478656],[-0.3577393,0.07546151,0.4490466,-0.2203685,-0.5236833,-0.3885142,0.4581678,-0.3673848,-0.6860135,0.2379695,0.3954656,-0.7686145,0.05334985,0.4390015,-0.01910579,-0.8380332],[-0.3428622,0.3150947,0.2660441,0.9575837,0.4355807,-0.8386526,-0.2271131,-0.2506298,0.07472456,-0.4311143,-0.8693085,0.9004514,-0.1683751,-0.03499258,-0.1177007,0.4269316],[-0.04021966,-0.2662464,0.8309841,-0.4731964,0.01015913,-0.006049514,0.1178674,-0.4209906,-0.9043441,-0.4722263,0.9338367,0.1301228,-0.4314486,0.2950198,0.7501867,-0.4392828],[0.6260891,0.171724,-0.758147,0.8319445,-0.7982435]],[[0.8881552,0.07006609,-0.593549,0.156298,0.2393132,0.5059998,-0.2299803,0.8248065,0.4690747,0.3224539,0.1033288,-0.3701214,-0.4355184,0.1140987,-0.5418353,-0.2478656],[-0.03532064,0.07546151,-0.04030645,-0.2203685,-0.5236833,-0.3885142,0.4581678,-0.4605829,-0.8188133,0.2379695,0.3954656,-0.7686145,0.4096417,0.2562229,-0.01910579,-0.8380332],[-0.3428622,0.3150947,0.2660441,0.9575837,0.4355807,-0.8386526,-0.2271131,-0.2506298,0.1050977,-0.4311143,-0.509181,0.9004514,-0.1683751,-0.5810602,-0.1177007,-0.9405007],[-0.04021966,-0.6515908,0.8309841,-0.4731964,0.01015913,-0.006049514,0.1178674,-0.4209906,-0.9043441,-0.4722263,0.9338367,0.1301228,-0.4314486,0.2950198,-0.2441331,-0.4392828],[0.6260891,0.171724,-0.758147,0.8319445,-0.7982435]],[[0.8881552,0.07006609,-0.593549,0.156298,0.2393132,-0.4524013,-0.2299803,0.8248065,0.4690747,0.7794964,0.872216,-0.3701214,-0.4355184,0.1140987,0.001691699,-0.2478656],[-0.03532064,0.07546151,0.4490466,-0.2203685,-0.5236833,-0.3885142,0.4581678,-0.3673848,-0.6860135,0.2379695,0.3954656,-0.7686145,0.05334985,0.4390015,-0.01910579,-0.8380332],[-0.3428622,0.3150947,0.2660441,0.9575837,0.4355807,-0.8386526,-0.2271131,-0.2506298,0.07472456,-0.4311143,-0.8693085,0.9004514,-0.1683751,-0.03499258,-0.1177007,0.4269316],[-0.04021966,-0.8592343,0.8309841,-0.4731964,0.01015913,-0.006049514,0.1178674,-0.4209906,-0.9043441,-0.4722263,0.9338367,0.1301228,-0.4314486,0.2950198,0.7501867,-0.4392828],[0.6260891,0.171724,-0.758147,0.8319445,-0.7982435]],[[0.8881552,0.07006609,-0.3887788,0.156298,0.2393132,-0.4524013,-0.2299803,0.8248065,0.4690747,0.3224539,0.872216,-0.3701214,-0.4355184,0.6208901,0.001691699,-0.2478656],[-0.03532064,0.07546151,0.3109905,-0.2203685,-0.5236833,-0.3885142,0.4581678,-0.3673848,-0.6860135,0.2379695,0.3954656,-0.7686145,0.05334985,0.4390015,-0.01910579,-0.8094773],[-0.3428622,0.3150947,0.2660441,0.9575837,0.4355807,-0.8386526,-0.2271131,-0.2506298,0.07472456,-0.4311143,-0.8693085,0.9004514,-0.1683751,-0.03499258,-0.1177007,0.4269316],[-0.04021966,-0.2662464,0.8309841,-0.4731964,0.01015913,-0.006049514,0.1178674,-0.4209906,-0.9043441,-0.4722263,0.9338367,0.1301228,-0.4314486,0.2950198,0.7501867,-0.4392828],[0.6260891,0.171724,-0.758147,0.8319445,-0.7982435]],[[0.8881552,0.07006609,-0.593549,0.156298,0.2393132,-0.4524013,-0.2299803,0.8248065,0.4690747,0.3224539,0.872216,-0.3701214,0.9190934,0.1140987,0.001691699,-0.2478656],[-0.03532064,0.07546151,0.4490466,-0.2203685,-0.5236833,-0.3885142,0.4581678,-0.3673848,-0.6860135,0.2379695,0.3954656,-0.7686145,0.05334985,0.4390015,-0.01910579,-0.8380332],[-0.3428622,0.3150947,0.2660441,0.9575837,0.4355807,-0.8386526,-0.2271131,-0.2506298,0.07472456,-0.4311143,-0.8693085,0.9004514,-0.1683751,-0.03499258,-0.1177007,0.4269316],[-0.04021966,-0.2662464,0.8309841,-0.4731964,0.01015913,-0.006049514,0.1178674,-0.4209906,-0.9043441,-0.4722263,0.9338367,0.1301228,-0.4314486,0.2950198,0.7501867,-0.4392828],[0.6260891,0.171724,-0.758147,0.8319445,-0.7982435]],[[0.8881552,0.07006609,-0.593549,0.156298,0.2393132,-0.4524013,-0.2299803,0.8248065,0.4690747,0.3224539,0.872216,-0.3701214,-0.4355184,0.1140987,0.001691699,-0.2478656],[-0.03532064,0.07546151,0.4490466,-0.2203685,-0.5236833,-0.3885142,0.4581678,-0.3673848,-0.6860135,0.2379695,0.3954656,-0.7686145,0.05334985,0.4390015,-0.01910579,-0.8380332],[-0.3428622,0.3150947,0.2660441,0.9575837,0.4355807,-0.8386526,-0.2271131,-0.2506298,0.07472456,-0.4311143,-0.8693085,0.9004514,-0.1683751,-0.03499258,-0.1177007,0.4269316],[-0.04021966,-0.2662464,0.8309841,-0.4731964,0.01015913,-0.006049514,0.1178674,-0.4209906,-0.9043441,-0.4722263,0.9338367,0.1301228,-0.4314486,0.2950198,0.7501867,-0.4392828],[0.6260891,0.171724,-0.758147,0.8319445,-0.7982435]],[[0.8881552,0.07006609,-0.593549,0.156298,0.2393132,0.9733121,-0.2299803,0.8248065,0.4690747,0.3224539,0.06530178,-0.3701214,-0.4355184,0.1140987,0.001691699,-0.2478656],[-0.03532064,0.07546151,0.4490466,-0.2203685,-0.5236833,-0.3885142,0.4581678,-0.3673848,-0.6860135,0.2379695,0.3954656,-0.7686145,0.05334985,0.4390015,-0.01910579,-0.8380332],[-0.3428622,0.3150947,0.2660441,0.9575837,0.4355807,-0.8386526,-0.2271131,-0.2506298,0.07472456,-0.4311143,-0.8693085,0.5043373,-0.1683751,-0.03499258,-0.1177007,-0.04154623],[-0.04021966,-0.2662464,0.8309841,-0.4731964,0.01015913,-0.006049514,0.1178674,-0.4209906,-0.9043441,-0.4722263,0.9338367,0.1301228,-0.4314486,0.2950198,0.7501867,-0.4392828],[0.6260891,0.171724,-0.758147,0.8319445,-0.7982435]],[[0.8881552,0.07006609,-0.593549,0.156298,0.2393132,-0.4524013,-0.2299803,0.8248065,0.4690747,0.3224539,0.1033288,-0.3701214,-0.4355184,0.1140987,0.001691699,-0.2478656],[-0.03532064,0.07546151,0.4490466,-0.2203685,-0.5236833,-0.3885142,0.4581678,-0.3673848,-0.6860135,0.2379695,0.3954656,-0.7686145,0.05334985,0.2562229,-0.9944201,-0.8380332],[-0.3428622,0.3150947,0.2660441,0.9575837,0.4355807,-0.4803745,-0.443873,-0.2506298,0.07472456,-0.4311143,-0.8693085,0.9004514,-0.1683751,-0.5810602,-0.1177007,-0.9405007],[0.7377353,-0.2662464,0.2085756,-0.4731964,0.01015913,-0.006049514,0.1178674,-0.4209906,-0.9043441,-0.4722263,0.9338367,0.1301228,-0.4314486,0.2950198,0.7501867,-0.4392828],[0.6260891,0.171724,-0.758147,0.8319445,-0.7982435]],[[0.8881552,0.07006609,-0.9519668,0.156298,0.2393132,-0.2388476,-0.2299803,0.8248065,0.4690747,0.3224539,0.1033288,-0.3701214,-0.4355184,-0.4400128,0.001691699,-0.2478656],[-0.03532064,0.07546151,0.4490466,-0.2203685,-0.5236833,-0.3885142,0.4581678,-0.3673848,-0.6860135,0.2379695,0.3954656,0.005084395,0.05334985,0.2562229,-0.01910579,-0.07618248],[-0.3428622,0.3150947,0.2660441,0.9575837,0.4355807,-0.8386526,-0.2271131,0.1947628,0.07472456,-0.4311143,-0.7453594,0.9004514,-0.1683751,-0.5810602,-0.1177007,-0.9405007],[-0.04021966,-0.2662464,0.8309841,-0.4731964,0.01015913,-0.006049514,0.1178674,-0.4209906,-0.9043441,-0.4722263,0.9338367,0.1301228,-0.4314486,0.2950198,0.7501867,-0.4392828],[0.6260891,0.171724,-0.758147,0.8319445,-0.7982435]],[[0.8881552,0.07006609,-0.593549,-0.7217898,0.2393132,-0.4524013,-0.2299803,0.8248065,0.4690747,0.3224539,0.1033288,-0.3701214,-0.4355184,0.1140987,0.001691699,-0.2478656],[-0.03532064,0.07546151,-0.9007111,-0.2203685,-0.5236833,-0.3885142,0.4581678,-0.3673848,-0.6860135,0.2379695,0.3954656,-0.7686145,0.05334985,0.2562229,-0.01910579,-0.8380332],[-0.3428622,0.3150947,0.2660441,0.9575837,0.4355807,-0.8386526,-0.2271131,-0.2506298,0.1050977,-0.4311143,-0.509181,-0.4389514,-0.1683751,-0.5810602,-0.1177007,-0.9405007],[-0.04021966,-0.2662464,0.8309841,-0.4731964,0.01015913,-0.006049514,0.1178674,-0.4209906,-0.9043441,-0.4722263,0.9338367,0.1301228,-0.4314486,0.2950198,0.7501867,-0.4392828],[0.6260891,0.171724,-0.758147,0.8319445,-0.7982435]],[[0.8881552,0.07006609,-0.593549,0.156298,0.2393132,-0.4524013,-0.2299803,0.8248065,0.4690747,0.3224539,0.872216,-0.3701214,-0.4355184,0.1140987,0.001691699,-0.2478656],[-0.03532064,0.07546151,0.4490466,-0.2203685,-0.5236833,-0.3885142,0.4581678,-0.3673848,-0.6860135,0.2379695,0.3954656,-0.7686145,0.05334985,0.4390015,-0.01910579,-0.8380332],[-0.3428622,0.3150947,0.2660441,0.9575837,0.4355807,-0.8386526,-0.2271131,-0.2506298,0.07472456,-0.4311143,-0.8693085,0.9004514,-0.1683751,-0.03499258,-0.1177007,0.4269316],[-0.04021966,-0.2662464,0.8309841,-0.4731964,0.01015913,-0.006049514,0.1178674,-0.4209906,-0.9043441,-0.4722263,0.9338367,0.1301228,-0.4314486,0.2950198,0.7501867,-0.4392828],[0.6260891,0.171724,-0.758147,0.8319445,-0.7982435]],[[0.8881552,0.07006609,-0.593549,0.156298,0.2393132,-0.4524013,-0.2299803,0.8248065,0.4690747,0.3224539,0.872216,-0.3701214,-0.4355184,0.1140987,0.001691699,-0.2478656],[-0.03532064,0.07546151,0.4490466,-0.2203685,-0.5236833,-0.3885142,0.4581678,-0.3673848,-0.6860135,0.2379695,0.3954656,-0.7686145,0.05334985,0.4390015,-0.01910579,-0.8380332],[-0.3428622,0.3150947,0.2660441,0.9575837,0.4355807,-0.8386526,-0.2271131,-0.2506298,0.07472456,-0.4311143,-0.8693085,0.9004514,-0.1683751,-0.03499258,-0.1177007,0.4269316],[-0.04021966,-0.2662464,0.8309841,-0.4731964,0.01015913,-0.006049514,0.1178674,-0.4209906,-0.9043441,-0.4722263,0.9338367,0.1301228,-0.4314486,0.2950198,0.7501867,-0.4392828],[0.6260891,0.171724,-0.758147,0.8319445,-0.7982435]],[[0.8881552,0.07006609,-0.593549,0.156298,0.2393132,-0.4524013,-0.2299803,0.8248065,0.4690747,0.3224539,0.1033288,-0.3701214,-0.4355184,0.1140987,0.001691699,-0.2478656],[-0.03532064,0.07546151,0.4490466,-0.2203685,-0.5236833,-0.3885142,0.4581678,-0.3673848,-0.6860135,0.2379695,0.3954656,-0.7686145,0.05334985,0.2562229,-0.9944201,-0.8380332],[-0.3428622,0.3150947,0.2660441,0.9575837,0.4355807,-0.8386526,-0.443873,-0.2506298,0.07472456,-0.4311143,-0.8693085,0.9004514,-0.1683751,-0.5810602,-0.1177007,-0.9405007],[0.7377353,-0.2662464,0.2085756,-0.4731964,0.01015913,-0.006049514,0.1178674,-0.4209906,-0.9043441,-0.4722263,0.9338367,0.1301228,-0.4314486,0.2950198,0.7501867,-0.4392828],[0.6260891,-0.954473,-0.758147,0.8319445,-0.7982435]],[[0.8881552,0.07006609,-0.593549,0.156298,0.2393132,-0.4524013,-0.2299803,0.8248065,0.4690747,0.3224539,0.1033288,-0.3701214,-0.4355184,0.1140987,0.001691699,-0.2478656],[-0.03532064,0.07546151,0.4490466,-0.2203685,-0.5236833,-0.3885142,0.4581678,-0.3673848,-0.6860135,0.2379695,0.3954656,-0.7686145,0.05334985,0.2562229,-0.9944201,-0.8380332],[-0.3428622,0.3150947,0.2660441,0.9575837,0.4355807,-0.8386526,-0.443873,-0.2506298,-0.3708664,-0.4311143,-0.8693085,0.9004514,-0.1683751,-0.5810602,-0.1177007,-0.9405007],[0.7377353,-0.2662464,0.8309841,-0.4731964,0.01015913,0.5161457,0.1178674,-0.4209906,-0.9043441,-0.4722263,0.9338367,0.1301228,-0.4314486,0.2950198,0.7501867,-0.4392828],[0.6260891,0.171724,-0.758147,0.8319445,-0.7982435]],[[0.8881552,0.07006609,-0.593549,0.8456635,0.2393132,-0.4524013,-0.2299803,0.8248065,0.4690747,0.3224539,0.1033288,-0.3701214,-0.4355184,0.1140987,0.001691699,-0.2478656],[-0.03532064,0.07546151,0.4490466,-0.2203685,-0.5236833,-0.3885142,0.4581678,-0.3673848,0.9634452,0.2379695,0.3954656,-0.7686145,0.05334985,0.2562229,-0.9944201,-0.8380332],[-0.3428622,0.3150947,0.2660441,0.9575837,0.4355807,-0.8386526,-0.443873,-0.2506298,-0.3708664,-0.4311143,-0.8693085,0.9004514,-0.1683751,-0.7288339,-0.1177007,-0.9405007],[0.7377353,-0.2662464,0.8309841,-0.4731964,0.01015913,-0.006049514,0.1178674,-0.4209906,-0.9043441,-0.4722263,0.9338367,0.1301228,-0.4314486,0.2950198,0.7501867,-0.4392828],[0.6260891,0.171724,-0.8944705,0.8319445,-0.7982435]],[[0.8881552,0.07006609,-0.9519668,0.156298,0.2393132,-0.4524013,-0.2299803,0.8248065,0.4690747,0.8055263,0.1033288,-0.3701214,-0.4355184,0.4951205,0.001691699,-0.2478656],[-0.03532064,0.07546151,0.4490466,-0.2203685,-0.5236833,-0.3885142,0.4581678,0.2194735,-0.6860135,0.2379695,0.7740111,-0.7686145,0.05334985,0.2562229,-0.01910579,-0.8380332],[-0.3428622,0.3150947,0.2660441,0.9575837,0.4355807,-0.8386526,-0.2271131,0.1947628,0.07472456,-0.4311143,-0.8693085,0.9004514,-0.1683751,-0.5810602,-0.1177007,-0.9405007],[-0.04021966,-0.3295144,0.8309841,-0.4731964,0.01015913,-0.006049514,-0.4916509,-0.4209906,-0.9043441,-0.4722263,0.9338367,0.1301228,-0.4314486,0.2950198,0.7501867,-0.4392828],[0.6260891,0.171724,-0.758147,-0.8789694,-0.7982435]],[[0.8881552,0.07006609,-0.9519668,0.156298,0.2393132,-0.4524013,-0.05420983,0.8248065,0.4690747,0.3224539,0.9736557,-0.3701214,-0.4355184,-0.4400128,0.001691699,-0.2478656],[-0.03532064,-0.7101293,0.4490466,-0.2203685,-0.5236833,-0.8296306,0.4581678,0.2194735,-0.6860135,0.2379695,0.3954656,-0.7686145,0.05334985,0.2562229,-0.01910579,-0.8380332],[-0.3428622,0.3150947,0.2660441,0.9575837,0.4355807,-0.8386526,-0.2271131,-0.04918253,0.07472456,-0.0875169,-0.8693085,0.9004514,-0.1683751,-0.5810602,-0.1177007,-0.9405007],[-0.04021966,-0.2662464,0.8309841,-0.4731964,0.01015913,-0.006049514,0.1178674,-0.4209906,-0.9043441,-0.4722263,0.9338367,0.1301228,-0.4314486,0.2950198,0.7501867,-0.4392828],[0.6260891,0.171724,-0.758147,-0.3004481,-0.7982435]],[[0.8881552,0.07006609,-0.593549,0.156298,0.2393132,-0.4524013,-0.2299803,0.8248065,0.4690747,0.3224539,0.1033288,-0.3701214,-0.4355184,0.1140987,0.001691699,-0.2478656],[-0.03532064,0.07546151,0.4490466,-0.2203685,-0.5236833,-0.3885142,0.4581678,-0.3673848,-0.6860135,0.2379695,0.3954656,-0.7686145,0.05334985,0.2562229,-0.01910579,-0.8380332],[-0.3428622,0.3150947,0.2660441,0.9575837,0.4355807,-0.8386526,-0.2271131,-0.2506298,0.1050977,-0.4311143,-0.509181,0.9004514,-0.1683751,-0.5810602,-0.6491175,-0.9405007],[-0.04021966,0.4441411,0.8309841,-0.4731964,0.01015913,-0.006049514,0.1178674,-0.4209906,-0.9043441,-0.4722263,0.9338367,0.1301228,-0.4314486,0.2950198,0.7501867,-0.4392828],[0.6260891,0.171724,-0.758147,0.8319445,-0.7982435]],[[0.8881552,0.07006609,-0.593549,0.156298,0.2393132,-0.4524013,-0.2299803,0.8248065,0.4690747,0.3224539,0.1033288,-0.3701214,-0.4355184,0.1140987,0.001691699,-0.2478656],[-0.03532064,0.07546151,0.4490466,-0.2203685,-0.5236833,-0.3885142,0.4581678,-0.3673848,-0.6860135,0.2379695,0.3954656,-0.7686145,0.05334985,0.2562229,-0.9944201,-0.8380332],[-0.3428622,0.3150947,0.2660441,0.9575837,0.4355807,-0.8386526,-0.443873,-0.2506298,0.07472456,-0.4311143,-0.8693085,0.9004514,-0.1683751,-0.5810602,-0.1177007,-0.9405007],[0.7377353,-0.2662464,0.2085756,-0.2267824,0.01015913,-0.006049514,0.1178674,-0.4209906,-0.9043441,-0.4722263,0.9338367,0.1301228,-0.4314486,0.2950198,0.7501867,-0.4392828],[0.6260891,0.171724,-0.758147,0.8319445,-0.7982435]],[[0.8881552,0.07006609,-0.593549,0.156298,0.2393132,-0.4524013,-0.2299803,0.8248065,0.4690747,0.3224539,0.872216,-0.3701214,-0.4355184,0.1140987,0.001691699,-0.2478656],[-0.03532064,0.07546151,0.4490466,-0.2203685,-0.5236833,-0.3885142,0.4581678,-0.3673848,-0.6860135,0.2379695,0.3954656,-0.7686145,0.05334985,0.4390015,-0.01910579,-0.8380332],[-0.3428622,0.3150947,0.2660441,-0.1939868,0.4355807,-0.8386526,-0.2271131,-0.2506298,0.07472456,-0.4311143,-0.8693085,0.9004514,-0.1683751,-0.03499258,-0.1177007,0.4269316],[0.4544799,-0.2662464,0.8309841,-0.4731964,0.01015913,-0.006049514,0.1178674,-0.4209906,-0.9043441,-0.4722263,0.9338367,0.1301228,-0.4314486,0.2950198,0.7501867,-0.4392828],[0.6260891,0.171724,-0.758147,0.8319445,-0.7982435]],[[0.8881552,0.07006609,0.08238375,0.156298,0.2393132,-0.4524013,-0.2299803,0.8248065,0.4690747,0.3224539,0.1033288,-0.3701214,-0.4355184,0.1140987,0.001691699,-0.2478656],[-0.03532064,0.07546151,0.4490466,-0.2203685,-0.5236833,-0.3885142,0.4581678,-0.3673848,-0.6860135,0.2379695,0.3954656,-0.7686145,0.05334985,0.2562229,0.8114207,-0.8380332],[-0.3428622,0.3150947,0.2660441,0.9575837,0.4355807,-0.8386526,-0.443873,-0.2506298,-0.3708664,-0.4311143,-0.8693085,0.9004514,-0.1683751,-0.5810602,-0.1177007,-0.9405007],[0.7377353,-0.2662464,0.8309841,-0.4731964,0.01015913,-0.006049514,0.1178674,-0.4209906,-0.9043441,-0.4722263,0.9338367,0.1301228,-0.4314486,0.2950198,0.7501867,-0.4392828],[0.6260891,0.171724,-0.758147,0.8319445,-0.7982435]],[[0.8881552,0.07006609,-0.593549,0.156298,0.2393132,-0.4524013,-0.2299803,-0.687072,0.4690747,0.3224539,0.1033288,-0.3701214,-0.4355184,0.1140987,0.001691699,-0.2478656],[-0.03532064,0.07546151,0.4490466,-0.2203685,-0.5236833,-0.3885142,0.4581678,-0.3673848,-0.6860135,0.4278891,0.3954656,-0.7686145,0.05334985,0.2562229,-0.9944201,-0.8380332],[-0.3428622,0.3150947,0.2660441,0.9575837,0.4355807,-0.8386526,-0.443873,-0.2506298,-0.3708664,-0.4311143,-0.8693085,0.9004514,-0.1683751,-0.5810602,-0.1177007,-0.9405007],[0.7377353,-0.2662464,0.8309841,-0.4731964,0.01015913,-0.006049514,0.1178674,-0.4209906,-0.9043441,-0.4722263,0.9338367,0.7187755,-0.4314486,0.2950198,0.7501867,-0.4392828],[0.6260891,0.171724,-0.758147,0.8319445,-0.7982435]],[[0.8881552,0.07006609,-0.593549,0.156298,0.2393132,-0.4524013,-0.2299803,0.8248065,0.4690747,0.3224539,0.1033288,-0.3701214,-0.4355184,0.1140987,0.001691699,-0.2478656],[-0.03532064,0.07546151,0.4490466,-0.2203685,-0.5236833,-0.3885142,0.4581678,-0.3673848,-0.6860135,0.2379695,0.3954656,-0.7686145,0.05334985,0.2562229,-0.01910579,-0.8380332],[-0.3428622,0.3150947,0.2660441,0.9575837,0.4355807,-0.8386526,-0.2271131,-0.2506298,0.1050977,-0.4311143,-0.509181,0.9004514,-0.1683751,-0.5810602,-0.1177007,-0.9405007],[-0.04021966,-0.2662464,0.8309841,-0.4731964,0.01015913,-0.006049514,0.1178674,-0.4209906,-0.9043441,-0.4722263,0.9338367,0.1301228,-0.4314486,0.2950198,0.7501867,-0.4392828],[0.6260891,0.171724,-0.758147,0.8319445,-0.7982435]],[[0.8881552,0.07006609,-0.593549,0.156298,0.2393132,-0.4524013,-0.2299803,0.8248065,0.4690747,0.3224539,0.872216,-0.3701214,-0.4355184,0.1140987,0.001691699,-0.2478656],[-0.03532064,0.07546151,0.4490466,-0.2203685,0.6215768,-0.3885142,0.4581678,-0.3673848,-0.6860135,0.2379695,0.3954656,-0.7686145,0.05334985,0.4390015,-0.01910579,-0.8380332],[-0.3428622,0.3150947,0.2660441,0.9575837,0.4355807,-0.8386526,-0.2271131,-0.2506298,-0.7923203,-0.4311143,-0.8693085,0.9004514,-0.1683751,-0.03499258,-0.1177007,0.4269316],[-0.04021966,-0.2662464,0.8309841,-0.4731964,0.01015913,-0.006049514,0.1178674,-0.4209906,-0.9043441,-0.4722263,0.9338367,0.1301228,-0.4314486,0.2950198,0.7501867,-0.4392828],[0.6260891,0.171724,-0.758147,0.999866,-0.7982435]],[[0.8881552,0.07006609,-0.593549,0.156298,0.2393132,-0.4524013,-0.2299803,0.8248065,0.4690747,0.3224539,0.1033288,-0.3701214,-0.4355184,0.1140987,0.001691699,-0.2478656],[-0.03532064,0.07546151,0.4490466,-0.2203685,-0.5236833,-0.3885142,0.4581678,-0.3673848,-0.6860135,0.2379695,0.3954656,-0.7686145,0.05334985,0.2562229,-0.9944201,-0.8380332],[-0.3428622,0.3150947,0.2660441,0.9575837,0.4355807,-0.8386526,-0.443873,-0.2506298,0.07472456,-0.4311143,-0.8693085,0.9004514,-0.1683751,-0.5810602,-0.1177007,-0.9405007],[0.7377353,-0.2662464,0.8309841,-0.4731964,0.01015913,-0.006049514,0.1178674,-0.4209906,-0.9043441,-0.4722263,0.9338367,0.1301228,-0.4314486,0.2950198,0.7501867,-0.4392828],[0.6260891,0.171724,-0.758147,0.8319445,-0.7982435]],[[0.8881552,0.07006609,-0.593549,0.156298,0.2393132,-0.4524013,-0.2299803,0.8248065,0.4690747,0.3224539,0.872216,-0.3701214,-0.4355184,0.1140987,0.001691699,-0.2478656],[-0.03532064,0.07546151,0.4490466,-0.2203685,-0.5236833,-0.3885142,0.4581678,-0.3673848,-0.6860135,0.2379695,0.3954656,-0.7686145,0.05334985,0.4390015,-0.01910579,-0.8380332],[-0.3428622,0.3150947,0.2660441,0.9575837,0.4355807,-0.8386526,-0.2271131,-0.2506298,0.07472456,-0.4311143,-0.8693085,0.9004514,-0.1683751,-0.03499258,-0.1177007,-0.6370575],[-0.04021966,-0.2662464,0.8309841,-0.4731964,0.01015913,-0.006049514,0.1178674,-0.4209906,-0.9043441,-0.4722263,0.9338367,0.1301228,-0.4314486,0.2950198,0.7501867,-0.4392828],[0.6260891,0.171724,-0.758147,0.8319445,-0.7982435]],[[0.8881552,0.07006609,-0.593549,0.156298,0.2393132,-0.4524013,-0.8979275,0.8248065,0.4690747,0.3224539,-0.5913351,-0.3701214,-0.4425517,0.1140987,0.001691699,-0.2478656],[-0.03532064,0.07546151,0.4490466,-0.2203685,-0.5236833,-0.3885142,0.4581678,-0.3673848,-0.6860135,0.2379695,0.3954656,-0.7686145,0.05334985,0.4390015,-0.01910579,-0.8380332],[-0.3428622,0.3150947,0.2660441,0.9575837,0.4355807,-0.8386526,-0.2271131,-0.9115357,0.900274,-0.4311143,-0.8693085,0.9004514,-0.1683751,-0.03499258,-0.1177007,0.4269316],[-0.04021966,-0.2662464,0.8309841,-0.4731964,0.01015913,-0.006049514,0.1178674,-0.4209906,-0.9043441,-0.4722263,0.9338367,-0.9510655,-0.4314486,0.2950198,0.7501867,-0.4392828],[0.6260891,0.171724,-0.758147,-0.7449081,-0.7982435]],[[0.8881552,0.07006609,-0.593549,0.156298,0.2393132,-0.4524013,-0.2299803,0.8248065,0.4690747,0.3224539,0.872216,-0.3701214,-0.4355184,0.1140987,0.001691699,-0.2478656],[-0.03532064,0.07546151,0.4490466,-0.2203685,-0.5236833,-0.3885142,0.4581678,-0.3673848,-0.8431356,0.2379695,0.8636439,-0.7686145,0.05334985,0.4390015,-0.01910579,-0.8380332],[-0.3428622,0.3150947,0.2660441,0.9575837,0.4355807,-0.8386526,-0.2271131,-0.2506298,0.07472456,-0.4311143,-0.8693085,0.9004514,-0.1683751,-0.03499258,-0.1177007,0.4269316],[-0.04021966,-0.2662464,0.8309841,-0.4731964,0.01015913,-0.006049514,0.1178674,-0.4209906,-0.9043441,-0.4722263,0.9338367,0.1301228,-0.4314486,0.2950198,0.7501867,-0.4392828],[0.6260891,0.171724,-0.758147,0.8319445,-0.7982435]],[[0.8881552,0.07006609,-0.593549,0.156298,0.2393132,-0.4524013,-0.2299803,0.8248065,0.4690747,0.3224539,0.872216,-0.3701214,-0.4355184,0.1140987,0.001691699,-0.2478656],[-0.03532064,0.07546151,0.4490466,-0.2203685,-0.5236833,-0.3885142,0.4581678,-0.3673848,-0.6860135,0.2379695,0.3954656,-0.7686145,0.05334985,0.4390015,-0.01910579,-0.8380332],[-0.3428622,0.3150947,0.2660441,-0.2681783,0.4355807,-0.8386526,-0.2271131,-0.2506298,0.07472456,-0.4311143,-0.8693085,0.9004514,-0.1683751,-0.03499258,-0.1177007,0.4269316],[-0.04021966,-0.2662464,0.8309841,-0.4731964,0.01015913,-0.006049514,0.1178674,-0.4209906,-0.9043441,-0.4722263,0.9338367,0.1301228,-0.4314486,0.2950198,0.7501867,-0.4392828],[0.6260891,0.171724,-0.758147,0.8319445,-0.7982435]],[[0.8881552,0.1618139,-0.9519668,0.156298,0.2393132,-0.4524013,-0.2299803,0.8248065,0.4690747,0.3224539,0.1033288,-0.3701214,-0.4355184,-0.4400128,0.001691699,-0.2478656],[-0.03532064,0.07546151,0.4490466,-0.2203685,-0.5236833,-0.3885142,0.4581678,0.2194735,-0.6860135,0.2379695,0.3954656,-0.7686145,0.05334985,0.2562229,-0.01910579,-0.8380332],[-0.3428622,0.3150947,0.2660441,0.9575837,0.4355807,-0.8386526,-0.7168012,0.1947628,0.07472456,-0.4311143,-0.8693085,0.9004514,-0.1683751,-0.5810602,-0.1177007,-0.9405007],[-0.04021966,-0.2662464,0.8309841,-0.4731964,0.01015913,-0.006049514,0.1178674,-0.4209906,-0.9043441,-0.6854084,0.9338367,0.1301228,-0.4314486,0.2950198,0.7501867,-0.4392828],[0.6260891,0.171724,-0.758147,0.8319445,-0.7982435]],[[0.8881552,0.07006609,-0.593549,0.156298,0.2393132,-0.4524013,-0.2299803,0.8248065,0.4690747,0.3224539,0.1033288,-0.3701214,-0.4355184,0.1140987,0.001691699,-0.2478656],[-0.03532064,0.07546151,0.4490466,-0.2203685,-0.5236833,-0.3885142,0.4581678,-0.3673848,-0.6860135,0.2379695,0.3954656,-0.7686145,0.05334985,0.2562229,-0.01910579,-0.8380332],[-0.3428622,0.3150947,0.2660441,0.9575837,0.4355807,-0.8386526,-0.2271131,-0.2506298,0.1050977,-0.4311143,-0.509181,0.9004514,-0.1683751,-0.5810602,-0.1177007,-0.9405007],[-0.04021966,-0.2662464,0.8309841,-0.4731964,0.01015913,-0.006049514,0.1178674,-0.4209906,-0.9043441,-0.4722263,0.9338367,0.1301228,-0.4314486,0.2950198,0.7501867,-0.4392828],[0.6260891,0.171724,-0.758147,0.8319445,-0.7982435]],[[0.8881552,0.07006609,-0.593549,0.156298,0.2393132,-0.4524013,-0.2299803,0.8248065,0.4690747,0.3224539,0.1033288,-0.3701214,-0.4355184,0.1140987,0.001691699,-0.2478656],[-0.03532064,0.07546151,0.4490466,-0.2203685,-0.5236833,-0.3885142,0.4581678,-0.3673848,-0.6860135,0.2379695,0.3954656,-0.7686145,0.05334985,0.2562229,-0.9944201,-0.8380332],[-0.3428622,0.3150947,0.2660441,0.9575837,0.4355807,-0.8386526,-0.443873,-0.2506298,-0.3708664,-0.4311143,-0.8693085,0.9004514,-0.1683751,-0.5810602,-0.1177007,-0.9405007],[0.7377353,-0.2662464,0.8309841,-0.4731964,0.01015913,-0.006049514,0.1178674,-0.4209906,-0.9043441,-0.4722263,0.9338367,0.1301228,-0.4314486,0.2950198,0.7501867,-0.4392828],[0.6260891,0.171724,-0.758147,0.8319445,-0.7982435]],[[0.8881552,0.07006609,-0.593549,0.156298,0.2393132,-0.4524013,-0.2299803,0.8248065,0.4690747,0.3224539,0.1033288,-0.3701214,-0.4355184,0.1140987,0.001691699,-0.2478656],[-0.03532064,0.07546151,0.4490466,-0.2203685,-0.5236833,-0.3885142,0.4581678,-0.3673848,-0.6860135,0.2379695,0.3954656,-0.7686145,0.05334985,0.2562229,-0.9944201,-0.8380332],[-0.3428622,0.3150947,0.2660441,0.9575837,0.4355807,-0.8386526,-0.443873,-0.2506298,-0.3708664,-0.4311143,-0.8693085,0.9004514,-0.1683751,-0.5810602,-0.1177007,-0.9405007],[0.7377353,-0.2662464,0.8309841,-0.4731964,0.01015913,-0.006049514,-0.7128794,-0.4209906,-0.9043441,-0.4722263,0.9338367,0.1301228,-0.4314486,0.2950198,0.7501867,-0.4392828],[0.6260891,0.171724,-0.758147,0.8319445,-0.7982435]],[[0.8881552,0.07006609,-0.9519668,0.156298,0.2393132,-0.4524013,-0.2299803,0.8248065,0.4690747,0.3224539,0.1033288,-0.3701214,-0.4355184,-0.4400128,0.001691699,-0.2478656],[-0.03532064,0.07546151,0.4490466,-0.2203685,-0.5236833,-0.3885142,0.4581678,0.2194735,-0.6860135,0.2379695,0.3954656,-0.7686145,0.05334985,0.2562229,-0.01910579,-0.8380332],[-0.3428622,0.3150947,0.2660441,0.9575837,0.4355807,-0.8386526,-0.2271131,0.1947628,0.07472456,-0.4311143,-0.8693085,0.9004514,-0.1683751,-0.5810602,-0.1177007,-0.9405007],[-0.04021966,-0.2662464,0.8309841,-0.4731964,0.01015913,-0.006049514,0.1178674,-0.4209906,-0.9043441,-0.4722263,0.9338367,0.1301228,-0.4314486,0.2950198,0.7501867,-0.4392828],[0.6260891,0.171724,-0.758147,0.8319445,-0.7982435]],[[0.8881552,0.07006609,-0.593549,0.156298,0.2393132,-0.4524013,-0.2299803,0.8248065,0.4690747,0.3224539,0.1033288,-0.3701214,-0.4355184,0.1140987,0.001691699,-0.2478656],[-0.03532064,0.07546151,0.4490466,-0.2050875,-0.5236833,-0.3885142,0.4581678,-0.3673848,0.2047063,0.2379695,0.3954656,-0.7686145,0.6808522,0.2562229,-0.01910579,-0.8380332],[-0.3428622,0.3150947,0.2660441,0.9575837,0.4355807,-0.8386526,-0.2271131,-0.2506298,0.07472456,-0.4311143,-0.8693085,0.9004514,0.1829017,-0.6951332,-0.1177007,-0.9405007],[-0.04021966,-0.2662464,0.8309841,-0.4731964,0.01015913,-0.006049514,0.1178674,-0.4209906,-0.9043441,-0.4722263,0.9338367,0.1301228,-0.4314486,0.2950198,0.7501867,-0.4392828],[0.6260891,0.171724,-0.5064852,0.8319445,-0.7982435]],[[0.8881552,0.07006609,-0.9519668,0.156298,0.2393132,-0.4524013,-0.2299803,0.8248065,0.4690747,0.3224539,0.1033288,-0.3701214,-0.4355184,-0.4400128,0.001691699,-0.2478656],[-0.03532064,0.07546151,0.4490466,-0.2203685,-0.5236833,-0.3885142,0.4581678,0.2194735,-0.6860135,0.2379695,0.3954656,-0.7686145,0.05334985,0.2562229,-0.01910579,-0.8380332],[-0.3428622,0.3150947,0.2660441,0.9575837,0.4355807,-0.8386526,-0.6811807,0.1947628,0.07472456,-0.4311143,-0.8693085,0.9004514,-0.1683751,-0.5810602,-0.1177007,-0.9405007],[-0.04021966,-0.2662464,0.8309841,-0.4731964,0.01015913,-0.006049514,0.1178674,-0.4209906,-0.9043441,-0.4722263,0.9338367,0.1301228,-0.4314486,0.2950198,0.7501867,-0.4392828],[0.6260891,0.171724,-0.758147,0.8319445,-0.7982435]],[[0.8881552,0.07006609,-0.593549,0.156298,0.2393132,-0.4524013,-0.2299803,0.8248065,0.4690747,0.3224539,0.872216,-0.3701214,-0.4355184,0.1140987,0.001691699,-0.2478656],[-0.03532064,0.07546151,0.4490466,-0.2203685,-0.5236833,-0.3885142,0.4581678,-0.3673848,-0.6860135,0.2379695,0.3954656,-0.7686145,0.05334985,0.4390015,-0.01910579,-0.8380332],[-0.3428622,0.3150947,0.2660441,0.9575837,-0.5041728,-0.8386526,-0.2271131,-0.2506298,0.07472456,-0.4311143,-0.8693085,0.9004514,-0.1683751,-0.03499258,-0.1177007,0.4269316],[-0.04021966,0.8686013,0.8309841,-0.4731964,0.01015913,-0.006049514,0.1178674,-0.4209906,-0.9043441,-0.4722263,0.9338367,0.1301228,-0.4314486,0.2950198,0.7501867,-0.4392828],[0.6260891,0.171724,-0.758147,0.8319445,-0.7982435]],[[0.8881552,0.07006609,-0.593549,0.156298,0.2393132,-0.4524013,-0.2299803,0.8248065,0.4690747,0.3224539,0.1033288,-0.3701214,-0.4355184,0.1140987,0.001691699,-0.2478656],[-0.03532064,0.07546151,0.4490466,-0.7566915,-0.5236833,-0.3885142,0.4581678,-0.3673848,-0.6860135,0.2379695,0.3954656,-0.7686145,0.05334985,0.2562229,-0.9944201,-0.8380332],[-0.3428622,0.3150947,0.2660441,0.9575837,0.4355807,-0.485845,-0.443873,-0.2506298,0.07472456,-0.4311143,-0.8693085,0.9004514,-0.1683751,-0.5810602,-0.1177007,-0.9405007],[0.7377353,-0.2662464,0.2085756,-0.4731964,0.01015913,-0.006049514,0.1178674,-0.4209906,-0.9043441,-0.4722263,0.9338367,0.1301228,-0.4314486,0.2950198,0.7501867,-0.4392828],[0.6260891,0.171724,-0.758147,0.8319445,-0.7982435]],[[0.8881552,0.07006609,-0.593549,0.156298,0.2393132,-0.4524013,-0.2299803,0.8248065,0.4690747,0.3224539,0.872216,-0.3701214,-0.4355184,0.1140987,0.001691699,-0.2478656],[-0.03532064,0.07546151,0.4490466,-0.2203685,-0.5236833,-0.3885142,0.4581678,-0.3673848,-0.6860135,0.2379695,0.3954656,-0.7686145,0.05334985,0.4390015,-0.01910579,-0.8380332],[-0.3428622,0.3150947,0.2660441,0.9575837,0.4355807,-0.8386526,-0.2271131,-0.2506298,0.07472456,-0.4311143,-0.8693085,0.9004514,-0.1683751,-0.03499258,-0.1177007,0.4269316],[-0.04021966,-0.2662464,0.8309841,-0.4731964,0.01015913,-0.006049514,0.1178674,-0.4209906,-0.9043441,-0.4722263,0.9338367,0.1301228,-0.4314486,0.2950198,0.7501867,-0.4392828],[0.6260891,0.171724,-0.758147,0.8319445,-0.7982435]],[[0.8881552,0.07006609,-0.593549,0.156298,0.2393132,-0.4524013,-0.2299803,0.8248065,0.4690747,0.3224539,0.872216,-0.3701214,-0.4355184,0.1140987,0.001691699,-0.2478656],[-0.03532064,0.07546151,0.4490466,-0.2203685,-0.5236833,-0.3885142,0.4581678,-0.3673848,-0.6860135,0.2379695,0.3954656,-0.7686145,0.05334985,0.4390015,-0.01910579,-0.8380332],[-0.3428622,0.3150947,0.2660441,0.9575837,0.4355807,-0.8386526,-0.2271131,0.8764443,0.07472456,-0.4311143,-0.8693085,0.9004514,-0.1683751,-0.03499258,-0.1177007,0.4269316],[-0.04021966,-0.2662464,0.8309841,-0.4731964,0.01015913,-0.006049514,0.1178674,-0.4209906,-0.9043441,0.4185872,0.9338367,0.1301228,-0.4314486,0.2950198,0.7501867,-0.4392828],[0.6260891,0.171724,-0.758147,0.8319445,-0.7982435]],[[0.8881552,0.07006609,-0.593549,0.156298,0.2393132,-0.4524013,-0.2299803,0.8248065,0.4690747,0.3224539,0.1033288,-0.3701214,-0.4355184,0.1140987,0.001691699,-0.2478656],[-0.03532064,0.07546151,0.4490466,-0.2203685,-0.5236833,-0.3885142,0.4581678,-0.3673848,-0.6860135,0.2379695,0.3954656,-0.7686145,0.05334985,0.2562229,-0.9944201,-0.8380332],[0.06629145,0.3150947,0.2660441,0.9575837,0.4355807,-0.8386526,-0.443873,-0.2506298,0.07472456,-0.4311143,-0.8693085,0.9004514,-0.1683751,-0.5810602,-0.1177007,-0.9405007],[0.7377353,-0.2662464,0.8309841,-0.4731964,0.01015913,-0.006049514,0.1178674,-0.950408,-0.9043441,-0.4722263,0.9338367,0.1301228,-0.4314486,0.2950198,0.7501867,-0.4392828],[0.6260891,0.171724,-0.758147,0.8319445,-0.7982435]],[[0.8881552,0.07006609,-0.593549,0.156298,0.2393132,-0.4524013,-0.2299803,0.8248065,0.4690747,0.3224539,0.872216,0.2451719,-0.4355184,0.1140987,0.001691699,-0.2478656],[-0.03532064,0.07546151,0.4490466,-0.2203685,-0.5236833,-0.3885142,0.4581678,-0.3673848,-0.6860135,0.2379695,0.3954656,-0.7686145,0.05334985,0.4390015,-0.01910579,-0.8380332],[-0.3428622,0.3150947,0.2660441,0.9575837,0.4355807,-0.8386526,-0.2271131,-0.2506298,0.07472456,-0.4311143,-0.8693085,0.9004514,-0.1683751,-0.03499258,-0.1177007,0.4269316],[-0.04021966,-0.2662464,0.8309841,-0.4731964,0.01015913,-0.006049514,0.1178674,-0.4209906,-0.9043441,-0.4722263,0.9338367,0.1301228,-0.4314486,0.2950198,0.7501867,0.8689299],[0.6260891,0.171724,-0.758147,0.8319445,-0.7982435]],[[0.8881552,0.07006609,-0.593549,0.156298,0.2393132,-0.4524013,-0.2299803,0.8248065,0.4690747,0.3224539,0.872216,-0.3701214,-0.4355184,0.1140987,0.001691699,-0.2478656],[-0.03532064,0.07546151,0.4490466,-0.2203685,-0.5236833,-0.3885142,0.4581678,-0.3673848,-0.6860135,0.2379695,0.3954656,0.3954889,0.05334985,0.4390015,-0.01910579,-0.8380332],[-0.3428622,0.3150947,0.2660441,0.9575837,-0.5041728,-0.8386526,-0.2271131,-0.2506298,0.07472456,-0.4311143,-0.8693085,0.9004514,-0.1683751,-0.03499258,-0.1177007,0.4269316],[-0.04021966,-0.2662464,0.8309841,-0.4731964,0.01015913,-0.006049514,0.1178674,-0.4209906,-0.9043441,-0.4722263,0.9338367,0.1301228,-0.4314486,0.2950198,0.7501867,-0.4392828],[0.6260891,0.171724,-0.6196568,0.8319445,-0.7982435]],[[0.8881552,0.07006609,-0.9519668,0.156298,0.2393132,-0.4524013,-0.2299803,0.8248065,0.4690747,0.8055263,0.1033288,-0.3701214,-0.4355184,0.4951205,0.001691699,-0.2478656],[-0.03532064,0.07546151,0.4490466,-0.2203685,-0.5236833,-0.3885142,0.4581678,0.2194735,-0.6860135,0.2379695,0.7740111,-0.7686145,0.05334985,-0.9528596,-0.01910579,-0.8380332],[-0.3428622,0.3150947,0.2660441,0.9575837,0.4355807,-0.8386526,-0.2271131,0.1947628,0.07472456,-0.4311143,-0.8693085,0.9004514,-0.1683751,-0.5810602,-0.1177007,-0.9405007],[-0.04021966,-0.3295144,-0.1566576,-0.4731964,0.01015913,-0.006049514,-0.1536075,-0.4209906,-0.9043441,-0.4722263,0.9338367,0.1301228,-0.4314486,0.2950198,0.7501867,-0.4392828],[0.6260891,0.171724,-0.758147,-0.8789694,-0.7982435]],[[0.8881552,0.07006609,-0.593549,0.156298,0.5465765,-0.4524013,-0.2299803,0.8248065,0.4690747,0.3224539,0.1033288,-0.3701214,-0.4355184,0.1140987,0.001691699,-0.2478656],[-0.03532064,0.07546151,0.4490466,-0.2203685,-0.5236833,-0.3885142,0.4581678,-0.3673848,-0.6860135,0.2379695,0.3954656,-0.7686145,0.05334985,0.2562229,-0.9944201,-0.8380332],[0.06629145,0.3150947,0.2660441,0.9575837,0.4355807,-0.8386526,-0.443873,-0.2506298,0.07472456,-0.4311143,-0.8693085,0.9004514,-0.1683751,-0.5810602,-0.1177007,-0.9405007],[0.7377353,-0.2662464,0.8309841,-0.4731964,0.01015913,-0.006049514,0.1178674,-0.4209906,-0.9043441,-0.4722263,0.9338367,0.1301228,-0.4314486,0.2950198,0.7501867,-0.4392828],[0.6260891,0.171724,-0.758147,0.8319445,-0.7982435]],[[0.8881552,0.07006609,-0.593549,0.156298,0.2393132,-0.4524013,-0.2299803,0.8248065,0.4690747,0.3224539,0.872216,-0.3701214,-0.4355184,0.1140987,0.001691699,-0.2478656],[-0.03532064,0.07546151,0.4490466,-0.2203685,-0.5236833,-0.3885142,0.4581678,-0.3673848,-0.6860135,0.2379695,