[[[0.6512854,0.9175739,0.8372135,0.99401,-0.4218713,0.3086374,0.3484337,0.857322,0.01231492,0.8834791,0.2963421,-0.4212371,0.286334,0.2547884,-0.4278859,-0.1315173],[0.004792094,0.3595226,-0.7390122,0.144154,-0.03985012,0.5706604,0.2863109,0.7450747,-0.07917845,-0.733321,0.3152611,0.55427,0.7657268,0.612879,-0.2328306,0.7143188],[0.491426,-0.4515039,-0.2615885]],[[0.6512854,0.9175739,0.8372135,0.99401,-0.4218713,0.3086374,0.3484337,0.857322,0.01231492,0.8834791,0.2963421,-0.4664947,0.286334,0.2547884,-0.4278859,-0.1315173],[0.004792094,0.3595226,-0.7390122,0.144154,-0.03985012,0.5706604,0.2863109,0.7450747,-0.8353052,-0.7541194,0.3152611,0.55427,0.7657268,0.612879,-0.8816183,0.7143188],[0.491426,-0.4515039,-0.2615885]],[[0.6512854,0.9175739,0.8372135,0.99401,-0.4218713,-0.3175341,0.3484337,0.857322,0.01231492,0.8834791,0.2963421,-0.4212371,0.286334,0.2547884,-0.4278859,-0.1315173],[0.004792094,0.3595226,-0.7390122,0.144154,-0.03985012,0.5706604,0.2863109,0.7450747,-0.8353052,-0.7541194,0.3152611,0.55427,0.7657268,0.6346929,-0.8816183,0.7143188],[0.491426,-0.4515039,-0.2615885]],[[0.6512854,0.9175739,0.8372135,0.99401,-0.4218713,0.3086374,0.3484337,0.857322,0.01231492,0.8834791,0.2963421,-0.4585189,0.286334,0.2547884,-0.4278859,-0.1315173],[0.004792094,0.3595226,-0.7390122,0.144154,-0.03985012,0.5706604,0.2863109,0.7450747,-0.8353052,-0.7541194,0.3152611,0.55427,0.7657268,0.612879,-0.8816183,0.7143188],[0.491426,-0.4515039,0.3135225]],[[0.6512854,0.9175739,0.8372135,0.99401,-0.4218713,0.1863741,0.3484337,0.857322,0.01231492,0.8834791,0.2963421,-0.4212371,0.286334,0.2547884,-0.4278859,-0.1315173],[0.004792094,0.3595226,-0.7390122,0.144154,-0.03985012,0.5706604,0.2863109,0.7450747,-0.8353052,-0.733321,0.3152611,0.55427,0.7657268,-0.08201015,-0.8816183,0.7143188],[0.491426,-0.4515039,-0.2615885]],[[-0.7546613,0.9175739,0.8372135,0.99401,-0.4218713,0.3086374,0.3484337,0.857322,0.01231492,0.8834791,0.2963421,-0.3710793,0.286334,0.1423577,-0.4278859,-0.1315173],[0.004792094,0.3595226,-0.7390122,0.144154,-0.03985012,0.5706604,0.2863109,0.7450747,-0.2389647,-0.733321,0.3152611,0.55427,0.7657268,0.612879,-0.8816183,0.7143188],[0.491426,-0.4515039,-0.2615885]],[[0.6512854,0.9175739,0.8372135,0.99401,-0.4218713,0.3086374,0.3484337,0.857322,0.01231492,0.8834791,0.2963421,-0.4585189,0.286334,0.2547884,-0.4278859,-0.1315173],[0.004792094,0.3595226,-0.7390122,0.144154,-0.03985012,0.5706604,0.2863109,0.7450747,0.1283213,-0.7541194,0.3152611,0.55427,0.7657268,0.6346929,-0.8816183,0.7143188],[0.491426,-0.4515039,-0.2615885]],[[0.6512854,0.9175739,0.8372135,0.99401,-0.4218713,0.1863741,0.3484337,0.857322,0.01231492,0.8834791,0.2963421,-0.4212371,0.286334,0.2547884,-0.4278859,-0.1315173],[0.004792094,0.3595226,-0.7390122,0.144154,-0.03985012,0.5706604,0.2863109,0.7450747,-0.8353052,-0.733321,0.3152611,0.55427,0.7657268,0.612879,-0.2328306,0.7143188],[0.491426,-0.4515039,-0.2615885]],[[0.6512854,0.9175739,0.8372135,0.99401,-0.4218713,0.1863741,0.3484337,0.857322,0.01231492,0.8834791,0.2963421,-0.4585189,-0.09359515,0.2547884,-0.4278859,-0.1315173],[0.004792094,0.3595226,-0.7390122,0.144154,-0.03985012,0.5706604,0.2863109,0.7450747,-0.8353052,-0.733321,0.3152611,0.55427,0.7657268,0.612879,-0.8816183,0.7143188],[0.491426,-0.4515039,-0.2615885]],[[0.5115621,0.9175739,0.8372135,0.99401,-0.4218713,0.3086374,0.3484337,0.5966225,0.01231492,0.8834791,0.4208975,-0.4585189,0.286334,0.1423577,-0.4278859,-0.1315173],[0.004792094,0.3595226,-0.7390122,0.144154,-0.03985012,0.5706604,0.2863109,0.7450747,-0.07917845,-0.733321,0.3152611,0.55427,0.7657268,0.6346929,-0.8457863,0.7143188],[0.491426,-0.4515039,0.5182559]],[[0.6512854,0.9175739,0.8372135,0.99401,-0.4218713,0.3086374,0.3484337,0.857322,0.01231492,0.8834791,0.2963421,-0.4585189,0.286334,0.1423577,-0.4278859,-0.3628689],[0.004792094,0.3595226,-0.7390122,0.144154,-0.03985012,0.5706604,0.2863109,0.7450747,-0.8353052,-0.4870998,0.3152611,0.55427,0.7657268,0.612879,-0.8816183,0.7143188],[0.491426,-0.4515039,-0.2615885]],[[0.6512854,0.9175739,0.8372135,0.99401,-0.4218713,0.3086374,0.3484337,0.857322,0.01231492,0.8834791,0.2963421,-0.3710793,0.286334,0.1423577,-0.4278859,-0.1315173],[0.004792094,0.3595226,-0.7390122,0.144154,-0.03985012,0.5706604,0.2863109,0.7450747,-0.8353052,-0.733321,0.3152611,0.55427,0.7657268,0.612879,-0.2328306,0.7143188],[0.491426,-0.4515039,-0.2615885]],[[0.6512854,0.9175739,0.8372135,0.99401,-0.4218713,0.3086374,0.3484337,0.857322,0.01231492,0.8834791,0.2963421,-0.4585189,0.286334,0.1423577,-0.4278859,-0.1315173],[0.004792094,0.3595226,-0.7390122,0.144154,-0.03985012,0.5706604,0.2863109,0.7450747,-0.8353052,-0.1075515,0.3152611,0.55427,0.7657268,0.612879,-0.8011432,0.7143188],[0.491426,-0.4515039,-0.2615885]],[[0.6512854,0.9175739,0.8372135,0.99401,-0.4218713,0.3086374,0.3484337,0.857322,0.01231492,0.8834791,0.2963421,-0.3985866,0.286334,0.1423577,-0.4278859,-0.1315173],[0.004792094,0.3595226,-0.7390122,0.144154,-0.03985012,0.5706604,0.2863109,0.7450747,-0.2389647,-0.733321,0.3152611,0.55427,0.7657268,0.612879,-0.2328306,0.7143188],[0.491426,-0.4515039,-0.2615885]],[[0.6512854,0.9175739,0.8372135,0.99401,-0.4218713,0.3086374,0.3484337,0.5966225,0.01231492,0.8834791,0.2963421,-0.4585189,0.286334,0.2547884,-0.4278859,-0.1315173],[0.004792094,0.3595226,-0.7390122,0.144154,-0.03985012,0.5706604,0.2863109,0.7450747,-0.8353052,-0.1075515,0.3152611,0.55427,0.7657268,0.6346929,-0.8816183,0.7143188],[0.491426,-0.4515039,0.5182559]],[[0.6512854,0.9175739,0.8372135,0.99401,-0.4218713,0.1863741,0.3484337,0.857322,0.01231492,0.8834791,0.2963421,-0.4585189,0.286334,0.2547884,-0.4278859,-0.1315173],[0.004792094,0.3595226,-0.7390122,0.144154,-0.03985012,0.5706604,0.2863109,0.7450747,-0.8353052,-0.321555,0.3152611,0.55427,0.7657268,0.612879,-0.8457863,0.7143188],[0.491426,-0.4515039,-0.2615885]],[[0.6512854,0.9175739,0.8372135,0.99401,-0.4218713,0.1863741,0.3484337,0.857322,0.01231492,0.8834791,0.2963421,-0.3710793,0.286334,0.2547884,-0.4278859,-0.1315173],[0.004792094,0.3595226,-0.7390122,0.144154,-0.03985012,0.5706604,0.2863109,0.6392248,-0.8353052,-0.733321,0.3152611,0.55427,0.7657268,0.612879,-0.8816183,0.7143188],[0.491426,-0.4515039,-0.2615885]],[[0.6512854,0.9175739,0.8372135,0.99401,-0.4218713,0.3086374,0.3484337,0.857322,0.01231492,0.8834791,0.2963421,-0.4585189,0.286334,0.2547884,-0.6053987,-0.1315173],[0.004792094,0.3595226,-0.7390122,0.144154,-0.03985012,0.5706604,0.2863109,0.7450747,-0.8353052,-0.7541194,0.3152611,0.55427,0.7657268,0.612879,-0.8816183,0.7143188],[0.491426,-0.4515039,-0.2615885]],[[0.6512854,0.9175739,0.8372135,0.99401,-0.4218713,0.3086374,0.3484337,0.857322,0.01231492,0.8834791,0.2963421,-0.4585189,0.286334,0.2547884,-0.4278859,-0.1315173],[0.004792094,0.3595226,-0.7390122,0.144154,-0.03985012,0.5706604,0.2863109,0.7450747,-0.8353052,-0.733321,0.3152611,0.55427,0.7657268,0.6346929,-0.8816183,0.7143188],[0.491426,-0.4515039,-0.2615885]],[[0.6512854,0.9175739,0.8372135,0.99401,-0.4218713,0.3086374,0.3484337,0.5966225,0.01231492,0.5380676,0.4208975,-0.4585189,0.286334,0.2547884,-0.4278859,-0.1315173],[0.004792094,0.3595226,-0.7390122,0.144154,-0.03985012,0.5706604,0.2863109,0.7450747,-0.8353052,-0.7541194,0.3152611,0.55427,0.7657268,0.6346929,-0.8457863,0.7143188],[0.491426,-0.4515039,-0.2615885]],[[0.6512854,0.9175739,0.8372135,0.99401,-0.4218713,0.3086374,0.3484337,0.857322,0.01231492,0.8834791,0.4208975,-0.4212371,0.286334,0.1423577,-0.4278859,-0.1315173],[0.004792094,0.3595226,-0.7390122,0.144154,-0.03985012,0.5706604,0.2863109,0.7450747,-0.8353052,-0.733321,0.3152611,0.55427,0.7657268,0.612879,-0.2328306,0.7143188],[0.491426,-0.4515039,-0.2615885]],[[0.6512854,0.9175739,0.8372135,0.99401,-0.4218713,0.1863741,0.3484337,0.857322,0.01231492,0.8834791,0.2963421,-0.4212371,0.286334,0.2547884,-0.4278859,-0.1315173],[0.004792094,0.3595226,-0.7390122,0.144154,-0.03985012,0.5706604,0.2863109,0.7450747,-0.8353052,-0.733321,0.3152611,0.55427,0.7657268,0.612879,-0.8816183,0.7143188],[0.491426,-0.4515039,-0.2615885]],[[0.6512854,0.9175739,0.8372135,0.99401,-0.4218713,0.3086374,0.3484337,0.5966225,0.01231492,0.8834791,0.2963421,-0.3710793,0.286334,0.1423577,-0.4278859,-0.1315173],[0.004792094,0.3595226,-0.7390122,0.144154,-0.03985012,0.5706604,0.2863109,0.7450747,-0.07917845,-0.7541194,0.3152611,0.55427,0.7657268,0.6346929,-0.8816183,0.7143188],[0.491426,-0.4515039,-0.2615885]],[[0.6512854,0.9175739,0.8372135,0.99401,-0.4218713,0.3086374,0.3484337,0.857322,0.01231492,0.8834791,0.2963421,-0.4664947,0.286334,0.1423577,-0.4278859,-0.1315173],[0.004792094,0.3595226,-0.7390122,0.144154,-0.03985012,0.5706604,0.2863109,0.7450747,-0.2389647,-0.7541194,0.3152611,0.55427,0.7657268,0.612879,-0.2328306,0.7143188],[0.491426,-0.4515039,-0.2615885]],[[-0.7546613,0.9175739,0.8372135,0.99401,-0.4218713,0.3086374,0.3484337,0.857322,0.01231492,0.8834791,0.2963421,-0.4212371,0.286334,0.1423577,-0.4278859,-0.1315173],[0.004792094,0.3595226,-0.7390122,0.144154,-0.03985012,0.5706604,0.2863109,0.7450747,-0.8353052,-0.733321,0.3152611,0.55427,0.7657268,0.612879,-0.8816183,0.7143188],[0.491426,-0.4515039,-0.2615885]],[[0.6512854,0.9175739,0.8372135,0.99401,-0.4218713,0.3086374,0.3484337,0.857322,0.01231492,0.8834791,0.2963421,-0.4585189,0.286334,0.2547884,-0.4278859,-0.1315173],[0.004792094,0.3595226,-0.7390122,0.144154,-0.03985012,0.5706604,0.2863109,0.7450747,-0.07917845,-0.7541194,0.3152611,0.55427,0.7657268,0.612879,-0.2328306,0.7143188],[0.491426,-0.4515039,-0.2615885]],[[0.6512854,0.9175739,0.8372135,0.99401,-0.4218713,0.3086374,0.3484337,0.857322,0.01231492,0.8834791,0.4208975,-0.4212371,-0.09359515,0.1423577,-0.4278859,-0.1315173],[0.004792094,0.3595226,-0.7390122,0.144154,-0.03985012,0.5706604,0.2863109,0.7450747,-0.8353052,-0.733321,0.3152611,0.55427,0.7657268,0.612879,-0.8816183,0.7143188],[0.491426,-0.4515039,-0.2615885]],[[0.6512854,0.9175739,0.8372135,0.99401,-0.4218713,0.1863741,0.3484337,0.857322,0.01231492,0.8834791,0.2963421,-0.4664947,0.286334,0.1423577,-0.4278859,-0.1315173],[0.6598155,0.3595226,-0.7390122,0.144154,-0.03985012,0.5706604,0.2863109,0.7450747,-0.8353052,-0.733321,0.3152611,0.55427,0.7657268,0.612879,-0.8816183,0.7143188],[0.491426,-0.4515039,-0.2615885]],[[0.6512854,0.9175739,0.8372135,0.99401,-0.4218713,0.3086374,0.3484337,0.857322,0.01231492,0.8834791,-0.2407023,-0.3710793,-0.09359515,0.2547884,-0.4278859,-0.1315173],[0.004792094,0.3595226,-0.7390122,0.144154,-0.03985012,0.5706604,0.2863109,0.7450747,-0.8353052,-0.7541194,0.3152611,0.55427,0.7657268,0.612879,-0.2328306,0.7143188],[0.491426,-0.4515039,-0.2615885]],[[0.6512854,0.9175739,0.8372135,0.99401,-0.4218713,0.3086374,0.3484337,0.857322,0.01231492,0.8834791,0.2963421,-0.3710793,0.286334,0.1423577,0.2661462,-0.1315173],[0.004792094,0.3595226,-0.7390122,0.144154,-0.03985012,0.5706604,0.2863109,0.7450747,-0.8353052,-0.733321,0.3152611,0.55427,0.7657268,0.612879,-0.8816183,-0.1296524],[0.491426,-0.4515039,-0.2615885]],[[0.6512854,0.9175739,0.8372135,0.99401,-0.4218713,0.3086374,0.3484337,0.857322,0.01231492,0.8834791,0.2963421,-0.4212371,0.286334,0.2547884,-0.4278859,-0.1315173],[0.004792094,0.3595226,-0.7390122,0.144154,-0.03985012,0.5706604,0.2863109,0.7450747,-0.8353052,-0.733321,0.3152611,0.55427,0.7657268,0.6346929,-0.2328306,0.7143188],[0.491426,-0.4515039,-0.2615885]],[[0.6512854,0.9175739,0.8372135,0.99401,-0.4218713,0.3086374,0.3484337,0.857322,0.01231492,0.8834791,0.4208975,-0.3710793,0.286334,0.2547884,-0.4278859,-0.1315173],[0.004792094,0.3595226,-0.7390122,0.144154,-0.03985012,0.5706604,0.2863109,0.7450747,-0.8353052,-0.733321,0.3152611,0.55427,0.7657268,0.612879,-0.2328306,0.7143188],[0.491426,-0.4515039,-0.2615885]],[[0.6512854,0.7094128,0.8372135,0.99401,-0.4218713,-0.3175341,0.3484337,0.857322,0.01231492,0.8834791,0.2963421,-0.3710793,0.286334,0.2547884,-0.4278859,-0.1315173],[0.004792094,0.3595226,-0.7390122,0.144154,-0.03985012,0.5706604,0.2863109,0.7450747,-0.8353052,-0.7541194,0.3152611,0.55427,0.7657268,0.612879,-0.8816183,0.7143188],[0.491426,-0.4515039,-0.2615885]],[[0.6512854,0.9175739,0.8372135,0.99401,-0.4218713,0.1863741,0.3484337,0.857322,0.01231492,0.8834791,0.2963421,-0.3710793,0.286334,0.2547884,-0.4278859,-0.1315173],[0.004792094,0.3595226,-0.7390122,0.144154,-0.03985012,0.5706604,0.2863109,0.6392248,-0.8353052,-0.733321,0.3152611,0.55427,0.7657268,0.612879,-0.2328306,0.7143188],[0.491426,-0.4515039,-0.2615885]],[[0.6512854,0.7094128,0.8372135,0.99401,-0.4218713,0.3086374,0.3484337,0.857322,0.01231492,0.8834791,0.2963421,-0.4212371,0.286334,0.2547884,-0.4278859,-0.1315173],[0.6598155,0.3595226,-0.7390122,0.144154,-0.03985012,0.5706604,0.2863109,0.7450747,-0.07917845,-0.733321,0.3152611,0.55427,0.7657268,0.612879,-0.2328306,0.7143188],[0.491426,-0.4515039,-0.2615885]],[[0.6512854,0.9175739,0.8372135,0.99401,-0.4218713,0.3086374,0.3484337,0.857322,0.01231492,0.8834791,0.2963421,-0.4212371,-0.09359515,0.1423577,-0.4278859,-0.1315173],[0.004792094,0.3595226,-0.7390122,0.144154,-0.03985012,0.5706604,0.2863109,0.7450747,-0.8353052,-0.7541194,0.3152611,0.55427,0.7657268,0.612879,-0.8816183,0.7143188],[0.491426,-0.4515039,-0.2615885]],[[0.5115621,0.9175739,0.8372135,0.99401,-0.4218713,0.3086374,0.3484337,0.5966225,0.01231492,0.8834791,0.2963421,-0.4212371,0.286334,0.1423577,-0.4278859,-0.1315173],[0.004792094,0.3595226,-0.7390122,0.144154,-0.03985012,0.5706604,0.2863109,0.7450747,-0.8353052,-0.7541194,0.3152611,-0.2918366,0.7657268,-0.08201015,-0.8816183,0.7143188],[0.491426,-0.4515039,-0.2615885]],[[0.6512854,0.9175739,0.8372135,0.99401,-0.4218713,0.1863741,0.3484337,0.857322,0.01231492,0.8834791,0.2963421,-0.3710793,0.286334,0.2547884,-0.4278859,-0.1315173],[0.004792094,0.3595226,-0.7390122,0.144154,-0.03985012,0.5706604,0.2863109,0.7450747,-0.8353052,0.3932004,0.3152611,0.55427,0.7657268,0.612879,-0.8816183,0.7143188],[0.491426,-0.4515039,-0.2615885]],[[0.6512854,0.9175739,0.8372135,0.99401,-0.4218713,0.1863741,0.3484337,0.857322,0.01231492,0.8834791,0.2963421,-0.4585189,0.286334,0.2547884,-0.4278859,-0.1315173],[0.004792094,0.3595226,-0.7390122,0.144154,-0.03985012,0.795578,0.2863109,0.7450747,-0.8353052,-0.733321,0.3152611,0.55427,0.7657268,0.612879,-0.8011432,0.7143188],[0.491426,-0.4515039,-0.2615885]],[[0.6512854,0.9175739,0.8372135,0.99401,-0.4218713,0.3086374,0.3484337,0.857322,0.01231492,0.8834791,0.2963421,-0.3710793,0.286334,0.2547884,-0.4278859,-0.1315173],[0.004792094,0.3595226,-0.7390122,0.144154,-0.03985012,0.5706604,0.2863109,0.7450747,-0.07917845,-0.1075515,0.3152611,0.55427,0.7657268,0.612879,-0.8816183,0.7143188],[0.491426,-0.4515039,-0.2615885]],[[0.5115621,0.9175739,0.8372135,0.99401,-0.4218713,0.1863741,0.0244447,0.857322,0.01231492,0.8834791,0.2963421,-0.4585189,0.286334,0.2547884,-0.4278859,-0.1315173],[0.004792094,0.3595226,-0.7390122,0.144154,-0.03985012,0.5706604,0.2863109,0.7450747,-0.07917845,-0.7541194,0.3152611,0.55427,0.7657268,0.612879,-0.2328306,0.7143188],[0.491426,-0.4515039,-0.2615885]],[[0.6512854,0.9175739,0.8372135,0.99401,-0.2092932,0.3086374,0.3484337,0.857322,0.01231492,0.8834791,0.2963421,-0.3710793,0.286334,0.1423577,-0.4278859,-0.1315173],[0.004792094,0.3595226,-0.7390122,0.144154,-0.03985012,0.5706604,0.2863109,0.7450747,-0.8353052,-0.7541194,0.3152611,0.55427,0.7657268,0.612879,-0.2328306,0.7143188],[0.491426,-0.4515039,-0.2615885]],[[0.6512854,0.9175739,0.8372135,0.99401,-0.4218713,0.3086374,0.3484337,0.857322,-0.1701695,0.8834791,0.2963421,-0.4585189,0.286334,0.2547884,-0.4278859,-0.1315173],[0.004792094,0.3595226,-0.7390122,0.144154,-0.03985012,0.5706604,0.2863109,0.7450747,-0.8353052,-0.1075515,0.3152611,0.55427,0.7657268,0.612879,-0.7820666,0.7143188],[0.491426,-0.4515039,-0.2615885]],[[0.6512854,0.9175739,0.8372135,0.99401,-0.4218713,0.3086374,0.3484337,0.857322,0.01231492,0.8834791,0.4208975,-0.4585189,0.286334,0.1423577,-0.4278859,-0.1315173],[0.004792094,0.3595226,-0.7390122,0.144154,-0.03985012,0.5706604,0.2863109,0.7450747,-0.8353052,-0.321555,0.3152611,0.55427,0.7657268,0.612879,-0.8011432,0.7143188],[0.491426,-0.4515039,-0.2615885]],[[0.6512854,0.9175739,0.8372135,0.99401,-0.4218713,0.3086374,0.3484337,0.857322,0.01231492,0.8834791,0.2963421,-0.4212371,0.286334,0.2547884,-0.4278859,-0.1315173],[0.004792094,0.3595226,-0.7390122,0.144154,-0.03985012,0.5706604,0.2863109,0.7450747,0.1283213,-0.7541194,0.3152611,0.55427,0.7657268,0.612879,-0.8816183,0.7143188],[0.491426,-0.4515039,-0.2615885]],[[0.6512854,0.9175739,0.8372135,0.99401,-0.4218713,0.3086374,0.3484337,0.857322,0.01231492,0.8834791,0.2963421,-0.4585189,0.286334,0.2547884,-0.4278859,-0.1315173],[0.004792094,0.3595226,-0.7390122,0.144154,-0.03985012,0.5706604,0.2863109,0.7450747,-0.8353052,-0.733321,0.3152611,0.55427,0.7657268,0.612879,-0.2328306,0.7143188],[0.4277465,-0.4515039,-0.2615885]],[[0.6512854,0.9175739,0.8372135,0.99401,-0.4218713,0.1863741,0.3484337,0.857322,0.01231492,0.8834791,0.2963421,-0.4664947,0.286334,0.1423577,-0.4278859,-0.1315173],[0.004792094,0.3595226,-0.7390122,0.144154,-0.03985012,0.5706604,0.2863109,0.7450747,-0.8353052,-0.7541194,0.3152611,0.55427,0.7657268,0.612879,-0.8816183,0.7143188],[0.491426,-0.4515039,-0.2615885]],[[0.6512854,0.9175739,0.8372135,0.99401,-0.4218713,0.4563331,0.3484337,0.5966225,0.01231492,0.8834791,0.4208975,-0.4212371,0.286334,0.2547884,-0.4278859,-0.1315173],[0.6598155,0.3595226,-0.7390122,0.144154,-0.03985012,0.5706604,0.2863109,0.7450747,-0.07917845,-0.733321,0.3152611,0.55427,0.7657268,0.612879,-0.8457863,0.7143188],[0.491426,-0.4515039,-0.2615885]],[[0.6512854,0.9175739,0.8372135,0.99401,-0.4218713,0.3086374,0.3484337,0.857322,0.01231492,0.8834791,0.2963421,-0.4212371,0.286334,0.2547884,-0.4278859,-0.1315173],[0.004792094,0.3595226,-0.7390122,0.144154,-0.03985012,0.5706604,-0.3422121,0.7450747,-0.8353052,-0.7541194,0.3152611,0.55427,0.7657268,0.612879,-0.2328306,0.7143188],[0.491426,-0.4515039,-0.2615885]],[[0.6512854,0.9175739,0.8372135,0.99401,-0.4218713,0.3086374,0.3484337,0.857322,0.01231492,0.8834791,0.2963421,-0.4212371,0.286334,0.1423577,-0.4278859,-0.1315173],[0.004792094,0.3595226,-0.7390122,0.144154,-0.03985012,0.5706604,0.2863109,0.7450747,-0.2389647,-0.7541194,0.3152611,0.55427,0.7657268,-0.08201015,-0.8816183,0.7143188],[0.491426,-0.4515039,-0.2615885]],[[0.6512854,-0.7087646,0.8372135,0.99401,-0.4218713,0.3086374,0.3484337,0.5966225,0.01231492,0.5380676,0.2963421,-0.4585189,0.286334,0.2547884,-0.4278859,-0.1315173],[0.004792094,0.3595226,-0.7390122,0.144154,-0.03985012,0.5706604,0.2863109,0.7450747,-0.8353052,-0.1075515,0.3152611,0.55427,0.7657268,0.6346929,-0.8457863,0.7143188],[0.491426,-0.4515039,-0.2615885]],[[0.6512854,0.9175739,0.8372135,0.99401,-0.4218713,0.1863741,0.3484337,0.857322,0.01231492,0.8834791,0.2963421,-0.3710793,0.286334,0.2547884,-0.4278859,-0.1315173],[0.004792094,0.3595226,-0.7390122,0.144154,-0.03985012,0.5706604,0.2863109,0.7450747,-0.8353052,-0.7541194,0.3152611,0.55427,0.7657268,0.612879,-0.8816183,0.7143188],[0.491426,-0.4515039,-0.2615885]],[[0.6512854,0.9175739,0.8372135,0.99401,-0.4218713,0.3086374,0.3484337,0.857322,0.01231492,0.8834791,0.2963421,-0.4212371,0.286334,0.2547884,-0.4278859,-0.1315173],[0.004792094,0.3595226,-0.7390122,0.144154,-0.03985012,0.5706604,0.2863109,0.7450747,-0.8353052,-0.733321,0.3152611,0.55427,0.7657268,0.612879,-0.8816183,0.7143188],[0.491426,-0.4515039,-0.2615885]],[[0.6512854,0.7094128,0.8372135,0.99401,-0.4218713,0.3086374,0.3484337,0.857322,0.01231492,0.8834791,0.2963421,-0.3710793,0.286334,0.2547884,-0.4278859,-0.1315173],[0.004792094,0.3595226,-0.7390122,0.144154,-0.03985012,0.5706604,0.2863109,0.7450747,-0.8353052,-0.733321,0.3152611,0.55427,0.7657268,0.612879,-0.8816183,0.7143188],[0.491426,-0.4515039,-0.2615885]],[[0.6512854,0.9175739,0.8372135,0.99401,-0.4218713,0.3086374,0.3484337,0.857322,0.01231492,0.8834791,0.2963421,-0.4212371,-0.09359515,0.2547884,-0.4278859,-0.1315173],[0.004792094,0.3595226,-0.7390122,0.144154,-0.03985012,0.5706604,0.2863109,0.7450747,-0.8353052,-0.7541194,0.3152611,0.55427,0.7657268,0.612879,-0.8816183,0.7143188],[0.491426,-0.4515039,-0.2615885]],[[0.6512854,0.9175739,0.8372135,0.99401,-0.4218713,0.3086374,0.3484337,0.5966225,0.1872476,0.5380676,0.2963421,-0.4585189,0.286334,0.2547884,-0.4278859,-0.1315173],[0.004792094,0.3595226,-0.7390122,0.144154,-0.03985012,0.5706604,0.2863109,0.7450747,-0.8353052,-0.1075515,0.3152611,0.55427,0.7657268,0.6346929,-0.8457863,0.7143188],[0.491426,-0.4515039,-0.2615885]],[[0.6512854,0.9175739,0.8372135,0.99401,-0.4218713,0.3086374,0.3484337,0.857322,0.01231492,0.8834791,0.2963421,-0.4585189,0.286334,0.2547884,-0.4278859,-0.1315173],[0.004792094,0.3595226,-0.7390122,0.144154,-0.03985012,0.5706604,0.2863109,-0.6014163,-0.8353052,-0.7541194,0.3152611,0.55427,0.7657268,0.6346929,-0.8011432,0.7143188],[0.491426,-0.4515039,-0.2615885]],[[0.6512854,0.9175739,0.8372135,0.99401,-0.4218713,0.3086374,0.3484337,0.857322,0.01231492,0.8834791,0.4208975,-0.4212371,0.286334,0.2547884,-0.4278859,-0.1315173],[0.004792094,0.3595226,-0.7390122,0.144154,-0.03985012,0.5706604,0.2863109,0.7450747,-0.07917845,-0.733321,0.3152611,0.55427,0.7657268,0.612879,-0.8816183,0.7143188],[0.491426,-0.4515039,-0.2615885]],[[0.6512854,0.9175739,0.8372135,0.99401,-0.4218713,0.1863741,0.0244447,0.857322,0.01231492,0.8834791,0.2963421,-0.4212371,0.286334,0.2547884,-0.4278859,-0.1315173],[0.004792094,0.3595226,-0.7390122,0.144154,-0.03985012,0.5706604,0.2863109,0.1030236,-0.07917845,-0.7541194,0.3152611,0.55427,0.7657268,0.612879,-0.8816183,0.7143188],[0.491426,-0.4515039,-0.2615885]],[[0.6512854,0.9175739,0.8372135,0.99401,-0.4218713,0.3086374,0.3484337,0.857322,0.01231492,0.8834791,0.2963421,-0.4585189,0.286334,0.2547884,-0.4278859,-0.1315173],[0.004792094,0.3595226,-0.7390122,0.144154,-0.03985012,0.5706604,0.2863109,0.7450747,-0.07917845,-0.1075515,0.3152611,0.55427,0.7657268,0.612879,-0.8816183,0.7143188],[0.491426,-0.4515039,-0.2615885]],[[0.6512854,0.9175739,0.8372135,0.99401,-0.4218713,0.3086374,0.3484337,0.857322,0.01231492,0.8834791,0.2963421,-0.3710793,0.286334,0.2547884,-0.4278859,-0.1315173],[0.004792094,0.3595226,-0.7390122,0.144154,-0.03985012,0.5706604,0.2863109,0.7450747,-0.07917845,-0.1075515,0.3152611,0.55427,0.7657268,0.612879,-0.8816183,0.7143188],[0.491426,-0.4515039,-0.2615885]],[[0.6512854,0.9175739,0.8372135,0.99401,-0.4218713,0.3086374,0.3484337,0.5966225,0.01231492,0.8834791,0.2963421,-0.4212371,0.286334,0.1423577,-0.4278859,-0.1315173],[0.004792094,0.3595226,-0.7390122,0.144154,-0.03985012,0.5706604,0.2863109,0.4854254,-0.07917845,-0.7541194,0.3152611,0.55427,0.7657268,0.6346929,-0.8816183,0.7143188],[0.491426,-0.4515039,-0.2615885]],[[0.6512854,0.9175739,0.8372135,0.99401,-0.4218713,0.4563331,0.3484337,0.5966225,0.01231492,0.8834791,0.4208975,-0.4212371,0.286334,0.2547884,-0.4278859,-0.1315173],[0.6598155,0.3595226,-0.7390122,0.144154,-0.03985012,0.5706604,0.2863109,0.7450747,-0.07917845,-0.733321,0.3152611,0.55427,0.7657268,0.612879,-0.8457863,0.7143188],[0.491426,-0.4515039,-0.2615885]],[[0.6512854,0.9175739,0.8372135,0.99401,-0.4218713,0.3086374,0.3484337,0.5966225,0.01231492,0.8834791,0.2963421,-0.4212371,0.286334,0.1423577,-0.4278859,-0.1315173],[0.004792094,0.3595226,-0.7390122,0.144154,-0.03985012,0.5706604,0.2863109,0.7450747,-0.07917845,-0.7541194,0.3152611,0.55427,0.7657268,0.6346929,-0.8816183,0.7143188],[0.491426,-0.4515039,-0.2615885]],[[0.6512854,0.9175739,0.8372135,0.99401,-0.4218713,0.3086374,0.3484337,0.5966225,0.01231492,0.8834791,0.2963421,-0.3710793,0.286334,0.1423577,-0.4278859,-0.1315173],[0.004792094,0.3595226,-0.7390122,0.144154,-0.03985012,0.5706604,0.2863109,0.7450747,-0.07917845,-0.7541194,0.3152611,0.55427,0.7657268,0.6346929,-0.8816183,0.7143188],[0.491426,-0.4515039,-0.2615885]],[[0.6512854,0.9175739,0.8372135,0.99401,-0.4218713,0.3086374,0.3484337,0.857322,0.01231492,0.8834791,0.2963421,-0.4212371,0.286334,0.1423577,-0.4278859,-0.1315173],[0.004792094,0.3595226,-0.7390122,0.144154,-0.03985012,0.5706604,0.2863109,0.7450747,-0.07917845,-0.7541194,0.3152611,0.55427,0.7657268,0.6346929,-0.8816183,0.7143188],[0.491426,-0.4515039,-0.2615885]],[[0.6512854,0.9175739,0.8372135,0.99401,-0.4218713,0.3086374,0.3484337,0.857322,0.01231492,0.8834791,0.2963421,-0.4212371,0.286334,0.1423577,-0.4278859,-0.1315173],[0.004792094,0.3595226,-0.7390122,0.144154,-0.03985012,0.5706604,0.2863109,0.7450747,-0.07917845,-0.7541194,0.3152611,0.55427,0.7657268,0.6346929,-0.8816183,0.7143188],[0.491426,-0.4515039,-0.2615885]],[[0.6512854,0.9175739,0.8372135,0.99401,-0.4218713,0.3086374,0.3484337,0.857322,0.01231492,0.8834791,0.2963421,-0.4212371,0.286334,0.1423577,-0.4278859,-0.1315173],[0.004792094,0.3595226,-0.7390122,0.144154,-0.03985012,0.5706604,0.2863109,0.7450747,-0.07917845,-0.7541194,0.3152611,0.55427,0.7657268,0.6346929,-0.8816183,0.7143188],[0.491426,-0.4515039,-0.2615885]],[[0.5115621,0.9175739,0.8372135,0.99401,-0.4218713,0.1863741,0.0244447,0.857322,0.01231492,0.8834791,0.2963421,-0.4585189,0.286334,0.2547884,-0.4278859,-0.1315173],[0.004792094,0.3595226,-0.7390122,0.144154,-0.03985012,0.5706604,0.2863109,0.7450747,-0.07917845,-0.7541194,0.3152611,0.55427,0.7657268,0.612879,-0.2328306,0.7143188],[0.491426,-0.4515039,-0.2615885]],[[0.6512854,0.9175739,-0.4114662,0.99401,-0.4218713,0.3086374,0.3484337,0.857322,0.01231492,0.8834791,-0.3686265,-0.4212371,0.286334,0.1423577,-0.4278859,-0.1315173],[0.004792094,0.3595226,-0.7390122,0.144154,-0.03985012,0.5706604,0.2863109,0.7450747,-0.8353052,-0.7541194,0.3152611,0.55427,0.7657268,0.612879,-0.2328306,0.7143188],[0.491426,-0.4515039,-0.2615885]],[[0.6512854,0.9175739,0.8372135,0.99401,-0.1901907,0.3086374,0.3484337,0.857322,0.01231492,0.8834791,0.4208975,-0.4585189,0.286334,0.1423577,-0.4278859,-0.1315173],[0.004792094,0.3595226,-0.7390122,0.144154,-0.03985012,0.5706604,0.2863109,0.7450747,-0.8353052,-0.321555,0.3152611,0.55427,0.7657268,0.612879,-0.8011432,0.7143188],[0.491426,-0.4515039,-0.2615885]],[[0.6512854,0.9175739,0.8372135,0.99401,-0.4218713,0.1863741,0.3484337,0.857322,0.01231492,0.8834791,0.2963421,-0.4212371,0.286334,0.2547884,-0.4278859,-0.1315173],[0.004792094,0.3595226,-0.5423944,0.144154,-0.03985012,0.5706604,0.2863109,0.7450747,-0.8353052,-0.733321,0.3152611,0.55427,0.7657268,0.612879,-0.2328306,0.7143188],[0.491426,-0.4515039,-0.2615885]],[[0.6512854,0.9175739,0.8372135,0.99401,-0.4218713,0.3086374,0.3484337,0.857322,-0.1701695,0.8834791,0.2963421,-0.4585189,0.286334,0.2547884,-0.4278859,-0.1315173],[0.004792094,0.3595226,-0.7390122,0.144154,-0.03985012,0.5706604,0.2863109,0.7450747,-0.8353052,-0.1075515,0.3152611,0.55427,0.7657268,0.612879,-0.7820666,0.7143188],[0.491426,-0.4515039,-0.2615885]],[[0.6512854,0.9175739,0.8372135,0.99401,-0.4218713,0.1863741,0.3484337,0.857322,0.01231492,0.8834791,0.2963421,-0.3710793,0.286334,0.2547884,-0.4278859,-0.1315173],[0.004792094,0.3595226,-0.7390122,0.144154,-0.03985012,0.5706604,0.2863109,0.6392248,-0.8353052,-0.733321,0.3152611,0.55427,0.7657268,0.612879,-0.8816183,0.7143188],[0.491426,-0.4515039,-0.2615885]],[[0.6512854,0.9175739,0.8372135,0.99401,-0.4218713,0.1863741,0.3484337,0.857322,0.01231492,0.8834791,0.2963421,-0.4585189,-0.09359515,0.1423577,-0.4278859,-0.1315173],[0.004792094,0.3595226,-0.7390122,0.144154,-0.03985012,0.5706604,0.2863109,0.7450747,-0.8353052,-0.733321,0.3152611,0.55427,0.7657268,0.612879,-0.2328306,0.7143188],[0.491426,-0.4515039,-0.2615885]],[[0.6512854,0.9175739,0.8372135,0.99401,-0.4218713,0.3086374,0.3484337,0.857322,0.01231492,0.8834791,0.2963421,-0.4585189,0.286334,0.2547884,-0.4278859,-0.1315173],[0.004792094,0.3595226,-0.7390122,0.144154,-0.03985012,0.5706604,0.2863109,0.7450747,-0.8353052,-0.7541194,0.3152611,0.55427,0.7657268,0.612879,-0.8816183,0.7143188],[0.491426,-0.4515039,0.3135225]],[[-0.7546613,0.9175739,-0.3690852,0.99401,-0.4218713,0.3086374,0.3484337,0.857322,0.01231492,0.8834791,0.2963421,-0.4212371,0.286334,0.1423577,-0.4278859,-0.1315173],[0.004792094,0.3595226,-0.7390122,0.144154,-0.03985012,0.5706604,0.2863109,0.7450747,-0.8353052,-0.733321,0.3152611,0.55427,0.7657268,0.612879,-0.8816183,0.7143188],[0.491426,-0.4515039,-0.2615885]],[[0.6512854,0.9175739,0.8372135,0.99401,-0.4218713,0.3086374,0.3484337,0.5966225,0.01231492,0.8834791,0.2963421,-0.4585189,0.286334,0.1423577,-0.4278859,-0.1315173],[0.004792094,0.3595226,-0.7390122,0.144154,-0.03985012,0.5706604,0.2863109,0.7450747,-0.8353052,-0.4870998,0.3152611,0.55427,0.7657268,0.612879,-0.8816183,0.7143188],[0.491426,-0.4515039,-0.2615885]],[[0.6512854,0.9175739,0.8372135,0.99401,-0.4218713,0.3086374,0.3484337,0.5966225,0.01231492,0.8834791,0.2963421,-0.4585189,0.286334,0.1423577,-0.4278859,-0.1315173],[0.004792094,0.3595226,-0.7390122,0.144154,-0.03985012,0.5706604,0.2863109,0.7450747,-0.8353052,-0.1075515,0.3152611,0.55427,0.7657268,0.612879,-0.8816183,0.7143188],[0.491426,-0.4515039,-0.2615885]],[[0.6512854,0.9175739,0.8372135,0.99401,-0.4218713,0.3086374,0.3484337,0.857322,0.01231492,0.8834791,0.2963421,-0.4585189,0.286334,0.1423577,-0.4278859,-0.3628689],[0.004792094,0.3595226,-0.7390122,0.144154,-0.03985012,0.5706604,0.2863109,0.7450747,-0.8353052,-0.4870998,0.3152611,0.55427,0.7657268,0.612879,-0.8816183,0.7143188],[0.491426,-0.4515039,-0.2615885]],[[0.6512854,0.9175739,0.8372135,0.99401,-0.4218713,0.3086374,0.3484337,0.5966225,0.01231492,0.8834791,0.2963421,-0.4585189,0.286334,-0.8722847,-0.4278859,-0.1315173],[0.004792094,0.3595226,-0.7390122,0.144154,-0.03985012,0.5706604,0.2863109,0.7450747,-0.8353052,-0.7541194,0.3152611,-0.6607716,0.7657268,0.6346929,-0.8816183,0.7143188],[0.491426,-0.4515039,0.5182559]],[[0.6512854,0.9175739,0.8372135,0.99401,-0.4218713,0.1863741,0.3484337,0.857322,0.01231492,0.8834791,0.2963421,-0.4212371,0.286334,0.2547884,-0.4278859,-0.1315173],[0.004792094,0.3595226,-0.7390122,0.144154,-0.03985012,0.5706604,0.2863109,0.7450747,-0.8353052,-0.733321,0.3152611,0.55427,0.7657268,0.07932723,-0.8816183,0.7143188],[0.491426,-0.4515039,-0.2615885]],[[0.6512854,0.9175739,0.8372135,0.99401,-0.4218713,0.3086374,0.3484337,0.857322,0.01231492,0.8834791,0.4208975,-0.3710793,0.286334,0.2547884,-0.4278859,-0.1315173],[0.004792094,0.3595226,-0.7390122,0.144154,-0.03985012,0.5706604,0.2863109,0.7450747,-0.8223493,-0.7541194,0.3152611,0.55427,0.7657268,0.612879,-0.8816183,0.7143188],[0.491426,-0.4515039,-0.2615885]],[[0.6512854,0.9175739,0.7814066,0.99401,-0.4218713,0.1863741,0.3484337,0.857322,0.01231492,0.8834791,0.2963421,-0.3710793,0.286334,0.2547884,-0.4278859,-0.1315173],[0.004792094,0.3595226,-0.7390122,0.144154,-0.03985012,0.5706604,0.2863109,0.7450747,-0.2389647,-0.733321,0.3152611,0.55427,0.7657268,0.612879,-0.2328306,0.7143188],[0.491426,-0.4515039,-0.2615885]],[[0.6512854,0.9175739,0.8372135,0.99401,-0.4218713,0.3086374,0.3484337,0.5966225,0.01231492,-0.9411857,0.4208975,-0.4585189,0.286334,0.2547884,-0.4278859,-0.1315173],[0.004792094,0.3595226,-0.7390122,0.144154,-0.03985012,0.5706604,0.2863109,0.7450747,-0.8353052,-0.2127286,0.3152611,0.55427,0.7657268,0.6346929,-0.8457863,0.7143188],[0.491426,-0.4515039,-0.2615885]],[[0.6512854,0.1977836,0.8372135,0.99401,-0.4218713,0.1863741,0.3484337,0.857322,0.01231492,0.8834791,0.2963421,-0.3710793,0.286334,0.2547884,-0.4278859,-0.1315173],[0.004792094,0.3595226,-0.7390122,0.144154,-0.03985012,0.5706604,0.2863109,0.6392248,-0.8353052,-0.733321,0.3152611,0.55427,0.7657268,0.612879,-0.2328306,0.7143188],[0.491426,-0.4515039,-0.2615885]],[[0.6512854,0.9175739,0.9110522,0.99401,-0.4218713,0.3086374,0.3484337,0.857322,0.01231492,0.8834791,0.2963421,-0.4212371,-0.09359515,0.1423577,-0.4278859,-0.1315173],[0.004792094,0.3595226,-0.7390122,0.144154,-0.03985012,0.5706604,0.2863109,0.7450747,-0.8353052,-0.7541194,0.3152611,0.55427,0.9349174,0.612879,-0.8816183,0.7143188],[0.491426,-0.4515039,-0.2615885]],[[0.6512854,0.9175739,0.8372135,0.99401,-0.4218713,0.3086374,0.3484337,0.5966225,0.01231492,0.8834791,0.2963421,-0.4585189,0.286334,0.1423577,-0.6053987,-0.1315173],[0.004792094,0.3595226,-0.7390122,0.144154,-0.03985012,0.5706604,0.2863109,0.7450747,-0.8353052,-0.7541194,0.3152611,-0.6607716,0.7657268,0.6346929,-0.8816183,0.7143188],[0.491426,-0.4515039,-0.2615885]],[[0.6512854,0.9175739,0.8372135,0.99401,-0.4218713,0.1863741,0.3484337,0.857322,0.01231492,0.8834791,0.2963421,-0.4585189,0.286334,0.2547884,-0.4278859,-0.1315173],[0.004792094,0.3595226,-0.7390122,0.144154,-0.03985012,0.5706604,0.2863109,0.7450747,-0.8353052,-0.7541194,0.3152611,-0.6607716,0.7657268,0.6346929,-0.8816183,0.7143188],[0.491426,-0.4515039,-0.2615885]],[[0.6512854,0.9175739,0.8372135,0.99401,-0.4218713,0.3086374,0.3484337,0.857322,0.01231492,0.8834791,0.2963421,-0.4585189,0.286334,0.2547884,-0.4278859,-0.1315173],[0.004792094,0.3595226,-0.7390122,0.144154,-0.03985012,0.5706604,0.2863109,0.7450747,-0.07917845,-0.733321,0.3152611,0.55427,0.7657268,0.6346929,-0.8816183,0.7143188],[0.491426,-0.4515039,-0.2615885]],[[0.6512854,0.9175739,0.8372135,0.99401,-0.4218713,0.1863741,0.3484337,0.857322,0.01231492,0.8834791,0.2963421,-0.3710793,0.286334,0.2547884,-0.4278859,-0.1315173],[0.004792094,0.3595226,-0.7390122,0.144154,-0.03985012,0.5706604,0.2863109,0.7450747,-0.8353052,-0.7541194,0.3152611,0.55427,0.7657268,0.612879,-0.8816183,0.7143188],[0.491426,-0.4515039,-0.2615885]],[[0.6512854,0.9175739,0.8372135,0.99401,-0.4218713,0.3086374,0.3484337,0.857322,0.01231492,0.8834791,0.2963421,-0.4212371,-0.09359515,0.2547884,-0.4278859,-0.1315173],[0.004792094,0.3595226,-0.7390122,-0.1609784,-0.03985012,0.5706604,0.2863109,0.7450747,-0.8353052,-0.7541194,0.3152611,0.55427,0.7657268,0.6346929,-0.8816183,0.7143188],[0.491426,-0.4515039,-0.2615885]],[[-0.5449579,0.9175739,0.8372135,0.99401,-0.4218713,0.1863741,0.3484337,0.857322,0.01231492,0.8834791,0.2963421,-0.4585189,-0.09359515,0.2547884,-0.4278859,-0.1315173],[0.004792094,0.3595226,-0.7390122,0.144154,-0.03985012,0.5706604,0.2863109,0.7450747,-0.8353052,-0.733321,0.3152611,0.55427,0.7657268,0.612879,-0.8816183,0.7143188],[0.491426,-0.4515039,-0.2615885]],[[0.6512854,0.9175739,0.8372135,0.99401,-0.4218713,-0.3175341,0.3484337,0.857322,0.01231492,0.8834791,0.2963421,-0.4212371,0.286334,0.2547884,-0.4278859,-0.1315173],[0.004792094,0.3595226,-0.7390122,0.144154,-0.03985012,0.5706604,0.2863109,0.7450747,-0.8353052,-0.7541194,0.3152611,0.55427,0.7657268,0.6346929,-0.8816183,0.7143188],[0.491426,-0.4515039,-0.2615885]],[[0.6512854,0.9175739,0.8372135,0.99401,-0.4218713,0.3086374,0.3484337,0.857322,0.01231492,0.8834791,0.2963421,-0.4212371,-0.09359515,0.2547884,-0.4278859,-0.1315173],[0.004792094,0.3595226,-0.7390122,0.144154,-0.03985012,0.5706604,0.2863109,0.7450747,-0.8353052,-0.7541194,0.3152611,0.55427,0.7657268,0.612879,-0.8816183,0.7143188],[0.491426,-0.4515039,-0.2615885]],[[0.6512854,0.9175739,0.8372135,0.99401,-0.4218713,0.3086374,0.3484337,0.857322,0.01231492,0.8834791,0.2963421,-0.4585189,-0.09359515,0.2547884,-0.4278859,-0.1315173],[-0.05545247,0.3595226,-0.7390122,0.144154,-0.03985012,0.5706604,0.2863109,0.7450747,-0.8353052,-0.7541194,0.3152611,0.55427,0.7657268,0.6346929,-0.8816183,0.7143188],[0.491426,-0.4515039,-0.2615885]],[[0.6512854,0.9175739,0.8372135,0.99401,-0.4218713,0.3086374,0.3484337,0.857322,0.01231492,0.8834791,0.2963421,-0.4585189,-0.09359515,0.2547884,-0.4278859,-0.1315173],[0.004792094,0.3595226,-0.7390122,0.144154,-0.03985012,0.5706604,0.2863109,0.7450747,-0.8353052,-0.7541194,0.3152611,0.55427,0.7657268,0.612879,-0.8816183,0.7143188],[0.491426,-0.4515039,-0.2615885]],[[0.6512854,0.9175739,0.8372135,0.99401,-0.4218713,0.3086374,0.3484337,0.857322,0.01231492,0.8834791,0.2963421,-0.4585189,0.286334,0.2547884,-0.4278859,-0.1315173],[0.004792094,0.3595226,-0.7390122,0.144154,-0.03985012,0.5706604,0.2863109,0.7450747,-0.8353052,-0.7541194,0.3152611,0.55427,0.7657268,0.612879,-0.2328306,0.7143188],[0.491426,-0.4515039,-0.2615885]],[[0.6512854,0.9175739,0.8372135,0.99401,-0.4218713,0.3086374,0.3484337,0.857322,0.01231492,0.8834791,0.2963421,-0.4585189,0.286334,0.2547884,-0.4278859,-0.07051051],[0.9897447,0.3595226,0.3462155,0.144154,-0.03985012,0.5706604,0.2863109,0.7450747,-0.07917845,-0.7541194,0.3152611,0.55427,0.7657268,0.612879,-0.2328306,0.7143188],[0.491426,-0.4515039,-0.2615885]],[[0.6512854,0.9175739,0.8372135,0.99401,-0.4218713,0.3086374,0.3484337,0.857322,0.01231492,0.8834791,0.2963421,-0.4585189,-0.5279062,0.1423577,-0.4278859,-0.1315173],[0.004792094,0.3595226,-0.7390122,0.144154,-0.03985012,0.5706604,0.2863109,0.7450747,-0.2389647,-0.733321,0.3152611,0.55427,0.7657268,0.612879,-0.2328306,0.7143188],[0.491426,-0.4515039,-0.2615885]],[[0.6512854,0.9175739,0.8372135,0.99401,-0.4218713,0.3086374,0.3484337,0.857322,0.01231492,0.8834791,0.2963421,0.6671133,0.286334,0.1423577,-0.4278859,-0.1315173],[0.004792094,0.3595226,-0.7390122,0.144154,-0.03985012,0.5706604,0.2863109,0.7450747,-0.2389647,-0.7541194,0.3152611,0.55427,0.7657268,-0.08201015,-0.8816183,0.7143188],[0.491426,-0.4515039,-0.2615885]],[[0.6512854,0.9175739,0.8372135,0.99401,-0.4218713,0.3086374,0.3484337,0.857322,0.01231492,0.8834791,0.2963421,-0.2821225,0.286334,0.1423577,-0.4278859,-0.1315173],[0.004792094,0.3595226,-0.7390122,0.144154,-0.03985012,0.5706604,0.2863109,0.7450747,-0.2389647,-0.7541194,0.3152611,0.55427,0.7657268,0.612879,-0.2328306,0.7143188],[0.491426,-0.4515039,-0.2615885]],[[0.6512854,0.9175739,0.8372135,0.99401,-0.4218713,0.3086374,0.3484337,0.857322,0.01231492,0.8834791,0.2963421,-0.4585189,0.286334,0.1423577,-0.4278859,-0.1315173],[0.004792094,0.3595226,-0.7390122,0.144154,-0.03985012,0.5706604,0.2863109,0.7450747,-0.2389647,-0.733321,0.3152611,0.55427,0.7657268,0.612879,-0.2328306,0.7143188],[0.491426,-0.4515039,-0.2615885]],[[0.6512854,0.9175739,0.8372135,0.99401,-0.4218713,0.3086374,0.3484337,0.857322,0.01231492,0.8834791,0.2963421,-0.4585189,0.286334,0.1423577,-0.4278859,-0.3628689],[0.004792094,0.3595226,-0.7390122,0.144154,-0.03985012,0.5706604,0.2863109,0.7450747,-0.2389647,-0.4870998,0.3152611,0.55427,0.7657268,0.612879,-0.2328306,0.7143188],[0.491426,-0.4515039,-0.2615885]],[[0.6512854,0.9175739,0.8372135,0.99401,-0.4218713,0.3086374,0.3484337,0.857322,0.01231492,0.8834791,0.2963421,-0.4585189,0.286334,0.1423577,-0.4278859,-0.3628689],[0.004792094,0.3595226,-0.7390122,0.144154,-0.03985012,0.5706604,0.2863109,0.7450747,-0.8353052,-0.4870998,0.3152611,0.55427,0.7657268,0.612879,-0.8816183,0.7143188],[0.491426,-0.4515039,-0.2615885]],[[0.6512854,0.9175739,0.8372135,0.99401,-0.4218713,0.3086374,0.3484337,0.857322,0.01231492,0.8834791,0.2963421,-0.4664947,0.286334,0.1423577,-0.4278859,-0.1315173],[0.004792094,0.3595226,-0.7390122,0.144154,-0.03985012,0.5706604,0.2863109,0.7450747,-0.2389647,-0.7541194,0.3152611,0.55427,0.7657268,0.612879,-0.2328306,0.7143188],[0.491426,-0.4515039,-0.2615885]],[[0.6512854,0.9175739,0.8372135,0.99401,-0.4218713,0.3086374,0.3484337,0.857322,0.01231492,0.8834791,0.2963421,-0.4212371,0.286334,0.2547884,-0.4278859,-0.3628689],[0.004792094,0.3595226,-0.7390122,0.144154,-0.03985012,0.5706604,0.2863109,0.7450747,-0.2389647,-0.4870998,0.3152611,0.55427,0.7657268,0.612879,-0.8816183,0.7143188],[0.491426,-0.4515039,-0.2615885]],[[0.6512854,0.9175739,0.8372135,0.99401,-0.4218713,0.3086374,0.3484337,0.857322,0.01231492,0.8834791,0.2963421,-0.4664947,0.286334,0.2547884,-0.4278859,-0.1315173],[0.004792094,0.3595226,-0.7390122,0.144154,-0.03985012,0.5706604,0.2863109,0.7450747,-0.8353052,-0.7541194,0.3152611,0.55427,0.7657268,0.612879,-0.8816183,0.7143188],[0.491426,-0.4515039,0.09016764]],[[0.6512854,0.9175739,0.8372135,0.99401,-0.4218713,0.3086374,0.3484337,0.857322,0.01231492,0.8834791,0.2963421,-0.4585189,0.286334,0.2547884,-0.4278859,-0.1315173],[0.004792094,0.3595226,-0.7390122,0.144154,-0.03985012,0.5706604,0.2863109,0.7450747,-0.8353052,-0.733321,0.3152611,0.55427,0.7657268,0.6346929,-0.8816183,0.7143188],[0.491426,-0.4515039,-0.2615885]],[[0.6512854,0.9175739,0.8372135,0.99401,-0.4162992,0.3086374,0.3484337,0.857322,0.01231492,0.8834791,0.2963421,-0.4585189,0.286334,0.2547884,-0.4278859,-0.3628689],[0.004792094,0.3595226,-0.7390122,0.144154,-0.03985012,0.5706604,0.2863109,0.7450747,-0.8353052,-0.4870998,0.3152611,0.55427,0.7657268,0.612879,-0.8816183,0.7143188],[0.491426,-0.4515039,-0.2615885]],[[0.6512854,0.9175739,0.8372135,0.99401,-0.4218713,0.3086374,0.3484337,0.857322,0.01231492,0.8834791,-0.2407023,-0.3710793,-0.09359515,0.2547884,-0.4278859,-0.1315173],[0.004792094,0.3595226,-0.7390122,0.144154,-0.03985012,-0.8580904,0.2863109,0.7450747,-0.8353052,-0.7541194,0.3152611,0.55427,0.7657268,0.612879,-0.2328306,0.7143188],[0.491426,-0.4515039,-0.2615885]],[[0.6512854,0.9175739,0.8372135,0.99401,-0.4218713,0.3086374,0.3484337,0.857322,0.01231492,0.8834791,0.2963421,-0.4585189,0.286334,0.2547884,-0.4278859,-0.3628689],[0.004792094,0.3595226,-0.7390122,0.144154,-0.03985012,0.5706604,0.2863109,0.7450747,-0.8353052,-0.4870998,0.3152611,0.55427,0.7657268,0.612879,-0.8816183,0.7143188],[0.491426,-0.4515039,-0.2615885]],[[0.6512854,0.9175739,0.8372135,0.99401,-0.4218713,0.3086374,0.3484337,0.857322,0.01231492,0.8834791,0.2963421,-0.4585189,0.286334,0.2547884,-0.4278859,0.5427511],[0.004792094,0.3595226,-0.7390122,0.144154,-0.03985012,0.5706604,0.2863109,0.7450747,-0.8353052,-0.4870998,0.3152611,0.55427,0.7657268,0.612879,-0.2328306,0.7143188],[0.491426,-0.4515039,-0.2615885]],[[0.6512854,0.9175739,0.8372135,0.99401,-0.4218713,0.3086374,0.3484337,0.857322,0.01231492,0.8834791,0.2963421,-0.4585189,0.286334,0.2547884,-0.4278859,-0.1315173],[0.004792094,0.3595226,-0.7390122,0.144154,-0.03985012,0.5706604,0.2863109,0.7450747,-0.8353052,-0.4870998,0.3152611,0.55427,0.7657268,0.612879,-0.2328306,0.7143188],[0.4277465,-0.4515039,-0.2615885]],[[0.6512854,0.9175739,0.8372135,0.99401,-0.4218713,0.1863741,0.3484337,0.857322,0.01231492,0.8834791,0.2963421,-0.3710793,0.286334,0.2547884,-0.4278859,-0.1315173],[0.004792094,0.3595226,-0.7390122,0.144154,-0.03985012,0.5706604,0.2863109,0.7450747,-0.8353052,-0.4870998,0.3152611,0.55427,-0.4323982,0.612879,-0.2328306,0.7143188],[0.4277465,-0.4515039,-0.2615885]],[[0.6512854,0.9175739,0.8372135,0.99401,-0.4218713,0.3086374,0.3484337,0.857322,0.01231492,0.8834791,0.2963421,-0.4212371,0.286334,0.2547884,-0.4278859,-0.1315173],[0.004792094,0.3595226,-0.7390122,0.144154,-0.03985012,0.5706604,0.2863109,0.7450747,-0.8353052,-0.733321,0.3152611,0.55427,-0.6869907,0.612879,0.5541399,0.7143188],[0.491426,-0.4515039,-0.2615885]],[[0.6512854,0.9175739,0.8372135,0.99401,-0.4218713,0.3086374,0.3484337,0.857322,0.01231492,0.8834791,0.2963421,-0.4212371,0.286334,0.2547884,-0.4278859,-0.1315173],[0.004792094,0.3595226,-0.7390122,0.144154,-0.03985012,0.5706604,0.2863109,0.7450747,-0.8353052,-0.733321,0.3152611,-0.2918366,0.7657268,-0.08201015,-0.8816183,0.7143188],[0.491426,-0.4515039,-0.2615885]],[[0.6512854,0.9175739,0.8372135,0.99401,-0.4218713,0.1863741,0.3484337,0.857322,0.01231492,0.8834791,0.2963421,-0.4212371,0.286334,0.2547884,-0.4278859,-0.1315173],[0.004792094,0.3595226,-0.7390122,0.144154,-0.03985012,0.5706604,0.2863109,0.7450747,-0.8353052,-0.733321,0.3152611,0.55427,0.7657268,-0.08201015,-0.8816183,0.7143188],[0.491426,-0.4515039,-0.2615885]],[[0.6512854,0.9175739,0.8372135,-0.6887047,-0.4218713,0.3086374,0.3484337,0.857322,0.01231492,0.8834791,0.2963421,-0.4212371,0.286334,0.1423577,-0.4278859,-0.1315173],[0.004792094,0.3595226,-0.7390122,0.144154,-0.03985012,0.5706604,0.2863109,0.7450747,-0.8353052,-0.733321,0.3152611,-0.2918366,0.7657268,0.612879,-0.8816183,0.7143188],[0.491426,-0.4515039,-0.2615885]],[[0.6512854,0.9175739,0.8372135,0.99401,-0.4218713,0.5148106,0.3484337,0.857322,0.01231492,0.8834791,0.2963421,-0.4212371,0.286334,0.1423577,-0.4278859,-0.1315173],[0.004792094,0.3595226,-0.7390122,0.144154,-0.03985012,0.5706604,0.2863109,0.7450747,-0.07917845,-0.733321,0.3152611,0.55427,0.7657268,0.612879,-0.8816183,0.7143188],[0.491426,-0.4515039,-0.2615885]],[[0.6512854,0.9175739,0.8372135,0.99401,-0.4218713,0.3086374,0.3484337,0.857322,0.01231492,0.8834791,0.2963421,-0.4212371,0.286334,0.1423577,-0.4278859,-0.1315173],[0.004792094,0.3595226,-0.7390122,0.144154,-0.03985012,0.5706604,0.2863109,0.7450747,-0.07917845,-0.733321,0.3152611,0.55427,0.7657268,0.612879,-0.8816183,0.7143188],[0.491426,-0.4515039,-0.2615885]],[[0.6512854,0.9175739,0.8372135,0.99401,-0.4218713,0.3086374,0.3484337,0.857322,0.01231492,0.8834791,0.2963421,-0.4212371,0.286334,0.2547884,-0.4278859,-0.1315173],[-0.9977884,0.3595226,-0.7390122,0.144154,-0.03985012,0.5706604,0.2863109,0.7450747,-0.07917845,-0.7541194,0.3152611,0.55427,0.7657268,0.612879,-0.2328306,0.7143188],[0.491426,-0.4515039,-0.2615885]],[[0.6512854,0.9175739,0.8372135,0.99401,-0.4218713,0.3086374,0.3484337,0.5966225,0.01231492,0.8834791,0.2155946,-0.4585189,0.286334,0.2547884,-0.4278859,-0.1315173],[0.004792094,0.3595226,-0.7390122,0.144154,-0.03985012,0.5706604,0.2863109,0.7450747,-0.8353052,-0.1075515,0.3152611,0.55427,0.7657268,0.6346929,-0.8816183,0.7143188],[0.491426,-0.4515039,0.5182559]],[[0.6512854,0.9175739,0.8372135,0.99401,-0.4218713,0.3086374,0.3484337,0.857322,0.01231492,0.8834791,0.2963421,-0.4585189,0.286334,0.2547884,-0.4278859,-0.1315173],[0.004792094,0.3595226,-0.7390122,0.144154,-0.03985012,0.5706604,0.2863109,0.7450747,0.1283213,-0.7541194,0.3152611,0.55427,0.7657268,0.6346929,-0.8816183,0.7143188],[0.491426,-0.4515039,-0.2615885]],[[0.6512854,0.9175739,0.8372135,0.99401,-0.4218713,0.3086374,0.3484337,0.857322,0.01231492,0.8834791,0.2963421,-0.4212371,0.286334,0.2547884,-0.4278859,-0.1315173],[0.004792094,0.3595226,-0.7390122,0.144154,-0.03985012,0.5706604,0.2863109,0.7450747,-0.07917845,-0.733321,0.3152611,0.55427,0.7657268,0.612879,-0.2328306,0.5522997],[0.491426,-0.4515039,-0.2615885]],[[0.6512854,0.9175739,0.8372135,0.99401,-0.4218713,0.3086374,0.3484337,0.857322,0.01231492,0.8834791,0.2963421,-0.4585189,0.286334,0.1423577,-0.4278859,-0.1315173],[0.004792094,0.3595226,-0.7390122,0.144154,-0.03985012,0.5706604,0.6827564,0.7450747,-0.8353052,-0.1075515,0.3152611,0.55427,-0.2214338,0.612879,-0.8011432,0.7143188],[0.491426,-0.700098,-0.2615885]],[[0.6512854,0.9175739,0.8372135,0.99401,-0.4218713,0.3086374,0.3484337,0.857322,0.01231492,0.8834791,0.2963421,-0.4212371,0.286334,0.2547884,-0.4278859,-0.1315173],[0.004792094,0.3595226,-0.7390122,0.144154,-0.03985012,0.5706604,0.2863109,0.7450747,-0.07917845,-0.733321,0.3152611,0.55427,0.7657268,0.612879,-0.2328306,0.7143188],[0.491426,-0.4515039,0.3658547]],[[-0.4168354,0.9175739,0.8372135,0.99401,-0.4218713,0.3086374,0.3484337,0.857322,0.01231492,0.8834791,0.4208975,-0.4212371,0.286334,0.1423577,-0.4278859,-0.1315173],[0.004792094,0.3595226,-0.7390122,0.144154,-0.03985012,0.5706604,0.2863109,0.7450747,-0.8353052,-0.733321,0.3152611,0.55427,0.7657268,0.612879,-0.2328306,0.7143188],[0.491426,-0.4515039,-0.2615885]]]