[[[-0.4609281,0.1319634,-0.4316856,-0.001677394,-0.102235,0.8887596,0.3654833,-0.301205,-0.1598011,0.3271224,0.1714212,0.8948083],[0.2183512,0.2017242,0.7934818,-0.3735095,0.3098578,0.392451,0.3594722,-0.6958191,0.4829445,0.2437745,0.6845345,0.7762792],[0.04861057,0.245452,-0.9825635,0.02048409,-0.7939787]],[[-0.4609281,0.1319634,-0.4316856,-0.001677394,-0.102235,0.8887596,0.3654833,-0.301205,-0.1598011,0.3271224,0.1714212,0.8948083],[0.2183512,0.2017242,0.7934818,-0.3735095,0.3098578,0.392451,0.3594722,-0.6958191,0.4829445,0.2437745,0.6845345,0.7762792],[0.04861057,0.245452,-0.9825635,0.02048409,-0.7939787]],[[-0.4609281,0.1319634,-0.4316856,-0.001677394,-0.102235,0.8887596,0.6038346,-0.301205,-0.1598011,0.3271224,0.1714212,0.8948083],[0.2183512,0.2017242,0.7934818,-0.3735095,0.3098578,0.392451,0.3594722,-0.6958191,0.4829445,0.2437745,0.6845345,0.7762792],[0.04861057,0.245452,-0.9825635,0.02048409,-0.7939787]],[[-0.4609281,0.1319634,-0.4316856,-0.001677394,-0.102235,0.8887596,0.3654833,-0.301205,0.05499542,0.3271224,0.1714212,0.8948083],[0.2183512,0.2017242,0.7934818,-0.3735095,0.3098578,0.392451,0.3594722,-0.6958191,0.4829445,0.2437745,0.6845345,0.7762792],[0.04861057,0.245452,-0.9825635,-0.4006096,-0.7939787]],[[-0.4609281,0.1319634,-0.4316856,-0.001677394,-0.102235,0.8887596,0.3654833,-0.301205,-0.1598011,0.3271224,0.1714212,0.8948083],[0.2183512,0.2017242,0.7934818,-0.3735095,0.3098578,0.392451,0.3594722,-0.6958191,0.4829445,0.2437745,0.6845345,0.7762792],[0.04861057,0.245452,-0.9825635,-0.4006096,-0.7939787]],[[-0.4609281,0.1319634,-0.4316856,-0.001677394,-0.102235,0.8887596,0.3654833,-0.301205,-0.1598011,0.3271224,0.1714212,0.8948083],[0.2183512,0.2017242,0.7934818,-0.3735095,0.3098578,0.392451,0.3594722,-0.6958191,0.4829445,0.2437745,0.6845345,0.7762792],[0.04861057,0.245452,-0.9825635,-0.4006096,-0.7939787]],[[-0.4609281,0.1319634,-0.4316856,-0.001677394,-0.102235,0.8887596,0.3654833,-0.301205,-0.1598011,0.3271224,0.1714212,0.8948083],[0.2183512,0.2017242,0.7934818,-0.3735095,0.3098578,0.392451,0.3594722,-0.6958191,0.4829445,0.2437745,0.6845345,0.7762792],[0.04861057,0.245452,-0.9825635,-0.4006096,-0.7939787]],[[-0.4609281,0.1319634,-0.4316856,-0.001677394,-0.102235,0.8887596,0.3654833,-0.301205,-0.1598011,0.3271224,0.1714212,0.8948083],[0.2183512,0.2017242,0.7934818,-0.3735095,0.3098578,0.392451,0.3594722,-0.6958191,0.4829445,0.2437745,0.6845345,0.7762792],[0.04861057,0.245452,-0.9825635,-0.4006096,-0.7939787]],[[-0.4609281,0.1319634,-0.4316856,-0.001677394,-0.102235,0.8887596,0.3654833,-0.301205,0.05499542,0.3271224,0.1714212,0.8948083],[0.2183512,0.2017242,0.7934818,-0.3735095,0.3098578,-0.2528223,0.3594722,-0.6958191,0.4829445,0.2437745,0.6845345,0.7762792],[-0.7253506,0.245452,-0.9825635,-0.4006096,-0.3988107]],[[-0.4609281,0.1319634,-0.4316856,-0.001677394,-0.102235,0.8887596,0.3654833,-0.301205,-0.1598011,0.3271224,0.1714212,0.8948083],[0.2183512,0.2017242,0.7934818,-0.3735095,0.3098578,0.392451,0.3594722,-0.6958191,0.4829445,0.2437745,0.6845345,0.7762792],[0.04861057,0.245452,-0.9825635,-0.4006096,-0.7939787]],[[-0.4609281,0.1319634,-0.4316856,-0.001677394,-0.102235,0.8887596,0.3654833,-0.301205,-0.1598011,0.3271224,0.1714212,0.8948083],[0.2183512,0.2017242,0.7934818,-0.3735095,0.3098578,0.392451,0.3594722,-0.6958191,0.4829445,0.2437745,0.6845345,0.7762792],[0.04861057,0.245452,-0.9825635,-0.4006096,-0.7939787]],[[-0.4609281,0.1319634,-0.4316856,-0.001677394,-0.102235,0.8887596,0.3654833,-0.301205,0.05499542,0.3271224,0.1714212,0.8948083],[0.2183512,0.2017242,0.7934818,-0.3735095,0.3098578,0.392451,0.3594722,-0.6958191,0.4829445,0.2437745,0.6845345,0.7762792],[0.04861057,0.245452,-0.9825635,-0.4006096,-0.7939787]],[[-0.4609281,0.1319634,-0.4316856,-0.001677394,-0.102235,-0.2032343,0.3654833,-0.301205,0.05499542,0.3271224,0.1714212,0.8948083],[0.2183512,0.2017242,0.7934818,-0.3735095,0.3098578,-0.2528223,0.3594722,-0.6958191,0.4829445,0.2437745,0.4199013,0.7762792],[0.7839022,0.245452,-0.9825635,-0.4006096,-0.7939787]],[[-0.4609281,0.1319634,-0.4316856,-0.001677394,-0.102235,0.8887596,0.3654833,-0.301205,0.05499542,0.3271224,0.1714212,0.8948083],[0.2183512,0.2017242,0.7934818,-0.3735095,0.3098578,0.392451,0.3594722,-0.6958191,0.4829445,0.2437745,0.6845345,0.1402782],[0.7839022,0.245452,-0.9825635,-0.4006096,-0.7939787]],[[-0.4609281,0.1319634,-0.4316856,-0.001677394,-0.102235,0.8887596,0.3654833,-0.301205,-0.1598011,0.3271224,0.1714212,0.8948083],[0.2183512,0.2017242,0.7934818,-0.3735095,0.3098578,0.392451,0.3594722,-0.6958191,0.4829445,0.2437745,0.6845345,0.7762792],[0.04861057,0.245452,-0.9825635,-0.4006096,-0.7939787]],[[-0.4609281,0.1319634,-0.4316856,-0.001677394,-0.102235,0.8887596,0.3654833,-0.301205,0.05499542,0.3271224,0.1714212,0.8948083],[0.2183512,0.2017242,0.7934818,-0.3735095,0.3098578,0.392451,0.3594722,-0.6958191,0.4829445,0.2437745,0.6845345,0.1402782],[0.7839022,0.245452,-0.9825635,-0.4006096,-0.7939787]],[[-0.4609281,0.1319634,-0.4316856,-0.001677394,-0.102235,0.8887596,0.3654833,-0.301205,0.05499542,0.3271224,0.1714212,0.8948083],[0.2183512,0.2017242,0.7934818,-0.3735095,0.3098578,0.392451,0.3594722,-0.6958191,0.4829445,0.2437745,0.6845345,0.7762792],[0.04861057,0.245452,-0.9825635,-0.4006096,-0.7939787]],[[-0.4609281,0.1319634,-0.4316856,-0.001677394,-0.102235,0.8887596,0.3654833,-0.301205,-0.1598011,0.3271224,0.1714212,0.8948083],[0.2183512,0.2017242,0.7934818,-0.3735095,0.3098578,0.392451,0.3594722,-0.6958191,0.4829445,0.2437745,0.6845345,0.7762792],[0.04861057,0.245452,-0.9825635,-0.4006096,-0.7939787]],[[-0.4609281,0.1319634,-0.4316856,-0.001677394,-0.102235,0.8887596,0.3654833,-0.301205,-0.1598011,0.3271224,0.1714212,0.8948083],[0.2183512,0.2017242,0.7934818,-0.2126096,0.3098578,0.392451,0.3594722,-0.6958191,0.4829445,0.2437745,0.6845345,0.7762792],[0.04861057,0.245452,-0.9825635,-0.4006096,-0.7939787]],[[-0.4609281,0.1319634,-0.4316856,-0.001677394,-0.102235,0.8887596,0.3654833,-0.301205,-0.1598011,0.3271224,0.1714212,0.8948083],[0.2183512,0.2017242,0.7934818,-0.3735095,0.3098578,0.392451,0.3594722,-0.6958191,0.4829445,0.2437745,0.6845345,0.7762792],[0.04861057,0.245452,-0.9825635,-0.4006096,-0.7939787]],[[-0.4609281,0.1319634,-0.4316856,-0.001677394,-0.102235,0.8887596,0.3654833,-0.301205,-0.1598011,0.3271224,0.1714212,0.8948083],[0.2183512,0.2017242,0.7934818,-0.3735095,0.3098578,0.392451,0.3594722,-0.6958191,0.4829445,0.2437745,0.6845345,0.7762792],[0.04861057,0.245452,-0.9825635,-0.4006096,-0.7939787]],[[-0.4609281,0.1319634,-0.4316856,-0.001677394,-0.102235,0.8887596,0.3654833,-0.301205,-0.1598011,0.3271224,0.1714212,0.8948083],[0.2183512,0.2017242,0.7934818,-0.3735095,0.3098578,0.392451,0.3594722,-0.6958191,0.4829445,0.2437745,0.6845345,0.7762792],[0.04861057,0.245452,-0.9825635,-0.4006096,-0.7939787]],[[-0.4609281,0.1319634,-0.4316856,-0.001677394,-0.102235,0.8887596,0.3654833,-0.301205,-0.1598011,0.3271224,0.1714212,0.8948083],[0.2183512,0.2017242,0.7934818,-0.3735095,0.3098578,0.392451,0.3594722,-0.6958191,0.4829445,0.2437745,0.6845345,0.7762792],[0.04861057,0.245452,-0.9825635,-0.4006096,-0.7939787]],[[-0.4609281,0.1319634,0.02345812,-0.001677394,-0.102235,0.8887596,0.3654833,-0.301205,-0.1598011,0.3271224,0.1714212,0.8948083],[0.2183512,0.2017242,0.7934818,-0.3735095,0.3098578,0.392451,0.3594722,-0.6958191,0.4829445,0.2437745,0.6845345,0.7762792],[0.04861057,0.245452,-0.9825635,-0.4006096,-0.7939787]],[[-0.4609281,0.1319634,-0.4316856,-0.001677394,-0.102235,0.8887596,0.3654833,-0.301205,-0.1598011,0.3271224,0.1714212,0.8948083],[0.2183512,0.2017242,0.7934818,-0.3735095,0.3098578,0.392451,0.3594722,-0.6958191,0.4829445,0.2437745,0.6845345,0.7762792],[0.04861057,0.245452,-0.9825635,-0.4006096,-0.7939787]],[[-0.4609281,0.1319634,-0.4316856,-0.001677394,-0.102235,0.8887596,0.3654833,-0.301205,0.05499542,0.3271224,0.1714212,0.8948083],[0.2183512,0.2017242,0.7934818,-0.3735095,0.3098578,-0.2528223,0.3594722,-0.6958191,0.4829445,0.2437745,0.6845345,0.7762792],[0.7839022,0.245452,-0.9825635,-0.4006096,-0.7939787]],[[-0.4609281,0.1319634,-0.4316856,-0.001677394,-0.102235,0.8887596,0.3654833,-0.301205,-0.1598011,0.3271224,0.1714212,0.8948083],[0.2183512,0.2017242,0.7934818,-0.3735095,0.3098578,0.392451,0.3594722,-0.6958191,0.4829445,0.2437745,0.6845345,0.7762792],[0.04861057,0.245452,-0.9825635,-0.4006096,-0.7939787]],[[-0.4609281,0.1319634,-0.4316856,-0.001677394,-0.102235,0.8887596,0.3654833,-0.301205,-0.1598011,0.3271224,0.1714212,0.8948083],[0.2183512,0.2017242,0.7934818,-0.3735095,0.3098578,0.392451,0.3594722,-0.6958191,0.4829445,0.2437745,0.6845345,0.7762792],[0.04861057,0.245452,-0.9825635,-0.4006096,-0.7939787]],[[-0.4609281,0.1319634,-0.4316856,-0.001677394,-0.102235,0.8887596,0.3654833,-0.301205,-0.1598011,0.3271224,0.1714212,0.8948083],[0.2183512,0.2017242,0.7934818,-0.3735095,0.3098578,0.392451,0.3594722,-0.6958191,0.4829445,0.2437745,0.6845345,0.7762792],[0.04861057,0.245452,-0.9825635,-0.4006096,-0.7939787]],[[-0.4609281,0.1319634,-0.4316856,-0.001677394,-0.102235,0.8887596,0.3654833,-0.301205,-0.1598011,0.3271224,0.1714212,0.8948083],[0.2183512,0.2017242,0.7934818,-0.3735095,0.3098578,0.392451,0.3594722,-0.6958191,0.4829445,0.2437745,0.6845345,0.7762792],[0.04861057,0.245452,-0.9825635,-0.4006096,-0.7939787]],[[-0.4609281,0.1319634,-0.4316856,-0.001677394,-0.102235,0.8887596,0.3654833,-0.301205,-0.1598011,0.3271224,0.1714212,0.8948083],[0.2183512,0.2017242,0.7934818,-0.3735095,0.3098578,0.392451,0.3594722,-0.6958191,0.4829445,0.2437745,0.6845345,0.7762792],[0.04861057,0.245452,-0.9825635,-0.4006096,-0.7939787]],[[-0.4609281,0.1319634,-0.4316856,-0.001677394,-0.102235,0.8887596,0.3654833,-0.301205,-0.1598011,0.3271224,0.1714212,0.8948083],[0.2183512,0.2017242,0.7934818,-0.3735095,0.3098578,0.392451,0.3594722,-0.6958191,0.4829445,0.2437745,0.6845345,0.7762792],[0.04861057,0.245452,-0.9825635,-0.4006096,-0.7939787]],[[-0.4609281,0.1319634,-0.4316856,-0.001677394,-0.102235,0.8887596,0.3654833,-0.301205,-0.1598011,0.3271224,0.1714212,0.8948083],[0.2183512,0.2017242,0.7934818,-0.3735095,0.3098578,0.392451,0.3594722,-0.6958191,0.4829445,0.2437745,0.6845345,0.7762792],[0.04861057,0.245452,-0.9825635,0.02048409,-0.7939787]],[[-0.4609281,0.1319634,-0.4316856,-0.001677394,-0.102235,-0.1942228,0.3654833,-0.301205,-0.1598011,0.3271224,0.1714212,0.8948083],[-0.2638999,0.2017242,0.7934818,-0.3735095,0.3098578,0.392451,0.3594722,-0.6958191,0.4829445,0.2437745,0.6845345,0.7762792],[0.04861057,0.245452,-0.9825635,0.02048409,-0.7939787]],[[-0.4609281,0.1319634,-0.4316856,-0.001677394,-0.102235,0.8887596,0.3654833,-0.301205,-0.1598011,0.3271224,0.1714212,0.8948083],[0.2183512,0.2017242,0.7934818,-0.3735095,0.3098578,0.392451,0.3594722,-0.6958191,0.4829445,0.2437745,0.6845345,0.7762792],[0.04861057,0.245452,-0.9825635,0.02048409,-0.7939787]],[[-0.4609281,0.1319634,-0.4316856,-0.001677394,-0.102235,0.8887596,0.6038346,-0.301205,-0.1598011,0.3271224,0.1714212,0.8948083],[0.2183512,0.2017242,0.7934818,-0.3735095,0.3098578,0.392451,0.3594722,-0.6958191,0.4829445,0.2437745,0.6845345,0.7762792],[0.04861057,0.245452,-0.9825635,0.02048409,-0.7939787]],[[-0.4609281,0.1319634,-0.4316856,-0.001677394,-0.102235,0.8887596,0.3654833,-0.301205,-0.1598011,0.3271224,0.1714212,0.8948083],[0.2183512,0.2017242,0.7934818,-0.3735095,0.3098578,0.392451,0.3594722,-0.6958191,0.4829445,0.2437745,0.6845345,0.7762792],[0.04861057,0.245452,-0.9825635,0.02048409,-0.7939787]],[[-0.4609281,0.1319634,-0.4316856,-0.001677394,-0.102235,0.8887596,0.3654833,-0.301205,-0.1598011,0.3271224,0.1714212,0.8948083],[0.2183512,0.2017242,0.7934818,-0.3735095,0.3098578,0.392451,0.3594722,-0.6958191,0.4829445,0.2437745,0.6845345,0.7762792],[0.04861057,0.245452,-0.9825635,-0.4006096,-0.7939787]],[[-0.4609281,0.1319634,-0.4316856,-0.001677394,-0.102235,0.8887596,0.6038346,-0.301205,-0.1598011,0.3271224,0.1714212,0.8948083],[0.2183512,0.2017242,0.7934818,-0.3735095,0.3098578,0.392451,0.3594722,-0.6958191,0.4829445,0.2437745,0.6845345,0.7762792],[0.04861057,0.245452,-0.9825635,0.02048409,-0.7939787]],[[-0.4609281,0.1319634,-0.4316856,-0.001677394,-0.102235,0.8887596,0.3654833,-0.301205,-0.1598011,0.3271224,0.1714212,0.8948083],[0.2183512,0.2017242,0.7934818,-0.3735095,0.3098578,0.392451,0.3594722,-0.6958191,0.4829445,0.2437745,0.6845345,0.7762792],[0.04861057,0.245452,-0.9825635,-0.03482449,-0.7939787]],[[-0.4609281,0.1319634,-0.4316856,-0.001677394,-0.102235,0.8887596,0.3654833,-0.301205,-0.1598011,0.3271224,0.1714212,0.8948083],[0.2183512,0.2017242,0.7934818,-0.3735095,0.3098578,0.392451,0.3594722,-0.6958191,0.4829445,0.2437745,0.6845345,0.7762792],[0.04861057,0.245452,-0.4249274,-0.4006096,-0.7939787]],[[-0.4609281,0.1319634,-0.4316856,-0.001677394,-0.102235,0.8887596,0.3654833,-0.301205,-0.1598011,0.3271224,0.1714212,0.8948083],[0.2183512,0.2017242,0.7934818,-0.3735095,0.3098578,0.392451,0.3594722,-0.6958191,0.4829445,0.2437745,0.6845345,0.7762792],[0.04861057,0.245452,-0.9825635,0.02048409,-0.7939787]],[[-0.4609281,0.1319634,-0.4316856,-0.001677394,-0.102235,0.8887596,0.3654833,-0.301205,-0.1598011,0.3271224,0.1714212,0.8948083],[0.2183512,0.2017242,0.7934818,-0.3735095,0.3098578,0.392451,0.3594722,-0.6958191,0.4829445,0.2437745,0.6845345,0.7762792],[0.04861057,0.245452,-0.9825635,-0.4006096,-0.7939787]],[[-0.4609281,0.1319634,-0.4316856,-0.001677394,-0.102235,0.8887596,0.6038346,-0.301205,-0.1598011,0.3271224,0.1714212,0.8948083],[0.2183512,0.2017242,0.7934818,-0.3735095,0.3098578,0.392451,0.3594722,-0.6958191,0.4829445,0.2437745,0.6845345,0.7762792],[0.04861057,0.245452,-0.9825635,0.02048409,-0.7939787]],[[-0.4609281,0.1319634,-0.4316856,-0.001677394,-0.102235,0.8887596,0.3654833,-0.301205,-0.1598011,0.3271224,0.1714212,0.8948083],[0.2183512,0.2017242,0.7934818,-0.3735095,0.3098578,0.392451,0.3594722,-0.6958191,0.5451038,0.2437745,0.6845345,0.7762792],[0.04861057,0.245452,-0.9825635,-0.4006096,-0.7939787]],[[-0.4609281,0.1319634,-0.4316856,-0.001677394,-0.102235,0.8887596,0.6038346,-0.301205,-0.1598011,0.3271224,0.1714212,0.8948083],[0.2183512,0.2017242,0.7934818,-0.3735095,0.3098578,0.392451,0.3594722,-0.6958191,0.4829445,0.2437745,0.6845345,0.7762792],[0.04861057,0.245452,-0.9825635,0.02048409,-0.7939787]],[[-0.4609281,0.1319634,-0.4316856,-0.001677394,-0.102235,0.8887596,0.3654833,-0.301205,-0.1598011,0.3271224,0.1714212,0.8948083],[0.2183512,0.2017242,0.7934818,-0.3735095,0.3098578,0.392451,0.3594722,-0.6958191,0.4829445,0.2437745,0.6845345,0.7762792],[0.04861057,0.245452,-0.9825635,0.02048409,-0.7939787]],[[-0.4609281,0.1319634,-0.4316856,-0.001677394,-0.102235,0.8887596,0.3654833,-0.301205,-0.1598011,0.3271224,0.1714212,0.8948083],[-0.2720553,0.2017242,0.7934818,-0.3735095,0.3098578,0.392451,0.3594722,-0.6958191,0.4829445,0.2437745,0.6845345,0.7762792],[0.04861057,0.245452,-0.9825635,-0.4006096,-0.7939787]],[[-0.4609281,0.1319634,-0.4316856,-0.001677394,-0.102235,0.8887596,0.3654833,-0.301205,0.05499542,0.3271224,0.1714212,0.8948083],[0.2183512,0.2017242,0.7934818,-0.3735095,0.3098578,0.392451,0.3594722,-0.6958191,0.4829445,0.2437745,0.6845345,0.1402782],[0.7839022,0.245452,-0.9825635,-0.4006096,-0.7939787]],[[-0.4609281,0.1319634,-0.4316856,-0.001677394,-0.102235,0.8887596,0.3654833,-0.301205,-0.1598011,0.3271224,0.1714212,0.8948083],[0.2183512,0.2017242,0.7934818,-0.3735095,0.3098578,0.392451,0.3594722,-0.6958191,0.4829445,0.2437745,0.6845345,0.7762792],[0.04861057,0.245452,-0.9825635,-0.4006096,-0.7939787]],[[-0.4609281,0.1319634,0.02345812,-0.001677394,-0.102235,0.8887596,0.3654833,-0.301205,-0.1598011,0.3271224,0.1714212,0.8948083],[0.2183512,0.2017242,0.7934818,-0.3735095,0.3098578,0.392451,0.3594722,-0.6958191,0.4829445,0.2437745,0.6845345,0.7762792],[0.04861057,0.245452,-0.9825635,-0.4006096,-0.7939787]],[[-0.4609281,0.1319634,-0.4316856,-0.001677394,-0.102235,0.8887596,0.3654833,-0.301205,-0.1598011,0.3271224,0.1714212,0.8948083],[0.2183512,0.2017242,0.7934818,-0.3735095,0.3098578,0.392451,0.3594722,-0.6958191,0.4829445,0.2437745,0.6845345,0.7762792],[0.04861057,0.245452,-0.9825635,0.02048409,-0.7939787]],[[-0.4609281,0.1319634,-0.4316856,-0.001677394,-0.102235,0.8887596,0.3654833,-0.301205,-0.1598011,0.3271224,0.1714212,0.8948083],[0.6450448,0.2017242,0.7934818,-0.3735095,0.3098578,0.392451,0.3594722,-0.6958191,0.4829445,0.2437745,0.6845345,0.7762792],[0.04861057,-0.7829151,-0.9825635,-0.4006096,-0.7939787]],[[-0.4609281,0.1319634,-0.4316856,-0.001677394,-0.102235,0.8887596,0.3654833,-0.301205,0.05499542,0.3271224,0.1714212,0.8948083],[0.2183512,0.2017242,0.7934818,-0.8294272,0.3098578,0.392451,0.3594722,-0.6958191,0.4829445,0.2437745,0.6845345,0.7762792],[0.04861057,0.245452,-0.9825635,-0.4006096,-0.7939787]],[[-0.4609281,0.1319634,-0.4316856,-0.001677394,-0.102235,0.8887596,0.3654833,-0.301205,-0.1598011,0.3271224,0.1714212,0.8948083],[0.2183512,0.2017242,0.7934818,-0.3735095,0.3098578,0.392451,0.3594722,-0.6958191,0.4829445,0.2437745,0.6845345,0.7762792],[0.04861057,0.245452,-0.9825635,-0.4006096,-0.7939787]],[[-0.4609281,0.1319634,-0.4316856,-0.001677394,-0.102235,0.8887596,0.3654833,-0.301205,-0.1598011,0.3271224,0.1714212,0.8948083],[0.2183512,0.2017242,0.7934818,-0.3735095,0.3098578,0.392451,0.3594722,-0.6958191,0.2215501,0.2437745,0.6845345,0.7762792],[0.04861057,0.245452,-0.9825635,0.02048409,-0.7939787]],[[-0.4609281,0.1319634,-0.4316856,-0.001677394,-0.102235,0.8887596,0.3654833,-0.301205,-0.1598011,0.3271224,0.1714212,0.8948083],[0.2183512,0.2017242,0.7934818,-0.3735095,0.3098578,0.392451,0.3594722,-0.6958191,0.4829445,0.2437745,0.6845345,0.7762792],[0.04861057,0.245452,-0.9825635,-0.4006096,-0.7939787]],[[-0.4609281,0.1319634,-0.4316856,-0.001677394,-0.1874851,0.8887596,0.3654833,-0.301205,0.05499542,0.3271224,0.1714212,0.8948083],[0.2183512,0.2017242,0.7934818,-0.3735095,0.3098578,0.392451,0.3594722,-0.6958191,0.4829445,0.2437745,0.6845345,0.1402782],[-0.2008852,0.245452,-0.9825635,-0.4006096,-0.7939787]],[[-0.4609281,0.1319634,-0.4316856,-0.001677394,-0.102235,0.8887596,0.3654833,-0.301205,-0.1598011,0.3271224,0.1714212,0.8948083],[0.2183512,0.2017242,0.7934818,-0.3735095,0.3098578,0.392451,0.3594722,-0.6958191,0.4829445,0.2437745,0.6845345,0.7762792],[0.04861057,0.245452,-0.9825635,0.02048409,-0.7939787]],[[-0.4609281,0.1319634,-0.4316856,-0.001677394,-0.102235,0.8887596,0.3654833,-0.301205,-0.5586176,0.3271224,0.1714212,0.8948083],[0.2183512,0.2017242,0.7934818,-0.3735095,0.3098578,0.392451,0.3594722,-0.7863581,0.4829445,0.2437745,0.6845345,0.7762792],[0.04861057,0.245452,-0.9825635,0.02048409,-0.7939787]],[[-0.4609281,0.1319634,-0.4316856,-0.001677394,-0.102235,0.8887596,0.3654833,-0.301205,-0.1598011,0.3271224,0.1714212,0.8948083],[0.2183512,0.2017242,0.7934818,-0.3735095,0.3098578,0.392451,0.3594722,-0.6958191,0.4829445,0.2437745,0.6845345,0.5641868],[0.04861057,0.245452,-0.9825635,0.02048409,-0.7939787]],[[-0.4609281,0.1319634,-0.4316856,-0.001677394,-0.102235,0.8887596,0.3654833,-0.301205,-0.1598011,0.3271224,0.1714212,0.8948083],[0.2183512,0.6545718,0.7934818,-0.3735095,0.3098578,0.392451,0.3594722,-0.6958191,0.4829445,0.2437745,0.6845345,0.7762792],[0.04861057,0.245452,-0.9825635,0.2300485,-0.7939787]],[[-0.4609281,0.1319634,-0.4316856,-0.001677394,-0.102235,0.8887596,0.3654833,-0.301205,-0.1598011,0.3271224,0.1714212,0.8948083],[0.2183512,0.2017242,0.7934818,-0.3735095,0.3098578,0.392451,0.3594722,-0.6958191,0.4829445,0.2437745,0.6845345,0.7762792],[0.04861057,0.245452,-0.9825635,-0.4006096,-0.7939787]],[[-0.4609281,0.1319634,-0.4316856,-0.001677394,-0.102235,0.8887596,0.3654833,-0.301205,0.05499542,0.3271224,0.1714212,0.8948083],[0.2183512,0.2017242,0.7934818,-0.3735095,0.3098578,0.392451,0.3594722,0.05493891,0.4829445,0.2437745,0.6845345,0.1402782],[0.7839022,0.245452,-0.9825635,-0.4006096,-0.7939787]]]