[[[-0.2423347,-0.5886836,0.6647048,-0.1913084,0.9235783,0.3366937,-0.3626865,-0.4617063,-0.9009426,-0.1051215,0.8847179,0.7868752,0.8966148,0.369812,0.6351221,-0.9296815],[-0.627877,-0.4872929,0.5863426,0.395178,0.8061705,0.3099684,-0.07435405,-0.8801703,0.4900758,0.5595891,-0.438301,-0.02655351,0.5637994,0.1795501,-0.4138545,0.1802763],[-0.7800486,-0.2426957,-0.537291,0.246061,-0.2602357,0.4025511,-0.3278078,0.4550996,0.9027791,-0.04232967,-0.1060635,-0.696811,0.8994286,0.006585717,0.6729119,-0.4920195],[-0.2171773,0.6414249,-0.1616694,0.3511634,-0.5221391,-0.5742176,-0.2117926,-0.9496145,0.5477962,0.6606445,-0.42316,-0.2660939,0.0790385,-0.8220775,0.7409678,0.4505412],[-0.2306818,0.4061999,-0.5781045,-0.7747886,0.3186161]],[[0.5780189,-0.5886836,0.6647048,-0.1913084,0.9235783,-0.9871182,-0.3626865,-0.4617063,-0.9009426,-0.1051215,0.8847179,0.2045592,0.8966148,0.369812,0.6351221,-0.9296815],[-0.627877,-0.4872929,0.5863426,0.395178,0.8061705,0.3099684,-0.07435405,-0.8801703,0.4900758,0.5595891,-0.438301,-0.02655351,0.5637994,-0.8158083,-0.4138545,0.1802763],[-0.7800486,-0.2426957,-0.537291,0.246061,-0.2602357,0.4025511,-0.3278078,0.4550996,0.9027791,-0.04232967,-0.1060635,-0.696811,0.8994286,0.006585717,0.6729119,-0.4920195],[-0.2171773,0.6414249,-0.1616694,0.3511634,-0.5221391,-0.5742176,-0.2117926,-0.9496145,0.5477962,0.6606445,-0.42316,-0.2660939,0.0790385,-0.8220775,0.7409678,0.4505412],[-0.2306818,0.4061999,-0.5781045,-0.7747886,0.3186161]],[[0.5780189,-0.5886836,0.6647048,-0.1913084,0.9235783,-0.6764622,-0.3626865,-0.4617063,-0.9009426,-0.1051215,0.8847179,0.2045592,0.8966148,0.369812,0.4433582,-0.9296815],[0.4627669,-0.4872929,0.5863426,0.395178,0.8061705,0.3099684,-0.07435405,-0.8801703,0.4900758,0.5595891,-0.2415503,-0.02655351,0.5637994,-0.8158083,-0.4138545,0.1802763],[-0.7800486,-0.2426957,-0.537291,0.246061,-0.2602357,0.4025511,-0.3278078,0.4550996,-0.9001806,-0.04232967,-0.1060635,-0.696811,0.8994286,0.006585717,0.6729119,-0.4920195],[-0.2171773,0.6414249,0.4453499,0.3511634,-0.5221391,-0.5742176,-0.2117926,0.7369635,0.5477962,0.6606445,-0.42316,-0.2660939,0.0790385,-0.8220775,0.7409678,0.4505412],[-0.2306818,0.4061999,-0.5781045,-0.7747886,0.3186161]],[[0.5780189,-0.5886836,0.6647048,-0.1913084,0.9235783,-0.9871182,-0.3626865,-0.4617063,-0.9009426,-0.1051215,0.8847179,0.2045592,0.8966148,0.369812,0.6351221,-0.9296815],[0.4627669,-0.4872929,0.5863426,0.395178,0.8061705,0.3099684,-0.07435405,-0.8801703,0.4900758,0.5595891,-0.438301,-0.02655351,0.5637994,-0.8158083,-0.4138545,0.1802763],[-0.7800486,-0.2426957,-0.537291,0.246061,-0.2602357,0.4025511,-0.3278078,0.4550996,-0.9001806,-0.04232967,-0.1060635,-0.696811,0.8994286,0.006585717,0.6729119,-0.4920195],[-0.2171773,0.6414249,0.4453499,0.3511634,-0.5221391,-0.5742176,-0.2117926,0.7369635,0.5477962,0.6606445,-0.42316,-0.2660939,0.0790385,-0.8220775,0.7409678,0.4505412],[-0.2306818,0.4061999,-0.5781045,-0.7747886,0.3186161]],[[0.5780189,-0.5886836,0.6647048,-0.1913084,0.9235783,-0.9871182,-0.3626865,-0.4617063,-0.9009426,-0.1051215,0.8847179,0.2045592,0.8966148,0.369812,0.6351221,-0.9296815],[0.4627669,-0.4872929,0.5863426,0.395178,0.8061705,0.3099684,-0.07435405,-0.8801703,0.4900758,0.5595891,-0.438301,-0.02655351,0.5637994,-0.8158083,-0.4138545,0.1802763],[-0.7800486,-0.2426957,-0.537291,0.246061,-0.2602357,0.4025511,-0.3278078,0.4550996,-0.9001806,-0.04232967,-0.1060635,-0.696811,0.8994286,0.4797926,0.6729119,-0.4920195],[-0.2171773,0.6327777,0.4453499,0.3511634,-0.5221391,-0.5742176,-0.2117926,0.7369635,0.5477962,0.6606445,-0.42316,-0.2660939,0.0790385,-0.8220775,0.7409678,0.4505412],[-0.2306818,0.4061999,-0.5781045,-0.7747886,0.3186161]],[[0.5780189,-0.6016819,0.6647048,-0.1913084,0.9235783,-0.9871182,-0.3626865,-0.4617063,-0.9009426,-0.1051215,0.8847179,0.2045592,0.8966148,0.369812,0.6351221,-0.9296815],[0.4627669,-0.4872929,-0.8477046,0.395178,0.8061705,0.3099684,-0.07435405,-0.8801703,0.4900758,0.5595891,-0.438301,-0.02655351,0.5637994,-0.8158083,-0.4138545,0.1802763],[-0.7800486,-0.2426957,-0.537291,0.246061,-0.2602357,0.4025511,-0.3278078,0.4550996,-0.9001806,-0.04232967,-0.1060635,-0.696811,0.8994286,0.006585717,0.6729119,-0.4920195],[-0.2171773,0.6414249,0.4453499,0.3511634,-0.5221391,-0.5742176,-0.2117926,0.7369635,0.5477962,0.6606445,-0.42316,0.4040534,0.0790385,-0.8220775,0.7409678,0.4505412],[-0.2306818,0.4061999,-0.5781045,-0.7747886,0.3186161]],[[0.5071421,-0.5886836,0.6647048,-0.1913084,0.9235783,-0.9871182,-0.3626865,-0.4617063,-0.9009426,-0.1051215,0.8847179,0.2045592,0.8966148,0.369812,0.6351221,-0.9296815],[0.4627669,-0.4872929,0.5863426,0.395178,0.8061705,0.3099684,-0.07435405,-0.8801703,0.4900758,0.5595891,-0.438301,-0.02655351,0.5637994,-0.8158083,-0.4138545,0.1802763],[-0.7800486,-0.2426957,-0.5483057,0.246061,-0.2602357,0.4025511,-0.3278078,0.4550996,-0.9001806,-0.04232967,-0.1060635,-0.696811,0.8994286,0.006585717,0.6729119,-0.4920195],[-0.2171773,0.6414249,0.4453499,0.3511634,-0.5221391,-0.5742176,-0.2117926,0.7369635,0.5477962,0.6606445,-0.42316,-0.2660939,0.0790385,-0.8220775,0.7409678,0.4505412],[-0.2306818,0.4061999,-0.5781045,-0.7747886,0.3186161]],[[0.5780189,-0.5886836,0.6647048,-0.1913084,0.9235783,-0.9871182,-0.3626865,-0.4617063,-0.9009426,-0.1051215,0.8847179,0.2045592,0.8966148,0.369812,0.6351221,-0.9296815],[0.4627669,-0.4872929,0.5863426,0.395178,0.8061705,0.3099684,-0.07435405,-0.8801703,0.4900758,0.5595891,-0.438301,-0.02655351,0.5637994,-0.8158083,-0.4138545,0.1802763],[-0.7800486,-0.2426957,-0.537291,0.246061,-0.2602357,0.4025511,-0.3278078,0.4550996,-0.9001806,-0.04232967,-0.1060635,-0.696811,0.8994286,0.006585717,0.6729119,-0.4920195],[-0.2171773,0.6414249,0.4453499,0.3511634,-0.5221391,-0.5742176,-0.2117926,0.7369635,0.5477962,0.6606445,-0.42316,-0.2660939,0.0790385,-0.8220775,0.7409678,0.4505412],[-0.2306818,0.4061999,-0.5781045,-0.7747886,0.3186161]],[[0.5780189,-0.5886836,0.6647048,-0.1913084,0.9235783,-0.6764622,-0.3626865,-0.4617063,-0.9009426,-0.1051215,0.8847179,0.2045592,0.8966148,0.369812,0.4433582,-0.9296815],[0.4627669,-0.4872929,0.5863426,0.395178,0.8061705,0.3099684,-0.07435405,-0.8801703,0.4900758,0.5595891,-0.438301,-0.02655351,0.5637994,-0.8158083,-0.4138545,0.1802763],[-0.7800486,-0.2426957,-0.537291,0.246061,-0.2602357,0.4025511,-0.3278078,0.4550996,-0.9001806,-0.04232967,-0.1060635,-0.696811,0.8994286,0.006585717,0.6729119,-0.4920195],[-0.2171773,0.6414249,0.4453499,0.3511634,-0.5221391,-0.5742176,-0.2117926,0.7369635,0.5477962,0.6606445,-0.42316,-0.2660939,0.0790385,-0.8220775,0.7409678,0.4505412],[-0.2306818,0.4061999,-0.5781045,-0.7747886,0.3186161]],[[0.5780189,-0.5886836,0.6647048,-0.1913084,0.9235783,-0.9871182,-0.3626865,-0.4617063,-0.9009426,-0.1051215,0.8847179,0.2045592,0.8966148,0.369812,0.6351221,-0.9296815],[-0.627877,-0.4872929,0.5863426,0.395178,0.8061705,0.3099684,-0.07435405,-0.8801703,0.4900758,0.5595891,-0.438301,-0.02655351,0.5637994,-0.8158083,-0.4138545,0.1802763],[-0.7800486,-0.2426957,-0.537291,0.246061,-0.2602357,0.4025511,-0.3278078,0.4550996,0.9027791,-0.04232967,-0.1060635,-0.696811,0.8994286,0.006585717,0.6729119,-0.4920195],[-0.2171773,0.6414249,-0.1616694,0.3511634,-0.5221391,-0.5742176,-0.2117926,-0.9496145,0.5477962,0.6606445,-0.42316,-0.2660939,0.0790385,-0.8220775,0.7409678,0.4505412],[-0.2306818,0.4061999,-0.5781045,-0.7747886,0.3186161]],[[0.5780189,-0.6016819,0.6647048,-0.1913084,0.9235783,-0.9871182,-0.3626865,-0.4617063,-0.9009426,-0.1051215,0.8847179,0.2045592,0.8966148,0.369812,0.6351221,-0.9296815],[0.4627669,-0.4872929,0.5863426,0.395178,0.8061705,0.3099684,-0.07435405,-0.8801703,0.4900758,0.5595891,-0.438301,-0.02655351,0.5637994,-0.8158083,-0.4138545,0.1802763],[-0.7800486,-0.2426957,-0.537291,0.246061,-0.2602357,0.4025511,-0.3278078,0.4550996,-0.9001806,-0.04232967,-0.1060635,-0.696811,0.8994286,0.006585717,0.6729119,-0.4920195],[-0.2171773,0.6414249,0.4453499,0.3511634,-0.5221391,-0.5742176,-0.2117926,0.7369635,0.5477962,0.6606445,-0.42316,-0.2660939,0.0790385,-0.8220775,0.7409678,0.4505412],[-0.2306818,0.4061999,-0.5781045,-0.7747886,0.3186161]],[[0.5780189,-0.5886836,0.6647048,-0.1913084,0.9235783,-0.9871182,-0.3626865,-0.4617063,-0.9009426,-0.1051215,0.8847179,0.4120283,0.8966148,0.369812,0.6351221,-0.9296815],[0.4627669,-0.4872929,0.5863426,0.395178,0.1846446,0.3099684,-0.07435405,-0.8801703,0.4900758,0.5595891,-0.438301,-0.02655351,0.5637994,-0.8158083,-0.4138545,0.1802763],[-0.7800486,-0.2426957,-0.537291,0.246061,-0.2602357,0.4025511,-0.3278078,0.4944098,-0.9001806,-0.04232967,-0.1060635,-0.696811,0.09547484,0.01521623,0.6729119,-0.4920195],[-0.2171773,0.6414249,0.4453499,-0.1324517,-0.5221391,-0.5742176,-0.2117926,0.7369635,0.5477962,0.6606445,-0.42316,0.03918183,-0.4805504,-0.8220775,0.7409678,0.4505412],[-0.2306818,0.4061999,-0.5781045,-0.7747886,0.3186161]],[[0.5780189,-0.5886836,0.6647048,-0.1913084,0.9235783,-0.9871182,-0.3626865,-0.4617063,-0.9009426,-0.1051215,0.8847179,0.2045592,0.8966148,0.369812,0.6351221,-0.9296815],[-0.627877,-0.4872929,0.5863426,0.395178,0.8061705,0.3099684,-0.07435405,-0.8801703,0.4900758,0.5595891,-0.438301,-0.02655351,0.5637994,-0.8158083,-0.4138545,0.1802763],[-0.7800486,-0.2426957,-0.537291,0.246061,-0.2602357,0.4025511,-0.3278078,0.4550996,0.9027791,-0.04232967,-0.1060635,-0.696811,0.8994286,0.006585717,0.6729119,-0.4920195],[-0.2171773,0.6414249,-0.1616694,0.3511634,-0.5221391,-0.5742176,-0.2117926,-0.9496145,0.5477962,0.6606445,-0.42316,-0.2660939,0.0790385,-0.8220775,0.7409678,0.4505412],[-0.2306818,0.4061999,-0.5781045,-0.7747886,0.3186161]],[[0.5780189,-0.5886836,0.6647048,-0.1913084,0.8417797,-0.9871182,-0.3626865,-0.4617063,-0.9009426,-0.1051215,0.8847179,0.2045592,0.8966148,0.369812,0.6351221,-0.9296815],[0.4627669,-0.4872929,0.5863426,0.395178,0.8061705,0.3099684,-0.07435405,-0.8801703,0.4900758,0.5595891,-0.438301,-0.02655351,0.5637994,-0.8158083,-0.4138545,0.1802763],[-0.7800486,-0.2426957,-0.537291,0.246061,-0.2602357,0.4025511,-0.3278078,0.4550996,-0.9001806,0.4156415,-0.1060635,-0.696811,0.8994286,0.006585717,0.6729119,-0.4920195],[-0.2171773,0.6414249,0.4453499,0.3511634,-0.5221391,-0.5742176,-0.2117926,0.7369635,0.5477962,0.6606445,-0.42316,-0.2660939,0.0790385,-0.8220775,0.7409678,0.4505412],[-0.2306818,0.4061999,-0.5781045,-0.7747886,0.3186161]],[[0.5780189,-0.5886836,0.6647048,-0.1913084,0.9235783,-0.9871182,-0.3626865,-0.4617063,-0.9009426,-0.1051215,0.8847179,0.2045592,0.8966148,0.369812,0.6351221,-0.9296815],[0.4627669,-0.5596519,0.5863426,0.395178,0.8061705,0.3099684,-0.07435405,-0.8801703,0.4900758,0.5595891,-0.438301,-0.02655351,0.5637994,-0.8158083,-0.4138545,-0.1484021],[-0.7800486,-0.2426957,-0.537291,0.246061,-0.2602357,0.4025511,-0.3278078,0.4550996,-0.9001806,-0.04232967,-0.1060635,-0.696811,0.8994286,0.006585717,0.6729119,-0.4920195],[-0.2171773,0.6414249,0.4453499,0.3511634,-0.5221391,-0.5742176,-0.2117926,0.7369635,0.5477962,-0.2883977,-0.42316,-0.2660939,0.0790385,-0.8220775,0.7409678,0.4505412],[-0.2306818,0.4061999,-0.5781045,-0.7747886,0.723882]],[[0.5780189,-0.5886836,0.6647048,-0.1913084,0.9235783,-0.9871182,-0.3626865,-0.4617063,-0.9009426,-0.1051215,0.8847179,0.2045592,0.8966148,0.369812,0.6351221,-0.9296815],[0.4627669,-0.4872929,0.5863426,0.395178,0.8061705,0.3099684,-0.7389958,-0.8801703,0.4900758,0.5595891,-0.438301,-0.02655351,0.5637994,-0.8158083,-0.4138545,0.1802763],[-0.7800486,-0.2426957,-0.537291,0.246061,-0.2602357,-0.4965872,-0.3278078,0.4550996,-0.9001806,-0.04232967,-0.1060635,-0.696811,0.8994286,0.006585717,0.6729119,-0.4920195],[-0.2171773,0.6414249,0.4453499,0.3511634,-0.5221391,-0.5742176,-0.2117926,0.7369635,0.5477962,0.6606445,-0.42316,-0.2660939,0.0790385,-0.8220775,0.7409678,0.4505412],[0.6460335,0.4061999,-0.5781045,-0.7747886,0.3186161]],[[0.5780189,-0.5886836,0.6647048,-0.1913084,0.9235783,-0.9871182,-0.3626865,-0.4617063,-0.9009426,-0.1051215,0.8847179,0.2045592,0.8966148,0.369812,0.6351221,-0.9296815],[0.4627669,-0.4872929,0.5863426,0.395178,0.8061705,0.3099684,-0.07435405,-0.8801703,0.4900758,0.5595891,-0.438301,-0.02655351,0.5637994,-0.8158083,-0.4138545,0.1802763],[-0.7800486,-0.2426957,-0.537291,0.246061,-0.2602357,0.4025511,-0.3278078,0.4550996,-0.9001806,-0.04232967,-0.1060635,-0.696811,0.8994286,0.006585717,0.6729119,-0.4920195],[-0.2171773,0.6414249,0.4453499,0.3511634,-0.5221391,-0.5742176,-0.2117926,0.7369635,0.5477962,0.6606445,-0.42316,-0.2660939,0.0790385,-0.8220775,0.7409678,0.4505412],[-0.2306818,0.4061999,-0.5781045,-0.7747886,0.3186161]],[[0.5780189,-0.5886836,0.6647048,-0.1913084,0.9235783,-0.9871182,-0.3626865,-0.4617063,-0.9009426,-0.1051215,0.8847179,0.2045592,0.8966148,0.369812,0.6351221,-0.9296815],[0.4627669,-0.4872929,0.5863426,0.395178,0.8061705,0.3099684,-0.07435405,-0.8801703,0.4900758,0.5595891,-0.438301,-0.02655351,0.5637994,-0.8158083,-0.4138545,-0.1484021],[-0.7800486,-0.2426957,-0.537291,0.246061,-0.2602357,0.4025511,-0.3278078,0.4550996,-0.9001806,-0.04232967,-0.1060635,-0.696811,0.8994286,0.006585717,0.6729119,-0.4920195],[-0.2171773,0.6414249,0.4453499,0.3511634,-0.5221391,-0.5742176,-0.2117926,0.7369635,0.5477962,0.6606445,-0.42316,-0.2660939,0.0790385,-0.8220775,0.7409678,0.4505412],[-0.2306818,0.4061999,-0.5781045,-0.7747886,0.3186161]],[[0.5780189,-0.5886836,0.6647048,-0.1913084,0.9235783,-0.9871182,-0.3626865,-0.4617063,-0.9009426,-0.1051215,0.8847179,0.2045592,0.8966148,0.369812,0.6351221,-0.9296815],[-0.627877,-0.4872929,0.5863426,0.395178,0.8061705,0.3099684,-0.07435405,-0.8801703,0.4900758,0.5595891,-0.438301,-0.02655351,0.5637994,0.953074,-0.4138545,0.1802763],[-0.7800486,-0.2426957,-0.537291,0.246061,-0.2602357,0.4025511,-0.3278078,0.4550996,0.9027791,-0.04232967,-0.1060635,-0.696811,0.8994286,0.006585717,0.6729119,0.380218],[-0.2171773,0.6414249,-0.1616694,0.3511634,-0.5221391,-0.5742176,-0.2117926,-0.9496145,0.5477962,0.6606445,-0.42316,-0.2660939,0.0790385,-0.8220775,0.7409678,0.4505412],[-0.2306818,0.4061999,-0.5781045,-0.7747886,0.3186161]],[[0.5071421,-0.5886836,0.6647048,-0.1913084,0.9235783,-0.9871182,-0.3626865,-0.4617063,-0.9009426,-0.1051215,0.8847179,0.2045592,0.8966148,0.369812,0.6351221,-0.9296815],[0.4627669,-0.4872929,0.5863426,0.395178,0.8061705,0.3099684,-0.07435405,-0.8801703,0.4900758,0.5595891,-0.438301,-0.02655351,0.5637994,-0.8158083,-0.4138545,0.1802763],[-0.7800486,-0.2426957,-0.5483057,0.246061,-0.2602357,0.4025511,-0.3278078,0.4550996,-0.9001806,-0.04232967,-0.1060635,-0.696811,0.8994286,0.006585717,0.6729119,-0.4920195],[-0.2171773,0.6414249,0.4453499,0.3511634,-0.5221391,-0.5742176,-0.2117926,0.7369635,0.5477962,0.6606445,-0.42316,-0.2660939,0.0790385,-0.8220775,0.7409678,0.4505412],[-0.2306818,0.4061999,-0.5781045,0.5220068,0.3186161]],[[0.5780189,-0.5886836,0.6647048,-0.1913084,0.9235783,-0.9871182,-0.3626865,-0.4617063,-0.9009426,-0.1051215,0.8847179,0.2045592,0.8966148,0.369812,0.6351221,-0.9296815],[0.4627669,-0.5596519,0.5863426,0.395178,0.8061705,0.3099684,-0.07435405,-0.8801703,0.4900758,0.5595891,-0.438301,-0.02655351,0.5637994,-0.8158083,-0.4138545,-0.1484021],[-0.7800486,-0.2426957,-0.537291,0.246061,-0.2602357,0.4025511,-0.3278078,0.4550996,-0.9001806,-0.04232967,-0.1060635,-0.696811,0.8994286,0.006585717,0.6729119,-0.4920195],[-0.2171773,0.6414249,0.4453499,0.3511634,-0.5221391,-0.5742176,-0.2117926,0.7369635,0.5477962,0.6606445,-0.42316,-0.2660939,0.0790385,-0.8220775,0.7409678,0.4505412],[-0.2306818,0.4061999,-0.5781045,-0.7747886,0.723882]],[[0.5780189,-0.5886836,0.6647048,-0.1913084,0.9235783,-0.9871182,-0.3626865,-0.4617063,-0.9009426,-0.1051215,0.8847179,0.2045592,0.8966148,0.4198556,0.6351221,-0.9296815],[0.4627669,-0.4872929,0.5863426,0.395178,0.8061705,0.3099684,-0.07435405,0.3487668,0.4900758,0.5595891,-0.438301,-0.02655351,0.5637994,-0.8158083,-0.4138545,0.1802763],[-0.7800486,-0.2426957,-0.537291,0.246061,-0.2602357,0.4025511,-0.3278078,0.4550996,-0.9001806,-0.04232967,-0.1060635,-0.696811,0.8994286,0.006585717,0.6729119,-0.4920195],[-0.2171773,0.6414249,0.4453499,0.3511634,-0.5221391,-0.5742176,-0.2117926,0.7369635,0.5477962,0.6606445,-0.42316,-0.2660939,0.0790385,-0.8220775,0.7409678,0.4505412],[-0.2306818,0.4061999,-0.5781045,-0.7747886,0.3186161]],[[0.5780189,-0.5886836,0.6647048,-0.1913084,0.9235783,-0.9871182,-0.3626865,-0.4617063,-0.9009426,-0.1051215,0.8847179,0.2045592,0.8966148,0.369812,0.6351221,-0.9296815],[-0.627877,-0.4872929,0.5863426,0.395178,0.8061705,0.3099684,-0.07435405,-0.8801703,0.4900758,0.5595891,-0.438301,-0.02655351,0.5637994,-0.8158083,-0.4138545,0.1802763],[-0.7800486,-0.2426957,-0.537291,0.246061,-0.2602357,0.4025511,-0.3278078,0.4550996,0.9027791,-0.04232967,-0.1060635,-0.696811,0.8994286,0.006585717,0.6729119,-0.4920195],[-0.2171773,0.6414249,-0.1616694,0.3511634,-0.5221391,-0.5742176,-0.2117926,-0.9496145,0.5477962,0.6606445,-0.42316,-0.2660939,0.0790385,-0.8220775,0.7409678,0.4505412],[-0.2306818,0.4061999,-0.5781045,-0.7747886,0.3186161]],[[0.5780189,-0.5886836,0.6647048,-0.1913084,0.9235783,-0.9871182,-0.3626865,-0.4617063,-0.9009426,-0.1051215,0.8847179,0.2045592,0.8966148,0.369812,0.6351221,-0.9296815],[0.4627669,-0.4872929,0.5863426,0.395178,0.8061705,0.3099684,-0.07435405,-0.8801703,0.4900758,0.5595891,-0.438301,-0.02655351,0.5637994,-0.8158083,-0.4138545,0.1802763],[-0.7800486,-0.2426957,-0.537291,0.246061,-0.2602357,0.4025511,-0.3278078,0.4550996,-0.9001806,-0.04232967,-0.1060635,-0.696811,0.8994286,0.4797926,0.6729119,-0.4920195],[-0.2171773,0.6327777,0.4453499,0.3511634,-0.5221391,-0.5742176,-0.2117926,-0.6759806,0.5477962,0.6606445,-0.42316,-0.2660939,0.0790385,-0.8220775,0.7409678,0.4505412],[0.202058,0.4061999,-0.5781045,-0.7747886,0.3186161]],[[-0.2423347,-0.5886836,0.6647048,-0.1913084,0.9235783,-0.3920444,-0.3626865,-0.4617063,-0.9009426,-0.1051215,0.8847179,0.6561856,0.8966148,0.369812,0.6351221,-0.9296815],[-0.627877,-0.4872929,0.5863426,0.395178,0.8061705,0.3099684,-0.07435405,-0.8801703,0.4900758,0.5595891,-0.316975,-0.02655351,0.5637994,0.1795501,-0.4138545,0.08693087],[-0.7800486,-0.2426957,-0.537291,0.246061,-0.2602357,0.4025511,-0.3278078,0.4550996,0.9027791,-0.04232967,-0.1060635,-0.696811,0.8994286,0.006585717,0.6729119,-0.4920195],[-0.2171773,0.6414249,-0.1616694,0.3511634,-0.5221391,-0.5742176,-0.2117926,-0.9496145,0.5477962,0.6606445,-0.42316,-0.2660939,0.0790385,-0.8220775,0.7409678,0.4505412],[-0.2306818,0.4061999,-0.5781045,-0.7747886,0.3186161]],[[0.5780189,-0.5886836,0.6647048,-0.1913084,0.9235783,-0.9871182,-0.3626865,-0.4617063,-0.9009426,-0.1051215,0.8847179,0.2045592,0.8966148,0.369812,0.6351221,-0.9296815],[0.4627669,-0.4872929,0.5863426,0.395178,0.8061705,0.3099684,-0.07435405,0.3453295,0.4900758,0.5595891,-0.438301,-0.02655351,0.5637994,-0.8158083,-0.4138545,0.1802763],[-0.7800486,-0.2426957,-0.537291,0.246061,-0.2602357,0.4025511,-0.3278078,0.4550996,-0.9001806,-0.04232967,-0.1060635,-0.696811,0.8994286,0.006585717,0.3306336,-0.4920195],[-0.2171773,0.6414249,0.4453499,0.3511634,-0.5221391,-0.5742176,-0.2117926,0.7957458,0.5477962,0.6606445,-0.42316,-0.2660939,0.0790385,-0.8220775,0.7409678,0.4505412],[-0.2306818,0.4061999,-0.5781045,-0.7747886,0.3186161]],[[0.5780189,-0.5886836,0.6647048,-0.1913084,0.9235783,-0.9871182,-0.3626865,-0.4617063,-0.9009426,-0.1051215,0.8847179,0.2045592,0.8966148,0.369812,0.6351221,-0.9296815],[0.4627669,-0.4872929,0.5863426,0.395178,0.8061705,0.3099684,-0.07435405,-0.8801703,0.4900758,0.5595891,-0.438301,-0.02655351,0.5637994,-0.8158083,-0.4138545,0.1802763],[-0.7800486,-0.2426957,-0.537291,0.246061,-0.2602357,0.4025511,-0.3278078,0.4550996,-0.9001806,-0.04232967,-0.1060635,-0.696811,0.8994286,0.006585717,0.6729119,-0.4920195],[-0.2171773,0.6414249,0.4453499,0.3511634,-0.5221391,-0.5742176,-0.2117926,0.7369635,0.5477962,0.6606445,-0.42316,-0.2660939,0.0790385,-0.8220775,0.7409678,0.4505412],[0.6460335,0.4061999,-0.5781045,-0.7747886,0.3186161]],[[0.5780189,-0.5886836,0.6647048,-0.1913084,0.9235783,-0.9871182,-0.3626865,-0.4617063,-0.9009426,-0.1051215,0.8847179,0.2045592,0.8966148,-0.7213573,0.6351221,-0.9296815],[0.4627669,-0.4872929,0.5863426,0.395178,0.8061705,0.3099684,-0.07435405,-0.8801703,0.4900758,0.5595891,-0.438301,-0.02655351,0.5637994,-0.8158083,-0.4138545,0.1802763],[-0.7800486,-0.2426957,-0.537291,0.246061,-0.2602357,0.4025511,-0.3278078,0.4550996,-0.9001806,-0.04232967,-0.1060635,-0.696811,0.8994286,0.006585717,0.6729119,-0.4920195],[-0.2171773,0.6414249,0.4453499,0.3511634,-0.5221391,-0.5742176,-0.2117926,0.7369635,0.5477962,0.6606445,-0.42316,-0.2660939,0.0790385,-0.8220775,0.7409678,0.4505412],[-0.2306818,0.4061999,-0.5781045,-0.7747886,0.3186161]],[[0.5780189,-0.5886836,0.6647048,-0.1913084,0.9235783,-0.9871182,-0.3626865,-0.4617063,-0.6099436,-0.1051215,0.8847179,0.2045592,0.8966148,0.369812,0.1026617,-0.9296815],[-0.3348469,-0.4872929,0.5863426,0.395178,0.2226683,0.3099684,-0.1445745,-0.8801703,0.4900758,0.2556023,-0.438301,-0.02655351,0.5637994,0.9913788,-0.4138545,-0.04152668],[-0.7800486,-0.2426957,0.2141861,0.246061,-0.2602357,0.4025511,-0.4068624,0.4550996,-0.9001806,-0.04232967,0.3634338,-0.696811,0.8994286,0.006585717,0.6729119,-0.650434],[-0.5660698,-0.98177,0.4453499,0.3511634,-0.5221391,-0.5742176,0.5964456,0.7369635,-0.4508892,0.6606445,-0.42316,0.02592552,0.8140414,-0.8220775,-0.00790298,0.4505412],[-0.2306818,0.0277859,-0.9636509,-0.6430323,0.141683]],[[0.5780189,-0.5886836,0.6647048,-0.1913084,0.1562363,-0.9871182,-0.3626865,-0.4617063,-0.9009426,-0.1051215,0.8847179,0.2045592,0.8966148,0.369812,0.6351221,-0.9296815],[0.4627669,-0.4872929,0.5863426,0.395178,0.8061705,0.3099684,-0.07435405,-0.8801703,0.4900758,0.5595891,-0.438301,-0.02655351,0.5637994,-0.8158083,-0.4138545,0.1802763],[-0.9698031,-0.2426957,-0.537291,0.246061,-0.2602357,0.4025511,-0.3278078,0.4550996,-0.9001806,-0.04232967,-0.1060635,-0.696811,0.8994286,0.006585717,0.6729119,-0.4920195],[-0.2171773,0.6414249,0.4453499,0.3511634,-0.5221391,-0.5742176,-0.2117926,0.7369635,0.5477962,-0.4886218,-0.42316,-0.2660939,0.0790385,-0.8220775,0.7409678,0.4505412],[0.8310525,0.4061999,-0.5781045,-0.7747886,0.3186161]],[[0.08052385,-0.5886836,0.6647048,-0.1913084,0.9235783,-0.9871182,-0.3626865,-0.4617063,-0.9009426,-0.1051215,0.8847179,0.2045592,0.8966148,0.369812,0.6351221,-0.9296815],[0.4627669,-0.4872929,0.5863426,0.395178,0.8061705,0.3099684,-0.07435405,-0.8801703,0.4900758,0.5595891,-0.438301,-0.02655351,0.5637994,-0.8158083,-0.4138545,0.1802763],[-0.7800486,-0.2426957,-0.537291,0.246061,-0.2602357,0.4025511,-0.3278078,0.4550996,-0.9001806,-0.04232967,-0.1060635,-0.696811,0.8994286,0.006585717,0.6729119,-0.4920195],[-0.2171773,0.6414249,0.4453499,0.3511634,-0.5221391,-0.5742176,-0.2117926,0.7369635,0.5477962,0.6606445,-0.42316,-0.2660939,0.0790385,-0.8220775,0.7409678,0.4505412],[-0.2306818,0.4061999,-0.5781045,-0.7747886,0.3186161]],[[0.5780189,-0.5886836,0.6647048,-0.1913084,0.9235783,-0.9871182,-0.3626865,-0.4617063,-0.9009426,-0.1051215,0.8847179,0.2045592,0.8966148,0.369812,0.6351221,-0.9296815],[0.4627669,-0.5596519,0.5863426,0.395178,0.8061705,0.3099684,-0.07435405,-0.8801703,0.4900758,0.5595891,-0.438301,-0.02655351,0.5637994,-0.8158083,-0.4138545,-0.1484021],[-0.7800486,-0.2426957,-0.537291,0.246061,-0.2602357,0.4025511,-0.3278078,0.4550996,-0.9001806,-0.04232967,-0.1060635,-0.696811,0.8994286,0.006585717,0.6729119,0.681536],[-0.2171773,0.6414249,0.4453499,0.3511634,-0.5221391,-0.5742176,-0.2117926,0.7369635,0.5477962,0.6606445,-0.42316,-0.2660939,0.0790385,-0.8220775,0.7409678,0.4505412],[-0.2306818,0.4061999,-0.5781045,-0.7747886,0.723882]],[[-0.2423347,-0.5886836,0.6647048,-0.1913084,0.9235783,0.3366937,-0.3626865,-0.4617063,-0.9009426,-0.1051215,0.8847179,0.7868752,0.8966148,0.369812,0.6351221,-0.9296815],[-0.627877,-0.4872929,0.5863426,0.395178,0.8061705,0.3099684,-0.07435405,-0.8801703,0.4900758,0.5595891,-0.438301,-0.02655351,0.5637994,0.1795501,-0.4138545,0.1802763],[-0.7800486,-0.2426957,-0.537291,0.246061,-0.2602357,0.4025511,-0.3278078,0.4550996,0.9027791,-0.04232967,-0.1060635,-0.7952197,0.8994286,0.006585717,0.6729119,-0.4920195],[-0.2171773,0.6414249,-0.1616694,0.3511634,-0.5221391,-0.5742176,-0.2117926,-0.9496145,0.5477962,0.6606445,-0.42316,-0.2660939,0.0790385,-0.8220775,0.7409678,0.4505412],[-0.2306818,0.4061999,-0.5781045,-0.7747886,-0.4187762]],[[0.5780189,-0.5886836,0.6647048,-0.1913084,0.9235783,-0.9871182,-0.3626865,-0.4617063,-0.9009426,-0.1051215,0.8847179,0.2045592,0.8966148,0.369812,0.6351221,-0.9296815],[0.4627669,-0.4872929,0.5863426,0.395178,0.8061705,0.3099684,-0.07435405,-0.8801703,0.4900758,0.5595891,-0.438301,-0.02655351,0.5637994,-0.8158083,-0.4138545,0.1802763],[-0.7800486,-0.2426957,-0.537291,0.246061,-0.2602357,0.4025511,-0.3278078,0.4550996,-0.9001806,-0.04232967,-0.07971752,-0.696811,0.8994286,0.006585717,0.6729119,-0.4920195],[-0.2171773,0.6414249,0.4453499,0.3511634,-0.5221391,-0.5742176,-0.2117926,0.7369635,0.5477962,0.6606445,-0.42316,-0.2660939,0.0790385,-0.8220775,0.7409678,0.4505412],[-0.2306818,0.4061999,-0.5781045,-0.7747886,0.3186161]],[[0.5780189,-0.5886836,0.6647048,-0.1913084,0.9235783,-0.9871182,-0.3279995,-0.4617063,-0.9009426,-0.1051215,0.8847179,0.2045592,0.8966148,0.369812,0.6351221,-0.9296815],[-0.627877,-0.4872929,0.5863426,0.395178,0.8061705,0.3099684,-0.07435405,-0.8801703,0.4900758,0.5595891,-0.438301,-0.02655351,0.5637994,-0.8158083,-0.4138545,0.1802763],[-0.7800486,-0.2426957,-0.537291,0.246061,-0.2602357,0.4025511,-0.3278078,0.4550996,0.6015575,-0.04232967,-0.1060635,-0.696811,0.8994286,0.006585717,0.6729119,-0.4920195],[-0.2171773,0.6414249,-0.1616694,0.3511634,-0.5221391,-0.5742176,-0.2117926,-0.9496145,0.5477962,0.6606445,-0.42316,-0.2660939,0.0790385,-0.8220775,0.7409678,0.4505412],[-0.2306818,0.4061999,-0.5781045,-0.7747886,0.3186161]],[[0.5780189,-0.5886836,0.6647048,-0.1913084,0.9235783,-0.9871182,-0.3626865,-0.4617063,-0.9009426,-0.1051215,0.8847179,0.2045592,0.8966148,0.369812,0.6351221,-0.9296815],[0.4627669,-0.4872929,0.5863426,0.395178,0.8061705,0.3099684,-0.07435405,-0.8801703,0.4900758,0.5595891,-0.438301,-0.02655351,0.5637994,-0.8158083,-0.4138545,0.1802763],[-0.7800486,-0.2426957,-0.537291,0.246061,-0.2602357,0.4025511,-0.3278078,0.4550996,-0.9001806,-0.04232967,-0.1060635,-0.696811,0.8994286,0.006585717,0.6729119,-0.4920195],[-0.2171773,0.6414249,0.4453499,0.3511634,-0.5221391,-0.5742176,-0.2117926,0.7369635,0.5477962,0.6606445,-0.42316,-0.2660939,0.0790385,-0.8220775,0.7409678,0.4505412],[-0.2306818,0.4061999,-0.5781045,-0.7747886,0.3186161]],[[0.5780189,-0.5886836,0.6647048,-0.1913084,0.9235783,-0.9871182,-0.3626865,-0.4617063,-0.9009426,-0.1051215,0.8847179,0.2045592,0.8966148,0.369812,0.6351221,-0.9296815],[0.4627669,-0.4872929,0.5863426,0.395178,0.8061705,0.3099684,-0.07435405,-0.8801703,0.4900758,0.5595891,-0.438301,-0.02655351,0.5637994,-0.8158083,-0.4138545,0.1802763],[-0.7800486,-0.2426957,-0.537291,0.246061,-0.2602357,0.4025511,-0.3278078,0.4550996,-0.9001806,-0.04232967,-0.1060635,-0.696811,0.8994286,0.006585717,0.6729119,-0.4920195],[-0.2171773,0.6414249,0.4453499,0.3511634,-0.5221391,-0.5742176,-0.2117926,0.7369635,0.5477962,0.6606445,-0.42316,-0.2660939,0.0790385,-0.8220775,0.7409678,0.4505412],[-0.2306818,0.4061999,-0.5781045,-0.7747886,0.3186161]],[[0.5780189,-0.5886836,0.6647048,-0.1913084,0.9235783,-0.9871182,-0.3626865,-0.4617063,-0.6099436,-0.1051215,0.8847179,0.2045592,0.8966148,0.369812,0.1026617,0.1895708],[-0.3348469,-0.4872929,0.5863426,0.395178,0.2226683,0.3099684,-0.1445745,-0.8801703,0.4900758,0.2556023,-0.438301,-0.02655351,0.5637994,-0.8158083,-0.4138545,0.1802763],[-0.7800486,-0.2426957,0.2141861,0.246061,-0.2602357,0.4025511,-0.3278078,0.4550996,-0.9001806,-0.04232967,0.3634338,-0.696811,0.8994286,0.3619554,0.6729119,-0.650434],[-0.5660698,0.6414249,0.4453499,0.3511634,-0.5221391,-0.5742176,-0.06220758,0.7369635,-0.4508892,0.6606445,-0.42316,0.02592552,-0.5148084,-0.8220775,0.7409678,0.4505412],[-0.2306818,0.0277859,-0.5781045,-0.6430323,0.141683]],[[0.5780189,-0.5886836,0.6647048,-0.1913084,0.9235783,-0.9871182,-0.3626865,-0.4617063,-0.9009426,-0.1051215,0.8847179,0.2045592,0.3054511,0.369812,-0.5910444,-0.9296815],[0.4627669,-0.4872929,0.5863426,0.395178,0.8061705,0.3099684,-0.07435405,-0.8801703,0.4900758,0.5595891,-0.438301,-0.02655351,0.5637994,-0.8158083,-0.4138545,0.1802763],[-0.7800486,-0.2426957,-0.537291,0.246061,-0.2602357,0.4025511,-0.3278078,0.4550996,-0.9001806,-0.04232967,-0.1060635,-0.696811,0.8994286,0.006585717,0.6729119,-0.4920195],[-0.2171773,0.6414249,0.4453499,0.3511634,-0.5221391,-0.5742176,-0.2117926,0.7369635,0.5477962,0.6606445,-0.42316,-0.7809422,0.0790385,-0.8220775,0.7409678,0.4505412],[-0.2306818,0.4061999,-0.5781045,-0.7747886,0.3186161]],[[0.5780189,-0.5886836,0.6647048,-0.1913084,0.9235783,-0.9871182,-0.3626865,-0.4617063,-0.9009426,-0.1051215,0.8847179,0.2045592,0.8966148,0.369812,0.6351221,-0.9296815],[0.4627669,-0.4872929,0.5863426,0.395178,0.8061705,0.3099684,-0.07435405,-0.8801703,0.4900758,0.5595891,-0.438301,-0.02655351,0.5637994,-0.8158083,-0.4138545,0.1802763],[-0.7800486,-0.2426957,-0.537291,0.246061,-0.2602357,0.4025511,-0.3278078,0.4550996,-0.9001806,-0.04232967,-0.1060635,-0.696811,0.8994286,0.006585717,0.6729119,-0.4920195],[-0.2171773,0.6414249,0.4453499,0.3511634,-0.5221391,-0.5742176,-0.2117926,0.7369635,0.5477962,0.6606445,-0.42316,-0.2660939,0.0790385,-0.8220775,0.7409678,0.4505412],[-0.2306818,0.4061999,-0.5781045,-0.7747886,0.3186161]],[[0.5780189,-0.6016819,0.6647048,-0.1913084,0.9235783,-0.9871182,-0.3626865,-0.4617063,-0.9009426,-0.1051215,0.8847179,0.2045592,0.8966148,0.369812,0.6351221,-0.9296815],[0.4627669,-0.4872929,0.5863426,0.395178,0.8061705,0.3099684,-0.07435405,-0.8801703,0.4900758,0.5595891,-0.438301,-0.02655351,0.5637994,-0.8158083,-0.4138545,0.1802763],[-0.7800486,-0.2426957,-0.537291,0.246061,-0.2602357,0.4025511,-0.3278078,0.4550996,-0.9001806,-0.04232967,-0.1060635,-0.696811,0.8994286,0.006585717,0.6729119,-0.4920195],[-0.9478924,0.6414249,0.4453499,0.3511634,-0.5221391,-0.5742176,-0.2117926,0.7369635,0.5477962,0.6606445,-0.42316,-0.2660939,0.0790385,-0.8220775,0.7409678,0.4505412],[-0.2306818,0.4061999,-0.5781045,-0.7747886,0.3186161]],[[0.5780189,-0.5886836,0.6647048,-0.1913084,0.9235783,-0.9871182,-0.3626865,-0.4617063,-0.9009426,-0.1051215,0.8847179,0.2045592,0.8966148,0.369812,0.6351221,-0.9296815],[-0.3348469,-0.4872929,0.5863426,0.395178,0.8061705,0.3099684,-0.07435405,-0.8801703,0.4900758,0.5595891,-0.438301,-0.02655351,0.5637994,-0.8158083,-0.4138545,0.1802763],[-0.7800486,-0.2426957,-0.537291,0.246061,-0.2602357,0.4025511,-0.3278078,0.4550996,-0.9001806,-0.04232967,-0.1060635,-0.696811,0.8994286,0.006585717,0.6729119,-0.650434],[-0.2171773,0.6414249,0.4453499,0.3511634,-0.5221391,-0.5742176,-0.2117926,0.7369635,-0.4508892,0.6606445,-0.42316,-0.106933,0.0790385,-0.8220775,0.7225208,0.4505412],[-0.2306818,0.4061999,-0.5781045,-0.7747886,0.3186161]],[[0.5780189,-0.5886836,0.6647048,-0.1913084,0.8417797,-0.9871182,-0.3626865,-0.4617063,-0.9009426,-0.1051215,0.8847179,0.2045592,0.8966148,0.369812,0.6351221,-0.9296815],[0.4627669,-0.4872929,0.5863426,0.395178,0.8061705,0.3099684,-0.07435405,-0.8801703,0.4900758,0.5595891,-0.438301,-0.02655351,0.5637994,-0.8158083,-0.4138545,0.1802763],[-0.7800486,-0.2426957,-0.537291,0.246061,-0.2602357,0.4025511,-0.3278078,0.4550996,-0.9001806,0.4156415,-0.1060635,-0.696811,0.8994286,0.006585717,0.6729119,-0.4920195],[-0.2171773,0.6414249,0.4453499,0.3511634,-0.5221391,-0.0562948,-0.2117926,0.7369635,0.5477962,0.6606445,-0.42316,-0.2660939,0.0790385,-0.8220775,0.7409678,0.4505412],[-0.2306818,0.4061999,-0.5781045,-0.7747886,0.3186161]],[[0.5780189,-0.5886836,0.6647048,-0.1913084,0.9235783,-0.9871182,-0.3626865,-0.4617063,-0.9009426,-0.1051215,0.8847179,0.2045592,0.8966148,0.369812,0.6351221,-0.9296815],[0.4627669,-0.4872929,0.8829091,0.395178,0.8061705,0.3099684,0.3160939,-0.8801703,0.4900758,0.5595891,-0.438301,-0.02655351,0.5637994,-0.8158083,-0.4138545,0.1802763],[-0.7800486,-0.2426957,-0.537291,0.246061,-0.2602357,0.4025511,-0.3278078,0.4550996,-0.9001806,-0.04232967,-0.1060635,-0.696811,0.8994286,0.006585717,0.6729119,-0.4920195],[-0.2171773,0.6414249,0.4453499,0.3511634,-0.5221391,-0.5742176,-0.2117926,0.7369635,0.5477962,0.6606445,-0.42316,-0.2660939,0.0790385,-0.8220775,0.7409678,0.4505412],[-0.2306818,0.4061999,-0.5781045,-0.7747886,0.3186161]],[[0.08052385,-0.5886836,0.6647048,-0.1913084,0.9235783,-0.9871182,-0.3626865,-0.4617063,-0.9009426,-0.1051215,0.8847179,0.2045592,0.8966148,0.369812,0.6351221,-0.9296815],[0.4627669,-0.4872929,0.5863426,0.395178,0.8061705,0.3099684,-0.07435405,-0.8801703,0.4900758,0.5595891,-0.438301,-0.02655351,0.5637994,-0.8158083,-0.4138545,0.1802763],[-0.7800486,-0.2426957,-0.537291,0.246061,-0.2602357,0.4025511,-0.3278078,0.4550996,-0.9001806,-0.04232967,-0.1060635,-0.696811,0.8994286,0.006585717,0.6729119,-0.4920195],[-0.2171773,0.6414249,0.4453499,0.3511634,-0.5221391,-0.5742176,-0.2117926,0.7369635,0.5477962,0.6606445,-0.42316,-0.2660939,0.0790385,-0.8220775,0.7409678,0.4505412],[-0.2306818,0.4061999,-0.5781045,-0.7747886,0.3186161]],[[0.5780189,-0.6016819,0.6647048,-0.1913084,0.9235783,-0.9871182,-0.3626865,-0.4617063,-0.9009426,-0.1051215,0.8847179,0.2045592,0.8966148,0.369812,0.6351221,-0.9296815],[0.4627669,-0.4872929,0.5863426,0.395178,0.8061705,0.3099684,-0.07435405,-0.8801703,0.4900758,0.5595891,-0.438301,-0.02655351,0.5637994,-0.8158083,-0.4138545,0.1802763],[-0.7800486,-0.2426957,-0.537291,0.246061,-0.2602357,0.4025511,-0.3278078,0.4550996,-0.9001806,-0.04232967,-0.1060635,-0.696811,0.8994286,0.006585717,0.6729119,-0.4920195],[-0.2171773,0.6414249,0.4453499,0.3511634,-0.5221391,-0.5742176,-0.2117926,0.7369635,0.5477962,0.6606445,-0.42316,-0.2660939,0.0790385,-0.8220775,0.7409678,0.4505412],[-0.2306818,0.4061999,-0.5781045,-0.7747886,0.3186161]],[[0.5780189,-0.5886836,0.6647048,-0.1913084,0.9235783,-0.9871182,-0.3626865,-0.4617063,-0.9009426,-0.1051215,0.8847179,-0.9397831,0.8966148,0.369812,0.6351221,-0.9296815],[-0.627877,-0.4872929,0.5863426,0.395178,0.8061705,-0.3380414,-0.07435405,-0.8801703,0.4900758,0.5595891,-0.438301,-0.02655351,0.01901925,-0.373165,-0.4138545,0.1802763],[-0.7800486,-0.2426957,-0.537291,0.246061,-0.2602357,0.4025511,-0.3278078,0.4550996,0.9027791,-0.04232967,-0.1060635,-0.696811,0.8994286,0.006585717,0.6729119,-0.4920195],[-0.5233002,0.6414249,-0.1616694,0.3511634,-0.5221391,-0.5742176,-0.2117926,-0.9496145,0.5477962,0.6606445,-0.42316,-0.2660939,0.0790385,-0.8220775,0.7409678,0.4505412],[-0.2306818,0.4061999,-0.5781045,-0.7747886,0.3186161]],[[0.5780189,-0.5886836,0.6647048,-0.1913084,0.9235783,-0.9871182,-0.3626865,-0.4617063,-0.9009426,-0.1051215,0.8847179,0.2045592,0.8966148,0.369812,0.6351221,-0.9296815],[0.4627669,-0.4872929,0.5863426,0.395178,0.8061705,0.3099684,-0.07435405,-0.8801703,0.4900758,0.5595891,-0.438301,-0.02655351,0.5637994,-0.8158083,-0.4138545,0.1802763],[-0.7800486,-0.2426957,-0.537291,0.246061,-0.2602357,0.4025511,-0.3278078,0.4550996,-0.9001806,-0.04232967,-0.1060635,-0.696811,0.8994286,0.4797926,0.6729119,-0.4920195],[-0.2171773,0.6327777,0.4453499,0.3511634,-0.5221391,-0.5742176,-0.2117926,0.7369635,0.5477962,0.6606445,-0.42316,-0.2660939,0.0790385,-0.8220775,0.7409678,0.4505412],[-0.2306818,0.4061999,-0.5781045,-0.7747886,0.3186161]],[[0.5780189,-0.5886836,0.6647048,-0.1913084,0.9235783,-0.9871182,-0.3626865,-0.4617063,-0.9009426,-0.1051215,0.8847179,0.2045592,0.8966148,0.369812,0.6351221,-0.9296815],[0.4627669,-0.4872929,0.5863426,0.395178,0.8061705,0.3099684,-0.07435405,-0.8801703,0.4900758,0.5595891,-0.438301,-0.02655351,0.5637994,-0.8158083,-0.4138545,0.1802763],[-0.7800486,-0.2426957,-0.537291,0.246061,-0.2602357,0.4025511,-0.3278078,0.4550996,-0.9001806,-0.04232967,-0.1060635,0.03265965,0.8994286,0.006585717,0.6729119,-0.4920195],[-0.2171773,0.6414249,0.4453499,0.3511634,-0.5221391,-0.5742176,-0.2117926,0.7369635,0.5477962,0.6606445,0.6210659,-0.2660939,-0.725127,-0.8220775,0.7409678,0.4505412],[-0.2306818,0.4061999,-0.5781045,-0.7747886,0.3186161]],[[0.5780189,-0.5886836,0.6647048,-0.1913084,0.8417797,-0.9871182,-0.3626865,-0.4617063,-0.9009426,-0.1051215,0.8847179,0.2045592,0.8966148,0.369812,0.6351221,-0.9296815],[0.4627669,-0.4872929,0.5863426,0.395178,0.8061705,0.3099684,-0.07435405,-0.8801703,0.4900758,0.5595891,-0.438301,-0.02655351,0.5637994,-0.8158083,-0.4138545,0.1802763],[-0.7800486,-0.2426957,-0.537291,0.246061,-0.2602357,0.4025511,-0.3278078,0.4550996,-0.9001806,0.4156415,-0.1060635,-0.696811,0.8994286,0.006585717,0.6729119,-0.4920195],[-0.2171773,0.6414249,0.4453499,0.3511634,-0.5221391,-0.5742176,-0.2117926,0.7369635,0.5477962,0.6606445,-0.42316,-0.2660939,0.0790385,-0.8220775,0.7409678,0.4505412],[-0.2306818,0.4061999,-0.5781045,-0.7747886,0.3186161]],[[0.5780189,-0.5886836,0.6647048,-0.1913084,0.9235783,-0.9871182,-0.3626865,-0.4617063,-0.6099436,-0.1051215,0.5004776,0.570509,0.8966148,0.6578994,-0.2396828,0.5971992],[-0.3348469,-0.4872929,0.5863426,0.395178,0.2226683,0.3099684,-0.1445745,-0.8801703,0.4111437,0.5595891,-0.438301,-0.617291,0.5637994,-0.8158083,-0.4138545,0.1802763],[-0.7800486,-0.2426957,-0.537291,0.246061,-0.2602357,0.4025511,-0.3278078,0.4550996,0.06347454,-0.04232967,0.3634338,-0.696811,0.8994286,0.006585717,-0.2205094,-0.650434],[-0.5660698,0.6414249,0.4453499,0.3511634,-0.2845036,-0.5742176,-0.2117926,0.5794573,-0.03691566,0.6606445,-0.42316,0.02592552,-0.5148084,-0.8220775,0.7409678,0.4505412],[0.1531676,-0.1719953,-0.5781045,0.2517569,0.141683]],[[0.5071421,-0.5886836,0.6647048,-0.1913084,0.9235783,-0.9871182,-0.3626865,-0.4617063,-0.9009426,-0.1051215,0.8847179,0.2045592,0.8966148,0.369812,0.6351221,-0.9296815],[0.4627669,-0.4872929,0.5863426,0.395178,0.8061705,0.3099684,-0.07435405,-0.8801703,0.4900758,0.5595891,-0.438301,-0.02655351,0.5637994,-0.8158083,-0.4138545,0.1802763],[-0.7800486,-0.2426957,-0.5483057,0.246061,-0.2602357,0.4025511,-0.3278078,0.4550996,-0.9001806,-0.04232967,-0.1060635,-0.696811,0.8994286,0.006585717,0.6729119,-0.4920195],[0.6523767,0.6414249,0.4453499,0.3511634,-0.5221391,-0.5742176,-0.2117926,0.7369635,0.5477962,0.6606445,-0.42316,-0.2660939,0.0790385,-0.8220775,0.1675304,0.4505412],[-0.2306818,0.4061999,-0.5781045,0.5220068,0.3186161]],[[0.5780189,-0.5886836,0.6647048,-0.1913084,0.9235783,-0.9871182,-0.3626865,-0.4617063,-0.9009426,-0.1051215,0.8847179,0.2045592,0.8966148,0.369812,0.6351221,-0.9296815],[-0.627877,-0.4872929,0.5863426,0.395178,0.8061705,0.3099684,-0.07435405,-0.8801703,0.4900758,0.5595891,-0.438301,-0.02655351,0.5637994,-0.8158083,-0.4138545,0.1802763],[-0.7800486,-0.2426957,-0.537291,0.246061,-0.2602357,0.4025511,-0.3278078,0.4550996,0.9027791,-0.04232967,-0.1060635,-0.696811,0.8994286,0.006585717,0.6729119,-0.4920195],[-0.2171773,0.6414249,-0.1616694,0.3511634,-0.5221391,-0.5742176,-0.2117926,-0.9496145,0.5477962,0.6606445,-0.42316,-0.2660939,0.0790385,-0.8220775,0.7409678,0.4505412],[-0.2306818,0.4061999,-0.5781045,-0.7747886,0.3186161]],[[0.5780189,-0.5886836,0.6647048,-0.1913084,0.9235783,-0.9871182,-0.3626865,-0.4617063,-0.9009426,-0.1051215,0.8847179,0.2045592,0.8966148,0.369812,0.6351221,-0.9296815],[-0.3348469,-0.4872929,0.5863426,0.395178,0.8061705,0.3099684,-0.07435405,-0.8801703,0.4900758,0.5595891,-0.438301,-0.02655351,0.5637994,-0.8158083,-0.4138545,0.1802763],[-0.7800486,-0.2426957,-0.537291,0.246061,-0.2602357,0.4025511,-0.3278078,0.4550996,-0.9001806,0.2274905,-0.1060635,-0.696811,0.8994286,0.006585717,0.6729119,-0.4920195],[-0.2171773,0.6414249,0.4453499,0.3511634,-0.5221391,-0.5742176,-0.2117926,0.7369635,0.5477962,0.6606445,-0.42316,-0.2660939,0.0790385,-0.8220775,0.7409678,0.4505412],[-0.2306818,0.4061999,-0.5781045,-0.7747886,0.3186161]],[[0.5780189,-0.5886836,0.6647048,-0.1913084,0.9235783,-0.9871182,-0.3626865,-0.4617063,-0.9009426,-0.1051215,0.8847179,0.2045592,0.8966148,0.369812,0.6351221,-0.9296815],[0.4627669,-0.4872929,0.5863426,0.395178,0.8061705,0.3099684,-0.07435405,-0.8801703,0.4900758,0.5595891,-0.438301,-0.02655351,0.5637994,-0.8158083,-0.4138545,0.1802763],[-0.7800486,-0.2426957,-0.537291,0.246061,-0.2602357,0.4025511,-0.3278078,0.4550996,-0.9001806,-0.04232967,-0.1060635,-0.01789939,0.8994286,0.006585717,0.6729119,-0.4920195],[-0.2171773,0.6414249,0.4453499,0.3511634,-0.5221391,-0.5742176,-0.2117926,0.7369635,0.5477962,0.6606445,0.6210659,-0.2660939,0.0790385,-0.8220775,0.7409678,0.4505412],[-0.2306818,0.4061999,-0.5781045,-0.7747886,0.3186161]],[[0.5780189,-0.5886836,0.6647048,-0.1913084,0.9235783,-0.9871182,-0.3626865,-0.4617063,-0.6099436,-0.1051215,0.8847179,0.2045592,0.8966148,0.369812,0.1026617,-0.9296815],[-0.3348469,-0.4872929,0.5863426,0.395178,0.2226683,0.3099684,-0.1445745,-0.8801703,0.4900758,0.2556023,-0.438301,-0.02655351,0.5637994,-0.8158083,-0.4138545,-0.04152668],[-0.7800486,-0.2426957,0.2141861,0.246061,-0.2602357,0.4025511,-0.3278078,0.4550996,-0.9001806,-0.04232967,0.3634338,-0.696811,0.8994286,0.006585717,0.6729119,-0.650434],[-0.5660698,-0.98177,0.4453499,0.3511634,-0.5221391,-0.5742176,0.5964456,0.7369635,-0.4508892,0.6606445,-0.42316,0.02592552,0.8140414,-0.8220775,-0.00790298,0.4505412],[-0.2306818,0.0277859,-0.5781045,-0.6430323,0.141683]],[[0.5780189,-0.5886836,0.6647048,-0.1913084,0.9235783,-0.9871182,-0.1817919,-0.4617063,-0.6099436,-0.1051215,0.8847179,0.2045592,0.8966148,0.369812,0.3642654,-0.9296815],[-0.3348469,-0.4872929,0.5863426,0.395178,0.2226683,0.3099684,-0.1445745,-0.8801703,0.4900758,0.2556023,-0.438301,-0.02655351,0.5637994,-0.8158083,-0.4138545,-0.04152668],[-0.7800486,-0.2426957,0.2141861,0.246061,-0.2602357,0.4025511,-0.3278078,0.4550996,-0.9001806,-0.04232967,0.3634338,-0.696811,0.8994286,0.006585717,0.6729119,-0.650434],[-0.5660698,-0.98177,0.4453499,0.3511634,-0.5221391,-0.5742176,0.5964456,0.7369635,-0.4508892,0.6606445,-0.42316,0.02592552,0.8140414,-0.8220775,-0.00790298,0.4505412],[-0.2306818,-0.3583463,-0.5781045,-0.6430323,0.141683]],[[0.5071421,-0.5886836,0.6647048,-0.1913084,0.9235783,-0.9871182,-0.3626865,-0.4617063,-0.9009426,-0.1051215,0.8847179,0.2045592,0.8966148,0.369812,0.6351221,-0.9296815],[0.4627669,-0.4872929,0.5863426,0.395178,0.8061705,0.3099684,-0.07435405,-0.8801703,0.4900758,0.5595891,-0.438301,-0.02655351,0.5637994,-0.8158083,-0.4138545,0.1802763],[-0.7800486,-0.2426957,-0.5483057,0.246061,-0.2602357,0.4025511,-0.3278078,0.4550996,-0.9001806,-0.04232967,-0.1060635,-0.696811,0.8994286,0.006585717,0.6729119,-0.4920195],[-0.2171773,0.6414249,0.4453499,0.3511634,-0.5221391,-0.5742176,-0.2117926,0.7369635,0.5477962,0.6606445,-0.42316,-0.2660939,0.0790385,-0.8220775,0.7409678,0.4505412],[-0.2306818,0.4061999,-0.5781045,-0.7747886,0.3186161]],[[0.5780189,-0.5886836,0.6647048,-0.1913084,0.9235783,-0.9871182,-0.3626865,-0.4617063,-0.9009426,-0.1051215,0.8847179,0.2045592,0.8966148,0.369812,0.4433582,-0.9296815],[0.4627669,-0.4872929,0.5863426,0.395178,0.8061705,0.3099684,-0.07435405,-0.8801703,0.4900758,0.5595891,-0.438301,-0.02655351,0.5637994,-0.8158083,-0.4138545,0.1802763],[-0.7800486,-0.2426957,-0.537291,0.246061,-0.2602357,0.4025511,-0.3278078,0.4550996,-0.9001806,-0.04232967,-0.1060635,-0.696811,0.8994286,0.006585717,0.6729119,-0.4920195],[-0.2171773,0.6414249,0.4453499,0.3511634,-0.5221391,-0.5742176,-0.2117926,0.7369635,0.5477962,0.6606445,-0.42316,-0.2660939,0.0790385,-0.8220775,0.7409678,0.4505412],[-0.2306818,0.4061999,-0.5781045,-0.7747886,0.3186161]],[[0.5780189,-0.5886836,0.6647048,-0.3840543,0.9235783,-0.9871182,-0.3626865,-0.4617063,-0.9009426,-0.1051215,0.8847179,0.2045592,0.8966148,0.4198556,0.6351221,-0.9296815],[0.4627669,-0.4872929,0.5863426,0.395178,0.8061705,0.3099684,-0.07435405,0.3487668,0.4900758,0.5595891,-0.438301,-0.02655351,0.5637994,-0.8158083,-0.4138545,0.1802763],[-0.7800486,-0.2426957,-0.537291,0.246061,-0.2602357,0.4025511,-0.3278078,0.4550996,-0.9001806,-0.04232967,-0.1060635,-0.696811,0.8994286,0.006585717,0.6729119,-0.4920195],[-0.2171773,0.6414249,-0.2798311,0.3511634,-0.5221391,-0.5742176,-0.2117926,0.7369635,0.5477962,0.6606445,-0.42316,-0.2660939,0.0790385,-0.8220775,0.7409678,0.4505412],[-0.2306818,0.4061999,-0.5781045,-0.7747886,0.3186161]],[[0.5780189,-0.5886836,0.6647048,-0.1913084,0.9235783,-0.9871182,-0.3626865,-0.4617063,-0.9009426,-0.1051215,0.8847179,0.2045592,0.8966148,0.369812,0.6351221,-0.9296815],[0.4627669,-0.4872929,0.5863426,0.395178,0.8061705,0.3099684,-0.07435405,-0.8801703,0.4900758,0.5595891,-0.438301,-0.02655351,0.5637994,-0.8158083,-0.4138545,0.1802763],[-0.7800486,-0.2426957,-0.537291,0.246061,-0.2602357,0.4025511,-0.3278078,0.4550996,-0.9001806,0.4156415,-0.1060635,-0.696811,0.8994286,0.006585717,0.6729119,-0.4920195],[-0.2171773,0.6414249,0.4453499,0.3511634,-0.5221391,-0.5742176,-0.2117926,0.7369635,0.5477962,0.6606445,-0.42316,-0.2660939,0.0790385,-0.8220775,0.7409678,0.4505412],[-0.2306818,0.4061999,-0.5781045,-0.7747886,0.3186161]],[[0.5780189,-0.5886836,0.6647048,-0.1913084,0.9235783,-0.9871182,-0.3626865,-0.4617063,-0.9009426,-0.1051215,0.8847179,0.2045592,0.8966148,0.369812,0.6351221,-0.9296815],[-0.627877,-0.4872929,0.5863426,0.395178,0.8061705,0.3099684,-0.07435405,-0.8801703,0.4900758,0.5595891,-0.438301,-0.02655351,0.5637994,-0.8158083,-0.4138545,0.1802763],[-0.7800486,-0.2426957,-0.537291,0.246061,-0.2602357,0.4025511,-0.3278078,0.4550996,0.9027791,-0.04232967,-0.1060635,-0.696811,0.8994286,0.006585717,0.6729119,-0.4920195],[-0.2171773,0.7056093,-0.1616694,0.3511634,-0.5221391,-0.5742176,-0.2117926,-0.9496145,0.5477962,0.6606445,-0.42316,-0.2660939,0.0790385,-0.8220775,0.7409678,0.4505412],[-0.2306818,0.4061999,-0.5781045,-0.7747886,0.3186161]],[[0.5780189,-0.5886836,0.6647048,-0.1913084,0.9235783,-0.9871182,-0.3626865,-0.4617063,-0.9009426,-0.1051215,0.8847179,0.2045592,0.8966148,0.369812,0.6351221,-0.9296815],[0.4627669,-0.4872929,0.5863426,0.395178,0.8061705,0.3099684,-0.07435405,-0.8801703,0.4900758,0.5595891,-0.438301,-0.02655351,0.5637994,-0.8158083,-0.4138545,0.1802763],[-0.7800486,-0.2426957,-0.537291,0.246061,-0.2602357,0.4025511,-0.3278078,0.4550996,-0.9001806,-0.04232967,-0.1060635,-0.696811,0.8994286,0.006585717,0.6729119,-0.4920195],[-0.2171773,0.6414249,0.4453499,0.3511634,-0.5221391,-0.5742176,-0.2117926,0.7369635,0.5477962,0.6606445,-0.42316,-0.2660939,0.0790385,-0.8220775,0.7409678,0.4505412],[-0.2306818,0.4061999,-0.5781045,-0.7747886,0.3186161]],[[0.5780189,-0.5886836,0.6647048,-0.1913084,0.9235783,-0.9871182,-0.3626865,-0.4617063,-0.9009426,-0.1051215,0.8847179,0.2045592,0.8966148,0.369812,0.6351221,-0.9296815],[0.4627669,-0.4872929,0.5863426,0.395178,0.8061705,0.3099684,-0.07435405,-0.8801703,0.4900758,0.5595891,-0.438301,-0.02655351,0.5637994,-0.8158083,-0.4138545,0.1802763],[-0.7800486,-0.2426957,-0.537291,0.246061,-0.2602357,0.4025511,-0.3278078,0.4550996,-0.9001806,-0.04232967,-0.1060635,-0.696811,-0.5369201,0.006585717,0.3929529,-0.4920195],[-0.6567423,0.6414249,-0.2211612,0.3511634,-0.5221391,-0.5742176,-0.2117926,0.7369635,0.5477962,0.6606445,-0.42316,-0.2660939,0.0790385,-0.8220775,0.7409678,0.4505412],[-0.2306818,0.4061999,-0.5781045,-0.7747886,0.3186161]],[[0.5780189,-0.5886836,0.6647048,-0.1913084,0.9235783,-0.9871182,-0.3626865,-0.4617063,-0.6099436,-0.1051215,0.8847179,0.2045592,0.8966148,0.369812,0.1026617,-0.9296815],[-0.3348469,-0.4872929,0.5863426,0.395178,0.2226683,0.3099684,-0.1445745,-0.8801703,0.4900758,0.2556023,-0.438301,-0.02655351,0.5637994,-0.8158083,-0.4138545,0.1802763],[-0.7800486,-0.2426957,0.2141861,0.246061,-0.2602357,0.4025511,-0.3278078,0.4550996,-0.9001806,-0.04232967,0.3634338,-0.696811,0.8994286,0.006585717,0.6729119,-0.650434],[-0.5660698,0.6414249,0.4453499,0.3511634,-0.5221391,-0.5742176,0.5964456,0.7369635,-0.4508892,0.6606445,-0.42316,0.02592552,-0.5148084,-0.8220775,0.7409678,0.4505412],[-0.2306818,0.3606393,-0.5781045,-0.6430323,0.141683]],[[0.5780189,-0.5886836,0.6647048,-0.1913084,0.9235783,-0.9871182,-0.3626865,-0.4617063,-0.9009426,-0.1051215,0.8847179,0.2045592,0.8966148,0.369812,0.9487474,-0.9296815],[0.4627669,-0.4872929,0.5863426,0.395178,0.8061705,0.3099684,-0.07435405,-0.8801703,0.4900758,0.5595891,-0.438301,-0.02655351,0.5637994,-0.8158083,-0.4138545,0.1802763],[-0.7800486,-0.2426957,-0.537291,0.246061,-0.2602357,0.4025511,-0.3278078,0.4550996,-0.9001806,0.685837,-0.1060635,-0.696811,0.8994286,0.01521623,0.6729119,-0.4920195],[-0.2171773,0.6414249,0.4453499,0.3511634,-0.5221391,-0.5742176,-0.2117926,0.7369635,0.5477962,0.6606445,-0.42316,-0.2660939,0.0790385,-0.8220775,0.7409678,0.4505412],[0.3071861,0.4061999,-0.5781045,-0.7747886,0.3186161]],[[0.5780189,-0.5886836,0.6647048,-0.1913084,0.9235783,-0.9871182,-0.3626865,-0.4617063,-0.9009426,-0.1051215,0.8847179,0.2045592,0.8966148,0.369812,0.6351221,-0.9296815],[-0.627877,-0.4872929,0.5863426,0.395178,0.8061705,0.3099684,-0.07435405,-0.8801703,0.4900758,0.5595891,-0.438301,-0.02655351,0.5637994,-0.8158083,-0.4138545,0.1802763],[-0.7800486,-0.2426957,-0.1542708,0.246061,-0.2602357,0.4025511,-0.3278078,0.4550996,0.9027791,-0.04232967,-0.1060635,-0.696811,0.8994286,0.006585717,0.6729119,-0.4920195],[-0.2171773,0.6414249,-0.1616694,0.3511634,-0.5221391,-0.5742176,-0.2117926,-0.9496145,0.5477962,0.6606445,-0.42316,-0.2660939,0.0790385,-0.8220775,0.7409678,0.4505412],[-0.2306818,-0.03068864,-0.5781045,-0.7747886,0.3186161]],[[0.5071421,-0.5886836,0.6647048,-0.1913084,0.9235783,-0.9871182,-0.3626865,-0.4617063,-0.9009426,-0.1051215,0.8847179,0.2045592,0.8966148,0.369812,0.6351221,-0.9296815],[0.4627669,-0.4872929,0.5863426,0.395178,0.8061705,0.3099684,-0.07435405,-0.8801703,0.4900758,0.5595891,-0.438301,-0.02655351,0.5637994,-0.8158083,-0.4138545,0.1802763],[-0.7800486,-0.2426957,-0.5483057,0.246061,-0.2602357,0.4025511,-0.3278078,0.4550996,-0.9001806,-0.04232967,-0.1060635,-0.696811,0.8994286,-0.4256755,0.6729119,-0.4920195],[-0.2171773,0.6414249,0.4453499,0.3511634,-0.5221391,-0.5742176,-0.2117926,0.7369635,0.5477962,0.6606445,-0.42316,-0.2660939,0.0790385,-0.8220775,0.7409678,0.4505412],[-0.2306818,0.4061999,-0.5781045,-0.7747886,0.3186161]],[[0.5780189,-0.5886836,0.6647048,-0.1913084,0.9235783,-0.9871182,-0.3626865,-0.4617063,-0.9009426,-0.1051215,0.8847179,0.2045592,0.8966148,0.369812,0.6351221,-0.9296815],[0.4627669,-0.4872929,-0.8621042,0.395178,0.8061705,0.3099684,-0.07435405,-0.8801703,0.4900758,0.5595891,-0.438301,-0.02655351,0.5637994,-0.8158083,-0.4138545,0.1802763],[-0.7800486,-0.2426957,-0.537291,0.246061,-0.2602357,0.4025511,-0.3278078,0.4550996,-0.9001806,-0.04232967,-0.1060635,-0.696811,0.8994286,0.006585717,0.6729119,-0.4920195],[-0.2171773,0.6414249,0.4453499,0.3511634,-0.5221391,0.8687439,-0.2117926,0.7369635,0.5477962,-0.456663,-0.42316,-0.2660939,0.0790385,-0.8220775,0.7409678,0.4505412],[-0.2306818,0.4061999,-0.5781045,-0.7747886,0.3186161]],[[0.5780189,-0.5886836,0.6647048,-0.1913084,0.9235783,-0.9871182,-0.3626865,-0.4617063,-0.9009426,-0.1051215,0.8847179,0.2045592,0.8966148,0.369812,0.6351221,-0.9296815],[-0.627877,-0.4872929,0.5863426,0.395178,0.8061705,0.3099684,-0.07435405,-0.8801703,0.4900758,0.5595891,-0.438301,-0.02655351,0.5637994,-0.8158083,-0.4138545,0.1802763],[-0.7800486,-0.2426957,-0.537291,0.246061,-0.2602357,0.4025511,-0.3278078,0.4550996,0.9027791,-0.04232967,-0.1060635,-0.696811,0.8994286,0.006585717,0.6729119,-0.4920195],[-0.2171773,0.6414249,-0.1616694,-0.08512151,-0.5221391,-0.5742176,-0.2117926,-0.9496145,0.5477962,0.6606445,-0.42316,-0.2660939,0.0790385,-0.8220775,0.7409678,0.4505412],[-0.2306818,0.4061999,-0.5781045,-0.7747886,0.3186161]],[[-0.2423347,-0.5886836,0.6647048,-0.1913084,0.9235783,0.3366937,-0.3626865,-0.4617063,-0.9009426,-0.1051215,0.8847179,0.7868752,0.8966148,0.369812,0.6351221,-0.9296815],[-0.627877,-0.4872929,0.5863426,0.395178,0.8061705,0.3099684,-0.07435405,-0.8801703,0.4900758,0.5595891,-0.438301,-0.02655351,0.5637994,0.1795501,-0.4138545,0.1802763],[-0.7800486,-0.2426957,-0.537291,0.246061,-0.2602357,0.4025511,-0.3278078,0.4550996,0.9027791,-0.04232967,-0.1060635,-0.696811,0.8994286,0.006585717,0.6729119,-0.4920195],[-0.2171773,0.6414249,-0.1616694,0.3511634,-0.5221391,-0.5742176,-0.2117926,-0.9496145,0.5477962,0.6606445,-0.42316,-0.2660939,0.0790385,-0.8220775,0.7409678,0.4505412],[-0.2306818,0.4061999,-0.5781045,-0.7747886,0.3186161]],[[0.5780189,-0.5886836,0.6647048,-0.1913084,0.9235783,-0.6764622,-0.3626865,-0.4617063,-0.9009426,-0.1051215,0.8847179,0.2045592,0.8966148,0.369812,0.4433582,-0.9296815],[0.4627669,-0.4872929,0.5863426,0.395178,0.8061705,0.3099684,-0.07435405,-0.8801703,0.4900758,0.5595891,-0.2415503,-0.02655351,0.5637994,0.5626349,-0.4138545,0.1802763],[-0.7800486,-0.2426957,-0.537291,0.246061,-0.2602357,0.4025511,-0.3278078,0.4550996,-0.9001806,-0.04232967,-0.1060635,-0.696811,0.8994286,0.006585717,0.6729119,-0.4920195],[-0.2171773,0.6414249,0.4453499,0.3511634,-0.5221391,-0.5742176,-0.2117926,0.7369635,0.5477962,0.6606445,-0.42316,-0.2660939,0.0790385,-0.8220775,0.7409678,0.4505412],[-0.2306818,0.4061999,-0.5781045,-0.7747886,0.3186161]],[[-0.2423347,-0.5886836,0.6647048,-0.1913084,0.9235783,0.3366937,-0.3626865,-0.4617063,0.3633463,-0.1051215,0.8847179,0.7868752,0.8966148,0.369812,0.6351221,-0.9296815],[-0.627877,-0.4872929,0.5863426,0.395178,0.8061705,0.3099684,-0.07435405,-0.8801703,0.4900758,0.5595891,-0.438301,-0.02655351,0.5637994,0.1795501,-0.4138545,-0.5297465],[-0.7800486,-0.2426957,-0.537291,0.246061,-0.2602357,0.4025511,-0.3278078,0.4550996,0.9027791,-0.04232967,-0.1060635,-0.696811,0.8994286,0.006585717,0.6729119,-0.4920195],[-0.2171773,0.6414249,-0.1616694,0.3511634,-0.5221391,-0.5742176,-0.2117926,-0.9496145,0.5477962,0.6606445,-0.42316,-0.2660939,0.0790385,-0.8220775,0.7409678,0.913743],[-0.2306818,0.4061999,-0.5781045,-0.7747886,0.3186161]],[[-0.2423347,-0.5886836,0.6647048,-0.1913084,0.9235783,-0.3920444,-0.3626865,-0.4617063,-0.9009426,-0.1051215,0.8847179,0.6561856,0.8966148,0.369812,0.6351221,-0.9296815],[-0.627877,-0.4872929,0.5863426,0.395178,0.8061705,0.3099684,-0.07435405,-0.8801703,0.4900758,0.5595891,-0.316975,-0.02655351,0.5637994,0.1795501,-0.4138545,0.08693087],[-0.7800486,-0.2426957,-0.537291,0.246061,-0.2602357,0.4025511,-0.3278078,0.4550996,0.9027791,-0.04232967,-0.1060635,-0.696811,0.8994286,0.006585717,0.6729119,-0.4920195],[-0.2171773,0.6414249,-0.1616694,0.3511634,-0.5221391,-0.5742176,-0.2117926,-0.9496145,0.5477962,0.6606445,-0.42316,-0.2660939,0.0790385,-0.8220775,0.7409678,0.4505412],[-0.2306818,0.4061999,-0.5781045,-0.7747886,0.3186161]],[[0.5780189,-0.5886836,0.6647048,-0.1913084,0.9235783,-0.9871182,-0.3626865,-0.4617063,-0.9009426,-0.1051215,0.8847179,0.2045592,0.8966148,-0.3720974,0.6351221,-0.9296815],[0.4627669,-0.4872929,0.5863426,0.395178,0.8061705,0.3099684,-0.07435405,-0.8801703,0.4900758,0.5595891,-0.438301,-0.02655351,0.5637994,-0.8158083,-0.4138545,0.1802763],[-0.7800486,-0.2426957,-0.537291,0.246061,-0.2602357,0.4025511,-0.3278078,0.4550996,-0.9001806,-0.04232967,-0.07971752,-0.696811,0.8994286,0.006585717,0.6729119,-0.4920195],[-0.2171773,0.6414249,0.4453499,0.3511634,-0.5221391,-0.5742176,-0.2117926,0.7369635,0.5477962,0.6606445,-0.42316,-0.2660939,0.0790385,-0.8220775,0.7409678,0.4505412],[-0.2306818,0.4061999,-0.5781045,-0.7747886,0.3186161]],[[0.5780189,-0.5886836,0.6647048,-0.1913084,0.9235783,-0.9871182,-0.3626865,-0.4617063,-0.9009426,-0.1051215,0.8847179,0.2045592,0.8966148,0.4198556,-0.4964474,-0.9296815],[0.4627669,-0.4872929,0.5863426,0.395178,0.8061705,0.3099684,-0.07435405,0.3487668,0.4900758,0.5595891,-0.438301,-0.02655351,0.5637994,-0.8158083,-0.4138545,0.1802763],[-0.7800486,-0.2426957,-0.537291,0.246061,-0.2602357,0.4025511,-0.3278078,0.4550996,-0.9001806,-0.04232967,-0.1060635,-0.696811,0.8994286,0.006585717,0.6729119,-0.4920195],[-0.2171773,0.6414249,0.4453499,0.3511634,-0.5221391,-0.5742176,-0.2117926,0.7369635,0.5477962,0.6606445,-0.6976199,-0.2660939,0.0790385,-0.8220775,0.7409678,0.4505412],[-0.2306818,0.4061999,-0.5781045,-0.7747886,0.3186161]],[[0.5780189,-0.5886836,0.6647048,-0.1913084,0.9235783,-0.9871182,-0.3626865,-0.4617063,-0.9009426,-0.1051215,0.8847179,0.2045592,0.8966148,0.369812,0.6351221,-0.9296815],[0.4627669,-0.4872929,0.5863426,0.395178,0.8061705,-0.9494643,-0.07435405,-0.8801703,0.4900758,0.5595891,-0.438301,-0.02655351,0.5637994,-0.8158083,-0.4138545,0.1802763],[-0.7800486,-0.2426957,-0.537291,0.246061,-0.2602357,0.4025511,-0.3278078,0.8167281,-0.9001806,-0.04232967,-0.1060635,-0.696811,0.8994286,0.006585717,0.6729119,-0.4920195],[-0.2171773,-0.1377147,0.4453499,0.3511634,-0.5221391,-0.5742176,-0.2117926,0.7369635,0.5477962,0.6606445,-0.42316,-0.2660939,0.0790385,-0.8220775,0.7409678,0.4505412],[-0.2306818,0.4061999,-0.04536355,-0.7747886,0.3186161]],[[-0.2423347,-0.5886836,0.6647048,-0.1913084,0.9235783,0.3366937,-0.3626865,-0.4617063,-0.9009426,-0.1051215,0.8847179,0.7868752,0.8966148,0.369812,0.6351221,-0.9296815],[-0.627877,-0.4872929,0.5863426,0.395178,0.8061705,0.3099684,-0.07435405,-0.8801703,0.4900758,0.5595891,-0.438301,-0.02655351,0.1396443,0.1795501,-0.4138545,0.1802763],[-0.7800486,-0.2426957,-0.537291,0.246061,-0.2602357,0.4025511,-0.3278078,0.4550996,0.9027791,-0.04232967,-0.1060635,-0.696811,0.8994286,0.006585717,0.6729119,-0.4920195],[-0.2171773,0.6414249,-0.1616694,0.3511634,-0.5221391,-0.5742176,-0.2117926,-0.9496145,0.5477962,0.6606445,-0.42316,-0.2660939,0.0790385,-0.8220775,0.7409678,0.4505412],[-0.2306818,0.4061999,-0.5781045,-0.7747886,0.3186161]],[[-0.2423347,-0.5886836,0.6647048,-0.1913084,0.9235783,0.3366937,-0.3626865,-0.4617063,-0.9009426,-0.1051215,0.8847179,0.7868752,0.8966148,0.369812,0.6351221,-0.9296815],[-0.627877,-0.4872929,0.5863426,0.395178,0.8061705,0.3099684,-0.07435405,-0.8801703,0.4900758,0.5595891,-0.438301,-0.02655351,0.5637994,0.1795501,-0.4138545,0.1802763],[-0.7800486,-0.2426957,-0.537291,0.246061,-0.2602357,0.4025511,-0.3278078,-0.8876798,0.9027791,-0.04232967,-0.1060635,-0.696811,0.8994286,0.006585717,0.6729119,-0.4920195],[-0.2171773,0.6414249,-0.1616694,0.3511634,-0.5221391,-0.5742176,-0.2117926,-0.9496145,0.5477962,0.6606445,-0.42316,-0.2660939,0.0790385,-0.8220775,0.7409678,0.4505412],[-0.2306818,0.4061999,-0.5781045,-0.7747886,0.3186161]],[[-0.2423347,-0.5886836,0.6647048,-0.1913084,0.9235783,0.3366937,-0.3626865,-0.4617063,-0.9009426,-0.1051215,0.8847179,0.7868752,0.8966148,0.369812,0.6351221,-0.9296815],[-0.627877,-0.4872929,0.5863426,0.395178,0.8061705,0.3099684,-0.07435405,-0.8801703,0.4900758,0.5595891,-0.438301,-0.02655351,0.5637994,0.1795501,-0.4138545,0.1802763],[-0.7800486,-0.2426957,0.5534813,0.246061,-0.2602357,0.4025511,-0.3278078,0.4550996,0.9027791,-0.04232967,-0.1060635,-0.696811,0.8994286,0.006585717,0.6729119,-0.4920195],[-0.2171773,0.6414249,-0.1616694,0.3511634,-0.5221391,-0.5742176,-0.2117926,-0.9496145,0.5477962,0.6606445,-0.42316,-0.2660939,0.0790385,-0.8220775,0.7409678,0.4505412],[-0.2306818,0.4061999,-0.5781045,-0.7747886,0.3186161]],[[0.5780189,-0.5886836,0.6647048,-0.06647408,0.9235783,-0.9871182,-0.3626865,-0.4617063,-0.9009426,-0.1051215,0.8847179,0.2045592,0.8966148,0.369812,0.6351221,-0.9296815],[0.4627669,-0.4872929,0.5863426,0.395178,0.1278905,0.3099684,-0.07435405,-0.8801703,0.4900758,0.5595891,-0.438301,-0.02655351,0.5637994,-0.8158083,-0.4138545,0.1802763],[-0.7800486,-0.2426957,-0.537291,0.246061,-0.2602357,0.4025511,-0.3278078,0.4550996,-0.9001806,-0.04232967,-0.1060635,0.03265965,0.8994286,0.006585717,0.6729119,-0.4920195],[-0.2171773,0.6414249,0.4453499,0.3511634,-0.5221391,-0.5742176,-0.2117926,0.7369635,0.5477962,0.6606445,0.6210659,-0.2660939,-0.725127,-0.4843148,0.7409678,0.4505412],[-0.2306818,0.4061999,-0.5781045,-0.7747886,0.3186161]],[[0.5071421,-0.5886836,0.6647048,-0.1913084,0.9235783,-0.9871182,-0.3626865,-0.4617063,-0.9009426,-0.1051215,0.8847179,0.2045592,0.8966148,0.369812,0.6351221,-0.9296815],[0.4627669,-0.4872929,0.5863426,0.395178,0.8061705,0.3099684,-0.07435405,-0.8801703,0.4900758,0.5595891,-0.438301,-0.02655351,0.5637994,-0.8158083,-0.4138545,0.1802763],[-0.7800486,-0.2426957,-0.5483057,0.246061,-0.2602357,0.4025511,-0.3278078,0.4550996,-0.1193415,-0.04232967,-0.1060635,-0.696811,0.8994286,0.006585717,0.6729119,-0.4920195],[-0.2171773,0.6414249,0.4453499,0.3511634,-0.5221391,-0.5742176,-0.2117926,0.7369635,0.5477962,0.6606445,-0.42316,-0.2660939,0.0790385,-0.8220775,0.7409678,0.4505412],[-0.2306818,0.4061999,-0.5781045,-0.7747886,0.3186161]],[[0.5780189,-0.5886836,0.6647048,-0.1913084,0.9235783,-0.9871182,-0.3626865,-0.4617063,-0.9009426,-0.1051215,0.8847179,0.2045592,0.8966148,0.369812,0.6351221,-0.9296815],[0.4627669,-0.5596519,0.5863426,0.395178,0.8061705,0.3099684,-0.07435405,-0.8801703,0.4900758,-0.2630109,-0.438301,-0.02655351,0.5637994,-0.8158083,-0.4138545,-0.414035],[-0.7800486,-0.2426957,-0.537291,0.246061,-0.2602357,0.4025511,-0.3278078,0.4550996,-0.9001806,0.1334411,-0.1060635,-0.696811,0.8994286,0.006585717,0.6729119,-0.4920195],[-0.2171773,0.6414249,0.4453499,0.3511634,-0.5221391,-0.5742176,-0.2117926,0.7369635,0.5477962,-0.2883977,-0.42316,-0.2660939,0.1961163,-0.8220775,0.9434795,0.4505412],[-0.2306818,0.4061999,-0.5781045,-0.7747886,0.723882]],[[-0.2423347,-0.5886836,0.6647048,-0.1913084,0.9235783,0.3366937,-0.3626865,-0.4617063,-0.9009426,-0.1051215,0.8847179,0.7868752,0.8966148,0.369812,0.6351221,-0.9296815],[-0.627877,0.09096229,0.5863426,0.395178,0.8061705,0.3099684,-0.07435405,-0.8801703,0.4900758,0.5595891,-0.438301,-0.02655351,0.5637994,0.1795501,-0.4138545,0.1802763],[-0.7800486,-0.2426957,-0.537291,0.246061,-0.2602357,0.4025511,-0.3278078,0.4550996,0.9027791,-0.04232967,-0.1060635,-0.696811,0.8994286,0.006585717,0.6729119,-0.4920195],[-0.2171773,0.6414249,-0.1616694,0.3511634,-0.5221391,-0.5742176,-0.2117926,-0.9496145,0.5477962,0.6606445,-0.42316,-0.2660939,0.0790385,-0.8220775,0.7409678,0.4505412],[-0.2306818,0.4061999,-0.5781045,-0.7747886,0.3186161]],[[0.5780189,-0.5886836,0.6647048,-0.1913084,0.9235783,-0.6764622,-0.3626865,-0.4617063,-0.9009426,-0.1051215,0.8847179,0.2045592,0.8966148,0.369812,0.4433582,-0.9296815],[0.4627669,-0.4872929,0.5863426,0.395178,0.8061705,0.3099684,-0.07435405,-0.8801703,0.4900758,0.5595891,-0.438301,-0.02655351,0.5637994,-0.8158083,-0.4138545,0.1802763],[-0.7800486,-0.2426957,-0.537291,0.246061,-0.2602357,0.4025511,-0.3278078,0.4550996,-0.9001806,-0.04232967,-0.1060635,-0.696811,0.8994286,0.006585717,0.6729119,-0.4920195],[-0.2171773,0.6414249,0.4453499,0.3511634,-0.5221391,-0.5742176,-0.2117926,0.7369635,0.5477962,0.6606445,-0.42316,-0.2660939,0.0790385,-0.8220775,0.7409678,0.4505412],[-0.2306818,0.4061999,-0.5781045,-0.7747886,0.3186161]],[[0.5780189,-0.5886836,0.6647048,-0.1913084,0.8417797,-0.9871182,-0.3626865,-0.4617063,-0.9009426,-0.1051215,0.8847179,0.2045592,0.8966148,0.3428197,0.6351221,-0.9296815],[0.4627669,-0.4872929,0.5863426,-0.8167038,0.8061705,0.3099684,-0.07435405,-0.8801703,0.4900758,0.5595891,-0.438301,-0.02655351,0.5637994,-0.8158083,-0.4138545,0.1802763],[-0.7800486,-0.2426957,-0.537291,0.246061,-0.2602357,0.4025511,-0.3278078,0.4550996,-0.9001806,0.4156415,-0.1060635,-0.696811,0.8994286,0.006585717,0.6729119,-0.4920195],[-0.2171773,0.6414249,-0.3846427,0.3511634,-0.5221391,-0.5742176,-0.2117926,0.7369635,0.5477962,0.6606445,-0.42316,-0.2660939,0.7210455,-0.8220775,0.7409678,0.4505412],[-0.2306818,0.4061999,-0.5781045,-0.7747886,0.3186161]],[[0.5780189,-0.5886836,-0.3350097,-0.1913084,0.9235783,-0.9871182,-0.3626865,-0.4617063,-0.6099436,-0.1051215,0.8847179,0.2045592,0.8966148,0.369812,0.1026617,0.1895708],[-0.3348469,-0.4872929,0.5863426,0.395178,0.2226683,0.3099684,-0.1445745,-0.8801703,0.4900758,0.2556023,-0.438301,-0.02655351,0.5637994,-0.8158083,-0.4138545,0.1802763],[-0.7800486,-0.2426957,0.2141861,0.246061,-0.2602357,0.4025511,-0.3278078,0.4550996,-0.6653316,-0.04232967,0.3634338,-0.696811,0.8994286,0.3619554,0.6729119,-0.650434],[-0.5660698,0.6414249,0.4453499,0.3511634,-0.5221391,-0.5742176,-0.06220758,0.7369635,-0.4508892,0.6606445,-0.42316,0.02592552,-0.5148084,-0.8220775,0.7409678,0.4505412],[-0.2306818,0.0277859,-0.5781045,-0.6430323,0.141683]],[[-0.7804894,-0.5886836,0.6647048,-0.1913084,0.9235783,0.3366937,-0.3626865,-0.4617063,-0.9009426,-0.1051215,0.8847179,0.7868752,0.8966148,0.369812,0.6351221,-0.9296815],[0.1822406,-0.4872929,0.5863426,0.395178,0.8061705,0.3099684,-0.07435405,-0.8801703,0.4900758,0.5595891,-0.438301,-0.02655351,0.5637994,0.1795501,-0.4138545,0.1802763],[-0.7800486,-0.2426957,-0.537291,0.246061,-0.2602357,0.4025511,-0.3278078,0.4550996,0.9027791,-0.04232967,-0.1060635,-0.696811,0.8994286,0.006585717,0.6729119,-0.4920195],[-0.2171773,0.6414249,-0.1616694,0.3511634,-0.5221391,-0.5742176,-0.2117926,-0.9496145,0.5477962,0.6606445,-0.42316,-0.2660939,0.0790385,-0.8220775,0.7409678,0.4505412],[-0.2306818,0.4061999,-0.5781045,-0.7747886,0.3186161]],[[0.5071421,-0.5886836,0.6647048,-0.1913084,0.9235783,-0.9871182,-0.3626865,-0.4617063,-0.9009426,-0.1051215,0.8847179,0.2045592,0.8966148,0.369812,0.6351221,-0.9296815],[0.4627669,-0.4872929,0.5863426,0.395178,0.8061705,0.3099684,-0.07435405,-0.8801703,0.4900758,0.5595891,-0.438301,-0.02655351,0.1823398,-0.8158083,-0.4138545,0.1802763],[-0.7800486,-0.2426957,-0.5483057,0.246061,-0.2602357,0.4025511,-0.3278078,0.4550996,-0.9001806,-0.04232967,-0.1060635,-0.696811,0.8994286,0.006585717,0.6729119,-0.4920195],[-0.2171773,0.6414249,0.4453499,0.3511634,-0.5221391,-0.5742176,-0.2117926,0.7369635,0.5477962,0.6606445,-0.42316,-0.2660939,0.0790385,-0.8220775,0.7409678,0.4505412],[-0.2306818,0.4061999,-0.5781045,0.5220068,0.3186161]],[[0.5780189,-0.5886836,0.6647048,-0.1913084,0.9235783,-0.9871182,-0.3626865,-0.4617063,-0.9009426,-0.1051215,0.8847179,0.2045592,0.8966148,0.369812,0.6351221,-0.9296815],[-0.627877,-0.4872929,0.5863426,0.395178,0.8061705,0.3099684,-0.07435405,-0.8801703,0.4900758,0.5595891,-0.438301,-0.02655351,0.5637994,-0.8158083,-0.4138545,0.1802763],[-0.7800486,-0.2426957,-0.537291,0.246061,-0.2602357,0.4025511,-0.3278078,0.4550996,0.9027791,-0.04232967,-0.1060635,-0.696811,0.8994286,0.006585717,0.6729119,-0.4920195],[-0.2171773,0.6414249,-0.1616694,0.3511634,-0.5221391,-0.5742176,-0.2117926,-0.9496145,0.5477962,0.6606445,-0.42316,-0.2660939,0.0790385,-0.8220775,0.7409678,0.4505412],[-0.2306818,0.4061999,-0.5781045,-0.7747886,0.3186161]],[[-0.2423347,-0.5886836,0.6647048,-0.1913084,0.9235783,0.3366937,-0.3626865,-0.4617063,-0.9009426,-0.1051215,0.8847179,0.7868752,0.8966148,0.369812,0.6351221,-0.9296815],[-0.627877,-0.4872929,0.5863426,0.395178,0.8061705,0.3099684,-0.07435405,-0.8801703,0.4900758,0.5595891,-0.438301,-0.02655351,0.5637994,0.1795501,-0.4138545,0.1802763],[-0.7800486,-0.2426957,-0.537291,0.246061,-0.2602357,0.4025511,-0.3278078,0.4550996,0.9027791,-0.04232967,-0.1060635,-0.696811,0.8994286,0.006585717,0.6729119,-0.4920195],[-0.2171773,0.6414249,-0.1616694,0.3511634,-0.5221391,-0.5742176,-0.2117926,-0.9496145,0.5477962,0.6606445,-0.42316,-0.2660939,0.0790385,-0.8220775,0.7409678,0.4505412],[-0.2306818,0.4061999,-0.5781045,-0.7747886,0.3186161]],[[0.5780189,-0.5886836,0.6647048,-0.1913084,0.4866454,-0.9871182,-0.3626865,-0.4617063,-0.9009426,-0.1051215,0.8847179,0.2045592,0.8966148,0.369812,0.6351221,-0.9296815],[-0.627877,-0.4872929,0.5863426,0.395178,0.8061705,0.3099684,-0.07435405,-0.8801703,0.4900758,0.5595891,-0.438301,-0.02655351,0.5637994,0.953074,-0.4138545,0.1802763],[-0.7800486,-0.2426957,-0.537291,0.246061,-0.2602357,0.4025511,-0.3278078,0.4550996,-0.5017502,-0.04232967,-0.1060635,-0.696811,0.8994286,0.006585717,0.6729119,0.380218],[-0.2171773,0.6414249,-0.1616694,0.3511634,-0.5221391,-0.5742176,-0.2117926,-0.9496145,0.5477962,0.6606445,-0.42316,-0.2660939,0.0790385,-0.8220775,0.7409678,0.4505412],[-0.2306818,0.4061999,-0.5781045,-0.7747886,0.7897274]],[[0.5780189,-0.5886836,0.6647048,-0.1913084,0.9235783,-0.9871182,-0.3626865,-0.4617063,-0.9009426,-0.1051215,0.8847179,0.5431132,0.8966148,0.369812,0.6351221,0.9876127],[-0.627877,-0.4872929,0.5863426,0.395178,0.8061705,0.3099684,-0.07435405,-0.8801703,0.4900758,0.5595891,-0.438301,-0.02655351,0.5637994,-0.8158083,-0.4138545,0.1802763],[-0.7800486,-0.2426957,-0.537291,0.246061,-0.2602357,0.4025511,-0.3278078,0.4550996,0.9027791,-0.04232967,-0.1060635,-0.696811,0.8994286,0.006585717,0.6729119,-0.4920195],[-0.2171773,0.6414249,-0.1616694,0.3511634,-0.5221391,-0.5742176,-0.2117926,-0.9496145,0.5477962,0.6606445,-0.42316,-0.2660939,0.0790385,-0.8220775,0.7409678,0.4505412],[-0.2306818,0.4061999,-0.5781045,-0.7747886,0.3186161]],[[-0.2423347,-0.5886836,0.6647048,-0.1913084,0.9235783,0.3366937,-0.3626865,-0.4617063,-0.9009426,-0.1051215,0.8847179,0.7868752,0.8966148,0.369812,0.6351221,-0.9296815],[-0.627877,-0.4872929,0.5863426,0.395178,0.8061705,0.3099684,-0.07435405,-0.8801703,0.4900758,0.5595891,-0.438301,-0.02655351,0.5637994,0.1795501,-0.4138545,0.1802763],[-0.7603278,-0.2426957,-0.537291,0.246061,-0.2602357,0.4025511,-0.3278078,0.4550996,0.9027791,-0.04232967,-0.1060635,-0.696811,0.8994286,0.006585717,0.6729119,-0.4920195],[-0.2171773,0.6414249,-0.1616694,0.3511634,-0.5221391,-0.5742176,-0.2117926,-0.9496145,0.5477962,0.6606445,-0.42316,-0.2660939,0.0790385,-0.8220775,0.7409678,0.4505412],[-0.2306818,0.4061999,-0.5781045,-0.7747886,0.3186161]],[[-0.2423347,-0.5886836,0.6647048,-0.1913084,0.9235783,0.3366937,-0.3626865,-0.4617063,-0.9009426,-0.1051215,0.8847179,0.7868752,0.8966148,0.369812,0.6351221,-0.9296815],[-0.627877,-0.4872929,0.5863426,0.395178,0.8061705,0.3099684,-0.07435405,-0.8801703,0.4900758,0.5595891,-0.438301,-0.02655351,0.5637994,0.1795501,-0.4138545,0.1802763],[-0.7800486,-0.2426957,-0.537291,0.246061,-0.2602357,0.4025511,-0.3278078,0.4550996,0.9027791,-0.04232967,-0.1060635,-0.696811,0.8994286,0.006585717,0.6729119,-0.4920195],[-0.7160027,0.6414249,-0.1616694,0.3511634,-0.5221391,-0.5742176,0.3873598,-0.9496145,0.5477962,-0.2411093,-0.42316,-0.2660939,0.0790385,-0.8220775,0.7409678,0.4505412],[-0.2306818,0.4061999,-0.5781045,-0.7747886,0.3186161]],[[-0.2423347,-0.5886836,0.6647048,-0.1913084,0.9235783,0.3366937,-0.3626865,-0.4617063,-0.9009426,-0.1051215,0.8847179,0.7868752,0.8966148,0.369812,0.6351221,-0.9296815],[-0.627877,-0.4872929,0.5863426,0.395178,0.8061705,0.3099684,-0.07435405,-0.8801703,0.4900758,0.5595891,-0.438301,-0.02655351,0.5637994,0.1795501,-0.4138545,0.1802763],[-0.7800486,-0.2426957,-0.537291,0.246061,-0.2602357,0.4025511,-0.3278078,0.4550996,0.9027791,-0.04232967,-0.1060635,-0.696811,0.8994286,0.006585717,0.6729119,-0.4920195],[-0.2171773,0.6414249,-0.1616694,0.3511634,-0.5221391,-0.5742176,-0.2117926,-0.9496145,0.5477962,0.6606445,-0.42316,-0.2660939,0.0790385,-0.8220775,0.7409678,0.4505412],[-0.2306818,0.4061999,-0.5781045,-0.7747886,0.3186161]],[[-0.5548372,-0.5886836,0.6647048,-0.1913084,0.9235783,-0.9871182,-0.3626865,-0.4617063,0.2407011,-0.1051215,0.8847179,0.2045592,0.5546308,0.369812,-0.4737979,-0.9296815],[0.4627669,-0.4872929,0.5863426,0.395178,0.8061705,0.3099684,-0.07435405,0.3453295,0.4900758,0.5595891,-0.438301,-0.02655351,0.5637994,-0.8158083,-0.4138545,0.1802763],[-0.7800486,-0.2426957,-0.537291,0.246061,-0.2602357,0.4025511,-0.3278078,0.4550996,-0.9001806,-0.04232967,-0.1060635,-0.696811,0.8994286,0.006585717,0.3306336,-0.4920195],[-0.2171773,0.6414249,0.4453499,0.3511634,-0.5221391,-0.5742176,-0.2117926,0.7957458,0.5477962,0.6606445,-0.42316,-0.2660939,0.0790385,-0.8220775,0.7409678,0.4505412],[-0.2306818,0.4061999,-0.5781045,-0.7747886,0.3186161]],[[-0.2423347,-0.5886836,0.6647048,-0.1913084,0.9235783,0.3366937,-0.3626865,-0.4617063,-0.9009426,-0.1051215,0.8847179,0.7868752,0.8966148,0.369812,0.6351221,-0.9296815],[-0.627877,-0.4872929,0.5863426,0.395178,0.8061705,0.3099684,-0.07435405,-0.8801703,0.4900758,0.5595891,-0.438301,-0.02655351,0.5637994,0.1795501,-0.4138545,0.1802763],[-0.7800486,-0.2426957,-0.537291,0.246061,-0.2602357,0.4025511,-0.3278078,0.4550996,0.9027791,-0.04232967,-0.1060635,-0.696811,0.8994286,0.006585717,0.6729119,-0.4920195],[-0.2171773,0.6414249,-0.1616694,0.3511634,-0.5221391,-0.5742176,-0.2117926,-0.9496145,0.5477962,0.6606445,-0.42316,-0.2660939,0.0790385,-0.8220775,0.7409678,0.4505412],[-0.2306818,0.4061999,-0.5781045,-0.7747886,0.3186161]],[[-0.2423347,-0.5886836,0.6647048,-0.1913084,0.9235783,0.3366937,-0.3626865,-0.4617063,-0.9009426,-0.1051215,0.8847179,0.7868752,0.8966148,0.369812,0.6351221,-0.9296815],[-0.627877,-0.4872929,0.5863426,0.395178,0.8061705,0.3099684,-0.07435405,-0.8801703,0.4900758,0.5595891,-0.438301,-0.02655351,0.5637994,0.1795501,-0.4138545,0.1802763],[-0.7800486,-0.2426957,-0.537291,0.246061,-0.2602357,0.4025511,-0.3278078,0.4550996,0.9027791,-0.04232967,-0.1060635,-0.696811,0.8994286,0.006585717,0.6729119,0.2341863],[-0.2171773,0.6414249,-0.1616694,0.3511634,-0.5221391,-0.5742176,-0.2117926,-0.9496145,0.5477962,0.6606445,-0.42316,-0.2660939,0.0790385,-0.8220775,0.7409678,0.4505412],[-0.2306818,0.4061999,-0.5781045,-0.7747886,0.3186161]],[[0.5780189,-0.5886836,0.6647048,-0.1913084,0.9235783,-0.9871182,-0.3626865,-0.4617063,-0.9009426,-0.1051215,0.8847179,0.2045592,0.8966148,0.369812,0.6351221,-0.9296815],[0.4627669,-0.5596519,0.5863426,0.395178,0.8061705,0.3099684,-0.07435405,-0.6937807,0.4900758,-0.2630109,-0.438301,-0.02655351,0.5637994,-0.8158083,-0.4138545,-0.414035],[-0.7800486,-0.2426957,-0.537291,0.246061,-0.2602357,-0.06704557,-0.3278078,0.4550996,-0.9001806,0.1334411,-0.1060635,-0.696811,0.8994286,0.006585717,0.6729119,-0.4920195],[-0.2171773,0.6414249,0.4453499,0.3511634,-0.5221391,-0.5742176,-0.2117926,0.7369635,0.5477962,0.6214821,-0.42316,-0.2660939,0.1961163,-0.8220775,0.9434795,0.4505412],[-0.8079669,0.4061999,-0.5781045,-0.7747886,0.723882]],[[0.5780189,-0.5886836,0.6647048,-0.1913084,0.9235783,-0.9871182,-0.3626865,-0.4617063,-0.9009426,-0.1051215,0.8847179,0.2045592,0.8966148,0.369812,0.6351221,-0.9296815],[0.4627669,-0.6700532,0.5863426,0.395178,0.8061705,0.3099684,-0.07435405,-0.8801703,0.4900758,0.5595891,0.894057,-0.02655351,0.5637994,-0.8158083,-0.4138545,-0.1484021],[-0.7800486,-0.2426957,-0.537291,0.246061,-0.2602357,0.4025511,-0.3278078,0.4550996,-0.9001806,-0.04232967,-0.1060635,-0.696811,0.8994286,0.006585717,0.6729119,-0.30682],[-0.2171773,0.6414249,0.4453499,0.3511634,-0.5221391,-0.5742176,-0.2117926,0.7369635,0.5477962,0.6606445,-0.42316,-0.2660939,0.0790385,-0.8220775,0.7409678,0.4505412],[-0.2306818,0.4061999,-0.5781045,0.6677036,0.723882]],[[0.5780189,-0.5886836,0.6647048,-0.1913084,0.9235783,-0.9871182,-0.3626865,-0.4617063,-0.9009426,-0.1051215,0.8847179,-0.9397831,0.8966148,0.369812,0.6351221,-0.9296815],[-0.627877,-0.4872929,0.5863426,0.395178,0.8061705,-0.3380414,-0.07435405,-0.8801703,0.4900758,0.5595891,-0.438301,-0.02655351,0.01901925,-0.373165,-0.4138545,0.1802763],[-0.7800486,-0.2426957,-0.537291,0.246061,-0.2602357,0.4025511,-0.3278078,0.4550996,0.9027791,-0.04232967,-0.1060635,-0.696811,0.8994286,0.006585717,0.6729119,-0.4920195],[-0.5233002,0.6414249,-0.1616694,0.3511634,-0.5221391,-0.5742176,-0.2117926,-0.9496145,0.5477962,0.6606445,-0.42316,-0.2660939,0.0790385,-0.8220775,0.7409678,0.4505412],[-0.2306818,0.4061999,-0.5781045,-0.7747886,0.3186161]],[[0.5780189,-0.6016819,0.6647048,-0.1913084,0.9235783,-0.9871182,-0.3626865,-0.4617063,-0.9009426,-0.1051215,0.8847179,0.2045592,0.8966148,0.369812,0.6351221,-0.9296815],[0.4627669,-0.4872929,0.5863426,0.395178,0.8061705,0.3099684,-0.07435405,-0.2447869,0.4900758,0.5595891,-0.438301,-0.02655351,0.5637994,-0.8158083,-0.4138545,0.1802763],[-0.7800486,-0.2426957,-0.537291,0.246061,-0.2602357,0.4025511,-0.3278078,0.4550996,-0.9001806,-0.04232967,-0.1060635,-0.696811,0.8994286,0.006585717,0.6729119,-0.4920195],[-0.2171773,0.6414249,0.4453499,0.3511634,-0.5221391,-0.5742176,-0.2117926,0.7369635,0.5477962,0.6606445,-0.42316,-0.2660939,0.0790385,-0.8220775,0.7409678,0.4505412],[-0.2306818,0.4061999,-0.5781045,-0.7747886,0.3186161]],[[-0.2423347,-0.5886836,0.6647048,-0.1913084,0.9235783,0.3366937,-0.3626865,-0.4617063,0.3633463,-0.1051215,0.8847179,0.7868752,0.8966148,0.369812,0.6351221,-0.9296815],[-0.627877,-0.4872929,0.5863426,0.395178,0.8061705,0.3099684,-0.07435405,-0.8801703,0.4900758,0.5595891,-0.438301,-0.02655351,0.5637994,0.1795501,-0.4138545,-0.5297465],[-0.7800486,-0.2426957,-0.537291,0.246061,-0.2602357,0.4025511,-0.3278078,0.4550996,0.9027791,-0.04232967,-0.1060635,-0.696811,0.8994286,0.006585717,0.6729119,-0.4920195],[-0.2171773,0.6414249,-0.1616694,0.3511634,-0.5221391,-0.5742176,0.9820514,-0.9496145,0.5477962,0.6606445,-0.42316,-0.2660939,0.0790385,-0.8220775,0.7409678,0.913743],[-0.2306818,0.4061999,-0.5781045,-0.7747886,0.3186161]],[[-0.2423347,-0.5886836,0.6647048,-0.5201263,0.9235783,0.3366937,-0.3626865,-0.4617063,-0.9009426,-0.1051215,0.8847179,0.7868752,0.8966148,0.369812,0.6351221,-0.9296815],[-0.627877,-0.4872929,0.6978817,0.395178,0.8061705,0.3099684,-0.07435405,-0.8801703,0.4900758,0.5595891,-0.438301,-0.02655351,0.5637994,0.1795501,-0.4138545,0.1802763],[-0.7800486,-0.2426957,-0.537291,0.246061,-0.2602357,0.4025511,-0.3278078,0.4550996,0.9027791,-0.775063,-0.1060635,-0.696811,0.8994286,0.006585717,0.6729119,-0.4920195],[-0.7228279,0.6414249,-0.1616694,0.3511634,-0.5221391,-0.5742176,-0.2117926,-0.9496145,0.5477962,0.6606445,-0.42316,-0.2660939,0.0790385,-0.8220775,0.7409678,0.4505412],[-0.2306818,0.4061999,-0.5781045,-0.7747886,0.3186161]],[[-0.2423347,-0.5886836,0.6647048,-0.1913084,0.9235783,0.3366937,-0.3626865,-0.4617063,-0.9009426,-0.1051215,0.8847179,0.7868752,0.8966148,0.369812,0.6351221,-0.9296815],[-0.627877,-0.4872929,0.5863426,0.395178,0.8061705,0.3099684,-0.07435405,-0.8801703,0.4900758,0.5595891,-0.438301,-0.02655351,0.5637994,0.1795501,-0.4138545,0.1802763],[-0.7800486,-0.2426957,-0.537291,0.246061,-0.2602357,0.4025511,-0.3278078,0.4550996,0.9027791,-0.04232967,-0.1060635,-0.696811,0.8994286,0.006585717,0.6729119,-0.4920195],[-0.2171773,0.6414249,-0.1616694,0.3511634,-0.5221391,-0.5742176,-0.2117926,-0.9496145,0.5477962,0.6606445,-0.42316,-0.2660939,0.0790385,-0.8220775,0.7409678,0.4505412],[-0.2306818,0.4061999,-0.5781045,-0.7747886,0.3186161]],[[0.5780189,-0.5886836,0.6647048,-0.1913084,0.9235783,-0.9871182,-0.3279995,-0.4617063,-0.9009426,-0.1051215,0.8847179,0.2045592,0.8966148,0.369812,0.6351221,-0.9296815],[-0.627877,-0.4872929,0.5863426,0.395178,0.8061705,0.3099684,-0.07435405,-0.8801703,0.4900758,0.5595891,-0.438301,-0.02655351,0.5637994,-0.8158083,-0.4138545,0.1802763],[-0.7800486,-0.2426957,-0.537291,0.246061,-0.2602357,0.4025511,-0.3278078,0.4550996,0.6015575,-0.04232967,-0.1060635,-0.696811,0.8994286,0.006585717,0.6729119,-0.4920195],[-0.2171773,0.6414249,-0.1616694,0.3511634,-0.5221391,-0.5742176,-0.2117926,-0.9496145,0.5477962,0.6606445,-0.42316,-0.2660939,0.0790385,-0.8220775,0.7409678,0.4505412],[-0.2306818,0.4061999,-0.5781045,-0.7747886,0.3186161]],[[0.5071421,-0.5886836,0.6647048,-0.1913084,0.9235783,-0.9871182,-0.3626865,-0.4617063,-0.9009426,-0.1051215,0.8847179,0.2045592,0.8966148,0.369812,0.6351221,-0.9296815],[0.4627669,-0.4872929,0.5863426,0.395178,0.8061705,0.3099684,-0.07435405,-0.8801703,0.4900758,0.5595891,-0.438301,-0.02655351,0.5637994,-0.8158083,-0.4138545,0.1802763],[-0.2532064,-0.9266481,-0.5483057,0.246061,-0.2602357,0.4025511,-0.3278078,0.4550996,-0.9001806,-0.04232967,-0.1060635,-0.696811,0.8994286,0.006585717,0.6729119,-0.4920195],[-0.2171773,0.6414249,0.4453499,0.3511634,-0.5221391,-0.5742176,-0.2117926,0.7369635,0.5477962,0.6606445,-0.42316,-0.2660939,0.0790385,-0.8220775,0.7409678,0.4505412],[-0.2306818,0.4061999,-0.8616078,0.5220068,0.3186161]],[[0.5780189,-0.5886836,0.6647048,-0.1913084,-0.5493925,-0.9871182,-0.3626865,-0.4617063,-0.9009426,-0.1051215,0.8847179,0.2045592,0.8966148,0.369812,0.4433582,-0.9296815],[0.4627669,-0.4872929,0.5863426,0.395178,0.8061705,0.3099684,-0.07435405,-0.8801703,0.4900758,0.5595891,-0.438301,-0.02655351,0.5637994,-0.8158083,-0.4138545,0.1802763],[-0.7800486,-0.2426957,-0.537291,0.246061,-0.2602357,0.4025511,-0.3278078,0.4550996,-0.9001806,-0.04232967,-0.1060635,-0.696811,0.8994286,0.006585717,0.6729119,-0.4920195],[-0.2171773,0.6414249,0.4453499,0.3511634,-0.5221391,-0.5742176,-0.2117926,0.7369635,0.5477962,0.6606445,-0.42316,-0.2660939,0.0790385,-0.8220775,0.7409678,0.4505412],[-0.2306818,0.4061999,-0.5781045,-0.7747886,0.3186161]],[[-0.2423347,-0.5886836,0.6647048,-0.1913084,0.9235783,0.3366937,-0.3626865,-0.4617063,-0.9009426,-0.1051215,0.8847179,0.7868752,0.8966148,0.369812,0.6351221,-0.9296815],[-0.627877,-0.4872929,0.5863426,0.395178,0.8061705,0.3099684,-0.07435405,-0.8801703,0.4900758,0.5595891,-0.438301,-0.4483889,0.5637994,0.1795501,-0.4138545,0.1802763],[-0.7800486,-0.2426957,-0.537291,0.246061,-0.2602357,0.4025511,-0.3278078,0.4550996,0.9027791,-0.04232967,-0.1060635,-0.696811,0.8994286,0.006585717,0.6729119,-0.4920195],[-0.2171773,0.6414249,-0.1616694,0.3511634,0.07596576,-0.5742176,-0.2117926,-0.9496145,0.5477962,0.6606445,-0.42316,-0.2660939,0.0790385,-0.8220775,0.7409678,0.4505412],[-0.2306818,0.4061999,-0.5781045,-0.7747886,0.3186161]],[[0.5780189,-0.6016819,0.6647048,-0.1913084,0.9235783,-0.9871182,-0.3626865,-0.4617063,-0.9009426,-0.1051215,0.8847179,0.2045592,0.8966148,0.369812,0.4822488,-0.9296815],[0.4627669,-0.4872929,-0.8477046,0.395178,0.8061705,0.3099684,-0.07435405,-0.8801703,0.4900758,0.5595891,-0.438301,-0.02655351,0.5637994,-0.8158083,-0.4138545,0.1802763],[-0.7800486,-0.2426957,-0.537291,0.246061,-0.2602357,0.4025511,-0.3278078,0.4550996,-0.9001806,-0.04232967,-0.1060635,-0.696811,0.8994286,0.006585717,0.6729119,-0.4920195],[-0.2171773,0.6414249,0.4453499,0.3511634,-0.5221391,-0.5742176,-0.2117926,0.7369635,0.5477962,0.6606445,-0.42316,0.4040534,0.0790385,-0.8220775,0.7409678,0.4505412],[-0.2306818,-0.369387,-0.5781045,-0.7747886,0.3186161]],[[0.5780189,-0.5886836,0.6647048,-0.1913084,0.9235783,-0.9871182,-0.3626865,-0.4617063,-0.9009426,-0.1051215,-0.82494,0.2045592,0.8966148,0.369812,0.6351221,-0.9296815],[0.4627669,-0.4872929,0.5863426,0.395178,0.8061705,0.3099684,-0.07435405,-0.8801703,0.4900758,0.5595891,0.406017,-0.02655351,0.5637994,-0.8158083,-0.4138545,0.1802763],[-0.7800486,-0.2426957,-0.537291,0.246061,-0.2602357,0.4025511,-0.3278078,0.4550996,-0.9001806,-0.04232967,-0.1060635,-0.696811,0.8994286,0.4797926,0.6729119,-0.4920195],[-0.2171773,0.6327777,0.4453499,0.3511634,-0.5221391,-0.5742176,-0.2117926,0.7369635,0.5477962,0.6606445,-0.42316,-0.2660939,0.0790385,-0.8220775,0.7409678,0.4505412],[-0.2306818,0.4061999,-0.5781045,-0.7747886,0.3186161]],[[0.5780189,-0.5886836,0.6647048,-0.1913084,0.9235783,-0.9871182,-0.3626865,-0.4617063,-0.9009426,-0.1051215,0.8847179,0.2045592,0.8966148,0.369812,0.6351221,-0.9296815],[0.4627669,-0.5596519,0.5863426,0.395178,0.8061705,0.3099684,-0.07435405,-0.8801703,0.4900758,-0.2630109,-0.438301,-0.02655351,0.5637994,-0.8158083,-0.4138545,-0.414035],[-0.7800486,-0.2426957,-0.537291,0.246061,-0.2602357,0.4025511,-0.3278078,0.4550996,-0.9001806,0.1334411,-0.1060635,-0.696811,0.8994286,0.006585717,0.6729119,-0.4920195],[-0.3703972,0.6414249,0.4453499,0.3511634,-0.5221391,-0.5742176,-0.2117926,0.7369635,0.5477962,-0.2883977,-0.42316,-0.2660939,0.1961163,-0.8220775,0.9434795,0.4505412],[-0.2306818,0.4061999,-0.5781045,-0.7747886,0.723882]],[[0.5780189,-0.5886836,0.6647048,-0.1913084,-0.7037933,-0.6764622,-0.3626865,-0.4617063,-0.9009426,-0.1051215,0.8847179,0.2045592,0.8966148,0.369812,0.4433582,-0.9296815],[-0.7408452,-0.4872929,0.5863426,0.395178,0.8061705,0.3099684,-0.07435405,-0.8801703,0.4900758,0.5595891,-0.2415503,-0.02655351,0.5637994,-0.8158083,-0.4138545,0.1802763],[-0.7800486,-0.2426957,-0.537291,0.246061,-0.2602357,0.4025511,-0.3278078,0.4550996,-0.9001806,-0.04232967,-0.1060635,-0.696811,0.8994286,0.006585717,0.6729119,-0.4920195],[-0.2171773,0.6414249,0.4453499,0.3511634,-0.5221391,-0.5742176,-0.2117926,0.7369635,0.5477962,0.6606445,-0.42316,-0.2660939,0.0790385,-0.8220775,0.7409678,0.4505412],[-0.2306818,0.4061999,0.08123052,-0.7747886,0.3186161]],[[0.5780189,-0.5886836,0.6647048,-0.1913084,0.9235783,-0.9871182,-0.3626865,-0.4617063,-0.9009426,-0.1051215,0.8847179,0.4120283,0.8966148,0.369812,0.6351221,-0.9296815],[0.4627669,-0.4872929,0.5863426,0.395178,0.1846446,0.3099684,-0.07435405,-0.8801703,0.4900758,0.5595891,-0.438301,-0.02655351,0.5637994,-0.8158083,-0.4138545,0.1802763],[-0.7800486,-0.2426957,-0.537291,0.246061,-0.2602357,0.4025511,-0.3278078,0.4944098,-0.9001806,-0.04232967,-0.1060635,-0.696811,0.09547484,0.01521623,0.6729119,-0.4920195],[-0.2171773,0.6414249,0.4453499,-0.1324517,-0.5221391,-0.5742176,-0.2117926,0.7369635,0.5477962,0.6606445,-0.42316,0.03918183,-0.4805504,-0.8220775,0.7409678,0.4505412],[-0.2306818,0.4061999,-0.5781045,-0.7747886,0.3186161]],[[0.5780189,-0.5886836,0.6647048,-0.1913084,0.8417797,-0.9871182,-0.3626865,-0.4617063,-0.9009426,-0.1051215,0.8847179,0.2045592,0.8966148,0.369812,0.6351221,-0.9296815],[0.4627669,-0.4872929,0.5863426,0.395178,0.8061705,0.3099684,-0.07435405,-0.8801703,0.4900758,0.5595891,-0.438301,-0.02655351,0.5637994,-0.8158083,-0.4138545,0.1802763],[-0.7800486,-0.2426957,-0.537291,0.246061,-0.2602357,0.4025511,-0.3278078,0.4550996,-0.9001806,0.4156415,-0.1060635,-0.696811,0.8994286,0.006585717,0.6729119,0.9951105],[-0.2171773,0.6414249,0.4453499,0.3511634,-0.5221391,-0.0562948,-0.2117926,0.7369635,0.5477962,0.6606445,-0.42316,-0.2660939,0.0790385,-0.8220775,0.7409678,0.4505412],[-0.2306818,0.4061999,-0.5781045,-0.7747886,0.3186161]],[[0.5780189,-0.5886836,0.6647048,-0.1913084,0.9235783,-0.9871182,-0.3626865,-0.4617063,-0.9009426,-0.1051215,0.8847179,0.2045592,0.8966148,0.369812,0.6351221,-0.9296815],[0.4627669,-0.4872929,0.5863426,0.395178,0.8061705,0.3099684,-0.07435405,-0.8801703,0.4900758,0.5595891,-0.438301,-0.02655351,0.5637994,-0.8158083,-0.4138545,0.1802763],[-0.7800486,-0.2426957,-0.537291,0.246061,-0.2602357,0.4025511,-0.3278078,0.4550996,-0.9001806,-0.04232967,0.04006159,-0.696811,0.8994286,0.4797926,0.6729119,-0.4920195],[-0.2171773,0.6327777,0.4453499,0.3511634,-0.5221391,-0.5742176,-0.2117926,0.7369635,0.5477962,0.6606445,-0.42316,-0.2660939,0.0790385,-0.8220775,0.7409678,0.4505412],[-0.2306818,0.4061999,-0.5781045,0.3244528,-0.9185224]],[[0.5780189,-0.5886836,0.6647048,-0.1913084,0.9235783,-0.9871182,-0.3626865,-0.4617063,-0.9009426,-0.1051215,0.8847179,0.2045592,0.8966148,0.369812,0.6351221,-0.9296815],[-0.3348469,-0.4872929,0.5863426,0.395178,0.8061705,0.3099684,-0.07435405,-0.8801703,0.4900758,0.5595891,-0.438301,-0.02655351,0.5637994,-0.8158083,-0.4138545,0.1802763],[-0.7800486,-0.2426957,-0.537291,0.246061,-0.2602357,0.4025511,-0.3278078,0.4550996,-0.9001806,0.2274905,-0.1060635,-0.696811,0.8994286,0.006585717,0.6729119,-0.4920195],[-0.2171773,0.6414249,0.4453499,0.3511634,-0.5221391,-0.5742176,0.5907378,0.7369635,0.5477962,0.6606445,-0.42316,-0.2660939,0.0790385,-0.8220775,0.7409678,0.4505412],[-0.2306818,0.4061999,-0.5781045,-0.7747886,0.3186161]],[[-0.2423347,-0.5886836,0.6647048,-0.1913084,0.9235783,0.3366937,-0.3626865,-0.4617063,-0.9009426,-0.1051215,0.8847179,0.7868752,0.8966148,0.369812,0.6351221,-0.9296815],[-0.627877,-0.4872929,0.5863426,0.395178,0.8061705,0.3099684,-0.07435405,-0.8801703,0.4900758,0.5595891,-0.438301,-0.02655351,0.5637994,0.1795501,-0.4138545,0.1802763],[-0.7800486,-0.2426957,-0.537291,0.246061,-0.2602357,0.4025511,-0.3278078,0.4550996,0.9027791,-0.04232967,-0.1060635,-0.696811,0.8994286,0.4719736,0.6729119,-0.4920195],[-0.2171773,0.6414249,-0.1616694,0.3511634,-0.5221391,-0.5742176,-0.2117926,-0.9496145,0.5477962,0.6606445,-0.42316,-0.2660939,0.0790385,-0.8220775,0.7409678,0.4505412],[-0.2306818,0.4061999,-0.5781045,-0.7747886,0.3186161]],[[0.5071421,-0.5886836,0.6647048,-0.1913084,0.9235783,-0.9871182,-0.3626865,-0.4617063,-0.9009426,-0.1051215,0.8847179,0.2045592,0.8966148,0.369812,0.6351221,-0.9296815],[0.4627669,-0.4872929,0.5863426,0.395178,0.8061705,0.3099684,-0.07435405,-0.8801703,0.4900758,0.5595891,-0.438301,-0.02655351,0.5637994,-0.8158083,-0.4138545,0.1802763],[-0.7800486,-0.2426957,-0.5483057,0.246061,-0.2602357,0.4025511,-0.3278078,0.4550996,-0.9001806,-0.04232967,-0.1060635,-0.696811,0.8994286,0.006585717,0.6729119,-0.4920195],[0.6523767,0.6414249,0.4453499,0.3511634,-0.5221391,-0.5742176,-0.2117926,0.7369635,0.5477962,0.6606445,-0.42316,-0.2660939,0.0790385,-0.8220775,0.1675304,0.4505412],[-0.2306818,0.4061999,-0.5781045,0.5220068,0.3186161]],[[-0.2423347,-0.5886836,0.6647048,-0.1913084,0.9235783,0.3366937,-0.3626865,-0.9817183,-0.9009426,-0.1051215,0.8847179,0.7868752,0.8966148,0.369812,0.6351221,-0.9296815],[-0.627877,-0.4872929,0.5863426,0.395178,0.8061705,0.3099684,-0.07435405,-0.8801703,0.4900758,0.5595891,-0.438301,-0.02655351,0.5637994,0.1795501,-0.4138545,0.1802763],[-0.7800486,-0.2426957,-0.537291,0.246061,0.2535245,0.4025511,-0.3278078,0.4550996,0.9027791,-0.04232967,-0.1060635,-0.696811,0.8994286,0.006585717,0.6729119,-0.4920195],[-0.2171773,0.6414249,-0.1616694,0.3511634,-0.5221391,-0.5742176,-0.2117926,-0.9496145,0.5477962,0.6606445,-0.42316,-0.2660939,0.0790385,-0.8220775,0.7409678,0.4505412],[-0.2306818,0.4061999,-0.5781045,-0.7747886,0.3186161]],[[-0.2423347,-0.5886836,0.6647048,-0.1913084,0.9235783,0.3366937,-0.3626865,-0.4617063,-0.9009426,-0.1051215,0.8847179,0.7868752,0.8966148,-0.8746397,0.6351221,-0.9296815],[-0.627877,-0.4872929,0.5863426,0.395178,0.8061705,0.3099684,-0.07435405,-0.8801703,0.4900758,0.5595891,-0.438301,-0.02655351,0.5637994,0.1795501,-0.4138545,0.1802763],[-0.7800486,-0.2426957,-0.537291,0.246061,-0.2602357,0.4025511,-0.3278078,0.4550996,0.9027791,-0.04232967,-0.1060635,-0.696811,0.8994286,0.006585717,0.6729119,-0.4920195],[-0.2171773,0.6414249,-0.1616694,0.3511634,-0.5221391,-0.5742176,-0.2117926,-0.9496145,0.5477962,0.6606445,-0.42316,-0.2660939,0.0790385,-0.8220775,0.7409678,0.4505412],[-0.2306818,0.4061999,-0.5781045,-0.7747886,0.3186161]],[[-0.2423347,-0.5886836,0.6647048,-0.1913084,0.9235783,0.3366937,-0.3626865,-0.4617063,-0.9009426,-0.1051215,0.8847179,0.7868752,0.8966148,0.369812,0.9440434,-0.9296815],[-0.627877,-0.4872929,0.5863426,0.395178,0.8061705,0.3099684,-0.07435405,-0.8801703,0.4900758,0.5595891,-0.438301,-0.02655351,0.5637994,0.1795501,-0.4138545,0.1802763],[-0.7800486,-0.2426957,-0.537291,0.246061,-0.2602357,0.4025511,-0.3278078,0.4550996,0.9027791,-0.04232967,-0.1060635,-0.696811,0.8994286,0.006585717,0.6729119,-0.4920195],[-0.2171773,0.6414249,-0.1616694,0.3511634,-0.7406383,-0.5742176,-0.2117926,-0.9496145,0.5477962,0.6606445,-0.42316,-0.2660939,0.0790385,-0.8220775,0.7409678,0.4505412],[-0.2306818,0.4061999,-0.5781045,-0.7747886,0.3186161]],[[0.5780189,-0.5886836,0.6647048,-0.1913084,0.9235783,-0.9871182,-0.3626865,-0.4617063,-0.9009426,-0.1051215,0.8847179,-0.9250546,-0.9784596,0.369812,0.6351221,-0.9296815],[0.4627669,-0.4872929,0.5863426,0.395178,0.3012211,0.3099684,-0.07435405,-0.8801703,0.4900758,0.5595891,-0.438301,-0.02655351,0.5637994,-0.8158083,-0.4138545,0.1802763],[-0.7800486,-0.2426957,-0.537291,0.246061,-0.2602357,0.4025511,-0.3278078,0.4550996,-0.9001806,-0.04232967,-0.1060635,-0.696811,0.8994286,0.006585717,0.6729119,-0.4920195],[-0.2171773,0.6414249,0.4453499,0.3511634,-0.5221391,0.878264,-0.2117926,0.7369635,0.5477962,0.6606445,-0.42316,-0.2660939,0.0790385,-0.8220775,0.7409678,0.4505412],[-0.2306818,0.4061999,-0.5781045,-0.7747886,0.3186161]],[[0.5780189,-0.5886836,0.6647048,-0.1913084,0.9235783,-0.9871182,-0.3626865,-0.4617063,-0.9009426,-0.1051215,0.8847179,-0.9397831,0.8966148,0.369812,0.6351221,-0.9296815],[-0.627877,-0.4872929,0.5863426,0.395178,0.8061705,-0.3380414,-0.07435405,-0.8801703,0.4900758,0.5595891,-0.438301,-0.02655351,0.01901925,-0.373165,-0.4138545,0.1802763],[-0.7800486,-0.2426957,-0.537291,0.246061,-0.2602357,0.4025511,-0.3278078,0.4550996,0.9027791,-0.04232967,-0.1060635,-0.696811,0.8994286,0.1554965,0.6729119,-0.4920195],[-0.5233002,0.6414249,-0.1616694,0.3511634,-0.5221391,-0.5742176,-0.2117926,-0.9496145,0.5477962,0.6606445,-0.42316,-0.2660939,0.0790385,-0.8220775,0.7409678,0.4505412],[-0.2306818,0.4061999,-0.5781045,-0.7747886,0.3186161]],[[0.5780189,-0.5886836,0.6647048,-0.1913084,0.9235783,-0.9871182,-0.3626865,-0.4617063,-0.9009426,-0.1051215,0.8847179,0.2045592,0.8966148,-0.7213573,0.6351221,-0.9296815],[0.4627669,-0.4872929,0.5863426,0.395178,0.8061705,0.3099684,-0.07435405,-0.8801703,0.4900758,0.5595891,-0.438301,-0.02655351,0.5637994,-0.8158083,-0.4138545,0.1802763],[-0.7800486,-0.2426957,-0.537291,0.246061,-0.2602357,0.4025511,-0.3278078,0.4550996,-0.9001806,-0.04232967,-0.1060635,-0.696811,0.8994286,0.006585717,0.6729119,-0.4920195],[-0.2171773,0.6414249,0.4453499,0.3511634,-0.5221391,-0.5742176,-0.2117926,0.7369635,0.5477962,0.6606445,-0.42316,-0.9270072,0.0790385,-0.8220775,0.7409678,0.4505412],[-0.2306818,0.4061999,-0.5781045,-0.7747886,0.3186161]],[[0.5780189,-0.5886836,0.6647048,-0.1913084,0.9235783,-0.9871182,-0.3626865,-0.4617063,-0.9009426,-0.1051215,0.8847179,0.2045592,0.8966148,-0.3720974,0.6351221,-0.9296815],[0.4627669,-0.4872929,0.5863426,0.395178,0.8061705,0.3099684,-0.07435405,-0.8801703,0.4900758,0.5595891,-0.438301,-0.02655351,0.5637994,-0.8158083,-0.4138545,0.1802763],[-0.7800486,-0.2426957,-0.537291,0.246061,-0.2602357,0.4025511,-0.3278078,0.4550996,-0.9001806,-0.04232967,-0.07971752,-0.696811,0.8994286,0.006585717,0.6729119,-0.4920195],[-0.2171773,0.6414249,0.4453499,0.3511634,-0.5221391,-0.5742176,-0.2117926,0.7369635,0.5477962,0.6606445,-0.42316,-0.2660939,0.0790385,-0.8220775,0.7409678,0.4505412],[-0.2306818,0.4061999,-0.5781045,-0.7747886,0.3186161]],[[-0.2423347,-0.5886836,-0.01259792,-0.1913084,0.9235783,0.3366937,-0.3626865,-0.4617063,-0.9009426,-0.1051215,0.8847179,0.7868752,0.8966148,0.369812,0.6351221,0.4079408],[-0.627877,-0.4872929,0.5863426,0.395178,0.8061705,0.3099684,-0.07435405,-0.8801703,0.4900758,0.5595891,-0.438301,-0.02655351,0.5637994,0.1795501,-0.4138545,0.1802763],[-0.7800486,-0.2426957,-0.537291,0.246061,-0.2602357,0.4025511,-0.3278078,0.4550996,0.9027791,-0.04232967,-0.1060635,-0.696811,0.8994286,0.006585717,0.6729119,-0.4920195],[-0.2171773,0.6414249,-0.1616694,0.3511634,-0.5221391,-0.5742176,-0.2117926,-0.9496145,0.5477962,0.6606445,-0.42316,-0.2660939,0.0790385,-0.8220775,0.7409678,0.4505412],[-0.2306818,0.4061999,-0.5781045,-0.7747886,0.3186161]],[[0.08052385,-0.5886836,0.6647048,-0.1913084,0.9235783,-0.9871182,-0.3626865,-0.4617063,-0.9009426,-0.1051215,0.8847179,0.2045592,0.8966148,0.369812,0.6036909,-0.9296815],[0.4627669,-0.4872929,0.5863426,0.395178,0.8061705,0.3099684,-0.07435405,-0.8801703,-0.1019634,0.5595891,-0.438301,-0.02655351,0.5637994,-0.8158083,-0.4138545,0.1802763],[-0.7800486,-0.2426957,-0.537291,0.246061,-0.2602357,0.4025511,-0.3278078,0.4550996,-0.9001806,-0.04232967,-0.1060635,-0.696811,0.8994286,0.006585717,0.6729119,-0.4920195],[-0.2171773,0.6414249,0.4453499,0.3511634,-0.5221391,-0.5742176,-0.2117926,0.7369635,0.5477962,0.6606445,-0.42316,-0.2660939,0.0790385,-0.8220775,0.7409678,0.4505412],[-0.2306818,0.4061999,-0.5781045,-0.7747886,0.3186161]],[[0.5780189,-0.5886836,0.6647048,-0.1913084,0.9235783,-0.9871182,-0.3626865,0.7435718,-0.9009426,-0.1051215,0.8847179,0.2045592,0.8966148,0.369812,0.6351221,-0.9296815],[0.4627669,-0.5596519,0.5863426,0.395178,0.8061705,0.3099684,-0.07435405,-0.8801703,0.4900758,0.5595891,-0.438301,-0.02655351,-0.3780926,-0.8158083,-0.4138545,-0.1484021],[-0.7800486,-0.2426957,-0.537291,0.246061,-0.2602357,0.4025511,-0.3278078,0.4550996,-0.9001806,-0.04232967,-0.1060635,-0.696811,0.8994286,0.006585717,0.6729119,0.681536],[-0.2171773,0.6414249,0.4453499,0.3511634,-0.5221391,-0.5742176,-0.2117926,0.7369635,0.5477962,0.6606445,0.3175368,-0.2660939,0.0790385,-0.8220775,0.7409678,0.4505412],[-0.2306818,0.4061999,-0.5781045,-0.7747886,0.723882]],[[0.5780189,-0.5886836,0.6647048,0.748873,0.9235783,-0.9871182,-0.3626865,-0.4617063,-0.9009426,-0.1051215,0.8847179,0.2045592,0.8966148,0.369812,0.6351221,-0.9296815],[-0.3348469,-0.4872929,0.5863426,0.395178,0.8061705,0.3099684,-0.07435405,-0.8801703,0.4900758,0.5595891,-0.438301,-0.02655351,0.5637994,-0.8158083,-0.4138545,0.1802763],[-0.7800486,-0.2426957,-0.537291,0.246061,-0.2602357,0.4025511,0.3828888,0.4550996,-0.9001806,-0.04232967,-0.1060635,-0.696811,0.8994286,0.006585717,0.6729119,-0.650434],[-0.2171773,0.6414249,0.4453499,0.3511634,-0.5221391,-0.5742176,-0.2117926,0.7369635,-0.4508892,0.6606445,-0.42316,-0.106933,0.0790385,-0.8220775,0.7225208,0.4505412],[-0.2306818,0.4061999,-0.5781045,-0.7747886,0.3186161]],[[0.5780189,-0.5886836,0.6647048,-0.1913084,0.9235783,-0.9871182,-0.3626865,-0.4617063,-0.9009426,-0.1051215,0.8847179,0.2045592,0.8966148,0.369812,0.6351221,-0.9296815],[0.4627669,-0.4872929,0.5863426,0.395178,0.8061705,0.3099684,-0.07435405,0.3453295,0.4900758,0.5595891,-0.438301,-0.02655351,0.5637994,-0.8158083,-0.4138545,0.1802763],[-0.7800486,-0.2426957,-0.537291,0.246061,-0.2602357,0.4025511,-0.3278078,0.4550996,-0.9001806,-0.04232967,-0.1060635,-0.696811,0.8994286,0.006585717,0.3306336,-0.4920195],[-0.2171773,-0.8648841,0.4453499,0.3511634,-0.5221391,-0.5742176,-0.2117926,0.7957458,0.5477962,0.6606445,-0.42316,-0.2660939,0.0790385,0.3283796,0.7409678,0.4505412],[-0.2306818,0.4061999,-0.5781045,-0.7747886,0.3186161]],[[0.5780189,-0.5886836,0.6647048,-0.1913084,0.8417797,-0.9871182,-0.3626865,-0.4617063,-0.9009426,-0.1051215,0.8847179,0.2045592,0.8966148,0.369812,0.6351221,-0.9296815],[0.4627669,0.8530433,0.5863426,0.395178,0.8061705,0.3099684,-0.07435405,-0.8801703,0.4900758,0.5595891,-0.438301,-0.02655351,0.5637994,-0.8158083,-0.4138545,0.1802763],[-0.7800486,-0.2426957,-0.537291,0.246061,-0.2602357,0.4025511,-0.3278078,0.4550996,-0.9001806,0.4156415,-0.1060635,-0.696811,0.8994286,0.006585717,0.6729119,-0.4920195],[-0.2171773,0.6414249,0.4453499,0.3511634,-0.5221391,-0.5742176,-0.2117926,0.7369635,0.5477962,0.6606445,-0.42316,-0.2660939,0.0790385,-0.8220775,0.7409678,0.4505412],[-0.2306818,0.4061999,-0.5781045,-0.7747886,0.3186161]],[[0.5780189,-0.5886836,0.6647048,-0.1913084,0.9235783,-0.9871182,-0.3626865,-0.4617063,-0.6099436,-0.1051215,0.8847179,0.2045592,0.8966148,0.369812,0.1026617,-0.9296815],[-0.3348469,-0.4872929,0.5863426,0.395178,0.2226683,0.3099684,-0.1445745,-0.8801703,0.4900758,0.2556023,-0.438301,-0.02655351,0.5637994,0.9913788,-0.4138545,-0.04152668],[-0.7800486,-0.2426957,0.2141861,0.246061,-0.2602357,0.4025511,-0.4068624,0.4550996,-0.9001806,-0.04232967,0.3634338,-0.696811,0.8994286,0.006585717,0.6729119,-0.650434],[-0.5660698,-0.98177,0.4453499,0.3511634,-0.5221391,-0.5742176,0.5964456,0.7369635,-0.4508892,0.6606445,-0.42316,0.02592552,0.8140414,-0.8220775,-0.00790298,0.4505412],[-0.2306818,0.0277859,-0.9636509,-0.6430323,0.141683]],[[0.5780189,-0.5886836,0.6647048,-0.1913084,0.9235783,-0.9871182,-0.3626865,-0.4617063,-0.6099436,-0.1051215,0.8847179,0.2045592,0.8966148,0.369812,0.1026617,-0.9296815],[-0.3348469,-0.4872929,0.5863426,0.395178,0.2226683,0.3099684,-0.1445745,-0.8801703,0.4900758,0.2556023,-0.438301,-0.02655351,0.5637994,0.9913788,-0.4138545,-0.04152668],[-0.7800486,-0.2426957,0.2141861,0.246061,-0.2602357,0.4025511,-0.4068624,0.4550996,-0.9001806,-0.04232967,0.3634338,-0.696811,0.8994286,0.006585717,0.6729119,-0.650434],[-0.5981963,-0.98177,0.4453499,0.3511634,-0.5221391,-0.5742176,0.5964456,0.7369635,-0.4508892,0.6606445,-0.42316,0.02592552,0.8140414,-0.8220775,-0.00790298,0.4505412],[-0.2306818,0.0277859,-0.9636509,-0.6430323,0.141683]],[[0.5780189,-0.5886836,0.6647048,-0.1913084,0.9235783,-0.6764622,-0.3626865,-0.4617063,-0.9009426,-0.1051215,0.8847179,0.2045592,0.8966148,0.369812,0.4433582,-0.9296815],[0.4627669,-0.4872929,0.5863426,0.395178,0.8061705,0.3099684,-0.07435405,-0.8801703,0.4900758,0.5595891,-0.438301,-0.02655351,0.5637994,-0.8158083,-0.4138545,0.1802763],[-0.7800486,-0.2426957,-0.537291,0.246061,-0.2602357,0.4025511,-0.3278078,0.4550996,-0.9001806,-0.04232967,-0.1060635,-0.696811,0.8994286,0.006585717,0.6729119,-0.4920195],[-0.2171773,-0.6468313,0.4453499,0.3511634,-0.5221391,-0.5742176,-0.2117926,0.7369635,-0.4707762,0.6606445,-0.42316,-0.2660939,0.0790385,-0.8220775,0.7409678,0.4505412],[-0.2306818,0.4061999,-0.02776539,-0.7747886,0.3186161]],[[0.5780189,-0.5886836,0.6647048,-0.1913084,0.9235783,-0.9871182,-0.3626865,-0.4617063,-0.9009426,-0.1051215,0.8847179,0.2045592,0.3403618,0.369812,0.6351221,-0.9296815],