[[[-0.208871,0.4089689,0.5030487,0.2016629,0.7486746,0.1922413,0.5485742,-0.1610981,0.1557373,0.9370396,0.3057067,-0.7331796,0.7547507,0.4958231,-0.4257466,0.5509064],[-0.5901859,-0.6465049,-0.03320491,0.8131702,0.1027044,0.7919083,0.5525622,-0.6539428,0.6731606,0.7273195,-0.5992715,0.4730801,0.9777687,0.1360861,0.4335751,-0.3816828],[-0.09842956,0.006433845,-0.3135031]],[[-0.208871,0.4089689,0.5030487,0.2016629,0.7486746,0.1922413,0.5485742,-0.1610981,0.1557373,0.9370396,0.3057067,-0.7331796,0.7547507,0.4958231,-0.4257466,0.5509064],[-0.5901859,-0.6465049,-0.03320491,0.8131702,0.1027044,0.7919083,0.5525622,-0.6539428,0.6731606,0.7273195,-0.5992715,0.4730801,0.9777687,0.1360861,0.4335751,-0.3816828],[-0.09842956,0.006433845,-0.3135031]],[[-0.208871,0.4089689,0.4085607,0.2016629,0.7486746,0.1922413,0.5485742,-0.1610981,0.1557373,0.9370396,0.3057067,-0.7331796,0.7547507,0.4958231,-0.4257466,0.5509064],[-0.5901859,-0.6465049,-0.03320491,0.8131702,0.1027044,0.7919083,0.5525622,-0.0847069,0.6731606,0.1540619,0.01876414,0.4730801,0.9777687,0.1360861,0.4335751,-0.3816828],[-0.09842956,0.006433845,-0.3135031]],[[-0.208871,0.4089689,0.5030487,0.2016629,0.7486746,0.1922413,0.5485742,-0.1610981,0.1557373,0.9370396,0.3057067,-0.7331796,0.7547507,0.4784684,-0.4257466,0.5509064],[-0.5901859,-0.6465049,-0.03320491,0.8131702,0.1027044,0.7919083,0.5525622,-0.6539428,0.6731606,0.7273195,-0.5992715,0.4730801,0.9777687,0.1360861,0.4335751,-0.3816828],[-0.09842956,0.006433845,-0.3135031]],[[-0.208871,0.4089689,0.5030487,0.2016629,0.7486746,0.1922413,0.5485742,-0.1610981,0.1557373,0.9370396,0.3057067,-0.7331796,0.7547507,0.4784684,-0.4257466,0.5509064],[-0.5901859,-0.6465049,-0.03320491,0.8131702,0.1027044,0.7919083,0.5525622,-0.6539428,0.6731606,0.7273195,-0.5992715,0.4730801,0.9777687,0.1360861,0.4335751,-0.3816828],[-0.09842956,0.006433845,-0.3135031]],[[-0.208871,0.4089689,0.5030487,0.2016629,0.7486746,0.1922413,0.5485742,-0.1610981,0.1557373,0.9370396,0.3057067,-0.7331796,0.7547507,0.4958231,-0.4257466,0.5509064],[-0.5901859,-0.6465049,-0.03320491,0.8131702,0.1027044,0.7919083,0.5525622,0.2494925,0.6731606,-0.04526722,0.01876414,0.04761446,0.9777687,-0.740206,0.4335751,-0.3816828],[-0.09842956,0.006433845,-0.3135031]],[[-0.208871,0.4089689,0.4277749,0.2016629,0.7486746,0.1922413,0.5485742,-0.1610981,0.1557373,0.9370396,0.3057067,-0.7331796,0.7547507,0.4958231,-0.4257466,0.5509064],[-0.5901859,-0.6465049,-0.03320491,0.8131702,0.1027044,0.7919083,0.5525622,-0.6539428,0.6731606,0.7273195,-0.5992715,0.4730801,0.9777687,0.1360861,0.4335751,-0.3816828],[-0.09842956,0.006433845,-0.3435434]],[[-0.208871,0.4089689,0.4085607,0.2016629,0.7486746,0.1922413,0.5485742,-0.1610981,0.1557373,0.9370396,0.3057067,-0.7331796,0.7547507,0.4958231,-0.4257466,0.5509064],[-0.5901859,-0.6465049,-0.03320491,0.8131702,0.1027044,0.7919083,0.5525622,-0.0847069,0.6731606,0.1540619,0.01876414,0.4730801,0.9777687,0.1360861,0.4335751,-0.3816828],[-0.09842956,0.006433845,-0.3135031]],[[-0.208871,0.4089689,0.5030487,0.2016629,0.7486746,0.1922413,0.5485742,-0.1610981,0.1557373,0.9370396,0.3057067,-0.7331796,0.7547507,0.4958231,-0.4257466,0.5509064],[-0.5901859,-0.6465049,-0.03320491,0.8131702,0.1027044,0.7919083,0.5525622,-0.6539428,0.6731606,0.7273195,-0.5992715,0.4730801,0.9777687,0.1360861,0.4335751,-0.3816828],[-0.09842956,0.006433845,-0.3135031]],[[-0.208871,0.4089689,0.5030487,0.2016629,0.7486746,0.1922413,0.5485742,-0.4500138,-0.8221426,0.9370396,0.3057067,-0.7331796,0.7547507,0.4958231,-0.4257466,0.5509064],[-0.5901859,-0.6465049,-0.03320491,0.8131702,0.1027044,0.7919083,-0.1295849,-0.6539428,0.6731606,-0.04526722,0.01876414,0.4730801,0.3001823,0.1360861,0.4335751,-0.3816828],[-0.09842956,0.006433845,-0.3135031]],[[-0.208871,0.4089689,0.5030487,0.2016629,0.7486746,0.1922413,0.5485742,-0.1610981,0.1557373,0.9370396,0.3057067,-0.7331796,0.7547507,0.4958231,-0.4257466,0.5509064],[-0.5901859,-0.6465049,-0.03320491,0.8131702,0.1027044,0.7919083,0.5525622,-0.6539428,0.6731606,-0.04526722,-0.5992715,0.4730801,0.9777687,0.1360861,0.4335751,-0.3816828],[-0.09842956,0.006433845,-0.3135031]],[[-0.208871,0.4089689,0.5030487,0.2016629,0.7486746,0.1922413,0.5485742,-0.4500138,-0.8221426,0.9370396,0.3057067,-0.7331796,0.7547507,0.4958231,-0.4257466,0.5509064],[-0.5901859,-0.6465049,-0.03320491,0.8131702,0.1027044,0.7919083,-0.1295849,-0.6539428,0.6731606,-0.04526722,0.01876414,0.4730801,0.9777687,0.1360861,0.4335751,-0.3816828],[-0.09842956,0.006433845,-0.3135031]],[[-0.208871,0.4089689,0.4085607,0.2016629,0.7486746,0.1922413,0.5485742,-0.1610981,0.1557373,0.9370396,0.3057067,-0.7331796,0.7547507,0.4958231,-0.4257466,0.5509064],[-0.5901859,-0.6465049,-0.03320491,0.8131702,0.1027044,0.7919083,0.5525622,-0.0847069,0.6731606,0.1540619,0.01876414,0.4730801,0.9777687,0.1360861,0.4335751,-0.3816828],[-0.09842956,0.006433845,-0.3135031]],[[-0.208871,0.4089689,0.4085607,0.2016629,0.7486746,0.1922413,0.5485742,-0.1610981,0.1557373,0.9370396,0.3057067,-0.7331796,0.7547507,0.4958231,-0.4257466,0.5509064],[-0.5901859,-0.6465049,-0.03320491,0.8131702,0.1027044,0.7919083,0.5525622,-0.0847069,0.6731606,0.1540619,0.01876414,0.4730801,0.9777687,0.1360861,0.4335751,-0.3816828],[-0.09842956,0.006433845,-0.3135031]],[[-0.208871,0.4089689,0.5030487,0.2016629,0.7486746,0.1922413,0.5485742,-0.1610981,0.1557373,0.9370396,0.3057067,-0.7331796,0.7547507,0.4784684,-0.4257466,0.5509064],[-0.5901859,-0.6465049,-0.03320491,0.8131702,0.1027044,0.7919083,0.5525622,-0.6539428,0.6731606,0.7273195,-0.5992715,0.4730801,0.9777687,0.1360861,0.4335751,-0.3816828],[-0.09842956,0.006433845,-0.3135031]],[[-0.208871,0.4089689,0.5030487,0.2016629,0.7486746,0.1922413,0.5485742,-0.1610981,0.1557373,0.9370396,0.3057067,-0.7331796,0.7547507,0.4958231,-0.4257466,0.5509064],[-0.5901859,-0.6465049,-0.03320491,0.8131702,0.1027044,0.7919083,0.5525622,-0.6539428,0.6731606,-0.04526722,-0.5992715,0.4730801,0.9777687,0.1360861,0.4335751,-0.3816828],[-0.09842956,0.006433845,-0.3135031]],[[-0.208871,0.4089689,0.5030487,0.2016629,0.7486746,0.1922413,0.5485742,-0.1610981,0.1557373,0.9370396,0.3057067,-0.7331796,0.7547507,0.4958231,-0.4257466,0.5509064],[-0.5901859,-0.6465049,-0.03320491,0.8131702,0.1027044,0.7919083,0.5525622,-0.6539428,0.6731606,-0.04526722,0.01876414,0.4730801,0.9777687,0.1360861,0.4335751,-0.3816828],[-0.09842956,0.006433845,-0.3135031]],[[-0.208871,0.4089689,0.5030487,0.2016629,0.7486746,0.1922413,0.5485742,-0.1610981,0.1557373,0.9370396,0.3057067,-0.7331796,0.7547507,0.4958231,-0.4257466,0.5509064],[-0.5901859,-0.6465049,-0.03320491,0.8131702,0.1027044,0.7919083,0.5525622,-0.6539428,0.4260034,-0.04526722,-0.5992715,0.4730801,0.9777687,0.1360861,0.4335751,-0.3816828],[-0.09842956,0.006433845,-0.3135031]],[[-0.208871,0.4089689,0.5030487,0.2016629,0.7486746,0.1922413,0.5485742,-0.1610981,0.1557373,0.9370396,0.3057067,-0.7331796,0.7547507,0.4958231,-0.4257466,0.5509064],[-0.5901859,-0.6465049,-0.03320491,0.8131702,0.1027044,0.7919083,0.5525622,-0.0847069,0.6731606,-0.04526722,0.01876414,0.4730801,0.9777687,0.1360861,0.4335751,-0.3816828],[-0.09842956,0.006433845,-0.3135031]],[[-0.208871,0.4089689,0.4085607,0.2016629,0.7486746,0.1922413,0.5485742,-0.1610981,0.1557373,0.9370396,0.3057067,-0.7331796,0.7547507,0.4958231,-0.4257466,0.5509064],[-0.5901859,-0.6465049,-0.03320491,0.8131702,0.1027044,0.7919083,0.5525622,-0.0847069,0.6731606,0.1540619,0.01876414,0.4730801,0.9777687,0.1360861,0.4335751,-0.3816828],[-0.09842956,0.006433845,-0.3135031]],[[-0.208871,0.4089689,0.5030487,0.2016629,0.7486746,0.1922413,0.5485742,-0.1610981,0.1557373,0.9370396,0.3057067,-0.7331796,0.7547507,0.4784684,-0.4257466,0.5509064],[-0.5901859,-0.6465049,-0.03320491,0.8131702,0.1027044,0.7919083,0.5525622,-0.6539428,0.6731606,0.7273195,-0.5992715,0.4730801,0.9777687,0.1360861,0.4335751,-0.3816828],[-0.09842956,0.006433845,-0.3135031]],[[-0.208871,0.4089689,0.5030487,0.2016629,0.7486746,0.1922413,0.5485742,-0.1610981,0.1557373,0.9370396,0.3057067,-0.7331796,0.7547507,0.4958231,-0.4257466,0.5509064],[-0.3366717,-0.6465049,-0.5522091,0.8131702,0.1027044,0.7919083,0.5525622,-0.6539428,0.6731606,-0.04526722,-0.5992715,0.4730801,0.9777687,0.1360861,0.4335751,-0.3816828],[-0.09842956,0.006433845,-0.3135031]],[[-0.208871,0.4089689,0.5030487,0.2016629,0.7486746,0.1922413,0.5485742,-0.1610981,0.1557373,0.9370396,0.1430238,-0.7331796,0.7547507,0.4958231,-0.4257466,0.5509064],[-0.5901859,-0.6465049,-0.03320491,0.8131702,0.1027044,0.7919083,0.5525622,-0.6539428,0.6731606,-0.04526722,0.01876414,0.4730801,0.9777687,0.1360861,0.4335751,-0.3816828],[-0.09842956,0.006433845,-0.3135031]],[[-0.208871,0.4089689,0.5030487,0.2016629,0.7486746,0.1922413,0.5485742,-0.1610981,0.1557373,0.9370396,0.3057067,-0.7331796,0.7547507,0.4958231,-0.4257466,0.5509064],[-0.5901859,-0.6465049,-0.03320491,0.8131702,0.1027044,0.7919083,0.5525622,0.2494925,0.6731606,-0.04526722,0.01876414,0.04761446,0.9777687,-0.740206,0.4335751,-0.3816828],[-0.09842956,0.006433845,-0.3135031]],[[-0.208871,0.4089689,0.5030487,0.2016629,0.7486746,0.1922413,0.5485742,-0.1610981,0.1557373,0.9370396,0.1430238,-0.7331796,0.7547507,0.4958231,-0.4257466,0.5509064],[-0.5901859,-0.6465049,-0.03320491,0.8131702,0.1027044,0.7919083,0.5525622,-0.6539428,0.6731606,-0.04526722,0.01876414,0.4730801,0.9777687,0.1360861,0.4335751,-0.3816828],[-0.09842956,0.006433845,-0.3135031]],[[-0.208871,0.4089689,0.5030487,0.2016629,0.7486746,0.1922413,0.5485742,-0.1610981,0.1557373,0.9370396,0.3057067,-0.7331796,0.7547507,0.7445805,-0.4257466,0.5509064],[-0.5901859,-0.1221367,-0.5522091,0.8131702,0.1027044,0.7919083,0.5525622,-0.6539428,0.6731606,-0.04526722,-0.5992715,0.4730801,0.9777687,0.1360861,0.4335751,-0.3816828],[-0.09842956,0.006433845,-0.3135031]],[[-0.208871,0.4089689,0.5030487,0.2016629,0.7486746,0.1922413,0.5485742,-0.1610981,0.1557373,0.9370396,0.3057067,-0.7331796,0.7547507,0.4784684,-0.4257466,0.5509064],[-0.5901859,-0.6465049,-0.03320491,0.8131702,0.1027044,0.7919083,0.5525622,-0.6539428,0.6731606,0.7273195,-0.5992715,0.4730801,0.9777687,0.1360861,0.4335751,-0.3816828],[-0.09842956,0.006433845,-0.3135031]],[[-0.208871,0.4089689,0.5030487,0.2016629,0.7486746,0.1922413,0.5485742,-0.1610981,0.1557373,0.9370396,0.3057067,-0.7331796,0.7547507,0.4958231,-0.4257466,0.5509064],[-0.5901859,-0.6465049,-0.03320491,0.8131702,0.1027044,0.7919083,0.5525622,-0.6539428,0.6731606,-0.04526722,0.01876414,0.4730801,0.9777687,0.1360861,0.4335751,-0.3816828],[-0.09842956,0.006433845,-0.3135031]],[[-0.208871,0.4089689,0.5030487,0.2016629,0.7486746,0.1922413,0.5485742,-0.1610981,0.1557373,0.9370396,0.3057067,-0.7331796,0.7547507,0.4958231,-0.4257466,0.5509064],[-0.5901859,-0.6465049,-0.03320491,0.8131702,0.1027044,0.7919083,0.5525622,-0.6539428,0.6731606,-0.04526722,-0.5992715,0.4730801,0.9777687,0.1360861,0.4335751,-0.3816828],[-0.09842956,0.006433845,-0.3135031]],[[-0.208871,0.4089689,0.5030487,0.2016629,0.7486746,0.1922413,0.5485742,-0.1610981,0.1557373,0.9370396,0.3057067,-0.7331796,0.7547507,0.4958231,-0.4257466,0.5509064],[-0.5901859,-0.6465049,-0.03320491,0.8131702,0.1027044,0.7919083,0.5525622,-0.0847069,0.6731606,-0.04526722,0.01876414,0.4730801,0.9777687,0.1360861,0.4335751,-0.3816828],[-0.09842956,0.006433845,-0.3135031]],[[-0.208871,0.4089689,0.5030487,0.2016629,0.7486746,0.1922413,0.5485742,-0.1610981,0.1557373,0.9370396,0.3057067,-0.7331796,0.7547507,0.4958231,-0.4257466,0.5509064],[-0.5901859,-0.6465049,-0.03320491,0.8131702,0.1027044,0.7919083,0.5525622,-0.6539428,0.6731606,0.7273195,-0.5992715,0.4730801,0.9777687,0.1360861,0.4335751,-0.3816828],[-0.09842956,0.006433845,-0.3135031]],[[-0.208871,0.4089689,0.5030487,0.2016629,0.7486746,0.1922413,0.5485742,-0.1610981,0.1557373,0.9370396,0.3057067,-0.7331796,0.7547507,0.4958231,-0.4257466,0.5509064],[-0.5901859,-0.1221367,-0.5522091,0.8131702,0.1027044,0.7919083,0.5525622,-0.6539428,0.6731606,-0.04526722,-0.5992715,0.4730801,0.9777687,0.1360861,0.4335751,-0.3816828],[-0.09842956,0.006433845,-0.3135031]],[[-0.208871,0.4089689,0.5030487,0.2016629,0.7486746,0.1922413,0.5485742,-0.1610981,-0.425213,0.9370396,0.3057067,-0.7331796,0.7547507,0.4958231,-0.4257466,0.5509064],[-0.5901859,-0.6465049,-0.03320491,0.8131702,0.1027044,0.7919083,0.5525622,-0.6539428,0.6731606,-0.04526722,0.01876414,-0.4094905,0.9777687,0.1360861,0.4335751,-0.3816828],[-0.09842956,0.006433845,-0.3135031]],[[-0.208871,0.4089689,0.5030487,0.2016629,0.7486746,0.1922413,0.5485742,-0.1610981,0.1557373,0.9370396,0.3057067,-0.7331796,0.7547507,0.4784684,-0.4257466,0.5509064],[-0.5901859,-0.6465049,-0.03320491,0.8131702,0.1027044,0.7919083,0.5525622,-0.6539428,0.6731606,0.7273195,-0.5992715,0.4730801,0.9777687,0.1360861,0.4335751,-0.3816828],[-0.09842956,0.006433845,-0.3135031]],[[-0.208871,0.4089689,0.5030487,0.2016629,0.7486746,0.1922413,0.5485742,-0.1610981,0.1557373,0.9370396,0.3057067,-0.7331796,0.7547507,0.4958231,-0.4257466,0.5509064],[-0.5901859,-0.6465049,-0.03320491,0.8131702,0.1027044,0.7919083,0.5525622,-0.6539428,0.6731606,-0.04526722,-0.5992715,0.4730801,0.9777687,0.1360861,0.4335751,-0.3816828],[-0.09842956,0.006433845,-0.3135031]],[[-0.208871,0.4089689,0.5030487,0.2016629,0.7486746,0.1922413,0.5485742,-0.1610981,0.1557373,0.9370396,0.3057067,-0.7331796,0.7547507,-0.5448275,-0.4257466,0.5509064],[-0.5901859,-0.1221367,-0.5522091,0.8131702,0.1027044,0.7919083,0.5525622,0.9959624,0.6731606,-0.04526722,-0.5992715,0.4730801,0.9777687,0.1360861,0.4335751,-0.3816828],[-0.09842956,0.006433845,-0.3135031]],[[-0.208871,0.4089689,0.5030487,0.2016629,0.7486746,0.1922413,0.5485742,-0.1610981,0.1557373,0.9370396,0.3057067,-0.7331796,0.7547507,0.4958231,-0.4257466,0.5509064],[-0.5901859,-0.6465049,-0.03320491,0.392972,0.1027044,0.7919083,0.5525622,-0.6539428,0.6731606,-0.04526722,-0.5992715,0.4730801,0.9777687,0.1360861,0.4335751,-0.3816828],[-0.09842956,0.006433845,-0.3135031]],[[-0.208871,0.4089689,0.5030487,0.2016629,0.7486746,0.1922413,0.5485742,-0.1610981,0.1557373,0.9370396,0.3057067,-0.7331796,0.7547507,0.4958231,-0.4257466,0.5509064],[-0.5901859,-0.6465049,-0.03320491,0.8131702,0.1027044,0.7919083,0.5525622,-0.6539428,0.6731606,0.7273195,-0.5992715,0.4730801,0.9777687,0.1360861,0.4335751,-0.3816828],[-0.09842956,0.006433845,-0.3135031]],[[-0.208871,0.4089689,0.5030487,0.2016629,0.7486746,0.1922413,0.5485742,-0.1610981,-0.9463556,0.9370396,0.3057067,-0.7331796,0.7547507,0.4958231,-0.4257466,0.5509064],[-0.5901859,-0.6465049,-0.03320491,0.8131702,0.1027044,0.7919083,0.5525622,-0.6539428,0.6731606,0.7273195,-0.5992715,0.4730801,0.9777687,0.1360861,0.4335751,-0.3816828],[-0.09842956,0.006433845,-0.3135031]],[[-0.208871,0.4089689,0.5030487,0.2016629,0.7486746,0.1922413,0.5485742,-0.1610981,0.1557373,0.9370396,0.3057067,-0.7331796,0.7547507,0.4958231,-0.4257466,0.5509064],[-0.5901859,-0.6465049,-0.03320491,0.8131702,0.1027044,0.7919083,0.5525622,-0.0847069,0.6731606,0.1540619,0.01876414,0.4730801,0.9777687,0.1360861,0.4335751,-0.3816828],[-0.09842956,0.006433845,-0.3135031]],[[-0.208871,0.4089689,0.5030487,0.2016629,0.7486746,0.1922413,0.5485742,-0.1610981,0.01929438,0.9370396,0.3057067,-0.7331796,0.7547507,0.4958231,-0.4257466,0.5509064],[-0.5901859,-0.6465049,-0.03320491,0.8131702,0.1027044,0.7919083,0.5525622,-0.6539428,0.6731606,-0.04526722,-0.5992715,0.4730801,0.9777687,0.1360861,0.4335751,-0.3816828],[-0.09842956,0.006433845,-0.9865184]],[[-0.208871,0.4089689,0.5030487,0.2016629,0.7486746,0.1922413,0.5485742,-0.4500138,-0.8221426,0.9370396,0.3057067,-0.7331796,0.7547507,0.4958231,-0.4257466,0.5509064],[-0.5901859,-0.6465049,-0.03320491,0.8131702,0.1027044,0.7919083,-0.1295849,-0.6539428,0.6731606,-0.04526722,0.01876414,0.4730801,0.9777687,0.1360861,0.4335751,-0.3816828],[-0.09842956,0.006433845,-0.3135031]],[[-0.208871,0.4089689,0.5030487,0.2016629,0.7486746,0.1922413,0.5485742,-0.1610981,0.1557373,0.9370396,0.3057067,-0.7331796,0.7547507,0.4958231,-0.4257466,0.5509064],[-0.5901859,-0.6465049,-0.03320491,0.8131702,0.1027044,0.7919083,0.5525622,-0.6539428,0.6731606,0.7273195,-0.5992715,0.4730801,0.9777687,0.1360861,0.4335751,-0.3816828],[-0.09842956,0.006433845,-0.3135031]],[[-0.208871,0.4089689,0.5030487,0.2016629,0.7486746,0.1922413,0.5485742,-0.1610981,0.1557373,0.9370396,0.3057067,-0.7331796,0.7547507,0.4958231,-0.4257466,0.5509064],[-0.3366717,-0.6465049,-0.5522091,0.8131702,0.1027044,0.7919083,0.5525622,-0.6539428,0.6731606,-0.04526722,-0.5992715,0.4730801,0.9777687,0.1360861,0.4335751,-0.3816828],[-0.09842956,0.006433845,-0.3135031]],[[-0.208871,0.4089689,0.5030487,0.2016629,0.7486746,0.1922413,0.5485742,-0.1610981,0.1557373,0.9370396,0.3057067,-0.7331796,0.7547507,0.4958231,-0.4257466,0.5509064],[-0.5901859,-0.6465049,-0.03320491,0.8131702,0.1027044,0.7919083,0.5525622,-0.6539428,0.6731606,-0.04526722,-0.5992715,0.4730801,0.9777687,0.1360861,0.4335751,-0.3816828],[-0.09842956,0.006433845,-0.3135031]],[[-0.208871,0.4089689,0.5030487,0.2016629,0.7486746,0.1922413,0.5485742,-0.1610981,0.1557373,0.9370396,0.3057067,-0.7331796,0.7547507,0.4958231,-0.4257466,0.5509064],[-0.5901859,-0.6465049,-0.5522091,0.8131702,0.1027044,0.7919083,0.5525622,-0.6539428,0.6731606,-0.04526722,-0.5992715,0.4730801,0.9777687,0.1360861,0.4335751,-0.3816828],[-0.09842956,0.006433845,-0.3135031]],[[-0.208871,0.4089689,0.5030487,0.2016629,0.7486746,0.1922413,0.5485742,-0.1610981,0.1557373,0.9370396,0.3057067,-0.7331796,0.7547507,0.4958231,-0.4257466,0.5509064],[-0.5901859,-0.6465049,-0.03320491,0.8131702,0.1027044,0.7919083,0.5525622,-0.0847069,0.6731606,-0.04526722,0.01876414,0.4730801,0.9777687,-0.7846792,0.4335751,-0.3816828],[-0.09842956,0.006433845,-0.3135031]],[[-0.208871,0.4089689,0.5030487,0.2016629,0.7486746,0.1922413,0.5485742,-0.1610981,0.1557373,0.9370396,0.3057067,-0.7331796,0.7547507,0.4958231,-0.4257466,0.5509064],[-0.5901859,-0.6465049,-0.03320491,0.8131702,0.1027044,0.7919083,0.5525622,-0.6539428,0.6731606,-0.04526722,-0.5992715,0.4730801,0.9777687,0.1360861,0.4335751,-0.3816828],[-0.09842956,0.006433845,-0.3135031]],[[-0.208871,0.4089689,0.5030487,0.2016629,0.7486746,0.1922413,0.5485742,-0.1610981,0.1557373,0.9370396,0.3057067,-0.7331796,0.7547507,0.4958231,-0.4257466,0.5509064],[-0.5901859,-0.6465049,-0.03320491,0.8131702,0.1027044,0.7919083,0.5525622,0.2494925,0.6731606,-0.04526722,0.01876414,0.04761446,0.9777687,-0.740206,0.4335751,-0.3816828],[-0.09842956,0.006433845,-0.3135031]],[[-0.208871,0.4089689,0.5030487,0.2016629,0.7486746,0.1922413,0.5485742,-0.1610981,0.1557373,0.9370396,0.3057067,-0.7331796,0.7547507,0.4958231,-0.4257466,0.5509064],[-0.5901859,-0.6465049,-0.03320491,0.8131702,0.1027044,0.7919083,0.5525622,-0.6539428,0.6731606,-0.04526722,0.01876414,0.4730801,0.9777687,0.1360861,0.4335751,-0.3816828],[-0.09842956,0.006433845,-0.3135031]],[[-0.208871,0.4089689,0.5030487,0.2016629,0.7486746,0.1922413,0.5485742,-0.1610981,0.1557373,0.9370396,0.3057067,-0.7331796,0.7547507,0.4784684,-0.4257466,0.5509064],[-0.5901859,-0.6465049,-0.03320491,0.8131702,0.1027044,0.7919083,0.5525622,-0.6539428,0.6731606,0.7273195,-0.5992715,0.4730801,0.9777687,0.1360861,0.4335751,-0.3816828],[-0.09842956,0.006433845,-0.3135031]],[[-0.208871,0.4089689,0.5030487,0.2016629,0.7486746,0.1922413,0.5485742,-0.1610981,0.1557373,0.9370396,0.3057067,-0.7331796,0.7547507,0.4958231,-0.4257466,0.5509064],[-0.5901859,-0.6465049,-0.03320491,0.8131702,0.1027044,0.7919083,0.5525622,0.2494925,0.6731606,-0.04526722,0.01876414,0.4730801,0.9777687,-0.740206,0.4335751,-0.3816828],[-0.09842956,0.006433845,-0.3135031]],[[-0.208871,0.4089689,0.5030487,0.2016629,0.7486746,0.1922413,0.5485742,-0.1610981,0.1557373,0.9370396,0.3057067,-0.7331796,0.7547507,0.4958231,-0.4257466,0.5509064],[-0.5901859,-0.6465049,-0.03320491,0.8131702,0.1027044,0.7919083,0.5525622,-0.6539428,0.6731606,-0.04526722,0.01876414,0.4730801,-0.0386802,0.1360861,0.4335751,-0.3816828],[-0.09842956,0.006433845,-0.3135031]],[[-0.208871,0.4089689,0.5030487,0.2016629,0.7486746,0.1922413,0.5485742,-0.1610981,0.1557373,0.9370396,0.3057067,-0.7331796,0.7547507,0.4784684,-0.4257466,0.5509064],[-0.5901859,-0.6465049,-0.03320491,0.8131702,0.1027044,0.7919083,0.5525622,-0.6539428,0.6731606,0.7273195,-0.5992715,0.4730801,0.9777687,0.1360861,0.3176803,-0.3816828],[-0.09842956,0.006433845,-0.3135031]],[[-0.208871,0.4089689,0.5030487,0.2016629,0.7486746,0.1922413,0.5485742,-0.4500138,-0.8221426,0.9370396,0.3057067,-0.7331796,0.7547507,0.4958231,-0.4257466,0.5509064],[-0.5901859,-0.6465049,-0.03320491,0.8131702,0.1027044,0.7919083,-0.1295849,-0.6539428,0.6731606,-0.04526722,0.01876414,0.4730801,0.9777687,0.1360861,0.4335751,-0.3816828],[-0.09842956,0.006433845,-0.3135031]],[[-0.208871,0.4089689,0.5030487,0.2016629,0.7486746,0.1922413,0.5485742,-0.1610981,0.1557373,0.9370396,0.3057067,-0.7331796,0.7547507,0.4958231,-0.4257466,0.5509064],[-0.5901859,-0.6465049,-0.03320491,0.8131702,0.1027044,0.7919083,0.5525622,-0.6539428,0.6731606,0.7273195,-0.5992715,0.4730801,0.9777687,0.1360861,0.4335751,-0.3816828],[-0.09842956,0.006433845,-0.3135031]],[[-0.208871,0.4089689,0.5030487,0.2016629,0.7486746,0.1922413,0.5485742,-0.1610981,0.1557373,0.9370396,0.3057067,-0.7331796,0.7547507,0.4958231,-0.4257466,0.5509064],[-0.5901859,-0.6465049,-0.03320491,0.8131702,0.1027044,0.7919083,0.5525622,-0.6539428,0.6731606,-0.04526722,0.01876414,0.4730801,0.9777687,0.1360861,0.4335751,-0.3816828],[-0.09842956,0.006433845,-0.3135031]],[[0.4122631,0.4089689,0.5030487,0.2016629,0.07438719,0.1922413,0.5485742,-0.1610981,0.1557373,0.9370396,0.3057067,-0.7331796,0.7547507,0.4958231,-0.4257466,0.5509064],[-0.5901859,-0.6465049,-0.03320491,0.8131702,0.1027044,0.7919083,0.5525622,-0.6539428,0.6731606,-0.04526722,-0.5992715,0.4730801,0.9777687,0.1360861,0.4335751,-0.3816828],[-0.09842956,0.006433845,-0.3135031]],[[-0.208871,0.4089689,0.5030487,0.2016629,0.7486746,0.1922413,0.5485742,-0.1610981,-0.9463556,0.9370396,0.3057067,-0.7331796,0.7547507,0.4958231,-0.4257466,0.5509064],[-0.5901859,-0.6465049,-0.03320491,0.8131702,0.1027044,0.7919083,0.5525622,-0.6539428,0.6731606,0.7273195,-0.5992715,0.4730801,0.9777687,0.1360861,0.4335751,-0.3816828],[-0.09842956,0.006433845,-0.3135031]],[[-0.208871,0.4089689,0.5030487,0.2016629,0.7486746,0.1922413,0.6167083,-0.1610981,0.1557373,0.9370396,0.3057067,-0.7331796,0.7547507,-0.5448275,-0.4257466,0.5509064],[-0.5901859,-0.1221367,-0.5522091,0.8131702,0.1027044,0.7919083,0.5525622,0.9959624,0.6731606,-0.04526722,-0.5992715,0.4730801,0.9777687,0.1360861,0.4335751,-0.3816828],[-0.09842956,0.006433845,-0.3135031]],[[-0.208871,0.4089689,0.4085607,0.2016629,0.7486746,0.1922413,0.5485742,-0.1610981,0.1557373,0.9370396,0.3057067,-0.7331796,0.7547507,0.4958231,-0.4257466,0.5509064],[-0.5901859,-0.6465049,-0.03320491,0.8131702,0.1027044,0.7919083,0.5525622,-0.0847069,0.6731606,0.1540619,0.01876414,0.4730801,0.9777687,0.1360861,0.4335751,-0.3816828],[-0.09842956,0.006433845,-0.3135031]],[[-0.208871,0.4089689,0.5030487,0.2016629,0.7486746,0.1922413,0.5485742,-0.1610981,0.1557373,0.9370396,0.3057067,-0.7331796,0.7547507,0.4958231,-0.4257466,0.5509064],[-0.5901859,-0.6465049,-0.03320491,0.8131702,0.1027044,0.7919083,0.5525622,-0.6539428,0.6731606,0.7273195,-0.5992715,0.4730801,0.9777687,0.1360861,0.4335751,-0.3816828],[-0.09842956,0.006433845,-0.3135031]],[[-0.208871,0.4089689,0.5030487,0.2016629,0.7486746,0.1922413,0.6551032,-0.1610981,0.1557373,0.9370396,0.3057067,-0.7331796,0.7547507,0.4784684,-0.4257466,0.5509064],[-0.5901859,-0.7045736,-0.03320491,0.8131702,0.1027044,0.7919083,0.5525622,-0.6539428,0.6731606,0.7273195,-0.5992715,0.4730801,0.9777687,0.1360861,0.4335751,-0.3816828],[-0.09842956,0.006433845,-0.3135031]],[[-0.208871,0.4089689,0.5030487,0.2016629,0.7486746,0.1922413,0.5485742,-0.1610981,0.1557373,0.9370396,0.3057067,-0.7331796,0.7547507,0.4958231,-0.4257466,0.5509064],[-0.5901859,-0.6465049,-0.03320491,0.8131702,0.1027044,0.7919083,0.5525622,-0.0847069,0.6731606,-0.04526722,0.01876414,0.4730801,0.9777687,0.1360861,0.4335751,-0.3816828],[-0.09842956,0.006433845,-0.3135031]],[[-0.208871,0.4089689,0.5030487,0.2016629,0.7486746,0.1922413,0.5485742,-0.1610981,0.1557373,0.9370396,0.3057067,-0.7331796,0.7547507,0.4958231,-0.4257466,0.5509064],[-0.5901859,-0.6465049,-0.03320491,0.8131702,0.1027044,0.7919083,0.5525622,-0.6539428,0.6731606,0.7273195,-0.5992715,0.4730801,0.9777687,0.1360861,0.4335751,-0.3816828],[-0.09842956,0.006433845,-0.3135031]],[[-0.208871,0.4089689,0.5030487,0.2016629,0.7486746,0.1922413,0.5485742,-0.1610981,0.1557373,0.9370396,0.3057067,-0.7331796,0.7547507,0.4958231,-0.4257466,0.5509064],[-0.5901859,-0.6465049,-0.03320491,0.8131702,0.1027044,0.7919083,0.5525622,-0.6539428,0.6731606,0.7273195,-0.5992715,0.4730801,0.9777687,0.1360861,0.4335751,-0.3816828],[-0.09842956,0.006433845,-0.3135031]],[[-0.208871,0.4089689,0.5030487,0.2016629,0.7486746,0.1922413,0.5485742,-0.1610981,0.1557373,0.9370396,0.3057067,-0.7331796,0.7547507,0.4958231,-0.4257466,0.5509064],[-0.5901859,-0.6465049,-0.03320491,0.8131702,0.1027044,0.7919083,0.5525622,-0.6539428,0.6731606,-0.04526722,-0.5992715,0.4730801,0.9777687,0.1360861,0.4335751,-0.3816828],[-0.09842956,0.006433845,-0.3135031]],[[-0.208871,0.4089689,0.5030487,0.2016629,0.7486746,0.1922413,0.5485742,-0.1610981,0.1557373,0.9370396,0.3057067,-0.7331796,0.7547507,0.4958231,-0.4257466,0.5509064],[-0.5901859,-0.6465049,-0.03320491,0.8131702,0.1027044,0.05130231,0.5525622,-0.6539428,0.6731606,0.7273195,-0.5992715,0.4730801,0.9777687,0.1360861,0.4335751,-0.3816828],[-0.6135187,0.006433845,-0.3135031]],[[-0.208871,0.4089689,0.5030487,0.2016629,0.7486746,0.1922413,0.5485742,-0.1610981,0.1557373,0.9370396,0.3057067,-0.7331796,0.7547507,0.4958231,-0.4257466,0.5509064],[-0.5901859,-0.6465049,-0.03320491,0.8131702,0.1027044,0.7919083,0.5525622,-0.6539428,0.6731606,0.7273195,-0.5992715,0.4730801,0.9777687,0.1360861,0.4335751,-0.3816828],[0.3657608,0.006433845,-0.3135031]],[[-0.208871,0.4089689,0.5030487,0.2016629,0.7486746,0.1922413,0.5485742,-0.1610981,0.1557373,0.9370396,0.3057067,-0.7331796,0.7547507,0.4958231,-0.4257466,0.5509064],[-0.5901859,-0.6465049,-0.03320491,0.8131702,0.1027044,0.7919083,0.5525622,-0.6539428,0.6731606,0.7273195,-0.5992715,0.4730801,0.9777687,0.1360861,0.4335751,-0.3816828],[-0.09842956,0.006433845,-0.3135031]],[[-0.208871,0.4089689,0.5030487,0.2016629,0.7486746,0.1922413,0.5485742,-0.1610981,0.1557373,0.9370396,0.3057067,-0.7331796,0.7547507,0.4958231,-0.4257466,0.5509064],[-0.5901859,-0.6465049,-0.03320491,0.8131702,0.1027044,-0.1425251,0.5525622,-0.119625,0.6731606,0.7273195,-0.5992715,0.4730801,0.9777687,0.1360861,0.4335751,-0.3816828],[-0.09842956,0.006433845,-0.3135031]],[[-0.208871,0.4089689,0.5030487,0.2016629,0.7486746,0.1922413,0.5485742,-0.1610981,0.1557373,0.9370396,0.3057067,-0.7331796,0.7547507,0.4958231,-0.4257466,0.5509064],[-0.3366717,-0.6465049,-0.5522091,0.9559331,0.1027044,0.7919083,0.5525622,-0.6539428,0.6731606,-0.04526722,-0.5992715,0.4730801,0.9777687,0.1360861,0.4335751,-0.3816828],[-0.09842956,0.006433845,-0.3135031]],[[-0.208871,0.4089689,0.5030487,0.2016629,0.7486746,0.1922413,0.5485742,-0.1610981,0.1557373,0.9370396,0.3057067,-0.7331796,0.7547507,0.4958231,-0.4257466,0.5509064],[-0.5901859,-0.6465049,-0.03320491,0.8131702,0.1027044,0.7919083,0.2920165,0.8262885,0.6731606,-0.441274,-0.5992715,0.4730801,0.9777687,0.1360861,0.4335751,-0.3816828],[-0.09842956,0.006433845,-0.3135031]],[[-0.208871,0.4089689,0.5030487,0.2016629,0.7486746,0.1922413,0.5485742,-0.1610981,0.1557373,0.9370396,0.3057067,-0.7331796,0.7547507,0.4958231,-0.4257466,0.5509064],[-0.5901859,-0.6465049,-0.03320491,0.8131702,0.1027044,0.7919083,0.5525622,-0.7549107,0.6731606,0.7273195,-0.5992715,0.4730801,0.9777687,0.1360861,0.4335751,-0.3816828],[-0.09842956,0.006433845,-0.3135031]],[[-0.208871,0.4089689,0.5030487,0.2016629,0.7486746,0.1922413,0.5485742,-0.1610981,0.1557373,0.9370396,0.3057067,-0.7331796,0.7547507,0.4784684,-0.4257466,0.5509064],[-0.5901859,-0.6465049,-0.03320491,0.8131702,0.1027044,0.7919083,0.5525622,-0.6539428,0.6731606,0.7273195,-0.5992715,0.4730801,0.9777687,0.1360861,0.4335751,-0.3816828],[-0.09842956,0.006433845,-0.3135031]],[[-0.208871,0.4089689,0.5030487,0.2016629,0.7486746,0.1922413,0.5485742,-0.1610981,0.1557373,0.9370396,0.3057067,-0.7331796,0.7547507,0.4958231,-0.4257466,0.5509064],[-0.5901859,-0.6465049,-0.03320491,0.8131702,0.1027044,0.7919083,0.5525622,-0.6539428,0.6731606,0.7273195,-0.5992715,0.4730801,0.9777687,0.1360861,0.4335751,-0.3816828],[-0.09842956,0.006433845,-0.3135031]],[[-0.208871,0.4089689,0.5030487,0.2016629,0.7486746,-0.04781044,0.5485742,-0.4500138,-0.8221426,0.9370396,0.3057067,-0.7331796,0.7547507,0.4958231,-0.4257466,0.5509064],[-0.5901859,-0.6465049,-0.03320491,0.8131702,0.1027044,0.7919083,-0.1295849,-0.6539428,0.6731606,-0.04526722,0.01876414,0.4730801,0.9777687,0.1360861,0.4335751,-0.3816828],[-0.09842956,0.006433845,-0.3135031]],[[-0.208871,0.4089689,0.5030487,0.2016629,0.7486746,0.1922413,0.5485742,-0.1610981,0.1557373,0.9370396,0.3057067,-0.7331796,0.7547507,0.4958231,-0.4257466,0.5509064],[-0.5901859,-0.6465049,-0.03320491,0.8131702,0.1027044,0.7919083,0.5525622,-0.6539428,0.6731606,0.7273195,-0.5992715,0.4730801,0.9777687,0.1360861,0.4335751,-0.3816828],[-0.09842956,0.006433845,-0.3135031]],[[-0.208871,0.4089689,0.4277749,0.2016629,0.7486746,0.1922413,0.5485742,-0.1610981,0.1557373,0.9370396,0.3057067,-0.7331796,0.7547507,0.4958231,-0.4257466,0.5509064],[-0.5901859,-0.6465049,-0.03320491,0.8131702,0.1027044,0.7919083,0.5525622,-0.6539428,0.6731606,0.7273195,-0.5992715,0.4730801,0.9777687,0.1360861,0.4335751,-0.3816828],[-0.09842956,0.006433845,-0.3435434]],[[-0.208871,0.4089689,0.5030487,0.2016629,0.7486746,0.1922413,0.5485742,-0.1610981,0.1557373,0.9370396,0.3057067,-0.7331796,0.7547507,0.4958231,-0.4257466,0.5509064],[-0.5901859,-0.6465049,-0.03320491,0.8131702,0.1027044,0.7919083,0.5525622,-0.6539428,0.6731606,-0.04526722,-0.5992715,0.4730801,0.9777687,0.1360861,0.4335751,-0.3816828],[-0.09842956,0.006433845,-0.3135031]],[[-0.208871,0.4089689,0.4085607,0.2016629,0.7486746,0.1922413,0.5485742,-0.1610981,0.1557373,0.9370396,0.3057067,-0.7331796,0.7547507,0.4958231,-0.4257466,0.5509064],[-0.5901859,-0.6465049,-0.03320491,0.8131702,0.1027044,0.7919083,0.5525622,-0.0847069,0.6731606,0.1540619,0.01876414,0.4730801,0.9777687,0.1360861,0.4335751,-0.3816828],[-0.09842956,0.006433845,-0.3135031]],[[-0.208871,0.4089689,0.5030487,0.2016629,0.7486746,0.1922413,0.5485742,-0.1610981,0.1557373,0.9370396,0.3057067,-0.7331796,0.7547507,0.4958231,-0.4257466,0.5509064],[-0.5901859,-0.6465049,-0.03320491,0.8131702,0.1027044,0.7919083,0.5525622,-0.6539428,-0.6557667,-0.04526722,-0.5992715,0.4730801,0.9777687,0.1360861,0.4335751,-0.3816828],[-0.09842956,0.006433845,-0.3135031]],[[-0.208871,0.4089689,0.5030487,0.2016629,0.7486746,0.1922413,0.5485742,-0.1610981,0.1557373,0.9370396,0.3057067,-0.7331796,0.7547507,0.4958231,-0.4257466,0.5509064],[-0.5901859,-0.6465049,-0.03320491,0.8131702,0.1027044,0.7919083,0.5525622,-0.6539428,0.6731606,0.7273195,-0.5992715,0.4730801,0.9777687,0.1360861,0.4335751,-0.3816828],[-0.09842956,0.006433845,-0.3135031]],[[-0.208871,0.4089689,0.5030487,0.2016629,0.7486746,0.1922413,0.5485742,-0.1610981,0.1557373,0.9370396,0.3057067,-0.7331796,0.7547507,0.4958231,-0.4257466,0.5509064],[-0.5901859,-0.1221367,-0.5522091,0.8131702,0.1027044,0.7919083,0.5525622,-0.6539428,0.6731606,-0.04526722,-0.5992715,0.4730801,0.9777687,0.1360861,0.4335751,-0.3816828],[-0.09842956,0.006433845,-0.3135031]],[[-0.208871,0.4089689,0.5030487,0.2016629,0.7486746,0.1922413,0.5485742,-0.1610981,0.1557373,0.9370396,0.3057067,-0.7331796,0.7547507,0.4958231,-0.4257466,0.5509064],[-0.5901859,-0.6465049,-0.03320491,0.8131702,0.1027044,0.7919083,0.5525622,-0.6539428,0.6731606,0.7273195,-0.5992715,0.4730801,0.9777687,0.1360861,0.4335751,-0.3816828],[-0.09842956,0.006433845,-0.3135031]],[[-0.208871,0.4089689,0.5030487,0.2016629,0.7486746,0.1922413,0.5485742,-0.1610981,0.1557373,0.9370396,0.3057067,-0.7331796,0.7547507,0.4958231,-0.4257466,0.5509064],[-0.5901859,-0.6465049,-0.03320491,0.8131702,0.1027044,0.7919083,0.5525622,-0.6539428,0.6731606,0.7273195,-0.5992715,0.4730801,0.9777687,0.1360861,0.4335751,-0.3816828],[-0.09842956,0.006433845,-0.3135031]],[[-0.208871,0.4089689,0.5030487,0.2016629,0.7486746,0.1922413,0.5485742,-0.1610981,0.1557373,0.9370396,0.3057067,-0.7331796,0.7547507,0.4958231,-0.4257466,0.5509064],[-0.5901859,-0.6465049,-0.03320491,0.8131702,0.1027044,0.7919083,0.5525622,-0.6539428,0.6731606,0.7273195,-0.5992715,0.4730801,0.9777687,0.1360861,0.4335751,-0.3816828],[-0.09842956,0.006433845,-0.3135031]],[[-0.208871,0.4089689,0.5030487,0.2016629,0.7486746,0.1922413,0.5485742,-0.1610981,0.1557373,0.9370396,0.3057067,-0.7331796,0.7547507,0.4958231,-0.4257466,0.5509064],[-0.5901859,-0.6465049,-0.03320491,0.8131702,0.1027044,0.7919083,0.5525622,-0.6539428,0.6731606,0.7273195,-0.5992715,0.4730801,0.9777687,0.1360861,0.4335751,-0.3816828],[-0.09842956,0.006433845,-0.3135031]],[[-0.208871,0.4089689,0.5030487,0.2016629,0.7486746,0.1922413,0.5485742,-0.1610981,0.1557373,0.9370396,0.3057067,-0.7331796,0.7547507,0.4958231,-0.4257466,0.5509064],[-0.5901859,-0.6465049,-0.03320491,0.8131702,0.1027044,0.7919083,0.5525622,-0.6539428,0.6731606,0.7273195,-0.5992715,0.4730801,0.9777687,0.1360861,0.4335751,-0.3816828],[-0.09842956,0.006433845,-0.3135031]],[[-0.208871,0.4089689,0.5030487,0.2016629,0.7486746,0.1922413,0.5485742,-0.1610981,-0.9463556,0.9370396,0.3057067,-0.7331796,0.7547507,0.4958231,-0.4257466,0.5509064],[-0.5901859,-0.6465049,-0.03320491,0.8131702,0.1027044,0.7919083,0.5525622,-0.6539428,0.6731606,0.7273195,-0.5992715,0.4730801,0.9777687,0.1360861,0.4335751,-0.3816828],[-0.09842956,0.006433845,-0.3135031]],[[-0.208871,0.4089689,0.4277749,0.2016629,0.7486746,0.1922413,0.5485742,-0.1610981,0.1557373,0.9370396,0.3057067,-0.7331796,0.7547507,0.4958231,-0.4257466,0.5509064],[-0.5901859,-0.6465049,-0.03320491,0.8131702,0.1027044,0.7919083,0.5525622,-0.6539428,0.6731606,0.7273195,-0.5992715,0.4730801,0.9777687,0.1360861,0.4335751,-0.3816828],[-0.09842956,0.006433845,-0.3435434]],[[-0.208871,0.4089689,0.5030487,0.2016629,0.7486746,0.1922413,0.5485742,-0.1610981,0.1557373,0.9370396,0.3057067,0.7473886,0.7547507,0.4958231,-0.4257466,0.5509064],[-0.5901859,-0.6465049,-0.03320491,0.8131702,0.1027044,0.7919083,0.5525622,-0.6539428,0.6731606,0.7273195,-0.5992715,0.4730801,0.9777687,0.1360861,0.4335751,-0.3816828],[-0.09842956,0.006433845,-0.3135031]],[[-0.208871,0.4089689,0.5030487,0.2016629,0.7486746,0.1922413,0.5485742,-0.1610981,0.1557373,0.9370396,0.3057067,-0.7331796,0.7547507,0.4958231,-0.4257466,0.5509064],[-0.5901859,-0.6465049,-0.03320491,0.8131702,0.1027044,0.7919083,0.5525622,-0.6539428,0.6731606,-0.04526722,0.01876414,0.4730801,0.9777687,0.1360861,0.4335751,-0.3816828],[-0.09842956,0.006433845,-0.3135031]],[[-0.208871,0.4089689,0.5030487,0.2016629,0.7486746,0.1922413,0.5485742,-0.1610981,0.1557373,0.9370396,0.3057067,-0.7331796,-0.3838519,0.4958231,-0.4257466,0.5509064],[-0.5901859,-0.6465049,-0.03320491,0.8131702,0.1027044,0.7919083,0.5525622,-0.6539428,0.6731606,-0.04526722,-0.5992715,0.4730801,0.9777687,0.1360861,0.4335751,-0.3816828],[-0.09842956,0.006433845,-0.3135031]],[[-0.208871,0.4089689,0.5030487,0.2016629,0.7486746,0.1922413,0.5485742,-0.1610981,0.1557373,0.9370396,0.3057067,-0.7331796,0.7547507,0.4958231,-0.4257466,0.5509064],[-0.5901859,-0.6465049,-0.03320491,0.8131702,0.1027044,0.7919083,0.5525622,-0.0847069,0.6731606,-0.04526722,0.01876414,0.4730801,0.9777687,0.1360861,0.4335751,-0.3816828],[-0.09842956,0.006433845,-0.3135031]],[[-0.208871,0.4089689,0.5030487,0.2016629,0.7486746,0.1922413,0.5485742,-0.1610981,0.1557373,0.9370396,-0.6700242,-0.7331796,0.7547507,0.4958231,-0.4257466,0.1454846],[-0.5901859,-0.6465049,-0.03320491,0.8131702,0.1027044,0.7919083,0.5525622,-0.0847069,0.6731606,0.1921126,0.01876414,0.4730801,0.9777687,0.1360861,0.4335751,-0.3816828],[-0.09842956,0.006433845,-0.3135031]],[[-0.208871,0.4089689,0.09923565,0.2016629,0.7486746,0.1922413,0.5485742,-0.1610981,0.1557373,0.9370396,0.3057067,-0.7331796,0.7547507,0.4958231,-0.4257466,0.5509064],[-0.5901859,-0.6465049,-0.03320491,0.8131702,0.1027044,0.7919083,0.5525622,-0.214512,0.6731606,0.7273195,-0.5992715,0.4730801,0.9777687,0.1360861,0.4335751,-0.3816828],[-0.09842956,0.006433845,-0.3135031]],[[-0.208871,0.4089689,0.5030487,-0.8309755,0.7486746,0.1922413,0.5485742,-0.1610981,0.1557373,0.9370396,0.3057067,-0.7331796,0.7547507,0.4784684,-0.4257466,0.5509064],[-0.5901859,-0.6465049,-0.03320491,0.8131702,0.1027044,0.7919083,0.5525622,-0.6539428,0.6731606,0.7273195,-0.5992715,0.4730801,0.9777687,0.1360861,0.4335751,-0.3816828],[-0.09842956,0.006433845,-0.3135031]],[[-0.208871,0.4089689,0.5030487,0.2016629,0.7486746,0.1922413,0.5485742,-0.1610981,0.1557373,0.9370396,0.3057067,-0.7331796,0.7547507,0.4958231,-0.4257466,0.5509064],[-0.5901859,-0.6465049,-0.5522091,0.8131702,0.1027044,0.7919083,0.5525622,-0.6539428,0.6731606,-0.04526722,-0.5992715,0.4730801,0.9777687,0.1360861,0.4335751,-0.3816828],[-0.09842956,0.006433845,-0.3135031]],[[-0.208871,0.4089689,0.4085607,0.2016629,0.7486746,0.1922413,0.5485742,-0.1610981,0.1557373,0.9370396,0.3057067,-0.7331796,0.7547507,0.4958231,-0.4257466,0.5509064],[-0.5901859,-0.6465049,-0.03320491,0.8131702,0.1027044,0.7919083,0.5525622,-0.0847069,0.6731606,0.1540619,0.01876414,0.4730801,0.9777687,0.1360861,0.4335751,-0.3816828],[-0.09842956,0.006433845,-0.3135031]],[[-0.208871,0.4089689,0.5030487,0.2016629,0.7486746,0.1922413,0.5485742,-0.1610981,0.1557373,0.9370396,0.3057067,-0.7331796,0.7547507,0.4784684,-0.4257466,0.5509064],[-0.5901859,-0.6465049,-0.03320491,0.8131702,0.1027044,0.7919083,0.5525622,-0.6539428,0.6731606,0.7273195,-0.5992715,0.4730801,0.9777687,0.1360861,0.4335751,-0.3816828],[-0.09842956,0.006433845,-0.3135031]],[[-0.208871,0.4089689,0.5030487,0.2016629,0.7486746,0.1922413,0.5485742,-0.1610981,0.1557373,0.9370396,0.3057067,-0.7331796,0.7547507,0.4958231,-0.4257466,0.5509064],[-0.5901859,-0.6465049,-0.03320491,0.8131702,0.1027044,0.7919083,0.5525622,-0.6539428,0.6731606,-0.04526722,-0.5992715,0.4730801,0.9777687,0.1360861,0.4335751,-0.3816828],[-0.09842956,0.006433845,-0.3135031]],[[-0.208871,0.4089689,0.5030487,0.2016629,0.7486746,0.1922413,0.5485742,-0.1610981,0.1557373,0.9370396,0.3057067,-0.7331796,0.7547507,0.4958231,-0.4257466,0.5509064],[0.3946991,-0.6465049,-0.03320491,0.8131702,0.1027044,0.7919083,0.5525622,-0.6539428,0.6731606,-0.04526722,-0.5992715,0.4730801,0.9777687,0.1360861,0.4335751,-0.3816828],[-0.09842956,0.006433845,0.7364981]],[[-0.208871,0.4089689,0.5030487,0.2016629,0.7486746,0.1922413,0.5485742,-0.1610981,0.1557373,0.9370396,0.3057067,-0.7331796,0.7547507,0.4958231,-0.4257466,0.5509064],[-0.3366717,-0.6465049,-0.5522091,0.8131702,0.1027044,0.7919083,0.5525622,-0.6539428,0.6731606,-0.04526722,-0.5992715,0.4730801,0.9777687,0.1360861,0.4335751,-0.3816828],[-0.09842956,0.006433845,-0.3135031]],[[-0.208871,0.4089689,0.5030487,0.2016629,0.7486746,0.1922413,0.5485742,-0.1610981,0.1557373,0.9370396,0.3057067,-0.7331796,0.7547507,0.4958231,-0.4257466,0.5509064],[-0.5901859,-0.6465049,-0.03320491,0.8131702,0.1027044,0.7919083,0.5525622,-0.6539428,0.6731606,-0.04526722,-0.5992715,0.4730801,0.9777687,0.1360861,0.4335751,-0.3816828],[-0.09842956,0.006433845,-0.3135031]],[[-0.208871,0.4089689,0.5030487,0.2016629,0.7486746,0.1922413,0.5485742,-0.1610981,0.1557373,0.9370396,0.1430238,-0.7331796,0.7547507,0.4958231,-0.4257466,0.5509064],[-0.5901859,-0.6465049,-0.03320491,0.8131702,0.1027044,0.7919083,0.5525622,-0.6539428,0.6731606,-0.04526722,0.01876414,0.4730801,0.9777687,0.1360861,0.4335751,-0.3816828],[-0.09842956,0.006433845,-0.3135031]],[[-0.208871,0.4089689,0.5030487,0.2016629,0.7486746,0.1922413,0.5485742,-0.1610981,0.1557373,0.9370396,0.3057067,-0.7331796,0.7547507,-0.5448275,-0.4257466,0.5509064],[-0.5901859,-0.1221367,-0.5522091,0.8131702,0.1027044,0.7919083,0.5525622,0.9959624,0.6169353,-0.04526722,-0.5992715,0.4730801,0.9777687,0.1360861,0.4335751,-0.3816828],[-0.09842956,0.006433845,-0.3135031]],[[-0.208871,0.4089689,0.5030487,0.2016629,0.7486746,0.1922413,0.5485742,-0.1610981,0.1557373,0.9370396,0.3057067,-0.7331796,0.7547507,0.4784684,-0.4257466,0.5509064],[-0.5901859,-0.6465049,-0.03320491,0.8131702,0.1027044,0.7919083,0.5525622,-0.6539428,0.6731606,0.7273195,-0.5992715,0.4730801,0.9777687,0.1360861,0.4335751,-0.3816828],[-0.09842956,0.006433845,-0.3135031]],[[-0.208871,0.4089689,0.4085607,0.2016629,0.7486746,0.1922413,0.5485742,-0.1610981,0.1557373,0.9370396,0.3057067,-0.7331796,0.7547507,0.4958231,-0.4257466,0.5509064],[-0.5901859,-0.6465049,-0.03320491,0.8131702,0.1027044,0.7919083,0.5525622,-0.0847069,0.6731606,0.1540619,0.01876414,0.4730801,0.9777687,0.1360861,0.4335751,-0.3816828],[-0.09842956,0.006433845,-0.3135031]],[[-0.208871,0.4089689,0.4085607,0.2016629,0.7486746,0.1922413,0.5485742,-0.1610981,0.1557373,0.9370396,0.3057067,-0.7331796,0.7547507,0.4958231,-0.4257466,0.5509064],[-0.5901859,-0.6465049,-0.03320491,0.8131702,0.1027044,0.7919083,0.5525622,-0.0847069,0.6731606,0.1540619,0.01876414,0.4730801,0.9777687,0.1360861,0.4335751,-0.3816828],[-0.09842956,0.006433845,-0.3135031]],[[-0.208871,0.4089689,0.4085607,0.2016629,0.7486746,0.1922413,0.5485742,-0.1610981,0.1557373,0.9370396,0.3057067,-0.7331796,0.7547507,0.4958231,-0.4257466,0.5509064],[-0.5901859,-0.6465049,-0.03320491,0.8131702,0.1027044,0.7919083,0.5525622,-0.0847069,0.6731606,0.1540619,0.01876414,0.4730801,0.9777687,0.1360861,0.4335751,-0.3816828],[-0.09842956,0.006433845,-0.3135031]],[[-0.208871,0.4089689,0.5030487,0.2016629,0.7486746,0.1922413,0.5485742,-0.1610981,0.1557373,0.9370396,0.3057067,-0.7331796,0.7547507,0.4958231,-0.4257466,0.5509064],[-0.5901859,-0.6465049,-0.03320491,0.8131702,0.1027044,0.7919083,0.5525622,-0.6539428,0.6731606,0.7273195,-0.5992715,0.4730801,0.9777687,0.1360861,0.4335751,-0.3816828],[-0.09842956,0.006433845,-0.3135031]],[[-0.208871,0.4089689,0.5030487,0.2016629,0.7486746,0.1922413,0.5485742,-0.4500138,-0.8221426,0.9370396,0.3057067,-0.7331796,0.7547507,0.4958231,-0.4257466,0.5509064],[-0.5901859,-0.6465049,-0.7987068,-0.01661909,0.1027044,0.7919083,-0.1295849,-0.6539428,0.6731606,-0.04526722,0.01876414,0.4730801,0.9777687,0.1360861,0.4335751,-0.3816828],[-0.09842956,0.006433845,-0.3135031]],[[-0.208871,0.1522607,0.5030487,0.2016629,0.7486746,0.1922413,0.5485742,-0.1610981,0.1557373,0.9370396,0.3057067,-0.7331796,0.7547507,0.4958231,-0.4257466,0.5509064],[-0.5901859,-0.6465049,-0.03320491,0.8131702,0.1027044,0.7919083,0.5525622,-0.6539428,0.6731606,0.7273195,-0.5992715,0.4730801,0.9777687,0.1360861,0.4335751,-0.3816828],[-0.09842956,0.006433845,-0.3135031]],[[-0.208871,0.4089689,0.5030487,0.2016629,0.7486746,0.1922413,0.1409417,-0.1610981,0.1557373,0.9370396,0.3057067,-0.7331796,0.7547507,0.4958231,-0.4257466,0.5509064],[-0.5901859,-0.6465049,-0.03320491,0.8131702,0.1027044,0.7919083,0.5525622,-0.6539428,0.6731606,0.7273195,-0.413287,0.4730801,0.9777687,0.1360861,0.4335751,-0.3816828],[-0.09842956,0.006433845,-0.3135031]],[[-0.208871,0.4089689,0.5030487,0.2016629,0.7486746,0.1922413,0.5485742,-0.1610981,0.1557373,0.9370396,0.3057067,-0.7331796,0.7437079,0.4958231,-0.4257466,0.5509064],[-0.5901859,-0.6465049,-0.03320491,0.8131702,0.1027044,0.7919083,0.5525622,-0.6539428,0.6731606,0.7273195,-0.5992715,0.4730801,0.9777687,0.1360861,0.4335751,-0.3816828],[-0.09842956,0.006433845,-0.3135031]],[[-0.208871,0.4089689,0.5030487,0.2016629,0.7486746,0.1922413,0.5485742,-0.1610981,0.1557373,0.9370396,0.3057067,-0.7331796,0.7547507,0.4958231,-0.4257466,0.5509064],[-0.5901859,-0.6465049,-0.03320491,0.8131702,0.1027044,0.7919083,0.5525622,-0.6539428,0.6731606,0.4684112,0.01876414,0.4730801,0.9777687,0.1360861,0.4335751,-0.3816828],[-0.09842956,0.006433845,-0.3135031]],[[-0.208871,0.4089689,0.5030487,0.2016629,0.7486746,0.1922413,0.5485742,-0.1610981,0.1557373,0.9370396,0.3057067,-0.7331796,0.7547507,0.4958231,-0.4257466,0.5509064],[-0.5901859,-0.6465049,-0.03320491,0.8131702,0.1027044,0.7919083,0.5525622,-0.6539428,0.6731606,0.7273195,-0.5992715,0.4730801,0.9777687,0.1360861,0.4335751,-0.3816828],[-0.09842956,0.006433845,-0.3135031]],[[-0.208871,0.4089689,0.5030487,0.2016629,0.7486746,0.1922413,0.5485742,-0.1610981,0.1557373,0.9370396,0.3057067,-0.7331796,0.7547507,0.4958231,-0.4257466,0.5509064],[-0.5665598,-0.6465049,-0.5522091,0.8131702,0.1027044,0.7919083,0.5525622,-0.6539428,0.6731606,-0.04526722,-0.5992715,0.4730801,0.9777687,0.1360861,0.4335751,-0.3816828],[-0.09842956,0.006433845,-0.3135031]],[[-0.208871,0.4089689,0.5030487,0.2016629,0.7486746,0.1922413,0.5485742,-0.1610981,-0.425213,0.9370396,0.3057067,-0.7331796,0.7547507,0.4958231,-0.4257466,0.5509064],[-0.5901859,-0.6465049,-0.03320491,0.8131702,0.1027044,0.7919083,0.5525622,-0.6539428,0.6731606,-0.04526722,0.01876414,-0.4094905,0.9777687,0.1360861,0.4335751,-0.3816828],[-0.09842956,0.006433845,-0.3135031]],[[-0.208871,0.4089689,0.5030487,0.4686565,0.7486746,0.1922413,0.5485742,-0.1610981,0.1557373,0.9370396,0.3057067,-0.7331796,0.7547507,0.4958231,-0.4257466,0.5509064],[0.1022912,0.1336323,-0.03320491,0.8131702,0.1027044,0.7919083,0.5525622,-0.6539428,0.6731606,0.7273195,-0.5992715,0.4730801,0.9777687,0.1360861,0.4335751,-0.3816828],[-0.09842956,0.006433845,-0.3135031]],[[0.3081815,0.4089689,0.5030487,0.2016629,0.7486746,0.1922413,0.5485742,-0.1610981,0.1557373,0.9370396,0.9207118,-0.7331796,0.7547507,0.4958231,-0.4257466,0.5509064],[-0.5901859,-0.6465049,-0.03320491,0.8131702,0.1027044,0.7919083,0.5525622,-0.6539428,0.6731606,-0.04526722,-0.5992715,0.4730801,0.9777687,0.1360861,0.4335751,-0.3816828],[-0.09842956,0.006433845,0.2872059]],[[-0.208871,0.4089689,0.5030487,-0.8750405,0.7486746,0.1922413,0.5485742,-0.1610981,0.1557373,0.9370396,0.3057067,0.6725461,0.7547507,0.4958231,-0.4257466,0.5509064],[-0.5901859,-0.6465049,-0.03320491,0.8131702,0.1027044,0.7919083,0.5525622,-0.6539428,0.6731606,0.7273195,-0.5992715,0.4730801,0.9777687,0.1360861,0.4335751,-0.3816828],[-0.09842956,0.006433845,-0.3135031]],[[-0.208871,0.4089689,0.5030487,0.2016629,0.7486746,0.1922413,0.5485742,-0.1610981,0.1557373,0.9370396,0.3057067,-0.7331796,0.7547507,0.4958231,-0.4257466,0.5509064],[-0.5901859,-0.1221367,-0.5522091,0.8131702,-0.2788004,0.7919083,0.5525622,-0.6539428,0.6731606,-0.04526722,-0.5992715,0.4730801,0.9777687,0.1360861,0.4189381,-0.3816828],[-0.09842956,0.006433845,-0.3135031]],[[-0.208871,0.4089689,0.5030487,0.2016629,0.7486746,0.1922413,0.5485742,-0.1610981,0.1557373,0.9370396,0.3057067,-0.7331796,0.7547507,0.4784684,-0.4257466,0.5509064],[-0.5901859,-0.6465049,-0.03320491,0.8131702,0.09213173,0.7919083,0.5525622,-0.6539428,0.6731606,0.7273195,-0.5992715,0.4730801,0.9777687,0.1360861,0.4335751,-0.3816828],[0.183412,0.006433845,-0.3135031]],[[-0.208871,0.4089689,0.5030487,0.2016629,0.7486746,0.1922413,0.5485742,-0.1610981,0.1557373,0.9370396,0.3057067,-0.7331796,0.7547507,0.4958231,-0.4257466,0.5509064],[-0.5901859,-0.6465049,-0.03320491,0.8131702,0.1027044,0.7919083,0.5525622,-0.6539428,0.6731606,-0.04526722,0.01876414,0.4730801,0.9777687,0.1360861,0.4335751,-0.3816828],[-0.09842956,0.006433845,-0.3135031]],[[-0.208871,0.4089689,0.5030487,0.2016629,0.7486746,0.1922413,0.5485742,-0.1610981,0.1557373,0.9370396,0.3057067,-0.7331796,0.7547507,0.4958231,-0.4257466,0.5509064],[-0.5901859,-0.6465049,-0.03320491,0.8131702,0.1027044,0.7919083,0.5525622,-0.6539428,0.6731606,-0.04526722,-0.5992715,0.4730801,0.9777687,0.1360861,0.4335751,-0.3816828],[-0.09842956,0.006433845,-0.3135031]],[[-0.208871,0.4089689,0.5030487,0.2016629,0.7486746,0.1922413,0.5485742,-0.1610981,0.1557373,0.9370396,0.3057067,-0.7331796,0.7547507,0.4958231,-0.4257466,0.5509064],[-0.5901859,-0.6465049,-0.03320491,0.8131702,0.1027044,0.7919083,0.5525622,-0.6539428,0.6731606,0.7273195,-0.5992715,0.4730801,0.9777687,0.1360861,0.4335751,-0.3816828],[-0.09842956,0.006433845,-0.3135031]]]