[[[-0.3586711,0.2067262,-0.4206487,-0.245113,0.605763,0.2410358,-0.1762649,-0.1078306,-0.2326583,-0.2685839,-0.3349668,0.1948301,-0.9799192,0.5675137,-0.9443874,0.3403198],[-0.7086775,-0.04256237,0.9954314,-0.4328014,0.7335136,0.7497461,0.04425108,0.9384475,-0.772038,-0.2827517,-0.3373855,-0.9007406,0.3056097,-0.496003,0.6519637,0.9587865],[-0.1847101,-0.8951395,-0.8011005]],[[-0.3586711,0.2067262,-0.4206487,-0.245113,0.605763,0.2410358,-0.1762649,-0.1078306,-0.2326583,-0.2685839,-0.3349668,0.1948301,-0.9799192,0.5675137,-0.9443874,0.3403198],[-0.7086775,-0.04256237,0.9954314,-0.4328014,0.7335136,0.7497461,0.04425108,0.9384475,-0.772038,-0.2827517,-0.3373855,-0.9007406,0.3056097,-0.496003,0.6519637,0.9587865],[-0.1847101,-0.8951395,-0.8011005]],[[-0.7041459,0.2067262,-0.4206487,-0.245113,0.605763,0.2410358,-0.1762649,-0.1078306,-0.2326583,-0.2685839,-0.3349668,0.1948301,-0.9799192,0.5675137,-0.9443874,0.3403198],[-0.7086775,-0.04256237,0.9954314,-0.4328014,0.7335136,0.7497461,0.04425108,0.9384475,-0.772038,-0.2827517,-0.3373855,-0.9007406,0.3056097,-0.496003,0.6519637,0.9587865],[-0.1847101,-0.8951395,-0.8011005]],[[-0.3586711,0.2067262,-0.4206487,-0.245113,0.605763,0.2410358,-0.1762649,-0.1078306,-0.2326583,-0.2685839,-0.3349668,0.1948301,-0.9799192,0.5675137,-0.9443874,0.3403198],[-0.7086775,-0.04256237,0.9954314,-0.4328014,0.7335136,0.7497461,0.04425108,0.9384475,-0.772038,-0.2827517,-0.3373855,-0.9007406,0.3056097,-0.496003,0.6519637,0.9587865],[-0.1847101,-0.8951395,-0.8011005]],[[-0.3586711,0.2067262,-0.4206487,-0.245113,0.605763,0.2410358,-0.7772324,-0.1078306,-0.2326583,-0.2685839,-0.3349668,0.1948301,-0.9799192,0.5675137,-0.9443874,0.3403198],[-0.7086775,-0.04256237,0.9954314,-0.4328014,0.7335136,0.7497461,0.04425108,0.9384475,-0.772038,-0.2827517,-0.3373855,-0.9007406,0.3056097,-0.496003,0.6519637,0.9587865],[-0.1847101,-0.8951395,-0.8011005]],[[-0.3586711,0.2067262,-0.4206487,-0.245113,0.605763,0.2410358,-0.1762649,-0.1078306,-0.2326583,-0.2685839,-0.3349668,0.1948301,-0.9799192,0.5675137,-0.9443874,0.3403198],[-0.7086775,-0.04256237,0.9954314,-0.4328014,0.7335136,0.7497461,0.04425108,0.9384475,-0.772038,-0.2827517,-0.3373855,-0.9007406,0.3056097,-0.496003,0.6519637,0.9587865],[-0.1847101,-0.8951395,-0.8011005]],[[-0.3586711,0.2067262,-0.4206487,-0.245113,0.605763,0.2410358,-0.1762649,-0.1078306,-0.2326583,-0.2685839,-0.3349668,0.1948301,-0.9799192,0.5675137,-0.9443874,0.3403198],[-0.7086775,-0.04256237,0.9954314,-0.4328014,0.7335136,0.7497461,0.04425108,0.9384475,-0.772038,-0.2827517,-0.3373855,-0.9007406,0.3056097,-0.496003,0.6519637,0.9587865],[-0.1847101,-0.8951395,-0.8011005]],[[-0.3586711,0.2067262,-0.4206487,-0.245113,0.605763,0.2410358,-0.1762649,-0.1078306,-0.2326583,-0.2685839,-0.3349668,0.1948301,-0.9799192,0.5675137,-0.9443874,0.3403198],[-0.7086775,-0.04256237,0.9954314,-0.4328014,0.7335136,0.7497461,0.04425108,0.9384475,-0.772038,-0.2827517,-0.3373855,-0.9007406,0.3056097,-0.496003,0.6519637,0.9587865],[-0.1847101,-0.8951395,-0.8011005]],[[-0.3586711,0.2067262,-0.4206487,-0.245113,0.605763,0.2410358,-0.1762649,-0.1078306,-0.2326583,-0.2685839,-0.3349668,0.1948301,-0.9799192,0.5675137,-0.9443874,0.3403198],[-0.7086775,-0.04256237,0.9954314,-0.4328014,0.7335136,0.7497461,0.04425108,0.9384475,-0.772038,-0.2827517,-0.3373855,-0.9007406,0.3056097,-0.496003,0.6519637,0.9587865],[-0.1847101,-0.8951395,-0.8011005]],[[-0.3586711,0.2067262,-0.4206487,-0.245113,0.605763,0.2410358,-0.1762649,-0.1078306,-0.2326583,-0.2685839,-0.3349668,0.1948301,-0.9799192,0.5675137,-0.9443874,0.3403198],[-0.7086775,-0.04256237,0.9954314,-0.4328014,0.7335136,0.7497461,0.04425108,0.9384475,-0.772038,-0.2827517,0.6142409,-0.9007406,0.3056097,-0.496003,0.6519637,0.9587865],[-0.1847101,-0.8951395,-0.8011005]],[[-0.3586711,0.2067262,-0.4206487,-0.245113,0.605763,0.2410358,-0.1762649,-0.1078306,-0.2326583,-0.2685839,-0.3349668,0.1948301,-0.9799192,0.5675137,-0.9443874,0.3403198],[-0.7086775,-0.04256237,0.9954314,-0.4328014,0.7335136,0.7497461,0.04425108,0.9384475,-0.772038,-0.2827517,-0.3373855,-0.9007406,0.3056097,-0.496003,0.6519637,0.9587865],[-0.1847101,-0.8951395,-0.8011005]],[[-0.3586711,0.2067262,-0.4206487,-0.245113,0.605763,0.2410358,-0.1762649,-0.1078306,-0.2326583,-0.2685839,-0.3349668,0.1948301,-0.9799192,0.5675137,-0.9443874,0.3403198],[-0.7086775,-0.04256237,0.9954314,-0.4328014,0.7335136,0.7497461,0.04425108,0.9384475,-0.772038,-0.2827517,-0.3373855,-0.9007406,0.3056097,-0.496003,0.6519637,0.9587865],[-0.1847101,-0.8951395,-0.8011005]],[[-0.3586711,0.2067262,-0.4206487,-0.245113,0.605763,0.2410358,-0.1762649,-0.1078306,-0.2326583,-0.2685839,0.1179868,0.1948301,-0.9799192,0.5675137,-0.9443874,0.3403198],[-0.7086775,-0.04256237,0.9954314,-0.4328014,0.7335136,0.7497461,0.04425108,0.9384475,-0.772038,-0.2827517,-0.582953,-0.9007406,0.6280522,-0.496003,0.6519637,0.9587865],[-0.1847101,-0.8951395,-0.8011005]],[[-0.3586711,0.2067262,-0.4206487,-0.245113,0.605763,0.2410358,-0.1762649,-0.1078306,-0.2326583,-0.2685839,-0.3349668,0.1948301,-0.9799192,0.5675137,-0.9443874,0.3403198],[-0.7086775,-0.04256237,0.9954314,-0.4328014,0.7335136,0.7497461,0.04425108,0.9384475,-0.772038,-0.2827517,-0.3373855,-0.9007406,0.3056097,-0.496003,0.6519637,0.9587865],[-0.1847101,-0.8951395,-0.8011005]],[[-0.3586711,0.2067262,-0.4206487,-0.245113,0.605763,0.2410358,-0.1762649,-0.1078306,-0.2326583,-0.2685839,-0.3349668,0.1948301,-0.9799192,0.5675137,-0.9443874,0.3403198],[-0.7086775,-0.04256237,0.02901947,-0.4328014,0.7335136,0.7497461,0.04425108,0.9384475,-0.772038,-0.2827517,-0.3373855,-0.9007406,0.3056097,-0.496003,0.6519637,0.9587865],[-0.1847101,-0.8951395,-0.8011005]],[[-0.3586711,0.2067262,-0.4206487,-0.245113,0.605763,0.2410358,-0.1762649,-0.1078306,-0.2326583,-0.2685839,-0.3349668,0.1948301,-0.9799192,0.5675137,-0.9443874,0.3403198],[-0.7086775,-0.04256237,0.9954314,-0.4328014,0.7335136,0.7497461,0.04425108,0.9384475,-0.772038,-0.2827517,-0.3373855,-0.9007406,0.3056097,-0.496003,0.6519637,0.9587865],[-0.1847101,-0.8951395,-0.8011005]],[[-0.3586711,0.2067262,-0.4206487,-0.245113,0.605763,0.2410358,-0.1762649,-0.1078306,-0.2326583,-0.2685839,-0.3349668,0.1948301,-0.9799192,0.5675137,-0.9443874,0.3403198],[-0.7086775,-0.04256237,0.9954314,-0.4328014,0.7335136,0.7497461,0.04425108,0.9384475,-0.772038,-0.2827517,-0.3373855,-0.9007406,0.3056097,-0.496003,0.6519637,0.9587865],[-0.1847101,-0.8951395,-0.8011005]],[[-0.3586711,0.2067262,-0.4206487,-0.245113,0.605763,0.2410358,-0.1762649,-0.1078306,-0.2326583,-0.2685839,-0.3349668,0.1948301,-0.9799192,0.5675137,-0.9443874,0.3403198],[-0.7086775,-0.04256237,0.9954314,-0.4328014,0.7335136,0.7497461,0.04425108,0.9384475,-0.772038,-0.2827517,-0.3373855,-0.9007406,0.3056097,-0.496003,0.6519637,0.9587865],[-0.1847101,-0.8951395,-0.8011005]],[[-0.3586711,0.2067262,-0.4206487,-0.245113,0.605763,0.2410358,-0.1762649,-0.1078306,-0.2326583,-0.2685839,-0.3349668,0.1948301,-0.9799192,0.5675137,-0.9443874,0.3403198],[-0.7086775,-0.04256237,0.9954314,-0.4328014,0.7335136,0.7497461,-0.02362096,0.9384475,-0.772038,-0.2827517,-0.3373855,-0.9007406,0.3056097,-0.496003,0.6519637,0.9587865],[-0.1847101,-0.8951395,-0.8011005]],[[-0.3586711,0.2067262,-0.4206487,-0.245113,0.605763,0.2410358,-0.1762649,-0.1078306,-0.2326583,-0.2685839,-0.3349668,0.1948301,-0.9799192,0.5675137,-0.9443874,0.3403198],[-0.7086775,-0.04256237,0.9954314,-0.4328014,0.7335136,0.7497461,0.04425108,0.9384475,-0.772038,-0.2827517,-0.3373855,-0.9007406,0.3056097,-0.496003,0.6519637,0.9587865],[-0.1847101,-0.8951395,-0.8011005]],[[-0.3586711,0.2067262,-0.4206487,0.6373761,0.605763,0.2410358,-0.1762649,-0.1078306,-0.2326583,-0.2685839,-0.3349668,0.1948301,-0.9799192,0.5675137,-0.9443874,0.3403198],[-0.7086775,-0.04256237,0.9954314,-0.4328014,0.7335136,0.7497461,0.04425108,0.9384475,-0.772038,-0.2827517,-0.3373855,-0.9007406,0.3056097,-0.496003,0.6519637,0.9587865],[-0.1847101,-0.8951395,-0.8011005]],[[-0.3586711,0.2067262,-0.4206487,0.6373761,0.605763,0.2410358,-0.1762649,-0.1078306,-0.2326583,-0.2685839,-0.3349668,0.1948301,-0.9799192,0.5675137,-0.9443874,0.3403198],[-0.7086775,-0.04256237,0.9954314,-0.4328014,0.7335136,0.7497461,0.04425108,0.9384475,-0.772038,-0.2827517,-0.3373855,-0.9007406,0.3056097,-0.496003,0.6519637,0.9587865],[-0.1847101,-0.8951395,-0.6982298]],[[-0.3586711,0.2067262,-0.4206487,0.6373761,0.605763,0.2410358,-0.1762649,-0.1078306,-0.2326583,-0.2685839,-0.3349668,0.1948301,-0.9799192,0.5675137,-0.9443874,0.3403198],[-0.7086775,-0.04256237,0.9954314,-0.4328014,0.7335136,0.7497461,0.04425108,0.9384475,-0.772038,-0.2827517,-0.3373855,-0.9007406,0.3056097,-0.496003,0.6519637,0.9587865],[-0.1847101,-0.8951395,-0.6982298]],[[-0.3586711,0.2067262,-0.4206487,0.6373761,0.605763,0.2410358,-0.1762649,-0.1078306,-0.2326583,-0.2685839,-0.3349668,0.1948301,-0.9799192,0.5675137,-0.9443874,0.3403198],[-0.7086775,-0.04256237,0.9954314,-0.4328014,0.7335136,0.7497461,0.04425108,0.9384475,-0.772038,-0.2827517,-0.3373855,-0.9007406,0.3056097,-0.496003,0.6519637,0.9587865],[-0.1847101,-0.8951395,-0.6982298]],[[-0.3586711,0.2067262,-0.4206487,0.6373761,0.349714,0.2410358,-0.1762649,-0.1078306,-0.2326583,-0.2685839,-0.3349668,0.1948301,-0.9799192,0.5675137,-0.9443874,0.3403198],[-0.7086775,-0.04256237,0.9954314,-0.4328014,0.7335136,0.7497461,0.04425108,0.9384475,-0.772038,-0.2827517,-0.3373855,-0.9007406,0.3056097,-0.496003,0.6519637,0.9587865],[-0.1847101,-0.8951395,-0.6982298]],[[-0.3586711,0.2067262,-0.4206487,0.6373761,0.605763,0.2410358,-0.1762649,-0.1078306,-0.2326583,-0.2685839,-0.3349668,0.1948301,-0.9799192,0.5675137,-0.9443874,0.3403198],[-0.7086775,-0.04256237,0.9954314,-0.4328014,0.7335136,0.7497461,0.04425108,0.9384475,-0.772038,-0.2827517,-0.3373855,-0.9007406,0.3056097,-0.496003,0.6519637,0.9587865],[-0.1847101,-0.8951395,-0.8011005]],[[-0.3586711,0.2067262,-0.4206487,0.6373761,0.605763,0.2410358,-0.1762649,-0.1078306,-0.2326583,-0.2685839,-0.3349668,0.1948301,-0.9799192,0.5675137,-0.9443874,0.3403198],[-0.7086775,-0.04256237,0.9954314,-0.4328014,0.7335136,0.7497461,0.04425108,0.9384475,-0.772038,-0.2827517,-0.3373855,-0.9007406,0.3056097,-0.496003,0.6519637,0.9587865],[-0.1847101,-0.8951395,-0.6982298]],[[-0.3586711,0.2067262,-0.4206487,0.6373761,0.605763,0.2410358,-0.1762649,-0.1078306,-0.2326583,-0.2685839,-0.3349668,0.1948301,-0.9799192,0.5675137,-0.9443874,0.3403198],[-0.7086775,-0.04256237,0.9954314,-0.4328014,0.7335136,0.7497461,0.04425108,0.9384475,-0.772038,-0.2827517,-0.3373855,-0.9007406,0.3056097,-0.496003,0.6519637,0.9587865],[-0.1847101,-0.8951395,-0.6982298]],[[-0.3586711,0.2067262,-0.4206487,-0.245113,0.605763,0.2410358,-0.1762649,-0.1078306,-0.2326583,-0.2685839,-0.3349668,0.1948301,-0.9799192,0.5675137,-0.9443874,0.3403198],[-0.7086775,-0.04256237,0.9954314,-0.4328014,0.7335136,0.7497461,0.04425108,0.9384475,-0.772038,-0.2827517,-0.3373855,-0.9007406,0.3056097,-0.496003,0.6519637,0.9587865],[-0.1847101,-0.8951395,-0.8011005]],[[-0.3586711,0.2067262,-0.4206487,-0.245113,0.605763,0.2410358,-0.1762649,-0.1078306,-0.2326583,-0.2685839,-0.3349668,0.1948301,-0.9799192,0.5675137,-0.9443874,0.3403198],[-0.7086775,-0.04256237,-0.3425092,-0.4328014,0.7335136,0.7497461,0.04425108,0.9384475,-0.772038,-0.2827517,-0.3373855,-0.9007406,0.3056097,-0.496003,0.6519637,0.9587865],[-0.1847101,-0.8951395,-0.8011005]],[[-0.3586711,0.2067262,-0.4206487,-0.245113,0.605763,0.2410358,-0.1762649,-0.1078306,0.1118585,-0.2685839,-0.3349668,0.1948301,-0.9799192,0.5675137,-0.9443874,0.3403198],[-0.7086775,-0.04256237,0.9954314,-0.4328014,0.7335136,0.7497461,0.04425108,0.9384475,-0.772038,-0.2827517,-0.3373855,-0.9007406,0.3056097,-0.496003,0.6519637,0.9587865],[-0.1847101,0.2571013,-0.8011005]],[[-0.3586711,0.2067262,-0.4206487,-0.245113,0.605763,0.2410358,-0.1762649,-0.1078306,-0.2326583,-0.2685839,-0.3349668,0.1948301,-0.9799192,0.5675137,-0.9443874,0.3403198],[-0.7086775,-0.04256237,0.9954314,-0.4328014,0.7335136,0.7497461,0.04425108,0.9384475,-0.772038,-0.2827517,-0.3373855,-0.9007406,0.3056097,-0.496003,0.6519637,0.9587865],[-0.1847101,-0.8951395,-0.8011005]],[[-0.3586711,0.2067262,-0.4206487,-0.245113,0.605763,0.2410358,-0.1762649,-0.1078306,-0.2326583,-0.2685839,-0.3349668,0.1948301,-0.9799192,0.5675137,-0.9443874,0.3403198],[-0.7086775,-0.04256237,0.9954314,-0.4328014,0.7335136,0.7497461,0.04425108,0.9384475,-0.772038,-0.2827517,-0.3373855,-0.9007406,0.3056097,-0.496003,0.6519637,0.9587865],[-0.1847101,-0.8951395,-0.8011005]],[[-0.3586711,0.2067262,-0.4206487,-0.245113,0.605763,0.2410358,-0.1762649,-0.1078306,-0.2326583,-0.2685839,-0.3349668,0.1948301,-0.9799192,0.5675137,-0.9443874,0.3403198],[-0.7086775,-0.04256237,0.9954314,-0.4328014,0.7335136,0.7497461,0.04425108,0.9384475,-0.772038,-0.2827517,-0.3373855,-0.9007406,0.3056097,-0.09955919,0.6519637,0.9587865],[-0.1847101,-0.8951395,-0.8011005]],[[-0.3586711,0.2067262,-0.4206487,-0.245113,0.605763,0.2410358,-0.1762649,-0.1078306,-0.2326583,-0.2685839,-0.3349668,0.1948301,-0.9799192,0.5675137,-0.9443874,0.3403198],[-0.7086775,-0.04256237,0.9954314,-0.4328014,0.7335136,0.7497461,0.04425108,0.9384475,-0.772038,-0.2827517,-0.3373855,-0.124931,0.3056097,-0.496003,0.6519637,0.9587865],[-0.1847101,-0.8951395,-0.8011005]],[[-0.3586711,0.2067262,-0.4206487,-0.245113,0.605763,0.2410358,-0.1762649,-0.1078306,-0.2326583,-0.2685839,-0.3349668,0.1948301,-0.9799192,0.5675137,-0.9443874,0.3403198],[-0.7086775,-0.04256237,0.9954314,-0.4328014,0.7335136,0.7497461,0.04425108,0.9384475,-0.772038,-0.2827517,-0.3373855,-0.9007406,0.3056097,-0.496003,0.6519637,0.9587865],[-0.1847101,-0.8951395,-0.8011005]],[[-0.3586711,0.2067262,-0.4206487,-0.245113,0.605763,0.2410358,-0.1762649,-0.1078306,-0.2326583,-0.2685839,-0.3349668,0.1948301,-0.9799192,0.5675137,-0.9443874,0.3403198],[-0.7086775,-0.04256237,0.9954314,-0.4328014,0.7335136,0.7497461,0.04425108,0.9384475,-0.772038,-0.2827517,-0.3373855,-0.9007406,0.3056097,-0.496003,0.6519637,0.9587865],[-0.1847101,-0.8951395,-0.8011005]],[[-0.3586711,0.2067262,-0.4206487,-0.245113,0.605763,0.2410358,-0.1762649,-0.1078306,-0.2326583,-0.2685839,-0.3349668,0.1948301,-0.9799192,0.5675137,-0.9443874,0.3403198],[-0.7086775,-0.04256237,0.9954314,-0.4328014,0.7335136,0.7497461,0.04425108,0.9384475,-0.772038,-0.2827517,-0.3373855,-0.9007406,0.3056097,-0.496003,0.6519637,-0.6341915],[-0.1847101,0.2571013,-0.8011005]],[[-0.3586711,0.2067262,-0.4206487,-0.245113,0.605763,0.2410358,-0.1762649,-0.1078306,-0.2326583,-0.2685839,-0.3349668,0.1948301,-0.9799192,0.5675137,-0.9443874,0.3403198],[-0.7086775,-0.04256237,0.9954314,-0.4328014,0.7335136,0.7497461,0.04425108,0.9384475,-0.772038,-0.2827517,-0.3373855,-0.9007406,0.3056097,-0.496003,0.6519637,0.9587865],[-0.1847101,-0.8951395,-0.8011005]],[[-0.3586711,0.2067262,-0.4206487,-0.245113,0.605763,0.2410358,-0.1762649,-0.1078306,-0.2326583,-0.2685839,-0.3349668,0.1948301,-0.9799192,0.5675137,-0.9443874,0.3403198],[-0.7086775,-0.04256237,0.9954314,-0.4328014,0.7335136,0.7497461,0.04425108,0.9384475,-0.772038,-0.2827517,-0.3373855,-0.9007406,0.3056097,-0.496003,0.6519637,0.9587865],[-0.1847101,-0.8951395,-0.8011005]],[[-0.3586711,0.2067262,-0.4206487,-0.245113,0.605763,0.2410358,-0.1762649,-0.1078306,-0.2326583,-0.2685839,-0.3349668,0.1948301,-0.9799192,0.5675137,-0.9443874,0.3403198],[-0.7086775,-0.04256237,0.9954314,-0.4328014,0.7335136,0.7497461,0.04425108,0.9384475,-0.772038,-0.2827517,-0.3373855,-0.9007406,0.3056097,-0.496003,0.6519637,0.9587865],[-0.1847101,-0.8951395,-0.8011005]],[[-0.3586711,0.2067262,-0.4206487,-0.245113,0.605763,0.2410358,-0.1762649,-0.1078306,-0.2326583,-0.2685839,-0.3349668,0.1948301,-0.9799192,0.5675137,-0.9443874,0.3403198],[-0.7086775,-0.04256237,0.9954314,-0.4328014,0.7335136,0.7497461,0.04425108,0.9384475,-0.772038,-0.2827517,-0.3373855,-0.9007406,0.3056097,-0.496003,0.6519637,0.9587865],[-0.1847101,-0.8951395,-0.8011005]],[[-0.3586711,0.2067262,-0.4206487,-0.245113,0.605763,0.2410358,-0.1762649,-0.1078306,-0.2326583,-0.2685839,-0.3349668,0.1948301,-0.9799192,0.5675137,-0.9443874,0.3403198],[-0.7086775,-0.04256237,0.9954314,-0.6265717,0.7335136,0.7497461,0.04425108,0.9384475,-0.772038,-0.2827517,-0.3373855,-0.9007406,0.3056097,-0.496003,0.6519637,0.9587865],[-0.1847101,-0.8951395,-0.8011005]],[[-0.3586711,0.2067262,-0.4206487,-0.245113,0.605763,0.2410358,-0.1762649,-0.1078306,-0.2326583,-0.2685839,-0.3349668,0.1948301,-0.9799192,0.5675137,-0.9443874,0.3403198],[-0.7086775,-0.04256237,0.9954314,-0.4328014,0.7335136,0.7497461,0.04425108,0.9384475,-0.772038,-0.2827517,-0.3373855,-0.9007406,0.3056097,-0.496003,0.6519637,0.9587865],[-0.1847101,-0.8951395,-0.8011005]],[[-0.3586711,0.2067262,-0.4206487,-0.245113,0.605763,0.2410358,-0.1762649,-0.1078306,-0.2326583,-0.2685839,-0.3349668,0.1948301,-0.9799192,0.5675137,-0.9443874,0.3403198],[-0.7086775,-0.04256237,0.9954314,-0.4328014,0.7335136,0.7497461,0.04425108,0.9384475,-0.772038,-0.2827517,-0.3373855,-0.9007406,0.3056097,-0.496003,0.6519637,0.9587865],[-0.1847101,-0.8951395,-0.8011005]],[[-0.3586711,0.5732527,-0.4206487,-0.245113,0.605763,0.2410358,-0.1762649,-0.1078306,-0.09848464,-0.2685839,-0.3349668,0.1948301,-0.9799192,0.5675137,-0.9443874,0.3403198],[-0.7086775,-0.04256237,0.9954314,-0.4328014,0.7335136,0.7497461,0.04425108,0.9384475,-0.772038,-0.2827517,-0.3373855,-0.9007406,0.3056097,-0.496003,0.6519637,0.9587865],[-0.1847101,-0.8951395,0.1492072]],[[-0.3586711,0.4406495,-0.4206487,-0.245113,0.605763,0.2410358,-0.1762649,-0.1078306,-0.2326583,-0.2685839,-0.3349668,0.1948301,-0.9799192,0.5675137,-0.9443874,0.3403198],[-0.7086775,-0.04256237,0.9954314,-0.4328014,0.7335136,0.7497461,0.04425108,0.9384475,-0.772038,-0.2827517,-0.3373855,-0.9007406,0.3056097,-0.496003,0.6519637,0.9587865],[-0.1847101,-0.8951395,-0.8011005]],[[-0.3586711,0.2067262,-0.4206487,-0.245113,0.605763,0.2410358,-0.1762649,-0.1078306,-0.2326583,-0.2685839,-0.3349668,0.1948301,-0.9799192,0.5675137,-0.9443874,0.3403198],[-0.7086775,-0.04256237,0.9954314,-0.4328014,0.7335136,0.7497461,0.04425108,0.9384475,-0.772038,-0.2827517,-0.3373855,-0.9007406,0.3056097,-0.496003,0.6519637,0.9587865],[-0.1847101,-0.8951395,-0.8011005]],[[-0.3586711,0.2067262,-0.4206487,-0.245113,0.605763,0.2410358,-0.1762649,-0.1078306,-0.2326583,-0.2685839,-0.3349668,0.1948301,-0.9799192,0.5675137,-0.9443874,0.3403198],[-0.7086775,-0.04256237,0.9954314,-0.4328014,0.7335136,0.9379253,0.04425108,0.9384475,-0.772038,-0.2827517,-0.3373855,-0.9007406,0.3056097,-0.496003,0.6519637,0.9587865],[-0.1847101,-0.8951395,-0.8011005]],[[-0.3586711,0.2067262,-0.4206487,-0.245113,0.605763,0.2410358,-0.1762649,-0.1078306,-0.2326583,-0.2685839,-0.3349668,0.1948301,-0.9799192,0.5675137,-0.9443874,0.3403198],[-0.7086775,-0.04256237,0.9954314,-0.4328014,0.7335136,0.7497461,0.04425108,0.9384475,-0.772038,-0.2827517,-0.3373855,-0.9007406,0.3056097,-0.496003,0.6519637,0.9587865],[-0.1847101,-0.8951395,-0.8011005]],[[-0.3586711,0.2067262,-0.4206487,-0.245113,0.605763,-0.5864625,-0.1762649,-0.1078306,-0.2326583,-0.2685839,-0.3349668,0.1948301,-0.9799192,0.5675137,-0.9443874,0.3403198],[-0.7086775,-0.04256237,0.9954314,-0.4328014,0.7335136,0.7497461,0.04425108,0.9384475,-0.772038,-0.2827517,-0.3373855,-0.9007406,0.3056097,-0.496003,0.6519637,0.9587865],[-0.1847101,-0.8951395,-0.9206936]],[[-0.3586711,0.2067262,-0.4206487,-0.245113,0.605763,0.2410358,-0.1762649,-0.1078306,0.2521996,-0.2685839,-0.3349668,0.1948301,-0.9799192,0.5675137,-0.9443874,0.3403198],[-0.7086775,-0.04256237,0.9954314,-0.4328014,0.7335136,0.7497461,0.04425108,0.9384475,-0.772038,-0.2827517,-0.3373855,-0.9007406,0.3056097,-0.496003,0.6519637,0.9587865],[-0.1847101,-0.8951395,-0.8011005]],[[-0.3586711,0.2067262,-0.4206487,-0.9220231,0.605763,0.2410358,-0.1762649,-0.1078306,-0.2326583,-0.2685839,-0.3349668,0.1948301,-0.9799192,0.5675137,-0.9443874,0.3403198],[-0.7086775,-0.04256237,0.9954314,-0.4328014,0.7335136,0.7497461,0.04425108,0.9384475,-0.772038,-0.2827517,-0.3373855,-0.9007406,0.3056097,-0.496003,0.6519637,0.9587865],[-0.1847101,-0.8951395,-0.8011005]],[[-0.3586711,0.2067262,-0.4206487,-0.245113,0.605763,0.2410358,-0.1762649,-0.1078306,-0.2326583,-0.2685839,-0.3349668,0.1948301,-0.9799192,0.5675137,-0.9443874,0.3403198],[-0.7086775,-0.04256237,0.9954314,-0.4328014,0.7335136,0.7497461,0.04425108,0.9384475,-0.772038,-0.2827517,-0.3373855,-0.9007406,0.3056097,-0.496003,0.6519637,0.9587865],[-0.1847101,-0.8951395,-0.8011005]],[[-0.3586711,0.2067262,-0.4206487,-0.245113,0.605763,0.2410358,-0.1762649,-0.1078306,-0.2326583,-0.2685839,-0.3349668,0.1948301,-0.9799192,0.5675137,-0.9443874,0.3403198],[-0.7086775,-0.04256237,0.9954314,-0.4328014,0.7335136,0.7497461,0.04425108,0.9384475,-0.772038,-0.2827517,-0.3373855,-0.9007406,0.3056097,-0.496003,0.6519637,0.9587865],[-0.1847101,-0.8951395,-0.8011005]],[[-0.3586711,0.2067262,-0.4206487,-0.245113,0.605763,0.2410358,-0.1762649,-0.1078306,-0.2326583,-0.2685839,-0.3349668,0.1948301,-0.9799192,0.5675137,-0.9443874,0.3403198],[-0.7086775,-0.04256237,0.9954314,-0.4328014,0.7335136,0.7497461,0.04425108,0.9384475,-0.772038,-0.2827517,-0.3373855,-0.9007406,0.3056097,-0.496003,0.6519637,0.9587865],[-0.1847101,-0.8951395,-0.8011005]],[[-0.3586711,0.2067262,-0.4206487,-0.245113,0.605763,0.2410358,-0.1762649,-0.1078306,-0.2326583,-0.2685839,-0.3349668,0.1948301,-0.9799192,0.5675137,-0.9443874,0.3403198],[-0.7086775,-0.04256237,0.9954314,-0.4328014,0.7335136,0.7497461,0.04425108,0.9384475,-0.772038,-0.2827517,-0.3373855,-0.9007406,0.3056097,-0.496003,0.6519637,0.9587865],[-0.1847101,-0.8951395,-0.8011005]],[[-0.3586711,0.2067262,-0.4206487,-0.245113,0.605763,0.2410358,-0.1762649,-0.1078306,-0.2326583,-0.2685839,-0.3349668,0.9769628,-0.9799192,0.5675137,-0.9443874,0.3403198],[-0.7086775,-0.04256237,0.9954314,0.334224,0.7335136,0.7497461,0.04425108,0.9384475,-0.772038,-0.2827517,-0.3373855,-0.9007406,0.3056097,-0.496003,0.6519637,0.9587865],[-0.1847101,-0.8951395,-0.8011005]],[[-0.3586711,0.2067262,-0.4206487,-0.245113,0.605763,0.2410358,-0.1762649,-0.1078306,-0.2326583,-0.2685839,-0.3349668,0.1948301,-0.9799192,0.5675137,-0.9443874,0.3403198],[-0.7086775,-0.04256237,0.9954314,-0.4328014,0.7335136,0.7497461,0.04425108,0.9384475,-0.772038,-0.2827517,-0.3373855,-0.9007406,0.3056097,-0.496003,0.6519637,0.9587865],[-0.1847101,-0.8951395,0.7386489]],[[-0.3586711,0.2067262,-0.4206487,-0.245113,0.605763,0.2410358,-0.1762649,-0.1078306,-0.2326583,-0.2685839,-0.3349668,0.1948301,-0.9799192,0.5675137,-0.9443874,0.3403198],[-0.7086775,-0.04256237,0.5300081,-0.4328014,0.7335136,0.7497461,0.04425108,0.9384475,-0.772038,-0.2827517,-0.3373855,-0.9007406,0.3056097,-0.496003,0.6519637,0.9587865],[-0.1847101,-0.8951395,-0.8011005]],[[-0.3586711,0.2067262,-0.4206487,-0.1840106,0.605763,0.2410358,-0.1762649,-0.1078306,-0.2326583,-0.2685839,-0.7955587,0.1948301,-0.9799192,0.5675137,-0.9443874,0.3403198],[-0.7086775,-0.04256237,0.9954314,-0.4328014,0.7335136,0.7497461,0.04425108,0.9384475,-0.772038,-0.2827517,-0.3373855,-0.9007406,0.3056097,-0.496003,0.6519637,0.9587865],[-0.1847101,-0.8951395,-0.8011005]],[[-0.3586711,0.2067262,-0.4206487,-0.245113,0.605763,0.2410358,-0.1762649,-0.1078306,-0.2326583,-0.2685839,-0.3349668,0.1948301,-0.9799192,0.5675137,-0.9443874,0.3403198],[-0.7086775,-0.04256237,0.9954314,-0.4328014,0.7335136,0.7497461,0.04425108,0.9384475,-0.772038,-0.2827517,-0.3373855,-0.9007406,0.3056097,-0.496003,0.6519637,0.9587865],[-0.1847101,-0.8951395,-0.8011005]],[[-0.3586711,0.2067262,-0.4206487,-0.245113,0.605763,0.2410358,-0.1762649,-0.1078306,-0.2326583,-0.2685839,-0.3349668,0.1948301,-0.9799192,0.5675137,-0.9443874,0.3403198],[-0.7086775,-0.04256237,0.9954314,-0.4328014,0.7335136,0.7497461,0.04425108,0.9384475,-0.772038,-0.2827517,-0.3373855,-0.9007406,0.3056097,-0.496003,0.6519637,0.9587865],[-0.1847101,-0.8951395,-0.8011005]],[[-0.3586711,0.2067262,-0.4206487,-0.245113,0.605763,0.2410358,-0.1762649,-0.1078306,-0.2326583,-0.2685839,-0.3349668,0.1948301,-0.9799192,0.5675137,-0.9443874,0.3403198],[-0.7086775,-0.04256237,0.9954314,-0.4328014,0.7335136,0.7497461,0.04425108,0.9384475,-0.772038,-0.2827517,-0.3373855,-0.9007406,0.3056097,-0.496003,0.6519637,0.9587865],[-0.1847101,0.2571013,-0.8011005]]]