[[[-0.2423347,-0.5886836,0.6647048,-0.1913084,0.9235783,0.3366937,-0.3626865,-0.4617063,-0.9009426,-0.1051215,0.8847179,0.7868752,0.8966148,0.369812,0.6351221,-0.9296815],[-0.627877,-0.4872929,0.5863426,0.395178,0.8061705,0.3099684,-0.07435405,-0.8801703,0.4900758,0.5595891,-0.438301,-0.02655351,0.5637994,0.1795501,-0.4138545,0.1802763],[-0.7800486,-0.2426957,-0.537291,0.246061,-0.2602357,0.4025511,-0.3278078,0.4550996,0.9027791,-0.04232967,-0.1060635,-0.696811,0.8994286,0.006585717,0.6729119,-0.4920195],[-0.2171773,0.6414249,-0.1616694,0.3511634,-0.5221391,-0.5742176,-0.2117926,-0.9496145,0.5477962,0.6606445,-0.42316,-0.2660939,0.0790385,-0.8220775,0.7409678,0.4505412],[-0.2306818,0.4061999,-0.5781045,-0.7747886,0.3186161]],[[0.5780189,-0.5886836,0.6647048,-0.1913084,0.9235783,-0.9871182,-0.3626865,-0.4617063,-0.9009426,-0.1051215,0.8847179,0.2045592,0.8966148,0.369812,0.6351221,-0.9296815],[-0.627877,-0.4872929,0.5863426,0.395178,0.8061705,0.3099684,-0.07435405,-0.8801703,0.4900758,0.5595891,-0.438301,-0.02655351,0.5637994,-0.8158083,-0.4138545,0.1802763],[-0.7800486,-0.2426957,-0.537291,0.246061,-0.2602357,0.4025511,-0.3278078,0.4550996,0.9027791,-0.04232967,-0.1060635,-0.696811,0.8994286,0.006585717,0.6729119,-0.4920195],[-0.2171773,0.6414249,-0.1616694,0.3511634,-0.5221391,-0.5742176,-0.2117926,-0.9496145,0.5477962,0.6606445,-0.42316,-0.2660939,0.0790385,-0.8220775,0.7409678,0.4505412],[-0.2306818,0.4061999,-0.5781045,-0.7747886,0.3186161]],[[0.5780189,-0.5886836,0.6647048,-0.1913084,0.9235783,-0.9871182,-0.3626865,-0.4617063,-0.9009426,-0.1051215,0.8847179,0.2045592,0.8966148,0.369812,0.6351221,-0.9296815],[0.4627669,-0.4872929,0.5863426,0.395178,0.8061705,0.3099684,-0.07435405,-0.8801703,0.4900758,0.5595891,-0.438301,-0.02655351,0.5637994,-0.8158083,-0.4138545,0.1802763],[-0.7800486,-0.2426957,-0.537291,0.246061,-0.2602357,0.4025511,-0.3278078,0.4550996,-0.9001806,-0.04232967,-0.1060635,-0.696811,0.8994286,0.006585717,0.6729119,-0.4920195],[-0.2171773,0.6414249,0.4453499,0.3511634,-0.5221391,-0.5742176,-0.2117926,0.7369635,0.5477962,0.6606445,-0.42316,-0.2660939,0.0790385,-0.8220775,0.7409678,0.4505412],[-0.2306818,0.4061999,-0.5781045,-0.7747886,0.3186161]],[[0.5780189,-0.5886836,0.6647048,-0.1913084,0.9235783,-0.9871182,-0.3626865,-0.4617063,-0.9009426,-0.1051215,0.8847179,0.2045592,0.8966148,0.369812,0.6351221,-0.9296815],[0.4627669,-0.4872929,0.5863426,0.395178,0.8061705,0.3099684,-0.07435405,-0.8801703,0.4900758,0.5595891,-0.438301,-0.02655351,0.5637994,-0.8158083,-0.4138545,0.1802763],[-0.7800486,-0.2426957,-0.537291,0.246061,-0.2602357,0.4025511,-0.3278078,0.4550996,-0.9001806,-0.04232967,-0.1060635,-0.696811,0.8994286,0.006585717,0.6729119,-0.4920195],[-0.2171773,0.6414249,0.4453499,0.3511634,-0.5221391,-0.5742176,-0.2117926,0.7369635,0.5477962,0.6606445,-0.42316,-0.2660939,0.0790385,-0.8220775,0.7409678,0.4505412],[-0.2306818,0.4061999,-0.5781045,-0.7747886,0.3186161]],[[0.5780189,-0.5886836,0.6647048,-0.1913084,0.9235783,-0.6764622,-0.3626865,-0.4617063,-0.9009426,-0.1051215,0.8847179,0.2045592,0.8966148,0.369812,0.4433582,-0.9296815],[0.4627669,-0.4872929,0.5863426,0.395178,0.8061705,0.3099684,-0.07435405,-0.8801703,0.4900758,0.5595891,-0.438301,-0.02655351,0.5637994,-0.8158083,-0.4138545,0.1802763],[-0.7800486,-0.2426957,-0.537291,0.246061,-0.2602357,0.4025511,-0.3278078,0.4550996,-0.9001806,-0.04232967,-0.1060635,-0.696811,0.8994286,0.006585717,0.6729119,-0.4920195],[-0.2171773,0.6414249,0.4453499,0.3511634,-0.5221391,-0.5742176,-0.2117926,0.7369635,0.5477962,0.6606445,-0.42316,-0.2660939,0.0790385,-0.8220775,0.7409678,0.4505412],[-0.2306818,0.4061999,-0.5781045,-0.7747886,0.3186161]],[[0.5780189,-0.5886836,0.6647048,-0.1913084,0.9235783,-0.9871182,-0.3626865,-0.4617063,-0.9009426,-0.1051215,0.8847179,0.2045592,0.8966148,0.369812,0.6351221,-0.9296815],[-0.627877,-0.4872929,0.5863426,0.395178,0.8061705,0.3099684,-0.07435405,-0.8801703,0.4900758,0.5595891,-0.438301,-0.02655351,0.5637994,-0.8158083,-0.4138545,0.1802763],[-0.7800486,-0.2426957,-0.537291,0.246061,-0.2602357,0.4025511,-0.3278078,0.4550996,0.9027791,-0.04232967,-0.1060635,-0.696811,0.8994286,0.006585717,0.6729119,-0.4920195],[-0.2171773,0.6414249,-0.1616694,0.3511634,-0.5221391,-0.5742176,-0.2117926,-0.9496145,0.5477962,0.6606445,-0.42316,-0.2660939,0.0790385,-0.8220775,0.7409678,0.4505412],[-0.2306818,0.4061999,-0.5781045,-0.7747886,0.3186161]],[[0.5780189,-0.6016819,0.6647048,-0.1913084,0.9235783,-0.9871182,-0.3626865,-0.4617063,-0.9009426,-0.1051215,0.8847179,0.2045592,0.8966148,0.369812,0.6351221,-0.9296815],[0.4627669,-0.4872929,0.5863426,0.395178,0.8061705,0.3099684,-0.07435405,-0.8801703,0.4900758,0.5595891,-0.438301,-0.02655351,0.5637994,-0.8158083,-0.4138545,0.1802763],[-0.7800486,-0.2426957,-0.537291,0.246061,-0.2602357,0.4025511,-0.3278078,0.4550996,-0.9001806,-0.04232967,-0.1060635,-0.696811,0.8994286,0.006585717,0.6729119,-0.4920195],[-0.2171773,0.6414249,0.4453499,0.3511634,-0.5221391,-0.5742176,-0.2117926,0.7369635,0.5477962,0.6606445,-0.42316,-0.2660939,0.0790385,-0.8220775,0.7409678,0.4505412],[-0.2306818,0.4061999,-0.5781045,-0.7747886,0.3186161]],[[0.5780189,-0.5886836,0.6647048,-0.1913084,0.9235783,-0.9871182,-0.3626865,-0.4617063,-0.9009426,-0.1051215,0.8847179,0.4120283,0.8966148,0.369812,0.6351221,-0.9296815],[0.4627669,-0.4872929,0.5863426,0.395178,0.1846446,0.3099684,-0.07435405,-0.8801703,0.4900758,0.5595891,-0.438301,-0.02655351,0.5637994,-0.8158083,-0.4138545,0.1802763],[-0.7800486,-0.2426957,-0.537291,0.246061,-0.2602357,0.4025511,-0.3278078,0.4944098,-0.9001806,-0.04232967,-0.1060635,-0.696811,0.09547484,0.01521623,0.6729119,-0.4920195],[-0.2171773,0.6414249,0.4453499,-0.1324517,-0.5221391,-0.5742176,-0.2117926,0.7369635,0.5477962,0.6606445,-0.42316,0.03918183,-0.4805504,-0.8220775,0.7409678,0.4505412],[-0.2306818,0.4061999,-0.5781045,-0.7747886,0.3186161]],[[0.5780189,-0.5886836,0.6647048,-0.1913084,0.9235783,-0.9871182,-0.3626865,-0.4617063,-0.9009426,-0.1051215,0.8847179,0.2045592,0.8966148,0.369812,0.6351221,-0.9296815],[-0.627877,-0.4872929,0.5863426,0.395178,0.8061705,0.3099684,-0.07435405,-0.8801703,0.4900758,0.5595891,-0.438301,-0.02655351,0.5637994,-0.8158083,-0.4138545,0.1802763],[-0.7800486,-0.2426957,-0.537291,0.246061,-0.2602357,0.4025511,-0.3278078,0.4550996,0.9027791,-0.04232967,-0.1060635,-0.696811,0.8994286,0.006585717,0.6729119,-0.4920195],[-0.2171773,0.6414249,-0.1616694,0.3511634,-0.5221391,-0.5742176,-0.2117926,-0.9496145,0.5477962,0.6606445,-0.42316,-0.2660939,0.0790385,-0.8220775,0.7409678,0.4505412],[-0.2306818,0.4061999,-0.5781045,-0.7747886,0.3186161]],[[0.5780189,-0.5886836,0.6647048,-0.1913084,0.8417797,-0.9871182,-0.3626865,-0.4617063,-0.9009426,-0.1051215,0.8847179,0.2045592,0.8966148,0.369812,0.6351221,-0.9296815],[0.4627669,-0.4872929,0.5863426,0.395178,0.8061705,0.3099684,-0.07435405,-0.8801703,0.4900758,0.5595891,-0.438301,-0.02655351,0.5637994,-0.8158083,-0.4138545,0.1802763],[-0.7800486,-0.2426957,-0.537291,0.246061,-0.2602357,0.4025511,-0.3278078,0.4550996,-0.9001806,0.4156415,-0.1060635,-0.696811,0.8994286,0.006585717,0.6729119,-0.4920195],[-0.2171773,0.6414249,0.4453499,0.3511634,-0.5221391,-0.5742176,-0.2117926,0.7369635,0.5477962,0.6606445,-0.42316,-0.2660939,0.0790385,-0.8220775,0.7409678,0.4505412],[-0.2306818,0.4061999,-0.5781045,-0.7747886,0.3186161]],[[0.5780189,-0.5886836,0.6647048,-0.1913084,0.9235783,-0.9871182,-0.3626865,-0.4617063,-0.9009426,-0.1051215,0.8847179,0.2045592,0.8966148,0.369812,0.6351221,-0.9296815],[0.4627669,-0.4872929,0.5863426,0.395178,0.8061705,0.3099684,-0.07435405,-0.8801703,0.4900758,0.5595891,-0.438301,-0.02655351,0.5637994,-0.8158083,-0.4138545,0.1802763],[-0.7800486,-0.2426957,-0.537291,0.246061,-0.2602357,0.4025511,-0.3278078,0.4550996,-0.9001806,-0.04232967,-0.1060635,-0.696811,0.8994286,0.006585717,0.6729119,-0.4920195],[-0.2171773,0.6414249,0.4453499,0.3511634,-0.5221391,-0.5742176,-0.2117926,0.7369635,0.5477962,0.6606445,-0.42316,-0.2660939,0.0790385,-0.8220775,0.7409678,0.4505412],[-0.2306818,0.4061999,-0.5781045,-0.7747886,0.3186161]],[[0.5780189,-0.5886836,0.6647048,-0.1913084,0.9235783,-0.9871182,-0.3626865,-0.4617063,-0.9009426,-0.1051215,0.8847179,0.2045592,0.8966148,0.369812,0.6351221,-0.9296815],[0.4627669,-0.4872929,0.5863426,0.395178,0.8061705,0.3099684,-0.07435405,-0.8801703,0.4900758,0.5595891,-0.438301,-0.02655351,0.5637994,-0.8158083,-0.4138545,-0.1484021],[-0.7800486,-0.2426957,-0.537291,0.246061,-0.2602357,0.4025511,-0.3278078,0.4550996,-0.9001806,-0.04232967,-0.1060635,-0.696811,0.8994286,0.006585717,0.6729119,-0.4920195],[-0.2171773,0.6414249,0.4453499,0.3511634,-0.5221391,-0.5742176,-0.2117926,0.7369635,0.5477962,0.6606445,-0.42316,-0.2660939,0.0790385,-0.8220775,0.7409678,0.4505412],[-0.2306818,0.4061999,-0.5781045,-0.7747886,0.3186161]],[[0.5780189,-0.5886836,0.6647048,-0.1913084,0.9235783,-0.9871182,-0.3626865,-0.4617063,-0.9009426,-0.1051215,0.8847179,0.2045592,0.8966148,0.369812,0.6351221,-0.9296815],[-0.627877,-0.4872929,0.5863426,0.395178,0.8061705,0.3099684,-0.07435405,-0.8801703,0.4900758,0.5595891,-0.438301,-0.02655351,0.5637994,0.953074,-0.4138545,0.1802763],[-0.7800486,-0.2426957,-0.537291,0.246061,-0.2602357,0.4025511,-0.3278078,0.4550996,0.9027791,-0.04232967,-0.1060635,-0.696811,0.8994286,0.006585717,0.6729119,0.380218],[-0.2171773,0.6414249,-0.1616694,0.3511634,-0.5221391,-0.5742176,-0.2117926,-0.9496145,0.5477962,0.6606445,-0.42316,-0.2660939,0.0790385,-0.8220775,0.7409678,0.4505412],[-0.2306818,0.4061999,-0.5781045,-0.7747886,0.3186161]],[[0.5071421,-0.5886836,0.6647048,-0.1913084,0.9235783,-0.9871182,-0.3626865,-0.4617063,-0.9009426,-0.1051215,0.8847179,0.2045592,0.8966148,0.369812,0.6351221,-0.9296815],[0.4627669,-0.4872929,0.5863426,0.395178,0.8061705,0.3099684,-0.07435405,-0.8801703,0.4900758,0.5595891,-0.438301,-0.02655351,0.5637994,-0.8158083,-0.4138545,0.1802763],[-0.7800486,-0.2426957,-0.5483057,0.246061,-0.2602357,0.4025511,-0.3278078,0.4550996,-0.9001806,-0.04232967,-0.1060635,-0.696811,0.8994286,0.006585717,0.6729119,-0.4920195],[-0.2171773,0.6414249,0.4453499,0.3511634,-0.5221391,-0.5742176,-0.2117926,0.7369635,0.5477962,0.6606445,-0.42316,-0.2660939,0.0790385,-0.8220775,0.7409678,0.4505412],[-0.2306818,0.4061999,-0.5781045,0.5220068,0.3186161]],[[0.5780189,-0.5886836,0.6647048,-0.1913084,0.9235783,-0.9871182,-0.3626865,-0.4617063,-0.9009426,-0.1051215,0.8847179,0.2045592,0.8966148,0.369812,0.6351221,-0.9296815],[0.4627669,-0.5596519,0.5863426,0.395178,0.8061705,0.3099684,-0.07435405,-0.8801703,0.4900758,0.5595891,-0.438301,-0.02655351,0.5637994,-0.8158083,-0.4138545,-0.1484021],[-0.7800486,-0.2426957,-0.537291,0.246061,-0.2602357,0.4025511,-0.3278078,0.4550996,-0.9001806,-0.04232967,-0.1060635,-0.696811,0.8994286,0.006585717,0.6729119,-0.4920195],[-0.2171773,0.6414249,0.4453499,0.3511634,-0.5221391,-0.5742176,-0.2117926,0.7369635,0.5477962,0.6606445,-0.42316,-0.2660939,0.0790385,-0.8220775,0.7409678,0.4505412],[-0.2306818,0.4061999,-0.5781045,-0.7747886,0.723882]],[[0.5780189,-0.5886836,0.6647048,-0.1913084,0.9235783,-0.9871182,-0.3626865,-0.4617063,-0.9009426,-0.1051215,0.8847179,0.2045592,0.8966148,0.4198556,0.6351221,-0.9296815],[0.4627669,-0.4872929,0.5863426,0.395178,0.8061705,0.3099684,-0.07435405,0.3487668,0.4900758,0.5595891,-0.438301,-0.02655351,0.5637994,-0.8158083,-0.4138545,0.1802763],[-0.7800486,-0.2426957,-0.537291,0.246061,-0.2602357,0.4025511,-0.3278078,0.4550996,-0.9001806,-0.04232967,-0.1060635,-0.696811,0.8994286,0.006585717,0.6729119,-0.4920195],[-0.2171773,0.6414249,0.4453499,0.3511634,-0.5221391,-0.5742176,-0.2117926,0.7369635,0.5477962,0.6606445,-0.42316,-0.2660939,0.0790385,-0.8220775,0.7409678,0.4505412],[-0.2306818,0.4061999,-0.5781045,-0.7747886,0.3186161]],[[0.5780189,-0.5886836,0.6647048,-0.1913084,0.9235783,-0.9871182,-0.3626865,-0.4617063,-0.9009426,-0.1051215,0.8847179,0.2045592,0.8966148,0.369812,0.6351221,-0.9296815],[-0.627877,-0.4872929,0.5863426,0.395178,0.8061705,0.3099684,-0.07435405,-0.8801703,0.4900758,0.5595891,-0.438301,-0.02655351,0.5637994,-0.8158083,-0.4138545,0.1802763],[-0.7800486,-0.2426957,-0.537291,0.246061,-0.2602357,0.4025511,-0.3278078,0.4550996,0.9027791,-0.04232967,-0.1060635,-0.696811,0.8994286,0.006585717,0.6729119,-0.4920195],[-0.2171773,0.6414249,-0.1616694,0.3511634,-0.5221391,-0.5742176,-0.2117926,-0.9496145,0.5477962,0.6606445,-0.42316,-0.2660939,0.0790385,-0.8220775,0.7409678,0.4505412],[-0.2306818,0.4061999,-0.5781045,-0.7747886,0.3186161]],[[0.5780189,-0.5886836,0.6647048,-0.1913084,0.9235783,-0.9871182,-0.3626865,-0.4617063,-0.9009426,-0.1051215,0.8847179,0.2045592,0.8966148,0.369812,0.6351221,-0.9296815],[0.4627669,-0.4872929,0.5863426,0.395178,0.8061705,0.3099684,-0.07435405,-0.8801703,0.4900758,0.5595891,-0.438301,-0.02655351,0.5637994,-0.8158083,-0.4138545,0.1802763],[-0.7800486,-0.2426957,-0.537291,0.246061,-0.2602357,0.4025511,-0.3278078,0.4550996,-0.9001806,-0.04232967,-0.1060635,-0.696811,0.8994286,0.4797926,0.6729119,-0.4920195],[-0.2171773,0.6327777,0.4453499,0.3511634,-0.5221391,-0.5742176,-0.2117926,-0.6759806,0.5477962,0.6606445,-0.42316,-0.2660939,0.0790385,-0.8220775,0.7409678,0.4505412],[0.202058,0.4061999,-0.5781045,-0.7747886,0.3186161]],[[-0.2423347,-0.5886836,0.6647048,-0.1913084,0.9235783,-0.3920444,-0.3626865,-0.4617063,-0.9009426,-0.1051215,0.8847179,0.6561856,0.8966148,0.369812,0.6351221,-0.9296815],[-0.627877,-0.4872929,0.5863426,0.395178,0.8061705,0.3099684,-0.07435405,-0.8801703,0.4900758,0.5595891,-0.316975,-0.02655351,0.5637994,0.1795501,-0.4138545,0.08693087],[-0.7800486,-0.2426957,-0.537291,0.246061,-0.2602357,0.4025511,-0.3278078,0.4550996,0.9027791,-0.04232967,-0.1060635,-0.696811,0.8994286,0.006585717,0.6729119,-0.4920195],[-0.2171773,0.6414249,-0.1616694,0.3511634,-0.5221391,-0.5742176,-0.2117926,-0.9496145,0.5477962,0.6606445,-0.42316,-0.2660939,0.0790385,-0.8220775,0.7409678,0.4505412],[-0.2306818,0.4061999,-0.5781045,-0.7747886,0.3186161]],[[0.5780189,-0.5886836,0.6647048,-0.1913084,0.9235783,-0.9871182,-0.3626865,-0.4617063,-0.9009426,-0.1051215,0.8847179,0.2045592,0.8966148,0.369812,0.6351221,-0.9296815],[0.4627669,-0.4872929,0.5863426,0.395178,0.8061705,0.3099684,-0.07435405,0.3453295,0.4900758,0.5595891,-0.438301,-0.02655351,0.5637994,-0.8158083,-0.4138545,0.1802763],[-0.7800486,-0.2426957,-0.537291,0.246061,-0.2602357,0.4025511,-0.3278078,0.4550996,-0.9001806,-0.04232967,-0.1060635,-0.696811,0.8994286,0.006585717,0.3306336,-0.4920195],[-0.2171773,0.6414249,0.4453499,0.3511634,-0.5221391,-0.5742176,-0.2117926,0.7957458,0.5477962,0.6606445,-0.42316,-0.2660939,0.0790385,-0.8220775,0.7409678,0.4505412],[-0.2306818,0.4061999,-0.5781045,-0.7747886,0.3186161]],[[0.5780189,-0.5886836,0.6647048,-0.1913084,0.9235783,-0.9871182,-0.3626865,-0.4617063,-0.9009426,-0.1051215,0.8847179,0.2045592,0.8966148,0.369812,0.6351221,-0.9296815],[0.4627669,-0.4872929,0.5863426,0.395178,0.8061705,0.3099684,-0.07435405,-0.8801703,0.4900758,0.5595891,-0.438301,-0.02655351,0.5637994,-0.8158083,-0.4138545,0.1802763],[-0.7800486,-0.2426957,-0.537291,0.246061,-0.2602357,0.4025511,-0.3278078,0.4550996,-0.9001806,-0.04232967,-0.1060635,-0.696811,0.8994286,0.006585717,0.6729119,-0.4920195],[-0.2171773,0.6414249,0.4453499,0.3511634,-0.5221391,-0.5742176,-0.2117926,0.7369635,0.5477962,0.6606445,-0.42316,-0.2660939,0.0790385,-0.8220775,0.7409678,0.4505412],[0.6460335,0.4061999,-0.5781045,-0.7747886,0.3186161]],[[0.5780189,-0.5886836,0.6647048,-0.1913084,0.9235783,-0.9871182,-0.3626865,-0.4617063,-0.9009426,-0.1051215,0.8847179,0.2045592,0.8966148,-0.7213573,0.6351221,-0.9296815],[0.4627669,-0.4872929,0.5863426,0.395178,0.8061705,0.3099684,-0.07435405,-0.8801703,0.4900758,0.5595891,-0.438301,-0.02655351,0.5637994,-0.8158083,-0.4138545,0.1802763],[-0.7800486,-0.2426957,-0.537291,0.246061,-0.2602357,0.4025511,-0.3278078,0.4550996,-0.9001806,-0.04232967,-0.1060635,-0.696811,0.8994286,0.006585717,0.6729119,-0.4920195],[-0.2171773,0.6414249,0.4453499,0.3511634,-0.5221391,-0.5742176,-0.2117926,0.7369635,0.5477962,0.6606445,-0.42316,-0.2660939,0.0790385,-0.8220775,0.7409678,0.4505412],[-0.2306818,0.4061999,-0.5781045,-0.7747886,0.3186161]],[[0.5780189,-0.5886836,0.6647048,-0.1913084,0.9235783,-0.9871182,-0.3626865,-0.4617063,-0.6099436,-0.1051215,0.8847179,0.2045592,0.8966148,0.369812,0.1026617,-0.9296815],[-0.3348469,-0.4872929,0.5863426,0.395178,0.2226683,0.3099684,-0.1445745,-0.8801703,0.4900758,0.2556023,-0.438301,-0.02655351,0.5637994,0.9913788,-0.4138545,-0.04152668],[-0.7800486,-0.2426957,0.2141861,0.246061,-0.2602357,0.4025511,-0.4068624,0.4550996,-0.9001806,-0.04232967,0.3634338,-0.696811,0.8994286,0.006585717,0.6729119,-0.650434],[-0.5660698,-0.98177,0.4453499,0.3511634,-0.5221391,-0.5742176,0.5964456,0.7369635,-0.4508892,0.6606445,-0.42316,0.02592552,0.8140414,-0.8220775,-0.00790298,0.4505412],[-0.2306818,0.0277859,-0.9636509,-0.6430323,0.141683]],[[0.5780189,-0.5886836,0.6647048,-0.1913084,0.1562363,-0.9871182,-0.3626865,-0.4617063,-0.9009426,-0.1051215,0.8847179,0.2045592,0.8966148,0.369812,0.6351221,-0.9296815],[0.4627669,-0.4872929,0.5863426,0.395178,0.8061705,0.3099684,-0.07435405,-0.8801703,0.4900758,0.5595891,-0.438301,-0.02655351,0.5637994,-0.8158083,-0.4138545,0.1802763],[-0.9698031,-0.2426957,-0.537291,0.246061,-0.2602357,0.4025511,-0.3278078,0.4550996,-0.9001806,-0.04232967,-0.1060635,-0.696811,0.8994286,0.006585717,0.6729119,-0.4920195],[-0.2171773,0.6414249,0.4453499,0.3511634,-0.5221391,-0.5742176,-0.2117926,0.7369635,0.5477962,-0.4886218,-0.42316,-0.2660939,0.0790385,-0.8220775,0.7409678,0.4505412],[0.8310525,0.4061999,-0.5781045,-0.7747886,0.3186161]],[[0.08052385,-0.5886836,0.6647048,-0.1913084,0.9235783,-0.9871182,-0.3626865,-0.4617063,-0.9009426,-0.1051215,0.8847179,0.2045592,0.8966148,0.369812,0.6351221,-0.9296815],[0.4627669,-0.4872929,0.5863426,0.395178,0.8061705,0.3099684,-0.07435405,-0.8801703,0.4900758,0.5595891,-0.438301,-0.02655351,0.5637994,-0.8158083,-0.4138545,0.1802763],[-0.7800486,-0.2426957,-0.537291,0.246061,-0.2602357,0.4025511,-0.3278078,0.4550996,-0.9001806,-0.04232967,-0.1060635,-0.696811,0.8994286,0.006585717,0.6729119,-0.4920195],[-0.2171773,0.6414249,0.4453499,0.3511634,-0.5221391,-0.5742176,-0.2117926,0.7369635,0.5477962,0.6606445,-0.42316,-0.2660939,0.0790385,-0.8220775,0.7409678,0.4505412],[-0.2306818,0.4061999,-0.5781045,-0.7747886,0.3186161]],[[0.5780189,-0.5886836,0.6647048,-0.1913084,0.9235783,-0.9871182,-0.3626865,-0.4617063,-0.9009426,-0.1051215,0.8847179,0.2045592,0.8966148,0.369812,0.6351221,-0.9296815],[0.4627669,-0.4872929,0.5863426,0.395178,0.8061705,0.3099684,-0.07435405,-0.8801703,0.4900758,0.5595891,-0.438301,-0.02655351,0.5637994,-0.8158083,-0.4138545,0.1802763],[-0.7800486,-0.2426957,-0.537291,0.246061,-0.2602357,0.4025511,-0.3278078,0.4550996,-0.9001806,-0.04232967,-0.07971752,-0.696811,0.8994286,0.006585717,0.6729119,-0.4920195],[-0.2171773,0.6414249,0.4453499,0.3511634,-0.5221391,-0.5742176,-0.2117926,0.7369635,0.5477962,0.6606445,-0.42316,-0.2660939,0.0790385,-0.8220775,0.7409678,0.4505412],[-0.2306818,0.4061999,-0.5781045,-0.7747886,0.3186161]],[[0.5780189,-0.5886836,0.6647048,-0.1913084,0.9235783,-0.9871182,-0.3279995,-0.4617063,-0.9009426,-0.1051215,0.8847179,0.2045592,0.8966148,0.369812,0.6351221,-0.9296815],[-0.627877,-0.4872929,0.5863426,0.395178,0.8061705,0.3099684,-0.07435405,-0.8801703,0.4900758,0.5595891,-0.438301,-0.02655351,0.5637994,-0.8158083,-0.4138545,0.1802763],[-0.7800486,-0.2426957,-0.537291,0.246061,-0.2602357,0.4025511,-0.3278078,0.4550996,0.6015575,-0.04232967,-0.1060635,-0.696811,0.8994286,0.006585717,0.6729119,-0.4920195],[-0.2171773,0.6414249,-0.1616694,0.3511634,-0.5221391,-0.5742176,-0.2117926,-0.9496145,0.5477962,0.6606445,-0.42316,-0.2660939,0.0790385,-0.8220775,0.7409678,0.4505412],[-0.2306818,0.4061999,-0.5781045,-0.7747886,0.3186161]],[[0.5780189,-0.5886836,0.6647048,-0.1913084,0.9235783,-0.9871182,-0.3626865,-0.4617063,-0.9009426,-0.1051215,0.8847179,0.2045592,0.8966148,0.369812,0.6351221,-0.9296815],[0.4627669,-0.4872929,0.5863426,0.395178,0.8061705,0.3099684,-0.07435405,-0.8801703,0.4900758,0.5595891,-0.438301,-0.02655351,0.5637994,-0.8158083,-0.4138545,0.1802763],[-0.7800486,-0.2426957,-0.537291,0.246061,-0.2602357,0.4025511,-0.3278078,0.4550996,-0.9001806,-0.04232967,-0.1060635,-0.696811,0.8994286,0.006585717,0.6729119,-0.4920195],[-0.2171773,0.6414249,0.4453499,0.3511634,-0.5221391,-0.5742176,-0.2117926,0.7369635,0.5477962,0.6606445,-0.42316,-0.2660939,0.0790385,-0.8220775,0.7409678,0.4505412],[-0.2306818,0.4061999,-0.5781045,-0.7747886,0.3186161]],[[0.5780189,-0.5886836,0.6647048,-0.1913084,0.9235783,-0.9871182,-0.3626865,-0.4617063,-0.9009426,-0.1051215,0.8847179,0.2045592,0.8966148,0.369812,0.6351221,-0.9296815],[0.4627669,-0.4872929,0.5863426,0.395178,0.8061705,0.3099684,-0.07435405,-0.8801703,0.4900758,0.5595891,-0.438301,-0.02655351,0.5637994,-0.8158083,-0.4138545,0.1802763],[-0.7800486,-0.2426957,-0.537291,0.246061,-0.2602357,0.4025511,-0.3278078,0.4550996,-0.9001806,-0.04232967,-0.1060635,-0.696811,0.8994286,0.006585717,0.6729119,-0.4920195],[-0.2171773,0.6414249,0.4453499,0.3511634,-0.5221391,-0.5742176,-0.2117926,0.7369635,0.5477962,0.6606445,-0.42316,-0.2660939,0.0790385,-0.8220775,0.7409678,0.4505412],[-0.2306818,0.4061999,-0.5781045,-0.7747886,0.3186161]],[[0.5780189,-0.5886836,0.6647048,-0.1913084,0.9235783,-0.9871182,-0.3626865,-0.4617063,-0.6099436,-0.1051215,0.8847179,0.2045592,0.8966148,0.369812,0.1026617,0.1895708],[-0.3348469,-0.4872929,0.5863426,0.395178,0.2226683,0.3099684,-0.1445745,-0.8801703,0.4900758,0.2556023,-0.438301,-0.02655351,0.5637994,-0.8158083,-0.4138545,0.1802763],[-0.7800486,-0.2426957,0.2141861,0.246061,-0.2602357,0.4025511,-0.3278078,0.4550996,-0.9001806,-0.04232967,0.3634338,-0.696811,0.8994286,0.3619554,0.6729119,-0.650434],[-0.5660698,0.6414249,0.4453499,0.3511634,-0.5221391,-0.5742176,-0.06220758,0.7369635,-0.4508892,0.6606445,-0.42316,0.02592552,-0.5148084,-0.8220775,0.7409678,0.4505412],[-0.2306818,0.0277859,-0.5781045,-0.6430323,0.141683]],[[0.5780189,-0.5886836,0.6647048,-0.1913084,0.9235783,-0.9871182,-0.3626865,-0.4617063,-0.9009426,-0.1051215,0.8847179,0.2045592,0.3054511,0.369812,-0.5910444,-0.9296815],[0.4627669,-0.4872929,0.5863426,0.395178,0.8061705,0.3099684,-0.07435405,-0.8801703,0.4900758,0.5595891,-0.438301,-0.02655351,0.5637994,-0.8158083,-0.4138545,0.1802763],[-0.7800486,-0.2426957,-0.537291,0.246061,-0.2602357,0.4025511,-0.3278078,0.4550996,-0.9001806,-0.04232967,-0.1060635,-0.696811,0.8994286,0.006585717,0.6729119,-0.4920195],[-0.2171773,0.6414249,0.4453499,0.3511634,-0.5221391,-0.5742176,-0.2117926,0.7369635,0.5477962,0.6606445,-0.42316,-0.7809422,0.0790385,-0.8220775,0.7409678,0.4505412],[-0.2306818,0.4061999,-0.5781045,-0.7747886,0.3186161]],[[0.5780189,-0.5886836,0.6647048,-0.1913084,0.9235783,-0.9871182,-0.3626865,-0.4617063,-0.9009426,-0.1051215,0.8847179,0.2045592,0.8966148,0.369812,0.6351221,-0.9296815],[0.4627669,-0.4872929,0.5863426,0.395178,0.8061705,0.3099684,-0.07435405,-0.8801703,0.4900758,0.5595891,-0.438301,-0.02655351,0.5637994,-0.8158083,-0.4138545,0.1802763],[-0.7800486,-0.2426957,-0.537291,0.246061,-0.2602357,0.4025511,-0.3278078,0.4550996,-0.9001806,-0.04232967,-0.1060635,-0.696811,0.8994286,0.006585717,0.6729119,-0.4920195],[-0.2171773,0.6414249,0.4453499,0.3511634,-0.5221391,-0.5742176,-0.2117926,0.7369635,0.5477962,0.6606445,-0.42316,-0.2660939,0.0790385,-0.8220775,0.7409678,0.4505412],[-0.2306818,0.4061999,-0.5781045,-0.7747886,0.3186161]],[[0.5780189,-0.6016819,0.6647048,-0.1913084,0.9235783,-0.9871182,-0.3626865,-0.4617063,-0.9009426,-0.1051215,0.8847179,0.2045592,0.8966148,0.369812,0.6351221,-0.9296815],[0.4627669,-0.4872929,0.5863426,0.395178,0.8061705,0.3099684,-0.07435405,-0.8801703,0.4900758,0.5595891,-0.438301,-0.02655351,0.5637994,-0.8158083,-0.4138545,0.1802763],[-0.7800486,-0.2426957,-0.537291,0.246061,-0.2602357,0.4025511,-0.3278078,0.4550996,-0.9001806,-0.04232967,-0.1060635,-0.696811,0.8994286,0.006585717,0.6729119,-0.4920195],[-0.9478924,0.6414249,0.4453499,0.3511634,-0.5221391,-0.5742176,-0.2117926,0.7369635,0.5477962,0.6606445,-0.42316,-0.2660939,0.0790385,-0.8220775,0.7409678,0.4505412],[-0.2306818,0.4061999,-0.5781045,-0.7747886,0.3186161]],[[0.5780189,-0.5886836,0.6647048,-0.1913084,0.9235783,-0.9871182,-0.3626865,-0.4617063,-0.9009426,-0.1051215,0.8847179,0.2045592,0.8966148,0.369812,0.6351221,-0.9296815],[-0.3348469,-0.4872929,0.5863426,0.395178,0.8061705,0.3099684,-0.07435405,-0.8801703,0.4900758,0.5595891,-0.438301,-0.02655351,0.5637994,-0.8158083,-0.4138545,0.1802763],[-0.7800486,-0.2426957,-0.537291,0.246061,-0.2602357,0.4025511,-0.3278078,0.4550996,-0.9001806,-0.04232967,-0.1060635,-0.696811,0.8994286,0.006585717,0.6729119,-0.650434],[-0.2171773,0.6414249,0.4453499,0.3511634,-0.5221391,-0.5742176,-0.2117926,0.7369635,-0.4508892,0.6606445,-0.42316,-0.106933,0.0790385,-0.8220775,0.7225208,0.4505412],[-0.2306818,0.4061999,-0.5781045,-0.7747886,0.3186161]],[[0.5780189,-0.5886836,0.6647048,-0.1913084,0.8417797,-0.9871182,-0.3626865,-0.4617063,-0.9009426,-0.1051215,0.8847179,0.2045592,0.8966148,0.369812,0.6351221,-0.9296815],[0.4627669,-0.4872929,0.5863426,0.395178,0.8061705,0.3099684,-0.07435405,-0.8801703,0.4900758,0.5595891,-0.438301,-0.02655351,0.5637994,-0.8158083,-0.4138545,0.1802763],[-0.7800486,-0.2426957,-0.537291,0.246061,-0.2602357,0.4025511,-0.3278078,0.4550996,-0.9001806,0.4156415,-0.1060635,-0.696811,0.8994286,0.006585717,0.6729119,-0.4920195],[-0.2171773,0.6414249,0.4453499,0.3511634,-0.5221391,-0.0562948,-0.2117926,0.7369635,0.5477962,0.6606445,-0.42316,-0.2660939,0.0790385,-0.8220775,0.7409678,0.4505412],[-0.2306818,0.4061999,-0.5781045,-0.7747886,0.3186161]],[[0.5780189,-0.5886836,0.6647048,-0.1913084,0.9235783,-0.9871182,-0.3626865,-0.4617063,-0.9009426,-0.1051215,0.8847179,0.2045592,0.8966148,0.369812,0.6351221,-0.9296815],[0.4627669,-0.4872929,0.8829091,0.395178,0.8061705,0.3099684,0.3160939,-0.8801703,0.4900758,0.5595891,-0.438301,-0.02655351,0.5637994,-0.8158083,-0.4138545,0.1802763],[-0.7800486,-0.2426957,-0.537291,0.246061,-0.2602357,0.4025511,-0.3278078,0.4550996,-0.9001806,-0.04232967,-0.1060635,-0.696811,0.8994286,0.006585717,0.6729119,-0.4920195],[-0.2171773,0.6414249,0.4453499,0.3511634,-0.5221391,-0.5742176,-0.2117926,0.7369635,0.5477962,0.6606445,-0.42316,-0.2660939,0.0790385,-0.8220775,0.7409678,0.4505412],[-0.2306818,0.4061999,-0.5781045,-0.7747886,0.3186161]],[[0.08052385,-0.5886836,0.6647048,-0.1913084,0.9235783,-0.9871182,-0.3626865,-0.4617063,-0.9009426,-0.1051215,0.8847179,0.2045592,0.8966148,0.369812,0.6351221,-0.9296815],[0.4627669,-0.4872929,0.5863426,0.395178,0.8061705,0.3099684,-0.07435405,-0.8801703,0.4900758,0.5595891,-0.438301,-0.02655351,0.5637994,-0.8158083,-0.4138545,0.1802763],[-0.7800486,-0.2426957,-0.537291,0.246061,-0.2602357,0.4025511,-0.3278078,0.4550996,-0.9001806,-0.04232967,-0.1060635,-0.696811,0.8994286,0.006585717,0.6729119,-0.4920195],[-0.2171773,0.6414249,0.4453499,0.3511634,-0.5221391,-0.5742176,-0.2117926,0.7369635,0.5477962,0.6606445,-0.42316,-0.2660939,0.0790385,-0.8220775,0.7409678,0.4505412],[-0.2306818,0.4061999,-0.5781045,-0.7747886,0.3186161]],[[0.5780189,-0.6016819,0.6647048,-0.1913084,0.9235783,-0.9871182,-0.3626865,-0.4617063,-0.9009426,-0.1051215,0.8847179,0.2045592,0.8966148,0.369812,0.6351221,-0.9296815],[0.4627669,-0.4872929,0.5863426,0.395178,0.8061705,0.3099684,-0.07435405,-0.8801703,0.4900758,0.5595891,-0.438301,-0.02655351,0.5637994,-0.8158083,-0.4138545,0.1802763],[-0.7800486,-0.2426957,-0.537291,0.246061,-0.2602357,0.4025511,-0.3278078,0.4550996,-0.9001806,-0.04232967,-0.1060635,-0.696811,0.8994286,0.006585717,0.6729119,-0.4920195],[-0.2171773,0.6414249,0.4453499,0.3511634,-0.5221391,-0.5742176,-0.2117926,0.7369635,0.5477962,0.6606445,-0.42316,-0.2660939,0.0790385,-0.8220775,0.7409678,0.4505412],[-0.2306818,0.4061999,-0.5781045,-0.7747886,0.3186161]],[[0.5780189,-0.5886836,0.6647048,-0.1913084,0.9235783,-0.9871182,-0.3626865,-0.4617063,-0.9009426,-0.1051215,0.8847179,-0.9397831,0.8966148,0.369812,0.6351221,-0.9296815],[-0.627877,-0.4872929,0.5863426,0.395178,0.8061705,-0.3380414,-0.07435405,-0.8801703,0.4900758,0.5595891,-0.438301,-0.02655351,0.01901925,-0.373165,-0.4138545,0.1802763],[-0.7800486,-0.2426957,-0.537291,0.246061,-0.2602357,0.4025511,-0.3278078,0.4550996,0.9027791,-0.04232967,-0.1060635,-0.696811,0.8994286,0.006585717,0.6729119,-0.4920195],[-0.5233002,0.6414249,-0.1616694,0.3511634,-0.5221391,-0.5742176,-0.2117926,-0.9496145,0.5477962,0.6606445,-0.42316,-0.2660939,0.0790385,-0.8220775,0.7409678,0.4505412],[-0.2306818,0.4061999,-0.5781045,-0.7747886,0.3186161]],[[0.5780189,-0.5886836,0.6647048,-0.1913084,0.9235783,-0.9871182,-0.3626865,-0.4617063,-0.9009426,-0.1051215,0.8847179,0.2045592,0.8966148,0.369812,0.6351221,-0.9296815],[0.4627669,-0.4872929,0.5863426,0.395178,0.8061705,0.3099684,-0.07435405,-0.8801703,0.4900758,0.5595891,-0.438301,-0.02655351,0.5637994,-0.8158083,-0.4138545,0.1802763],[-0.7800486,-0.2426957,-0.537291,0.246061,-0.2602357,0.4025511,-0.3278078,0.4550996,-0.9001806,-0.04232967,-0.1060635,-0.696811,0.8994286,0.4797926,0.6729119,-0.4920195],[-0.2171773,0.6327777,0.4453499,0.3511634,-0.5221391,-0.5742176,-0.2117926,0.7369635,0.5477962,0.6606445,-0.42316,-0.2660939,0.0790385,-0.8220775,0.7409678,0.4505412],[-0.2306818,0.4061999,-0.5781045,-0.7747886,0.3186161]],[[0.5780189,-0.5886836,0.6647048,-0.1913084,0.9235783,-0.9871182,-0.3626865,-0.4617063,-0.9009426,-0.1051215,0.8847179,0.2045592,0.8966148,0.369812,0.6351221,-0.9296815],[0.4627669,-0.4872929,0.5863426,0.395178,0.8061705,0.3099684,-0.07435405,-0.8801703,0.4900758,0.5595891,-0.438301,-0.02655351,0.5637994,-0.8158083,-0.4138545,0.1802763],[-0.7800486,-0.2426957,-0.537291,0.246061,-0.2602357,0.4025511,-0.3278078,0.4550996,-0.9001806,-0.04232967,-0.1060635,0.03265965,0.8994286,0.006585717,0.6729119,-0.4920195],[-0.2171773,0.6414249,0.4453499,0.3511634,-0.5221391,-0.5742176,-0.2117926,0.7369635,0.5477962,0.6606445,0.6210659,-0.2660939,-0.725127,-0.8220775,0.7409678,0.4505412],[-0.2306818,0.4061999,-0.5781045,-0.7747886,0.3186161]],[[0.5780189,-0.5886836,0.6647048,-0.1913084,0.8417797,-0.9871182,-0.3626865,-0.4617063,-0.9009426,-0.1051215,0.8847179,0.2045592,0.8966148,0.369812,0.6351221,-0.9296815],[0.4627669,-0.4872929,0.5863426,0.395178,0.8061705,0.3099684,-0.07435405,-0.8801703,0.4900758,0.5595891,-0.438301,-0.02655351,0.5637994,-0.8158083,-0.4138545,0.1802763],[-0.7800486,-0.2426957,-0.537291,0.246061,-0.2602357,0.4025511,-0.3278078,0.4550996,-0.9001806,0.4156415,-0.1060635,-0.696811,0.8994286,0.006585717,0.6729119,-0.4920195],[-0.2171773,0.6414249,0.4453499,0.3511634,-0.5221391,-0.5742176,-0.2117926,0.7369635,0.5477962,0.6606445,-0.42316,-0.2660939,0.0790385,-0.8220775,0.7409678,0.4505412],[-0.2306818,0.4061999,-0.5781045,-0.7747886,0.3186161]],[[0.5780189,-0.5886836,0.6647048,-0.1913084,0.9235783,-0.9871182,-0.3626865,-0.4617063,-0.6099436,-0.1051215,0.5004776,0.570509,0.8966148,0.6578994,-0.2396828,0.5971992],[-0.3348469,-0.4872929,0.5863426,0.395178,0.2226683,0.3099684,-0.1445745,-0.8801703,0.4111437,0.5595891,-0.438301,-0.617291,0.5637994,-0.8158083,-0.4138545,0.1802763],[-0.7800486,-0.2426957,-0.537291,0.246061,-0.2602357,0.4025511,-0.3278078,0.4550996,0.06347454,-0.04232967,0.3634338,-0.696811,0.8994286,0.006585717,-0.2205094,-0.650434],[-0.5660698,0.6414249,0.4453499,0.3511634,-0.2845036,-0.5742176,-0.2117926,0.5794573,-0.03691566,0.6606445,-0.42316,0.02592552,-0.5148084,-0.8220775,0.7409678,0.4505412],[0.1531676,-0.1719953,-0.5781045,0.2517569,0.141683]],[[0.5780189,-0.5886836,0.6647048,-0.1913084,0.9235783,-0.9871182,-0.3626865,-0.4617063,-0.9009426,-0.1051215,0.8847179,0.2045592,0.8966148,0.369812,0.6351221,-0.9296815],[-0.627877,-0.4872929,0.5863426,0.395178,0.8061705,0.3099684,-0.07435405,-0.8801703,0.4900758,0.5595891,-0.438301,-0.02655351,0.5637994,-0.8158083,-0.4138545,0.1802763],[-0.7800486,-0.2426957,-0.537291,0.246061,-0.2602357,0.4025511,-0.3278078,0.4550996,0.9027791,-0.04232967,-0.1060635,-0.696811,0.8994286,0.006585717,0.6729119,-0.4920195],[-0.2171773,0.6414249,-0.1616694,0.3511634,-0.5221391,-0.5742176,-0.2117926,-0.9496145,0.5477962,0.6606445,-0.42316,-0.2660939,0.0790385,-0.8220775,0.7409678,0.4505412],[-0.2306818,0.4061999,-0.5781045,-0.7747886,0.3186161]],[[0.5780189,-0.5886836,0.6647048,-0.1913084,0.9235783,-0.9871182,-0.3626865,-0.4617063,-0.9009426,-0.1051215,0.8847179,0.2045592,0.8966148,0.369812,0.6351221,-0.9296815],[-0.3348469,-0.4872929,0.5863426,0.395178,0.8061705,0.3099684,-0.07435405,-0.8801703,0.4900758,0.5595891,-0.438301,-0.02655351,0.5637994,-0.8158083,-0.4138545,0.1802763],[-0.7800486,-0.2426957,-0.537291,0.246061,-0.2602357,0.4025511,-0.3278078,0.4550996,-0.9001806,0.2274905,-0.1060635,-0.696811,0.8994286,0.006585717,0.6729119,-0.4920195],[-0.2171773,0.6414249,0.4453499,0.3511634,-0.5221391,-0.5742176,-0.2117926,0.7369635,0.5477962,0.6606445,-0.42316,-0.2660939,0.0790385,-0.8220775,0.7409678,0.4505412],[-0.2306818,0.4061999,-0.5781045,-0.7747886,0.3186161]],[[0.5780189,-0.5886836,0.6647048,-0.1913084,0.9235783,-0.9871182,-0.3626865,-0.4617063,-0.9009426,-0.1051215,0.8847179,0.2045592,0.8966148,0.369812,0.6351221,-0.9296815],[0.4627669,-0.4872929,0.5863426,0.395178,0.8061705,0.3099684,-0.07435405,-0.8801703,0.4900758,0.5595891,-0.438301,-0.02655351,0.5637994,-0.8158083,-0.4138545,0.1802763],[-0.7800486,-0.2426957,-0.537291,0.246061,-0.2602357,0.4025511,-0.3278078,0.4550996,-0.9001806,-0.04232967,-0.1060635,-0.01789939,0.8994286,0.006585717,0.6729119,-0.4920195],[-0.2171773,0.6414249,0.4453499,0.3511634,-0.5221391,-0.5742176,-0.2117926,0.7369635,0.5477962,0.6606445,0.6210659,-0.2660939,0.0790385,-0.8220775,0.7409678,0.4505412],[-0.2306818,0.4061999,-0.5781045,-0.7747886,0.3186161]],[[0.5780189,-0.5886836,0.6647048,-0.1913084,0.9235783,-0.9871182,-0.3626865,-0.4617063,-0.6099436,-0.1051215,0.8847179,0.2045592,0.8966148,0.369812,0.1026617,-0.9296815],[-0.3348469,-0.4872929,0.5863426,0.395178,0.2226683,0.3099684,-0.1445745,-0.8801703,0.4900758,0.2556023,-0.438301,-0.02655351,0.5637994,-0.8158083,-0.4138545,-0.04152668],[-0.7800486,-0.2426957,0.2141861,0.246061,-0.2602357,0.4025511,-0.3278078,0.4550996,-0.9001806,-0.04232967,0.3634338,-0.696811,0.8994286,0.006585717,0.6729119,-0.650434],[-0.5660698,-0.98177,0.4453499,0.3511634,-0.5221391,-0.5742176,0.5964456,0.7369635,-0.4508892,0.6606445,-0.42316,0.02592552,0.8140414,-0.8220775,-0.00790298,0.4505412],[-0.2306818,0.0277859,-0.5781045,-0.6430323,0.141683]],[[0.5071421,-0.5886836,0.6647048,-0.1913084,0.9235783,-0.9871182,-0.3626865,-0.4617063,-0.9009426,-0.1051215,0.8847179,0.2045592,0.8966148,0.369812,0.6351221,-0.9296815],[0.4627669,-0.4872929,0.5863426,0.395178,0.8061705,0.3099684,-0.07435405,-0.8801703,0.4900758,0.5595891,-0.438301,-0.02655351,0.5637994,-0.8158083,-0.4138545,0.1802763],[-0.7800486,-0.2426957,-0.5483057,0.246061,-0.2602357,0.4025511,-0.3278078,0.4550996,-0.9001806,-0.04232967,-0.1060635,-0.696811,0.8994286,0.006585717,0.6729119,-0.4920195],[-0.2171773,0.6414249,0.4453499,0.3511634,-0.5221391,-0.5742176,-0.2117926,0.7369635,0.5477962,0.6606445,-0.42316,-0.2660939,0.0790385,-0.8220775,0.7409678,0.4505412],[-0.2306818,0.4061999,-0.5781045,-0.7747886,0.3186161]],[[0.5780189,-0.5886836,0.6647048,-0.1913084,0.9235783,-0.9871182,-0.3626865,-0.4617063,-0.9009426,-0.1051215,0.8847179,0.2045592,0.8966148,0.369812,0.4433582,-0.9296815],[0.4627669,-0.4872929,0.5863426,0.395178,0.8061705,0.3099684,-0.07435405,-0.8801703,0.4900758,0.5595891,-0.438301,-0.02655351,0.5637994,-0.8158083,-0.4138545,0.1802763],[-0.7800486,-0.2426957,-0.537291,0.246061,-0.2602357,0.4025511,-0.3278078,0.4550996,-0.9001806,-0.04232967,-0.1060635,-0.696811,0.8994286,0.006585717,0.6729119,-0.4920195],[-0.2171773,0.6414249,0.4453499,0.3511634,-0.5221391,-0.5742176,-0.2117926,0.7369635,0.5477962,0.6606445,-0.42316,-0.2660939,0.0790385,-0.8220775,0.7409678,0.4505412],[-0.2306818,0.4061999,-0.5781045,-0.7747886,0.3186161]],[[0.5780189,-0.5886836,0.6647048,-0.3840543,0.9235783,-0.9871182,-0.3626865,-0.4617063,-0.9009426,-0.1051215,0.8847179,0.2045592,0.8966148,0.4198556,0.6351221,-0.9296815],[0.4627669,-0.4872929,0.5863426,0.395178,0.8061705,0.3099684,-0.07435405,0.3487668,0.4900758,0.5595891,-0.438301,-0.02655351,0.5637994,-0.8158083,-0.4138545,0.1802763],[-0.7800486,-0.2426957,-0.537291,0.246061,-0.2602357,0.4025511,-0.3278078,0.4550996,-0.9001806,-0.04232967,-0.1060635,-0.696811,0.8994286,0.006585717,0.6729119,-0.4920195],[-0.2171773,0.6414249,-0.2798311,0.3511634,-0.5221391,-0.5742176,-0.2117926,0.7369635,0.5477962,0.6606445,-0.42316,-0.2660939,0.0790385,-0.8220775,0.7409678,0.4505412],[-0.2306818,0.4061999,-0.5781045,-0.7747886,0.3186161]],[[0.5780189,-0.5886836,0.6647048,-0.1913084,0.9235783,-0.9871182,-0.3626865,-0.4617063,-0.9009426,-0.1051215,0.8847179,0.2045592,0.8966148,0.369812,0.6351221,-0.9296815],[0.4627669,-0.4872929,0.5863426,0.395178,0.8061705,0.3099684,-0.07435405,-0.8801703,0.4900758,0.5595891,-0.438301,-0.02655351,0.5637994,-0.8158083,-0.4138545,0.1802763],[-0.7800486,-0.2426957,-0.537291,0.246061,-0.2602357,0.4025511,-0.3278078,0.4550996,-0.9001806,0.4156415,-0.1060635,-0.696811,0.8994286,0.006585717,0.6729119,-0.4920195],[-0.2171773,0.6414249,0.4453499,0.3511634,-0.5221391,-0.5742176,-0.2117926,0.7369635,0.5477962,0.6606445,-0.42316,-0.2660939,0.0790385,-0.8220775,0.7409678,0.4505412],[-0.2306818,0.4061999,-0.5781045,-0.7747886,0.3186161]],[[0.5780189,-0.5886836,0.6647048,-0.1913084,0.9235783,-0.9871182,-0.3626865,-0.4617063,-0.9009426,-0.1051215,0.8847179,0.2045592,0.8966148,0.369812,0.6351221,-0.9296815],[-0.627877,-0.4872929,0.5863426,0.395178,0.8061705,0.3099684,-0.07435405,-0.8801703,0.4900758,0.5595891,-0.438301,-0.02655351,0.5637994,-0.8158083,-0.4138545,0.1802763],[-0.7800486,-0.2426957,-0.537291,0.246061,-0.2602357,0.4025511,-0.3278078,0.4550996,0.9027791,-0.04232967,-0.1060635,-0.696811,0.8994286,0.006585717,0.6729119,-0.4920195],[-0.2171773,0.7056093,-0.1616694,0.3511634,-0.5221391,-0.5742176,-0.2117926,-0.9496145,0.5477962,0.6606445,-0.42316,-0.2660939,0.0790385,-0.8220775,0.7409678,0.4505412],[-0.2306818,0.4061999,-0.5781045,-0.7747886,0.3186161]],[[0.5780189,-0.5886836,0.6647048,-0.1913084,0.9235783,-0.9871182,-0.3626865,-0.4617063,-0.9009426,-0.1051215,0.8847179,0.2045592,0.8966148,0.369812,0.6351221,-0.9296815],[0.4627669,-0.4872929,0.5863426,0.395178,0.8061705,0.3099684,-0.07435405,-0.8801703,0.4900758,0.5595891,-0.438301,-0.02655351,0.5637994,-0.8158083,-0.4138545,0.1802763],[-0.7800486,-0.2426957,-0.537291,0.246061,-0.2602357,0.4025511,-0.3278078,0.4550996,-0.9001806,-0.04232967,-0.1060635,-0.696811,0.8994286,0.006585717,0.6729119,-0.4920195],[-0.2171773,0.6414249,0.4453499,0.3511634,-0.5221391,-0.5742176,-0.2117926,0.7369635,0.5477962,0.6606445,-0.42316,-0.2660939,0.0790385,-0.8220775,0.7409678,0.4505412],[-0.2306818,0.4061999,-0.5781045,-0.7747886,0.3186161]],[[0.5780189,-0.5886836,0.6647048,-0.1913084,0.9235783,-0.9871182,-0.3626865,-0.4617063,-0.9009426,-0.1051215,0.8847179,0.2045592,0.8966148,0.369812,0.6351221,-0.9296815],[0.4627669,-0.4872929,0.5863426,0.395178,0.8061705,0.3099684,-0.07435405,-0.8801703,0.4900758,0.5595891,-0.438301,-0.02655351,0.5637994,-0.8158083,-0.4138545,0.1802763],[-0.7800486,-0.2426957,-0.537291,0.246061,-0.2602357,0.4025511,-0.3278078,0.4550996,-0.9001806,-0.04232967,-0.1060635,-0.696811,-0.5369201,0.006585717,0.3929529,-0.4920195],[-0.6567423,0.6414249,-0.2211612,0.3511634,-0.5221391,-0.5742176,-0.2117926,0.7369635,0.5477962,0.6606445,-0.42316,-0.2660939,0.0790385,-0.8220775,0.7409678,0.4505412],[-0.2306818,0.4061999,-0.5781045,-0.7747886,0.3186161]],[[0.5780189,-0.5886836,0.6647048,-0.1913084,0.9235783,-0.9871182,-0.3626865,-0.4617063,-0.6099436,-0.1051215,0.8847179,0.2045592,0.8966148,0.369812,0.1026617,-0.9296815],[-0.3348469,-0.4872929,0.5863426,0.395178,0.2226683,0.3099684,-0.1445745,-0.8801703,0.4900758,0.2556023,-0.438301,-0.02655351,0.5637994,-0.8158083,-0.4138545,0.1802763],[-0.7800486,-0.2426957,0.2141861,0.246061,-0.2602357,0.4025511,-0.3278078,0.4550996,-0.9001806,-0.04232967,0.3634338,-0.696811,0.8994286,0.006585717,0.6729119,-0.650434],[-0.5660698,0.6414249,0.4453499,0.3511634,-0.5221391,-0.5742176,0.5964456,0.7369635,-0.4508892,0.6606445,-0.42316,0.02592552,-0.5148084,-0.8220775,0.7409678,0.4505412],[-0.2306818,0.3606393,-0.5781045,-0.6430323,0.141683]],[[0.5780189,-0.5886836,0.6647048,-0.1913084,0.9235783,-0.9871182,-0.3626865,-0.4617063,-0.9009426,-0.1051215,0.8847179,0.2045592,0.8966148,0.369812,0.9487474,-0.9296815],[0.4627669,-0.4872929,0.5863426,0.395178,0.8061705,0.3099684,-0.07435405,-0.8801703,0.4900758,0.5595891,-0.438301,-0.02655351,0.5637994,-0.8158083,-0.4138545,0.1802763],[-0.7800486,-0.2426957,-0.537291,0.246061,-0.2602357,0.4025511,-0.3278078,0.4550996,-0.9001806,0.685837,-0.1060635,-0.696811,0.8994286,0.01521623,0.6729119,-0.4920195],[-0.2171773,0.6414249,0.4453499,0.3511634,-0.5221391,-0.5742176,-0.2117926,0.7369635,0.5477962,0.6606445,-0.42316,-0.2660939,0.0790385,-0.8220775,0.7409678,0.4505412],[0.3071861,0.4061999,-0.5781045,-0.7747886,0.3186161]],[[0.5780189,-0.5886836,0.6647048,-0.1913084,0.9235783,-0.9871182,-0.3626865,-0.4617063,-0.9009426,-0.1051215,0.8847179,0.2045592,0.8966148,0.369812,0.6351221,-0.9296815],[-0.627877,-0.4872929,0.5863426,0.395178,0.8061705,0.3099684,-0.07435405,-0.8801703,0.4900758,0.5595891,-0.438301,-0.02655351,0.5637994,-0.8158083,-0.4138545,0.1802763],[-0.7800486,-0.2426957,-0.1542708,0.246061,-0.2602357,0.4025511,-0.3278078,0.4550996,0.9027791,-0.04232967,-0.1060635,-0.696811,0.8994286,0.006585717,0.6729119,-0.4920195],[-0.2171773,0.6414249,-0.1616694,0.3511634,-0.5221391,-0.5742176,-0.2117926,-0.9496145,0.5477962,0.6606445,-0.42316,-0.2660939,0.0790385,-0.8220775,0.7409678,0.4505412],[-0.2306818,-0.03068864,-0.5781045,-0.7747886,0.3186161]],[[0.5071421,-0.5886836,0.6647048,-0.1913084,0.9235783,-0.9871182,-0.3626865,-0.4617063,-0.9009426,-0.1051215,0.8847179,0.2045592,0.8966148,0.369812,0.6351221,-0.9296815],[0.4627669,-0.4872929,0.5863426,0.395178,0.8061705,0.3099684,-0.07435405,-0.8801703,0.4900758,0.5595891,-0.438301,-0.02655351,0.5637994,-0.8158083,-0.4138545,0.1802763],[-0.7800486,-0.2426957,-0.5483057,0.246061,-0.2602357,0.4025511,-0.3278078,0.4550996,-0.9001806,-0.04232967,-0.1060635,-0.696811,0.8994286,-0.4256755,0.6729119,-0.4920195],[-0.2171773,0.6414249,0.4453499,0.3511634,-0.5221391,-0.5742176,-0.2117926,0.7369635,0.5477962,0.6606445,-0.42316,-0.2660939,0.0790385,-0.8220775,0.7409678,0.4505412],[-0.2306818,0.4061999,-0.5781045,-0.7747886,0.3186161]],[[0.5780189,-0.5886836,0.6647048,-0.1913084,0.9235783,-0.9871182,-0.3626865,-0.4617063,-0.9009426,-0.1051215,0.8847179,0.2045592,0.8966148,0.369812,0.6351221,-0.9296815],[0.4627669,-0.4872929,-0.8621042,0.395178,0.8061705,0.3099684,-0.07435405,-0.8801703,0.4900758,0.5595891,-0.438301,-0.02655351,0.5637994,-0.8158083,-0.4138545,0.1802763],[-0.7800486,-0.2426957,-0.537291,0.246061,-0.2602357,0.4025511,-0.3278078,0.4550996,-0.9001806,-0.04232967,-0.1060635,-0.696811,0.8994286,0.006585717,0.6729119,-0.4920195],[-0.2171773,0.6414249,0.4453499,0.3511634,-0.5221391,0.8687439,-0.2117926,0.7369635,0.5477962,-0.456663,-0.42316,-0.2660939,0.0790385,-0.8220775,0.7409678,0.4505412],[-0.2306818,0.4061999,-0.5781045,-0.7747886,0.3186161]],[[0.5780189,-0.5886836,0.6647048,-0.1913084,0.9235783,-0.9871182,-0.3626865,-0.4617063,-0.9009426,-0.1051215,0.8847179,0.2045592,0.8966148,0.369812,0.6351221,-0.9296815],[-0.627877,-0.4872929,0.5863426,0.395178,0.8061705,0.3099684,-0.07435405,-0.8801703,0.4900758,0.5595891,-0.438301,-0.02655351,0.5637994,-0.8158083,-0.4138545,0.1802763],[-0.7800486,-0.2426957,-0.537291,0.246061,-0.2602357,0.4025511,-0.3278078,0.4550996,0.9027791,-0.04232967,-0.1060635,-0.696811,0.8994286,0.006585717,0.6729119,-0.4920195],[-0.2171773,0.6414249,-0.1616694,-0.08512151,-0.5221391,-0.5742176,-0.2117926,-0.9496145,0.5477962,0.6606445,-0.42316,-0.2660939,0.0790385,-0.8220775,0.7409678,0.4505412],[-0.2306818,0.4061999,-0.5781045,-0.7747886,0.3186161]],[[0.5780189,-0.5886836,0.6647048,-0.1913084,0.9235783,-0.9157643,-0.3626865,-0.4617063,-0.9009426,-0.1051215,0.8847179,0.2045592,0.8966148,0.369812,0.6351221,-0.9296815],[-0.627877,-0.4872929,0.5863426,0.395178,0.8061705,0.3099684,-0.07435405,-0.8801703,0.4900758,0.5595891,-0.438301,-0.02655351,0.5637994,-0.8158083,-0.4138545,0.1802763],[-0.7800486,-0.2426957,-0.537291,0.246061,-0.2602357,0.4025511,-0.3278078,0.4550996,0.9027791,-0.04232967,-0.1060635,-0.696811,0.8994286,0.006585717,0.6729119,-0.4920195],[-0.2171773,0.6414249,-0.1616694,0.3511634,-0.5221391,-0.5742176,-0.2117926,-0.9496145,0.5477962,0.6606445,-0.42316,-0.2660939,0.0790385,-0.8220775,0.7409678,0.4505412],[-0.2306818,0.4061999,-0.5781045,-0.7747886,0.3186161]],[[0.5780189,-0.5886836,0.6647048,-0.1913084,0.9235783,-0.9871182,-0.3626865,-0.4617063,-0.9009426,-0.1051215,0.8847179,0.2045592,0.8966148,0.369812,0.6351221,-0.9296815],[0.4627669,-0.4872929,0.5863426,0.395178,0.8061705,0.3099684,-0.07435405,-0.8801703,0.4900758,0.5595891,-0.438301,-0.02655351,0.5637994,-0.8158083,-0.4138545,0.1802763],[-0.7800486,-0.2426957,-0.537291,0.246061,-0.2602357,0.4025511,-0.3278078,0.4550996,-0.9001806,-0.04232967,-0.1060635,-0.696811,0.8994286,0.006585717,0.3929529,-0.4920195],[-0.2171773,0.6414249,0.4453499,0.3511634,-0.5221391,-0.5742176,-0.2117926,0.7369635,0.5477962,0.6606445,-0.42316,-0.2660939,0.0790385,-0.8220775,0.7409678,0.4505412],[-0.2306818,0.4061999,-0.5781045,-0.7747886,0.3186161]],[[0.5780189,-0.5886836,0.6647048,-0.1913084,0.9235783,-0.9871182,-0.3626865,-0.4617063,-0.9009426,-0.1051215,0.8847179,0.2045592,0.8966148,0.369812,0.6351221,-0.9296815],[-0.627877,-0.4872929,0.5863426,0.395178,0.8061705,0.3099684,-0.07435405,-0.8801703,0.4900758,0.5595891,-0.438301,-0.02655351,0.5637994,-0.8158083,-0.4138545,0.1802763],[-0.7800486,-0.2426957,-0.537291,0.246061,-0.2602357,0.4025511,-0.3278078,0.4550996,0.9027791,-0.04232967,-0.1060635,-0.696811,0.8994286,0.006585717,0.6729119,-0.4920195],[-0.2171773,0.6414249,-0.1616694,0.3511634,-0.5221391,-0.5742176,-0.2117926,-0.9496145,0.5477962,0.6606445,-0.42316,-0.2660939,0.0790385,-0.8220775,0.7409678,0.4505412],[-0.2306818,0.4061999,-0.5781045,-0.7747886,-0.4417223]],[[0.5780189,-0.5886836,0.6647048,-0.1913084,0.9235783,-0.9871182,-0.3626865,-0.4617063,-0.9009426,-0.1051215,0.8847179,-0.2677802,0.8966148,0.369812,0.6351221,-0.9296815],[-0.627877,-0.4872929,0.5863426,0.395178,0.8061705,0.3099684,-0.07435405,-0.8801703,0.4900758,0.5595891,-0.438301,-0.02655351,0.5637994,-0.8158083,-0.4138545,0.1802763],[-0.7800486,-0.2426957,-0.537291,0.246061,-0.2602357,0.4025511,-0.3278078,0.4550996,0.9027791,-0.04232967,-0.1060635,-0.696811,0.8994286,0.006585717,0.6729119,-0.4920195],[-0.2171773,0.6414249,-0.1616694,0.3511634,-0.5221391,-0.5742176,-0.2117926,-0.9496145,0.5477962,0.6606445,-0.1889595,-0.2660939,0.0790385,-0.8220775,0.7409678,0.4505412],[-0.2306818,0.4061999,-0.5781045,-0.7747886,-0.8003111]],[[0.5780189,-0.5886836,0.6647048,-0.1913084,0.9235783,-0.9871182,-0.3626865,-0.4617063,-0.9009426,-0.1051215,0.8847179,0.2045592,0.8966148,0.369812,0.6351221,-0.9296815],[0.4627669,-0.4872929,0.5863426,0.395178,0.8061705,0.3099684,-0.07435405,-0.8801703,0.4900758,0.5595891,-0.438301,-0.02655351,0.5637994,-0.8158083,-0.4138545,0.1802763],[-0.7800486,-0.2426957,-0.537291,0.246061,-0.2602357,0.4025511,-0.3278078,0.4550996,-0.9001806,-0.04232967,-0.1060635,-0.696811,0.8994286,0.006585717,0.6729119,-0.4920195],[-0.2171773,0.6414249,0.4453499,0.3511634,-0.5221391,-0.5742176,-0.2117926,0.7369635,0.5477962,0.6606445,-0.42316,-0.2660939,0.0790385,-0.8220775,0.7409678,0.4505412],[-0.2306818,0.4061999,-0.5781045,-0.7747886,0.3186161]],[[0.5780189,-0.5886836,0.6647048,-0.1913084,0.9235783,-0.9871182,-0.3626865,-0.4617063,-0.9009426,-0.1051215,0.8847179,0.2045592,0.8966148,0.369812,0.6351221,-0.9296815],[0.4627669,-0.4872929,0.5863426,0.395178,0.8061705,0.3099684,-0.07435405,-0.8801703,0.4900758,0.5595891,-0.438301,-0.02655351,0.5637994,-0.8158083,-0.4138545,0.1802763],[-0.7800486,-0.2426957,-0.537291,0.246061,-0.2602357,0.4025511,-0.3278078,0.4550996,-0.9001806,-0.04232967,-0.1060635,-0.696811,0.8994286,0.006585717,0.6729119,-0.4920195],[-0.2171773,0.6414249,0.4453499,0.3511634,-0.5221391,0.8687439,-0.2117926,0.7369635,0.5477962,-0.456663,-0.42316,-0.2660939,0.3432574,-0.8220775,0.7409678,0.4505412],[-0.2306818,0.4061999,0.002909303,-0.7747886,0.3186161]],[[0.5780189,-0.5886836,0.6647048,-0.1913084,0.9235783,-0.9871182,-0.3626865,-0.4617063,-0.9009426,-0.1051215,0.8847179,0.2045592,0.8966148,0.369812,0.6351221,-0.9296815],[0.4627669,-0.4872929,0.5863426,0.395178,0.8061705,0.3099684,-0.07435405,-0.8801703,0.4900758,0.5595891,-0.438301,-0.02655351,0.5637994,-0.8158083,-0.4138545,0.1802763],[-0.7800486,-0.2426957,-0.537291,0.246061,-0.2602357,0.4025511,-0.3278078,0.4550996,-0.9001806,-0.04232967,-0.5184584,-0.696811,0.8994286,0.01521623,0.6729119,-0.4920195],[-0.2171773,0.6414249,0.4453499,0.3511634,-0.5221391,-0.5742176,-0.2117926,0.7369635,0.5477962,0.6606445,-0.42316,-0.2660939,0.0790385,-0.8220775,0.7409678,0.4505412],[-0.2306818,0.4061999,-0.5781045,-0.7747886,0.3186161]],[[0.5780189,-0.5886836,0.6647048,-0.1913084,0.9235783,-0.9871182,-0.3626865,-0.4617063,-0.9009426,-0.1051215,0.8847179,0.2045592,0.8966148,0.369812,0.6351221,-0.9296815],[0.4627669,-0.4872929,0.5863426,0.395178,0.8061705,0.3099684,-0.07435405,-0.8801703,0.4900758,0.5595891,-0.438301,-0.02655351,0.5637994,-0.8158083,-0.4138545,0.1802763],[-0.7800486,-0.2426957,-0.537291,0.246061,-0.2602357,0.4025511,-0.3278078,0.4550996,-0.9001806,-0.04232967,-0.1060635,-0.696811,0.8994286,0.006585717,0.6729119,-0.4920195],[-0.2171773,0.6414249,0.4453499,0.3511634,-0.5221391,0.8687439,-0.2117926,0.7369635,0.5477962,-0.456663,-0.42316,-0.2660939,0.0790385,-0.8220775,0.7409678,0.4505412],[-0.2306818,0.4061999,-0.5781045,-0.7747886,0.3186161]],[[0.5780189,-0.5886836,0.6647048,-0.1913084,0.9235783,-0.9871182,-0.3626865,-0.4617063,-0.9009426,-0.1051215,0.8847179,0.2045592,0.3054511,0.369812,-0.5910444,-0.9296815],[0.4627669,-0.4872929,0.5863426,0.395178,0.8061705,0.3099684,-0.07435405,-0.8801703,0.4900758,0.5595891,-0.438301,-0.02655351,0.5637994,-0.8158083,-0.4138545,0.1802763],[-0.7800486,-0.2426957,-0.537291,0.246061,-0.2602357,0.4025511,-0.3278078,0.4550996,-0.9001806,-0.04232967,-0.1060635,-0.696811,0.8994286,0.006585717,0.6729119,-0.4920195],[-0.2171773,0.6414249,0.4453499,0.3511634,-0.5221391,-0.5742176,0.003261924,0.7369635,0.5477962,0.6606445,-0.42316,-0.7809422,0.0790385,-0.8220775,0.7409678,0.4505412],[-0.2306818,0.4061999,-0.5781045,-0.7747886,0.3186161]],[[0.5071421,-0.5886836,0.6647048,-0.1913084,0.9235783,-0.9871182,-0.3626865,-0.4617063,-0.9009426,-0.1051215,0.8847179,0.2045592,0.8966148,0.369812,0.6351221,-0.7176144],[0.4627669,-0.4872929,0.5863426,0.395178,0.8061705,0.3099684,-0.07435405,-0.8801703,0.4900758,0.5595891,-0.438301,-0.02655351,0.5637994,-0.8158083,-0.4138545,0.1802763],[-0.7800486,-0.2426957,-0.5483057,0.246061,-0.2602357,0.4025511,-0.3278078,0.4550996,-0.9001806,-0.04232967,-0.1060635,-0.696811,0.8994286,0.006585717,0.6729119,-0.4920195],[-0.2171773,0.6414249,0.4453499,0.3511634,-0.5221391,-0.5742176,-0.2117926,0.7369635,0.5477962,0.6606445,-0.42316,-0.2660939,0.0790385,-0.8220775,0.7409678,0.4505412],[-0.2306818,0.4061999,-0.5781045,-0.7747886,0.3186161]],[[0.5780189,-0.5886836,0.6647048,-0.1913084,0.9235783,-0.9871182,-0.3626865,-0.4617063,-0.9009426,-0.1051215,0.8847179,0.2045592,0.8966148,0.369812,0.9487474,-0.9296815],[0.4627669,-0.4872929,0.5863426,0.395178,0.8061705,0.3099684,-0.07435405,-0.8801703,0.4900758,0.5595891,-0.438301,-0.02655351,0.5637994,-0.8158083,-0.4138545,0.1802763],[-0.7800486,-0.2426957,-0.537291,0.246061,-0.2602357,0.4025511,-0.3278078,0.4550996,-0.9001806,0.05486286,-0.1060635,-0.696811,0.8994286,0.01521623,0.6729119,-0.4920195],[-0.2171773,0.6414249,0.4453499,0.3511634,-0.5221391,-0.5742176,-0.2117926,0.7369635,0.5477962,0.6606445,-0.42316,-0.2660939,0.0790385,-0.8220775,0.7409678,0.4505412],[0.3071861,0.4061999,-0.5781045,-0.7747886,0.3186161]],[[0.5780189,-0.5886836,0.6647048,-0.1913084,0.9235783,-0.9871182,-0.3279995,-0.4617063,-0.9009426,-0.1051215,0.8847179,0.2045592,0.8966148,0.369812,0.6351221,-0.9296815],[-0.627877,-0.4872929,0.5863426,0.395178,0.8061705,0.3099684,-0.07435405,-0.8801703,0.4900758,0.5595891,-0.438301,-0.02655351,0.5637994,-0.8158083,-0.4138545,0.1802763],[-0.7800486,-0.2426957,-0.537291,0.246061,-0.2602357,0.4025511,-0.3278078,0.4550996,0.6015575,-0.04232967,-0.1060635,-0.696811,0.8994286,0.006585717,0.6729119,-0.4920195],[-0.2171773,0.6414249,-0.1616694,0.3511634,-0.5221391,-0.5742176,-0.2117926,-0.9496145,0.5477962,0.6606445,-0.4867367,-0.2660939,0.0790385,-0.8220775,0.7409678,0.4505412],[0.5126784,0.4061999,-0.5781045,-0.7747886,0.3186161]],[[0.5780189,-0.5886836,0.6647048,-0.1913084,0.9235783,-0.9871182,-0.3626865,-0.4617063,-0.9009426,-0.1051215,0.8847179,0.2045592,0.8966148,0.369812,0.6351221,-0.9296815],[0.4627669,-0.5596519,0.5863426,0.395178,0.8061705,0.3099684,-0.07435405,-0.8801703,0.4900758,0.5595891,-0.438301,-0.02655351,0.5637994,-0.8158083,-0.4138545,-0.1484021],[-0.7800486,-0.2426957,-0.537291,0.246061,-0.2602357,0.4025511,-0.3278078,0.4550996,-0.9001806,-0.04232967,-0.1060635,-0.696811,0.8994286,0.006585717,0.6729119,0.0008374453],[-0.2171773,-0.40759,0.4453499,0.3511634,-0.5221391,-0.5742176,-0.2117926,0.7369635,0.5477962,0.6606445,-0.42316,-0.2660939,0.0790385,-0.8220775,0.7409678,0.4505412],[-0.2306818,0.4061999,-0.5781045,-0.7747886,0.723882]],[[0.5780189,-0.5886836,0.6647048,-0.1913084,0.9235783,-0.9871182,-0.3626865,-0.4617063,-0.9009426,-0.04228842,0.8847179,0.2045592,0.8966148,0.369812,0.6351221,-0.9296815],[-0.627877,-0.4872929,0.5863426,0.395178,0.8061705,0.3099684,-0.07435405,-0.8801703,0.4900758,0.5595891,-0.438301,-0.02655351,0.5637994,-0.8158083,-0.4138545,0.1802763],[-0.7800486,-0.2426957,-0.537291,0.246061,-0.2602357,0.4025511,-0.3278078,0.4550996,0.9027791,-0.04232967,-0.1060635,-0.696811,0.8994286,0.006585717,0.6729119,-0.4920195],[-0.2171773,0.6414249,-0.1616694,0.3511634,-0.5221391,-0.5742176,-0.2117926,-0.9496145,0.5477962,0.6606445,-0.42316,-0.2660939,0.0790385,-0.8220775,0.7409678,0.4505412],[-0.2306818,0.4061999,-0.5781045,-0.9987218,-0.4417223]],[[-0.2423347,-0.5886836,0.6647048,-0.1913084,0.9235783,0.3366937,-0.3626865,-0.4617063,-0.9009426,-0.1051215,0.8847179,0.7868752,0.8966148,0.369812,0.6351221,-0.9296815],[-0.627877,-0.4872929,0.5863426,0.395178,0.8061705,0.3099684,-0.07435405,-0.8801703,0.4900758,0.5595891,-0.438301,-0.02655351,0.5637994,0.1795501,-0.4138545,0.1802763],[-0.7800486,-0.2426957,-0.537291,0.246061,-0.2602357,0.4025511,-0.3278078,0.4550996,0.9027791,-0.04232967,-0.1060635,-0.696811,0.8994286,0.006585717,0.6729119,-0.4920195],[-0.2171773,0.6414249,-0.1616694,0.3511634,-0.1387938,-0.5742176,-0.2117926,-0.9496145,0.5477962,0.6606445,-0.42316,-0.2660939,0.0790385,-0.8220775,0.7409678,0.4505412],[-0.2306818,0.4061999,-0.5781045,-0.7747886,0.3186161]],[[0.5780189,-0.7793303,0.6647048,-0.1913084,0.9235783,-0.9871182,-0.3626865,-0.4617063,-0.9009426,0.07359445,0.8847179,0.2045592,0.8966148,0.369812,0.6351221,-0.9296815],[0.4627669,-0.4872929,0.5863426,0.395178,0.8061705,0.3099684,-0.07435405,-0.8801703,0.4900758,0.5595891,-0.438301,-0.02655351,0.5637994,-0.8158083,-0.4138545,0.1802763],[-0.7800486,-0.2426957,-0.537291,0.246061,-0.2602357,0.4025511,-0.3278078,0.4550996,-0.9001806,-0.04232967,-0.1060635,-0.696811,0.8994286,0.006585717,0.6729119,-0.4920195],[-0.9478924,0.6414249,0.4453499,0.3511634,-0.5221391,-0.5742176,-0.2117926,0.7369635,0.5477962,0.6606445,-0.42316,-0.2660939,0.0790385,-0.8220775,0.7409678,0.4505412],[-0.2306818,0.4061999,-0.5781045,-0.7747886,0.3186161]],[[-0.2423347,-0.5886836,0.7770553,-0.1913084,0.9235783,0.3366937,-0.3626865,-0.4617063,-0.9009426,-0.1051215,0.8847179,0.7868752,0.8966148,0.369812,0.6351221,-0.9296815],[-0.627877,-0.4872929,0.5863426,0.395178,0.8061705,0.3099684,-0.07435405,-0.8801703,0.4900758,0.5595891,-0.438301,-0.02655351,0.5637994,0.1795501,-0.4138545,0.1802763],[-0.7800486,-0.2426957,-0.537291,0.246061,-0.2602357,0.4025511,-0.3278078,0.4550996,0.9027791,-0.8485861,-0.1060635,-0.696811,0.8994286,0.006585717,0.6729119,-0.4920195],[-0.2171773,0.6414249,-0.1616694,0.3511634,-0.5221391,-0.5742176,-0.2117926,-0.9496145,0.5477962,0.6606445,-0.42316,-0.2660939,0.0790385,-0.8220775,0.7409678,0.4505412],[-0.2306818,0.4061999,-0.5781045,-0.7747886,0.3186161]],[[-0.2423347,-0.5886836,0.6647048,-0.1913084,0.9235783,0.3366937,-0.3626865,-0.4617063,-0.9009426,-0.1051215,0.8847179,0.7868752,0.8966148,0.369812,0.6351221,-0.9296815],[-0.627877,-0.4872929,0.5863426,0.395178,0.8061705,0.3099684,-0.07435405,-0.8801703,0.4900758,0.5595891,-0.438301,-0.02655351,0.5637994,0.1795501,-0.6709666,0.1802763],[-0.7800486,-0.2426957,-0.537291,0.246061,-0.2602357,0.4025511,-0.3278078,0.4550996,0.9027791,-0.04232967,-0.1060635,-0.696811,0.8994286,0.006585717,0.6729119,-0.4920195],[-0.2171773,0.6414249,-0.1616694,0.3511634,-0.5221391,-0.5742176,-0.2117926,-0.9496145,0.5477962,0.6606445,-0.42316,-0.2660939,0.0790385,-0.8220775,0.7409678,0.4505412],[-0.2306818,0.4061999,-0.5781045,-0.7747886,0.3186161]],[[0.5780189,0.5621216,0.6647048,-0.1913084,0.9235783,-0.9871182,-0.3626865,-0.4617063,-0.9009426,-0.1051215,0.8847179,0.2045592,0.8966148,0.369812,0.6351221,-0.9296815],[0.4627669,-0.4872929,0.2903785,0.395178,0.8061705,0.3099684,-0.07435405,-0.8801703,0.4900758,0.5595891,-0.438301,-0.02655351,0.5637994,-0.8158083,-0.4138545,0.1802763],[-0.7800486,-0.2426957,-0.537291,0.246061,-0.2602357,0.4025511,-0.3278078,0.4550996,-0.9001806,-0.04232967,-0.1060635,-0.696811,0.8994286,0.006585717,0.6729119,-0.4920195],[-0.2171773,0.6414249,0.4453499,0.3511634,-0.5221391,-0.5742176,-0.2117926,0.7369635,0.5477962,0.6606445,-0.42316,-0.2660939,-0.03725731,-0.8220775,0.7409678,0.4505412],[-0.2306818,0.4061999,-0.5781045,-0.7747886,0.3186161]],[[0.5780189,-0.5886836,0.6647048,-0.1913084,0.9235783,-0.9871182,-0.3626865,-0.4617063,-0.6099436,-0.1051215,0.8847179,0.2045592,0.8966148,0.369812,0.1026617,-0.9296815],[-0.3348469,-0.4872929,0.5863426,0.395178,0.2226683,0.3099684,-0.1445745,-0.8801703,0.4900758,0.2556023,-0.438301,-0.02655351,0.5637994,-0.8158083,-0.4138545,0.1802763],[-0.7800486,-0.2426957,0.2141861,0.246061,-0.2602357,0.4025511,-0.3278078,0.4550996,-0.9001806,-0.04232967,0.3634338,-0.696811,0.8994286,0.006585717,0.6729119,-0.650434],[-0.5660698,0.6414249,0.4453499,0.3511634,-0.5221391,0.4487369,0.5964456,0.7369635,-0.4508892,0.6606445,-0.42316,0.02592552,-0.5148084,-0.8220775,0.7409678,0.4505412],[-0.2306818,0.3606393,-0.5781045,-0.6430323,0.141683]],[[0.5780189,-0.5886836,0.6647048,-0.1913084,0.9235783,-0.9871182,-0.3626865,-0.4617063,-0.9009426,-0.1051215,0.8847179,0.4120283,0.8966148,0.369812,0.6351221,-0.9296815],[0.4627669,-0.4872929,0.5863426,0.395178,0.1846446,0.3099684,-0.07435405,0.2949276,0.4900758,0.5595891,-0.438301,-0.02655351,0.5637994,-0.8158083,-0.4138545,0.1802763],[-0.7800486,-0.2426957,-0.537291,0.246061,-0.2602357,0.4025511,-0.3278078,0.4944098,-0.9001806,-0.04232967,-0.1060635,-0.696811,0.09547484,0.01521623,0.6729119,-0.4920195],[0.09098971,0.6414249,0.4453499,-0.1324517,-0.5221391,-0.5742176,-0.2117926,0.7369635,0.5477962,0.6606445,-0.42316,0.03918183,-0.4805504,-0.8220775,0.7409678,0.4505412],[-0.2306818,0.4061999,-0.5781045,-0.7747886,0.3186161]],[[0.5780189,-0.5886836,0.6647048,-0.1913084,0.9235783,-0.9871182,-0.3626865,-0.4617063,-0.9009426,-0.1051215,0.8847179,0.2045592,0.8966148,0.369812,0.6351221,-0.2664498],[-0.627877,-0.4872929,0.5863426,0.395178,0.8061705,0.3099684,-0.07435405,-0.8801703,0.4900758,0.5595891,-0.438301,-0.02655351,0.5637994,-0.8158083,-0.4138545,0.1802763],[-0.7800486,-0.2426957,-0.537291,0.246061,-0.2602357,0.4025511,-0.3278078,0.4550996,0.9027791,-0.04232967,-0.1060635,-0.696811,0.8994286,0.006585717,0.6729119,-0.4920195],[-0.2171773,0.6414249,-0.1616694,0.3511634,-0.5221391,-0.5742176,-0.2117926,-0.9496145,0.5477962,0.6606445,-0.42316,-0.2660939,0.0790385,-0.8220775,0.7409678,0.4505412],[-0.2306818,0.4061999,-0.5781045,-0.7747886,0.3186161]],[[0.5780189,-0.5886836,0.6647048,-0.1913084,0.9235783,-0.9871182,-0.3626865,-0.4617063,-0.9009426,-0.1051215,0.8847179,0.2045592,0.8966148,0.369812,0.6351221,-0.9296815],[0.4627669,-0.4872929,0.5863426,0.395178,0.8061705,0.3099684,-0.07435405,0.3453295,0.4900758,0.5595891,-0.438301,-0.02655351,0.5637994,-0.8158083,-0.4138545,0.1802763],[-0.7800486,-0.2426957,-0.537291,0.246061,-0.2602357,0.4025511,-0.3278078,0.4550996,-0.9001806,-0.04232967,-0.1060635,-0.696811,0.8994286,0.006585717,0.3306336,-0.4920195],[-0.2171773,0.6414249,0.4453499,0.3511634,-0.5221391,-0.5742176,-0.2117926,0.7957458,0.5477962,0.6606445,-0.42316,-0.2660939,0.0790385,-0.8220775,0.7409678,0.4505412],[-0.2306818,0.4061999,-0.5781045,-0.7747886,0.3186161]],[[-0.2423347,-0.5886836,0.6647048,-0.1913084,0.9235783,0.3366937,-0.3626865,-0.4617063,-0.9009426,-0.1051215,0.8847179,0.7868752,0.8966148,-0.4214257,0.6351221,-0.9296815],[-0.627877,-0.4872929,0.5863426,0.395178,0.8061705,0.3099684,-0.07435405,0.9651132,0.4900758,0.5595891,-0.438301,-0.02655351,0.5637994,0.1795501,-0.4138545,0.1802763],[-0.7800486,-0.2426957,-0.537291,0.246061,-0.2602357,0.4025511,-0.3278078,0.4550996,0.9027791,-0.04232967,-0.1060635,-0.696811,0.8994286,0.006585717,0.6729119,-0.4920195],[-0.2171773,0.6414249,-0.1616694,0.3511634,-0.5221391,-0.5742176,-0.2117926,-0.9496145,0.5477962,0.6606445,-0.42316,-0.2660939,0.0790385,-0.8220775,0.7409678,0.4505412],[-0.2306818,0.4061999,-0.5781045,-0.7747886,0.3186161]],[[-0.2423347,-0.5886836,0.6647048,-0.1913084,0.9235783,0.3366937,-0.3626865,-0.4617063,-0.9009426,-0.1051215,0.8847179,0.7868752,0.8966148,0.369812,0.6351221,-0.9296815],[-0.627877,-0.4872929,0.5863426,0.395178,0.8061705,0.3099684,-0.07435405,-0.8801703,0.4900758,0.5595891,-0.438301,-0.02655351,0.5637994,0.1795501,-0.4138545,0.1802763],[-0.7800486,-0.2426957,-0.537291,0.246061,-0.2602357,0.4025511,-0.3278078,0.4550996,0.9027791,-0.04232967,-0.1060635,-0.696811,0.8994286,0.006585717,0.6729119,-0.4920195],[-0.2171773,0.6414249,-0.1616694,0.3511634,-0.5221391,-0.5742176,-0.2117926,-0.9496145,0.5477962,0.6606445,-0.42316,-0.2660939,0.0790385,-0.8220775,0.7409678,0.4505412],[-0.2306818,0.4061999,-0.5781045,-0.7747886,0.3186161]],[[0.5780189,-0.5886836,0.6647048,-0.1913084,0.9235783,-0.9871182,-0.3279995,-0.4617063,-0.9009426,-0.1051215,0.8847179,0.2045592,0.8966148,0.369812,0.6351221,-0.9296815],[-0.627877,-0.4872929,0.5863426,0.395178,0.8061705,0.3099684,-0.07435405,-0.8801703,0.4900758,0.5595891,-0.438301,0.6238101,0.5637994,-0.8158083,-0.4138545,0.1802763],[-0.7800486,-0.2426957,-0.537291,0.246061,-0.2602357,0.4025511,-0.3278078,0.4550996,0.6015575,-0.04232967,-0.1060635,-0.696811,0.8994286,0.006585717,0.6729119,-0.4920195],[-0.2171773,0.6414249,-0.1616694,0.3511634,-0.5221391,-0.5742176,-0.2117926,-0.9496145,0.5477962,0.6606445,-0.42316,-0.2660939,0.0790385,-0.8220775,0.7409678,0.4505412],[-0.2306818,0.4061999,-0.5781045,-0.7747886,0.3186161]],[[-0.2423347,-0.5886836,0.6647048,-0.1913084,0.9235783,0.3366937,-0.3626865,-0.4617063,-0.9009426,-0.1051215,0.8847179,0.7868752,0.8966148,0.369812,0.6351221,-0.9296815],[-0.627877,-0.4872929,0.5863426,0.395178,0.8061705,0.3099684,-0.07435405,-0.8801703,0.4900758,0.5595891,-0.438301,-0.02655351,0.5637994,0.1795501,-0.4138545,0.1802763],[-0.7800486,-0.2426957,-0.537291,0.246061,-0.2602357,0.4025511,-0.3278078,0.4550996,0.9027791,-0.8096061,-0.1060635,-0.696811,0.8994286,0.006585717,0.6729119,-0.4920195],[-0.2171773,0.6414249,-0.1616694,0.3511634,-0.5221391,-0.5742176,-0.2117926,-0.9496145,0.6601725,0.6606445,-0.42316,-0.2660939,0.0790385,-0.8220775,0.7409678,0.4505412],[-0.2306818,0.4061999,-0.5781045,-0.7747886,0.3186161]],[[0.5780189,-0.5886836,0.6647048,-0.1913084,0.9235783,-0.9157643,-0.3626865,-0.4617063,-0.9009426,-0.1051215,0.8847179,0.2045592,0.8966148,0.369812,0.6351221,-0.9296815],[-0.627877,-0.4872929,0.5863426,0.395178,0.8061705,0.3099684,-0.07435405,-0.8801703,0.4900758,0.5595891,-0.438301,-0.02655351,0.5637994,-0.8158083,-0.4138545,0.1802763],[-0.7800486,-0.2426957,-0.537291,0.246061,-0.2602357,0.4025511,-0.3278078,0.4550996,0.9027791,-0.04232967,-0.1060635,-0.696811,0.8994286,0.006585717,0.6729119,-0.4920195],[-0.2171773,0.6414249,-0.1616694,0.3511634,-0.5221391,-0.5742176,-0.2117926,-0.9496145,0.5477962,0.6606445,-0.42316,-0.2660939,0.0790385,-0.8220775,0.7409678,0.4505412],[-0.2306818,0.4061999,-0.5781045,-0.7747886,0.3186161]],[[-0.2423347,-0.5886836,0.6647048,-0.1913084,0.9235783,0.3366937,-0.3626865,-0.4617063,-0.9009426,-0.1051215,0.8847179,0.7868752,0.8966148,0.369812,0.6351221,-0.9296815],[-0.627877,-0.4872929,0.5863426,0.395178,0.8061705,0.3099684,-0.07435405,-0.8801703,0.4900758,0.5595891,-0.438301,-0.02655351,0.5637994,0.1795501,-0.4138545,0.1802763],[-0.7800486,-0.2426957,-0.537291,0.246061,-0.2602357,0.4025511,-0.3278078,0.4550996,0.9027791,-0.04232967,-0.1060635,-0.696811,0.8994286,0.006585717,0.6729119,-0.4920195],[-0.2171773,0.6414249,-0.1616694,0.3511634,-0.5221391,-0.5742176,-0.2117926,-0.9496145,0.5477962,0.6606445,-0.42316,-0.2660939,0.0790385,-0.8220775,0.7409678,0.4505412],[-0.2306818,0.4061999,-0.5781045,-0.7747886,0.3186161]],[[0.5780189,-0.5886836,0.6647048,-0.1913084,0.9235783,-0.9871182,-0.3626865,-0.4617063,-0.9009426,-0.1051215,0.8847179,0.2045592,0.8966148,0.369812,0.6351221,-0.9296815],[-0.627877,-0.4872929,0.4738366,0.395178,0.8061705,0.3099684,-0.07435405,-0.8801703,0.4900758,0.5595891,-0.438301,-0.02655351,0.5637994,-0.8158083,-0.4138545,0.1802763],[-0.7800486,-0.2426957,-0.537291,0.246061,-0.2602357,0.4025511,-0.3278078,0.4550996,0.9027791,-0.04232967,-0.1060635,-0.696811,0.8994286,0.006585717,0.6729119,-0.4920195],[-0.2171773,0.6414249,-0.1616694,0.3511634,-0.5221391,-0.5742176,-0.2117926,-0.9496145,0.5477962,0.6606445,-0.42316,-0.2660939,0.0790385,0.8855143,0.7409678,0.4505412],[-0.2306818,0.4061999,-0.5781045,-0.3042492,0.3186161]],[[-0.2423347,0.7187092,0.6647048,-0.1913084,0.9235783,0.3366937,-0.3626865,-0.4617063,-0.9009426,-0.1051215,0.8847179,0.7868752,0.8966148,0.369812,0.6351221,-0.9296815],[-0.627877,-0.4872929,0.5863426,0.395178,0.8061705,0.3099684,0.0180198,-0.8801703,0.4900758,0.5595891,-0.438301,-0.02655351,0.5637994,0.1795501,-0.4138545,0.1802763],[-0.7800486,-0.2426957,-0.537291,0.246061,-0.2602357,0.4025511,-0.3278078,0.4550996,0.9027791,-0.04232967,-0.1060635,-0.696811,0.8994286,0.006585717,0.6729119,-0.4920195],[-0.2171773,0.6414249,-0.1616694,0.3511634,-0.5221391,-0.5742176,-0.2117926,-0.9496145,0.5477962,0.6606445,-0.42316,-0.2660939,0.0790385,-0.8220775,0.7409678,0.4505412],[-0.2306818,-0.5329583,-0.5781045,-0.7747886,0.3186161]],[[0.5780189,-0.5886836,0.6647048,-0.1913084,0.9235783,-0.9871182,-0.3626865,-0.4617063,-0.9009426,-0.1051215,0.8847179,0.4120283,0.8966148,0.369812,0.6351221,-0.9296815],[0.4627669,-0.4872929,0.5863426,0.395178,0.1846446,0.3099684,-0.07435405,0.2949276,0.4900758,0.5595891,-0.438301,-0.02655351,0.5637994,-0.8158083,-0.4138545,0.1802763],[-0.7800486,-0.2426957,-0.537291,0.246061,-0.2602357,0.4025511,-0.3278078,0.4944098,-0.9001806,-0.04232967,-0.1060635,-0.696811,0.09547484,0.01521623,0.6729119,-0.4920195],[0.09098971,0.6414249,0.4453499,-0.1324517,-0.5221391,-0.5742176,-0.2117926,0.7369635,0.5477962,0.6606445,-0.42316,0.03918183,-0.4805504,-0.8220775,0.7409678,0.4505412],[-0.2306818,0.5852809,-0.5781045,-0.7747886,0.3186161]],[[-0.2423347,-0.5886836,0.6647048,-0.1913084,0.9235783,0.3366937,-0.3626865,-0.4617063,-0.9009426,-0.1051215,0.8847179,0.7868752,0.8966148,0.369812,0.6351221,-0.9296815],[-0.627877,-0.4872929,0.5863426,0.395178,0.8061705,0.3099684,-0.07435405,-0.8801703,0.4900758,0.5595891,-0.438301,-0.02655351,0.5637994,0.1795501,-0.4138545,0.1802763],[-0.1815821,-0.2426957,-0.537291,0.246061,-0.2602357,0.4025511,-0.3278078,0.4550996,0.9027791,-0.04232967,-0.1060635,-0.696811,0.8994286,0.006585717,0.6729119,-0.4920195],[-0.2171773,0.6414249,-0.1616694,0.3511634,-0.5221391,-0.5742176,-0.2117926,-0.9496145,0.5477962,0.6606445,-0.42316,-0.2660939,0.0790385,-0.8220775,0.7409678,0.4505412],[-0.2306818,0.4061999,-0.5781045,-0.7747886,0.3186161]],[[0.5780189,-0.5886836,0.6647048,-0.1913084,0.9235783,-0.9871182,-0.3626865,-0.4617063,-0.9009426,-0.1051215,0.8847179,0.2045592,0.8966148,0.7231224,0.6351221,-0.9296815],[0.4627669,-0.4872929,0.5863426,0.395178,0.8061705,0.3099684,-0.07435405,-0.8801703,0.4900758,0.5595891,-0.438301,-0.02655351,0.5637994,-0.8158083,-0.4138545,0.1802763],[-0.7800486,-0.2426957,-0.537291,0.246061,-0.2602357,0.4025511,-0.3278078,0.4550996,-0.9001806,-0.04232967,-0.5184584,-0.696811,0.8994286,0.01521623,0.6729119,-0.4920195],[-0.2171773,0.6414249,0.4453499,0.3511634,-0.5221391,-0.5742176,-0.2117926,0.7369635,0.5477962,0.6606445,-0.42316,-0.2660939,0.0790385,-0.8220775,0.7409678,0.4505412],[-0.2306818,0.4061999,-0.5781045,-0.7747886,0.3186161]],[[-0.2423347,-0.5886836,0.6647048,-0.1913084,0.9235783,0.3366937,-0.3626865,-0.4617063,-0.9009426,-0.1051215,0.8847179,0.7868752,0.8966148,0.369812,0.6351221,-0.9296815],[-0.627877,-0.4872929,0.5863426,0.395178,0.8061705,0.3099684,-0.07435405,-0.8801703,0.4900758,0.5595891,-0.438301,-0.02655351,0.5637994,0.1795501,-0.4138545,0.1802763],[-0.7800486,-0.2426957,-0.537291,0.246061,-0.2602357,0.4025511,-0.3278078,0.4550996,0.9027791,-0.04232967,-0.1060635,-0.696811,0.8994286,0.006585717,0.6729119,-0.4920195],[-0.2171773,0.6414249,-0.1616694,0.3511634,-0.5221391,-0.5742176,-0.2117926,-0.9496145,0.5477962,0.6606445,-0.42316,-0.2660939,0.0790385,-0.8220775,0.7409678,0.4505412],[-0.2306818,0.4061999,-0.5781045,-0.7747886,0.3186161]],[[0.5780189,-0.5886836,0.6647048,-0.1913084,0.9235783,-0.9871182,-0.3626865,-0.4617063,-0.9009426,-0.1051215,0.8847179,0.2045592,0.8966148,0.369812,0.6351221,-0.9296815],[0.4627669,-0.4872929,0.5863426,0.395178,0.8061705,0.3099684,-0.07435405,-0.8801703,0.4900758,0.5595891,-0.438301,-0.02655351,0.5637994,-0.8158083,-0.4138545,0.1802763],[-0.7800486,-0.2426957,-0.537291,0.246061,-0.2602357,0.4025511,-0.3278078,0.4550996,-0.9001806,-0.04232967,-0.1060635,-0.696811,0.8994286,0.006585717,0.6729119,-0.4920195],[-0.2171773,0.6414249,0.4453499,0.3511634,-0.5221391,-0.5742176,-0.2117926,0.7369635,0.5477962,0.6606445,-0.42316,-0.2660939,0.0790385,-0.8220775,0.7409678,0.4505412],[-0.2306818,0.4061999,-0.5781045,-0.7747886,0.3186161]],[[0.5780189,-0.5886836,0.6647048,-0.1913084,0.9235783,-0.9871182,-0.3626865,-0.4617063,-0.9009426,-0.1051215,0.8847179,0.2045592,0.8966148,0.369812,0.6351221,-0.9296815],[-0.627877,-0.4872929,0.5863426,0.395178,0.8061705,0.3099684,-0.07435405,-0.8801703,0.4900758,0.5595891,-0.438301,-0.02655351,0.5637994,-0.8158083,-0.4138545,0.1802763],[-0.7800486,-0.2426957,-0.537291,0.246061,-0.2602357,0.4025511,-0.3278078,0.4550996,0.9027791,-0.04232967,-0.1060635,-0.696811,0.8994286,0.006585717,0.6729119,-0.4920195],[-0.2171773,0.6414249,-0.1616694,0.3511634,-0.5221391,-0.5742176,-0.2117926,-0.9496145,0.5477962,0.6606445,-0.42316,-0.2660939,0.0790385,-0.8220775,0.7409678,0.4505412],[-0.2306818,0.4061999,-0.5781045,-0.7747886,0.3186161]],[[0.5780189,-0.5886836,0.6647048,-0.1913084,0.9235783,-0.9871182,-0.3626865,-0.4617063,-0.9009426,-0.1051215,0.8847179,0.2045592,0.8966148,0.369812,0.6351221,-0.9296815],[0.4627669,-0.4872929,-0.271428,0.395178,0.8061705,0.3099684,-0.07435405,-0.8801703,0.4900758,0.5595891,-0.438301,-0.02655351,0.5637994,-0.8158083,-0.4138545,0.1802763],[-0.7800486,-0.2426957,-0.537291,0.246061,-0.2602357,0.4025511,-0.3278078,0.4550996,-0.9001806,-0.04232967,-0.1060635,-0.696811,-0.5369201,0.006585717,0.3929529,-0.4920195],[-0.6567423,0.6414249,-0.2211612,0.3511634,-0.5221391,-0.5742176,-0.2117926,0.7369635,0.5477962,0.6606445,-0.42316,-0.2660939,0.0790385,-0.8220775,0.9046545,0.4505412],[-0.2306818,0.4061999,-0.5781045,-0.7747886,0.3186161]],[[0.5780189,-0.5886836,0.6647048,-0.1913084,0.9235783,-0.9871182,-0.3626865,-0.4617063,-0.9009426,-0.1051215,0.8847179,0.2045592,0.8966148,0.369812,0.6351221,-0.9296815],[-0.627877,-0.4872929,0.5863426,0.395178,0.8061705,0.3099684,-0.07435405,-0.8801703,0.4900758,0.5595891,-0.438301,-0.02655351,0.5637994,-0.8158083,-0.4138545,0.1802763],[-0.7800486,-0.2426957,-0.537291,0.246061,-0.2602357,0.4025511,-0.3278078,0.4550996,0.9027791,-0.04232967,-0.1060635,-0.696811,0.8994286,0.006585717,0.6729119,-0.4920195],[-0.2171773,0.6414249,-0.1616694,0.3511634,-0.5221391,-0.5742176,-0.2117926,-0.9496145,0.5477962,0.6606445,-0.42316,-0.2660939,0.0790385,-0.8220775,0.7409678,0.4505412],[-0.2306818,0.4061999,-0.5781045,-0.7747886,0.3186161]],[[0.5780189,-0.5886836,0.6647048,-0.1913084,0.9235783,-0.9871182,-0.3626865,-0.4617063,-0.9009426,-0.1051215,0.8847179,-0.9397831,0.8966148,0.369812,0.6351221,-0.9296815],[-0.627877,-0.4872929,0.5863426,0.395178,0.8061705,-0.3380414,-0.07435405,-0.8801703,0.4900758,0.5595891,-0.438301,-0.02655351,0.01901925,-0.373165,-0.4138545,0.1802763],[-0.7800486,-0.2426957,-0.537291,0.246061,-0.2602357,0.4025511,-0.3278078,0.4550996,0.9027791,-0.04232967,-0.1060635,-0.696811,0.8994286,0.006585717,0.6729119,-0.4920195],[-0.5233002,0.6414249,-0.1616694,0.3511634,-0.5221391,-0.5742176,-0.2117926,-0.9496145,0.5477962,0.6606445,-0.42316,-0.2660939,0.0790385,-0.8220775,0.7409678,0.4505412],[-0.2306818,0.4061999,-0.5781045,-0.7747886,0.3186161]],[[0.5780189,-0.5886836,0.6647048,-0.1913084,0.9235783,-0.9871182,-0.3626865,-0.4617063,-0.9009426,-0.1051215,0.8847179,0.2045592,0.8966148,0.369812,0.6351221,-0.9296815],[-0.627877,-0.4872929,0.5863426,0.395178,0.8061705,0.3099684,-0.07435405,-0.8801703,0.4900758,0.5595891,-0.438301,-0.02655351,0.5637994,0.953074,-0.4138545,0.1802763],[-0.7800486,-0.2426957,-0.537291,0.246061,-0.2602357,0.4025511,-0.3278078,0.4550996,0.9027791,-0.04232967,-0.1060635,-0.696811,-0.4180032,0.006585717,0.6729119,0.380218],[-0.2171773,0.6414249,-0.1616694,0.3511634,-0.5221391,-0.5742176,-0.2117926,-0.9496145,0.5477962,0.6606445,-0.42316,-0.2660939,0.0790385,-0.8220775,0.7409678,0.4505412],[-0.2306818,0.4061999,-0.5781045,-0.7747886,0.3186161]],[[0.5780189,-0.5886836,0.6647048,-0.1913084,0.9235783,-0.9871182,-0.3626865,-0.4617063,-0.9009426,-0.1051215,0.8847179,0.2045592,0.8966148,0.369812,0.6351221,-0.9296815],[0.4627669,-0.4872929,0.5863426,0.395178,0.8061705,0.3099684,-0.07435405,-0.8801703,0.4900758,0.5595891,-0.438301,-0.02655351,0.5637994,-0.8158083,-0.4138545,0.1802763],[-0.7800486,-0.2426957,-0.537291,0.246061,-0.2602357,0.4025511,-0.3278078,0.4550996,-0.9001806,-0.04232967,-0.1060635,-0.696811,0.8994286,0.006585717,0.6729119,-0.4920195],[-0.2171773,0.6414249,0.4453499,0.3511634,-0.5221391,-0.5742176,-0.2117926,0.7369635,0.5477962,0.6606445,-0.42316,-0.2660939,0.0790385,-0.8220775,0.7409678,0.4505412],[-0.2306818,0.4061999,-0.5781045,-0.7747886,0.3186161]],[[-0.2423347,-0.5886836,0.6647048,-0.1913084,0.9235783,0.3366937,-0.3626865,-0.4617063,-0.9009426,-0.1051215,0.8847179,0.7868752,0.8966148,0.369812,0.6351221,-0.9296815],[-0.627877,-0.4872929,0.5863426,0.395178,0.8061705,0.3099684,-0.07435405,-0.8801703,0.4900758,0.5595891,-0.438301,-0.02655351,0.5637994,0.1795501,-0.4138545,0.1802763],[-0.7800486,-0.2426957,-0.537291,0.246061,-0.2602357,0.4025511,-0.3278078,0.4550996,0.9027791,-0.04232967,-0.1060635,-0.8292432,0.8994286,0.006585717,0.6729119,-0.4920195],[-0.2171773,0.6414249,-0.1616694,0.3511634,-0.5221391,-0.5742176,-0.2117926,-0.9496145,0.5477962,0.6606445,-0.42316,-0.2660939,0.0790385,-0.8220775,0.7409678,0.4505412],[-0.2306818,0.4061999,-0.5781045,-0.7747886,0.3186161]],[[0.5780189,-0.5886836,0.6647048,-0.1913084,0.9235783,-0.9871182,-0.3626865,-0.4617063,-0.9009426,-0.1051215,0.8847179,0.2045592,0.8966148,0.369812,0.6351221,-0.9296815],[0.4627669,-0.4872929,0.5863426,0.395178,0.8061705,0.3099684,-0.07435405,-0.8801703,0.4900758,0.5595891,-0.438301,-0.02655351,0.5637994,-0.8158083,-0.4138545,0.1802763],[-0.7800486,-0.2426957,-0.537291,0.246061,-0.2602357,0.4025511,-0.3278078,0.4550996,-0.9001806,-0.04232967,-0.1060635,-0.696811,0.8994286,0.006585717,0.6729119,-0.4920195],[-0.2171773,0.6414249,0.4453499,0.3511634,-0.5221391,-0.5742176,-0.2117926,0.7369635,0.5477962,0.6606445,-0.42316,-0.2660939,0.0790385,-0.8220775,0.7409678,0.4505412],[-0.2306818,0.4061999,-0.5781045,-0.7747886,0.3186161]],[[0.5780189,-0.5886836,0.6647048,-0.1913084,0.9235783,-0.6764622,-0.3626865,-0.4617063,-0.9009426,-0.1051215,0.8847179,0.2045592,0.8966148,0.369812,0.4433582,-0.9296815],[0.4627669,-0.4872929,0.5863426,0.395178,0.8061705,0.3099684,-0.07435405,-0.8801703,0.4900758,0.5595891,-0.438301,-0.02655351,0.5637994,-0.8158083,-0.4138545,0.1802763],[-0.7800486,-0.2426957,-0.537291,0.246061,-0.2602357,0.4025511,-0.3278078,0.4550996,-0.9001806,-0.04232967,-0.1060635,-0.696811,0.8994286,0.006585717,0.6729119,-0.4920195],[-0.2171773,0.6414249,0.4453499,0.3511634,-0.5221391,-0.5742176,-0.2117926,0.7369635,0.5477962,0.6606445,-0.42316,-0.2660939,0.0790385,-0.8220775,0.7409678,0.4505412],[-0.2306818,0.4061999,-0.5781045,-0.7747886,0.3186161]],[[0.5780189,-0.5886836,0.6647048,-0.1913084,0.9235783,-0.9871182,-0.3626865,-0.4617063,-0.9009426,-0.1051215,0.8847179,0.2045592,0.8966148,0.369812,0.6351221,-0.9296815],[-0.3194622,-0.4872929,0.5863426,0.395178,0.8061705,0.3099684,-0.07435405,-0.8801703,0.4900758,0.5595891,-0.438301,-0.02655351,0.5637994,-0.8158083,-0.4138545,0.1802763],[-0.7800486,-0.2426957,0.08337843,0.246061,-0.2602357,0.4025511,-0.3278078,0.4550996,-0.9001806,-0.04232967,-0.07971752,-0.696811,0.8994286,0.006585717,0.6729119,-0.4920195],[-0.2171773,0.6414249,0.4453499,0.3511634,-0.5221391,-0.5742176,-0.2117926,0.7369635,0.5477962,0.6606445,-0.42316,-0.2660939,0.0790385,-0.8220775,0.04499638,0.4505412],[-0.2306818,0.4061999,-0.5781045,-0.7747886,0.3186161]],[[0.5780189,-0.5886836,0.6647048,-0.1913084,0.9235783,-0.9871182,-0.3626865,-0.4617063,-0.9009426,-0.1051215,0.8847179,-0.1037904,0.8966148,0.369812,0.4433582,-0.9296815],[0.4627669,-0.4872929,0.5863426,0.395178,0.8061705,0.3099684,-0.07435405,-0.8801703,0.4900758,0.5595891,-0.438301,-0.02655351,0.5637994,-0.8158083,-0.4138545,0.1802763],[-0.7800486,-0.2426957,-0.537291,0.246061,-0.2602357,0.4025511,-0.3278078,0.4550996,-0.9001806,-0.04232967,-0.1060635,-0.696811,0.2182289,0.006585717,0.6729119,-0.4920195],[-0.2171773,0.6414249,0.4453499,-0.1966752,-0.5221391,-0.5742176,-0.2117926,0.7369635,0.5477962,0.6606445,-0.42316,-0.2660939,0.0790385,-0.8220775,0.7409678,0.4505412],[-0.2306818,0.4061999,-0.5781045,-0.7747886,0.3186161]],[[0.5780189,-0.5886836,0.6647048,-0.1913084,0.9235783,-0.9871182,-0.3626865,-0.4617063,-0.9009426,-0.1051215,0.8847179,0.2045592,0.8966148,0.369812,0.6351221,-0.9296815],[0.4627669,-0.4872929,0.5863426,0.395178,0.8061705,0.3099684,-0.07435405,-0.8801703,0.4900758,0.5595891,-0.438301,-0.02655351,0.5637994,-0.8158083,-0.4138545,-0.1484021],[-0.7800486,-0.2426957,-0.537291,0.246061,-0.2602357,0.4025511,0.5967164,0.4550996,-0.9001806,-0.04232967,-0.1060635,-0.696811,0.8994286,0.006585717,0.6729119,-0.4920195],[-0.2171773,0.6414249,0.4453499,0.3511634,-0.5221391,-0.5742176,-0.2117926,0.7369635,0.5477962,0.6606445,-0.42316,-0.2660939,0.0790385,-0.8220775,0.7409678,0.4505412],[-0.2306818,0.4061999,-0.5781045,-0.7747886,0.3186161]],[[0.5780189,-0.5886836,0.6647048,-0.1913084,0.9235783,-0.9871182,-0.3626865,-0.4617063,-0.9009426,-0.1051215,0.8847179,0.2045592,0.8966148,0.369812,0.6351221,-0.9296815],[0.4627669,-0.4872929,0.5863426,0.395178,0.8061705,0.3099684,-0.07435405,-0.8801703,0.4900758,0.5595891,-0.438301,-0.02655351,0.5637994,-0.8158083,-0.4138545,0.1802763],[-0.7800486,-0.2426957,-0.537291,0.246061,-0.2602357,0.4025511,-0.3278078,0.4550996,-0.9001806,-0.04232967,-0.1060635,-0.696811,0.8994286,0.006585717,0.6729119,-0.4920195],[-0.2171773,0.6414249,0.4453499,0.3511634,-0.5221391,-0.5742176,-0.2117926,0.7369635,0.5477962,0.6606445,-0.42316,-0.2660939,0.0790385,-0.8220775,-0.7329633,0.4505412],[-0.2306818,0.4061999,-0.5781045,-0.7747886,0.3186161]],[[-0.2423347,-0.5886836,0.6647048,-0.1913084,0.9235783,0.3366937,-0.3626865,-0.4617063,-0.9009426,-0.1051215,0.8847179,0.7868752,0.8966148,0.369812,0.6351221,-0.9296815],[-0.627877,-0.4872929,0.5863426,0.395178,0.8061705,0.3099684,-0.07435405,-0.8801703,0.4900758,0.5595891,-0.438301,-0.02655351,0.5637994,0.1795501,-0.4138545,0.1802763],[-0.7800486,-0.2426957,-0.537291,0.246061,-0.2602357,0.4025511,-0.3278078,0.4550996,0.9027791,-0.04232967,-0.1060635,-0.696811,0.8994286,0.006585717,0.6729119,-0.4920195],[-0.2171773,0.6414249,-0.1616694,0.3511634,-0.5221391,-0.5742176,-0.2117926,-0.9496145,0.5477962,0.6606445,-0.42316,-0.2660939,0.0790385,-0.8220775,0.7409678,0.4505412],[-0.2306818,0.4061999,-0.5781045,-0.7747886,0.3186161]],[[0.5780189,-0.5886836,0.6647048,-0.1913084,0.9235783,-0.9871182,-0.3626865,-0.4617063,-0.6099436,-0.1051215,0.8847179,0.2045592,0.8966148,0.369812,0.1026617,-0.9296815],[-0.3348469,-0.4872929,0.5863426,0.395178,0.2226683,0.164044,-0.1445745,-0.8801703,0.4900758,0.2556023,-0.438301,-0.02655351,0.5637994,-0.8158083,-0.4138545,0.1802763],[-0.7800486,-0.2426957,0.2141861,0.246061,-0.2602357,0.4025511,-0.3278078,0.4550996,-0.9001806,-0.04232967,0.3634338,-0.696811,0.8994286,0.006585717,0.6729119,-0.650434],[-0.5660698,0.6414249,0.4453499,0.3511634,-0.5221391,-0.5742176,0.5964456,0.7369635,-0.4508892,0.6606445,-0.42316,0.02592552,-0.5148084,-0.8220775,0.7409678,0.4505412],[-0.2306818,0.3606393,-0.5781045,-0.6430323,0.141683]],[[-0.2423347,-0.5886836,0.6647048,-0.1913084,0.9235783,0.3366937,-0.3626865,-0.4617063,-0.9009426,-0.1051215,0.8847179,0.7868752,0.8966148,0.369812,0.6351221,-0.9296815],[-0.627877,-0.4872929,0.5863426,0.395178,0.8061705,0.3099684,-0.07435405,-0.8801703,0.4900758,0.5595891,-0.438301,-0.02655351,0.5637994,0.1795501,-0.4138545,0.1802763],[-0.7800486,-0.2426957,-0.537291,0.246061,-0.2602357,0.4025511,-0.3278078,0.4550996,0.9027791,-0.04232967,-0.1060635,-0.696811,0.8994286,0.006585717,0.6729119,-0.4920195],[-0.2171773,0.6414249,-0.1616694,0.3511634,-0.5221391,-0.5742176,-0.2117926,-0.9496145,0.5477962,0.6606445,-0.42316,-0.2660939,0.0790385,-0.8220775,0.7409678,0.4505412],[-0.2306818,0.4061999,-0.5781045,-0.7747886,0.3186161]],[[-0.2423347,-0.5886836,0.6647048,-0.1913084,0.9235783,0.3366937,-0.3626865,-0.4617063,-0.9009426,-0.1051215,0.8847179,0.7868752,0.8966148,0.369812,0.6351221,-0.9296815],[-0.627877,-0.4872929,0.5863426,0.395178,0.8061705,0.3099684,-0.07435405,-0.8801703,0.4900758,0.5595891,-0.438301,-0.02655351,0.5637994,0.1795501,-0.4138545,0.1802763],[-0.7800486,-0.2426957,-0.537291,0.246061,-0.2602357,0.4025511,-0.3278078,0.4550996,0.9027791,-0.04232967,-0.1060635,-0.696811,0.8994286,0.006585717,0.6729119,-0.4920195],[-0.2171773,0.6414249,-0.1616694,0.3511634,-0.5221391,-0.5742176,-0.2117926,-0.9496145,0.5477962,0.6606445,-0.42316,-0.2660939,0.0790385,-0.8220775,0.7409678,0.4505412],[-0.2306818,0.4061999,-0.5781045,-0.7747886,0.3186161]],[[-0.2423347,-0.5886836,0.6647048,-0.1913084,0.9235783,0.3366937,-0.3626865,-0.4617063,-0.9009426,-0.1051215,0.8847179,0.7868752,0.8966148,0.369812,0.6351221,-0.9296815],[-0.627877,-0.4872929,0.5863426,0.395178,0.8061705,0.3099684,-0.07435405,-0.8801703,0.4900758,0.5595891,-0.438301,-0.02655351,0.5637994,0.1795501,-0.4138545,0.1802763],[-0.7800486,-0.2426957,-0.537291,0.246061,-0.2602357,0.4025511,-0.3278078,0.4550996,0.9027791,-0.04232967,-0.1060635,-0.696811,0.8994286,0.006585717,0.6729119,-0.4920195],[-0.2171773,0.6414249,-0.1616694,0.3511634,-0.5221391,-0.5742176,-0.2117926,-0.9496145,0.5477962,0.6606445,-0.42316,-0.2660939,0.0790385,-0.8220775,0.7409678,0.4505412],[-0.2306818,0.4061999,-0.5781045,-0.7747886,0.3186161]],[[0.5780189,-0.5886836,0.6647048,-0.1913084,0.9235783,-0.9871182,-0.3279995,-0.4617063,-0.9009426,-0.1051215,0.8847179,0.2045592,0.8966148,0.369812,0.6351221,-0.9296815],[-0.627877,-0.4872929,0.5863426,0.395178,0.8061705,0.3099684,-0.07435405,-0.8801703,0.4900758,0.5595891,-0.438301,-0.02655351,0.5637994,-0.8158083,-0.4138545,0.1802763],[-0.7800486,-0.2426957,-0.537291,0.246061,-0.2602357,0.4025511,-0.3278078,0.4550996,0.6015575,-0.04232967,-0.1060635,-0.696811,0.8994286,0.006585717,0.6729119,-0.4920195],[-0.2171773,0.6414249,-0.1616694,0.3511634,-0.5221391,-0.5742176,-0.2117926,-0.9496145,0.613646,0.6606445,-0.4867367,-0.2660939,0.0790385,-0.8220775,0.7409678,0.4505412],[0.5126784,-0.130468,-0.5781045,-0.7747886,0.3186161]],[[0.5780189,-0.5886836,0.6647048,-0.1913084,0.9235783,-0.9871182,-0.3626865,-0.4617063,-0.6099436,-0.1051215,0.8847179,0.2045592,0.8966148,0.369812,0.1026617,0.1895708],[-0.3348469,-0.4872929,0.5863426,0.395178,0.2226683,0.3099684,-0.1445745,-0.8801703,0.4900758,0.2556023,-0.438301,-0.02655351,0.5637994,-0.8158083,-0.4138545,0.1802763],[-0.7800486,-0.2426957,0.2141861,0.246061,-0.2602357,0.4025511,-0.3278078,0.4550996,-0.9001806,-0.04232967,0.3634338,-0.696811,0.8994286,0.04284561,0.6729119,-0.650434],[-0.5660698,0.6414249,0.4453499,0.3511634,-0.5221391,-0.5742176,-0.06220758,0.7369635,-0.4508892,0.6606445,-0.42316,0.02592552,-0.5148084,-0.8220775,0.7409678,0.4505412],[-0.2306818,0.0277859,-0.5781045,-0.6430323,0.141683]],[[0.5780189,-0.5886836,0.6647048,-0.3840543,0.9235783,-0.9871182,-0.3626865,-0.4617063,-0.9009426,-0.1051215,0.8847179,0.2045592,0.8966148,0.4198556,0.6351221,-0.9296815],[0.4627669,-0.4872929,0.5863426,0.395178,0.8061705,0.3099684,-0.07435405,0.3487668,0.4900758,0.5595891,-0.438301,-0.02655351,0.5637994,-0.8158083,-0.4138545,0.1802763],[-0.7800486,-0.2426957,-0.537291,0.246061,-0.2602357,0.4025511,-0.3278078,-0.5746377,-0.9001806,-0.04232967,-0.1060635,-0.696811,0.8994286,0.006585717,0.6729119,-0.4920195],[-0.2171773,0.6414249,-0.2798311,0.3511634,-0.5221391,-0.5742176,-0.2117926,0.7369635,0.5477962,0.6606445,-0.42316,-0.2660939,0.0790385,-0.8220775,0.7409678,0.4505412],[-0.2306818,0.4061999,-0.5781045,-0.7747886,0.3186161]],[[-0.2423347,-0.5886836,0.6647048,-0.1913084,0.9235783,0.3366937,-0.7749481,-0.4617063,-0.9009426,-0.1051215,0.8847179,0.7868752,0.8966148,0.369812,0.6351221,-0.9296815],[-0.627877,-0.4872929,0.5863426,0.395178,0.8061705,0.3099684,-0.07435405,-0.8801703,0.4900758,0.5595891,-0.438301,-0.02655351,0.5637994,0.1795501,-0.4138545,0.1802763],[-0.7800486,-0.2426957,-0.537291,0.246061,-0.2602357,0.4025511,-0.3278078,0.4550996,0.9027791,-0.04232967,-0.1060635,-0.696811,0.8994286,0.006585717,0.6729119,-0.4920195],[-0.2171773,0.6414249,-0.1616694,0.3511634,-0.5221391,-0.5742176,-0.2117926,-0.9496145,-0.07090175,0.6606445,-0.42316,-0.2660939,0.0790385,-0.8220775,0.9401133,0.4505412],[-0.2306818,0.4061999,-0.5781045,-0.7747886,0.3186161]],[[-0.2423347,-0.5886836,0.6647048,-0.1913084,0.9235783,0.3366937,-0.3626865,-0.4617063,-0.9009426,-0.1051215,0.8847179,0.7868752,0.8966148,0.369812,0.6351221,-0.9296815],[-0.627877,-0.4872929,0.5863426,0.395178,0.8061705,0.3099684,-0.07435405,-0.8801703,0.4900758,0.5595891,-0.438301,0.7570736,0.5637994,0.1795501,-0.4138545,0.1802763],[-0.7800486,-0.2426957,-0.537291,0.246061,-0.2602357,0.4025511,-0.3278078,0.4550996,0.9027791,-0.04232967,-0.1060635,-0.696811,0.8994286,0.006585717,0.6729119,-0.4920195],[-0.2171773,0.6414249,-0.1616694,0.3511634,-0.5221391,-0.5742176,-0.2117926,-0.9496145,0.5477962,0.6606445,-0.42316,-0.2660939,0.0790385,-0.8220775,0.7409678,0.4505412],[-0.2306818,0.4061999,-0.5781045,-0.7747886,0.3186161]],[[0.5780189,-0.5886836,0.6647048,-0.1913084,0.9235783,-0.9871182,-0.3279995,-0.4617063,-0.9009426,-0.1051215,0.8847179,0.2045592,0.8966148,0.369812,0.6351221,-0.9296815],[-0.627877,-0.4872929,0.5863426,0.395178,0.8061705,0.3099684,-0.07435405,-0.8801703,0.4900758,0.5595891,-0.438301,-0.02655351,0.5637994,0.5001874,-0.4138545,0.1802763],[-0.7800486,-0.2426957,-0.537291,0.246061,-0.2602357,0.4025511,-0.3278078,0.4550996,0.6015575,-0.04232967,-0.1060635,-0.696811,0.8994286,0.006585717,0.6729119,-0.4920195],[-0.2171773,0.6414249,-0.1616694,0.3511634,-0.5221391,-0.5742176,-0.2117926,-0.9496145,0.5477962,0.6606445,-0.42316,-0.2660939,0.0790385,-0.8220775,0.7409678,0.4505412],[-0.2306818,0.4061999,-0.5781045,-0.7747886,0.3186161]],[[0.5780189,-0.5886836,0.6647048,-0.1913084,0.9235783,-0.9871182,-0.3626865,-0.4617063,-0.9009426,-0.1051215,0.8847179,0.2045592,0.8966148,0.369812,0.6351221,-0.9296815],[-0.627877,-0.4872929,0.5863426,0.395178,0.8061705,0.3099684,-0.07435405,-0.8801703,0.4900758,0.5595891,-0.438301,-0.02655351,0.5637994,-0.8158083,-0.4138545,0.1802763],[-0.7800486,-0.2426957,-0.537291,0.246061,-0.2602357,0.4025511,-0.3278078,0.4550996,0.9027791,-0.04232967,-0.1060635,-0.696811,0.8994286,0.006585717,0.6729119,-0.4920195],[-0.2171773,0.6414249,-0.1616694,0.3511634,-0.5221391,-0.5742176,-0.2117926,-0.9496145,0.5477962,0.6606445,-0.42316,-0.2660939,0.0790385,-0.8220775,0.7409678,0.4505412],[-0.2306818,0.4061999,-0.5781045,-0.7747886,-0.4417223]],[[0.5780189,-0.5886836,0.6647048,-0.1913084,0.9235783,-0.9871182,-0.3626865,-0.4617063,-0.9009426,-0.1051215,0.8847179,0.2045592,0.8966148,0.369812,0.6351221,-0.9296815],[-0.627877,-0.4872929,0.5863426,0.395178,0.8061705,0.3099684,-0.07435405,-0.8801703,0.4900758,0.5595891,-0.438301,-0.02655351,0.5637994,-0.8158083,-0.4138545,0.1802763],[-0.7800486,-0.2426957,-0.537291,0.246061,-0.2602357,0.4025511,-0.3278078,0.4550996,0.9027791,-0.04232967,-0.1060635,-0.696811,0.5598114,0.006585717,0.6729119,-0.4920195],[-0.2171773,0.6414249,-0.1616694,0.3511634,-0.5221391,-0.5742176,-0.2117926,-0.9496145,0.5477962,0.6606445,-0.42316,-0.2660939,0.0790385,-0.8220775,0.7409678,0.4505412],[-0.2306818,0.4061999,-0.5781045,-0.7747886,0.3186161]],[[0.5780189,-0.5886836,0.6647048,-0.1913084,0.9235783,-0.9871182,-0.3626865,-0.4617063,-0.9009426,-0.1051215,0.8847179,0.2045592,0.8966148,0.369812,0.6351221,-0.9296815],[0.4627669,-0.4872929,0.5863426,0.395178,0.8061705,0.3099684,-0.07435405,-0.8801703,0.4900758,0.5595891,-0.438301,-0.02655351,0.5637994,-0.8158083,-0.4138545,0.1802763],[-0.7800486,-0.2426957,-0.537291,0.246061,-0.2602357,0.4025511,-0.3278078,0.4550996,-0.9001806,-0.04232967,-0.07971752,-0.696811,0.8994286,0.006585717,0.6729119,-0.4920195],[-0.2171773,0.6414249,0.4453499,0.3511634,-0.5221391,-0.5742176,-0.2117926,0.7369635,0.5477962,0.6606445,-0.42316,-0.2660939,0.0790385,-0.8220775,0.7409678,0.4505412],[-0.2306818,0.4061999,0.346698,-0.7747886,0.3186161]],[[-0.2423347,-0.5886836,0.6647048,-0.1913084,0.9235783,0.3366937,-0.3626865,-0.4617063,-0.9009426,-0.1051215,0.8847179,0.7868752,0.8966148,0.369812,-0.5414486,-0.9296815],[-0.627877,-0.4872929,0.5863426,0.395178,0.8061705,0.3099684,-0.07435405,-0.8801703,0.4900758,0.5595891,-0.438301,-0.02655351,0.5637994,0.1795501,-0.4138545,0.1802763],[-0.7800486,-0.2426957,-0.537291,0.246061,-0.2602357,0.4025511,-0.3278078,0.4550996,0.9027791,-0.04232967,-0.1060635,-0.696811,0.8994286,0.006585717,0.6729119,-0.4920195],[-0.2171773,0.6414249,-0.1616694,0.3511634,-0.5221391,-0.5742176,-0.2117926,-0.9496145,0.5477962,0.6606445,-0.42316,-0.2660939,0.0790385,-0.8220775,0.7409678,0.4505412],[-0.2306818,0.4061999,-0.5781045,-0.7747886,0.3186161]],[[0.5780189,-0.5886836,0.6647048,-0.1913084,0.9235783,-0.9871182,-0.3626865,-0.4617063,-0.9009426,-0.1051215,0.8847179,-0.9397831,0.8966148,0.369812,0.6351221,-0.9296815],[-0.627877,-0.4872929,0.5863426,0.395178,0.8061705,-0.3380414,-0.07435405,-0.8801703,0.4743509,0.5595891,-0.438301,-0.02655351,0.01901925,-0.373165,-0.4138545,0.1802763],[-0.7800486,-0.2426957,-0.537291,0.246061,-0.2602357,0.4025511,-0.3278078,0.4550996,0.6615527,-0.04232967,-0.1060635,-0.696811,0.8994286,0.006585717,0.6729119,-0.4920195],[-0.5233002,0.6414249,-0.1616694,0.3511634,-0.5221391,-0.5742176,-0.2117926,-0.9496145,0.5477962,0.6606445,-0.42316,-0.2660939,0.0790385,-0.8220775,0.7409678,0.4505412],[-0.2306818,0.4061999,-0.5781045,-0.7747886,0.3186161]],[[0.5780189,-0.6016819,-0.8245862,-0.1913084,0.9235783,-0.9871182,-0.3626865,-0.4617063,-0.9009426,-0.1051215,0.8847179,0.2045592,0.8966148,0.369812,0.6351221,-0.9296815],[0.4627669,-0.4872929,0.5863426,0.395178,0.8061705,0.3099684,-0.07435405,-0.8801703,0.4900758,0.5595891,-0.438301,-0.02655351,0.5637994,-0.8158083,-0.4138545,0.569104],[-0.7800486,-0.2426957,-0.537291,0.246061,-0.2602357,0.4025511,-0.3278078,0.4550996,-0.9001806,-0.04232967,-0.1060635,-0.696811,0.8994286,0.006585717,0.6729119,-0.4920195],[-0.2171773,0.6414249,0.4453499,0.3511634,-0.5221391,-0.5742176,-0.2117926,0.7369635,0.5477962,0.6606445,-0.42316,-0.2660939,0.0790385,-0.8220775,0.7409678,0.4505412],[-0.2306818,0.4061999,-0.5781045,-0.7747886,0.3186161]],[[0.5780189,-0.5886836,0.6647048,-0.1913084,-0.1295775,-0.9871182,-0.3626865,-0.4617063,-0.9009426,-0.1051215,0.8847179,0.4120283,0.8966148,0.369812,0.6351221,-0.9296815],[0.4627669,-0.4872929,0.5863426,0.395178,0.1846446,0.3099684,-0.07435405,-0.8801703,0.4900758,0.5595891,-0.438301,-0.02655351,0.5637994,0.1836408,-0.4138545,0.1802763],[-0.7800486,-0.2426957,-0.537291,0.246061,-0.2602357,0.4025511,-0.3278078,0.4944098,-0.9001806,-0.04232967,-0.1060635,-0.696811,0.09547484,0.01521623,0.6729119,-0.04017317],[-0.2171773,0.6414249,0.4453499,-0.1324517,-0.5221391,-0.5742176,-0.2117926,0.7369635,0.5477962,0.6606445,-0.42316,0.03918183,-0.4805504,-0.8220775,0.7409678,0.4505412],[-0.2306818,0.4061999,-0.5781045,-0.7747886,0.3186161]],[[-0.2423347,-0.5886836,0.6647048,-0.1913084,0.9235783,0.3366937,-0.3626865,-0.4617063,-0.9009426,-0.1051215,0.8847179,0.7868752,0.8966148,0.369812,0.6351221,-0.9296815],[-0.627877,-0.4872929,0.5863426,0.395178,0.8061705,0.3099684,-0.07435405,-0.8801703,0.4900758,0.5595891,-0.438301,-0.02655351,0.5637994,0.1795501,-0.4138545,0.1802763],[-0.7800486,-0.2426957,-0.537291,0.246061,-0.2602357,0.4025511,-0.3278078,0.4550996,0.9027791,-0.04232967,-0.1060635,-0.696811,0.8994286,0.006585717,0.6729119,-0.4920195],[-0.2171773,0.6414249,-0.1616694,0.3511634,-0.5221391,-0.5742176,-0.2117926,-0.9496145,0.5477962,0.6606445,-0.42316,-0.2660939,0.0790385,-0.8220775,0.7409678,0.4505412],[-0.2306818,0.4061999,-0.5781045,-0.7747886,0.3186161]],[[0.5780189,-0.5886836,0.6647048,-0.1913084,0.9235783,-0.6764622,-0.3626865,-0.4617063,-0.9009426,-0.1051215,0.8847179,0.2045592,0.8966148,0.369812,0.4433582,-0.9296815],[0.4627669,-0.4872929,0.5863426,0.395178,0.8061705,0.3099684,-0.07435405,-0.8801703,0.4900758,0.5595891,-0.438301,-0.02655351,0.5637994,-0.8158083,-0.4138545,0.1802763],[-0.7800486,-0.2426957,-0.537291,0.246061,-0.2602357,0.4025511,-0.3278078,0.4550996,-0.9001806,-0.04232967,-0.4365398,-0.696811,0.8994286,0.006585717,0.6729119,-0.4920195],[-0.2171773,0.6414249,0.4453499,0.3511634,-0.5221391,-0.5742176,-0.2117926,0.7369635,0.5477962,0.6606445,-0.42316,-0.2660939,0.0790385,-0.8220775,0.7409678,0.4505412],[-0.2306818,0.4061999,-0.5781045,-0.7747886,0.3186161]],[[-0.2264777,-0.5886836,0.6647048,-0.1913084,0.9235783,-0.9871182,-0.3626865,-0.4617063,-0.6099436,-0.1051215,0.8847179,0.2045592,0.8966148,0.369812,0.1026617,-0.9296815],[-0.3348469,-0.4872929,0.5863426,0.395178,0.2226683,0.3099684,-0.1445745,-0.8801703,0.4900758,0.2556023,-0.438301,-0.02655351,0.5637994,0.9913788,-0.4138545,-0.04152668],[-0.7800486,-0.2426957,0.2141861,0.246061,-0.2602357,0.4025511,-0.4068624,0.4550996,-0.9001806,-0.04232967,0.3634338,-0.696811,0.8994286,0.006585717,0.6729119,-0.650434],[-0.5660698,-0.98177,0.4453499,0.3511634,-0.5221391,-0.5742176,0.5964456,0.7369635,-0.4508892,0.6606445,-0.42316,0.02592552,0.8140414,-0.8220775,-0.00790298,0.4505412],[-0.2306818,-0.5753615,-0.9636509,-0.6430323,0.141683]],[[-0.2423347,-0.5886836,0.6647048,-0.1913084,0.9235783,0.3366937,-0.3626865,-0.4617063,-0.9009426,-0.1051215,0.8847179,0.7868752,0.8966148,0.369812,0.6351221,-0.9296815],[-0.627877,-0.4872929,0.5863426,0.395178,0.8061705,0.3099684,-0.07435405,-0.8801703,0.4900758,0.5595891,-0.438301,-0.02655351,0.5637994,0.1795501,-0.4138545,0.1802763],[-0.7800486,-0.2426957,-0.537291,0.246061,-0.2602357,0.4025511,-0.3278078,0.4550996,0.9027791,-0.04232967,-0.1060635,-0.696811,0.8994286,0.006585717,0.5642841,-0.4920195],[-0.2171773,0.6414249,-0.1616694,0.3511634,-0.5221391,-0.5742176,-0.2117926,-0.9496145,0.5477962,0.6606445,-0.42316,-0.2660939,0.0790385,-0.8220775,0.7409678,0.4505412],[-0.2306818,0.4061999,-0.5781045,-0.7747886,0.3186161]],[[-0.2423347,-0.5886836,0.6647048,-0.1913084,0.9235783,0.3366937,-0.3626865,-0.4617063,-0.9009426,-0.1051215,0.8847179,0.7868752,0.8966148,0.369812,0.6351221,-0.9296815],[-0.627877,-0.4872929,0.5863426,0.395178,0.8061705,0.3099684,-0.07435405,-0.8801703,0.4900758,0.5595891,-0.438301,-0.02655351,0.5637994,0.1795501,-0.4138545,0.1802763],[-0.7800486,-0.2426957,-0.537291,0.246061,0.3091521,0.4025511,-0.3278078,0.4550996,0.9027791,-0.04232967,-0.1060635,-0.696811,0.8994286,0.006585717,0.6729119,-0.4920195],[-0.2171773,0.6414249,-0.1616694,0.3511634,-0.5221391,-0.9715238,-0.2117926,-0.9496145,0.5477962,0.6606445,-0.42316,-0.2660939,0.0790385,-0.8220775,0.7409678,0.4505412],[-0.2306818,0.4061999,-0.5781045,-0.7747886,0.3186161]],[[-0.2423347,-0.5886836,0.6647048,-0.1913084,0.9235783,0.3366937,-0.3626865,-0.4617063,-0.9009426,-0.1051215,0.8847179,0.7868752,0.8966148,0.369812,0.6351221,-0.9296815],[-0.627877,-0.4872929,0.5863426,0.395178,0.8061705,0.3099684,-0.07435405,-0.8801703,0.4900758,0.5595891,-0.438301,-0.02655351,0.5637994,0.1795501,-0.4138545,0.1802763],[-0.9378669,-0.2426957,-0.537291,0.246061,-0.2602357,0.4025511,-0.3278078,0.4550996,0.9027791,-0.04232967,-0.1060635,-0.696811,0.8994286,0.006585717,0.6729119,-0.4920195],[0.01371682,0.6414249,-0.1616694,0.3511634,-0.5221391,-0.5742176,-0.2117926,-0.9496145,0.5477962,0.6606445,-0.42316,-0.2660939,0.0790385,-0.8220775,0.7409678,0.4505412],[-0.2306818,0.4061999,-0.5781045,-0.7747886,0.3186161]],[[0.5780189,-0.5886836,0.6647048,-0.1913084,0.9235783,-0.6764622,-0.3626865,-0.4617063,-0.9009426,-0.1051215,0.8847179,0.2045592,0.8966148,0.369812,0.4433582,-0.9296815],[0.4627669,-0.4872929,0.5863426,0.395178,0.8061705,0.3099684,-0.536453,-0.8801703,0.4900758,0.5595891,-0.438301,-0.02655351,0.5637994,-0.8158083,-0.4138545,0.1802763],[-0.7800486,-0.2426957,-0.537291,0.246061,-0.2602357,0.4025511,-0.3278078,0.4550996,-0.9001806,-0.04232967,-0.1060635,-0.696811,0.8994286,0.006585717,0.6729119,-0.4920195],[-0.2171773,0.6414249,0.4453499,0.3511634,-0.5221391,-0.5742176,-0.2117926,0.7369635,0.5477962,0.6606445,-0.42316,-0.2660939,0.0790385,-0.2799891,0.7409678,0.4505412],[-0.2306818,0.4061999,-0.5781045,-0.7747886,0.3186161]],[[0.5780189,-0.5886836,0.6647048,-0.1913084,0.9235783,-0.9871182,-0.3626865,-0.4617063,-0.6099436,-0.1051215,0.8847179,0.2045592,0.8966148,0.369812,0.1026617,-0.9296815],[-0.3348469,-0.4872929,0.5863426,0.395178,0.2226683,0.3099684,-0.1445745,-0.8801703,0.4900758,0.2556023,-0.438301,-0.02655351,0.5637994,-0.8158083,-0.4138545,-0.04152668],[-0.7800486,-0.2426957,0.2141861,0.246061,-0.2602357,0.4025511,-0.3278078,0.4550996,-0.9001806,-0.04232967,0.3634338,-0.696811,0.8994286,0.006585717,0.6729119,-0.650434],[-0.5660698,-0.98177,0.4453499,0.3511634,-0.5221391,-0.5742176,0.5964456,0.7369635,-0.4508892,0.6606445,-0.42316,0.4320383,0.8140414,-0.8220775,-0.00790298,0.4505412],[-0.2306818,0.0277859,-0.5781045,-0.6430323,0.141683]],[[-0.2423347,-0.5886836,0.6647048,-0.1913084,0.9235783,0.3366937,-0.3626865,-0.4617063,-0.9009426,-0.1051215,0.8847179,0.7868752,0.8966148,0.369812,0.6351221,-0.9296815],[-0.627877,-0.4872929,0.5863426,0.395178,0.8061705,0.3099684,-0.07435405,-0.8801703,0.4900758,0.5595891,-0.438301,-0.02655351,0.5637994,0.1795501,-0.4138545,0.7874706],[-0.7800486,-0.2426957,-0.537291,0.246061,-0.2602357,0.4025511,-0.3278078,0.4550996,0.9027791,-0.04232967,-0.1060635,-0.696811,0.8994286,0.006585717,0.6729119,-0.4920195],[-0.2171773,0.6414249,-0.1616694,0.3511634,-0.5221391,-0.5742176,-0.2117926,-0.9496145,0.5477962,0.6606445,-0.42316,-0.2660939,0.0790385,-0.8220775,0.7409678,0.4505412],[-0.2306818,0.4061999,-0.5781045,-0.7747886,0.3186161]],[[-0.2423347,-0.5886836,0.6647048,-0.1913084,0.9235783,0.3366937,-0.3626865,-0.4617063,-0.9009426,-0.1051215,0.8847179,0.7868752,0.8966148,