[[[-0.3586711,0.2067262,-0.4206487,-0.245113,0.605763,0.2410358,-0.7772324,-0.1078306,-0.2326583,-0.2685839,-0.3349668,0.1948301,-0.9799192,0.5675137,-0.9443874,0.3403198],[-0.7086775,-0.04256237,0.9954314,-0.4328014,0.7335136,0.7497461,0.04425108,0.9384475,-0.772038,-0.2827517,-0.3373855,-0.9007406,0.3056097,-0.496003,0.6519637,0.9587865],[-0.1847101,-0.8951395,-0.8011005]],[[-0.3586711,0.2067262,-0.4206487,-0.245113,0.605763,0.2410358,-0.7772324,-0.1078306,-0.2326583,-0.2685839,-0.3349668,0.1948301,-0.9799192,0.5675137,-0.9443874,0.3403198],[-0.7086775,-0.04256237,0.9954314,-0.4328014,0.7335136,0.7497461,0.04425108,0.9384475,-0.772038,-0.2827517,-0.3373855,-0.9007406,0.3056097,-0.496003,0.6519637,0.9587865],[-0.1847101,-0.8951395,-0.8011005]],[[-0.3586711,0.2067262,-0.4206487,-0.245113,0.605763,0.2410358,-0.7772324,-0.1078306,-0.2326583,-0.2685839,-0.3349668,0.1948301,-0.9799192,0.5675137,-0.9443874,0.3403198],[-0.7086775,-0.04256237,0.9954314,-0.4328014,0.7335136,0.7497461,0.04425108,0.9384475,-0.772038,-0.2827517,-0.3373855,-0.9007406,0.3056097,-0.496003,0.6519637,0.9587865],[-0.1847101,-0.8951395,-0.8011005]],[[-0.3586711,0.2067262,-0.4206487,-0.245113,0.605763,0.2410358,-0.7772324,-0.1078306,-0.2326583,-0.2685839,-0.3349668,0.1948301,-0.9799192,0.5675137,-0.9443874,0.3403198],[-0.7086775,-0.04256237,0.9954314,-0.4328014,0.7335136,0.7497461,0.04425108,0.9384475,-0.772038,-0.2827517,-0.3373855,-0.9007406,0.3056097,-0.496003,0.6519637,0.9587865],[-0.1847101,-0.8951395,-0.8011005]],[[-0.3586711,0.2067262,-0.4206487,-0.245113,0.605763,0.2410358,-0.7772324,-0.1078306,-0.2326583,-0.2685839,-0.3349668,0.1948301,-0.9799192,0.5675137,-0.9443874,0.3403198],[-0.7086775,-0.04256237,0.9954314,-0.4328014,0.7335136,0.7497461,0.04425108,0.9384475,-0.772038,-0.2827517,-0.3373855,-0.9007406,0.3056097,-0.496003,0.6519637,0.9587865],[-0.1847101,-0.8951395,-0.8011005]],[[-0.3586711,0.2067262,-0.4206487,-0.245113,0.605763,0.2410358,-0.7772324,-0.1078306,-0.2326583,-0.2685839,-0.3349668,0.1948301,-0.9799192,0.5675137,-0.9443874,0.3403198],[-0.7086775,-0.04256237,0.9954314,-0.4328014,0.7335136,0.7497461,0.04425108,0.9384475,-0.772038,-0.2827517,-0.3373855,-0.9007406,0.3056097,-0.496003,0.6519637,0.9587865],[-0.1847101,-0.8951395,-0.8011005]],[[-0.3586711,0.2067262,-0.4206487,-0.245113,0.605763,0.2410358,-0.7772324,-0.1078306,-0.2326583,-0.2685839,-0.3349668,0.1948301,-0.9799192,0.5675137,-0.9443874,0.3403198],[-0.7086775,-0.04256237,0.9954314,-0.4328014,0.7335136,0.7497461,0.04425108,0.9384475,-0.772038,-0.2827517,-0.3373855,-0.9007406,0.3056097,-0.496003,0.6519637,0.9587865],[-0.1847101,-0.8951395,-0.8011005]],[[-0.3586711,0.2067262,-0.4206487,-0.245113,0.605763,0.2410358,-0.7772324,-0.1078306,-0.2326583,-0.2685839,-0.3349668,0.1948301,-0.9799192,0.5675137,-0.9443874,0.3403198],[-0.7086775,-0.04256237,0.9954314,-0.4328014,0.7335136,0.7497461,0.04425108,0.9384475,-0.772038,-0.2827517,-0.3373855,-0.9007406,0.3056097,-0.496003,0.6519637,0.9587865],[-0.1847101,-0.8951395,-0.8011005]],[[-0.3586711,0.2067262,-0.4206487,-0.245113,0.605763,0.2410358,-0.7772324,-0.1078306,-0.2326583,-0.2685839,-0.3349668,0.1948301,-0.9799192,0.5675137,-0.9443874,0.3403198],[-0.7086775,-0.04256237,0.9954314,-0.4328014,0.7335136,0.7497461,0.04425108,0.9384475,-0.772038,-0.2827517,-0.3373855,-0.9007406,0.3056097,-0.496003,0.6519637,0.9587865],[-0.1847101,-0.8951395,-0.8011005]],[[-0.3586711,0.2067262,-0.4206487,-0.245113,0.605763,0.2410358,-0.7772324,-0.1078306,-0.2326583,-0.2685839,-0.3349668,0.1948301,-0.9799192,0.5675137,-0.9443874,0.3403198],[-0.7086775,-0.04256237,0.9954314,-0.4328014,0.7335136,0.7497461,0.04425108,0.9384475,-0.772038,-0.2827517,-0.3373855,-0.9007406,0.3056097,-0.496003,0.6519637,0.9587865],[-0.1847101,-0.8951395,-0.8011005]],[[-0.3586711,0.2067262,-0.4206487,-0.245113,0.605763,0.2410358,-0.7772324,-0.1078306,-0.2326583,-0.2685839,-0.3349668,0.1948301,-0.9799192,0.5675137,-0.9443874,0.3403198],[-0.7086775,-0.04256237,0.9954314,-0.4328014,0.7335136,0.7497461,0.04425108,0.9384475,-0.772038,-0.2827517,-0.3373855,-0.9007406,0.3056097,-0.496003,0.6519637,0.9587865],[-0.1847101,-0.8951395,-0.8011005]],[[-0.3586711,0.2067262,-0.4206487,-0.245113,0.605763,0.2410358,-0.7772324,-0.1078306,-0.2326583,-0.2685839,-0.3349668,0.1948301,-0.9799192,0.5675137,-0.9443874,0.3403198],[-0.7086775,-0.04256237,0.9954314,-0.4328014,0.7335136,0.7497461,0.04425108,0.9384475,-0.772038,-0.2827517,-0.3373855,-0.9007406,0.3056097,-0.496003,0.6519637,0.9587865],[-0.1847101,-0.8951395,-0.8011005]],[[-0.3586711,0.2067262,-0.4206487,-0.245113,0.605763,0.2410358,-0.7772324,-0.1078306,-0.2326583,-0.2685839,-0.3349668,0.1948301,-0.9799192,0.5675137,-0.9443874,0.3403198],[-0.7086775,-0.04256237,0.9954314,-0.4328014,0.7335136,0.7497461,0.04425108,0.9384475,-0.772038,-0.2827517,-0.3373855,-0.9007406,0.3056097,-0.496003,0.6519637,0.9587865],[-0.1847101,-0.8951395,-0.8011005]],[[-0.3586711,0.2067262,-0.4206487,-0.245113,0.605763,0.2410358,-0.7772324,-0.1078306,-0.2326583,-0.2685839,-0.3349668,0.1948301,-0.9799192,0.5675137,-0.9443874,0.3403198],[-0.7086775,-0.04256237,0.9954314,-0.4328014,0.7335136,0.7497461,0.04425108,0.9384475,-0.772038,-0.2827517,-0.3373855,-0.9007406,0.3056097,-0.496003,0.6519637,0.9587865],[-0.1847101,-0.8951395,-0.8011005]],[[-0.3586711,0.2067262,-0.4206487,-0.245113,0.605763,0.2410358,-0.7772324,-0.1078306,-0.2326583,-0.2685839,-0.3349668,0.1948301,-0.9799192,0.5675137,-0.9443874,0.3403198],[-0.7086775,-0.04256237,0.9954314,-0.4328014,0.7335136,0.7497461,0.04425108,0.9384475,-0.772038,-0.2827517,-0.3373855,-0.9007406,0.3056097,-0.496003,0.6519637,0.9587865],[-0.1847101,-0.8951395,-0.8011005]],[[-0.3586711,0.2067262,-0.4206487,-0.245113,0.605763,0.2410358,-0.7772324,-0.1078306,-0.2326583,-0.2685839,-0.3349668,0.1948301,-0.9799192,0.5675137,-0.9443874,0.3403198],[-0.7086775,-0.04256237,0.9954314,-0.4328014,0.7335136,0.7497461,0.04425108,0.9384475,-0.772038,-0.2827517,-0.3373855,-0.9007406,0.3056097,-0.496003,0.6519637,0.9587865],[-0.1847101,-0.8951395,-0.8011005]],[[-0.3586711,0.2067262,-0.4206487,-0.245113,0.605763,0.2410358,-0.7772324,-0.1078306,-0.2326583,-0.2685839,-0.3349668,0.1948301,-0.9799192,0.5675137,-0.9443874,0.3403198],[-0.7086775,-0.04256237,-0.3518642,-0.4328014,0.7335136,0.7497461,0.04425108,0.9384475,-0.772038,-0.2827517,-0.3373855,-0.9007406,0.3056097,-0.496003,0.6519637,0.9587865],[-0.1847101,-0.8951395,-0.8011005]],[[-0.3586711,0.2067262,-0.4206487,-0.245113,0.605763,0.2410358,-0.7772324,-0.1078306,-0.2326583,-0.2685839,-0.3349668,0.1948301,-0.9799192,0.5675137,-0.9443874,0.3403198],[-0.7086775,-0.04256237,0.9954314,-0.4328014,0.7335136,0.7497461,0.04425108,0.9384475,-0.772038,-0.2827517,-0.3373855,-0.9007406,0.3056097,-0.496003,0.6519637,0.9587865],[-0.1847101,-0.8951395,-0.8011005]],[[-0.3586711,0.2067262,-0.4206487,-0.245113,0.605763,0.2410358,-0.7772324,-0.1078306,-0.2326583,-0.2685839,-0.3349668,0.1948301,-0.9799192,0.5675137,-0.9443874,0.3403198],[-0.7086775,-0.04256237,0.9954314,-0.4328014,0.7335136,0.7497461,0.04425108,0.9384475,-0.772038,-0.2827517,-0.3373855,-0.9007406,0.3056097,-0.496003,0.6519637,0.9587865],[-0.1847101,-0.8951395,-0.8011005]],[[-0.3586711,0.2067262,-0.4206487,-0.245113,0.605763,0.2410358,-0.7772324,-0.1078306,-0.2326583,-0.2685839,-0.3349668,0.1948301,-0.9799192,0.5675137,-0.9443874,0.3403198],[-0.9519579,-0.04256237,0.9954314,-0.4328014,0.7335136,0.7497461,0.04425108,0.9384475,-0.772038,-0.2827517,-0.3373855,-0.9007406,0.3056097,-0.496003,0.6519637,0.9587865],[-0.1847101,-0.8951395,-0.8011005]],[[-0.3586711,0.2067262,-0.4206487,-0.245113,0.605763,0.2410358,-0.7772324,-0.1078306,-0.2326583,-0.2685839,-0.3349668,0.1948301,-0.9799192,0.5675137,-0.9443874,0.3403198],[-0.7086775,-0.04256237,0.9954314,-0.4328014,0.7335136,0.7497461,0.04425108,0.9384475,-0.772038,-0.2827517,-0.3373855,-0.9007406,0.3056097,-0.496003,0.6519637,0.9587865],[-0.1847101,-0.8951395,-0.8011005]],[[-0.3586711,0.2067262,-0.4206487,-0.245113,0.605763,0.2410358,-0.7772324,-0.1078306,-0.2326583,-0.2685839,-0.3349668,0.1948301,-0.9799192,0.5675137,-0.9443874,0.3403198],[-0.7086775,-0.04256237,0.9954314,-0.4328014,0.7335136,0.7497461,0.04425108,0.9384475,-0.772038,-0.2827517,-0.3373855,-0.9007406,0.3056097,-0.496003,0.6519637,0.9587865],[-0.1847101,-0.8951395,-0.8011005]],[[-0.3586711,0.2067262,-0.4206487,-0.245113,0.605763,0.2410358,-0.7772324,-0.1078306,-0.2326583,-0.2685839,-0.3349668,0.1948301,-0.9799192,0.5675137,-0.9443874,0.3403198],[-0.7086775,-0.04256237,0.9954314,-0.4328014,0.7335136,0.7497461,0.04425108,0.9384475,-0.772038,-0.2827517,-0.3373855,-0.9007406,0.3056097,-0.496003,0.6519637,0.9587865],[-0.1847101,-0.8951395,-0.8011005]],[[-0.3586711,0.2067262,-0.4206487,-0.245113,0.605763,0.2410358,-0.7772324,-0.1078306,-0.2326583,-0.2685839,-0.3349668,0.1948301,-0.9799192,0.5675137,-0.9443874,0.3403198],[-0.7086775,-0.04256237,0.9954314,-0.4328014,0.7335136,0.7497461,0.04425108,0.9384475,-0.772038,-0.2827517,-0.3373855,-0.9007406,0.3056097,-0.496003,0.6519637,0.9587865],[-0.1847101,-0.8951395,-0.8011005]],[[-0.3586711,0.2067262,-0.4206487,-0.245113,0.605763,0.2410358,-0.7772324,-0.1078306,-0.2326583,-0.2685839,-0.3349668,0.1948301,-0.9799192,0.5675137,-0.9443874,0.3403198],[-0.7086775,-0.04256237,0.9954314,-0.4328014,0.7335136,0.7497461,0.04425108,0.9384475,-0.772038,-0.2827517,-0.3373855,-0.9007406,0.3056097,-0.496003,0.6519637,0.9587865],[-0.1847101,-0.8951395,-0.8011005]],[[-0.3586711,0.2067262,-0.4206487,-0.245113,0.605763,0.2410358,-0.7772324,-0.1078306,-0.2326583,-0.2685839,-0.3349668,0.1948301,-0.9799192,0.5675137,-0.9443874,0.3403198],[-0.7086775,-0.04256237,0.9954314,-0.4328014,0.7335136,0.7497461,0.04425108,0.9384475,-0.772038,-0.2827517,-0.3373855,-0.9007406,0.3056097,-0.496003,0.6519637,0.9587865],[-0.1847101,-0.8951395,-0.8011005]],[[-0.3586711,0.2067262,-0.4206487,-0.245113,0.605763,0.2410358,-0.7772324,-0.1078306,-0.2326583,-0.2685839,-0.3349668,0.1948301,-0.9799192,0.5675137,-0.9443874,0.3403198],[-0.7086775,-0.04256237,0.9954314,-0.4328014,0.7335136,0.7497461,0.04425108,0.9384475,-0.772038,-0.2827517,-0.3373855,-0.9007406,0.3056097,-0.496003,0.6519637,0.9587865],[-0.1847101,-0.8951395,-0.8011005]],[[-0.3586711,0.2067262,-0.4206487,-0.245113,0.605763,0.2410358,-0.7772324,-0.1078306,-0.2326583,-0.2685839,-0.3349668,0.1948301,-0.9799192,0.5675137,-0.9443874,0.3403198],[-0.7086775,-0.04256237,0.9954314,-0.4328014,0.7335136,0.7497461,0.04425108,0.9384475,-0.772038,-0.2827517,-0.3373855,-0.9007406,0.3056097,-0.496003,0.6519637,0.9587865],[-0.1847101,-0.8951395,-0.8011005]],[[-0.3586711,0.2067262,-0.4206487,-0.245113,0.605763,0.2410358,-0.7772324,-0.1078306,-0.2326583,-0.2685839,-0.3349668,0.1948301,-0.9799192,0.5675137,-0.9443874,0.3403198],[-0.7086775,-0.04256237,0.9954314,-0.4328014,0.7335136,0.7497461,0.04425108,0.9384475,-0.772038,-0.2827517,-0.3373855,-0.9007406,0.3056097,-0.496003,0.6519637,0.9587865],[-0.1847101,-0.8951395,-0.8011005]],[[-0.3586711,0.2067262,-0.4206487,-0.245113,0.605763,0.2410358,-0.7772324,-0.1078306,-0.2326583,-0.2685839,-0.3349668,0.1948301,-0.9799192,0.5675137,-0.9443874,0.3403198],[-0.7086775,-0.04256237,0.9954314,-0.4328014,0.7335136,0.7497461,0.04425108,0.9384475,-0.772038,-0.2827517,-0.3373855,-0.9007406,0.3056097,-0.496003,0.6519637,0.9587865],[-0.5834124,-0.8951395,-0.8011005]],[[-0.3586711,0.2067262,-0.4206487,-0.245113,0.605763,0.2410358,-0.7772324,-0.1078306,-0.2326583,-0.2685839,-0.3349668,0.1948301,-0.9799192,0.5675137,-0.9443874,0.3403198],[-0.7086775,-0.04256237,0.9954314,-0.4328014,0.7335136,0.7497461,0.04425108,0.9384475,-0.772038,-0.2827517,-0.3373855,-0.9007406,0.3056097,-0.496003,0.6519637,0.9587865],[-0.1847101,-0.8951395,-0.8011005]],[[-0.3586711,0.2067262,-0.4206487,-0.245113,0.605763,0.2410358,-0.7772324,-0.1078306,-0.2326583,-0.2685839,-0.3349668,0.1948301,-0.9799192,0.5675137,-0.9443874,0.3403198],[-0.7086775,-0.04256237,0.9954314,-0.4328014,0.7335136,0.7497461,0.04425108,0.9384475,-0.772038,-0.2827517,-0.3373855,-0.9007406,0.3056097,-0.496003,0.6519637,0.9587865],[-0.1847101,-0.8951395,-0.8011005]],[[-0.3586711,0.2067262,-0.4206487,-0.245113,0.605763,0.2410358,-0.7772324,-0.1078306,-0.2326583,-0.2685839,-0.3349668,0.1948301,-0.9799192,0.5675137,-0.9443874,0.3403198],[-0.7086775,-0.04256237,0.9954314,-0.4328014,0.7335136,0.7497461,0.04425108,0.9384475,-0.772038,-0.2827517,-0.3373855,-0.9007406,0.3056097,-0.496003,0.6519637,0.9587865],[-0.1847101,-0.8951395,-0.8011005]],[[-0.3586711,0.2067262,-0.4206487,-0.245113,0.605763,0.2410358,-0.7772324,-0.1078306,-0.2326583,-0.2685839,-0.3349668,0.1948301,-0.9799192,0.5675137,-0.9443874,0.3403198],[-0.7086775,-0.04256237,0.9954314,-0.4328014,0.7335136,-0.6107192,0.04425108,0.9384475,-0.772038,-0.2827517,-0.3373855,-0.9007406,0.3056097,-0.496003,0.6519637,0.9587865],[-0.1847101,-0.8951395,-0.8011005]],[[-0.3586711,0.2067262,-0.4206487,-0.9151871,0.605763,0.2410358,-0.7772324,-0.1078306,-0.2326583,-0.2685839,-0.3349668,0.1948301,-0.9799192,0.5675137,-0.9443874,0.3403198],[-0.7086775,-0.04256237,0.9954314,-0.4328014,0.7335136,0.7497461,0.04425108,0.9384475,-0.772038,-0.2827517,-0.3373855,-0.9007406,0.3056097,-0.496003,0.6519637,0.9587865],[-0.1847101,-0.8951395,-0.8011005]],[[-0.3586711,0.2067262,-0.4206487,-0.245113,0.605763,0.2410358,-0.7772324,-0.1078306,-0.2326583,-0.2685839,-0.3349668,0.1948301,-0.9799192,0.5675137,-0.9443874,0.3403198],[-0.7086775,-0.04256237,0.9954314,-0.4328014,0.7335136,0.7497461,0.04425108,0.9384475,-0.772038,-0.2827517,-0.3373855,-0.9007406,0.3056097,-0.496003,0.6519637,0.9587865],[-0.1847101,-0.8951395,-0.8011005]],[[-0.3586711,0.2067262,-0.4206487,-0.245113,0.605763,0.2410358,-0.7772324,-0.1078306,-0.2326583,-0.2685839,-0.3349668,0.1948301,-0.9799192,0.5675137,-0.9443874,0.3403198],[-0.7086775,-0.04256237,0.9954314,-0.4328014,0.7335136,0.7497461,0.04425108,0.9384475,-0.772038,-0.2827517,-0.3373855,-0.9007406,0.3056097,-0.496003,0.6519637,0.9587865],[-0.1847101,-0.8951395,-0.8011005]],[[-0.3586711,0.2067262,-0.4206487,-0.245113,0.605763,0.2410358,-0.7772324,-0.1078306,-0.2326583,-0.2685839,-0.3349668,0.1948301,-0.9799192,0.5675137,-0.9443874,0.3403198],[-0.7086775,-0.04256237,0.9954314,-0.4328014,0.7335136,0.7497461,0.04425108,0.9384475,-0.772038,-0.2827517,-0.3373855,-0.9007406,0.3056097,-0.496003,0.6519637,0.9587865],[-0.1847101,-0.8951395,-0.8011005]],[[-0.3586711,0.2067262,-0.4206487,-0.245113,0.605763,0.2410358,-0.7772324,-0.1078306,-0.2326583,-0.2685839,-0.3349668,0.1948301,-0.9799192,0.5675137,-0.9443874,0.3403198],[-0.7086775,-0.04256237,0.9954314,-0.4328014,0.7335136,0.7497461,0.04425108,0.9384475,-0.772038,-0.2827517,-0.3373855,-0.9007406,0.3056097,-0.496003,0.6519637,0.9587865],[-0.1847101,-0.8951395,-0.8011005]],[[-0.3586711,0.2067262,-0.4206487,-0.245113,0.605763,0.2410358,-0.7772324,-0.1078306,-0.2326583,-0.2685839,-0.3349668,0.1948301,-0.9799192,0.5675137,-0.9443874,0.3403198],[-0.7086775,-0.04256237,0.9954314,-0.4328014,0.7335136,0.7497461,0.04425108,0.9384475,-0.772038,-0.2827517,-0.3373855,-0.9007406,0.3056097,-0.496003,0.6519637,0.9587865],[-0.1847101,-0.8951395,-0.8011005]],[[-0.3586711,0.2067262,-0.4206487,-0.245113,0.605763,0.2410358,-0.7772324,-0.1078306,-0.2326583,-0.2685839,-0.3349668,0.1948301,-0.9799192,0.5675137,-0.9443874,0.3403198],[-0.7086775,-0.04256237,-0.3518642,-0.4328014,0.7335136,0.7497461,0.04425108,0.9384475,-0.772038,-0.2827517,-0.3373855,-0.9007406,0.3056097,-0.496003,0.6519637,0.9587865],[-0.1847101,-0.8951395,-0.8011005]],[[-0.3586711,0.2067262,-0.4206487,-0.245113,0.605763,0.2410358,-0.7772324,-0.1078306,-0.2326583,-0.2685839,-0.3349668,-0.8340089,-0.9799192,0.5675137,-0.9443874,0.3403198],[-0.7086775,-0.04256237,0.9954314,-0.4328014,0.7335136,0.7497461,0.04425108,0.9384475,-0.772038,-0.2827517,-0.3373855,-0.9007406,0.3056097,-0.496003,0.6519637,0.9587865],[-0.1847101,-0.8951395,-0.8011005]],[[-0.3586711,0.2067262,-0.4206487,-0.245113,0.605763,0.2410358,-0.7772324,-0.1078306,-0.2326583,-0.2685839,-0.3349668,0.1948301,-0.9799192,0.5675137,-0.9443874,0.3403198],[-0.7086775,-0.04256237,0.9954314,-0.4328014,0.7335136,0.7497461,0.04425108,0.9384475,-0.772038,-0.2827517,-0.3373855,-0.9007406,0.3056097,-0.496003,0.6519637,0.9587865],[-0.1847101,-0.8951395,-0.8011005]],[[-0.3586711,0.2067262,-0.4206487,-0.245113,0.605763,0.2410358,-0.7772324,-0.1078306,-0.2326583,-0.2685839,-0.3349668,0.1948301,-0.9799192,0.5675137,-0.9443874,0.3403198],[-0.7086775,-0.04256237,0.9954314,-0.4328014,0.7335136,0.7497461,0.04425108,0.9384475,-0.772038,-0.2827517,-0.3373855,-0.9007406,0.3056097,-0.496003,0.6519637,0.9587865],[-0.1847101,-0.8951395,-0.8011005]],[[-0.3586711,0.2067262,-0.4206487,-0.245113,0.605763,0.2410358,-0.7772324,-0.1078306,-0.2326583,-0.2685839,-0.3349668,0.1948301,-0.9799192,0.5675137,-0.9443874,0.3403198],[-0.7086775,-0.04256237,0.9954314,-0.4328014,0.7335136,0.7497461,0.04425108,0.9384475,-0.772038,-0.2827517,-0.3373855,-0.9007406,0.3056097,-0.496003,0.6519637,0.9587865],[-0.1847101,-0.8951395,-0.8011005]],[[-0.3586711,0.2067262,-0.4206487,-0.245113,0.605763,0.2410358,-0.7772324,-0.1078306,-0.2326583,-0.2685839,-0.3349668,0.1948301,-0.9799192,0.5675137,-0.9443874,0.3403198],[-0.7086775,-0.04256237,0.9954314,-0.4328014,0.7335136,0.7497461,0.04425108,0.9384475,-0.772038,-0.2827517,-0.3373855,-0.9007406,0.3056097,-0.496003,0.6519637,0.9587865],[-0.1847101,-0.8951395,-0.8011005]],[[-0.3586711,0.2067262,-0.4206487,-0.245113,0.605763,0.2410358,-0.7772324,-0.1078306,-0.2326583,-0.2685839,-0.3349668,0.1948301,-0.9799192,0.5675137,-0.9443874,0.3403198],[-0.7086775,-0.04256237,0.9954314,-0.4328014,0.7335136,0.7497461,0.04425108,0.9384475,-0.772038,-0.2827517,-0.3373855,-0.9007406,0.3056097,-0.496003,0.6519637,0.9587865],[-0.1847101,-0.8951395,-0.8011005]],[[-0.3586711,0.2067262,-0.4206487,-0.245113,0.605763,0.2410358,-0.7772324,-0.1078306,-0.2326583,-0.2685839,-0.3349668,0.1948301,-0.9799192,0.5675137,-0.9443874,0.3403198],[-0.7086775,-0.04256237,0.9954314,-0.4328014,0.7335136,0.7497461,0.04425108,0.9384475,-0.772038,-0.2827517,-0.3373855,-0.9007406,0.3056097,-0.496003,0.6519637,0.9587865],[-0.1847101,-0.8951395,-0.8011005]],[[-0.3586711,0.2067262,-0.4206487,-0.245113,0.605763,0.2410358,-0.7772324,-0.1078306,-0.2326583,-0.2685839,-0.3349668,0.1948301,-0.9799192,0.5675137,-0.9443874,0.3403198],[-0.7086775,-0.04256237,0.9954314,-0.4328014,0.7335136,0.7497461,0.04425108,-0.4763769,-0.772038,-0.2827517,-0.3373855,-0.9007406,0.3056097,-0.496003,0.6519637,0.9587865],[-0.1847101,-0.8951395,-0.8011005]],[[-0.3586711,0.2067262,-0.4206487,-0.245113,0.605763,0.2410358,-0.7772324,-0.1078306,-0.2326583,-0.2685839,-0.3349668,0.1948301,-0.9799192,0.5675137,-0.9443874,0.3403198],[-0.7086775,-0.04256237,0.9954314,-0.4328014,0.7335136,0.7497461,0.04425108,0.9384475,-0.772038,-0.2827517,-0.3373855,-0.9007406,0.3056097,-0.496003,0.6519637,0.9587865],[-0.1847101,-0.8951395,-0.8011005]],[[-0.3586711,0.2067262,-0.4206487,-0.245113,0.605763,0.2410358,-0.7772324,-0.1078306,-0.2326583,-0.2685839,-0.3349668,0.1948301,-0.9799192,0.5675137,-0.9443874,0.3403198],[-0.7086775,0.8896766,0.9954314,-0.4328014,0.7335136,0.7497461,0.04425108,0.9384475,-0.772038,-0.2827517,-0.3373855,-0.9007406,0.3056097,-0.496003,0.6519637,0.9587865],[-0.1847101,-0.8951395,-0.8011005]],[[-0.3586711,0.2067262,-0.4206487,-0.245113,0.605763,0.2410358,-0.7772324,-0.1078306,-0.2326583,-0.2685839,-0.3349668,0.1948301,-0.9799192,0.5675137,-0.9443874,0.3403198],[-0.7086775,-0.04256237,-0.3518642,-0.4328014,0.7335136,0.7497461,0.04425108,0.9384475,-0.772038,-0.2827517,-0.3373855,-0.9007406,0.3056097,-0.496003,0.6519637,0.9587865],[-0.1847101,-0.8951395,-0.8011005]],[[-0.3586711,0.2067262,-0.4206487,-0.245113,0.605763,0.2410358,-0.7772324,-0.1078306,-0.2326583,-0.2685839,-0.3349668,0.1948301,-0.9799192,0.5675137,-0.9443874,0.3403198],[-0.7086775,-0.04256237,-0.3518642,-0.4328014,0.7335136,0.7497461,0.04425108,0.9384475,-0.772038,-0.2827517,-0.3373855,-0.9007406,0.3056097,-0.496003,0.6519637,0.9587865],[-0.1847101,-0.8951395,-0.8011005]],[[-0.3586711,0.2067262,-0.4206487,-0.245113,0.605763,0.2410358,-0.7772324,-0.1078306,-0.2326583,-0.2685839,-0.3349668,0.1948301,-0.9799192,0.5675137,-0.9443874,0.3403198],[-0.7086775,-0.04256237,0.9954314,-0.4328014,0.7335136,0.7497461,0.04425108,0.9384475,-0.772038,-0.2827517,-0.3373855,-0.9007406,0.3056097,-0.496003,0.6519637,0.9587865],[-0.1847101,-0.8951395,-0.8011005]],[[-0.3586711,0.2067262,-0.4206487,-0.245113,0.605763,0.2410358,-0.7772324,-0.1078306,-0.2326583,-0.2685839,-0.3349668,0.1948301,-0.9799192,0.5675137,-0.9443874,0.3403198],[-0.7086775,-0.04256237,0.9954314,-0.4328014,0.7335136,0.7497461,0.04425108,0.9384475,-0.772038,-0.2827517,-0.3373855,-0.9007406,0.3056097,-0.496003,0.6519637,0.9587865],[-0.1847101,-0.8951395,-0.8011005]],[[-0.3586711,0.2067262,-0.4206487,-0.245113,0.605763,0.2410358,-0.7772324,-0.1078306,-0.2326583,-0.2685839,-0.3349668,0.1948301,-0.9799192,0.5675137,-0.9443874,0.3403198],[-0.7086775,-0.04256237,0.9954314,-0.4328014,0.7335136,0.7497461,0.04425108,0.9384475,-0.772038,-0.2827517,-0.3373855,-0.9007406,0.3056097,-0.496003,0.6519637,0.9587865],[-0.1847101,-0.2034708,-0.8011005]],[[-0.3586711,0.2067262,-0.4206487,-0.245113,0.605763,0.2410358,-0.7772324,-0.1078306,-0.2326583,-0.2685839,-0.3349668,0.1948301,-0.9799192,0.5675137,-0.9443874,0.3403198],[-0.7086775,-0.04256237,0.9954314,-0.4328014,0.7335136,0.7497461,0.04425108,0.9384475,-0.772038,-0.2827517,-0.3373855,-0.9007406,0.3056097,-0.496003,0.6519637,0.9587865],[-0.1847101,-0.8951395,-0.8011005]],[[-0.3586711,0.2067262,-0.4206487,-0.245113,0.605763,0.2410358,-0.7772324,-0.1078306,-0.2326583,-0.2685839,-0.3349668,0.1948301,-0.9799192,0.5675137,-0.9443874,0.3403198],[-0.7086775,-0.04256237,0.9954314,-0.4328014,0.7335136,0.7497461,0.04425108,0.9384475,-0.772038,-0.2827517,-0.3373855,-0.9007406,0.3056097,-0.496003,0.6519637,0.9587865],[-0.1847101,-0.8951395,-0.8011005]],[[-0.3586711,0.2067262,-0.4206487,-0.245113,0.605763,0.2410358,-0.7772324,-0.1078306,-0.2326583,-0.2685839,-0.3349668,0.1948301,-0.9799192,0.5675137,-0.9443874,0.3403198],[-0.7086775,-0.04256237,0.9954314,-0.4328014,0.7335136,0.7497461,0.04425108,0.9384475,-0.772038,-0.2827517,-0.3373855,-0.9007406,0.3056097,-0.496003,0.6519637,0.9587865],[-0.1847101,-0.8951395,-0.8011005]],[[-0.3586711,0.2067262,-0.4206487,-0.245113,0.605763,0.2410358,-0.7772324,-0.1078306,-0.2326583,-0.2685839,-0.3349668,0.1948301,-0.9799192,0.5675137,-0.9443874,0.3403198],[-0.7086775,-0.04256237,0.9954314,-0.4328014,0.7335136,0.7497461,0.04425108,0.9384475,-0.772038,-0.2827517,-0.3373855,-0.9007406,0.3056097,-0.496003,0.6519637,0.9587865],[-0.1847101,-0.8951395,-0.8011005]],[[-0.3586711,0.2067262,-0.4206487,-0.245113,0.605763,0.2410358,-0.7772324,-0.1078306,-0.2326583,-0.2685839,-0.3349668,0.1948301,-0.9799192,0.5675137,-0.9443874,0.3403198],[-0.7086775,-0.04256237,-0.3518642,-0.4328014,0.7335136,0.7497461,0.04425108,0.9384475,-0.772038,-0.2827517,-0.3373855,-0.9007406,0.3056097,-0.496003,0.6519637,0.9587865],[-0.1847101,-0.8951395,-0.8011005]],[[-0.3586711,0.2067262,-0.4206487,-0.245113,0.605763,0.2410358,-0.7772324,-0.1078306,-0.2326583,-0.2685839,-0.3349668,0.1948301,-0.9799192,0.5675137,-0.9443874,0.3403198],[-0.7086775,-0.6580441,0.9954314,-0.4328014,0.7335136,0.7497461,0.04425108,0.9384475,-0.772038,-0.2827517,-0.3373855,-0.9007406,0.3056097,-0.496003,0.6519637,0.9587865],[-0.1847101,-0.8951395,-0.8011005]],[[-0.3586711,0.2067262,-0.4206487,-0.245113,0.605763,0.2410358,-0.7772324,-0.1078306,-0.2326583,-0.2685839,-0.3349668,0.1948301,-0.9799192,0.5675137,-0.9443874,0.3403198],[-0.7086775,-0.04256237,0.9954314,-0.4328014,0.7335136,0.7497461,0.04425108,0.9384475,-0.772038,-0.2827517,-0.3373855,-0.9007406,0.3056097,-0.496003,0.6519637,0.9587865],[-0.1847101,-0.8951395,-0.8011005]],[[-0.3586711,0.2067262,-0.4206487,-0.245113,0.605763,0.2410358,-0.7772324,-0.1078306,-0.2326583,-0.2685839,-0.3349668,0.1948301,-0.9799192,0.5675137,-0.9443874,0.3403198],[-0.7086775,-0.04256237,0.9954314,-0.4328014,0.7335136,0.7497461,0.04425108,0.9384475,-0.772038,-0.2827517,-0.3373855,-0.9007406,0.3056097,-0.496003,0.6519637,0.9587865],[-0.1847101,-0.8951395,-0.8011005]]]