[[[0.9531829,-0.8954554,0.249204,0.6580265,-0.9002023,0.4839954,0.7609501,0.6960483,0.8799992,-0.5538392,0.07262862,-0.4369193,0.300677,0.003805041,-0.7204659,-0.2477328,0.7971046,-0.1771749,0.09159553,0.3048756,-0.6329403,-0.08480847,-0.9618487,0.0235132,-0.9497263,-0.2486264,0.4105103,-0.4132494,0.7568514,-0.7000661,0.3130314,0.07940924,-0.4250931,0.6384287,0.5435314,0.6070383,0.06612408,-0.3330411,0.8076222,0.4779911,-0.3641762,0.07300913,-0.3862787,0.02402437,0.2600166,-0.6962397,0.204384,0.06741703,-0.3889869,0.3566699,0.6546311,0.09409702,-0.05720055,0.3530543,-0.53285,-0.2392064,-0.5328343,0.5768888,0.2908654,-0.8067679,0.2629718,0.8628037,0.3595037,0.7714686,0.2372879,0.3279462,-0.4049357,0.8229995,-0.7580674,-0.4879607,0.8902884,0.09916413,0.5423899,0.818033,0.9762812,0.5681372,0.3835332,-0.653003,-0.0848192,0.9002283,0.3021857,0.2699787,0.03182805,-0.5746698,0.2399749,-0.3629602,0.4300618,-0.37984,-0.5372477,-0.7075322,-0.6603072,-0.3338562,-0.02774179,0.9648345,0.07503188,-0.3719462,0.02566612,0.1706928,0.00506413,-0.5699782,-0.5676455,0.288696,0.3230521,-0.0114249,0.1779014,0.8416071,-0.8315835,-0.5846853,0.6389883,0.9951756,-0.3665146,0.5964072,-0.4817079,0.5508571,-0.8637447,0.4676344,0.2363986,0.06707156,0.9857097,-0.4396998,0.6806827,-0.1156319,-0.4150823,0.5343654,0.2764637,-0.4601089,-0.526258,0.9514852,-0.2553719,-0.1757618,-0.5224147,-0.4592928],[0.9211032,0.1161031,-0.4231335,0.2373608,-0.5340724,0.6707482,0.6442235,-0.1339725,-0.5372005,0.777601,-0.9250541,-0.7816145,-0.8280342,0.4754808,-0.6264863,0.8244946,-0.7172573,0.01695383,0.2264632,0.8350794,-0.1308848,0.6533599,0.9511709,-0.4335014,-0.8570089,0.7522697,0.1890773,-0.317432,-0.3875769,-0.08082449,0.6281004,-0.6504154,0.1416274,0.6507373,0.06001961,-0.594207,-0.9917948,0.9377804,0.578151,0.2281364,-0.1167763,-0.6301827,0.2298001,0.6604185,-0.4393111,0.5893474,-0.2271885,0.194832,-0.7670605,-0.04035199,-0.5404806,0.2275141,-0.9068255,-0.5608349,-0.8592529,-0.4046553,0.363434,0.3169064,0.7310963,0.00699985,-0.04762208,0.8072457,-0.6090188,-0.6631665,-0.3303808,0.9076777,-0.5263691,0.8449576,-0.3213156,-0.9351063,0.4486055,-0.3217584,0.5448186,0.6848214,0.1578542,0.1892935,-0.5273967,-0.2435669,-0.7342982,-0.5598118,0.7416427,0.7413054,-0.1692022,0.6823797,-0.826396,-0.331618,-0.02686679,-0.2737209,0.2406033,0.4510946,0.3524224,0.5120652,0.08742964,-0.9935687,0.3696892,-0.5410171,0.1692783,-0.1190072,-0.8369977,0.2390269,0.3114431,0.4659295,0.3057267,0.647511,-0.6102033,0.6709485,0.2649479,-0.09350383,0.7151749,-0.01928341,-0.7448893,0.07136643,0.5696988,-0.7993937,-0.2733678,-0.2850446,-0.1557263,0.2674598,0.5376379,-0.2056729,-0.3529841,0.7131236,-0.05984414,0.7405081,-0.8585522,-0.8431504,-0.8108535,-0.3315569,-0.9567361,-0.7292464,0.4675603,0.6131685,0.0001183748,-0.6090386,-0.7399483,-0.2417771,0.0006126165,0.5171723,0.6697216,-0.3310331,-0.6990559,0.8836565,-0.2443873,-0.7438931],[0.04822671,-0.8448231,0.5227401,0.2411677,0.7664192,-0.06154668,-0.1915663,0.472898,-0.6364274,-0.6190932,-0.1652483,-0.7397251,-0.7033083,-0.002308249,0.2584264,-0.340762,0.6380923,0.0427233,-0.8444304,-0.8785784,-0.6100922,0.638752,0.03431523,0.1358653,-0.6214256,0.9503176,-0.6385605,-0.2276038,-0.8065388,0.7610552,-0.2867635,0.2546587,0.3711333,-0.6823215,0.8289614,-0.6125937,0.8986597,-0.7223864,0.1467062,0.793252,0.06422842,-0.9145997,-0.8366978,0.7558231,-0.1667348,0.1130909,-0.3190616,-0.1788863,-0.5774052,-0.8888907,0.9905148,0.6929178,0.8066626,0.1259815,0.9924779,0.2762143,0.9202662,-0.2799073,-0.8701048,0.4276578]],[[0.9531829,-0.8954554,0.249204,0.6580265,-0.9002023,0.4839954,0.7609501,0.6960483,0.8799992,-0.5538392,0.07262862,-0.4369193,0.300677,0.003805041,-0.7204659,-0.2477328,0.7971046,-0.1771749,0.09159553,0.3048756,-0.6329403,-0.08480847,-0.9618487,0.0235132,-0.9497263,-0.2486264,0.4105103,-0.4132494,0.7568514,-0.7000661,0.3130314,0.07940924,-0.4250931,0.6384287,0.5435314,0.6070383,0.06612408,-0.3330411,0.8076222,0.4779911,-0.3641762,0.07300913,-0.3862787,0.02402437,0.2600166,-0.6962397,0.204384,0.06741703,-0.3889869,0.3566699,0.6546311,0.09409702,-0.05720055,0.3530543,-0.53285,-0.2392064,-0.5328343,0.5768888,0.2908654,-0.8067679,0.2629718,0.8628037,0.3595037,0.7714686,0.2372879,0.3279462,-0.4049357,0.8229995,-0.7580674,-0.4879607,0.8902884,0.09916413,0.5423899,0.818033,0.9762812,0.5681372,0.3835332,-0.653003,-0.0848192,0.9002283,0.3021857,0.2699787,0.03182805,-0.5746698,0.2399749,-0.3629602,0.4300618,-0.37984,-0.5372477,-0.7075322,-0.6603072,-0.3338562,-0.02774179,0.9648345,0.07503188,-0.3719462,0.02566612,0.1706928,0.00506413,-0.5699782,-0.5676455,0.288696,0.3230521,-0.0114249,0.1779014,0.8416071,-0.8315835,-0.5846853,0.6389883,0.9951756,-0.3665146,0.5964072,-0.4817079,0.5508571,-0.8637447,0.4676344,0.2363986,0.06707156,0.9857097,-0.4396998,0.6806827,-0.1156319,-0.4150823,0.5343654,0.2764637,-0.4601089,-0.526258,0.9514852,-0.2553719,-0.1757618,-0.5224147,-0.4592928],[0.9211032,0.1161031,-0.4231335,0.2373608,-0.5340724,0.6707482,0.6442235,-0.1339725,-0.5372005,0.777601,-0.9250541,-0.7816145,-0.8280342,0.4754808,-0.6264863,0.8244946,-0.7172573,0.01695383,0.2264632,0.8350794,-0.1308848,0.6533599,0.9511709,-0.4335014,-0.8570089,0.7522697,0.1890773,-0.317432,-0.3875769,-0.08082449,0.6281004,-0.6504154,0.1416274,0.6507373,0.06001961,-0.594207,-0.9917948,0.9377804,0.578151,0.2281364,-0.1167763,-0.6301827,0.2298001,0.6604185,-0.4393111,0.5893474,-0.2271885,0.194832,-0.7670605,-0.04035199,-0.5404806,0.2275141,-0.9068255,-0.5608349,-0.8592529,-0.4046553,0.363434,0.3169064,0.7310963,0.00699985,-0.04762208,0.8072457,-0.6090188,-0.6631665,-0.3303808,0.9076777,-0.5263691,0.8449576,-0.3213156,-0.9351063,0.4486055,-0.3217584,0.5448186,0.6848214,0.1578542,0.1892935,-0.5273967,-0.2435669,-0.7342982,-0.5598118,0.7416427,0.7413054,-0.1692022,0.6823797,-0.826396,-0.331618,-0.02686679,-0.2737209,0.2406033,0.4510946,0.3524224,0.5120652,0.08742964,-0.9935687,0.3696892,-0.5410171,0.1692783,-0.1190072,-0.8369977,0.2390269,0.3114431,0.4659295,0.3057267,0.647511,-0.6102033,0.6709485,0.2649479,-0.09350383,0.7151749,-0.01928341,-0.7448893,0.07136643,0.5696988,-0.7993937,-0.2733678,-0.2850446,-0.1557263,0.2674598,0.5376379,-0.2056729,-0.3529841,0.7131236,-0.05984414,0.7405081,-0.8585522,-0.8431504,-0.8108535,-0.3315569,-0.9567361,-0.7292464,0.4675603,0.6131685,0.0001183748,-0.6090386,-0.7399483,-0.2417771,0.0006126165,0.5171723,0.6697216,-0.3310331,-0.6990559,0.8836565,-0.2443873,-0.7438931],[0.04822671,-0.8448231,0.5227401,0.2411677,0.7664192,-0.06154668,-0.1915663,0.472898,-0.6364274,0.1021315,-0.1652483,-0.7397251,-0.7033083,-0.002308249,0.2584264,-0.340762,0.6380923,0.0427233,-0.8444304,-0.8785784,-0.6100922,0.638752,0.03431523,0.1358653,-0.6214256,0.9503176,-0.6385605,-0.2276038,-0.8065388,0.7610552,-0.2867635,0.2546587,0.3711333,-0.6823215,0.8289614,-0.6125937,0.8986597,-0.7223864,0.1467062,0.793252,0.06422842,-0.9145997,-0.8366978,0.7558231,-0.1667348,0.1130909,-0.3190616,-0.1788863,-0.5774052,-0.8888907,0.9905148,0.6929178,0.8066626,0.1259815,0.9924779,0.2762143,0.9202662,-0.2799073,-0.8701048,0.4276578]],[[0.9531829,-0.8954554,0.249204,0.6580265,-0.9002023,0.4839954,0.7609501,0.6960483,0.8799992,-0.5538392,0.07262862,-0.4369193,0.300677,0.003805041,-0.7204659,-0.2477328,0.7971046,-0.1771749,0.09159553,0.3048756,-0.6329403,-0.08480847,-0.9618487,0.0235132,-0.9497263,-0.2486264,0.4105103,-0.4132494,0.7568514,-0.7000661,0.3130314,0.07940924,-0.4250931,0.6384287,0.5435314,0.6070383,0.06612408,-0.3330411,0.8076222,0.4779911,-0.3641762,0.07300913,-0.3862787,0.02402437,0.2600166,-0.6962397,0.204384,0.06741703,-0.3889869,0.3566699,0.6546311,-0.8369799,-0.05720055,0.3530543,-0.53285,-0.2392064,-0.5328343,0.5768888,0.2908654,-0.8067679,0.2629718,0.8628037,0.3595037,0.7714686,0.2372879,0.3279462,-0.4049357,0.8229995,-0.7580674,-0.4879607,0.8902884,0.09916413,0.5423899,0.818033,0.9762812,0.5681372,0.3835332,-0.653003,-0.0848192,0.9002283,0.3021857,0.2699787,0.03182805,-0.5746698,0.2399749,-0.3629602,0.4300618,-0.37984,-0.5372477,-0.7075322,-0.6603072,-0.3338562,-0.02774179,0.9648345,0.07503188,-0.3719462,0.02566612,0.1706928,0.00506413,-0.5699782,-0.5676455,0.288696,0.3230521,-0.0114249,0.1779014,0.8416071,-0.8315835,-0.5846853,0.4312424,0.9951756,-0.3665146,0.5964072,-0.4817079,0.5508571,-0.8637447,0.4676344,0.2363986,0.06707156,0.9857097,-0.4396998,-0.04759943,-0.1156319,-0.4150823,0.5343654,0.2764637,-0.4601089,-0.526258,0.9514852,-0.2553719,-0.1757618,-0.5224147,-0.4592928],[0.9211032,0.1161031,-0.4231335,0.2373608,-0.5340724,0.6707482,0.6442235,-0.1339725,-0.5372005,0.777601,-0.9250541,-0.7816145,-0.8280342,0.4754808,-0.6264863,0.8244946,-0.7172573,0.01695383,0.2264632,0.8350794,-0.1308848,0.6533599,0.9511709,-0.4335014,-0.8570089,0.7522697,0.1890773,-0.317432,-0.3875769,-0.08082449,0.6281004,-0.6504154,0.1416274,-0.4098228,0.06001961,-0.594207,-0.9917948,0.9377804,0.578151,0.2281364,-0.1167763,-0.6301827,0.2298001,0.6604185,-0.4393111,0.5893474,-0.2271885,0.194832,-0.7670605,-0.04035199,-0.5404806,0.2275141,-0.9068255,-0.5608349,-0.8592529,-0.4046553,0.363434,0.3169064,0.7310963,0.00699985,-0.04762208,0.8072457,-0.6090188,-0.6631665,-0.3303808,0.9076777,-0.5263691,0.8449576,-0.3213156,-0.9351063,0.4486055,-0.3217584,0.5448186,0.6848214,0.1578542,0.1892935,-0.5273967,-0.2435669,-0.7342982,-0.5598118,0.7416427,0.7413054,-0.1692022,0.6823797,-0.826396,-0.331618,-0.02686679,-0.2737209,0.2406033,0.4510946,0.3524224,0.5120652,0.08742964,-0.9935687,0.3696892,-0.5410171,0.1692783,-0.1190072,-0.8369977,0.2390269,0.3114431,0.4659295,0.3057267,0.647511,-0.6102033,0.6709485,0.2649479,-0.09350383,0.7151749,-0.01928341,-0.7448893,0.07136643,0.5696988,-0.7993937,-0.2733678,-0.2850446,-0.7570729,0.2674598,0.5376379,-0.2056729,-0.3529841,0.7131236,-0.05984414,0.7405081,-0.8585522,-0.8431504,-0.8108535,-0.3315569,-0.9567361,-0.7292464,0.4675603,0.6131685,0.0001183748,-0.6090386,-0.7399483,-0.2417771,0.0006126165,0.5171723,0.6697216,-0.3310331,-0.6990559,0.8836565,-0.2443873,-0.7438931],[0.04822671,-0.8448231,0.5227401,0.2411677,0.7664192,-0.06154668,-0.1915663,0.472898,-0.6364274,-0.6190932,-0.1652483,-0.7397251,-0.7033083,-0.002308249,0.2584264,-0.340762,0.6380923,0.0427233,-0.8444304,-0.8785784,-0.6100922,0.638752,0.03431523,0.1358653,-0.6214256,0.9503176,-0.6385605,-0.2276038,-0.8065388,0.7610552,-0.2867635,0.2546587,0.3711333,-0.6823215,0.8289614,-0.6125937,0.8986597,-0.7223864,0.1467062,0.793252,0.06422842,-0.9145997,-0.8366978,0.7558231,-0.1667348,0.1130909,-0.3190616,-0.1788863,-0.5774052,-0.8888907,0.9905148,0.6929178,0.8066626,0.1259815,0.9924779,0.2762143,0.9202662,-0.2912987,0.8579967,0.05864155]],[[0.9531829,-0.8954554,0.249204,0.6580265,-0.9002023,0.4839954,0.7609501,0.6960483,0.8799992,-0.5538392,0.07262862,-0.4369193,0.300677,0.003805041,-0.7204659,-0.2477328,0.7971046,-0.1771749,0.09159553,0.3048756,-0.6329403,-0.08480847,-0.9618487,0.0235132,-0.9497263,-0.2486264,0.4105103,-0.4132494,0.7568514,-0.7000661,0.3130314,0.07940924,-0.4250931,0.6384287,0.5435314,0.6070383,0.06612408,-0.3330411,0.8076222,0.4779911,-0.3641762,0.07300913,-0.3862787,0.02402437,0.2600166,-0.6962397,0.204384,0.06741703,-0.3889869,0.3566699,0.6546311,0.09409702,-0.05720055,0.3530543,-0.53285,-0.2392064,-0.5328343,0.5768888,0.2908654,-0.8067679,0.2629718,0.8628037,0.3595037,0.7714686,0.2372879,0.3279462,-0.4049357,0.8229995,-0.7580674,-0.4879607,0.8902884,0.09916413,0.5423899,0.818033,0.9762812,0.5681372,0.3835332,-0.653003,-0.0848192,0.9002283,0.3021857,0.2699787,0.03182805,-0.5746698,0.2399749,-0.3629602,0.4300618,-0.37984,-0.5372477,-0.7075322,-0.6603072,-0.3338562,-0.02774179,0.9648345,0.07503188,-0.3719462,0.02566612,0.1706928,0.00506413,-0.5699782,-0.5676455,0.288696,0.3230521,-0.0114249,0.1779014,0.8416071,-0.8315835,-0.5846853,0.6389883,0.9951756,-0.3665146,0.5964072,0.8860571,0.5508571,-0.8637447,0.4676344,0.2363986,0.06707156,0.9857097,-0.4396998,0.6806827,-0.1156319,-0.4150823,0.5343654,0.2764637,-0.4601089,-0.526258,0.9514852,-0.2553719,-0.1757618,-0.5224147,-0.4592928],[0.9211032,0.1161031,-0.4231335,0.2373608,-0.5340724,0.6707482,0.6442235,-0.1339725,-0.5372005,0.777601,-0.9250541,-0.7816145,-0.8280342,0.9111187,-0.6264863,0.8244946,-0.7172573,0.01695383,0.2264632,0.8350794,-0.1308848,0.6533599,0.9511709,-0.4335014,-0.8570089,0.7522697,0.1890773,-0.317432,-0.3875769,-0.08082449,0.6281004,-0.6504154,0.1416274,0.6507373,0.06001961,-0.594207,-0.9917948,-0.5766537,0.578151,0.2281364,-0.1167763,-0.6301827,0.2298001,0.6604185,-0.4393111,0.5893474,-0.2271885,0.194832,-0.7670605,-0.04035199,-0.5404806,0.2275141,-0.9068255,-0.5608349,-0.8592529,-0.4046553,0.363434,0.3169064,0.7310963,0.00699985,-0.04762208,0.8072457,-0.6090188,-0.6631665,-0.3303808,0.9076777,-0.5263691,0.8449576,-0.3213156,-0.9351063,0.4486055,-0.3217584,0.5448186,0.6848214,0.1578542,0.1892935,-0.5273967,-0.2435669,-0.7342982,-0.5598118,0.7416427,0.7413054,-0.1692022,0.6823797,-0.826396,-0.331618,-0.02686679,-0.2737209,0.2406033,0.4510946,0.3524224,0.5120652,0.08742964,-0.9935687,0.3696892,-0.5410171,0.1692783,-0.1190072,-0.8369977,0.2390269,-0.3212298,0.4659295,0.3057267,0.647511,-0.6102033,0.6709485,0.2649479,-0.09350383,0.7151749,-0.01928341,-0.7448893,0.07136643,0.5696988,-0.7993937,-0.2733678,-0.2850446,-0.1557263,0.2674598,0.5376379,-0.2056729,-0.3529841,0.7131236,-0.05984414,0.7405081,-0.8585522,-0.8431504,-0.8108535,-0.3315569,-0.9567361,-0.7292464,0.4675603,0.6131685,0.0001183748,-0.6090386,-0.7399483,-0.2417771,0.0006126165,0.5171723,0.6697216,-0.3310331,-0.6990559,0.8836565,-0.2443873,-0.7438931],[0.04822671,-0.8448231,0.5227401,0.2411677,0.7664192,-0.06154668,-0.1915663,0.472898,-0.6364274,-0.6190932,-0.1652483,-0.7397251,-0.7033083,-0.002308249,0.2584264,-0.340762,0.6380923,0.0427233,-0.8444304,-0.8785784,-0.6100922,0.638752,0.03431523,0.1358653,-0.6214256,0.9503176,-0.6385605,-0.2276038,-0.8065388,0.7610552,-0.2867635,0.2546587,0.3711333,-0.6823215,0.8289614,-0.6125937,0.8986597,-0.7223864,0.1467062,0.793252,0.06422842,-0.9145997,-0.8366978,0.7558231,-0.1667348,0.1130909,-0.3190616,-0.1788863,-0.5774052,-0.8888907,0.9905148,0.6929178,0.8066626,0.1259815,0.9924779,0.2762143,0.9202662,-0.2799073,-0.8701048,0.4276578]],[[0.9531829,-0.8954554,0.249204,0.6580265,-0.9002023,0.4839954,0.7609501,0.6960483,0.8799992,-0.5538392,0.07262862,-0.4369193,0.300677,0.003805041,-0.7204659,-0.2477328,0.7971046,-0.1771749,0.09159553,0.3048756,-0.6329403,-0.08480847,-0.9618487,-0.3602122,-0.9497263,-0.2486264,0.9526842,0.4066271,0.7568514,-0.7000661,0.3130314,0.07940924,-0.4250931,0.6384287,0.5435314,0.6070383,0.06612408,0.6797419,0.8076222,0.4779911,-0.3641762,0.07300913,-0.3862787,0.02402437,0.2600166,-0.6962397,0.204384,0.06741703,-0.3889869,0.3566699,0.6546311,0.09409702,-0.05720055,0.3530543,-0.53285,-0.2392064,-0.5328343,0.5768888,0.389605,-0.8067679,0.2629718,0.8628037,0.3595037,0.7714686,0.2372879,0.3279462,-0.4049357,0.8229995,-0.7580674,-0.4879607,0.8902884,0.09916413,0.5423899,0.818033,0.9762812,0.5681372,0.3835332,-0.653003,-0.0848192,0.9002283,0.3021857,0.2699787,0.03182805,-0.5746698,0.2399749,-0.3629602,0.4300618,-0.37984,-0.5372477,-0.7075322,-0.6603072,-0.3338562,-0.02774179,0.9648345,-0.2125715,-0.3719462,0.02566612,0.1706928,0.00506413,-0.5699782,-0.5676455,-0.6414521,0.3230521,-0.0114249,0.1779014,-0.175325,-0.8315835,-0.5846853,0.6389883,0.9951756,-0.3665146,0.5964072,-0.4817079,0.5508571,-0.8637447,0.3413989,0.2363986,0.06707156,0.9857097,-0.4396998,0.6806827,-0.1156319,-0.4150823,0.5343654,0.2764637,-0.4601089,-0.526258,0.9514852,-0.2553719,-0.1757618,-0.5224147,-0.4592928],[0.9211032,0.1161031,-0.4231335,-0.2296149,-0.5340724,0.6707482,-0.3190066,-0.1339725,-0.5372005,0.777601,-0.9250541,-0.7816145,-0.8280342,0.4754808,-0.6264863,0.8244946,-0.7172573,0.01695383,0.2264632,0.8350794,-0.1308848,0.6533599,0.9511709,-0.4335014,-0.8570089,0.7522697,0.6360385,-0.317432,-0.3875769,0.07891023,0.6281004,-0.6504154,0.1416274,0.6507373,0.06001961,-0.594207,-0.9917948,0.9377804,0.578151,0.2281364,-0.1167763,-0.6301827,0.2298001,0.6604185,-0.4393111,0.5893474,-0.2271885,0.194832,-0.7670605,-0.04035199,-0.5404806,0.2275141,-0.9068255,-0.5608349,-0.8592529,-0.4046553,0.363434,0.3169064,0.7310963,0.00699985,-0.04762208,0.8072457,-0.6090188,-0.6631665,-0.3303808,0.9076777,-0.5263691,0.8449576,-0.3213156,-0.9351063,0.4486055,-0.3217584,0.5448186,0.6848214,0.1578542,0.1892935,-0.5273967,0.727746,-0.7342982,-0.5598118,0.7416427,0.4354725,-0.1692022,0.6823797,-0.826396,-0.331618,-0.02686679,-0.2737209,0.2406033,0.4510946,0.3524224,0.5120652,0.08742964,-0.3417739,0.3696892,-0.5410171,0.1692783,-0.1190072,-0.8369977,0.2390269,0.3114431,0.4659295,0.3057267,0.647511,-0.6102033,0.6709485,0.2649479,-0.09350383,0.7151749,-0.01928341,-0.7448893,-0.2992321,0.5696988,-0.7993937,-0.2733678,-0.2850446,-0.1557263,0.2674598,0.5376379,-0.2056729,-0.3529841,0.3545148,-0.05984414,0.08496964,-0.8585522,-0.8431504,-0.8108535,-0.3315569,-0.9567361,-0.7292464,0.4675603,0.6131685,0.0001183748,-0.6090386,-0.7399483,-0.2417771,0.0006126165,0.5171723,0.6697216,-0.3310331,-0.6990559,0.8836565,-0.2443873,-0.7438931],[0.04822671,-0.8448231,0.5227401,0.4888663,0.7664192,0.345155,-0.1915663,0.472898,-0.6364274,-0.6190932,-0.1652483,-0.7397251,-0.7033083,-0.002308249,0.2584264,-0.340762,0.6380923,0.0427233,-0.8444304,-0.8785784,-0.6100922,0.638752,0.03431523,0.1358653,-0.6214256,0.9503176,-0.6385605,-0.2276038,-0.8065388,0.7610552,-0.7658894,0.2546587,0.3711333,-0.6823215,0.8289614,-0.6125937,0.8986597,-0.7223864,0.1467062,0.793252,0.7494702,-0.9145997,-0.704695,0.7558231,0.6884832,0.1130909,-0.3190616,-0.1788863,-0.5774052,-0.8888907,0.9905148,0.6929178,0.8066626,0.1259815,0.9924779,0.2762143,0.9202662,-0.2799073,-0.8701048,0.4276578]],[[0.9531829,-0.8954554,0.249204,0.6580265,-0.9002023,0.4839954,0.7609501,0.6960483,0.8799992,-0.5538392,0.07262862,-0.4369193,0.300677,0.003805041,-0.7204659,-0.2477328,0.7971046,-0.1771749,0.09159553,0.3048756,-0.6329403,-0.08480847,-0.9618487,-0.3602122,-0.9497263,-0.2486264,0.9526842,0.4066271,0.7568514,-0.7000661,0.3130314,0.07940924,-0.4250931,0.6384287,0.5435314,0.6070383,0.06612408,0.6797419,0.8076222,0.4779911,-0.3641762,0.07300913,-0.3862787,0.02402437,0.2600166,-0.6962397,0.204384,0.06741703,-0.3889869,0.3566699,0.6546311,0.09409702,-0.05720055,0.3530543,-0.53285,-0.2392064,-0.5328343,0.5768888,0.389605,-0.8067679,0.2629718,0.8628037,0.3595037,0.7714686,0.2372879,0.3279462,-0.4049357,0.8229995,-0.7580674,-0.4879607,0.8902884,0.09916413,0.5423899,0.818033,0.9762812,0.5681372,0.3835332,-0.653003,-0.0848192,0.9002283,0.3021857,0.2699787,0.03182805,-0.5746698,0.2399749,-0.3629602,0.4300618,-0.37984,-0.5372477,-0.7075322,-0.6603072,-0.3338562,-0.02774179,0.9648345,-0.2125715,-0.3719462,0.02566612,0.1706928,0.00506413,-0.5699782,-0.5676455,-0.6414521,0.3230521,-0.0114249,0.1779014,-0.175325,-0.8315835,-0.5846853,0.6389883,0.9951756,-0.3665146,0.5964072,-0.4817079,0.5508571,-0.8637447,0.3413989,0.2363986,0.06707156,0.9857097,-0.4396998,0.6806827,-0.1156319,-0.4150823,0.5343654,0.2764637,-0.4601089,-0.526258,0.9514852,-0.2553719,-0.1757618,-0.5224147,-0.4592928],[0.9211032,0.1161031,-0.4231335,-0.2296149,-0.5340724,0.6707482,-0.3190066,-0.1339725,-0.5372005,0.777601,-0.9250541,-0.7816145,-0.8280342,0.4754808,-0.6264863,0.8244946,-0.7172573,0.01695383,0.2264632,0.8350794,-0.1308848,0.6533599,0.9511709,-0.4335014,-0.8570089,0.7522697,0.6360385,-0.317432,-0.3875769,0.07891023,0.6281004,-0.6504154,0.1416274,0.6507373,0.06001961,-0.594207,-0.9917948,0.9377804,0.578151,0.2281364,-0.1167763,-0.6301827,0.2298001,0.6604185,-0.4393111,0.5893474,-0.2271885,0.194832,-0.7670605,-0.04035199,-0.5404806,0.2275141,-0.9068255,-0.5608349,-0.8592529,-0.4046553,0.363434,0.3169064,0.7310963,0.00699985,-0.04762208,0.8072457,-0.6090188,-0.6631665,-0.3303808,0.9076777,-0.5263691,0.8449576,-0.3213156,-0.9351063,0.4486055,-0.3217584,0.5448186,0.6848214,0.1578542,0.1892935,-0.5273967,0.727746,-0.7342982,-0.5598118,0.7416427,0.4354725,-0.1692022,0.6823797,-0.826396,-0.331618,-0.02686679,-0.2737209,0.2406033,0.4510946,0.3524224,0.5120652,0.08742964,-0.3417739,0.3696892,-0.5410171,0.1692783,-0.1190072,-0.8369977,0.2390269,0.3114431,0.4659295,0.3057267,0.647511,-0.6102033,0.6709485,0.2649479,-0.09350383,0.7151749,-0.01928341,-0.7448893,-0.2992321,0.5696988,-0.7993937,-0.2733678,-0.2850446,-0.1557263,0.2674598,0.5376379,-0.2056729,-0.3529841,0.3545148,-0.05984414,0.08496964,-0.8585522,-0.8431504,-0.8108535,-0.3315569,-0.9567361,-0.7292464,0.4675603,0.6131685,0.0001183748,-0.6090386,-0.7399483,-0.2417771,0.0006126165,0.5171723,0.6697216,-0.3310331,-0.6990559,0.8836565,-0.2443873,-0.7438931],[0.04822671,-0.8448231,0.5227401,0.4888663,0.7664192,0.345155,-0.1915663,0.472898,-0.6364274,-0.6190932,-0.1652483,-0.7397251,-0.7033083,-0.002308249,0.2584264,-0.340762,0.6380923,0.0427233,-0.8444304,-0.8785784,-0.6100922,0.638752,0.03431523,0.1358653,-0.6214256,0.9503176,-0.6385605,-0.2276038,-0.8065388,0.7610552,-0.7658894,0.2546587,0.3711333,-0.6823215,0.8289614,-0.6125937,0.8986597,-0.7223864,0.1467062,0.793252,0.7494702,-0.9145997,-0.704695,0.7558231,0.6884832,0.1130909,-0.3190616,-0.1788863,-0.5774052,-0.8888907,0.9905148,0.6929178,0.8066626,0.1259815,0.9924779,0.2762143,0.9202662,-0.2799073,-0.8701048,0.4276578]],[[0.9531829,-0.8954554,0.249204,0.6580265,-0.9002023,0.4839954,0.7609501,0.6960483,0.8799992,-0.5538392,0.07262862,-0.4369193,0.300677,0.003805041,-0.7204659,-0.2477328,0.7971046,-0.1771749,0.09159553,0.3048756,-0.6329403,-0.08480847,-0.9618487,-0.3602122,-0.9497263,-0.2486264,0.9526842,0.4066271,0.7568514,-0.7000661,0.3130314,0.07940924,-0.4250931,0.6384287,0.5435314,0.6070383,0.06612408,0.6797419,0.8076222,0.4779911,-0.3641762,0.07300913,-0.3862787,0.02402437,0.2600166,-0.6962397,0.204384,0.06741703,-0.3889869,0.3566699,0.6546311,0.3811586,-0.05720055,0.3530543,-0.53285,-0.2392064,-0.5328343,0.2189125,0.389605,-0.8067679,0.2629718,0.8628037,0.3595037,0.7714686,0.2372879,0.3279462,-0.4049357,0.8229995,-0.7580674,-0.4879607,0.8902884,0.09916413,0.5423899,0.818033,0.9762812,0.5681372,0.3835332,-0.653003,-0.0848192,0.9002283,0.3021857,0.2699787,0.03182805,-0.5746698,0.2399749,-0.3629602,0.4300618,-0.37984,-0.5372477,-0.7075322,-0.6603072,-0.3338562,-0.02774179,0.9648345,-0.2125715,-0.3719462,0.02566612,0.1706928,0.00506413,-0.5699782,-0.5676455,-0.6414521,0.3230521,-0.0114249,0.1779014,-0.175325,-0.8315835,-0.5846853,0.6389883,0.9951756,-0.3665146,0.5964072,-0.4817079,0.5508571,-0.8637447,0.3413989,0.2363986,0.06707156,0.9857097,-0.4396998,0.6806827,-0.2781223,-0.4150823,0.5343654,0.2764637,-0.4601089,-0.526258,0.9514852,-0.2553719,-0.1757618,-0.5224147,-0.4592928],[0.9211032,0.1161031,-0.4231335,-0.2296149,-0.5340724,0.6707482,-0.3190066,-0.1339725,-0.5372005,0.777601,-0.9250541,-0.7816145,-0.8280342,0.4754808,-0.6264863,0.8244946,-0.7172573,0.01695383,0.2264632,0.8350794,-0.1308848,0.6533599,0.9511709,-0.4335014,-0.8570089,0.7522697,0.6360385,-0.317432,-0.3875769,0.07891023,0.6281004,-0.6504154,0.1416274,0.6507373,0.06001961,-0.594207,-0.9917948,0.9377804,0.578151,0.2281364,-0.1167763,-0.6301827,0.2298001,0.6604185,-0.4393111,0.5893474,-0.2271885,0.194832,-0.7670605,-0.04035199,-0.5404806,0.2275141,-0.9068255,-0.5608349,-0.8592529,-0.4046553,0.363434,0.3169064,0.7310963,0.00699985,-0.04762208,0.8072457,-0.6090188,-0.6631665,-0.3303808,0.9076777,-0.5263691,0.8449576,-0.3213156,-0.9351063,0.4486055,-0.3217584,0.5448186,0.6848214,0.1578542,0.1892935,-0.5273967,0.727746,-0.7342982,-0.5598118,0.7416427,0.4354725,-0.1692022,0.6823797,-0.826396,-0.331618,-0.02686679,-0.2737209,0.2406033,0.4510946,0.3524224,0.5120652,0.08742964,-0.3417739,0.3696892,-0.5410171,0.1692783,-0.1190072,-0.8369977,0.2390269,0.3114431,0.4659295,0.3057267,0.647511,-0.6102033,0.6709485,0.2649479,-0.09350383,0.7151749,-0.01928341,-0.7448893,-0.2992321,0.5696988,-0.7993937,-0.2733678,-0.2850446,-0.1557263,0.2674598,0.5376379,-0.2056729,-0.3529841,0.3545148,-0.05984414,0.08496964,-0.8585522,-0.8431504,-0.8108535,-0.3315569,-0.9567361,-0.7292464,0.4675603,0.6131685,0.0001183748,-0.6090386,-0.7399483,-0.2417771,0.0006126165,0.5171723,0.6697216,-0.3310331,-0.6990559,0.8836565,-0.2443873,-0.7438931],[0.04822671,-0.8448231,0.5227401,0.4888663,0.7664192,0.345155,-0.1915663,0.472898,-0.6364274,-0.6190932,-0.1652483,-0.7397251,-0.7033083,-0.002308249,0.2584264,-0.340762,0.6380923,0.0427233,-0.8444304,-0.8785784,-0.6100922,0.638752,0.03431523,0.1358653,-0.6214256,0.9503176,-0.6385605,-0.2276038,0.9560146,0.7610552,-0.7658894,0.2546587,0.3711333,-0.3734056,0.8289614,-0.6125937,0.8986597,-0.7223864,0.1467062,0.793252,0.7494702,-0.9145997,-0.704695,0.7558231,0.6884832,0.1130909,-0.3190616,-0.1788863,-0.5774052,-0.8888907,0.9905148,0.6929178,0.8066626,0.1259815,0.9924779,0.2762143,0.9202662,-0.2799073,-0.8701048,-0.1702296]],[[0.9531829,-0.8954554,0.249204,0.6580265,-0.9002023,0.4839954,0.7609501,0.6960483,0.8799992,-0.5538392,0.07262862,-0.4369193,0.300677,0.003805041,-0.7204659,-0.2477328,0.7971046,-0.1771749,0.09159553,0.3048756,-0.6329403,-0.08480847,-0.9618487,-0.3602122,-0.9497263,-0.2486264,0.9526842,0.4066271,0.7568514,-0.7000661,-0.3529402,0.07940924,-0.4250931,0.6384287,0.5435314,0.6070383,0.157348,0.6797419,0.8076222,0.4779911,-0.3641762,0.07300913,-0.3862787,0.02402437,0.2600166,-0.6962397,0.204384,0.06741703,-0.3889869,0.3566699,0.6546311,0.09409702,-0.05720055,0.3530543,-0.53285,-0.2392064,-0.5328343,0.5768888,0.389605,-0.8067679,0.2629718,0.8628037,-0.5428338,0.7714686,0.2372879,0.3279462,-0.4049357,0.8229995,-0.7580674,-0.4879607,0.8902884,0.09916413,0.5423899,0.818033,0.9762812,0.5681372,0.3835332,-0.653003,-0.2228254,0.9002283,0.3021857,0.2699787,0.03182805,-0.5746698,0.2399749,-0.3629602,0.4300618,-0.37984,-0.5372477,-0.7075322,-0.6603072,-0.3338562,-0.02774179,0.9648345,-0.2125715,-0.3719462,0.02566612,0.1706928,0.00506413,-0.5699782,-0.5676455,-0.6414521,0.3230521,-0.0114249,0.1779014,-0.175325,-0.8315835,-0.5846853,0.6389883,0.9951756,-0.3665146,0.5964072,-0.4817079,0.5508571,-0.8637447,0.3413989,0.2363986,0.06707156,0.9857097,-0.4396998,0.6806827,-0.1156319,-0.4150823,0.5343654,0.2764637,-0.4601089,-0.526258,0.9514852,-0.2553719,-0.1757618,-0.5224147,-0.4592928],[0.9211032,0.1161031,-0.4231335,-0.2296149,-0.5340724,0.6707482,-0.3190066,-0.1339725,-0.5372005,0.777601,-0.9250541,-0.7816145,-0.8280342,0.4754808,-0.6264863,0.8244946,-0.7172573,0.01695383,0.2264632,0.8350794,-0.1308848,0.6533599,0.9511709,-0.4335014,-0.8570089,0.7522697,0.6360385,-0.317432,-0.3875769,0.07891023,0.6281004,-0.6504154,0.1416274,0.6507373,0.06001961,-0.594207,-0.9917948,0.9377804,0.578151,0.2281364,-0.1167763,-0.6301827,0.2298001,0.6604185,-0.4393111,0.5893474,-0.2271885,0.194832,-0.7670605,-0.04035199,-0.5404806,0.2275141,0.7147162,-0.5608349,-0.8592529,-0.4046553,0.363434,0.3169064,0.7310963,0.00699985,-0.04762208,0.8072457,-0.6090188,-0.6631665,-0.3303808,0.9076777,-0.5263691,0.8449576,-0.3213156,-0.9351063,0.4486055,-0.3217584,0.5448186,0.6848214,0.1578542,0.1892935,-0.5273967,0.727746,-0.7342982,-0.5598118,0.7416427,0.4354725,-0.1692022,0.6823797,-0.826396,-0.331618,-0.02686679,-0.2737209,0.2406033,0.4510946,-0.3238496,0.5120652,0.08742964,-0.3417739,0.3696892,-0.5410171,0.1692783,-0.1190072,-0.8369977,0.2390269,0.3114431,0.4659295,0.3057267,0.647511,-0.6102033,0.6709485,0.2649479,-0.09350383,0.7151749,-0.01928341,-0.7448893,-0.2992321,0.5696988,-0.7993937,-0.2733678,-0.2850446,-0.1557263,0.2674598,0.5376379,-0.2056729,-0.3529841,0.3545148,-0.05984414,0.08496964,-0.8585522,-0.8431504,-0.8108535,-0.3315569,-0.9567361,-0.7292464,0.4675603,0.6131685,0.0001183748,-0.6090386,-0.7399483,-0.2417771,0.0006126165,0.5171723,0.6697216,-0.3310331,-0.6990559,0.8836565,-0.2443873,-0.7438931],[0.04822671,-0.8448231,0.5227401,0.4888663,0.7664192,0.345155,-0.1915663,0.472898,-0.6364274,-0.6190932,-0.1652483,-0.7397251,-0.7033083,-0.002308249,0.2584264,-0.340762,0.6380923,0.0427233,-0.8444304,-0.8785784,-0.6100922,0.638752,0.03431523,0.1358653,-0.6214256,0.8084469,-0.6385605,-0.2276038,-0.8065388,0.7610552,-0.7658894,0.2546587,0.3711333,-0.6823215,0.8289614,-0.6125937,0.8986597,-0.7223864,0.1467062,0.793252,0.7494702,-0.9145997,-0.704695,0.7558231,0.6884832,0.1130909,-0.3190616,-0.1788863,-0.5774052,-0.8888907,0.9905148,0.6929178,0.8066626,0.1259815,0.9924779,0.2762143,0.9202662,-0.2799073,-0.8701048,0.4276578]],[[0.9531829,-0.8954554,0.249204,0.6580265,-0.9002023,0.4839954,0.7609501,0.6960483,0.8799992,-0.5538392,0.07262862,-0.4369193,0.6645162,0.003805041,-0.7204659,-0.2477328,0.7971046,-0.1771749,0.09159553,0.3048756,-0.6329403,-0.08480847,-0.9618487,-0.3602122,-0.9497263,-0.2486264,0.9526842,0.4066271,0.7568514,-0.7000661,0.3130314,0.07940924,-0.4250931,0.6384287,0.5435314,0.6070383,0.06612408,0.3959646,0.8076222,0.4779911,-0.3641762,0.07300913,-0.3862787,0.02402437,0.2600166,-0.6962397,0.204384,0.06741703,-0.3889869,0.3566699,0.6546311,0.09409702,0.7851017,0.3530543,-0.53285,-0.2392064,-0.5328343,0.5768888,0.389605,-0.8067679,0.2629718,0.8628037,0.3595037,0.7714686,0.2372879,0.3279462,-0.4049357,0.8229995,-0.7580674,-0.4879607,0.8902884,0.09916413,0.5423899,0.818033,0.9762812,0.5681372,0.3835332,-0.653003,-0.0848192,0.9002283,0.3021857,0.2699787,0.03182805,-0.5746698,0.2399749,-0.3629602,0.4300618,-0.37984,-0.5372477,-0.7075322,-0.6603072,-0.3338562,-0.02774179,0.9648345,-0.2125715,-0.3719462,0.02566612,0.1706928,0.00506413,-0.5699782,-0.5676455,-0.6414521,0.3230521,-0.0114249,0.1779014,-0.175325,-0.8315835,-0.5846853,0.6389883,0.9951756,-0.3665146,0.5964072,-0.4817079,0.5508571,-0.8637447,0.3413989,0.2363986,0.06707156,0.9857097,-0.4396998,0.6806827,-0.1156319,-0.4150823,0.5343654,0.2764637,-0.4601089,-0.526258,0.9514852,-0.2553719,-0.5755365,-0.5224147,-0.4592928],[0.9211032,0.1161031,-0.6606672,-0.2296149,-0.5340724,0.6707482,-0.3190066,-0.1339725,-0.5372005,0.777601,-0.9250541,-0.7816145,-0.8280342,0.4754808,-0.6264863,0.8244946,-0.7172573,0.01695383,0.2264632,0.8350794,-0.1308848,0.6533599,0.9511709,-0.4335014,-0.8570089,0.7522697,0.6360385,-0.317432,-0.3875769,0.07891023,0.6281004,-0.6504154,0.1416274,0.6507373,0.06001961,-0.594207,-0.9917948,0.9377804,0.578151,0.2281364,-0.1167763,-0.6301827,0.2298001,0.6604185,-0.4393111,0.5893474,-0.2271885,0.194832,-0.7670605,-0.04035199,-0.5404806,0.2275141,-0.9068255,-0.5608349,-0.8592529,-0.4046553,0.363434,0.3169064,0.7310963,0.00699985,-0.04762208,0.8072457,-0.6090188,-0.6631665,-0.3303808,0.9076777,-0.5263691,0.8449576,-0.3213156,-0.9351063,0.4486055,-0.3217584,0.5448186,0.6848214,0.1578542,0.1892935,-0.5273967,0.727746,-0.7342982,-0.5598118,0.7416427,0.4354725,-0.1692022,0.6823797,-0.826396,-0.331618,-0.02686679,-0.2737209,0.2406033,0.4510946,0.3524224,0.5120652,0.08742964,-0.3417739,0.3696892,-0.5410171,0.1692783,-0.5641437,0.7695408,0.2390269,0.3114431,0.4659295,0.3057267,0.647511,-0.6102033,0.6709485,0.2649479,-0.09350383,0.7151749,-0.01928341,-0.7448893,-0.2992321,0.5696988,-0.7993937,-0.2733678,-0.2850446,-0.1557263,0.2674598,0.5376379,-0.2056729,-0.3529841,0.3545148,-0.05984414,0.08496964,-0.8585522,-0.8431504,-0.8108535,-0.3315569,-0.9567361,-0.7292464,0.4675603,0.6131685,0.0001183748,-0.6090386,-0.7399483,-0.2417771,0.0006126165,0.5171723,0.6697216,-0.3310331,-0.6990559,0.8836565,-0.07911265,-0.7438931],[0.04822671,-0.8448231,0.5227401,0.4888663,0.7664192,0.345155,-0.1915663,0.770349,-0.6364274,-0.6190932,-0.1652483,-0.7397251,-0.7033083,-0.002308249,0.2584264,-0.340762,0.6380923,0.0427233,-0.8444304,-0.8785784,-0.6100922,0.638752,0.03431523,0.1358653,-0.6214256,0.9503176,-0.6385605,-0.2276038,-0.8065388,0.7610552,-0.7658894,0.2546587,0.3711333,-0.6823215,0.8289614,-0.6125937,0.8986597,-0.7223864,0.1467062,0.793252,0.7494702,-0.9145997,-0.704695,0.7558231,0.6884832,0.1130909,-0.3190616,-0.1788863,-0.5774052,-0.8888907,0.9905148,0.6929178,0.8066626,0.1259815,0.9924779,0.9431627,0.9202662,-0.2799073,-0.8701048,0.4276578]],[[0.9531829,-0.8954554,0.249204,0.6580265,-0.9002023,0.4839954,0.7609501,0.6960483,0.8799992,-0.5538392,0.07262862,-0.4369193,0.300677,0.003805041,-0.7204659,-0.2477328,0.7971046,-0.1771749,0.09159553,0.3048756,-0.6329403,-0.08480847,-0.9618487,0.0235132,-0.9497263,-0.2486264,0.4105103,-0.4132494,0.7568514,-0.7000661,0.3130314,0.07940924,-0.4250931,0.6384287,0.5435314,0.6070383,0.06612408,-0.3330411,0.8076222,0.4779911,-0.3641762,0.07300913,-0.3862787,0.02402437,0.2600166,-0.6962397,0.204384,0.06741703,-0.3889869,0.3566699,0.6546311,0.09409702,-0.05720055,0.3530543,-0.53285,-0.2392064,-0.5328343,0.5768888,0.2908654,-0.6430926,0.2629718,0.8628037,0.3595037,0.7714686,0.2372879,0.3279462,-0.4049357,0.8229995,-0.7580674,-0.4879607,0.8902884,0.09916413,0.5423899,0.818033,0.9762812,0.5681372,0.3835332,-0.653003,-0.0848192,0.9002283,0.3021857,0.2699787,0.03182805,-0.5746698,0.2399749,-0.3629602,0.4300618,-0.37984,-0.5372477,-0.7075322,-0.6603072,-0.3338562,-0.02774179,0.9648345,0.07503188,-0.3719462,0.02566612,0.1706928,0.00506413,-0.5699782,-0.5676455,0.288696,0.3230521,-0.0114249,0.1779014,0.8416071,-0.8315835,-0.5846853,0.6389883,0.9951756,-0.3665146,0.5964072,-0.4817079,0.5508571,-0.8637447,0.4676344,0.2363986,0.06707156,0.9857097,-0.4396998,0.6806827,-0.1156319,-0.4150823,0.5343654,0.2764637,-0.4601089,-0.526258,0.9514852,-0.2553719,-0.1757618,-0.5224147,-0.4592928],[0.9211032,0.1161031,-0.4231335,0.2373608,-0.5340724,0.6707482,0.6442235,-0.1339725,-0.5372005,0.777601,-0.9250541,-0.7816145,-0.8280342,0.4754808,-0.6264863,0.8244946,-0.9871268,0.01695383,0.2264632,0.8350794,-0.1308848,0.6533599,0.9511709,-0.4335014,-0.8570089,0.7522697,0.1890773,-0.317432,-0.3875769,-0.08082449,0.6281004,-0.6504154,0.1416274,0.6507373,0.06001961,-0.594207,-0.9917948,0.9377804,0.578151,0.2281364,-0.1167763,-0.6301827,0.2298001,0.6604185,-0.4393111,0.5893474,-0.2271885,0.194832,-0.7670605,-0.04035199,-0.5404806,0.2275141,-0.9068255,-0.5608349,-0.8592529,-0.4046553,0.363434,0.3169064,0.7310963,0.00699985,-0.04762208,0.8072457,-0.6090188,-0.6631665,-0.3303808,0.9076777,-0.5263691,0.8449576,-0.3213156,-0.9351063,0.4486055,-0.3217584,0.5448186,0.6848214,0.1578542,0.1892935,-0.5273967,-0.2435669,-0.7342982,-0.5598118,0.7416427,0.7413054,-0.1692022,0.6823797,-0.826396,-0.331618,-0.02686679,-0.2737209,0.2406033,0.4510946,0.3524224,0.5120652,0.08742964,-0.9935687,0.3696892,-0.5410171,0.1692783,-0.1190072,-0.8369977,0.5547957,0.3114431,0.4659295,0.3057267,0.647511,-0.6102033,0.6709485,0.2649479,-0.09350383,0.7151749,-0.01928341,-0.7448893,0.07136643,0.5696988,-0.7993937,-0.2733678,-0.2850446,-0.1557263,0.2674598,0.5376379,-0.2056729,-0.3529841,0.7131236,-0.05984414,0.7405081,-0.8585522,-0.8431504,-0.8108535,-0.3315569,-0.9567361,-0.7292464,0.4675603,0.6131685,0.0001183748,-0.6090386,-0.7399483,-0.2417771,0.0006126165,0.5171723,0.6697216,-0.3310331,-0.6990559,0.8836565,-0.2443873,-0.7438931],[0.04822671,-0.8448231,0.5227401,0.2411677,0.7664192,-0.06154668,-0.1915663,0.472898,-0.6364274,-0.6190932,-0.1652483,-0.7397251,-0.7033083,-0.002308249,0.2584264,-0.340762,0.6380923,0.0427233,-0.8444304,-0.8785784,-0.6100922,0.638752,0.03431523,0.1358653,-0.6214256,0.9503176,-0.6385605,-0.2276038,-0.8065388,0.7610552,-0.2867635,0.2546587,0.3711333,-0.6823215,0.8289614,-0.6125937,0.8986597,-0.7223864,0.1467062,0.793252,0.06422842,-0.9145997,-0.8366978,0.7558231,-0.1667348,0.1130909,-0.3190616,-0.1788863,-0.5774052,-0.8888907,0.9905148,0.6929178,0.8066626,0.1259815,0.9924779,0.2762143,0.9202662,-0.2799073,-0.8701048,0.4276578]],[[0.9531829,-0.8954554,0.249204,0.6580265,-0.9002023,0.4839954,0.7609501,0.6960483,0.8799992,-0.5538392,0.07262862,-0.4369193,0.300677,0.003805041,-0.7204659,-0.2477328,0.7971046,-0.1771749,0.09159553,0.3048756,-0.6329403,-0.08480847,-0.9618487,-0.3602122,-0.9497263,-0.2486264,0.4105103,-0.4132494,0.7568514,-0.7000661,0.3130314,0.07940924,-0.4250931,0.6384287,0.5435314,0.6070383,0.06612408,-0.3330411,0.8076222,0.4779911,-0.3641762,0.07300913,-0.3862787,0.02402437,0.2600166,-0.6962397,0.204384,0.06741703,-0.3889869,0.3566699,0.6546311,0.09409702,-0.05720055,0.3530543,-0.53285,-0.2392064,-0.5328343,0.5768888,0.2908654,-0.8067679,0.2629718,0.8628037,0.3595037,0.7714686,0.2372879,0.3279462,-0.4049357,0.8229995,-0.7580674,-0.4879607,0.8902884,0.09916413,0.5423899,0.818033,0.9762812,0.5681372,0.3835332,-0.653003,-0.0848192,0.9002283,0.3021857,0.2699787,0.03182805,-0.5746698,0.2399749,-0.3629602,0.4300618,-0.37984,-0.5372477,-0.7075322,-0.6603072,-0.3338562,-0.02774179,0.9648345,0.07503188,-0.3719462,0.02566612,0.1706928,0.00506413,-0.5699782,-0.5676455,0.288696,0.3230521,-0.0114249,0.1779014,-0.175325,-0.8315835,-0.5846853,0.6389883,0.9951756,-0.3665146,0.5964072,-0.4817079,0.5508571,-0.8637447,0.4676344,0.2363986,0.06707156,0.9857097,-0.4396998,0.6806827,-0.1156319,-0.4150823,0.5343654,0.2764637,-0.4601089,-0.526258,0.9514852,-0.2553719,-0.1757618,-0.5224147,-0.4592928],[0.9211032,0.1161031,-0.4231335,0.2373608,-0.5340724,0.6707482,0.6442235,-0.1339725,-0.5372005,0.777601,-0.9250541,-0.7816145,-0.8280342,0.4754808,-0.6264863,0.8244946,-0.7172573,0.01695383,0.2264632,0.8350794,-0.1308848,0.6533599,0.9511709,-0.4335014,-0.8570089,0.7522697,0.1890773,-0.317432,-0.3875769,-0.08082449,0.6281004,-0.6504154,0.1416274,0.6507373,0.06001961,-0.594207,-0.9917948,0.9377804,0.578151,0.2281364,-0.1167763,-0.6301827,0.2298001,0.6604185,-0.4393111,0.5893474,-0.2271885,0.194832,-0.7670605,-0.04035199,-0.5404806,0.2275141,-0.9068255,-0.5608349,-0.8592529,-0.4046553,0.363434,0.3169064,0.7310963,0.00699985,-0.04762208,0.8072457,-0.6090188,-0.6631665,-0.3303808,0.9076777,-0.5263691,0.8449576,-0.3213156,-0.9351063,0.4486055,-0.3217584,0.5448186,0.6848214,0.1578542,0.1892935,-0.5273967,-0.2435669,-0.7342982,-0.5598118,0.7416427,0.7114985,-0.1692022,0.6823797,-0.826396,-0.331618,-0.02686679,-0.2737209,0.2406033,0.4510946,0.3524224,0.5120652,0.08742964,-0.9935687,0.3696892,-0.5410171,0.1692783,-0.1190072,-0.8369977,0.2390269,0.3114431,0.4659295,0.3057267,0.647511,-0.6102033,0.6709485,0.2649479,-0.09350383,0.7151749,-0.01928341,-0.7448893,-0.2992321,0.5696988,-0.7993937,-0.2733678,-0.2850446,-0.1557263,0.2674598,0.5376379,-0.2056729,-0.3529841,0.7131236,-0.05984414,0.7405081,-0.8585522,-0.8431504,-0.8108535,-0.3315569,-0.9567361,-0.7292464,0.4675603,0.6131685,0.0001183748,-0.6090386,-0.7399483,-0.2417771,0.0006126165,0.5171723,0.6697216,-0.3310331,-0.6990559,0.8836565,-0.2443873,-0.7438931],[0.04822671,-0.8448231,0.5227401,0.2411677,0.7664192,0.345155,-0.1915663,0.472898,-0.6364274,-0.6190932,-0.1652483,-0.7397251,-0.7033083,-0.002308249,0.2584264,-0.340762,0.6380923,0.0427233,-0.8444304,-0.8785784,-0.6100922,0.638752,0.03431523,0.1358653,-0.6214256,0.9503176,-0.6385605,-0.2276038,-0.8065388,0.7610552,-0.7658894,0.2546587,0.3711333,-0.6823215,0.8289614,-0.6125937,0.8986597,-0.7223864,0.1467062,0.793252,0.06422842,-0.9145997,-0.8366978,0.7558231,0.6884832,0.1130909,-0.3190616,-0.1788863,-0.5774052,-0.8888907,0.9905148,0.6929178,0.8066626,0.1259815,0.9924779,0.2762143,0.9202662,-0.2799073,-0.8701048,0.4276578]],[[0.9531829,-0.8954554,0.249204,0.6580265,-0.9002023,0.4839954,0.7609501,0.6960483,0.8799992,-0.5538392,0.07262862,-0.4369193,0.300677,0.003805041,-0.7204659,-0.2477328,0.7971046,-0.1771749,0.09159553,0.3048756,-0.6329403,-0.08480847,-0.9618487,-0.3602122,-0.9497263,-0.2486264,0.9526842,0.4066271,0.7568514,-0.7000661,0.3130314,0.07940924,-0.4250931,0.6384287,0.5435314,0.6070383,0.06612408,0.6797419,0.8076222,0.4779911,-0.3641762,0.07300913,-0.3862787,0.02402437,0.2600166,-0.6962397,0.204384,0.06741703,-0.3889869,0.3566699,0.6546311,0.09409702,-0.05720055,0.3530543,-0.53285,-0.2392064,-0.5328343,0.5768888,0.389605,-0.8067679,0.2629718,0.8628037,0.3595037,0.7714686,0.2372879,0.3279462,-0.4049357,0.8229995,-0.7580674,-0.4879607,0.8902884,0.09916413,0.5423899,0.818033,0.9762812,0.5681372,0.3835332,-0.653003,-0.0848192,0.9002283,0.3021857,0.2699787,0.03182805,-0.5746698,0.2399749,-0.3629602,0.4300618,-0.37984,-0.5372477,-0.7075322,-0.6603072,-0.3338562,-0.02774179,0.9648345,-0.2125715,-0.3719462,-0.2697371,0.1706928,0.00506413,-0.5699782,0.5345738,-0.6414521,0.3230521,0.4175784,0.1779014,-0.175325,-0.8315835,-0.5846853,0.6389883,0.9951756,-0.3665146,0.5964072,-0.4817079,0.5508571,0.418282,0.3413989,0.2363986,0.06707156,0.9857097,-0.4396998,0.6806827,-0.1156319,-0.4150823,0.5343654,0.2764637,-0.4601089,-0.526258,-0.0830158,-0.83548,-0.1757618,-0.5224147,-0.4592928],[0.9211032,0.1161031,-0.4231335,-0.2296149,-0.5340724,0.6707482,-0.3190066,-0.1339725,-0.5372005,0.1320027,-0.9250541,-0.7816145,-0.8280342,0.4754808,-0.6264863,0.8244946,-0.7172573,0.01695383,0.2264632,0.8350794,-0.1308848,0.6533599,0.9511709,-0.4335014,-0.8570089,0.7522697,0.6360385,-0.317432,-0.3875769,0.07891023,0.6281004,-0.6504154,0.1416274,0.6507373,0.06001961,-0.594207,-0.9917948,0.9377804,0.578151,0.2281364,-0.1167763,-0.6301827,0.2298001,0.6604185,-0.4393111,0.5893474,-0.2271885,0.194832,-0.7670605,-0.04035199,-0.4959131,0.2275141,-0.9068255,-0.5608349,-0.8592529,-0.4046553,0.363434,0.3169064,0.7310963,0.00699985,-0.04762208,0.8072457,-0.6090188,-0.6631665,-0.3303808,0.9076777,-0.5263691,0.8449576,-0.3213156,-0.9351063,0.4486055,-0.6098197,0.5448186,0.6848214,0.1578542,0.1892935,-0.5273967,0.727746,-0.7342982,-0.5598118,0.7416427,0.4354725,-0.1692022,0.6823797,-0.826396,-0.331618,-0.02686679,-0.2737209,0.2406033,0.4510946,0.3266959,0.5120652,0.08742964,-0.4266208,0.3696892,-0.5410171,0.1692783,-0.1190072,0.1161455,0.2390269,0.3114431,0.4659295,0.3057267,0.647511,-0.6102033,0.6709485,0.2649479,-0.09350383,0.7151749,-0.01928341,-0.7448893,-0.2992321,0.5696988,-0.7993937,-0.2733678,-0.2850446,-0.1557263,0.2674598,0.5376379,-0.2056729,-0.3529841,0.3545148,-0.05984414,0.08496964,-0.8585522,-0.4875456,-0.5994167,-0.3315569,-0.2213644,-0.7292464,0.4675603,0.6131685,0.0001183748,-0.6090386,-0.7399483,-0.2417771,0.0006126165,0.5171723,0.6697216,-0.3310331,-0.6990559,0.8836565,-0.2443873,-0.7438931],[0.04822671,-0.8448231,0.5227401,0.4888663,0.7664192,0.345155,-0.1915663,0.472898,-0.6364274,-0.6190932,-0.1652483,-0.7397251,-0.7033083,-0.002308249,0.2584264,-0.340762,0.6380923,0.0427233,-0.8444304,-0.8785784,-0.6100922,0.638752,0.03431523,0.1358653,-0.6214256,0.9503176,-0.6385605,-0.2276038,-0.8065388,0.7610552,-0.7658894,0.2546587,0.3711333,-0.6823215,0.8289614,-0.6125937,0.8986597,-0.7223864,0.1467062,0.793252,0.4689369,-0.9145997,-0.704695,0.7558231,0.6884832,0.1130909,-0.3190616,-0.1788863,-0.5774052,-0.8888907,0.9905148,0.6929178,0.8066626,0.1259815,0.9924779,0.2762143,0.9202662,-0.2799073,-0.8701048,0.4276578]],[[0.3974249,-0.8954554,0.249204,0.6580265,-0.9002023,0.4839954,0.7051289,0.6960483,0.8799992,-0.5538392,-0.006776214,-0.4369193,0.300677,0.003805041,-0.7204659,-0.2477328,0.7971046,-0.1771749,0.09159553,-0.07972515,-0.6329403,-0.08480847,-0.9618487,-0.3602122,-0.9497263,-0.2486264,0.9526842,0.4066271,0.7568514,-0.7000661,0.3130314,0.07940924,-0.4250931,0.6384287,0.5435314,0.6070383,0.06612408,0.6797419,0.8076222,0.4779911,-0.3641762,0.07300913,-0.3862787,0.02402437,0.2600166,-0.6962397,0.204384,0.06741703,-0.3889869,0.06102455,0.6546311,0.09409702,-0.04143131,0.3530543,-0.53285,-0.2392064,-0.5328343,0.5768888,0.88974,-0.992537,0.2629718,0.8628037,0.3595037,0.7714686,0.2372879,0.3279462,-0.4049357,0.8229995,0.4911561,-0.9093652,0.8902884,0.09916413,0.5423899,0.818033,0.9762812,0.5681372,0.1624328,-0.653003,-0.0848192,0.9002283,0.3021857,0.2699787,0.03182805,-0.5746698,0.2399749,-0.3629602,0.4300618,-0.37984,-0.5372477,-0.8777354,-0.6603072,-0.3338562,-0.4840463,0.2122563,-0.2125715,-0.3719462,0.02566612,0.1706928,-0.3827442,-0.5699782,-0.5676455,-0.6414521,0.3230521,-0.7743053,-0.07541668,-0.175325,-0.8315835,-0.5846853,0.6389883,0.6577899,-0.3665146,0.5964072,-0.7980819,0.5508571,-0.2636746,0.3413989,0.2363986,0.5702205,0.9857097,-0.4396998,0.6806827,-0.1156319,-0.4150823,0.5343654,0.2764637,-0.4601089,0.1807789,0.9514852,-0.2553719,-0.1757618,-0.5224147,0.9402895],[0.2811002,0.1161031,-0.4231335,-0.2296149,-0.8899295,0.6707482,0.9232321,-0.1339725,-0.5372005,0.777601,-0.9250541,-0.7816145,-0.8280342,0.4754808,-0.6264863,0.8244946,-0.7172573,0.01695383,0.2264632,0.8350794,-0.1392182,0.6533599,0.9511709,-0.4335014,-0.8570089,0.7522697,0.6360385,-0.317432,0.7715881,0.07891023,0.5458877,-0.6504154,0.9122953,0.644537,0.06001961,-0.594207,-0.9917948,0.9377804,0.578151,-0.796314,-0.1167763,-0.6301827,-0.3733639,0.6604185,-0.4393111,0.5893474,-0.2271885,-0.1019949,-0.7670605,-0.04035199,-0.5404806,0.08940065,-0.9068255,-0.5608349,-0.8007495,-0.2965912,0.363434,0.3169064,0.7310963,0.00699985,-0.04762208,0.3358745,-0.6090188,-0.6631665,-0.3303808,0.9076777,-0.5263691,0.8449576,-0.3213156,0.411391,0.4486055,-0.3217584,0.5448186,0.6848214,0.1578542,0.1892935,-0.5273967,0.727746,-0.7342982,-0.5598118,0.7416427,0.9611702,-0.1692022,0.6823797,-0.826396,-0.331618,-0.5097928,-0.2737209,0.2406033,0.4510946,0.3524224,0.5120652,0.08742964,-0.3417739,0.7768047,-0.8376622,0.1692783,-0.7061231,-0.8369977,0.2390269,0.3114431,0.4659295,0.3057267,0.647511,-0.6102033,0.6709485,0.2649479,0.6750858,0.7151749,-0.01928341,-0.7448893,-0.2992321,0.5696988,-0.7993937,0.5620673,-0.2850446,-0.1557263,0.2674598,0.5376379,0.5504158,-0.3529841,0.3545148,-0.05984414,0.5444407,-0.8585522,-0.8431504,-0.8108535,-0.3315569,-0.9567361,-0.7292464,0.4675603,0.6131685,0.0001183748,-0.4071041,-0.7399483,-0.2417771,0.0006126165,0.5171723,0.6697216,-0.3310331,-0.6990559,0.8836565,-0.2443873,-0.7438931],[0.04822671,-0.8448231,0.5227401,0.4888663,0.7664192,0.345155,-0.1915663,0.472898,-0.6364274,-0.6190932,-0.1652483,-0.7397251,-0.7033083,-0.002308249,0.2584264,0.7040246,0.6380923,0.0427233,-0.8444304,-0.2795893,-0.6100922,0.638752,0.03431523,0.1358653,0.005037427,0.9503176,-0.6385605,-0.2276038,-0.8065388,0.7610552,-0.5599082,0.2546587,0.3711333,-0.6823215,0.8289614,-0.6125937,0.8986597,-0.7223864,0.1467062,0.793252,0.7494702,-0.9145997,-0.704695,-0.5565774,0.6884832,0.1130909,-0.3190616,-0.1788863,-0.5774052,-0.8888907,0.9905148,0.6929178,0.8066626,0.1259815,0.9924779,0.2762143,0.9202662,-0.2799073,-0.8701048,-0.4513189]],[[0.9531829,-0.8954554,0.249204,0.6580265,-0.9002023,0.4839954,0.7609501,0.6960483,0.8799992,-0.5538392,0.07262862,-0.4369193,0.300677,0.003805041,-0.7204659,-0.2477328,0.7971046,-0.1771749,0.09159553,0.3048756,-0.6329403,-0.08480847,-0.9618487,-0.3602122,-0.9497263,-0.2486264,-0.7417874,0.4066271,0.7568514,-0.7000661,0.3130314,0.07940924,-0.4250931,0.6384287,0.5435314,0.6070383,0.06612408,0.6797419,0.8076222,0.4779911,-0.1111978,0.07300913,-0.3862787,0.02402437,0.2600166,-0.6962397,0.204384,0.06741703,-0.3889869,0.3566699,0.6546311,0.09409702,-0.05720055,0.3530543,-0.53285,-0.2392064,-0.5328343,0.5768888,0.389605,-0.8067679,0.2629718,0.8628037,0.3595037,0.7714686,0.2372879,0.3279462,-0.4049357,0.8229995,-0.7580674,-0.4879607,0.8902884,0.09916413,0.5423899,0.818033,0.9762812,0.5681372,0.3835332,-0.653003,-0.0848192,0.9002283,0.3021857,0.2699787,0.03182805,-0.5746698,0.2399749,-0.3629602,0.4300618,-0.37984,-0.5372477,-0.7075322,-0.6603072,-0.3338562,-0.02774179,0.9648345,-0.2125715,-0.3719462,0.02566612,0.1706928,0.00506413,-0.5699782,-0.5676455,-0.6414521,0.3230521,-0.0114249,0.1779014,-0.175325,-0.8315835,-0.5846853,0.6389883,0.9951756,-0.3665146,0.5964072,-0.4817079,0.5508571,-0.8637447,0.3413989,0.2363986,0.06707156,0.9857097,-0.4396998,0.6806827,-0.1156319,-0.4150823,0.5343654,0.2764637,-0.4601089,-0.526258,0.9514852,-0.2553719,-0.1757618,-0.5224147,-0.4592928],[0.9211032,0.1161031,-0.4231335,-0.2296149,-0.5340724,0.6707482,-0.3190066,-0.1339725,-0.5372005,0.777601,-0.9250541,-0.7816145,-0.8280342,0.4754808,-0.6264863,0.8244946,-0.7172573,0.01695383,0.2264632,0.8350794,-0.1308848,0.6533599,0.9511709,-0.4335014,-0.8570089,0.7522697,0.6360385,-0.317432,-0.3875769,0.07891023,0.6281004,-0.6504154,0.1416274,0.6507373,0.06001961,-0.594207,-0.9917948,0.9377804,0.578151,0.2281364,-0.1167763,-0.6301827,0.2298001,0.6604185,-0.4393111,0.5893474,-0.2271885,0.194832,-0.7670605,-0.04035199,-0.5404806,0.2275141,-0.9068255,-0.5608349,-0.8592529,-0.4046553,0.363434,0.3169064,0.7310963,-0.8819098,-0.04762208,0.8072457,-0.6090188,-0.6631665,-0.3303808,0.9076777,-0.5263691,0.8449576,-0.3213156,-0.9351063,0.4486055,-0.3217584,0.5448186,0.6848214,0.1578542,0.1892935,-0.5273967,0.727746,-0.7342982,-0.5598118,0.7416427,0.4354725,-0.1692022,0.6823797,-0.826396,-0.331618,-0.02686679,-0.2737209,0.2406033,0.4510946,0.3524224,0.5120652,0.08742964,-0.3417739,0.3696892,-0.5410171,0.1692783,-0.1190072,-0.8369977,0.2390269,0.3114431,0.4659295,0.3057267,0.647511,-0.6102033,0.6709485,0.2649479,-0.09350383,0.7151749,-0.01928341,-0.7448893,-0.2992321,0.5696988,-0.7993937,-0.2733678,-0.2850446,-0.1557263,0.2674598,0.5376379,-0.2056729,-0.3529841,0.3545148,-0.05984414,0.08496964,-0.8585522,-0.8431504,-0.8108535,-0.3315569,-0.9567361,-0.7292464,0.4675603,0.6131685,0.0001183748,-0.6090386,-0.7399483,-0.2417771,0.0006126165,0.5171723,0.6697216,-0.3310331,-0.6990559,0.8836565,-0.2443873,-0.7438931],[0.04822671,-0.8448231,0.5227401,0.4888663,0.7664192,0.345155,-0.1915663,0.472898,-0.6364274,-0.6190932,-0.1652483,-0.7397251,-0.7033083,-0.002308249,0.2584264,-0.340762,0.6380923,0.0427233,-0.8444304,-0.8785784,-0.6100922,0.638752,0.03431523,0.1358653,-0.6214256,0.9503176,-0.6385605,-0.2276038,-0.8065388,0.7610552,-0.7658894,0.2546587,0.3711333,-0.6823215,0.8289614,-0.6125937,0.8986597,-0.7223864,0.1467062,0.793252,0.7494702,-0.9145997,-0.704695,0.7558231,0.6884832,0.1130909,-0.3190616,-0.1788863,-0.5774052,-0.8888907,0.9905148,0.6929178,0.8066626,0.1259815,0.9924779,0.2762143,0.9202662,-0.2799073,-0.8701048,0.4276578]],[[0.9531829,-0.8954554,0.249204,0.6580265,-0.9002023,0.4839954,0.7609501,0.6960483,0.8799992,-0.5538392,0.07262862,-0.4369193,0.300677,0.003805041,-0.7204659,-0.2477328,0.7971046,-0.1771749,0.09159553,0.3048756,-0.6329403,-0.08480847,-0.9618487,-0.3602122,-0.9497263,-0.2486264,0.9526842,0.4066271,0.7568514,-0.8425221,-0.3529402,0.07940924,-0.4250931,0.6384287,0.5435314,0.6070383,0.157348,0.6797419,0.8076222,0.4779911,-0.3641762,0.07300913,-0.3862787,0.02402437,0.2600166,-0.6962397,0.204384,0.06741703,-0.3889869,0.3566699,0.6546311,0.09409702,-0.05720055,0.3530543,-0.53285,-0.2392064,-0.5328343,0.5768888,0.389605,-0.8067679,0.2629718,0.8628037,-0.5428338,0.7714686,0.2372879,0.3279462,0.2282847,0.8229995,-0.7580674,-0.4879607,0.8902884,0.09916413,0.5423899,0.818033,0.3929479,0.5681372,0.3835332,-0.653003,-0.2228254,0.9002283,0.3021857,0.2699787,0.03182805,-0.5746698,0.2399749,-0.3629602,0.4300618,-0.37984,-0.5372477,-0.7075322,-0.6603072,-0.3338562,-0.02774179,0.9648345,-0.2125715,-0.3719462,0.02566612,0.1706928,0.00506413,-0.5699782,-0.5676455,-0.6414521,0.3230521,-0.0114249,0.1779014,-0.175325,-0.8315835,-0.5846853,0.6389883,0.9951756,-0.3665146,0.5964072,-0.4817079,0.5508571,-0.8637447,0.3413989,0.2363986,0.06707156,0.9857097,-0.4396998,0.6806827,-0.1156319,-0.4150823,0.5343654,0.2764637,-0.4601089,-0.526258,0.9514852,-0.2553719,-0.1757618,-0.5224147,-0.4592928],[0.9211032,0.1161031,-0.4231335,-0.2296149,-0.5340724,0.6707482,-0.3190066,-0.1339725,-0.5372005,0.777601,-0.9250541,-0.7816145,-0.8280342,0.4754808,-0.6264863,0.8244946,-0.7172573,0.01695383,0.2264632,0.8350794,-0.1308848,0.6533599,0.9511709,-0.4335014,-0.4621171,0.7522697,0.6360385,-0.317432,-0.3875769,0.07891023,0.6281004,-0.6504154,0.1416274,0.6507373,0.06001961,-0.594207,-0.9917948,0.9377804,0.578151,0.2281364,-0.1167763,-0.6301827,0.2298001,0.6604185,-0.4393111,0.5893474,-0.2271885,0.194832,-0.7670605,-0.04035199,-0.5404806,0.2275141,0.7147162,-0.5608349,-0.8592529,-0.4046553,0.363434,0.3169064,0.7310963,0.00699985,-0.04762208,0.8072457,-0.6090188,-0.6631665,-0.3303808,0.9076777,-0.5263691,0.8449576,-0.3213156,-0.9351063,0.4486055,-0.3217584,0.5448186,0.6848214,0.1578542,0.1892935,-0.5273967,0.727746,-0.7342982,-0.5598118,0.7416427,0.4354725,-0.1692022,0.6823797,-0.826396,-0.331618,-0.02686679,-0.2737209,0.2406033,0.4510946,-0.3238496,0.5120652,0.08742964,-0.3417739,0.3696892,-0.5410171,0.1692783,-0.1190072,-0.8369977,0.2390269,0.3114431,0.4659295,0.3057267,0.3485708,-0.6102033,0.6709485,0.2649479,-0.09350383,0.7151749,-0.01928341,-0.7448893,-0.2992321,0.5696988,-0.7993937,-0.2733678,-0.2850446,-0.1557263,0.2674598,0.5376379,-0.2056729,-0.3529841,0.3545148,-0.05984414,0.08496964,-0.8585522,-0.8431504,-0.8108535,-0.3315569,-0.9567361,-0.7292464,0.4675603,0.6131685,0.0001183748,-0.6090386,-0.7399483,-0.2417771,0.0006126165,0.5171723,0.6697216,-0.3310331,-0.6990559,0.8836565,-0.2443873,-0.7438931],[0.04822671,-0.8448231,0.5227401,0.4888663,0.7664192,0.345155,-0.1915663,0.472898,-0.6364274,-0.6190932,-0.1652483,-0.7397251,-0.7033083,-0.002308249,0.2584264,-0.340762,0.6380923,0.2338551,-0.8444304,-0.8785784,-0.6100922,0.638752,0.03431523,0.1358653,-0.6214256,0.8084469,-0.6385605,-0.2276038,-0.3101107,0.7610552,-0.7658894,0.2546587,0.5828664,-0.6823215,0.8289614,-0.6125937,0.8986597,-0.7223864,0.1467062,0.793252,0.7494702,-0.9145997,-0.704695,0.7558231,0.6884832,0.1130909,-0.3190616,-0.1788863,-0.5774052,-0.8888907,0.9905148,0.6929178,0.8066626,0.1259815,0.9924779,0.2762143,0.9202662,-0.2799073,-0.8701048,0.4276578]],[[0.9531829,-0.8954554,0.249204,0.6580265,-0.9002023,0.4839954,0.7609501,0.6960483,0.8799992,-0.5538392,0.07262862,-0.4369193,0.300677,0.003805041,-0.7204659,-0.2477328,0.7971046,-0.1771749,0.09159553,0.3048756,-0.6329403,-0.08480847,-0.9618487,0.0235132,-0.9497263,-0.2486264,0.4105103,-0.4132494,0.7568514,-0.7000661,0.3130314,0.07940924,-0.4250931,0.6384287,0.5435314,0.6070383,0.06612408,-0.3330411,0.8076222,0.4779911,-0.3641762,0.07300913,-0.3862787,0.02402437,0.2600166,-0.6962397,0.204384,0.06741703,-0.3889869,0.3566699,0.6546311,0.09409702,-0.05720055,0.3530543,-0.53285,-0.2392064,-0.5328343,0.5768888,0.2908654,-0.8067679,0.2629718,0.8628037,0.3595037,0.7714686,0.2372879,0.3279462,-0.4049357,0.8229995,-0.7580674,-0.4879607,0.8902884,0.09916413,0.5423899,0.818033,0.9762812,0.5681372,0.3835332,-0.653003,-0.0848192,0.9002283,0.3021857,0.2699787,0.03182805,-0.5746698,0.2399749,-0.3629602,0.4300618,-0.37984,-0.5372477,-0.7075322,-0.6603072,-0.3338562,-0.02774179,0.9648345,0.07503188,-0.3719462,0.02566612,0.1706928,0.00506413,-0.5699782,-0.5676455,0.288696,0.3230521,-0.0114249,0.1779014,0.8416071,-0.8315835,-0.5846853,0.6389883,0.9951756,-0.3665146,0.5964072,-0.4817079,0.5508571,-0.8637447,0.4676344,0.2363986,0.06707156,0.9857097,-0.4396998,0.6806827,-0.1156319,-0.4150823,0.5343654,0.2764637,-0.4601089,-0.526258,0.9514852,-0.2553719,-0.1757618,-0.5224147,-0.4592928],[0.9211032,0.1161031,-0.4231335,0.2373608,-0.5340724,0.6707482,0.6442235,-0.1339725,-0.5372005,0.777601,-0.9250541,-0.7816145,-0.8280342,0.4754808,-0.6264863,0.8244946,-0.7172573,0.01695383,0.2264632,0.8350794,-0.1308848,0.6533599,0.9511709,-0.4335014,-0.8570089,0.7522697,0.1890773,-0.317432,-0.3875769,-0.08082449,0.6281004,-0.6504154,0.1416274,0.6507373,0.06001961,-0.594207,-0.9917948,0.9377804,0.578151,0.2281364,-0.1167763,-0.6301827,0.2298001,0.6604185,-0.4393111,0.5893474,-0.2271885,0.194832,-0.7670605,-0.04035199,-0.5404806,0.2275141,-0.9068255,-0.5608349,-0.8592529,-0.4046553,0.363434,0.3169064,0.7310963,0.00699985,-0.04762208,0.8072457,-0.6090188,-0.6631665,-0.3303808,0.9076777,-0.5263691,0.8449576,-0.3213156,-0.9351063,0.4486055,-0.3217584,0.5448186,0.6848214,0.1578542,0.1892935,-0.5273967,-0.2435669,-0.7342982,-0.5598118,0.7416427,0.7413054,-0.1692022,0.6823797,-0.826396,-0.331618,-0.02686679,-0.2737209,0.2406033,0.4510946,0.3524224,0.5120652,0.08742964,-0.9935687,0.3696892,-0.5410171,0.1692783,-0.1190072,-0.8369977,0.2390269,0.3114431,0.4659295,0.3057267,0.647511,-0.6102033,0.6709485,0.2649479,-0.09350383,0.7151749,-0.01928341,-0.7448893,-0.2992321,0.5696988,-0.7993937,-0.2733678,-0.2850446,-0.1557263,0.2674598,0.5376379,-0.2056729,-0.3529841,0.7131236,-0.05984414,0.7405081,-0.8585522,-0.8431504,-0.8108535,-0.3315569,-0.9567361,-0.7292464,0.4675603,0.6131685,0.0001183748,-0.6090386,-0.7399483,-0.2417771,0.0006126165,0.5171723,0.6697216,-0.3310331,-0.6990559,0.8836565,-0.2443873,-0.7438931],[0.04822671,-0.8448231,0.5227401,0.2411677,0.7664192,0.345155,-0.1915663,0.472898,-0.6364274,-0.6190932,-0.1652483,-0.7397251,-0.7033083,-0.002308249,0.2584264,-0.340762,0.6380923,0.0427233,-0.8444304,-0.8785784,-0.6100922,0.638752,0.03431523,0.1358653,-0.6214256,0.9503176,-0.6385605,-0.2276038,-0.8065388,0.7610552,-0.7658894,0.2546587,0.3711333,-0.6823215,0.8289614,-0.6125937,0.8986597,-0.7223864,0.1467062,0.793252,0.06422842,-0.9145997,-0.8366978,0.7558231,0.6884832,0.1130909,-0.3190616,-0.1788863,-0.5774052,-0.8888907,0.9905148,0.6929178,0.8066626,0.1259815,0.9924779,0.2762143,0.9202662,-0.2799073,-0.8701048,0.4276578]],[[0.9531829,-0.8954554,0.249204,0.6580265,-0.9002023,0.4839954,0.7609501,0.6960483,0.8799992,-0.5538392,-0.006776214,-0.4369193,0.300677,0.003805041,-0.7204659,-0.2477328,0.7971046,-0.1771749,0.09159553,0.3048756,-0.6329403,-0.08480847,-0.9618487,-0.3602122,-0.9497263,-0.2486264,0.9526842,0.4066271,0.7568514,-0.7000661,0.3130314,0.07940924,-0.4250931,0.6384287,0.5435314,0.6070383,0.06612408,0.6797419,0.8076222,0.4779911,-0.3641762,0.07300913,-0.3862787,0.02402437,0.2600166,-0.6962397,0.204384,0.06741703,-0.3889869,0.06102455,0.6546311,0.09409702,-0.05720055,0.3530543,-0.53285,-0.2392064,-0.5328343,0.5768888,0.389605,-0.8067679,0.2629718,0.8628037,0.3595037,0.7714686,0.2372879,0.3279462,-0.4049357,0.4513292,-0.7580674,-0.4879607,0.8902884,0.09916413,0.5423899,0.818033,0.9762812,0.5681372,0.1624328,-0.653003,-0.0848192,0.9002283,0.3021857,0.2699787,0.03182805,-0.5746698,0.2399749,-0.3629602,0.4300618,-0.37984,-0.5372477,-0.8777354,-0.6603072,-0.3338562,-0.02774179,0.9648345,-0.2125715,-0.3719462,0.02566612,-0.4923922,-0.3827442,-0.5699782,-0.5676455,-0.6414521,0.3230521,-0.0114249,-0.07541668,-0.175325,-0.8315835,-0.5846853,0.6389883,0.9951756,-0.3665146,0.5964072,-0.7980819,0.5508571,-0.2636746,0.3413989,0.2363986,0.5702205,0.9857097,-0.4396998,0.6806827,-0.1156319,-0.4150823,0.5343654,0.2764637,-0.4601089,-0.526258,0.9514852,-0.2553719,-0.1757618,-0.5224147,0.9402895],[0.2811002,0.1161031,-0.4231335,-0.2296149,-0.8899295,0.6707482,0.9232321,-0.1339725,-0.5372005,0.777601,-0.9250541,-0.7816145,-0.8280342,0.4754808,-0.6264863,0.8244946,-0.7172573,0.01695383,0.2264632,0.8350794,-0.1392182,0.6533599,0.9511709,-0.4335014,-0.8570089,0.7522697,0.6360385,-0.317432,-0.3875769,0.07891023,0.6281004,-0.6504154,0.9122953,0.644537,0.06001961,-0.594207,-0.9917948,0.9377804,0.578151,-0.796314,-0.1167763,-0.6301827,-0.3733639,0.6604185,-0.4393111,0.5893474,-0.2271885,-0.3948542,-0.7670605,-0.04035199,-0.5404806,0.2275141,-0.9068255,-0.5608349,-0.8592529,-0.2965912,0.363434,0.3169064,0.7310963,0.00699985,-0.04762208,0.8072457,-0.6090188,-0.6631665,-0.3303808,0.9076777,-0.5263691,0.8449576,-0.3213156,0.411391,0.4486055,-0.3217584,0.5448186,0.6848214,0.1578542,0.1892935,-0.5273967,0.727746,-0.7342982,-0.5598118,0.7416427,0.9611702,-0.1692022,0.6823797,-0.826396,-0.331618,-0.5097928,-0.2737209,0.2406033,0.4510946,0.3524224,0.5120652,0.08742964,-0.3417739,0.7768047,-0.5410171,0.1692783,-0.846498,-0.9934821,0.2390269,0.3114431,0.4659295,0.3057267,0.647511,-0.6102033,0.6709485,0.2649479,-0.09350383,0.7151749,-0.01928341,-0.7448893,-0.2992321,0.5696988,-0.7993937,-0.2733678,-0.2850446,-0.1557263,0.2674598,0.5376379,0.5504158,-0.3529841,0.3545148,-0.05984414,0.08496964,-0.8585522,-0.8431504,-0.8108535,-0.3315569,-0.9567361,-0.7292464,0.4675603,0.6131685,0.0001183748,-0.6090386,-0.7399483,-0.2417771,0.0006126165,0.5171723,0.6697216,-0.3310331,-0.6990559,0.8836565,-0.2443873,-0.7438931],[0.04822671,-0.8448231,0.5227401,0.4888663,0.7664192,0.345155,-0.1915663,0.472898,-0.6364274,-0.6190932,-0.1652483,-0.7397251,-0.7033083,-0.002308249,0.2584264,-0.340762,0.6380923,0.0427233,-0.8444304,-0.2795893,-0.6100922,0.638752,0.03431523,0.1358653,-0.6066551,0.9503176,-0.6385605,-0.2276038,-0.8065388,0.7610552,-0.5599082,0.2546587,0.3711333,-0.6823215,0.8289614,-0.6125937,0.8986597,-0.7223864,0.1467062,0.793252,0.7494702,-0.9145997,-0.704695,-0.4567698,0.6884832,0.1130909,-0.3190616,-0.1788863,-0.5774052,-0.8888907,0.9905148,0.6929178,0.8066626,0.1259815,0.9924779,0.2762143,0.9202662,-0.2799073,-0.8701048,-0.4513189]],[[0.9531829,-0.8954554,0.249204,0.6580265,-0.9002023,0.4839954,0.7609501,0.6960483,0.8799992,-0.5538392,0.07262862,-0.4369193,0.300677,0.003805041,-0.7204659,-0.2477328,0.7971046,-0.1771749,0.09159553,0.3048756,-0.6329403,-0.08480847,-0.9618487,-0.3602122,-0.9497263,-0.2486264,0.9526842,0.4066271,0.7568514,-0.7000661,0.3130314,0.07940924,-0.4250931,0.6384287,0.5435314,0.6070383,0.06612408,0.6797419,0.8076222,0.4779911,-0.3641762,0.07300913,-0.3862787,0.02402437,0.2600166,-0.6962397,0.204384,0.06741703,-0.3889869,0.3566699,0.6546311,0.09409702,-0.05720055,0.3530543,-0.53285,-0.2392064,-0.5328343,0.5768888,0.389605,-0.8067679,0.2629718,0.8628037,0.3595037,0.7714686,0.2372879,0.3279462,-0.4049357,0.8229995,-0.7580674,-0.4879607,0.8902884,0.09916413,0.5423899,0.818033,0.9762812,0.5681372,0.3835332,-0.653003,-0.0848192,0.9002283,0.3021857,0.2699787,0.03182805,-0.5746698,0.2399749,-0.3629602,0.4300618,-0.37984,-0.5372477,-0.7075322,-0.6603072,-0.3338562,-0.02774179,0.9648345,-0.2125715,-0.3719462,0.02566612,0.1706928,0.00506413,-0.5699782,-0.5676455,-0.6414521,0.3230521,-0.0114249,0.1779014,-0.175325,-0.8315835,-0.5846853,0.6389883,0.9951756,-0.3665146,0.5964072,-0.4817079,0.5508571,-0.8637447,0.3413989,0.2363986,0.06707156,0.9857097,-0.4396998,0.6806827,-0.1156319,-0.4150823,0.5343654,0.2764637,-0.4601089,-0.526258,0.9514852,-0.2553719,-0.1757618,-0.5224147,-0.4592928],[0.9211032,0.1161031,-0.4231335,-0.2296149,-0.5340724,0.6707482,-0.3190066,-0.1339725,-0.5372005,0.777601,-0.9250541,-0.7816145,-0.8280342,0.4754808,-0.6264863,0.8244946,-0.7172573,0.01695383,0.2264632,0.8350794,-0.1308848,0.6533599,0.9511709,-0.4335014,-0.8570089,0.7522697,0.6360385,-0.317432,-0.3875769,0.07891023,0.6281004,-0.6504154,0.1416274,0.6507373,0.06001961,-0.594207,-0.9917948,0.9377804,0.578151,0.2281364,-0.1167763,-0.6301827,0.2298001,0.6604185,-0.4393111,0.5893474,-0.2271885,0.194832,-0.7670605,-0.04035199,-0.5404806,0.2275141,-0.9068255,-0.5608349,-0.8592529,-0.4046553,0.363434,0.3169064,0.7310963,0.00699985,-0.04762208,0.8072457,-0.6090188,-0.6631665,-0.3303808,0.9076777,-0.5263691,0.8449576,-0.3213156,-0.9351063,0.4486055,-0.3217584,0.5448186,0.6848214,0.1578542,0.1892935,-0.5273967,0.727746,-0.7342982,-0.5598118,0.7416427,0.4354725,-0.1692022,0.6823797,-0.826396,-0.331618,-0.02686679,-0.9259553,0.2406033,0.4510946,0.3524224,0.5120652,0.08742964,-0.3417739,0.3696892,-0.5410171,0.1692783,-0.1190072,-0.8369977,0.2390269,0.3114431,0.4659295,0.3057267,0.647511,-0.6102033,0.6709485,0.2649479,-0.8029375,0.7151749,-0.01928341,-0.7448893,-0.2992321,0.5696988,-0.7993937,-0.2733678,-0.2850446,-0.1557263,0.2674598,0.5376379,-0.2056729,-0.3529841,0.3545148,-0.05984414,0.08496964,-0.8585522,-0.8431504,-0.8108535,-0.3315569,-0.9567361,-0.7292464,0.4675603,0.6131685,0.0001183748,-0.6090386,-0.7399483,-0.2417771,0.0006126165,0.5171723,0.6697216,-0.3310331,-0.6990559,0.8836565,-0.2443873,-0.7438931],[0.04822671,-0.8448231,0.5227401,0.4888663,0.7664192,0.345155,-0.1915663,0.472898,-0.6364274,-0.6190932,-0.1652483,-0.7397251,-0.7033083,-0.002308249,0.2584264,-0.340762,0.6380923,0.0427233,-0.8444304,-0.8785784,-0.6100922,0.638752,0.03431523,0.1358653,-0.6214256,0.9503176,-0.6385605,-0.2276038,-0.8065388,0.7610552,-0.7658894,0.2546587,0.3711333,-0.6823215,0.8289614,-0.6125937,0.8986597,-0.7223864,0.1467062,0.793252,-0.01448095,-0.9145997,-0.704695,0.7558231,0.6884832,0.1130909,-0.3190616,-0.1788863,-0.5774052,-0.8888907,-0.1373583,0.6929178,0.8066626,0.1259815,0.9924779,0.2762143,0.9202662,-0.2799073,-0.8701048,0.4276578]],[[0.9531829,-0.8954554,0.249204,0.6580265,-0.9002023,0.4839954,0.7609501,0.6960483,0.8799992,-0.5538392,-0.4871072,-0.4369193,0.300677,0.003805041,-0.7204659,-0.2477328,0.7971046,-0.1771749,0.09159553,0.3048756,-0.6329403,-0.08480847,-0.9618487,0.0235132,-0.9497263,-0.2486264,0.4105103,-0.4132494,0.7568514,-0.7000661,0.3130314,0.07940924,-0.4250931,0.6384287,0.5435314,0.6070383,0.06612408,-0.3330411,0.8076222,0.4779911,-0.3641762,0.07300913,-0.3862787,0.02402437,0.2600166,-0.6962397,0.204384,0.06741703,-0.3889869,0.3566699,0.6546311,0.09409702,-0.05720055,0.3530543,-0.53285,-0.2392064,-0.5328343,0.5768888,0.2908654,-0.8067679,0.2629718,0.8628037,0.3595037,0.7714686,0.2372879,0.3279462,-0.4049357,0.8229995,-0.7580674,-0.4879607,0.8902884,0.09916413,0.5423899,0.818033,0.9762812,0.5681372,0.3835332,-0.653003,-0.0848192,0.9002283,0.3021857,0.2699787,0.03182805,-0.5746698,0.2399749,-0.3629602,0.4300618,-0.37984,-0.5372477,-0.7075322,-0.6603072,-0.3338562,-0.02774179,0.9648345,0.07503188,-0.3719462,0.02566612,0.1706928,0.00506413,-0.5699782,-0.5676455,0.288696,0.3230521,-0.0114249,0.1779014,0.8416071,-0.8315835,-0.5846853,0.6389883,0.9951756,-0.3665146,0.450978,-0.4817079,0.5508571,-0.8637447,0.4676344,0.2363986,0.06707156,0.9857097,-0.4396998,0.6806827,-0.1156319,-0.4150823,0.5343654,0.2764637,-0.4601089,-0.526258,0.9514852,-0.2553719,-0.1757618,-0.5224147,-0.4592928],[0.9211032,0.1161031,-0.4231335,0.2373608,-0.5340724,0.6707482,0.6442235,-0.1339725,-0.5372005,0.777601,-0.9250541,-0.7816145,-0.8280342,0.4754808,-0.6264863,0.8244946,-0.7172573,0.01695383,0.2264632,0.6425066,-0.1308848,0.6533599,0.9511709,-0.4335014,-0.8570089,0.7522697,0.1890773,-0.317432,-0.3875769,-0.08082449,0.6281004,-0.6504154,0.1416274,0.6507373,0.06001961,-0.594207,-0.9917948,0.9377804,0.578151,0.2281364,-0.1167763,-0.6301827,0.2298001,0.6604185,-0.4393111,0.5893474,-0.2271885,0.194832,-0.7670605,-0.04035199,-0.5404806,0.2275141,-0.9068255,-0.5608349,-0.8592529,-0.4046553,0.363434,0.3169064,0.7310963,0.00699985,-0.04762208,0.8072457,-0.6090188,-0.6631665,-0.3303808,0.9076777,-0.5263691,0.8449576,-0.3213156,-0.9351063,0.4486055,-0.3217584,0.5448186,0.6848214,0.1578542,0.1892935,-0.5273967,-0.2435669,-0.7342982,-0.5598118,0.7416427,0.7413054,-0.03715098,0.6823797,-0.826396,-0.331618,-0.02686679,-0.2737209,0.2406033,0.4510946,0.3524224,0.5120652,0.08742964,-0.9935687,0.3696892,-0.5410171,0.1692783,-0.1190072,-0.8369977,0.2390269,0.3114431,0.4659295,0.3057267,0.647511,-0.6102033,0.6709485,0.2649479,-0.09350383,0.7151749,-0.01928341,-0.7448893,0.07136643,0.5696988,-0.7993937,-0.2733678,-0.2850446,-0.1557263,0.2674598,0.5376379,-0.2056729,-0.3529841,0.7131236,-0.05984414,0.7405081,-0.8585522,-0.8431504,-0.8108535,-0.3315569,-0.9567361,-0.7292464,0.4675603,0.6131685,0.0001183748,-0.6090386,-0.7399483,-0.366876,0.0006126165,0.5171723,0.6697216,-0.3310331,-0.6990559,0.8836565,-0.2443873,-0.7438931],[0.04822671,-0.8448231,0.5227401,0.2411677,0.7664192,-0.06154668,-0.1915663,0.472898,-0.6364274,-0.6190932,-0.1652483,-0.7397251,-0.7033083,-0.002308249,0.2584264,-0.340762,0.6380923,0.0427233,-0.8444304,-0.8785784,-0.6100922,0.638752,0.03431523,0.1358653,-0.6214256,0.9503176,-0.6385605,-0.2276038,-0.8065388,0.7610552,-0.2867635,0.2546587,0.3711333,-0.6823215,0.8289614,-0.6125937,0.8986597,-0.7223864,0.1467062,0.793252,0.06422842,-0.9145997,-0.8366978,0.7558231,-0.1667348,0.1130909,-0.3190616,-0.1788863,-0.5774052,-0.8888907,0.9905148,0.6929178,0.8066626,0.1259815,0.9924779,0.2762143,0.9202662,-0.2799073,-0.8701048,0.4276578]],[[0.9531829,-0.8954554,0.249204,0.6580265,-0.9002023,0.4839954,0.7609501,0.6960483,0.8799992,-0.5538392,0.07262862,-0.4369193,0.300677,0.003805041,-0.7204659,-0.2477328,0.7971046,-0.1771749,0.09159553,0.3048756,-0.6329403,-0.08480847,-0.9618487,-0.3602122,-0.9497263,-0.2486264,0.7812347,0.4066271,0.7568514,-0.7000661,0.3130314,0.07940924,-0.4250931,0.6384287,0.5435314,0.6070383,0.06612408,0.6797419,0.8076222,0.4779911,-0.3641762,0.07300913,-0.3862787,0.02402437,0.2600166,-0.6962397,0.204384,0.06741703,-0.3889869,0.3566699,0.6546311,0.09409702,-0.05720055,0.3530543,-0.53285,-0.2392064,-0.5328343,0.5768888,0.389605,-0.8067679,0.2629718,0.8628037,0.3595037,0.7714686,0.2372879,0.3279462,-0.4049357,0.8229995,-0.7580674,-0.4879607,0.8902884,0.09916413,0.5423899,0.818033,0.9762812,0.5681372,0.3835332,-0.653003,-0.0848192,0.9002283,0.3021857,0.2699787,0.03182805,-0.5746698,0.2399749,-0.3629602,0.4300618,-0.37984,-0.5372477,-0.7075322,-0.6603072,-0.3338562,-0.02774179,0.9648345,-0.2125715,-0.3719462,0.02566612,0.1706928,0.00506413,-0.5699782,-0.5676455,-0.6414521,0.3230521,-0.0114249,-0.9542148,-0.175325,-0.8315835,-0.5846853,0.6389883,0.9951756,-0.3665146,0.5964072,-0.4817079,0.5508571,-0.8637447,0.3413989,0.2363986,0.06707156,0.9857097,-0.4396998,0.6806827,-0.1156319,-0.4150823,0.5343654,0.2764637,-0.4601089,-0.526258,0.9514852,-0.2553719,-0.1757618,-0.5224147,-0.4592928],[0.9211032,0.1161031,-0.4231335,-0.2296149,-0.5340724,0.6707482,-0.3190066,-0.1339725,-0.5372005,0.777601,-0.9250541,-0.7816145,-0.8280342,0.4754808,-0.6264863,0.8244946,-0.7172573,0.01695383,0.2264632,0.8350794,-0.1308848,0.6533599,0.9511709,-0.4335014,-0.8570089,0.7522697,0.6360385,-0.317432,-0.3875769,0.07891023,0.6281004,-0.6504154,0.1416274,0.6507373,0.06001961,-0.594207,-0.9917948,0.9377804,0.578151,0.2281364,-0.1167763,-0.6301827,0.2298001,0.6604185,-0.4393111,0.5893474,-0.2271885,0.194832,-0.7670605,-0.04035199,-0.5404806,0.2275141,-0.8833246,-0.5608349,-0.8592529,-0.4046553,0.363434,0.3169064,0.7310963,0.00699985,-0.04762208,0.8072457,-0.6090188,-0.6631665,-0.3303808,0.9076777,-0.5263691,0.8449576,-0.3213156,-0.9351063,0.4486055,-0.3217584,0.5448186,0.6848214,0.1578542,0.1892935,-0.5273967,0.727746,-0.7342982,-0.5598118,0.7416427,0.4354725,-0.1692022,0.6823797,-0.826396,-0.331618,-0.02686679,-0.2737209,0.2406033,0.4510946,0.3524224,0.5120652,0.08742964,-0.3417739,0.3696892,-0.5410171,0.1692783,-0.1190072,-0.8369977,0.2390269,0.3114431,0.4659295,0.3057267,0.647511,-0.6102033,0.6709485,0.2649479,-0.09350383,0.7151749,-0.01928341,-0.7448893,-0.1642133,0.5696988,-0.7993937,-0.2733678,-0.2850446,-0.1557263,0.2674598,0.5376379,-0.2056729,-0.3529841,0.3545148,-0.05984414,0.08496964,-0.8585522,-0.8431504,-0.8108535,-0.3767382,-0.9567361,-0.7292464,0.4675603,0.6131685,0.0001183748,-0.6090386,-0.7399483,-0.2417771,0.0006126165,0.5171723,0.6697216,-0.3310331,-0.6990559,0.8836565,-0.2443873,-0.7438931],[0.04822671,-0.8448231,0.5227401,0.4888663,0.7664192,0.345155,-0.1915663,0.472898,-0.6364274,-0.6190932,-0.1652483,-0.7397251,-0.7033083,-0.002308249,0.2584264,-0.340762,0.6380923,0.0427233,-0.8444304,-0.8785784,-0.6100922,0.638752,0.03431523,0.1358653,-0.6214256,0.9503176,-0.6385605,-0.2276038,-0.8065388,0.7610552,-0.7658894,0.2546587,0.3711333,-0.6823215,0.8289614,-0.6125937,0.8986597,-0.7223864,0.1467062,0.793252,0.7494702,-0.9145997,-0.704695,0.7558231,0.6884832,0.1130909,-0.3190616,-0.1788863,-0.5774052,-0.8888907,0.9905148,0.7914536,0.8066626,0.1259815,0.9924779,0.2762143,0.9202662,-0.2799073,-0.8701048,0.4276578]],[[0.9531829,-0.8954554,0.7451007,0.6580265,-0.9002023,0.4839954,0.7609501,0.6960483,0.8799992,-0.5538392,0.07262862,-0.4369193,0.300677,0.003805041,-0.7204659,-0.2477328,0.7971046,-0.1771749,0.09159553,0.3048756,-0.6329403,-0.08480847,-0.9618487,-0.3602122,-0.9497263,-0.2486264,0.7812347,0.4066271,0.7568514,-0.7000661,0.3130314,0.07940924,-0.4250931,0.6384287,0.5435314,0.6070383,0.06612408,0.6797419,0.8076222,0.4779911,-0.3641762,0.07300913,-0.3862787,0.02402437,0.2600166,-0.6962397,0.204384,0.06741703,-0.3889869,0.3566699,0.6546311,0.09409702,-0.05720055,0.3530543,-0.53285,-0.2392064,-0.5328343,0.5768888,0.389605,-0.8067679,0.2629718,0.8628037,0.3595037,0.7714686,0.2372879,0.3279462,-0.4049357,0.8229995,-0.7580674,-0.4879607,0.8902884,0.09916413,0.5423899,0.818033,0.9762812,0.5681372,0.3835332,-0.653003,-0.0848192,0.9002283,0.3021857,0.2699787,0.03182805,-0.5746698,0.2399749,-0.3629602,0.4300618,-0.37984,-0.5372477,-0.7075322,-0.6603072,-0.3338562,-0.02774179,0.9648345,0.1942302,-0.3719462,0.02566612,0.1706928,0.00506413,-0.5699782,-0.5676455,0.09048688,0.3230521,-0.0114249,-0.9542148,-0.175325,-0.8315835,-0.5846853,0.6389883,0.9951756,-0.3665146,0.5964072,-0.4817079,0.5508571,-0.8637447,0.3413989,0.2363986,0.06707156,0.9857097,-0.4396998,0.6806827,-0.1156319,-0.4150823,0.5343654,0.2764637,-0.4601089,-0.526258,0.9514852,-0.2553719,-0.1757618,-0.5224147,-0.4592928],[0.9211032,0.1161031,-0.4231335,-0.2296149,-0.5340724,0.6707482,-0.3190066,-0.1339725,-0.5372005,0.777601,-0.9250541,-0.7816145,-0.8280342,0.4754808,-0.6264863,0.8244946,-0.7172573,0.01695383,0.2264632,0.8350794,-0.1308848,0.6533599,0.9511709,-0.4335014,-0.8570089,0.7522697,0.6360385,-0.317432,-0.3875769,0.07891023,0.6281004,-0.6504154,0.1416274,0.6507373,0.06001961,-0.594207,-0.9917948,0.9377804,0.578151,0.2281364,-0.1167763,-0.6301827,0.2298001,0.6604185,-0.4393111,0.5893474,-0.2271885,0.194832,-0.7670605,-0.04035199,-0.5404806,0.2275141,-0.8833246,-0.5608349,-0.8592529,-0.4046553,0.363434,0.3169064,0.7310963,0.00699985,-0.04762208,0.8072457,-0.6090188,-0.6631665,-0.164539,0.9076777,-0.5263691,0.8449576,-0.3213156,-0.9351063,0.4486055,-0.3217584,0.5448186,0.6848214,0.1578542,0.1892935,-0.5273967,0.727746,-0.7342982,-0.5598118,0.7416427,0.7742305,-0.1692022,0.6823797,-0.826396,-0.331618,-0.02686679,-0.2737209,0.2406033,0.4510946,0.3524224,0.5120652,0.08742964,-0.3417739,0.3696892,-0.5410171,0.1692783,-0.1190072,-0.8369977,0.2390269,0.3114431,0.4659295,0.3057267,0.647511,-0.6102033,0.6709485,0.2649479,-0.09350383,0.7151749,-0.01928341,-0.7448893,-0.1642133,0.5696988,-0.7993937,-0.2733678,-0.2850446,-0.1557263,0.2674598,0.5376379,0.0489279,-0.3529841,0.3545148,-0.05984414,0.08496964,-0.8585522,-0.8431504,-0.8108535,-0.3767382,-0.9567361,-0.7292464,0.4675603,0.6131685,0.0001183748,-0.6090386,-0.7399483,-0.2417771,0.0006126165,0.5171723,0.6697216,-0.3310331,-0.6990559,0.8836565,-0.2443873,-0.7438931],[0.04822671,-0.8448231,0.5227401,0.4888663,0.7664192,0.345155,-0.1915663,0.472898,-0.6364274,-0.6190932,-0.1652483,-0.7397251,-0.7033083,-0.002308249,0.2584264,-0.340762,0.6380923,0.0427233,-0.8444304,-0.8785784,-0.6100922,0.638752,0.03431523,0.1358653,-0.6214256,0.9503176,-0.6385605,-0.2276038,-0.8065388,0.7610552,-0.7658894,0.2546587,0.3711333,-0.6823215,0.8289614,-0.6125937,0.8986597,-0.7223864,0.1467062,0.793252,0.7494702,-0.9145997,-0.704695,0.7558231,0.6884832,0.1130909,-0.3190616,-0.1788863,-0.5774052,-0.8888907,0.9905148,0.7914536,0.8066626,0.1259815,0.9924779,0.2762143,0.9202662,-0.2799073,-0.8701048,0.4276578]],[[0.9531829,-0.8954554,0.7451007,0.6580265,-0.9002023,0.4839954,0.7609501,0.6960483,0.8799992,-0.5538392,0.07262862,-0.4369193,0.300677,0.003805041,-0.7204659,-0.2477328,0.7971046,-0.1771749,0.09159553,0.3048756,-0.6329403,-0.08480847,-0.9618487,-0.3602122,-0.9497263,-0.2486264,0.7812347,0.4066271,0.7568514,-0.7000661,0.3130314,0.07940924,-0.4250931,0.6384287,0.5435314,0.6070383,0.06612408,0.6797419,0.8076222,0.4779911,-0.3641762,0.07300913,-0.3862787,0.02402437,0.2600166,-0.6962397,0.204384,0.06741703,-0.3889869,0.3566699,0.6546311,0.09409702,-0.05720055,0.3530543,-0.53285,-0.2392064,-0.5328343,0.5768888,0.389605,-0.8067679,0.2629718,0.8628037,0.3595037,0.7714686,0.2372879,0.3279462,-0.4049357,0.8229995,-0.7580674,-0.4879607,0.8902884,0.09916413,0.5423899,0.818033,0.9762812,0.5681372,0.3835332,-0.653003,-0.0848192,0.9002283,0.3021857,0.2699787,0.03182805,-0.5746698,0.2399749,-0.3629602,0.4300618,-0.37984,-0.5372477,-0.7075322,-0.6603072,-0.3338562,-0.02774179,0.9648345,0.1942302,-0.3719462,0.02566612,0.1706928,0.00506413,-0.5699782,-0.5676455,0.09048688,0.3230521,-0.0114249,-0.9542148,-0.175325,-0.8315835,-0.5846853,0.6389883,0.9951756,-0.3665146,0.5964072,-0.4817079,0.5508571,-0.8637447,0.3413989,0.2363986,0.06707156,0.9857097,-0.4396998,0.6806827,-0.1156319,-0.4150823,0.5343654,0.2764637,-0.4601089,-0.526258,0.9514852,-0.2553719,-0.1757618,-0.5224147,-0.4592928],[0.9211032,0.1161031,-0.4231335,-0.2296149,-0.5340724,0.6707482,-0.3190066,-0.1339725,-0.5372005,0.777601,-0.9250541,-0.7816145,-0.8280342,0.4754808,-0.6264863,0.8244946,-0.7172573,0.01695383,0.2264632,0.8350794,-0.1308848,0.6533599,0.9511709,-0.4335014,-0.8570089,0.7522697,0.6360385,-0.317432,-0.3875769,0.07891023,0.6281004,-0.6504154,0.1416274,0.6507373,0.06001961,-0.594207,-0.9917948,0.9377804,0.578151,0.2281364,-0.1167763,-0.6301827,0.2298001,0.6604185,-0.4393111,0.5893474,-0.2271885,0.194832,-0.7670605,-0.04035199,-0.5404806,0.2275141,-0.8833246,-0.5608349,-0.8592529,-0.4046553,0.363434,0.3169064,0.7310963,0.00699985,-0.04762208,0.8072457,-0.6090188,-0.6631665,-0.164539,0.9076777,-0.5263691,0.8449576,-0.3213156,-0.9351063,0.4486055,-0.3217584,0.5448186,0.6848214,0.1578542,0.1892935,-0.5273967,0.727746,-0.7342982,-0.5598118,0.7416427,0.7742305,-0.1692022,0.6823797,-0.826396,-0.331618,-0.02686679,-0.2737209,0.2406033,0.4510946,0.3524224,0.5120652,0.08742964,-0.3417739,0.3696892,-0.5410171,0.1692783,-0.1190072,-0.8369977,0.2390269,0.3114431,0.4659295,0.3057267,0.647511,-0.6102033,0.6709485,0.2649479,-0.09350383,0.7151749,-0.01928341,-0.7448893,-0.1642133,0.5696988,-0.7993937,-0.2733678,-0.2850446,-0.1557263,0.2674598,0.5376379,0.0489279,-0.3529841,0.3545148,-0.05984414,0.08496964,-0.8585522,-0.8431504,-0.8108535,-0.3767382,-0.9567361,-0.7292464,0.4675603,0.6131685,0.0001183748,-0.6090386,-0.7399483,-0.2417771,0.0006126165,0.5171723,0.6697216,-0.3310331,-0.6990559,0.8836565,-0.2443873,-0.7438931],[0.04822671,-0.8448231,0.5227401,0.4888663,0.7664192,0.345155,-0.1915663,0.472898,-0.6364274,-0.6190932,-0.1652483,-0.7397251,-0.7033083,-0.002308249,0.2584264,-0.340762,0.6380923,0.0427233,-0.8444304,-0.8785784,-0.6100922,0.638752,0.03431523,0.1358653,-0.6214256,0.9503176,-0.6385605,-0.2276038,-0.8065388,0.7610552,-0.7658894,0.2546587,0.3711333,-0.6823215,0.8289614,-0.6125937,0.8986597,-0.7223864,0.1467062,0.793252,0.7494702,-0.9145997,-0.704695,0.7558231,0.6884832,0.1130909,-0.3190616,-0.1788863,-0.5774052,-0.8888907,0.9905148,0.7914536,0.8066626,0.1259815,0.9924779,0.2762143,0.9202662,-0.2799073,-0.8701048,0.4276578]],[[0.9531829,-0.8954554,0.7451007,0.6580265,-0.9002023,0.4839954,0.7609501,0.6960483,0.8799992,-0.5538392,0.07262862,-0.4369193,0.300677,0.003805041,-0.7204659,-0.2477328,0.7971046,-0.1771749,0.09159553,0.3048756,-0.6329403,-0.08480847,-0.9618487,-0.3602122,-0.9497263,-0.2486264,0.7812347,0.4066271,0.7568514,-0.7000661,0.3130314,0.07940924,-0.4250931,0.6384287,0.5435314,0.6070383,0.06612408,0.6797419,0.8076222,0.4779911,-0.3641762,0.07300913,-0.3862787,0.02402437,0.2600166,-0.6962397,0.204384,0.06741703,-0.9080153,0.3566699,0.6546311,0.09409702,-0.05720055,0.3530543,-0.53285,-0.2392064,-0.5328343,0.5768888,0.389605,-0.8067679,0.2629718,0.8628037,0.3595037,0.7714686,0.2372879,0.3279462,-0.4049357,0.8229995,-0.7580674,-0.4879607,0.8902884,0.09916413,0.5423899,0.818033,0.9762812,0.5681372,0.3835332,-0.653003,-0.0848192,0.9002283,0.3021857,0.2699787,0.03182805,-0.5746698,0.2399749,-0.3629602,0.4300618,-0.37984,-0.5372477,-0.7075322,-0.6603072,-0.3338562,-0.02774179,0.9648345,0.1942302,-0.3719462,0.02566612,0.1706928,0.00506413,-0.5699782,-0.5676455,-0.5147386,0.3230521,-0.0114249,-0.9542148,-0.175325,-0.8315835,-0.5846853,0.6389883,0.9951756,-0.3665146,0.5964072,-0.4817079,0.5508571,-0.8637447,0.3413989,0.2363986,0.06707156,0.9857097,-0.4396998,0.6806827,-0.1156319,-0.4150823,0.5343654,0.2764637,-0.4601089,-0.526258,0.9514852,-0.2553719,-0.1757618,-0.5224147,-0.4592928],[0.9211032,0.1161031,-0.4231335,-0.2296149,-0.5340724,0.6707482,-0.3190066,-0.1339725,-0.5372005,0.777601,-0.9250541,-0.7816145,-0.8280342,0.4754808,-0.6264863,0.8244946,-0.7172573,0.01695383,0.2264632,0.8350794,-0.1308848,0.6533599,0.9511709,-0.4335014,-0.8570089,0.7522697,0.6360385,-0.317432,-0.3875769,0.07891023,0.6281004,-0.6504154,0.1416274,0.6507373,0.06001961,-0.594207,-0.9917948,0.9377804,0.578151,0.2281364,-0.1167763,-0.6301827,0.2298001,0.6604185,-0.4393111,0.5893474,-0.2271885,0.194832,-0.7670605,-0.04035199,-0.5404806,0.2275141,-0.8833246,-0.5608349,-0.8592529,-0.4046553,0.363434,0.3169064,0.7310963,0.00699985,-0.04762208,0.8072457,-0.6090188,-0.6631665,-0.164539,0.9076777,-0.5263691,0.8449576,-0.3213156,-0.9351063,0.4486055,-0.3217584,0.5448186,0.6848214,0.1578542,0.1892935,-0.5273967,0.727746,-0.7342982,-0.5598118,0.7416427,0.7742305,-0.1692022,0.6823797,-0.826396,-0.331618,-0.02686679,-0.2737209,0.2406033,0.4510946,0.3524224,0.5120652,0.08742964,-0.3417739,0.3696892,-0.5410171,0.1692783,-0.1190072,-0.8369977,0.2390269,0.3114431,0.4659295,0.3057267,0.647511,-0.6102033,0.6709485,0.2649479,-0.09350383,0.7151749,-0.01928341,-0.7448893,-0.1642133,0.5696988,-0.7993937,-0.2733678,-0.2850446,-0.1557263,0.2674598,0.5376379,0.0489279,-0.3529841,0.3545148,-0.05984414,0.08496964,-0.8585522,-0.8431504,-0.8108535,-0.3767382,-0.9567361,-0.7292464,0.4675603,0.6131685,0.0001183748,-0.6090386,-0.7399483,-0.2417771,0.0006126165,0.5171723,0.6697216,-0.3310331,-0.6990559,0.8836565,-0.2443873,-0.7438931],[0.04822671,-0.8448231,0.5227401,0.4888663,0.7664192,0.345155,-0.1915663,0.472898,-0.6364274,-0.8964326,-0.1652483,-0.7397251,-0.7033083,-0.002308249,0.2584264,-0.340762,0.6380923,0.0427233,-0.8444304,-0.8785784,-0.6100922,0.638752,0.03431523,0.1358653,-0.6214256,0.9503176,-0.6385605,-0.2276038,-0.8065388,0.7610552,-0.7658894,0.2546587,0.3711333,-0.6823215,0.8289614,-0.6125937,0.8986597,-0.7223864,0.1467062,0.793252,0.7494702,-0.9145997,-0.704695,0.7558231,0.6884832,0.1130909,-0.3190616,-0.1788863,-0.5774052,-0.8888907,0.9905148,0.7914536,0.8066626,0.1259815,0.9924779,0.2762143,0.9202662,-0.2799073,-0.8701048,0.4276578]],[[0.9531829,-0.8954554,0.249204,0.6580265,-0.9002023,0.4839954,0.7609501,0.6960483,0.8799992,-0.5538392,0.07262862,-0.4369193,0.300677,0.003805041,-0.7204659,-0.2477328,0.7971046,-0.1771749,0.09159553,0.3048756,-0.6329403,-0.08480847,-0.9618487,-0.3602122,-0.9497263,-0.2486264,0.9526842,0.4066271,0.7568514,-0.7000661,0.3130314,0.07940924,-0.4250931,0.6384287,0.5435314,0.6070383,0.06612408,0.6797419,0.8076222,0.4779911,-0.3641762,0.07300913,-0.3862787,0.02402437,0.2600166,-0.6962397,0.204384,0.06741703,-0.3889869,0.3566699,0.6546311,0.09409702,-0.05720055,0.3530543,-0.53285,-0.2392064,-0.5328343,0.5768888,0.389605,-0.8067679,0.2629718,0.8628037,0.3595037,0.7714686,0.2372879,0.3279462,-0.4049357,0.8229995,-0.7580674,-0.4879607,0.8902884,0.09916413,0.5423899,0.818033,0.9762812,0.5681372,0.3835332,-0.653003,-0.0848192,0.9002283,0.3021857,0.2699787,0.03182805,-0.5746698,0.2399749,-0.3629602,0.4300618,-0.37984,-0.5372477,-0.7075322,-0.6603072,-0.3338562,-0.02774179,0.9648345,-0.2125715,-0.3719462,0.02566612,0.1706928,0.00506413,-0.5699782,-0.5676455,-0.6414521,0.3230521,-0.0114249,0.1779014,-0.175325,-0.8315835,-0.5846853,0.6389883,0.9951756,-0.3665146,0.5964072,-0.4817079,0.5508571,-0.8637447,0.3413989,0.2363986,0.06707156,0.9857097,-0.4396998,0.6806827,-0.1156319,-0.4150823,0.5343654,0.2764637,-0.4601089,-0.526258,0.9514852,-0.2553719,-0.1757618,-0.5224147,-0.4592928],[0.9211032,0.1161031,-0.4231335,-0.2296149,-0.5340724,0.6707482,-0.3190066,-0.1339725,-0.5372005,0.777601,-0.9250541,-0.7816145,-0.8280342,0.4754808,-0.6264863,0.8244946,-0.7172573,0.01695383,0.2264632,0.8350794,-0.1308848,0.6533599,0.9511709,-0.4335014,-0.8570089,0.7522697,0.6360385,-0.317432,-0.3875769,0.07891023,0.6281004,-0.6504154,0.1416274,0.6507373,0.06001961,-0.594207,-0.9917948,0.9377804,0.578151,0.2281364,-0.1167763,-0.6301827,0.2298001,0.6604185,-0.4393111,0.5893474,-0.2271885,0.194832,-0.7670605,-0.04035199,-0.5404806,0.2275141,-0.9068255,-0.5608349,-0.8592529,-0.4046553,0.363434,0.3169064,0.7310963,0.00699985,-0.04762208,0.8072457,-0.6090188,-0.6631665,-0.3303808,0.9076777,-0.5263691,0.8449576,-0.3213156,-0.9351063,0.4486055,-0.3217584,0.5448186,0.6848214,0.1578542,0.1892935,-0.5273967,0.727746,-0.7342982,-0.5598118,0.7416427,0.4354725,-0.1692022,0.6823797,-0.826396,-0.331618,-0.02686679,-0.2737209,0.2406033,0.4510946,0.3524224,0.5120652,0.08742964,-0.3417739,0.8076825,-0.5410171,0.1692783,-0.1190072,-0.8369977,0.2390269,0.3114431,0.4659295,0.3057267,0.647511,-0.6102033,0.6709485,0.2649479,-0.09350383,0.7151749,-0.01928341,-0.7448893,-0.2992321,0.5696988,-0.7993937,-0.2733678,-0.2850446,-0.1557263,0.2674598,0.5376379,-0.2056729,-0.3529841,0.3545148,-0.05984414,0.08496964,-0.8585522,-0.8431504,-0.8108535,-0.3315569,-0.9567361,-0.7292464,0.4675603,0.6131685,0.0001183748,-0.6090386,-0.7399483,0.8437159,0.0006126165,0.5171723,0.6697216,-0.3310331,-0.6990559,0.8836565,-0.2443873,-0.7438931],[0.04822671,-0.8448231,0.5227401,0.4888663,0.7664192,0.345155,-0.1915663,0.472898,-0.6364274,-0.6190932,-0.1652483,-0.7397251,-0.7033083,-0.002308249,0.4552893,0.5358803,0.6380923,0.0427233,-0.8444304,-0.8785784,-0.6100922,0.638752,0.03431523,0.1358653,-0.6214256,0.9503176,-0.6385605,-0.2276038,-0.8065388,0.7610552,-0.7658894,0.2546587,0.3711333,-0.6823215,0.8289614,-0.6125937,0.8986597,-0.7223864,0.1467062,0.793252,0.7494702,-0.9145997,-0.704695,0.7558231,0.6884832,0.1130909,-0.3190616,-0.1788863,-0.5774052,-0.8888907,0.9905148,0.6929178,0.8066626,0.1259815,0.9924779,0.2762143,0.9202662,-0.2799073,-0.8701048,0.4276578]],[[0.9531829,-0.8954554,0.249204,0.6580265,-0.9002023,0.4839954,0.7609501,0.6960483,0.8799992,-0.5538392,0.07262862,-0.4369193,0.300677,0.003805041,-0.7204659,-0.2477328,0.7971046,-0.1771749,0.09159553,0.3048756,-0.6329403,-0.08480847,-0.9618487,-0.3602122,-0.9497263,-0.2486264,0.9526842,0.4066271,0.7568514,-0.7000661,0.3130314,0.07940924,-0.4250931,0.6384287,0.5435314,0.6070383,0.06612408,0.6797419,0.8076222,0.4779911,-0.3641762,0.07300913,-0.3862787,0.02402437,0.2600166,-0.6962397,0.204384,0.06741703,-0.3889869,0.3566699,0.447046,0.09409702,-0.05720055,0.3530543,-0.53285,-0.2392064,-0.5328343,0.5768888,0.389605,-0.8067679,0.2629718,0.8628037,0.3595037,0.7714686,0.2372879,0.3279462,-0.4049357,0.8229995,-0.7580674,-0.4879607,0.8902884,0.09916413,0.5423899,0.818033,0.9762812,0.5681372,0.3835332,-0.653003,-0.0848192,0.9002283,0.3021857,0.2699787,0.03182805,-0.5746698,0.2399749,-0.3629602,0.4300618,-0.37984,-0.5372477,-0.7075322,-0.6603072,-0.3338562,-0.02774179,0.9648345,-0.2125715,-0.3719462,0.02566612,0.1706928,0.00506413,-0.5699782,-0.5676455,-0.6414521,0.3230521,-0.0114249,0.1779014,-0.175325,-0.8315835,-0.5846853,0.6389883,0.9951756,-0.3665146,0.5964072,-0.4817079,0.5508571,-0.8637447,0.3413989,0.2363986,0.06707156,0.9857097,-0.1863753,0.6806827,-0.1156319,-0.4150823,0.5343654,0.2764637,-0.4601089,-0.526258,0.9514852,-0.2553719,-0.1757618,-0.5224147,-0.4592928],[0.9211032,0.1161031,-0.4231335,-0.2296149,-0.5340724,0.6707482,-0.3190066,-0.1339725,-0.5372005,0.777601,-0.9250541,-0.7816145,-0.8280342,0.4754808,-0.6264863,0.8244946,-0.7172573,0.01695383,0.2264632,0.5243869,-0.1308848,0.6533599,0.9511709,-0.4335014,-0.8570089,0.7522697,0.6360385,-0.317432,-0.3875769,0.07891023,0.6281004,-0.6504154,0.1416274,0.6507373,0.06001961,-0.594207,-0.9917948,0.9377804,0.578151,0.2281364,-0.1167763,-0.6301827,0.2298001,0.6604185,-0.4393111,0.5893474,-0.2271885,0.194832,-0.7670605,-0.04035199,-0.5404806,0.2275141,-0.9068255,-0.5608349,-0.8592529,-0.4046553,0.363434,0.3169064,0.7310963,0.00699985,-0.04762208,0.8072457,-0.6090188,-0.6631665,-0.3303808,0.9076777,-0.5263691,0.8449576,-0.3213156,-0.9351063,0.4486055,-0.3217584,0.5448186,0.6848214,0.1578542,0.1892935,-0.5273967,0.727746,-0.7342982,-0.5598118,0.7416427,0.4354725,-0.1692022,0.6823797,-0.826396,-0.331618,-0.02686679,-0.2737209,0.2406033,0.4510946,0.3524224,0.5120652,0.08742964,-0.3417739,0.3696892,-0.5410171,0.1692783,-0.1190072,-0.8369977,0.2390269,0.3114431,0.4659295,0.3057267,0.647511,-0.6102033,0.6709485,0.2649479,-0.09350383,0.7151749,-0.01928341,-0.7448893,-0.2992321,0.5696988,-0.7993937,-0.2733678,-0.2850446,-0.1557263,0.2674598,0.5376379,-0.2056729,-0.3529841,0.3545148,-0.05984414,0.08496964,-0.5245433,-0.8431504,-0.8108535,-0.3315569,-0.9567361,-0.7292464,0.4675603,0.6131685,0.0001183748,-0.6090386,-0.7399483,-0.2417771,0.0006126165,0.5171723,0.6697216,-0.3310331,-0.6990559,0.8836565,-0.2443873,-0.7438931],[0.04822671,-0.8448231,0.5227401,0.4888663,0.7664192,0.345155,-0.1915663,0.472898,-0.6364274,-0.6190932,-0.1652483,-0.7397251,-0.7033083,-0.002308249,0.2584264,-0.340762,0.6380923,0.0427233,-0.8444304,-0.8785784,-0.6100922,0.638752,0.03431523,0.1358653,-0.6214256,0.9503176,-0.6385605,-0.2276038,-0.8065388,0.7610552,-0.7658894,0.2546587,0.3711333,-0.6823215,0.8289614,-0.6125937,0.8986597,-0.7223864,0.1467062,0.793252,0.7494702,-0.9145997,-0.704695,0.7558231,0.1708223,0.1130909,-0.3190616,-0.1788863,-0.5774052,-0.8888907,0.9905148,0.6929178,0.8066626,0.1259815,0.9924779,0.2762143,0.9202662,-0.2799073,-0.8701048,0.4276578]],[[0.9531829,-0.8954554,0.249204,0.6580265,-0.9002023,0.4839954,0.7609501,0.6960483,0.8799992,-0.5538392,0.07262862,-0.4369193,0.300677,0.003805041,-0.7204659,-0.2477328,0.7971046,-0.1771749,0.09159553,0.3048756,-0.6329403,0.5736601,-0.9618487,-0.3602122,-0.9497263,-0.2486264,0.9526842,0.4066271,0.7568514,-0.7000661,0.3130314,0.07940924,-0.4250931,0.6384287,0.5435314,0.6070383,0.06612408,0.6797419,0.8076222,0.4779911,-0.3641762,0.07300913,-0.3862787,0.02402437,-0.5830483,-0.6962397,0.204384,0.06741703,-0.3889869,0.06102455,0.6546311,0.09409702,-0.05720055,0.04828107,-0.53285,-0.2392064,-0.5328343,0.5768888,0.389605,-0.8067679,0.2629718,0.8628037,0.3595037,0.7714686,0.2372879,0.3279462,-0.4049357,0.8229995,-0.7580674,-0.4879607,0.8902884,0.09916413,0.5423899,0.818033,0.9762812,0.5681372,0.1624328,-0.653003,-0.0848192,0.9002283,0.3021857,0.2699787,0.03182805,-0.5746698,0.2399749,-0.3629602,0.4300618,-0.37984,-0.5372477,-0.8777354,-0.6603072,-0.3338562,-0.02774179,0.9648345,-0.2125715,-0.3719462,0.02566612,0.1706928,-0.1208152,-0.5699782,-0.07217729,-0.6414521,0.3230521,-0.003642678,0.1779014,-0.175325,-0.8315835,-0.5846853,0.6389883,0.9951756,-0.3665146,0.5964072,-0.4817079,0.5508571,-0.8637447,0.3413989,0.2363986,0.06707156,0.9857097,-0.4396998,0.6806827,-0.1156319,-0.4150823,0.5343654,0.2764637,-0.4601089,-0.526258,0.9514852,-0.2553719,-0.1757618,-0.5224147,0.9402895],[0.9211032,0.1161031,-0.4231335,-0.2296149,-0.5340724,0.6707482,0.5132799,-0.1339725,-0.5372005,0.777601,-0.9250541,-0.7816145,-0.8280342,0.4754808,-0.6264863,0.8244946,-0.7172573,0.01695383,-0.207734,0.8350794,-0.1308848,0.6533599,0.9511709,-0.4335014,-0.8570089,0.7522697,0.4321117,-0.317432,-0.3875769,0.07891023,0.6281004,-0.6504154,0.9122953,0.644537,0.06001961,-0.594207,-0.9917948,0.9697456,0.578151,-0.796314,-0.1167763,-0.6301827,0.2298001,0.6604185,-0.4393111,-0.5964799,-0.2271885,0.194832,-0.7670605,-0.04035199,-0.5404806,0.2275141,-0.9068255,-0.5608349,-0.8592529,-0.4046553,0.363434,0.3169064,0.7310963,0.00699985,-0.04762208,0.8072457,-0.6090188,-0.6631665,-0.3303808,0.9076777,-0.5263691,0.8449576,-0.3213156,0.411391,0.4486055,-0.3217584,0.5448186,0.8655074,0.1578542,0.1892935,-0.5273967,0.727746,-0.5836761,-0.5598118,0.7416427,0.9611702,-0.1692022,0.91082,-0.826396,-0.331618,-0.5097928,-0.2737209,0.2406033,0.4510946,0.3524224,0.5120652,0.08742964,-0.3417739,0.7768047,-0.5410171,0.1692783,-0.516027,-0.8369977,0.2390269,0.3114431,0.4659295,0.3057267,0.647511,-0.6102033,0.6709485,0.2649479,-0.09350383,0.7151749,-0.01928341,-0.7448893,-0.2992321,0.5696988,-0.7993937,-0.2733678,-0.2850446,-0.1557263,0.2674598,0.5376379,0.5504158,-0.3529841,0.3545148,-0.05984414,0.08496964,-0.8585522,-0.8431504,-0.8108535,-0.3315569,-0.9567361,-0.7292464,0.4675603,0.6131685,0.0001183748,-0.6090386,-0.7399483,-0.2417771,0.0006126165,0.5171723,0.6697216,-0.3310331,-0.6990559,0.8836565,-0.2443873,-0.7438931],[0.04822671,-0.8448231,0.5227401,0.4888663,0.7664192,0.345155,-0.1915663,0.472898,-0.6364274,-0.6190932,-0.1652483,-0.7397251,-0.7033083,-0.002308249,0.2584264,-0.340762,0.6380923,0.0427233,-0.8444304,-0.8785784,0.473727,0.638752,0.03431523,0.5294688,-0.6214256,0.9503176,-0.6385605,-0.2276038,-0.8065388,0.7610552,-0.7658894,0.2546587,0.3711333,-0.6823215,0.8289614,-0.6125937,0.8986597,-0.7223864,0.1467062,0.793252,0.7494702,-0.9145997,-0.704695,-0.4567698,0.6884832,0.1130909,-0.3190616,-0.1788863,-0.5774052,-0.8888907,0.9905148,0.6929178,0.8066626,0.1259815,0.1709813,0.2762143,0.7277768,-0.2799073,-0.8701048,0.4276578]],[[0.9531829,-0.8954554,0.249204,0.6580265,-0.9002023,0.4839954,0.7609501,0.6960483,0.8799992,-0.5538392,0.07262862,-0.4369193,0.300677,0.003805041,-0.7204659,-0.2477328,0.7971046,-0.1771749,0.09159553,0.3048756,-0.6329403,-0.08480847,-0.9618487,-0.3602122,-0.9497263,-0.2486264,0.9526842,0.4066271,0.7568514,-0.7000661,0.3130314,0.07940924,-0.4250931,0.6384287,0.5435314,0.6070383,0.06612408,0.6797419,0.8076222,0.4779911,-0.3641762,0.07300913,-0.3862787,0.02402437,0.2600166,-0.6962397,0.204384,0.06741703,-0.3889869,0.3566699,0.6546311,0.09409702,-0.05720055,0.3530543,-0.53285,-0.2392064,-0.5328343,0.5768888,0.389605,-0.8067679,0.2629718,0.8628037,0.3595037,0.7714686,0.2372879,0.3279462,-0.4049357,0.8229995,-0.7580674,-0.4879607,-0.2722853,0.09916413,0.5423899,0.818033,0.9762812,0.5681372,0.3835332,-0.653003,-0.0848192,0.9002283,0.3021857,0.2699787,0.03182805,-0.5746698,0.2399749,-0.3629602,0.4300618,-0.37984,-0.5372477,-0.7075322,-0.6603072,-0.3338562,-0.02774179,0.9648345,-0.2125715,-0.3719462,0.02566612,0.1706928,0.00506413,-0.5699782,-0.5676455,-0.6414521,0.3230521,-0.0114249,0.1779014,-0.175325,-0.8315835,-0.5846853,0.6389883,0.9951756,-0.3665146,0.5964072,-0.4817079,0.5508571,-0.8637447,0.3413989,0.2363986,0.06707156,0.9857097,-0.4396998,0.6806827,-0.1156319,-0.4150823,0.6073463,0.2764637,-0.4601089,-0.526258,0.9514852,-0.2553719,-0.1757618,-0.5224147,-0.4592928],[0.9211032,0.1161031,-0.4231335,-0.2296149,-0.5340724,0.6707482,-0.3190066,-0.1339725,-0.5372005,0.777601,-0.9250541,-0.7816145,-0.8280342,0.4754808,-0.6264863,0.8244946,-0.7172573,0.01695383,0.2264632,0.8350794,-0.1308848,0.6533599,0.9511709,-0.4335014,-0.8570089,0.7522697,0.6360385,-0.317432,-0.3875769,0.07891023,0.6281004,-0.6504154,0.1416274,0.6507373,0.06001961,-0.594207,-0.9917948,0.9377804,0.578151,0.2281364,-0.1167763,-0.6301827,0.2298001,0.6604185,-0.4393111,0.5893474,-0.2271885,0.194832,-0.7670605,-0.2618424,-0.5404806,0.2275141,-0.9068255,-0.5608349,-0.8592529,-0.4046553,0.363434,0.3169064,0.7310963,0.00699985,-0.04762208,0.8072457,-0.6090188,-0.6631665,-0.3303808,0.9076777,-0.5263691,0.8449576,-0.4108397,-0.9351063,0.4486055,-0.3217584,0.5448186,0.6848214,0.1578542,0.1892935,-0.5273967,0.727746,-0.7342982,-0.5598118,0.7416427,0.4354725,-0.1692022,0.6823797,-0.826396,-0.331618,-0.02686679,-0.2737209,0.2406033,0.4510946,0.3524224,0.5120652,0.08742964,-0.3417739,0.3696892,-0.5410171,0.1692783,-0.1190072,-0.8369977,0.2390269,0.3114431,0.4659295,0.3057267,0.647511,-0.6102033,0.6709485,0.2649479,-0.09350383,0.7151749,-0.01928341,-0.7448893,-0.2992321,0.5696988,-0.7993937,-0.2733678,-0.2850446,-0.1557263,0.2674598,0.5376379,-0.2056729,-0.3529841,0.3545148,-0.05984414,0.08496964,-0.8585522,-0.8431504,-0.8108535,-0.3315569,-0.9567361,-0.7292464,0.4675603,0.6131685,0.0001183748,-0.6090386,-0.7399483,-0.2417771,0.0006126165,0.5171723,0.6697216,-0.3310331,-0.6990559,0.8836565,-0.2443873,-0.7438931],[0.04822671,-0.8448231,0.5227401,0.4888663,0.7664192,0.345155,-0.1915663,0.472898,-0.6364274,-0.466735,-0.1652483,-0.7397251,-0.7033083,-0.002308249,0.2584264,-0.340762,0.6380923,0.0427233,-0.8444304,-0.8785784,-0.6100922,0.638752,0.03431523,0.1358653,-0.6214256,0.9503176,-0.6385605,-0.2276038,-0.8065388,0.7610552,-0.7658894,0.2546587,0.3711333,-0.6823215,0.8289614,-0.6125937,0.8986597,-0.7223864,0.1467062,0.793252,0.7494702,-0.9145997,-0.704695,0.7558231,0.6884832,0.1130909,-0.3190616,-0.1788863,-0.5774052,-0.8888907,0.9905148,0.6929178,0.8066626,0.1259815,0.9924779,0.2762143,0.9202662,-0.2799073,-0.8701048,0.4276578]],[[0.9531829,-0.8954554,0.249204,0.6580265,-0.9002023,0.4839954,0.7609501,0.6960483,0.8799992,-0.5538392,0.07262862,0.103639,0.300677,0.003805041,-0.7204659,-0.2477328,0.7971046,-0.1771749,0.09159553,0.3048756,-0.6329403,-0.08480847,-0.9618487,-0.3602122,-0.9497263,-0.2486264,0.9526842,0.4066271,0.7568514,-0.9356241,0.3130314,0.07940924,-0.4250931,0.6384287,0.5435314,0.6070383,0.06612408,0.6797419,0.8076222,0.4779911,-0.3641762,0.07300913,-0.3862787,0.02402437,0.2600166,-0.6962397,0.204384,0.06741703,-0.3889869,0.3566699,0.6546311,0.09409702,-0.05720055,0.3530543,-0.53285,-0.2392064,-0.5328343,0.5768888,0.389605,-0.8067679,0.2629718,0.8628037,0.3595037,0.7714686,0.2372879,0.3279462,-0.4049357,0.8229995,-0.7580674,-0.4879607,0.8902884,0.09916413,0.5423899,0.818033,0.9762812,0.5681372,0.3835332,-0.653003,-0.0848192,0.9002283,0.3021857,0.2699787,0.03182805,-0.5746698,0.2399749,-0.3629602,0.4300618,-0.37984,-0.5372477,-0.7075322,-0.6603072,-0.3338562,-0.02774179,0.9648345,-0.2125715,-0.3719462,0.02566612,0.1706928,0.00506413,-0.5699782,-0.5676455,-0.6414521,0.3230521,-0.0114249,0.1779014,-0.1032962,-0.8315835,-0.5846853,0.6389883,0.9951756,-0.3665146,0.5964072,-0.4817079,0.5508571,-0.8637447,0.3413989,0.2363986,0.06707156,0.9857097,-0.4396998,0.6806827,-0.1156319,-0.4150823,0.5343654,0.2764637,-0.4601089,-0.526258,0.9514852,-0.2553719,-0.1757618,-0.5224147,-0.4592928],[0.9211032,0.1161031,-0.4231335,-0.2296149,-0.5340724,0.6707482,-0.3190066,-0.1339725,-0.5372005,0.777601,-0.9250541,-0.7816145,-0.8280342,0.4754808,-0.6264863,0.8244946,-0.7172573,0.01695383,0.2264632,0.8350794,-0.1308848,0.6533599,0.9511709,-0.4335014,-0.8570089,0.7522697,0.6360385,-0.317432,-0.6234834,0.07891023,0.6281004,-0.6504154,0.1416274,0.6507373,0.06001961,-0.594207,-0.9917948,0.9377804,0.578151,0.2281364,-0.1167763,-0.6301827,0.2298001,0.6604185,-0.4393111,0.5893474,-0.2271885,0.194832,-0.7670605,-0.04035199,-0.5404806,0.2275141,-0.9068255,-0.5608349,-0.8592529,-0.4046553,0.363434,0.3169064,0.7310963,0.00699985,-0.04762208,0.8072457,-0.6090188,-0.6631665,-0.3303808,0.9076777,-0.5263691,0.8449576,-0.3213156,-0.9351063,0.4486055,-0.3217584,0.5448186,0.6848214,0.1578542,0.1892935,-0.5273967,0.727746,-0.7342982,-0.5598118,0.7416427,0.4354725,-0.1692022,0.6823797,-0.826396,-0.331618,-0.02686679,-0.2737209,0.2406033,0.4510946,0.3524224,0.5120652,0.08742964,-0.3417739,0.3696892,-0.3119489,0.1692783,-0.1190072,-0.8369977,0.2390269,0.3114431,0.4659295,0.3057267,0.647511,-0.6102033,0.6709485,0.2649479,-0.09350383,0.7151749,-0.01928341,-0.7448893,0.71683,0.5696988,-0.7993937,-0.2733678,-0.2850446,-0.1557263,0.2674598,0.5376379,-0.2056729,-0.3529841,0.3545148,-0.05984414,0.08496964,-0.8585522,-0.8431504,-0.8108535,-0.3315569,-0.9567361,-0.7292464,0.4675603,0.6131685,0.0001183748,-0.6090386,-0.7399483,-0.2417771,0.0006126165,0.5171723,0.6697216,-0.3310331,-0.6990559,0.8836565,-0.2443873,-0.7438931],[0.04822671,-0.8448231,0.5227401,0.4888663,0.7664192,0.345155,-0.1915663,0.472898,-0.6364274,-0.6190932,-0.1652483,-0.7397251,-0.7033083,-0.002308249,0.2584264,-0.340762,0.6380923,0.0427233,-0.8444304,-0.04350317,-0.6100922,0.638752,0.03431523,0.1358653,-0.6214256,0.9503176,-0.6385605,-0.2276038,-0.8065388,0.7610552,-0.7658894,0.2546587,0.3711333,-0.6823215,0.8289614,-0.6125937,0.8986597,-0.7223864,0.1467062,0.793252,0.7494702,-0.9145997,-0.704695,0.7558231,0.6884832,0.1130909,-0.3190616,-0.1788863,-0.5774052,-0.8888907,0.9905148,0.6929178,0.7921147,0.1259815,0.9924779,0.2762143,0.9202662,-0.2799073,-0.8701048,0.4276578]],[[0.9531829,-0.8954554,0.249204,0.6580265,-0.9002023,0.4839954,0.7609501,0.6960483,0.3095777,-0.5538392,0.07262862,-0.4369193,0.300677,0.003805041,-0.7204659,-0.2477328,0.7971046,-0.1771749,0.09159553,0.3048756,-0.6329403,-0.08480847,-0.9618487,-0.3602122,-0.9497263,-0.2486264,0.9526842,0.4066271,0.7568514,-0.7000661,0.3130314,0.07940924,-0.4250931,0.6384287,0.5435314,0.6070383,0.06612408,0.6797419,0.8076222,0.4779911,-0.3641762,0.07300913,-0.3862787,0.02402437,0.2600166,-0.6962397,0.204384,0.06741703,-0.3889869,0.3566699,0.6546311,0.09409702,-0.05720055,0.3530543,-0.53285,-0.2392064,-0.5328343,0.5768888,0.389605,-0.8067679,0.2629718,0.8628037,0.3595037,0.7714686,0.2372879,0.3279462,-0.4049357,0.8229995,-0.7580674,-0.4879607,0.8902884,0.09916413,0.5423899,0.818033,0.9762812,0.5681372,0.3835332,-0.653003,-0.0848192,