[[[-0.502974,0.5381026,0.9588113,-0.2223068,-0.1585957,-0.336228,0.843709,-0.6970944,0.2701101,-0.5665379,-0.5884495,0.4963305,-0.2615379,0.4744839,0.8662462,0.4748635,0.5266423,0.4342611,0.7399125,0.8453615,-0.3058885,0.6224949,0.8981183,0.3274576,0.4808473,0.265243,0.7587278,0.609658,0.8473828,-0.09138834,0.5119939,-0.367051,0.995297,-0.05389249,-0.03111756,-0.8462627,-0.3265094,0.5149465,-0.9606106,0.004491687,-0.6029105,-0.01147377,-0.371348,0.755589,-0.5827687,0.6465189,0.8608658,-0.4302045,-0.1714581,-0.03085577,0.8717885,0.8516848,0.8082876,0.09402311,0.5303662,-0.5137832,-0.8085632,0.1782197,-0.2450427,-0.3856691,0.9237409,0.0005124807,0.9006853,-0.6426296,0.7232692,-0.7815197,0.9935715,-0.8751557,-0.5429106,-0.6660638,-0.1188141,0.6166153,-0.006824374,-0.873594,0.2367848,-0.9541464,-0.3852836,0.682451,-0.762888,-0.6316364,0.4181893,-0.6434567,-0.8942962,0.367032,0.7750897,-0.3979925,-0.8421059,0.3088114,0.1321906,-0.6999292,0.4053812,-0.3370904,-0.5067568,0.5073969,-0.1209027,0.329674,-0.6886024,0.3774101,0.3405177,-0.4628948,0.3008272,-0.9768395,0.9758799,-0.9374139,0.7973287,-0.3192724,0.9254601,-0.8675528,-0.3937961,-0.4192497,-0.3936332,-0.1586543,-0.3276964,-0.2207547,-0.1342739,0.008408666,0.9241567,-0.3418442,-0.4224478,0.6606684,-0.7555721,0.8930316,0.03481448,0.8411701,0.4281146,-0.805747,0.9357183,0.5725503,-0.1096767,0.418523,0.854543,0.1720678,-0.9388726,-0.2017304,0.05410302,-0.992712,-0.2219664,0.7352171,0.1248387,-0.2824107,0.5646877,0.6624038,0.3671167,-0.8114996,-0.8210797,0.1136929,-0.5212228,-0.45252,0.1112193,-0.4882773,-0.02196348,-0.2631,-0.2464148,-0.7052813,-0.01384556,0.877804,0.7189045,0.9902339,0.7992153,-0.4200507,0.441688,-0.1966258,-0.4276191,0.1318718,0.4960274,0.1081306,0.9512544,0.5307407,0.1441125,0.5112407,0.5772519,0.8033683,0.9733109,-0.2966911,0.5955758,-0.6896033,-0.8454313,0.5915897,0.2430376,0.6400311,0.9069135,0.9308436,-0.3387297,0.5354807,0.7975273,-0.2737912,0.3843052,-0.8034408,-0.9803071,-0.7519419,-0.5569942,-0.8817215],[0.5465021,-0.5937655,-0.1739396,-0.1520356,0.1734656,0.2871499,0.5564935,-0.6299696,0.4493744,0.7130399,0.9855616,0.1718107,0.4930427,-0.728812,0.213601,-0.2192189,-0.3475617,-0.7428951,-0.268067,0.2540013,-0.7762876,0.9197743,0.8740346,0.2283574,-0.4352852,-0.01085579,-0.2231032,0.04389799,-0.3495551,0.4473164,-0.5530078,0.472538,-0.00495708,-0.09402931,-0.7482467,-0.07048643,-0.1824073,0.9713838,-0.9136372,-0.8820219,0.123974,0.8243148,-0.9733188,0.6084659,-0.2006649,-0.2965707,-0.7621484,0.3583517,0.3325312,-0.09140646,-0.7971814,-0.4305531,0.3866565,-0.3804137,0.03702343,-0.6634293,0.1525577,-0.3589445,0.8104742,-0.5855682,0.7662096,-0.4080867,0.4963522,0.7432568,-0.332055,-0.5833876,0.2542545,-0.506875,-0.1789638,-0.8781481,0.9820659,0.2157291,0.3263759,-0.02040613,0.2988269,0.6007731,-0.5163481,0.1114866,-0.2768511,-0.2057563,-0.5433137,0.9074993,-0.2786013,-0.8751965,-0.5727262,-0.5518315,-0.2998024,0.9080467,-0.4504939,-0.3494936,-0.452166,-0.6656649,-0.9702373,0.9423738,-0.8338223,-0.7725229,0.09053409,-0.892693,0.1208123,0.9638097,-0.8110061,0.208377,-0.1879038,0.1122595,-0.5901949,0.1387676,-0.8688078,0.4134178,-0.9236379,0.6994519,0.4871738,0.02899277,0.3009851,0.04665029,-0.5052164,0.7870529,0.335716,0.831804,-0.1171216,-0.2538964,0.2878861,-0.789433,-0.5234458,-0.1751651,-0.4876164,0.7670023,-0.1022826,-0.435867,-0.3579034,-0.8225346,-0.5134809,0.8016374,-0.6512539,-0.1238714,0.6357403,0.004445434,0.3636877,0.8756073,-0.1167425,-0.9156573,0.6798532,-0.2696172,-0.7896061,0.3101456,-0.4441286,-0.3002492,0.8012683,-0.9781175,0.4907646,0.9902546,0.6984372,0.9581938,0.3407509,0.3038573,-0.5516276,0.6292207,-0.30835,0.09167564,-0.4070138,-0.002411723,-0.7443807,0.4487538,0.8689888,-0.6823771,-0.5625613,0.5902736,0.3092725,0.8274212,-0.1559659,0.3321447,0.960557,-0.5469551,-0.9865916,0.7589443,-0.8389776,-0.7373788,0.2603457,-0.999686,0.2532172,-0.08020604,-0.1806453,-0.02450383,0.03961909,0.08926475,0.09503615,0.1647178,0.6319861,0.4172332,0.4891762,-0.8563988,-0.9372611,0.5464737,-0.2598895,-0.03132212,-0.4345034,-0.5698972,0.121971,-0.6100142,0.698035,0.7954314,-0.8377285,-0.5227156,0.1940323,0.6237853,0.6609826,-0.004380107,0.8122258,0.6772072,-0.791944,-0.3438281,0.6036093,-0.7924671,0.6931126,-0.4103907,0.009808183,0.5997386,0.4629693,0.1721081,0.9359355,-0.4284433,-0.8094938,0.02999437,0.5417027,0.4630501,0.399462,-0.1315702,-0.8195627,-0.8971632,-0.03124654,0.130253,-0.399356,-0.300408,-0.5855367,-0.06789315,-0.1644038,0.8872974,-0.03986037,-0.994293,-0.9296408,0.6508715,0.4297824,0.9647117,0.7658334,-0.5234892,0.9030437,-0.472561,0.6868856,0.7307599,-0.4525884,0.6647987,-0.06536138,-0.2907718,-0.6282086,0.6667101,-0.2318522,-0.9918687],[0.09372222,0.5230141,-0.06853092,-0.03298843,-0.8445683,-0.5573692,-0.9285791,0.8105607,-0.6666808,0.05811965,-0.2422239,0.1426448,-0.2336067,-0.3132676,-0.9930463,0.502676,-0.738009,0.1712486,-0.6882217,0.3796875,-0.05463731,-0.1267368,0.8711767,-0.6991229,-0.9539707,-0.1651605,-0.3902699,-0.3538853,-0.7880678,0.4881303,-0.03628004,0.3049066,0.08520687,0.7149363,0.3841178,-0.8292706,0.4415986,0.2642977,-0.9999862,0.2313699,-0.4928111,-0.9840505,-0.8851976,0.5504377,0.7357504,0.7211454,-0.2208403,0.5112052]],[[-0.01360214,-0.1335865,0.3006842,-0.7891788,-0.660043,0.9156659,0.8408916,0.5704398,0.8758423,0.7433383,0.8977919,-0.9738703,0.8868091,0.7169063,-0.7807527,-0.6842117,-0.1205753,0.02526987,-0.08701599,-0.5096853,0.1045274,-0.9745219,0.3232085,0.6616802,0.7448747,0.6939113,0.999927,-0.2077783,-0.1613556,-0.7697461,-0.1212295,-0.4817106,0.8051248,0.4385528,0.06040394,-0.8244393,0.5889521,-0.3426632,-0.3487641,-0.5081148,0.9959457,-0.2113863,-0.3003138,0.4148707,0.7599599,-0.1003832,-0.09343398,-0.6200321,-0.8596354,-0.4088756,-0.1540278,-0.394488,-0.8036687,-0.6465416,-0.9220979,-0.4274207,-0.9429758,-0.8232229,-0.5062308,0.5193446,-0.1645058,0.885648,-0.1137315,-0.3652908,-0.845206,0.9057908,0.7245443,0.0321542,-0.3037962,0.1724056,0.4009247,0.8762393,0.609776,0.2424496,0.6836269,-0.7201192,0.4560384,0.2123338,0.08584702,-0.7689221,0.01610982,-0.2969264,-0.3433417,-0.6353168,-0.9272072,0.07426155,0.2242266,0.7107761,0.4628114,0.9225819,0.4698219,0.5888379,-0.8895087,-0.1012987,0.9486477,-0.6916945,-0.2582105,0.7640531,0.0567373,0.9753759,-0.4809519,0.561588,0.237902,-0.3097292,0.8409355,-0.2001103,-0.5879867,-0.6870897,0.2537918,0.1886729,0.5369041,-0.004154563,0.9430256,-0.7627099,-0.571584,0.9353931,-0.257147,-0.5020216,-0.294602,0.1277181,-0.5714943,-0.5724144,-0.7408171,0.7239623,0.8011496,-0.7660151,0.8589041,0.2011513,0.9225297,-0.3379124,-0.6425996,-0.9782417,0.04792058,0.5183883,-0.7009871,-0.1940414,-0.9239173,-0.6441619,-0.7839422,-0.759896,-0.2632524,0.2520406,0.3010456,-0.4986492,0.8792391,0.05097687,0.3803091,-0.3229426,-0.6038122,-0.5869353,-0.5297456,-0.9436421,-0.4428009,0.5642676,0.3748972,-0.5742016,-0.9112885,0.7437835,0.3171467,-0.4475354,-0.4909703,0.1807798,0.6789968,0.3656225,0.3884499,-0.4740037,0.01440942,-0.3556329,0.2910189,-0.8190792,-0.102199,-0.3298243,-0.1580011,-0.2977735,-0.7644496,0.9800055,-0.5308027,-0.7981648,-0.9301698,0.2994802,0.3703081,-0.7667482,-0.7407708,-0.5577033,0.4476969,0.9046252,-0.01621783,0.3276884,-0.06669176,-0.7570174,-0.2009948,0.04705989],[-0.2296025,-0.9671855,-0.3886181,-0.5264096,-0.03353941,0.4923989,0.9063501,-0.2148184,-0.7566519,-0.3837262,-0.663609,-0.75547,-0.7729645,-0.5484447,0.4648261,0.8223207,0.2192746,0.07117283,-0.4109293,0.1691209,-0.9530034,-0.9305041,0.01230395,-0.9722569,-0.5512574,-0.6609073,0.4817488,-0.1100041,0.1968123,-0.05920088,-0.480354,-0.2148632,-0.1449343,0.1794986,-0.5769842,-0.1393803,-0.9695585,0.8990035,0.4700219,0.5034244,-0.4787,0.3015818,0.9937942,0.2550718,0.06305778,0.9393055,0.5029728,0.6313107,0.334903,-0.1445063,0.7535052,-0.9576972,0.3522615,0.8152978,0.1927651,0.2646808,-0.1888479,0.0852319,-0.6365237,-0.05776012,0.1419591,0.9694409,-0.5585575,-0.9048097,-0.8564854,-0.3042382,0.1719147,-0.6256146,-0.6881342,0.4769599,-0.8602695,-0.347262,0.382179,0.1968514,-0.5748823,0.06670725,-0.1449865,0.6958745,0.6494377,-0.9478106,0.6453228,0.411278,-0.1068844,0.3167371,0.07353723,-0.5444584,0.5094287,-0.4930288,0.5625758,-0.009866357,-0.6073472,-0.9171066,0.004620433,-0.9128335,-0.07173812,-0.2615789,0.2812941,-0.2387365,0.2738132,-0.2156519,-0.2320682,0.03340733,-0.1967891,0.08453739,0.07091296,-0.5446925,-0.8412707,0.9867115,-0.5610085,-0.09128058,0.806792,0.6468227,-0.722887,0.4277022,0.05088723,0.9943154,-0.629734,0.1798331,0.0300945,0.7938502,0.8268805,-0.2000421,-0.703192,0.3848145,-0.8640728,0.8536298,0.1893708,0.3207409,0.9128158,-0.6595027,-0.2300128,0.03938162,-0.2137231,0.2256037,0.02996337,-0.2693187,0.4193706,-0.5044324,0.9003861,0.02656662,0.3381126,-0.3415447,-0.1517333,-0.06892622,0.9523335,0.4899451,0.6326497,-0.7535596,-0.1421422,0.4326088,0.4059853,-0.2593158,0.5038338,-0.8780997,0.3112247,0.8585813,0.660114,0.80813,0.9782026,-0.9690299,0.5501702,-0.5847871,-0.6822145,-0.7867744,0.6048629,0.1551615,-0.5803864,0.05794704,-0.6583223,0.8254313,-0.8391101,0.5898423,-0.1726874,-0.07499897,0.8077142,-0.1901547,0.8440292,-0.3250448,0.2087561,-0.5856588,0.04449928,0.607491,0.9850743,-0.856056,-0.9387424,0.2800281,-0.227228,-0.1498436,-0.9465635,0.185377,0.3189785,-0.4018308,-0.09475553,0.3854878,0.5927637,-0.3286947,0.8812146,-0.4939102,-0.1382264,0.8447156,0.9647648,-0.9871309,0.8750815,0.2818098,0.8767693,0.5717182,-0.2610739,0.9922888,0.3971293,0.2826016,-0.5984795,-0.6483121,0.6392293,0.8241029,0.6799874,0.9365005,0.1905535,0.05175173,0.7471459,-0.5417905,-0.5541327,-0.7911696,0.03272665,-0.7942383,0.04397285,-0.5513585,0.8231962,0.9111233,-0.9094992,0.3764207,-0.8232167,0.9490848,-0.5300267,0.3559377,-0.2458342,-0.9992044,-0.1110016,-0.1062278,-0.5643301,0.5516846,-0.485221,-0.2433082,-0.364539,0.9236996,0.005097747,-0.3984536,-0.07001865,-0.590616,-0.4435836,-0.6281655,0.5681312,-0.2077876,-0.782685,0.1384269,-0.7573862,-0.9709373],[0.673424,0.04260576,-0.001165271,0.1250378,-0.7863901,-0.8531761,0.6258247,-0.161467,-0.01538527,0.8008978,-0.307175,0.6665041,0.5226662,-0.04521978,-0.3246976,-0.7151306,-0.7607291,0.2393581,-0.2089659,-0.1453584,0.9035676,0.492146,0.8058951,-0.4060665,-0.1645979,-0.818032,-0.9057045,-0.9344261,0.5792179,0.07766259,-0.8717892,-0.02464807,-0.7470808,0.4399733,0.2642362,-0.04590476,0.3738515,0.5140779,-0.7353263,0.5946307,-0.004850984,-0.590678,-0.7491314,-0.5018489,-0.6739817,0.7630899,-0.1646875,0.6044312]],[[-0.9216704,0.9049373,0.806663,0.1375765,-0.7721648,0.6426859,-0.3117646,-0.4999415,0.374552,-0.5121195,0.5236692,-0.4990202,-0.1771053,-0.7617261,0.3754024,-0.08943975,-0.03257883,-0.5125742,-0.2428242,-0.2927493,-0.7728362,-0.6593435,-0.06683528,0.03274238,-0.5765116,-0.3100053,0.3944049,0.3240096,0.01706374,-0.8882365,-0.05006468,0.5210924,-0.9745681,-0.004322171,-0.804981,0.7830634,-0.01163256,0.7567768,0.2631523,-0.5860937,0.3805327,0.6016603,0.1767257,0.9502878,0.2527458,0.4224667,-0.4655181,0.5164936,-0.4462315,0.881623,-0.2456576,0.1105081,0.5357149,0.6678629,0.9265757,0.7115502,-0.3706712,-0.7903187,-0.1839648,0.2553525,0.3508813,-0.7885735,-0.5696566,0.5271811,-0.2715958,-0.7693336,0.764818,-0.7905428,0.5353727,-0.3293175,0.2851832,0.6077037,0.3375451,0.1814884,-0.6559908,0.9025373,-0.9080546,0.9806664,0.8281384,0.9133794,-0.594085,-0.7703533,0.6325727,-0.2165219,-0.7414892,-0.258881,-0.3977448,0.5815449,-0.9695287,-0.3716179,0.7422109,-0.1058282,0.42384,-0.8543446,-0.465762,0.1648983,0.9288042,0.3819732,0.3791332,-0.5243342,0.692138,-0.9831231,0.07340062,-0.9897726,0.8631291,0.3768787,-0.2544171,0.0739435,0.7509973,-0.9594197,0.35536,-0.9852781,-0.2230326,0.9769905,-0.1696063,-0.3210565,-0.8348749,0.5131443,0.5256481,-0.3118037,-0.9318061,-0.8586617,-0.8618858,-0.32205,0.9152369,-0.3080982,0.490036,0.6995795,-0.06538284,0.3603217,-0.1155728,-0.1505524,0.1567756,0.09648502,-0.4388622,0.1595196,0.2939863,-0.458634,-0.04925311,0.2739081,0.4499769,0.4151134,-0.4300414,-0.4419874,0.1103035,0.8201237,-0.5479128,0.07120311,0.1884998,-0.706151,0.7062724,0.04148376,0.5059657,0.3614933,-0.564054,-0.08743799,0.789623,0.9037976,0.07574975,-0.9143736,-0.552397,0.6672931,-0.2916061,0.8955281,-0.4387726,-0.9159422,-0.9194989,0.1128534,-0.06862652,0.723891,-0.6136494,0.8344846,-0.5556288,-0.3335727,0.860023,0.1619695,-0.538624,-0.956672,0.1034955,0.583627,-0.1782991,-0.6406631,0.6188416,-0.9489717,-0.3485998,0.7995701,-0.08052719,-0.6048822,0.1339689,0.08773029,-0.5624743,0.8117023],[0.5736668,0.8200812,-0.0231818,0.1713847,0.9324751,-0.1572489,0.8044453,0.6917169,0.8852928,-0.5692542,0.2234956,0.4999499,-0.7126744,0.02027905,0.1756712,-0.5074983,0.9865959,0.6524866,-0.5023651,-0.2062474,-0.5291824,-0.6384468,0.191043,0.5799718,-0.5211308,0.06315911,0.481481,0.9275548,0.2194024,0.4438574,0.3565049,-0.8203757,0.7718611,-0.5181308,-0.1247236,-0.7463517,-0.1585602,0.8539324,0.01614034,-0.2300521,-0.4792064,0.5727808,0.830569,0.4591062,-0.9645748,0.3177089,-0.756319,0.4808659,0.4842534,0.007108569,0.4446776,0.7469549,-0.1160835,-0.1460882,-0.5631597,-0.5399189,0.7405493,-0.309837,0.7496071,-0.4720696,0.7677162,0.1627716,0.2008995,-0.3588403,0.3105013,0.1086975,0.2404221,-0.5076277,0.1009361,0.8641744,-0.4068373,-0.509865,0.8546951,-0.2516564,0.7898161,-0.05036724,-0.02949679,0.1343769,-0.8777707,-0.9490924,-0.2773188,-0.6509032,-0.5345159,-0.05390298,-0.03609788,0.09529102,-0.5407782,0.6626794,0.4283101,0.2597191,-0.619719,0.6200137,-0.3644062,-0.9075623,-0.4813405,-0.5476687,0.3607559,0.6119292,-0.9371955,-0.9059489,-0.06192935,-0.3084353,0.508872,-0.1280586,-0.01723993,0.04391873,0.5852122,-0.05517185,-0.5967867,-0.168456,-0.7048216,0.08552396,-0.5598338,-0.2922345,-0.9027545,-0.912725,-0.2495266,0.1045502,0.7883627,-0.2101063,-0.7729986,0.8029664,0.1100944,-0.6524189,0.9385984,-0.5007608,0.1506594,0.5052631,0.3570287,-0.9694402,0.03307283,-0.05854452,0.8826127,0.7373612,0.1012722,-0.4226304,-0.5261343,0.3822541,-0.3909873,-0.1983777,0.6957505,0.0369457,0.5275395,0.6544909,0.1369621,-0.4578308,0.2762115,-0.01932299,-0.8260522,0.2048694,-0.6318538,-0.1537355,0.9319241,0.4013836,-0.7970328,0.08964336,-0.8677349,0.4325664,-0.4771076,0.5050588,0.1929144,0.5632055,-0.05549347,0.5444911,-0.02031744,-0.5629323,-0.2741894,0.1331989,-0.5720732,-0.9207783,0.1117903,-0.11895,0.3389978,-0.9699271,0.0741514,-0.4201168,-0.4704732,0.8951809,0.5381966,0.09017336,0.8934934,-0.2500132,0.1261436,0.8125539,0.192587,0.6196561,0.8211186,0.9280446,-0.4103681,-0.3023974,0.1814877,0.5251508,-0.3856484,0.09112227,0.07115519,0.2114726,0.4958064,0.7819712,-0.0505842,-0.688292,-0.5843234,-0.6145332,-0.9824982,0.6837204,-0.9281425,0.4700646,0.0226773,0.5913136,-0.3746055,-0.6845169,-0.682204,-0.6484003,0.1124595,-0.2260879,-0.3622254,-0.2471384,-0.2796019,-0.05915749,0.7921903,-0.6835034,0.9875388,0.5709918,-0.8956666,-0.8962052,-0.02721155,-0.6492155,0.8451462,0.1023391,0.5893018,-0.2300264,-0.3834764,0.07056463,0.1963328,0.7296929,-0.301704,0.4268682,-0.6692779,0.4647853,-0.6307375,-0.7692516,0.8642151,-0.7171211,0.9265184,-0.3825792,-0.3716882,-0.8839812,0.2378947,-0.1638399,-0.6929054,0.452466,0.5168488,0.5015893,0.6883216,0.6412053,-0.8643601,-0.1048168],[0.9364583,0.05885851,-0.8512163,0.426315,-0.1050676,0.6681025,-0.5309632,0.8778958,0.8109736,-0.4864753,0.0848223,0.2786646,0.4073138,0.6361911,0.2057055,-0.7723029,0.7688498,0.5943837,-0.5378382,0.02606356,-0.9380417,0.4895985,-0.1935664,0.4382801,-0.6271296,-0.597086,-0.9321892,0.9734631,0.726795,0.4966216,-0.38827,0.567487,-0.3546175,0.5966468,-0.4423815,0.2988825,0.4013829,-0.4037629,-0.5460546,0.1941525,-0.8435686,0.660145,0.4727857,-0.102352,0.1052102,-0.2175857,0.9677808,-0.3634363]],[[-0.6565914,0.1212279,0.9350119,0.4503131,0.3223123,-0.919888,0.1089777,0.4389512,0.1709255,-0.9274366,0.3938091,0.8422489,-0.9799139,-0.456143,0.5982668,-0.05731499,0.897573,-0.006975532,-0.9687662,0.3549702,0.1347059,0.3278429,-0.5374188,-0.1424767,0.467467,-0.4290816,0.6045368,0.2067226,0.3135071,-0.7332578,0.08767354,-0.4258314,0.2815461,0.8577712,0.5754025,0.9968085,0.3980276,0.2582688,0.3828783,-0.6911142,-0.7749259,0.8561625,-0.9603963,-0.4961175,0.5946307,0.6261885,-0.8714628,0.7846684,-0.9317963,0.1000861,-0.6617706,0.08844221,-0.6239433,0.7872403,0.2969088,-0.4222659,-0.6893973,-0.6748292,-0.1814591,0.722609,0.3291802,0.2412745,0.7017727,-0.5688126,0.290224,-0.4612805,-0.3281049,-0.9246166,0.5107725,-0.7546105,0.3853314,-0.1832794,-0.3367249,-0.5340669,0.2853892,-0.9193158,0.7770681,-0.9656787,-0.7547174,0.8304958,-0.7823472,-0.1977919,-0.3387705,-0.7732587,-0.9899979,-0.4941176,0.5892792,0.480982,0.5306187,0.1906272,0.4957018,0.8779526,0.3697734,-0.9817088,0.2284189,0.7294931,-0.2743744,-0.9853306,0.7198935,-0.8623519,0.6278636,-0.3818454,-0.1618475,-0.6974034,-0.6298144,0.5884891,-0.4725741,0.6876853,0.9493687,0.5506976,-0.8112369,0.5182648,-0.5206447,0.2986281,-0.5593865,-0.2066242,-0.1245562,0.03899419,-0.6594491,-0.4871467,-0.04726422,-0.864275,-0.2807151,0.7464805,-0.6610715,0.1443032,0.286514,-0.8831921,0.1846102,0.9419057,-0.3265499,0.8659549,-0.6192753,-0.4250084,0.2307352,-0.5159156,0.1485842,0.2007991,-0.06837571,-0.503001,-0.06010902,-0.369434,0.3875847,0.1066667,0.2898609,-0.8954442,-0.1139628,0.8000505,0.6666009,0.05961573,-0.5424633,0.0398823,-0.8807759,0.2319392,-0.3348747,0.1687452,0.0635246,-0.7891424,0.7821598,0.1366259,0.6585326,0.9720862,-0.2184178,-0.9877119,-0.05388367,0.0971235,0.09583819,-0.8347387,0.1026145,0.1164078,0.8227775,0.5721467,0.3380649,-0.8851268,0.09820759,-0.4588648,0.6023138,-0.2867883,0.02619588,0.392266,0.2338744,-0.5037334,0.5597472,0.1524445,-0.2242576,0.747333,0.8878539,-0.3142415,0.6381445,0.4635889,-0.7065949,-0.7620394],[-0.1647383,-0.8618376,0.008911252,-0.06937349,-0.2108947,0.1616656,0.8526475,-0.4477381,0.2873065,-0.7426708,-0.2555677,-0.2099267,0.1715564,0.8202317,-0.3299183,0.4804372,0.7653015,0.3970055,0.6921754,-0.4595071,-0.3068722,0.9824486,-0.5719924,0.7826765,-0.7071993,-0.6196983,-0.6428893,0.3117323,-0.783536,-0.400766,-0.4857599,-0.8270273,0.5931275,0.5476952,-0.664392,-0.2343668,-0.5894904,-0.3242558,0.9495142,0.3978684,0.04441059,-0.7637951,0.5189209,-0.9707341,-0.9746454,0.6984942,0.6587393,0.3112344,-0.6508598,-0.9897115,-0.8214097,-0.366062,0.06331885,0.3279583,-0.9556882,-0.4704121,0.1571237,0.562376,0.4143037,0.3644638,0.9760392,-0.07531583,0.8657911,0.3598108,-0.386706,-0.08453405,-0.1224724,-0.9175479,0.1101683,-0.648489,-0.7197902,0.7450666,0.8359325,0.8620884,-0.1795086,-0.1019469,0.07553256,0.3795438,0.1814808,0.9233508,0.2039696,0.8246603,0.1323143,-0.2776438,-0.01217735,-0.04876125,0.9581666,0.2834148,0.2046238,0.1659302,-0.3285664,0.1356417,0.7557762,0.7520306,-0.36684,-0.5112364,0.5241585,0.4672932,0.7402883,0.1744317,0.9680028,0.2124158,-0.3431321,-0.880089,0.7833717,0.1241521,-0.1253983,-0.5812752,-0.8426802,-0.01701725,-0.316553,-0.5543869,-0.4029332,-0.3572623,0.3367908,-0.4565414,-0.6976519,-0.817307,0.1610106,-0.4168054,0.4942155,-0.5720572,-0.7971907,0.8507898,-0.6819232,0.01524818,0.005985856,0.5916502,0.112873,0.3243568,0.1244925,0.6482139,-0.1213528,-0.4893032,0.4727561,-0.9606059,0.5908916,-0.4347326,-0.5128577,0.7406087,0.5243685,0.4030823,0.6588459,-0.359115,-0.09193432,-0.00509584,0.5710239,-0.7800345,-0.3714279,-0.6986861,0.849349,-0.7805455,0.4366879,-0.5045092,0.2816705,0.2121102,0.1275834,-0.5498133,-0.8486583,-0.5568147,-0.4780113,-0.1144515,0.7153478,0.3487589,-0.1663212,0.4724028,0.2388395,-0.4087311,0.8046987,-0.3533505,0.008244157,0.1264867,-0.3276683,-0.8130572,0.24253,-0.338575,0.4383125,-0.5514865,-0.5356524,-0.2159351,0.8027511,0.05423605,-0.9205081,0.9612052,0.1829165,-0.928056,-0.3118573,-0.7063096,0.6355052,-0.5286527,-0.5711863,-0.05663788,-0.5908771,0.7144325,-0.730969,-0.6845989,0.3111231,0.2651612,0.3366401,-0.9061069,-0.01696241,-0.222845,-0.4111251,-0.8127534,-0.119773,0.3426647,0.8747776,0.6970582,0.8639903,-0.8178813,0.2507071,-0.9406917,-0.4489716,-0.4545809,-0.8540382,-0.1651496,0.4346833,0.6938021,0.7595897,-0.6055961,0.8973844,0.809979,0.9722521,0.9552574,-0.1924764,-0.02145922,-0.09059894,-0.8030574,-0.4014314,0.2814982,-0.3501705,0.08401763,-0.5329113,-0.7954044,0.7562997,-0.9831018,0.1186503,-0.7098484,0.1650306,0.1229349,0.4383845,-0.6909161,-0.4207615,0.2692475,-0.9768488,-0.9898243,0.2966509,0.4455616,0.9978039,0.7197616,-0.7685893,0.3138756,-0.7587595,-0.8276424,0.09798968,0.7332113],[-0.1573275,-0.5697427,-0.02989924,0.7820826,0.9903939,-0.7877247,0.08787215,-0.116788,-0.7353313,0.08745348,-0.7945433,0.9367161,-0.7010989,-0.1544472,-0.5993247,-0.4357523,0.4646728,0.681916,0.3354013,-0.4345003,-0.7701662,-0.9491708,0.4050979,0.8804817,-0.5542405,0.7902315,0.182855,0.8223739,-0.07639301,-0.4640414,0.07945454,0.9672537,0.7994843,0.3529985,0.417463,0.9734304,-0.5904057,0.7723196,-0.7336755,0.1275867,0.1234156,-0.4376777,-0.6703205,0.8941724,-0.4219068,-0.5395083,0.9131374,0.9460402]],[[0.04036915,-0.6593633,-0.6446111,-0.7220893,0.8905113,0.02607548,0.272217,-0.5916715,0.1686417,-0.8409626,-0.6417158,0.9324439,0.2629046,0.2783963,-0.5656309,-0.3479868,-0.4868389,0.3151316,0.924433,0.5759525,-0.7104335,0.9734292,-0.9527588,0.2643788,-0.7866318,-0.5353184,-0.9045386,0.6539619,0.4821331,-0.393746,-0.07941616,0.5086977,-0.007887721,0.6727748,-0.8624065,-0.3786818,0.7707913,0.1132523,-0.927381,0.07358062,0.02412903,-0.2385324,0.8355553,-0.8674157,0.9813297,-0.006478429,0.6288297,-0.7388184,0.3234145,-0.3220841,-0.8407643,0.1503948,-0.815716,-0.3853315,-0.8020911,-0.6587627,-0.8874903,-0.4574949,-0.1872586,0.0360409,0.4703672,-0.4159456,0.7490582,0.3824796,-0.2407218,-0.1110348,0.04553401,0.5905576,-0.5516794,0.6894703,0.2718565,0.3211994,-0.04065073,0.09427392,0.8714993,-0.6677828,0.8359125,0.1850725,0.6864297,0.2860155,-0.5536788,-0.6248434,0.7083316,0.4324805,0.6017575,0.5868726,0.6630085,-0.1813737,0.6962636,0.0486356,0.4248552,0.2680657,-0.03770959,-0.3594478,-0.9445593,0.3630552,0.8813961,-0.5281672,0.6637511,0.3391344,-0.113495,0.6728745,-0.1113123,0.3232972,-0.2774085,-0.4661661,-0.8050985,-0.2011098,0.8096266,-0.5122249,-0.4414872,0.821162,0.7952464,0.4034967,-0.6132095,0.02431071,-0.591651,-0.8794458,0.4143512,-0.2844528,-0.01886308,-0.4207524,0.4094529,0.3312971,0.00112474,0.7673085,0.851763,0.0649935,-0.08518922,-0.1717345,-0.1073171,-0.1438051,-0.07721078,-0.6274002,-0.3447555,-0.1182398,-0.1332611,0.172278,0.1800035,-0.4273187,0.1881911,0.5726397,-0.9888203,0.2014879,0.4373271,-0.5461884,-0.7210693,0.9562697,0.9870632,-0.3062531,-0.3363606,0.5400348,0.8187106,0.7088239,0.9896367,0.9401071,-0.9062283,0.7380333,-0.2636892,-0.78602,0.8028214,-0.5301683,-0.5246284,0.2668671,0.6556497,-0.8096154,0.3561699,-0.1641949,0.907254,0.05229533,0.7733591,-0.6103883,-0.007385135,0.5185945,-0.7346218,0.8882356,-0.7290864,-0.1620394,0.02677214,-0.773181,0.8957832,0.7798593,-0.3404742,-0.4576546,-0.1618928,-0.1520914,0.9247642,0.4730553,-0.3026708,0.06865656,-0.5637619,-0.2872733],[-0.6043909,0.2839946,-0.6249442,-0.06507027,0.9665232,0.6398604,-0.7870274,-0.6028671,0.415662,0.04326713,0.9717498,-0.2576047,0.07356536,0.6342344,-0.8371894,-0.0642072,0.6479306,-0.2579538,0.6363726,0.7027786,-0.7614045,0.4775607,0.4936847,0.621789,0.7050276,-0.9920819,-0.6065533,0.5520897,0.1803075,-0.3785771,0.5202739,-0.7083008,0.1473933,-0.8811963,0.4855411,0.638994,-0.1716179,-0.1396679,-0.08422315,0.7747588,0.5025785,0.641618,0.3584988,-0.02955592,-0.1886126,0.7302706,-0.6058314,-0.3944756,0.8717182,-0.2589685,-0.3994712,0.6137168,-0.4146553,-0.6920471,-0.1789831,0.9151723,-0.8636739,-0.6681056,-0.5153375,0.8454053,0.07766902,-0.8882697,-0.1460298,0.3981988,0.9020381,0.1878234,0.01156032,0.1227385,0.7765968,-0.4263681,0.3833284,-0.5814955,-0.8034129,0.8941844,-0.1541721,0.9770274,-0.8405907,-0.2234498,-0.3137017,-0.9332888,-0.8845253,0.9153602,-0.9007642,-0.9881961,-0.1996418,0.9518337,0.8969498,-0.2572376,-0.03393328,-0.5122995,-0.2124308,0.32549,-0.2448779,0.917042,-0.7414458,-0.2317244,-0.7482805,0.3019242,-0.374838,-0.6533635,-0.1838192,-0.930398,-0.5082269,0.7653921,0.6079345,0.8171976,0.6301119,0.1928655,-0.3097259,0.4349355,0.5534298,0.1736604,-0.719347,-0.4517909,0.3576755,-0.455866,-0.5348601,0.4701521,-0.9107096,0.6158421,0.559773,0.5927098,0.1502491,-0.2285048,-0.9557748,-0.9370205,0.1535605,-0.8830824,-0.8716466,-0.1048995,0.5576038,-0.01233971,0.3162987,0.7986155,0.5163829,-0.5598528,0.4027352,0.05952132,0.3063001,-0.9605231,-0.2347463,-0.7560868,-0.5811403,-0.4337002,-0.5862119,0.1348799,-0.3932422,-0.793386,-0.9209485,-0.4290429,-0.02786839,0.1893588,-0.8584187,-0.3266333,-0.04602563,-0.1551703,0.611896,0.6370885,0.9743013,0.7106388,0.06310189,-0.984792,0.08690584,-0.2889892,-0.1644353,0.3286628,-0.9877377,0.3733229,-0.8227489,-0.6767397,-0.509443,0.6685727,0.5772238,0.07301247,0.3394184,0.998827,-0.3495489,-0.9488032,-0.04266775,0.4142604,-0.9394217,-0.5946956,0.9961121,-0.9847713,-0.8803213,0.5822575,-0.3423072,-0.7237868,-0.5333333,0.01357973,-0.08138692,-0.8859575,-0.5461662,-0.843082,0.9579127,-0.3244005,0.5553384,-0.3148664,-0.7021623,0.6148233,-0.3411056,0.5747917,0.329529,-0.2268029,-0.6151204,-0.1590344,-0.8712637,0.5541637,0.3784749,-0.08923495,-0.4887439,0.5525756,-0.7419491,0.4757781,-0.337684,-0.2256316,0.4961078,-0.1667994,-0.522707,-0.9400246,-0.616467,-0.8721273,-0.2240132,0.05876362,0.4748542,0.1984388,0.5835981,-0.2338308,0.8752856,0.7208402,-0.5544934,-0.699316,0.133998,0.05680048,0.9662392,-0.4630617,-0.6562657,-0.8209898,0.01750076,0.1347531,-0.06398666,-0.2248689,0.7803774,-0.04649198,0.02042139,-0.4633964,-0.402012,0.2023994,-0.9275014,0.7783527,0.233802,-0.4913,-0.8799317,-0.7701619,0.05867565,0.26987],[0.7115951,-0.1194741,0.4293461,0.4711501,-0.09834826,0.270211,0.7197635,0.7395034,0.8544681,-0.1186804,0.4032252,0.7890487,0.3440232,0.1902031,0.9736466,0.2979059,-0.8326275,0.1244432,0.2592694,-0.385702,0.4693639,0.5876286,-0.6935525,-0.1765338,-0.1282543,-0.6588211,0.2814674,0.8413131,-0.7641528,-0.3752335,0.8633184,0.6898978,0.04735887,-0.2452387,0.7129481,0.5001197,0.4781029,0.7971489,-0.1679674,0.008634686,0.9372108,-0.901237,-0.9985905,-0.2979063,0.9567533,0.413012,0.3051669,0.358155]],[[0.311706,-0.9017272,0.9232457,0.005112529,0.5632505,-0.1817816,0.6288347,0.9944119,0.7871339,-0.4304537,0.03598511,-0.7009072,-0.8351276,0.5354583,0.2817576,0.9317398,-0.3996907,0.2413908,0.7494519,0.9650214,-0.1486958,-0.05856192,-0.7922769,0.8381908,0.5704949,-0.3939985,0.5928929,0.8486638,-0.1817459,-0.7775524,-0.2408813,0.1674458,-0.4136637,0.6946094,0.8399744,0.4997759,0.08842123,0.7081072,-0.4784309,-0.02029622,0.08768237,0.9793379,0.1077296,-0.2850167,0.5126348,-0.5677187,0.1866122,0.4660515,0.6258745,-0.1159962,0.4456944,-0.4473573,-0.9010408,-0.9793451,0.1351818,0.9648798,-0.4376577,0.390105,-0.3881356,-0.7237329,-0.6593556,-0.8267655,0.6332612,0.7916684,-0.5953801,-0.03276455,0.6936402,0.5146334,-0.1809965,0.6703179,0.8602495,0.8033347,0.1571473,0.57514,-0.3068291,0.589447,-0.05424082,0.1166919,0.5419397,-0.6047997,0.5900872,0.4977708,0.1006244,-0.9948916,0.697047,0.6894443,0.5654473,-0.8211014,-0.8962548,-0.641731,0.8809028,0.6803107,-0.5041983,-0.8402808,0.6103432,0.2895319,0.3488183,-0.6158097,0.9214604,0.2113904,-0.009794354,0.4291675,0.1336926,0.9629292,0.3610444,-0.1280113,-0.1932894,-0.5172737,0.9172983,0.3732578,-0.5185878,0.6793978,-0.02266204,0.759469,-0.2879771,0.09106481,0.7455652,0.07953179,-0.1572546,-0.6128716,-0.3820144,0.6017942,0.1156477,-0.4421896,-0.1563607,-0.4872402,0.436464,-0.9273636,0.226127,-0.3058556,-0.6549742,-0.436947,0.7816319,-0.04902446,0.0515908,0.8636291,-0.9752531,-0.5022337,0.01023233,-0.685128,-0.2398468,0.1884681,-0.9303608,-0.101117,-0.7671406,0.3154866,0.6435738,-0.9335408,0.3018603,0.4809529,-0.5315692,-0.2136499,-0.5989623,-0.008974195,-0.961113,-0.8291924,0.1774687,0.7307608,0.5985413,-0.5962789,-0.7624581,-0.6406801,0.8412032,0.2989359,0.9862802,-0.213581,-0.1018194,-0.6796646,-0.004349589,0.2030774,0.4167309,-0.4495822,0.05489647,-0.7176695,-0.2098795,0.0635103,-0.9026458,0.6722641,-0.9681299,-0.4586192,-0.6296639,-0.02329195,-0.9280183,-0.9151211,0.02165854,-0.5898311,-0.8223279,-0.1399966,0.05447447,0.3218081,0.5530207,0.5515487],[-0.4840719,0.609607,-0.9509041,0.04678595,0.8338468,0.4341032,-0.2538043,-0.9165809,-0.7900941,-0.383732,0.03631938,0.9666259,0.3455975,0.1755825,0.03565538,0.8519664,0.7909658,-0.3675181,0.1133295,0.7417543,-0.7808998,-0.06645286,-0.3992294,0.8909826,0.2003831,0.9426382,-0.965976,-0.6067271,-0.1073192,0.5978825,-0.03099597,0.4052736,-0.06175911,0.7358105,-0.3162814,-0.1968743,0.2770385,-0.7922323,0.06922686,-0.2130398,0.6734664,-0.2317435,-0.8701925,-0.5359647,0.875339,-0.3572818,-0.3715278,-0.1154531,-0.934381,0.6001999,-0.388255,0.1984867,0.7163446,-0.2432305,0.8039348,-0.4812435,-0.9938233,0.3214407,0.559269,-0.2931648,0.8111243,0.8737712,0.6946127,-0.9174311,-0.5210962,0.8691003,-0.9389565,-0.6323521,-0.7424841,-0.002286792,0.01463974,-0.4592475,-0.1474084,0.499237,-0.3842469,0.06292522,-0.666995,0.8997245,-0.1346811,0.6519725,0.08963287,-0.5502863,0.8376913,0.4580502,0.3207404,0.5530348,-0.8792307,0.5507131,0.3334236,-0.5054386,-0.723649,0.02440608,-0.753418,0.3106684,0.6144457,0.08653104,0.1332928,0.0510112,-0.6486771,-0.01197851,0.03323162,-0.5465167,0.6658013,0.5428743,-0.3368131,0.6743526,-0.2926718,0.3820331,0.3135931,-0.3647646,-0.8044469,-0.2583164,0.4750724,0.3727295,0.3485365,-0.3151017,-0.9221251,-0.6038308,-0.02438748,-0.01918852,0.2629456,0.4373915,-0.6037133,0.7565327,-0.03124344,-0.1393553,-0.9807179,0.2947523,0.4165666,-0.6513302,0.7169549,-0.6279581,-0.2290603,-0.2924458,-0.4546453,-0.2645506,0.01276124,-0.4773649,-0.1223103,-0.721334,0.1859423,0.6862748,0.7039347,0.1673371,0.6714642,-0.7217081,-0.2364782,0.3698218,-0.2838,-0.8024931,-0.2047945,0.578825,-0.351539,-0.2951833,-0.04241645,0.5360053,-0.533077,-0.8242986,-0.5399203,0.6629686,-0.1625284,0.1530277,-0.8650873,-0.9483237,0.05816805,-0.7524552,-0.7465622,-0.3067392,0.3561554,-0.3590766,0.2249838,-0.7909241,-0.06588495,-0.05710852,0.06750906,0.09674442,-0.1432184,0.7867029,0.4347317,0.8876607,-0.8892171,0.07502592,0.01498806,0.9505002,0.6161025,-0.8158648,0.2153198,0.5339148,0.8924575,-0.5312839,0.4640345,0.4136741,-0.01084578,-0.06530368,-0.4876729,0.5412788,-0.002502561,0.03347719,0.7614682,-0.3175129,0.04704988,0.9244776,0.06251252,0.289324,0.7694023,-0.230882,0.8023224,0.5532749,0.8565938,0.6774685,-0.4948424,-0.666786,0.1032811,0.2470495,0.4535377,0.9653676,0.4402983,-0.5459893,-0.9158127,0.6209013,-0.8755517,0.1019412,0.03081214,-0.6633167,-0.4847761,0.7770493,0.8014543,0.8195982,0.03954661,-0.570868,0.3082504,-0.2997729,-0.7061124,0.04933822,-0.5863588,-0.1152266,0.6873517,-0.4763793,-0.3296558,0.3507142,-0.1403121,0.7601707,-0.7263684,-0.8374729,-0.4307224,-0.7172251,-0.5560484,-0.4310535,-0.06101191,0.7143073,0.213719,-0.7460682,0.4563789,-0.2127396,0.4056225,0.4138777],[0.5677965,0.2160717,-0.376592,-0.8681991,0.7618628,0.7973464,0.4167478,0.5992873,-0.4268717,-0.08303106,-0.9392102,-0.4316639,0.2922253,-0.6292884,0.9783728,0.9125905,0.9769831,0.1173648,-0.8232963,0.6629615,0.6351593,0.3804755,0.7893381,-0.9400611,0.7680306,-0.3382443,-0.04681933,-0.23062,0.9155014,-0.6634893,0.01406109,-0.3008577,-0.8763866,0.3763015,0.728224,-0.4829379,0.2091659,0.5010111,0.9044592,-0.4895085,0.9497502,-0.3398751,-0.6569242,-0.1387066,-0.1507026,0.4105878,0.8772769,0.7197659]],[[0.7896771,-0.132548,0.7466829,0.1120225,0.3676178,-0.3874301,0.3736317,0.2706306,-0.6910734,0.4247393,0.406234,-0.2658538,-0.6060059,-0.2445,-0.5249867,0.3486497,0.05231655,0.3752324,0.792052,0.5554137,-0.2280749,-0.768672,0.3715918,-0.8163292,-0.2985243,0.9049842,-0.4932073,0.7297678,-0.05359471,0.08354914,0.1049472,0.6992581,0.8715212,0.1311415,0.2354437,0.7427351,-0.6078403,-0.7896075,0.8616161,-0.3153042,-0.9582806,-0.6563201,-0.7781363,0.7451437,0.3918781,0.1614951,-0.06528318,0.6084387,0.8697112,-0.673568,0.277085,-0.8837645,0.6510205,-0.7438612,-0.6271076,-0.6231837,-0.7875202,-0.6503212,0.7518015,0.6479964,0.05549896,0.03063166,0.6465549,0.3440726,0.3427877,-0.5220764,-0.3403913,0.6423743,-0.1256138,0.7218828,0.8850675,0.3514552,-0.7330408,-0.9785345,-0.8336499,-0.2876381,0.849544,-0.8606868,-0.4886583,-0.8813629,-0.8100328,-0.295463,0.8412046,0.8042197,0.326708,0.4512484,0.869246,-0.495814,-0.98593,-0.111389,-0.5811081,-0.5049026,-0.54265,0.07452071,0.858712,0.7387242,-0.9781115,0.7159498,0.9674082,0.2799811,-0.1511132,0.7972004,-0.3708504,0.2431089,0.3768511,-0.6957517,-0.5876036,0.03924739,-0.06654036,0.8188772,-0.3813394,-0.09477675,-0.2118479,-0.00175488,-0.7480953,-0.2693418,0.6350415,0.5704639,-0.7215302,-0.1966249,-0.4346927,0.04761636,0.6222506,-0.497912,-0.2937723,0.5026147,0.9924023,-0.1060668,0.4223358,-0.1923798,-0.5566306,-0.580127,-0.06496894,0.3381846,-0.3826352,-0.7392426,-0.7873425,0.1682616,-0.2378503,-0.9156957,-0.03211701,-0.8169549,0.04817712,-0.4188801,0.1913911,0.2068182,-0.6961775,0.7965226,-0.525326,0.3043036,0.7365832,-0.2860955,0.5023253,-0.3449994,0.8038266,-0.07796443,-0.04376233,-0.8822758,0.8154893,0.8593855,-0.6336806,-0.8920724,-0.1346513,-0.1275984,-0.7264476,-0.1421551,-0.463308,0.5070064,-0.2814745,-0.3847255,0.2343987,0.8416762,0.1473509,0.1231586,0.62093,-0.6740856,0.1888813,-0.03848016,0.59725,-0.6346171,0.7974105,-0.3253061,-0.4213573,-0.2103392,-0.3436524,-0.1705393,0.08813298,-0.9884846,0.8480637,-0.9800982,-0.4073795,-0.259704],[0.5705783,-0.860213,0.003616452,0.4203865,0.8501356,-0.1215609,-0.1482002,-0.2513291,0.7006564,0.02909648,0.4764216,-0.4577581,-0.6201921,0.6410298,0.07488787,-0.05730379,-0.6585059,0.2675631,-0.336723,0.6432583,0.8983841,-0.1597384,0.3444757,0.9169698,-0.121719,0.9709816,0.9395924,-0.8584573,-0.09033501,-0.2388572,-0.6582346,0.8279972,0.4571159,0.7715209,0.362767,-0.5318038,0.9289997,0.8702953,-0.5096078,-0.2288319,0.737087,-0.7468996,0.02177751,-0.8541372,0.3908705,0.5758648,0.6286731,0.1615208,0.6252244,0.3335886,0.4706173,-0.2039531,-0.5871544,-0.0835098,0.7763538,0.03248274,-0.2016255,-0.9530675,-0.9830918,0.5145702,-0.6549079,-0.3824536,-0.4060627,-0.6514161,-0.06247938,-0.5295272,-0.2711247,0.625035,-0.02204549,-0.6933231,0.182315,0.5441744,0.8077135,0.09821379,0.7282093,-0.3880912,0.9993846,0.4090409,-0.1754519,0.7508714,0.7265284,-0.6933274,0.605895,-0.8835926,0.1892358,-0.4840449,0.1843144,-0.9853261,0.9970095,-0.132403,-0.7935789,-0.2964543,-0.4960076,-0.3689038,0.5937264,-0.2840563,-0.179968,0.9098313,-0.9034255,0.2104186,-0.3147379,-0.902374,0.8337841,-0.3727535,0.2296168,0.2251974,-0.1237375,-0.7453792,0.1868955,-0.2335707,-0.9861948,-0.916554,0.7270718,-0.8639362,-0.9271569,0.01014912,0.4082682,0.01679718,0.1689197,-0.4242314,-0.8645577,0.2313555,0.9381492,0.9229374,0.4810912,-0.05415356,0.4882145,-0.1653391,0.9317391,-0.8476841,0.9614174,-0.9343143,0.2586233,-0.5465753,-0.5666146,-0.4574345,-0.9633174,0.8463786,-0.1285468,-0.176777,-0.8479602,-0.04347789,-0.7748513,-0.5316448,-0.8564811,0.7942171,0.7553608,-0.2858208,-0.2400256,-0.3402849,0.7752736,-0.9636831,0.3759813,0.4131763,0.958873,-0.3483917,-0.5557799,0.4617934,0.4725828,-0.7792819,0.1238664,0.2644963,0.2528805,-0.7274258,-0.6117616,-0.9439759,-0.4523984,0.7761323,-0.8201177,0.9847882,0.3563635,0.1845168,-0.4954501,0.6976879,0.2661721,-0.6086342,-0.1969494,0.3181429,-0.7899208,-0.9751012,0.5407977,-0.3444668,0.2668006,-0.894901,-0.7601244,-0.3245343,0.7871151,0.9536207,-0.4386188,0.3058335,0.8145497,-0.4702541,0.7657754,-0.4223071,-0.4366385,-0.9739623,0.07796705,-0.005005479,-0.8105569,-0.286373,0.9250753,-0.7394795,-0.437755,0.3530383,0.9229648,-0.5680733,-0.2629858,0.5437591,0.3263938,-0.02379715,0.7708907,0.8750846,0.2453755,0.49953,-0.4632274,-0.3573695,0.94857,-0.3954958,0.05246556,0.4232418,-0.2953292,-0.04648507,-0.2716902,-0.00990665,-0.2307733,0.5179555,0.5688233,-0.7583201,0.08092511,0.6283932,-0.3543063,0.5623918,0.01406848,-0.8650036,-0.1325077,-0.9025879,0.1138855,-0.04479921,-0.1431979,0.5790915,0.5229955,0.9981067,-0.7345965,0.3652136,-0.9445791,0.247969,-0.9040499,0.8443749,-0.5885398,0.9048326,0.7890985,-0.4490372,-0.8614211,0.636441,-0.13353,0.2933724],[-0.004572511,0.09725487,0.2133011,0.1626467,0.02931106,0.3460355,0.8311529,0.9631424,0.8958638,0.5627635,-0.02969897,-0.9999366,0.3705094,-0.5721462,-0.6287935,0.8361645,0.1039706,0.6556911,0.3660845,0.5098526,-0.8066435,-0.9399006,-0.1107472,-0.2285401,0.3488435,-0.3735873,-0.02739847,-0.0246495,-0.7044611,-0.362754,-0.6498671,0.9763932,-0.7780135,-0.3194536,-0.06181419,-0.6055679,-0.0387615,-0.9804606,0.9103858,-0.6634893,-0.2904559,-0.7703068,-0.7639971,0.2411937,0.2614526,-0.9632306,0.8503494,0.8677995]],[[0.9282327,-0.3264083,-0.6822109,-0.976218,0.5243368,0.972831,-0.6334472,0.9910564,0.8397758,-0.3609492,-0.3762149,-0.9424341,0.8998992,0.1139568,0.682574,0.6347997,0.9841466,0.5033979,0.951055,0.9514704,0.7192037,0.1669465,0.3330645,0.756855,0.0367583,0.1524276,0.1987582,-0.02568495,0.4289362,-0.8507018,0.6814272,0.8477032,-0.6658559,0.2474669,-0.5271804,-0.4249197,0.302262,-0.2567371,0.8473883,0.7319589,0.8911843,-0.08084905,0.7440584,-0.1450068,0.1687461,0.3801117,-0.4142085,-0.8664291,0.2823782,0.06929457,0.2584352,0.2973194,0.4298734,0.2004648,-0.5270603,0.2594781,-0.1084622,0.7420146,-0.3336197,-0.7502058,-0.8656127,0.2137977,0.4337251,-0.3860818,-0.9066429,-0.2419268,0.322571,0.9520876,-0.6205976,-0.9616289,0.8944356,0.5745912,-0.2988387,0.05364454,0.4395349,0.6778827,-0.8133156,-0.1179518,-0.8950622,0.2399782,0.3539607,0.6435392,0.3637407,-0.0791918,0.5371878,-0.4574693,0.690201,-0.6537569,-0.07837546,0.1273116,-0.9760902,0.791955,-0.6471033,0.7687063,0.1004144,0.9823065,0.3608653,-0.6166368,-0.3149682,0.2158357,0.7274621,0.3898415,-0.2614809,0.3872394,0.355391,0.3714235,0.9076972,0.9990947,-0.4503676,0.6739841,0.6773791,0.6878655,0.2273556,-0.2869664,0.2443072,-0.5142028,0.3947363,-0.7981925,0.8254139,0.5876999,0.247552,-0.02069223,-0.5676239,0.6841476,0.3087644,0.615391,-0.675468,0.2445136,0.9218225,-0.220327,-0.4764558,0.259897,-0.8858645,-0.189274,-0.9111195,0.4047765,0.1209406,-0.9280913,0.2497388,-0.6142917,-0.9943547,-0.505414,0.2975607,0.5669737,-0.4910806,-0.6259208,-0.1770574,0.4533379,-0.3408774,0.3374235,0.5848203,0.8413863,-0.7783654,-0.4532,0.1568838,0.106516,0.8672953,-0.07660449,-0.538841,-0.1209191,0.5654314,0.01724732,-0.6945417,-0.3276609,-0.500607,-0.3384579,-0.08306801,-0.5952077,0.832051,-0.4276901,0.1526791,-0.7254663,0.01781118,-0.8909113,0.1045884,-0.1079341,-0.4078327,0.5344427,-0.6976893,-0.2249264,-0.3839873,0.02281797,-0.8121204,0.1953188,-0.5291538,0.8201697,-0.224888,-0.3981313,0.8742023,0.5744977,0.309488,0.561343],[0.6811922,0.2504048,0.6378949,0.04562604,0.6010649,-0.2729844,-0.3578812,-0.2164761,0.02798831,-0.6681035,0.8678303,-0.06817186,0.2198714,-0.1949083,-0.818536,-0.904973,-0.1065487,-0.1284257,-0.8915558,-0.1290056,0.8458478,-0.8273375,-0.4300495,0.3199606,-0.9486594,0.01575053,0.2423559,-0.9182041,-0.8281553,-0.4567348,-0.804163,-0.9071467,-0.4069523,0.2403666,0.6944363,-0.2738475,-0.1964911,0.195578,0.9875724,-0.6726315,-0.01839006,0.7951832,0.04862797,0.8614559,0.2149311,0.2473973,0.3943944,-0.6901436,-0.02818429,0.7855446,0.6775937,-0.8562243,0.8579144,-0.3045267,0.3563702,0.8759837,0.425874,-0.01660335,0.6903732,-0.3252264,0.189387,0.1944131,0.9660456,-0.7523265,-0.5055008,-0.2408375,-0.7321711,-0.4655184,0.1429492,-0.9552836,-0.1837889,0.454642,0.1874706,0.3633892,0.2322427,-0.06852806,-0.07839406,0.1842695,0.04183233,0.9313354,0.1744736,-0.2501401,-0.6581492,-0.8634276,0.829433,-0.93731,0.6083357,-0.3443059,0.3096559,0.2601657,-0.1009125,-0.8067389,-0.8291996,-0.175392,-0.1947333,-0.468016,0.4791276,0.8654015,0.7563119,-0.2649854,0.4383785,-0.4383911,-0.2093726,0.7837417,-0.9261625,-0.6272542,-0.9652619,0.5813017,-0.7214165,0.01201808,0.2515812,-0.4108397,-0.002831817,0.6141324,-0.5788774,0.5957322,0.250113,-0.4004248,0.2543404,0.4575731,0.4892914,-0.7066119,-0.3271786,0.5128126,-0.3947343,0.5578039,0.171563,0.3141021,0.1268164,-0.418552,-0.5805161,-0.06671274,-0.898421,0.8238902,-0.7231123,0.6821105,-0.8203037,-0.08660591,0.7376585,0.9971631,0.3504643,0.9043212,-0.2606136,-0.8381128,-0.6790283,-0.6302783,0.7980237,-0.01833904,-0.6345999,0.1204125,0.3636825,0.1858035,0.2690563,-0.4085368,-0.4691125,0.8728859,-0.658977,-0.4272066,0.3088293,0.09250057,-0.449289,0.5055923,-0.2101201,-0.7770422,-0.4784716,0.4828891,0.2042967,0.7186933,0.05292594,-0.6675901,-0.4756888,0.4130835,-0.7460515,-0.4991173,-0.4796306,0.6120174,0.2577231,-0.1386915,-0.6281161,-0.6544709,-0.6479518,0.8710239,0.1027788,0.1616386,-0.2377135,0.01143467,-0.491531,-0.929311,0.3328211,-0.6458974,-0.9715176,0.4019839,-0.4485563,0.8720052,-0.1279913,0.07331383,0.3250436,-0.570519,0.001762748,0.8607035,0.3106758,-0.9604485,0.1820759,-0.02521098,0.6586609,-0.5876756,0.9559472,0.05466831,-0.2362403,-0.4355115,-0.657954,0.809355,-0.2804793,0.4401071,-0.8701394,-0.7448957,0.4222052,-0.7251453,0.5808587,-0.4695376,0.03651202,0.7301729,0.2167019,-0.07405365,-0.8471403,-0.5564005,-0.06978309,0.8713787,-0.836262,-0.2270056,0.27265,-0.5442441,-0.8909144,0.3531515,-0.4149593,-0.4022776,-0.3988725,0.4249227,-0.3424574,-0.9099419,-0.0994426,-0.4962224,-0.1054097,0.08610141,-0.1986805,-0.381971,-0.6987751,0.1621603,0.4195087,-0.8238845,-0.6562486,-0.2811397,-0.3515207,-0.8478656,0.0158354,-0.81636],[0.5866556,0.1844116,0.1413559,-0.4949595,0.2413422,-0.8399765,-0.1343881,-0.9030836,0.760041,0.811275,0.3106169,0.5511367,-0.9653971,0.5944955,0.2902455,0.453742,-0.6801438,-0.9019945,-0.7419844,0.9494269,0.9184835,-0.9380298,-0.214023,0.7137244,-0.8398848,0.8501949,0.4441762,0.6336691,0.2251838,-0.9208791,0.5057418,-0.09967816,-0.5592864,-0.7323432,0.8040094,0.02102363,-0.8608801,-0.9837661,-0.379413,-0.06264818,-0.3430303,-0.5847256,-0.09773767,-0.3200976,-0.153109,-0.4688321,0.4734347,-0.7691264]],[[-0.3041004,0.2585287,0.8655653,0.5454974,-0.875984,-0.7696004,0.5742681,0.5225625,-0.6180029,-0.253414,0.6113122,-0.4876271,0.2353903,-0.238387,0.3476999,0.1603619,0.8291557,-0.2532002,-0.2580324,-0.4217924,-0.9546978,0.6607587,0.6766143,-0.9898214,-0.5435395,0.1515783,0.9183378,0.5374951,-0.4005636,0.1892108,-0.7456141,-0.04071653,0.04229391,-0.1840254,-0.1768247,-0.6809721,-0.9190149,0.68836,-0.5032165,0.2551479,0.2723982,0.700542,-0.4034058,-0.31665,-0.84817,-0.9945824,0.04632461,-0.8358724,-0.3718458,0.9794877,-0.5167921,0.1473154,-0.3200861,0.4028141,0.06732118,0.6947124,-0.6345906,0.4913237,0.1387824,0.9547763,-0.9831216,0.02292049,-0.7709012,0.5849359,-0.6933651,-0.2539736,0.4246981,0.5764899,0.1689399,0.7500126,-0.3499366,0.1958755,0.5340409,-0.05507123,0.2983341,0.08212721,-0.1369854,0.6023026,0.03637993,0.5438578,-0.7641008,-0.4391125,-0.9105227,-0.086676,-0.2121469,-0.238701,-0.9806595,-0.8616061,0.8687096,-0.1220378,-0.5235853,0.7330613,-0.3260621,-0.3608268,-0.6353996,0.0127877,0.322453,-0.2879442,-0.1470755,-0.8121808,-0.4299985,-0.3933209,0.6134229,-0.4119958,-0.6557631,0.1066762,-0.7119875,0.6251767,0.2099808,0.8695123,0.8328624,0.728379,0.5338984,0.2872984,0.2075647,0.7784874,0.2856536,0.8624277,0.743433,0.05167091,-0.5209558,0.8111088,0.5002458,-0.3992137,-0.2919801,-0.3797957,-0.6278429,-0.597404,-0.7702246,0.9742486,0.2172402,-0.6162846,0.4790764,0.1089324,-0.1570023,-0.5961571,-0.7487159,0.8992922,-0.3798352,-0.262803,-0.7146642,-0.1208318,-0.03269827,0.3511638,-0.8720014,-0.09061205,0.570678,-0.2214085,0.2798025,-0.348982,0.7358353,-0.7053616,-0.7666097,0.5249362,-0.5369232,0.8809705,0.1720067,0.04413116,-0.4045366,-0.2178437,0.2904708,0.2549133,-0.850152,-0.7493274,-0.5945003,0.6094759,-0.3313202,-0.7556491,0.1622835,-0.07524407,0.08047068,-0.5299683,0.5375168,-0.7258942,-0.2545627,0.1094269,-0.7834291,0.8753767,0.8182204,-0.4328002,-0.7330658,-0.5144799,-0.3574938,0.4220156,-0.2617341,0.4872868,0.6075451,0.6221335,-0.7052395,0.7254462,0.7323899,-0.1459249],[0.8570724,0.8440621,-0.6944478,0.6347461,0.8104746,-0.6266479,-0.6900311,-0.05179417,0.6001,-0.5445578,-0.100865,-0.05734694,0.2777035,-0.14915,-0.3836831,-0.3773807,0.5289338,-0.4113597,-0.4363083,0.8326883,0.9662354,0.757683,-0.4297112,0.259422,-0.2201172,-0.4452578,-0.08803046,-0.8569372,0.5692825,0.2258934,-0.6132338,-0.9083145,0.138146,-0.4840907,-0.930934,-0.872591,-0.08577454,-0.01885808,0.8555319,0.2440678,-0.02528727,-0.4303271,0.8449898,-0.4477104,-0.2887732,-0.1825811,0.2253088,0.0148443,0.6736403,-0.3850101,-0.2325603,0.8681233,-0.6208148,-0.5375473,-0.7889955,0.6207478,-0.472181,0.3050904,-0.1979131,0.334548,0.2636721,-0.6433158,0.1983029,0.7584941,-0.1449233,-0.09940064,0.5893912,-0.5805171,-0.7249124,-0.05829704,0.5919747,0.6878772,0.4237628,0.471518,-0.8918939,0.6759689,-0.2252876,0.08245432,-0.1508073,-0.1733521,0.8045471,-0.1531173,0.1714839,-0.3764414,-0.2024235,-0.8653853,0.9498119,0.5825515,0.4653959,-0.4609247,0.3874247,-0.9438226,0.8829129,0.3219113,0.09891307,-0.2368428,0.07952249,-0.2653404,-0.4607962,0.05987489,0.7813096,-0.9331882,0.1784555,-0.1374627,-0.6398203,-0.04128993,-0.1689619,0.9270401,-0.1516997,-0.2825016,0.01954877,-0.2776133,-0.3844088,-0.5383801,0.3092298,0.620167,-0.8505998,-0.2304941,-0.2159773,-0.1574143,-0.2153233,-0.1503583,-0.03959692,0.5815809,0.2941384,0.2374219,0.7226403,-0.46389,0.9938931,0.6438208,-0.9782214,-0.3217977,-0.8929801,-0.4383367,0.306652,-0.1321985,0.6305575,-0.8076556,0.4741666,0.6689644,0.5910673,0.3987677,-0.6142802,0.4598279,0.7843921,0.03312266,-0.151944,-0.6317918,0.9380164,-0.838639,0.9129109,-0.9030933,-0.849256,0.4535167,0.9838798,0.3993153,-0.7757525,0.8512251,-0.7769232,-0.5796077,-0.1801087,-0.1424154,0.2527871,-0.1905369,-0.7656004,0.4938073,0.8881707,0.9255986,-0.7407441,-0.8156185,0.961283,-0.9898977,0.8938148,-0.8238873,0.113439,0.765296,-0.3735608,-0.8983886,-0.3870608,0.3701973,0.3050198,-0.09519732,0.3841817,0.0004893541,0.2020968,0.9165041,0.04106915,-0.7495224,0.5761964,0.507791,-0.8740048,0.1990978,-0.3889169,-0.2996298,0.4713063,0.3294353,0.1805757,0.4928143,-0.7541866,0.475671,0.4475183,0.5327344,0.08851469,0.03500831,0.09996116,0.4035601,-0.06025827,-0.7948771,-0.4808491,0.5205541,-0.4974965,0.6249342,0.5555644,0.6598396,-0.002130389,0.5611701,0.8519225,0.7179608,-0.763329,-0.4169999,0.1739894,0.8390505,-0.01831377,0.1037737,0.9984903,0.1588613,-0.9882605,0.6917951,-0.7592258,0.04873955,-0.2891663,0.7501085,-0.9145701,-0.03523004,0.7889998,0.8233926,-0.4437448,0.2302877,-0.9529381,0.5377321,0.4449441,0.5881691,0.07283962,0.006506324,0.0657028,0.04974496,-0.1211518,0.1421679,0.9696114,0.6819322,-0.3481103,0.07090271,0.2016464,-0.9276862,0.976773,0.6224978],[0.01441061,0.258461,0.5308847,-0.2344552,0.7880347,-0.9125834,-0.6208282,0.8611698,-0.4898583,0.8134,-0.5601404,-0.9607241,0.7646751,-0.3818649,0.1759154,0.5109198,0.2781727,-0.4117812,0.8079004,0.5806277,0.7576568,0.4193875,-0.6850441,0.8160405,-0.4958974,0.9610286,0.8997214,0.01712501,-0.8709488,0.4743201,0.4744653,0.29301,0.9062929,0.4570853,-0.5587635,0.3183176,0.01946795,0.6366949,-0.6297026,0.7475355,0.2256995,0.789974,-0.3746487,-0.1804212,-0.4818214,-0.01934683,-0.3001496,-0.002807021]],[[-0.2874399,0.2933981,0.501317,0.9393086,0.6381223,0.1751851,0.7013769,0.4218116,0.642262,-0.3506778,-0.245839,0.5813787,0.2742822,-0.02847397,-0.07748711,-0.2020892,0.5787628,-0.7226737,0.582284,0.1593553,-0.02151334,-0.6719995,-0.2829255,0.7034905,0.3353195,0.02839506,-0.714623,-0.7363009,-0.7171123,0.6538203,-0.7040617,-0.4838485,-0.3221539,-0.4985698,-0.1204408,0.6985652,0.5744681,-0.3324605,0.4935183,-0.6445775,-0.1933664,-0.5953054,-0.5240021,0.0275892,0.8293324,-0.1804665,-0.09010422,-0.2389711,0.7341232,-0.7297149,0.7555828,0.4527151,-0.7130108,-0.2464229,0.06857264,0.277714,-0.06830323,-0.6681247,0.9601543,-0.9179602,0.9298899,0.8954906,-0.6860337,0.02330196,0.08619201,0.2334262,0.8453763,0.2409247,0.9888971,-0.2136167,-0.0811373,0.4042191,0.3293366,-0.8109336,0.6194763,-0.9824917,0.07950556,-0.8735461,-0.2334694,0.190024,-0.6224413,0.7360759,0.3199463,0.2110943,-0.9905334,0.3103838,-0.7842369,0.0251497,0.9705439,0.3818164,-0.8852048,0.9309886,-0.365784,0.6122644,-0.5028737,0.1878535,-0.7501535,0.4055795,0.8265793,-0.003640532,-0.2228137,0.2771313,0.4436388,0.9674954,-0.9557021,-0.9466991,0.7176592,0.7057478,-0.06355083,-0.2262589,-0.8063912,-0.1375688,-0.1362749,0.9376493,0.05459869,-0.2980107,-0.3828095,0.1559078,-0.6257079,-0.7902653,-0.3416401,0.03778398,-0.5456026,-0.7369571,0.8481362,-0.9255612,0.1116241,-0.7771337,0.4803383,-0.4572409,0.01073992,0.6552362,0.9079192,-0.5705423,-0.7457311,0.00389111,-0.5261393,-0.1525172,-0.142737,0.8570013,-0.9001853,-0.07390225,-0.05530941,-0.3929468,0.6304667,-0.4377803,-0.821142,-0.3528186,0.5018771,0.7700408,0.9835479,0.01133406,-0.06040108,-0.9057686,-0.8745413,0.384768,-0.4337167,-0.6478417,-0.09217703,-0.4574269,-0.5200791,-0.2592772,0.2298905,-0.2377764,-0.7283924,-0.5157261,-0.5143137,0.8368869,0.598609,-0.9293885,0.1609937,0.8303406,0.3305688,0.3159959,0.4531972,0.6419513,-0.4075218,0.1404203,-0.8706503,-0.5648124,-0.7810509,0.2794087,-0.9901519,0.5586975,-0.6121747,-0.4083518,-0.4270152,0.7905409,0.824271,-0.1123699,0.1224092,0.8850105],[-0.07241046,-0.4901313,0.5459146,0.5643346,0.03984654,-0.6782556,-0.1860598,-0.8438928,2.18153E-05,0.149465,-0.4480237,0.5470495,-0.3888808,-0.9228866,0.5494723,0.634222,0.8025692,-0.3796402,0.4573416,0.5576596,-0.7077835,0.2262217,0.08522713,0.06566107,0.1944741,0.3251986,-0.7466755,-0.935668,0.2765033,0.2231375,-0.4598116,0.8555708,-0.2423033,0.8099096,0.3982906,-0.06984103,0.2794299,-0.8189404,0.8355103,-0.1529158,0.1632706,-0.6241653,0.9410417,0.851599,0.8066342,-0.3732973,0.4636831,-0.3435022,0.440294,-0.4464844,0.5804789,-0.3156947,-0.6489484,-0.2707356,0.1928064,-0.09178221,0.8124437,0.596215,0.5005989,-0.6654623,0.9394267,0.1877676,-0.07325685,0.4128425,0.2419246,-0.4915291,-0.9046462,0.6685979,-0.691916,0.7735846,0.6078656,-0.2891475,0.2540877,0.5779686,-0.6502059,0.2204665,-0.2132884,0.832329,-0.8574359,-0.6276226,-0.8869727,0.1976558,-0.2041796,0.04475129,-0.09328473,-0.4700476,0.8913252,-0.9488199,-0.191502,0.162079,-0.04389632,0.4387881,0.9314706,0.6395612,-0.6169553,0.8851104,-0.4131111,0.1402403,0.8690419,-0.7771301,0.4642029,0.1304151,-0.5267789,-0.05359876,0.7444851,0.88644,0.3158433,-0.1141022,-0.6185424,0.9219582,0.08579361,-0.7656047,0.434143,0.8090513,-0.2935413,0.5552793,-0.6215961,-0.2691134,0.1264654,-0.2542809,0.91451,0.3838317,-0.4522198,0.08144057,0.3868329,0.7816851,0.9996309,0.5970917,0.6915388,0.4066713,-0.4951037,-0.5964751,-0.9741671,0.1085836,0.3325233,0.03544509,0.1287624,-0.1821171,-0.306553,0.6567104,-0.7554452,0.9298627,-0.7237892,-0.6217747,-0.6962597,0.7017868,-0.6223896,-0.07185805,0.4733655,0.8920085,-0.9334514,-0.02559626,0.3191693,0.2726073,0.3595066,0.8830109,-0.813458,0.5928783,-0.3035961,0.1575946,-0.7185919,0.8703644,-0.5375564,-0.5339737,0.7578073,0.702265,0.6218948,0.1654299,0.6360531,-0.844161,-0.7677479,-0.02308857,-0.8233116,-0.1584152,-0.5291896,-0.8348589,-0.3229519,-0.2590233,0.8947089,-0.5837791,-0.4779271,-0.2882055,0.8588264,-0.1133238,0.7890704,-0.3116652,-0.7552199,-0.5509973,0.15371,0.3974468,-0.4248942,-0.1924702,-0.3029622,-0.07873213,-0.6378834,0.9808412,-0.9573686,-0.1138769,0.6823967,0.6166306,-0.4175302,0.4922409,-0.5120246,-0.454935,0.2545919,0.04572713,-0.8050687,-0.1109816,0.2247061,0.07414234,0.3364451,-0.1943747,0.1487581,-0.1256772,-0.1569752,-0.3306147,0.8704917,0.5933878,0.8737378,0.1957785,0.8663657,-0.2622081,0.8895521,-0.9989839,0.1304196,0.4411244,-0.6390038,-0.5588868,0.8310616,-0.210127,-0.3629578,0.5582235,-0.1323372,-0.195928,0.599015,0.1287762,0.05402911,-0.393412,0.8409276,-0.4104167,0.5241652,-0.2534398,-0.2196926,0.3976345,0.8752718,0.9595549,0.1761967,0.309154,0.1737555,-0.9526215,-0.1901742,0.8653305,-0.7314563,-0.1733361,-0.8542144,-0.3930033],[0.8215387,0.8658602,0.7490141,-0.5608666,0.9206443,-0.9109137,-0.007730603,0.442434,0.315139,0.01857316,-0.9665308,-0.6000488,-0.08980215,0.8008375,-0.1290029,-0.7485452,0.6173015,-0.602679,-0.6821964,-0.1440769,-0.3858212,0.3502025,0.2609219,0.5060241,0.9264612,-0.4200598,-0.1804072,-0.2970036,0.7978303,0.7684612,0.8116665,-0.7737257,-0.05016124,0.3951249,0.4829809,-0.0170058,0.2274824,-0.8119917,-0.6456063,0.4177208,0.173637,0.5068924,-0.1149133,0.396652,-0.09089267,-0.2921304,-0.1815926,-0.6061354]],[[0.8632596,-0.2996582,-0.866164,0.8772364,0.4481585,-0.07853115,0.8260779,0.3314638,-0.8413467,0.6165791,0.1882781,0.8093636,-0.6904864,0.5435636,-0.5839963,0.9641979,-0.1319467,-0.6404054,0.7423358,0.6977942,-0.757108,-0.3312646,-0.4945959,-0.2018105,0.5956271,-0.3281783,0.7202227,0.7698667,0.2395118,0.3654005,-0.1743971,0.3781643,0.4822728,0.9714911,0.1962136,0.6382298,0.6133406,-0.3961278,0.5391927,0.7885923,0.7116458,0.2110659,0.1554526,-0.1334699,0.1260706,0.8062432,-0.5103531,-0.8446782,0.7642343,0.2443682,-0.2381014,0.2717631,0.7973754,0.1195265,-0.268521,0.8483458,0.5302107,0.7835789,-0.06815064,-0.545459,-0.599262,-0.2441033,0.3397441,-0.8266535,0.7892587,-0.2551147,-0.8313537,0.1942502,-0.3173057,0.6541193,-0.5232055,-0.06991208,-0.1709772,-0.9311526,-0.3271526,-0.02488387,-0.013924,0.9708288,-0.9289916,0.6240268,0.3036432,-0.5646472,-0.6057925,-0.3776771,-0.3185679,-0.536001,0.2618689,0.8993511,0.3041265,0.0009270906,0.8473437,0.6338065,-0.2595228,-0.2381955,0.8014138,-0.5158432,-0.1804579,0.2304076,0.2520885,0.880559,0.1971074,0.9059944,0.9956653,-0.7678638,0.08176839,-0.351066,-0.2525591,-0.5038812,0.2567482,0.02448857,-0.322734,-0.3944014,-0.09399164,-0.04793084,-0.07389438,-0.5127521,-0.6274757,0.6630442,-0.5511019,-0.3047127,0.02464759,0.1554688,0.1477395,-0.9766409,0.6286643,0.3295886,-0.6169732,-0.6762147,-0.6204474,0.7949979,-0.07856762,-0.051952,0.1029674,0.4764569,0.2274722,-0.5554819,-0.7934124,0.6614208,0.7624886,0.114684,0.3590202,-0.2446991,0.9124091,0.3141989,0.3909278,0.1410786,-0.7905474,-0.1989182,-0.5765333,-0.3588005,0.5488665,0.1250771,-0.368766,-0.2300621,-0.8898373,0.801847,0.815804,0.4403915,0.7825718,0.2516868,0.6623766,0.485276,-0.2975453,0.1249694,0.07534134,-0.5011656,0.4097984,-0.6075158,0.5426762,-0.5389223,0.9721034,-0.5784569,0.4738645,0.2534737,0.7158821,0.9998634,-0.107076,0.4190225,0.2651665,0.5549543,0.5850704,0.2020444,-0.618408,-0.385193,-0.6311018,0.1094702,-0.2096392,0.3806181,0.8842709,-0.7710166,-0.8423262,0.7928386],[-0.4334089,-0.8352067,-0.5232477,-0.4491576,-0.6243975,-0.4843632,0.2485079,0.05481398,0.7459764,-0.7332306,-0.4461995,0.8315365,0.8209174,0.1020974,-0.8528323,-0.7006552,0.6766901,-0.7840323,-0.4388644,-0.754482,0.7419708,0.4921419,-0.7454739,-0.6825137,0.4644112,-0.6970382,0.526649,0.32657,0.633019,0.4563758,-0.8954546,0.9776011,0.2561879,0.6894674,0.5844057,0.04724681,0.03939545,0.9391234,-0.02255619,-0.02626956,0.2813666,0.3905773,-0.1930834,0.2892811,-0.07756031,0.4374888,0.7800345,0.3759069,-0.150082,0.1679536,0.740345,0.4543478,-0.2030412,0.1344227,0.9518456,0.4268412,-0.1156179,0.6564534,0.7743428,0.8903756,-0.7230399,-0.49322,-0.9084749,-0.6909826,-0.3669275,0.3755157,-0.3986412,-0.4362742,-0.1623496,-0.6087468,-0.09383714,0.6773138,0.9847407,-0.405198,-0.5353196,-0.8194206,-0.7868397,-0.2749289,0.9722455,-0.4652768,0.1322182,-0.803247,0.1829036,-0.5194492,0.03536642,-0.4195281,0.3591838,0.07630002,0.4050247,0.6143184,0.944519,-0.6709356,-0.9683824,-0.2768315,0.9242373,0.4599306,-0.7747316,-0.3064827,-0.1246201,-0.09624326,-0.1231688,-0.891326,0.7609532,-0.4719628,0.7358708,-0.08717072,0.680198,0.7629743,0.1874794,0.5494957,-0.188423,-0.4299172,-0.6112478,-0.3118418,0.6213329,-0.4672505,0.4746997,0.7167294,0.9631138,0.4589002,0.04942167,0.106887,0.2923279,0.2288595,0.2155582,-0.7576139,-0.5595615,0.01539004,0.8912408,0.6569874,-0.9061806,-0.7581182,0.6393063,-0.213488,0.9492793,-0.9046476,0.7182295,-0.07786882,-0.495371,0.5018139,-0.290145,0.2256602,0.8038898,-0.314669,0.2730336,0.2968147,0.3917219,0.7290113,0.9336598,-0.89801,-0.139084,-0.04818141,0.2252001,0.1919779,0.5820575,-0.4981221,-0.5689824,-0.8713067,0.5780528,-0.0139538,0.5624714,0.7289381,0.7700043,0.1667835,-0.9226432,-0.8773212,0.5583649,0.579921,0.7690084,0.7793672,-0.2474431,0.51246,0.4743669,-0.5562484,-0.6794271,-0.07204211,-0.3243324,-0.9840426,-0.9591625,0.009563565,0.2949283,0.5677683,-0.06913483,0.4867229,-0.6356885,0.793431,-0.3244296,0.4268152,-0.779948,-0.5843987,-0.1135107,-0.653115,-0.2632025,-0.5027397,0.3962824,0.1881129,-0.7150223,-0.03743351,-0.9626284,-0.2775317,0.3972015,0.6406465,0.713275,0.282047,-0.6326792,0.60361,-0.4675738,-0.8698604,0.8004739,0.8625598,-0.5054221,-0.4301397,-0.1817111,-0.6204777,0.251595,-0.7076237,0.1163579,-0.9573734,-0.4588391,-0.6735938,0.7436736,-0.2136523,-0.2762452,-0.2883068,0.9592485,0.1906255,-0.005245805,-0.1731051,0.324949,-0.3202425,-0.4893931,-0.2206095,0.9855855,0.1339227,-0.2708865,0.167492,0.01444852,0.4323742,0.5116508,0.1419262,0.8686645,0.2451257,0.3763737,0.3276143,0.5436723,0.7304094,0.9584818,0.558847,-0.5775139,0.6650465,-0.2722224,0.6359072,-0.3835009,-0.462813,0.4297518,0.4344465],[0.483351,-0.1546611,-0.4581991,-0.2733203,-0.5150037,0.6274054,0.4875974,0.3174834,-0.3292283,0.5200162,0.1767191,-0.2435914,-0.716572,0.7303059,0.9785244,0.3101129,0.8062084,-0.5302291,-0.3455099,0.06458557,-0.4245552,0.7206993,0.8832314,-0.5590885,0.9199114,-0.7784874,-0.1398088,0.8696263,0.09364545,0.3391001,0.04059017,-0.3936893,-0.5974982,-0.3014067,-0.3262891,0.5118773,-0.5289998,-0.08517468,0.8654075,0.1258293,-0.008719802,-0.338533,0.9764836,0.4913273,-0.6220455,-0.7858639,-0.8996916,0.4360804]],[[0.5518947,0.7209971,-0.927372,0.5613651,0.3697233,-0.6434741,0.08361876,0.7742424,-0.2112817,0.8223493,0.4992294,0.5471253,0.5146992,-0.7208443,-0.006812692,0.3125775,0.6052356,0.1257733,-0.004673839,0.4813409,-0.3813409,0.3034403,0.3767936,0.7453046,-0.3801461,0.8963604,0.7419169,-0.5754967,-0.7881641,0.2810661,-0.05196893,-0.98682,0.476391,0.6151841,-0.9236867,-0.5539227,0.4890637,0.8111494,0.7670701,0.8937459,0.4111893,-0.3373014,-0.3628925,-0.1317962,-0.6806996,0.02076924,-0.2116853,0.7025816,-0.7790227,0.9273465,-0.2125376,-0.6248498,0.2637083,-0.02095211,0.3289618,-0.9273424,-0.3694106,-0.9796102,0.02044833,0.4021997,-0.5451624,0.1042014,-0.2826589,-0.4468921,0.7807519,-0.1455706,-0.7981617,-0.9773433,0.6789637,0.708046,0.7994454,0.4444952,0.3257658,-0.8585429,-0.3599123,-0.2564656,0.8923156,-0.7586734,-0.983027,0.8372381,0.1038395,0.7569079,-0.5636244,0.2699842,-0.3986746,0.07114661,-0.2789582,-0.6043906,-0.4993993,0.9136133,0.05786574,-0.8321748,-0.8053308,0.9238329,-0.4157377,0.6647124,-0.06389701,0.06576335,-0.7788255,-0.2853678,-0.002731442,0.1831259,0.8895831,-0.2225682,0.591222,-0.4006704,0.9042938,0.4098594,0.001467824,-0.4939111,-0.6296129,-0.4518851,-0.767401,-0.9499397,-0.815819,-0.425366,0.2662744,0.04095328,0.2410077,0.02132571,-0.5650654,0.4645827,-0.473714,-0.2426177,-0.1670381,0.07354295,0.3686905,0.2896313,0.8267987,-0.9413614,0.4172375,0.2834074,-0.03394425,0.499052,0.008257747,-0.1058389,-0.545769,-0.1949528,-0.4102818,0.04848015,0.8818185,0.3243522,0.808542,-0.3381668,-0.8432994,-0.001334786,-0.6882725,0.04746807,0.8225093,0.05687511,0.3290071,0.5345061,-0.8277042,-0.1667825,0.4216718,0.4350002,0.5914912,0.3789527,0.005298972,0.07297599,0.557519,0.361777,-0.3043422,0.8772533,-0.8661597,0.1799651,-0.1750604,0.9680598,-0.9870322,-0.3393954,-0.9746804,0.1198019,0.5077367,0.585115,-0.6150956,-0.30115,-0.4088439,0.8584893,-0.08674204,-0.5847461,-0.9255362,0.3389508,0.8659575,-0.06569684,-0.2402765,0.6103864,0.4688859,-0.8932931,-0.8917947,-0.576437,0.7830772,-0.8494675],[0.9542465,-0.03017318,0.1401097,-0.08171237,-0.784276,0.9273148,-0.6460347,0.5736732,-0.5719285,0.3821633,0.7813821,0.3924143,0.6004562,0.821857,-0.4658529,-0.8188264,0.6650176,0.1606187,-0.7872818,-0.7878604,-0.2159981,0.8144484,-0.9909911,0.1425506,-0.5099771,-0.6012495,-0.05674064,-0.4126436,0.1942562,0.3412637,-0.4195031,0.5832062,0.453206,0.3708963,-0.6098394,0.6116803,0.7569137,-0.2203113,-0.05508268,0.4709377,0.8371105,0.4173689,-0.03884685,0.3089802,-0.5462596,-0.9989767,0.8966849,-0.5479312,-0.9758718,0.1434294,0.8664608,0.6866424,0.9719989,-0.5354469,-0.4884638,-0.004382491,0.8050036,0.8290355,0.9599411,0.01009333,-0.4527584,0.7241876,-0.4630738,-0.3447171,0.9991939,-0.09799635,-0.2460693,0.628073,-0.9234633,-0.1053995,0.4768459,0.05566847,0.6971557,0.5380354,0.2055398,0.3423912,0.7419925,-0.5809071,-0.3196276,0.7274132,0.1492301,-0.2886955,0.8864639,-0.3232726,0.02386916,0.329468,0.8217938,0.6486671,0.1401285,0.3841452,-0.7419078,-0.06343806,0.03921974,0.2160274,-0.0186187,0.001310945,-0.705308,0.06231654,0.2885067,0.3646791,0.3756475,-0.7774303,0.2050518,0.1884421,-0.3850459,0.9004996,0.2982118,-0.6520569,-0.4113261,0.2224196,0.5146873,0.3994729,0.01326263,0.8148613,-0.2545422,-0.77668,0.6845391,0.8800793,0.1853215,0.2851627,0.02982819,0.7093487,-0.4063569,-0.5821137,0.7098348,0.8429639,0.4792325,0.3964832,0.9809852,-0.3636054,-0.1566221,0.4116792,-0.1325277,-0.7055433,0.07733214,0.02709544,0.8346786,0.7564068,0.5907936,-0.9915121,0.3228213,0.5761416,-0.5165474,0.8226829,-0.9955523,0.8218937,-0.1892649,0.2451133,0.8807638,0.8875659,-0.786921,-0.01164043,0.8897231,-0.559098,-0.7634592,-0.3502723,-0.08951747,-0.3091406,-0.7269042,-0.516099,0.9670386,-0.5224037,0.6346631,0.7627869,-0.01610363,0.6164954,-0.09438598,-0.9500613,0.506372,-0.2187113,-0.8859782,-0.4625918,-0.2406379,-0.1617278,0.6720543,0.1300384,-0.1920546,-0.2562505,-0.9139748,-0.1955887,-0.5185974,-0.2097932,0.8288231,-0.8545389,-0.4764556,0.6147821,0.461739,0.2466198,-0.8690984,-0.6855066,0.4617636,0.4334151,-0.776686,-0.5901756,-0.5253942,-0.4239286,-0.9612818,-0.6856077,-0.0681566,0.98295,0.8459303,-0.3543416,-0.8703222,-0.8406076,0.09574544,-0.6885216,-0.5949636,0.08012521,-0.8000481,-0.2683026,-0.3242947,-0.0006412268,0.02876127,-0.8820736,0.0150212,-0.001598477,0.2439712,0.4238722,0.9061399,-0.3451778,0.07965982,-0.886909,0.364907,-0.4450635,-0.5677979,0.03828657,-0.4661754,0.946342,-0.9000456,-0.9762187,0.2131542,-0.4896482,0.5509615,0.1247176,0.9791064,-0.0747627,-0.7329485,0.9939363,-0.438167,0.1703874,-0.9262433,0.9380922,-0.593976,-0.4534684,-0.02476633,0.8094885,-0.1688038,0.6999888,-0.6630423,-0.686286,-0.02212274,0.4630785,0.9158213,0.205429,-0.08759725,0.6338174],[0.7124522,-0.6611958,0.2215861,0.5452614,-0.01086128,0.7932193,0.928498,-0.4895953,0.5290589,0.9695199,0.3349826,0.3965392,-0.4538792,0.7742176,-0.9856558,0.623615,0.1107756,-0.5435948,-0.4101626,0.6424947,0.5147362,-0.1717149,-0.2681969,0.8719163,0.7454317,0.8736939,0.278109,0.5978262,-0.07011783,0.8762007,-0.09084737,-0.3311452,-0.5331752,-0.7292554,0.3805213,0.7331324,-0.1854733,0.7959404,0.8449712,-0.6283817,0.6622717,-0.4529406,0.5586157,0.914078,0.5448654,0.1836566,-0.3649801,0.2930166]],[[-0.4635917,-0.01427758,0.5764105,-0.1610695,-0.4469243,-0.2983185,0.2917673,0.7561221,0.09625971,0.7099211,0.7414396,-0.8958042,-0.1105143,-0.9871783,0.9873946,0.381727,-0.2349943,0.8230085,-0.3959628,0.6852152,0.7407241,-0.648201,-0.2720836,0.06928027,-0.9761934,0.02487004,-0.7892687,0.5004313,0.08316457,0.5468297,0.5405927,0.6445918,0.3412926,0.01133525,-0.7879238,-0.8539975,-0.9683709,0.1566943,-0.6049607,0.3611939,0.4153218,-0.7226017,-0.495658,-0.8973081,-0.1814357,-0.7720931,0.4589038,-0.3075422,-0.07329357,0.122269,0.8960738,-0.4699882,-0.5049205,-0.622098,-0.6894197,0.7400715,-0.9210999,-0.848841,-0.7384384,0.9738126,-0.3488392,0.9732475,0.9050865,0.7624314,0.332159,-0.8150702,-0.105024,-0.729733,-0.6573472,0.6442115,-0.8403096,0.4760577,0.9117467,-0.08876073,0.840853,-0.6480837,0.4456019,0.821285,0.52248,-0.3877379,-0.7466166,-0.8384182,-0.1917661,0.8787427,-0.190004,-0.4690751,0.8352127,-0.5896716,0.4496236,0.4012632,0.7333462,-0.926415,0.96158,-0.549968,-0.6001825,-0.6263344,0.02226126,-0.8707345,-0.4597322,-0.1526953,-0.8258529,0.05930388,0.0404495,0.6980805,0.8514206,0.886287,-0.3279334,-0.2202917,0.3899646,0.8052649,0.6978543,-0.7695739,-0.4402171,-0.8622332,0.7324467,-0.3152829,-0.6656101,0.3955912,-0.7591405,-0.6766918,0.5743513,0.1757251,0.560787,0.8261971,0.3999104,-0.2319168,-0.3935102,-0.8512249,0.9158211,0.9528222,0.9811163,0.3855474,-0.1824623,-0.4015306,-0.8293781,-0.9673395,-0.9420643,0.1284295,0.9666781,0.2814405,0.0282017,-0.3294121,-0.7768326,-0.8985875,0.2953179,0.7755039,0.7299681,0.3350258,-0.4362086,-0.7571564,-0.4727701,-0.7813628,0.6599419,0.28078,0.6961627,0.7295892,0.2098075,0.1315094,0.422024,0.1092061,-0.3228785,0.05519378,0.8402307,-0.1743542,0.8852904,-0.9614918,0.7865822,-0.3045932,0.6695085,-0.8631616,-0.4731456,0.1139818,0.6701884,-0.4278525,0.4059124,0.3664615,0.7223833,0.7717559,-0.1142048,0.6713564,0.1073207,-0.06376302,-0.3894271,0.5723202,-0.07993734,0.8675108,-0.4264714,-0.3943657,0.8731217,-0.6811624,0.4343259,0.3136155],[0.6071005,-0.4657131,0.9300327,-0.4618045,0.3166241,0.8259976,-0.02850544,0.4785323,-0.2780906,-0.9489269,-0.483857,0.2237593,0.7705815,-0.985729,0.4902885,0.8344839,-0.7737193,-0.5880003,0.4047286,0.2935774,0.5529091,-0.625077,0.7413669,-0.7891183,0.7274702,-0.4698335,-0.3428737,0.01143658,0.2305831,0.4702856,0.6495042,0.3619711,0.3718805,0.1028479,0.7691309,0.8641043,-0.9196727,-0.4109572,-0.09875619,-0.1613759,0.2743904,0.6258516,0.806957,-0.570904,0.6832259,0.8543332,-0.4028839,0.9768422,0.7619548,-0.1584059,0.9502025,0.07330072,-0.742734,-0.8345795,-0.456153,-0.6863334,0.3313112,-0.6084003,-0.3425423,-0.8767135,-0.2162768,-0.9915497,-0.5866265,0.5373089,-0.5763373,-0.8932307,-0.7784095,0.5168371,0.05831707,-0.5602851,0.5878971,0.8674779,0.07048333,0.481502,0.2632513,-0.647115,0.5101664,0.6758001,-0.08956563,0.7142355,0.01256287,0.4533057,0.8467112,0.2034351,-0.6286614,-0.2006584,0.06073844,-0.5760353,-0.1972679,-0.6663747,-0.5319245,-0.02140033,-0.8826768,0.2726695,0.7456954,0.7051821,0.7572734,-0.662725,0.6927831,0.7896917,-0.429788,-0.9828744,0.3425431,0.7761843,-0.8145149,0.3553061,0.2764182,0.4540763,0.1765181,0.7256653,-0.3167926,0.6285963,0.894783,-0.6289573,0.1117719,-0.2429687,-0.7417943,0.9155545,-0.2281829,0.4412944,0.07924497,-0.7081664,-0.7606554,-0.8187642,-0.9046261,0.858608,-0.6903052,-0.05552852,-0.1489483,-0.7876251,-0.7420609,-0.2415551,-0.02387154,-0.9423673,0.9011917,0.6990438,-0.7391186,0.8455784,-0.3386823,-0.04000437,0.126067,0.8238862,0.1939071,0.3225019,0.6596112,0.87186,-0.7909095,0.2793214,-0.55424,0.03375447,-0.3251411,0.5341625,-0.3168739,0.8491378,-0.2994977,-0.6429164,0.9019048,0.8036966,0.6808321,0.1114954,0.7011693,-0.5353026,0.1145965,-0.01768386,0.214115,-0.3260368,-0.3834997,0.6759541,0.9594646,-0.5104482,0.01234925,-0.9795845,-0.1787928,-0.203494,-0.03000367,0.5443575,0.341434,0.2873416,0.1904773,0.2988624,0.2985873,0.457052,-0.4364458,0.805367,0.07580221,-0.2507685,0.2026154,-0.6364684,0.2985,0.0859741,0.04976833,-0.2561287,-0.5252092,0.9981644,-0.4179524,-0.842134,0.6045036,0.4963937,-0.8975027,-0.8818574,-0.1147445,-0.5811074,-0.8644788,0.19511,-0.3184665,-0.5198231,0.4843621,0.06763637,-0.7895298,-0.4004904,0.05266583,-0.9096174,-0.193103,-0.3152519,-0.02112067,0.1811393,-0.4195231,0.6562636,-0.9676223,-0.7318165,0.7384837,0.5219734,-0.3100773,0.2753739,-0.5755103,-0.7280481,-0.5424304,0.5333197,-0.6422067,0.9205375,-0.5313399,0.5694644,0.1406749,0.1393682,-0.7762053,-0.7954423,0.3416536,0.8355772,0.1183349,-0.1577593,-0.6216624,-0.5195863,0.2909097,-0.6348219,-0.8249283,0.1833287,-0.2339431,0.5082269,-0.4367431,0.9527795,-0.1719698,-0.7199125,0.7121191,0.772758,-0.9096622,-0.5722029],[0.4416284,0.7265813,0.388261,-0.4213012,-0.9518936,0.9221051,-0.04872477,-0.888329,-0.3836612,-0.6847239,-0.5952833,-0.9123273,-0.913337,-0.9815967,-0.8922012,-0.5330715,-0.7864733,0.8248622,0.006458402,0.6610007,0.4193825,0.1874212,0.2829673,-0.1497613,0.4861853,0.3114834,-0.8303137,0.1130065,-0.5429256,-0.848171,0.9481735,-0.1174213,0.05531085,-0.7571585,0.1681615,-0.4666229,-0.04589307,0.8117609,0.2760396,0.5382881,-0.2982324,0.2641356,-0.3782448,-0.1603619,-0.08203232,0.1866161,0.7107103,-0.7028291]],[[0.831408,0.806648,0.5073159,-0.467446,-0.3408407,-0.9993386,0.6385868,0.2910692,-0.4215258,0.4365444,-0.5001032,0.7976446,0.4961776,0.9582818,-0.6930587,0.4060421,-0.7030952,-0.03163135,-0.7882993,-0.07173431,0.6267476,0.4845245,0.8429594,0.8174703,0.4816367,0.1495854,0.6767581,-0.3581644,-0.4982246,0.2531647,0.2040111,-0.4525059,-0.179902,-0.8231623,0.4424295,0.64082,-0.5344365,-0.1334969,-0.7429001,0.7511208,-0.3936926,0.45296,0.002168775,-0.5054605,0.1695608,0.3803839,0.6319931,0.7294464,0.6920249,0.4559054,0.5649762,-0.281547,0.02467549,-0.9539378,0.4686837,0.09977257,0.8795967,0.4338157,0.04471624,-0.7338791,-0.513891,0.4546959,-0.9143703,-0.1769384,0.8285425,0.2028719,-0.8206475,-0.2846254,-0.4354666,-0.5919528,0.01079357,0.5400856,-0.9449139,0.5152667,0.5726864,-0.6039436,0.7529774,-0.6410131,0.7912951,0.707304,0.2370688,-0.4734951,0.3712382,-0.8760731,0.7559249,0.4374201,-0.6715939,0.8399935,0.9500222,0.6175232,-0.5015824,-0.4630626,0.3321461,-0.6815915,-0.05174482,0.09908044,0.8644836,-0.830363,-0.6034153,-0.2910091,0.6993659,-0.6807165,-0.5677688,0.08032858,0.748024,-0.080006,-0.218902,-0.7736785,0.08224571,-0.001891255,-0.2680367,-0.3328267,-0.6212204,0.3810854,-0.8881428,0.02388036,-0.2166427,-0.9055636,0.9638796,0.7779593,-0.1026286,0.3798535,0.9766588,-0.7214518,-0.0981065,0.2494708,-0.9529648,-0.9108524,0.3125994,0.7059858,0.7303789,0.5857661,-0.1304601,-0.4549609,-0.009384036,0.008105636,-0.2892727,0.1704212,0.6022165,-0.2872857,0.1377403,-0.5957823,-0.2059449,-0.5871363,-0.06191909,0.6415098,-0.3036438,-0.9066784,0.9398351,0.9739366,-0.6369283,-0.9646723,0.4475612,-0.5162473,0.7611084,-0.9209168,0.9044151,0.09844887,0.8950162,-0.2940985,-0.6512353,-0.8696909,0.6534245,-0.8852181,-0.01890886,0.7545912,0.2231761,-0.8135481,-0.7378974,0.1401092,-0.6000829,-0.6837463,0.6729379,0.796015,-0.6347907,0.2355765,-0.3247677,0.7572238,-0.2907783,-0.3239008,0.1560425,-0.8972256,0.6133015,0.3007755,-0.3095113,-0.7431934,-0.798686,0.2001311,-0.4692794,0.2167059,0.2265955,-0.9147625],[0.01751792,0.1081544,-0.1656634,-0.9625988,0.278121,-0.5538688,0.146341,-0.7849874,-0.2742926,0.2467138,-0.5458801,-0.1804124,-0.2915434,-0.736341,0.1973063,0.5424862,-0.02736628,0.3242733,-0.1021034,0.8407719,0.8620901,-0.1552414,0.7179213,-0.233888,-0.4465512,-0.7975461,0.6825197,0.1794323,-0.7768593,0.7500141,-0.7341473,0.3437378,-0.3822273,-0.03708279,-0.3133279,0.7002027,-0.07659638,-0.9382601,-0.6593251,-0.9604175,-0.863493,-0.2620884,0.7716753,0.275367,0.8052764,0.3949845,-0.2678901,0.9539268,0.5562055,-0.03494298,0.4365959,-0.2439851,-0.01987565,0.9569719,0.5776389,-0.361611,0.778177,-0.1204933,0.3400018,0.6101813,0.100263,-0.7907131,0.3165188,-0.6797156,0.9943221,0.1303619,0.4826836,-0.1692656,0.8853178,-0.8536556,-0.8193192,0.1764818,-0.732655,-0.6324131,-0.6850109,-0.3180054,0.1910735,-0.2691556,-0.328776,-0.3404354,-0.5561996,0.9219112,0.8167057,0.5089357,0.3365442,0.9026992,-0.7971723,0.8007364,0.4555978,-0.7631397,0.2517349,-0.4823405,-0.9284236,0.6121299,-0.7736299,-0.7756531,-0.65973,-0.6570764,0.5493352,-0.9347103,0.822901,-0.2515246,0.9314504,0.6794763,0.5489736,0.4441034,-0.01709902,-0.2294797,-0.3043064,-0.2681845,0.9296811,0.5500243,0.3409109,0.2034875,-0.1356035,0.4432335,-0.8342397,-0.4923776,0.5270116,0.9097633,-0.1094652,0.8558989,-0.4895386,-0.9802258,0.4104042,0.9313259,-0.001429915,-0.8988833,-0.6846223,-0.2463096,0.4718051,0.5472708,-0.8376024,0.8239226,0.7838583,0.9565945,0.04180777,-0.42826,-0.1827103,-0.5010035,0.1053919,0.4878843,-0.2500311,-0.1468259,0.1465982,0.4323513,-0.1172022,0.432249,-0.3531152,-0.8293376,0.01310575,0.01281369,0.6690862,-0.7527289,-0.3564502,-0.4728907,0.8976612,0.6633317,0.4729464,0.9915221,-0.5646868,0.1369463,0.6707613,-0.764231,0.5908017,-0.4840728,0.9903598,-0.9696054,-0.6150863,-0.3649696,0.3874368,0.9119461,-0.6562469,0.2127901,-0.893466,0.5487931,-0.9074588,0.1190189,-0.4932529,-0.8588688,-0.5776436,-0.184616,-0.2837037,0.2782759,-0.4305562,0.4160101,0.9240036,-0.1659304,-0.8968923,0.9680104,0.7783005,-0.0976578,-0.9153421,-0.711566,0.6777122,0.7095659,0.5952165,0.04535592,0.7993734,-0.9324474,0.8948216,0.572911,-0.52578,-0.2529827,0.5126188,0.1291574,-0.5749366,0.5502281,-0.249297,0.03521836,0.8863895,0.03401649,-0.5013268,0.6918724,-0.2733821,0.2901261,-0.6840706,0.6665804,-0.6834712,-0.2742895,-0.4045752,-0.9913459,-0.463616,-0.8699059,0.9958677,-0.3589009,-0.4507505,0.9497609,-0.6216874,0.9227605,0.03923428,0.6168783,-0.7837856,-0.2524899,-0.139861,0.9083562,-0.2982286,0.7362528,0.5535626,0.1053585,-0.2307192,0.8628469,-0.5650835,-0.3300782,0.6744146,-0.5747566,0.6505351,0.8563538,-0.06837547,-0.2030765,-0.2081,0.9461532,0.776222,0.5283787,0.7863476,-0.8674972],[0.4956762,0.3314135,-0.5986419,0.4600606,-0.4356316,-0.8469062,0.9962831,-0.946348,0.4258568,-0.9809785,0.849412,0.3206532,-0.6498823,0.3798601,-0.7328389,0.996933,-0.08137238,-0.7865057,0.3161032,-0.3892061,-0.6875675,-0.4974943,-0.7443359,0.1587011,-0.670428,-0.3493508,-0.1734296,0.05523074,0.336751,0.2932336,0.4383857,-0.7319603,0.6495142,0.6797514,0.1521791,0.2293063,-0.9561119,-0.3126169,0.400032,-0.1929141,0.01677072,-0.7334993,0.2806134,-0.9446583,-0.7047348,-0.05016458,0.04452288,0.4974622]],[[-0.8848784,-0.01627004,0.7185829,0.05388796,0.4755804,0.22554,0.6419141,-0.8032761,-0.5139577,-0.5049407,0.78283,0.8542969,-0.3049527,0.5982208,-0.1331674,0.4958684,-0.5061173,0.9622834,-0.1957527,-0.6236167,0.9913263,0.1457485,-0.6171517,0.4439351,0.3906119,-0.2439388,-0.1117226,0.8400304,0.4026949,-0.9383314,0.3442151,-0.3692631,-0.3988472,0.7193799,0.281594,-0.4536294,0.7688236,0.6418414,-0.9313622,-0.09547889,0.6361103,0.8769636,0.1164073,-0.2060186,-0.2182161,0.766376,0.7506888,0.5915945,0.7396572,-0.4431511,-0.9788034,-0.9306955,0.8082523,0.4915154,-0.7634749,0.3640899,0.04527462,0.954407,-0.4147602,-0.2273806,0.7467852,-0.2418298,-0.1411513,-0.5234692,0.523922,0.08566606,0.1016592,0.5675104,0.1324877,-0.01709807,-0.8428724,0.2674112,0.7579808,-0.6311812,0.2577269,-0.4640914,-0.03578675,0.3940344,0.4094052,0.5818813,-0.8072798,-0.7456195,-0.6914763,0.3950026,-0.8730664,0.1995741,-0.6195736,0.3942537,0.7845304,-0.9669228,0.4184284,0.7809553,-0.9701517,0.2581072,0.1801468,0.7193301,-0.91571,0.5947101,-0.4708709,-0.7039733,0.3630697,-0.3289183,-0.853348,0.685101,0.9698181,0.536279,-0.4333853,-0.4198016,0.8626056,0.7145088,0.2982754,0.4510398,-0.5191708,-0.8320303,-0.1371428,-0.8755541,-0.1507248,-0.223117,0.8290746,0.9096179,-0.341375,0.389395,0.2354902,0.3214478,-0.4390441,0.4024439,0.3928034,0.01121128,0.4820895,-0.2615329,-0.6843085,-0.951565,-0.6150305,-0.6386979,-0.03354061,-0.03998792,-0.04759347,-0.725224,0.803988,-0.7796006,0.4168889,-0.9853418,-0.367036,-0.2972859,-0.09255445,-0.200102,-0.05015767,-0.5003829,0.8432722,0.1222869,0.691427,-0.4258081,-0.6457465,0.3645014,-0.09705579,-0.05846822,-0.9736831,-0.6282854,0.1616875,-0.04199493,-0.07887685,0.727751,-0.1187369,0.2079483,-0.5013835,-0.2693075,-0.9176075,-0.8506382,-0.9211028,-0.4658066,0.6177933,-0.3780733,0.1648496,0.1525484,-0.9529951,-0.6073403,-0.9503052,0.4676928,0.8500965,0.467004,0.7601771,0.9464226,0.8263156,-0.6268339,0.03764021,0.9218619,0.1827222,-0.1019927,0.6265931,-0.3170117,0.8680649,0.7439284],[0.693742,-0.6408587,-0.8513031,-0.02029622,0.8850646,-0.4567991,0.08429968,-0.3537651,-0.6395831,-0.1784779,-0.1515733,-0.9041204,0.1913568,-0.2485913,0.2013012,-0.1421455,0.7171652,-0.0488354,0.7585788,0.3326811,-0.6614327,-0.5669849,-0.2446955,-0.8327718,0.6243529,0.3408675,-0.2535309,-0.3187844,-0.0467521,-0.1146969,0.4655263,0.8660686,0.9662998,0.499532,0.371448,0.4678859,0.947542,0.2263342,0.3388741,-0.4190103,-0.1414188,0.6364522,0.8004055,0.1281451,0.329328,0.4464061,0.2459947,-0.9301829,-0.9061863,0.7441158,0.4769678,-0.3554395,-0.2096571,0.03425491,0.2398094,0.7716174,-0.07611978,0.1412793,0.9152334,0.1855472,-0.3331248,0.03813303,0.9593639,-0.245581,-0.09319961,-0.561342,-0.6555662,0.1955489,-0.6592913,0.6179645,0.1243092,-0.8859584,-0.7486687,-0.8394501,-0.5518725,-0.5752997,-0.7650349,0.3579066,-0.5971479,-0.7998724,-0.1052798,-0.8702738,0.2718291,0.9528205,0.2554288,0.7274415,-0.9264555,-0.797689,0.495708,-0.2871834,-0.3954784,0.8988764,0.8018048,0.2310988,0.9392128,-0.6824608,-0.8782003,0.8680379,-0.8988962,-0.9739702,-0.388543,-0.3080987,-0.6234984,-0.9572895,-0.1745423,-0.7327554,0.3611829,-0.7996356,-0.2587367,-0.1112512,0.9323239,0.01318896,0.5135715,-0.1711458,-0.7109373,0.7179096,-0.8449812,0.4385862,0.1332928,-0.1441935,-0.1666855,-0.4477488,-0.1987497,-0.01108086,0.9395792,-0.1605116,0.8596909,-0.4738415,-0.2049319,0.2399396,0.2800896,0.4327378,0.2631366,-0.6126597,0.08418167,0.6211064,-0.8487353,0.395842,-0.5838954,-0.9975994,0.8123662,-0.6310532,-0.7484984,-0.6843479,-0.472972,0.2160167,-0.2694751,-0.7532218,0.3214533,0.2834515,-0.8980181,-0.7929964,0.6159422,0.3940427,0.9669199,-0.6119938,0.2313536,0.9293044,0.8732171,-0.5649726,-0.3862914,0.7238166,0.8288946,-0.7172623,-0.2605356,0.194405,0.6270602,0.8122337,0.07854331,-0.7704742,0.7732379,0.2920596,-0.6075833,0.887778,0.5143063,-0.4167699,-0.298555,0.01618588,-0.4933201,0.8848281,-0.4984149,-0.7572589,-0.09068668,-0.7069178,-0.1343669,0.5254333,-0.8650372,0.1413919,0.7598116,-0.8450329,-0.7638137,0.5802822,-0.4461526,-0.5849633,-0.01526773,-0.7194772,0.7634006,0.7189975,0.7476904,0.6352084,-0.36386,-0.8813765,0.09743941,0.5991924,0.568223,0.3958018,-0.862247,-0.4537565,-0.4427561,-0.1083819,-0.3240987,0.7039909,0.1542965,-0.8388031,0.392488,0.1479913,-0.5314562,-0.6050951,0.4978506,-0.1383904,0.6929681,0.07488573,-0.4465774,0.2062486,0.6559365,-0.06472552,0.5069363,-0.5955408,-0.3467571,-0.7312882,0.4383363,-0.7316637,-0.9545202,0.2548892,0.9907727,-0.07362139,-0.6277571,0.5404882,-0.5966909,-0.1072432,0.7237616,0.7400222,0.1561683,0.8125346,0.8191473,0.250252,-0.1320223,0.5071573,-0.3461999,-0.7711844,0.7483413,-0.8002305,-0.4078227,0.494333,0.9705155,0.5350637],[0.3916068,-0.2224015,0.5491939,-0.9951603,0.4559025,-0.4749171,0.4544503,0.9756219,0.90573,-0.2398592,-0.3212072,0.8791513,-0.6057458,0.2301353,-0.7994058,-0.8782883,-0.03116739,-0.1579129,0.6931782,0.2628231,-0.07463419,-0.1052636,-0.9967427,0.8056576,-0.2053915,-0.4954292,0.2052945,-0.3740963,-0.5501091,-0.5249276,-0.650703,0.2728824,0.9208171,0.3609361,-0.9842706,0.2534468,0.4237599,-0.4362832,0.6819754,-0.9093626,-0.8449934,-0.7703011,0.1885804,-0.2935234,-0.1787316,0.6586192,0.8740351,-0.1864055]],[[0.3035643,0.7644603,0.6982763,-0.3419205,0.2191387,0.3232362,0.2122167,0.3140697,-0.7564769,0.4328379,0.8501418,-0.1119558,-0.1719283,-0.9779341,0.6478655,-0.9218025,0.9406455,0.4322297,0.8452637,-0.7255316,0.6188953,-0.2256511,0.4651174,0.01437461,0.3281855,0.2288553,0.3096413,0.2210017,-0.5153544,0.9810293,-0.2656196,-0.4381093,0.7520344,-0.4107984,0.7146111,-0.5642111,0.836828,-0.4706,0.2601416,0.9761529,-0.2058464,-0.3435951,-0.8662136,-0.4526149,-0.03640115,0.09915769,-0.4439,-0.6926546,0.5267622,0.6660793,0.08647621,0.7440481,0.4318962,-0.7779942,0.8468585,-0.4304329,0.3715768,0.5159745,-0.3564631,0.5963607,0.7387412,0.5986917,-0.5060122,-0.7555704,0.3583464,-0.2431377,-0.4843889,0.2345654,0.5850456,0.5044079,0.6307256,0.3036561,-0.883074,-0.942961,-0.14812,-0.5776529,0.4609482,0.8381524,0.7378538,-0.3921167,-0.03365695,0.8110404,-0.6943259,0.5080681,0.7213051,0.03663719,-0.9280038,0.5106132,0.6149895,-0.06152236,0.46699,0.7386959,0.7942867,0.6697414,-0.051597,0.4911573,0.7935698,0.6228693,0.8886561,0.2182819,0.9648848,0.01943409,-0.1011816,0.7541661,0.04942596,0.7256477,0.02444351,-0.06068575,0.233838,-0.4623035,-0.2043957,0.7879381,0.9514863,-0.9210222,-0.2587634,0.5877762,0.6485233,-0.9661291,-0.04332602,-0.1123208,0.7978866,0.3040793,-0.4751428,0.08407271,0.5634155,-0.385156,-0.6668024,0.8203075,-0.6711173,-0.1499795,0.169541,-0.650213,0.2235018,-0.2455944,0.4537556,-0.8884366,-0.6938641,0.4258482,0.7341564,0.1094667,0.1314496,0.08830941,-0.9764926,0.9416895,-0.6654088,-0.08153188,-0.900001,-0.1956304,-0.4879695,-0.2014469,-0.003380895,-0.3896037,-0.8966184,-0.2341851,0.162973,0.3058462,-0.4136912,0.7792344,0.6976416,0.9092989,-0.6947098,-0.1549238,-0.9107273,0.8906195,-0.5352457,-0.2429346,0.09131444,0.5925906,-0.1184186,0.9165816,0.9252276,0.3244726,0.1405855,0.8803484,-0.04906189,-0.5601981,0.5025804,0.7209461,0.3276634,0.2555296,0.8971353,-0.3679408,-0.2668902,-0.3129641,0.3268997,-0.5872779,-0.2379397,-0.2500657,0.8898759,0.5159383,-0.4218465,-0.3153213],[0.9376428,-0.5890994,0.6697068,-0.1076611,-0.2835463,-0.2436303,-0.7824631,-0.8746266,0.8548973,-0.7524111,-0.2364603,-0.3742532,-0.02427804,0.6191268,-0.8882184,-0.6480424,-0.8825598,0.9161534,-0.5968056,-0.1449157,-0.3024286,0.8348608,0.8570862,-0.8504744,0.5879989,0.8367014,-0.2564985,-0.3572539,0.1690098,0.09012401,0.8736541,0.2168869,-0.537653,-0.8653929,0.5755565,-0.4428021,-0.6439903,-0.1006025,-0.8695095,-0.4684402,-0.8528678,-0.9940534,0.9745364,0.4887609,-0.8582058,-0.8122709,0.03359902,0.1061839,-0.8344796,0.539711,0.472099,0.161882,0.2327625,0.800108,-0.1153549,-0.5022783,0.6081567,0.197657,-0.9240077,0.924854,-0.5922215,-0.2725161,0.1606599,0.8433955,-0.8135483,-0.5240703,0.9326131,-0.7896547,0.9756088,-0.3010901,-0.8377984,0.8015671,0.4866223,-0.9392226,-0.1475805,-0.5051804,0.655127,-0.08241284,-0.3401767,0.2464682,0.3185885,0.6535463,-0.7607079,0.5842712,0.8791072,0.9526393,-0.3255686,0.7829912,-0.1250099,0.9060988,-0.7855859,0.4224193,0.4080085,-0.9165528,-0.1401876,-0.3936516,0.3600201,-0.6496277,-0.7549038,0.2327198,-0.5859499,0.1544124,0.05324113,0.194744,-0.03745973,0.2974186,0.3452854,-0.1641513,0.406739,-0.7158449,0.9615047,0.2094878,0.4601354,-0.4315125,-0.858896,0.6418116,0.07761276,0.1552981,-0.1558763,0.5146823,-0.1696275,-0.9511614,0.2227236,0.7850156,-0.09366262,-0.2527002,0.4779348,0.206582,0.6629608,0.8218026,-0.8168247,-0.9989281,-0.3372897,0.6657572,-0.1824194,0.9105792,-0.4905385,0.4176693,0.2999949,-0.8626206,-0.7811484,0.7114089,-0.2570599,-0.2259008,-0.08140624,-0.5020289,-0.02037847,-0.9145634,0.5032587,0.4077198,0.00709641,0.2103423,-0.6865084,-0.5292649,-0.827724,0.4752669,-0.06855047,-0.7419682,0.002531409,-0.4151646,0.1621019,-0.5465229,-0.3758675,-0.5728459,-0.7005184,0.9476035,0.7460711,0.7214592,0.9902649,0.3793857,-0.500551,0.5440187,-0.1993791,-0.1512977,-0.6675594,0.7024486,-0.9153991,0.03174007,-0.8458779,0.8547621,0.6842811,0.5371666,-0.05676973,-0.6184528,0.9229033,-0.8365195,-0.9540372,0.1857108,0.8171678,-0.740217,0.3864679,-0.8764853,-0.2736815,0.884347,-0.1058055,-0.0287689,-0.006669402,-0.2165812,-0.2628783,-0.4009827,-0.06005681,0.8118508,0.1564924,-0.6062708,0.02767932,-0.4527565,0.9380116,-0.3781492,0.9077585,0.8096032,-0.4222561,-0.9568861,-0.9022198,-0.5284963,0.1667353,-0.1409684,0.2955219,0.9118526,-0.340396,-0.9095354,-0.9992509,-0.3962821,0.9775732,0.4359247,0.9881761,-0.2148443,-0.03678071,0.885217,-0.09084594,-0.4741253,0.6345623,0.8092737,-0.146835,-0.4709831,-0.1941422,-0.923825,0.313456,-0.3519481,-0.8486702,-0.4737738,-0.636193,-0.9962695,-0.7891474,0.2816601,-0.07823002,-0.4795424,-0.02081764,0.3670592,0.7185464,0.64955,0.0817312,0.8879421,0.3033485,0.8719525,-0.642735,0.3752188],[-0.1942014,-0.4160913,-0.03799379,0.9520028,0.7410896,-0.3297032,-0.2694498,-0.9161935,-0.8098838,-0.072065,-0.3789316,-0.6683624,0.2058467,0.8776655,0.6558156,-0.2271291,0.4265761,-0.9840696,-0.6819937,0.7269316,-0.2298657,0.3970902,0.1925062,0.6692464,0.9825718,-0.9613092,0.207436,0.4944243,-0.4045907,0.7728169,0.8956497,-0.07549965,-0.4111787,-0.08291686,-0.4987379,-0.5972295,-0.8307681,0.1902047,-0.5813143,0.8100061,0.1894828,-0.215073,0.02905738,-0.237564,-0.3163344,-0.7997367,0.7913239,0.7594411]]]