[[[-0.8932228,-0.902041,-0.00894773,0.8306811,-0.3227624,0.8287766,-0.02318609,0.4533519,-0.7227478,0.592782,0.6965721,0.9836247,0.8387954,-0.8490257,-0.9299202,0.5369151,0.2569332,0.4382105,0.4070902,-0.855098,-0.4642078,0.9745543,0.07633746,-0.03071487,-0.446385,0.8271279,-0.2588986,0.15124,-0.9856303,0.9662263,-0.9710073,-0.2953442,-0.2533163,-0.4460124,0.943208,0.7974858,-0.1724063,-0.1285309,0.4410169,-0.6793439,0.6750491,-0.971025,0.3906314,-0.8955779,-0.3852631,-0.4686254,-0.4280654,-0.7481337,-0.3743306,0.01444566,-0.9831917,-0.1824802,0.9315288,0.807147,0.917712,-0.1369098,-0.5709393,0.5105755,0.3429219,-0.7189176,0.858815,-0.1018251,-0.9728169,-0.2237402,0.297621,-0.3122834,0.5648227,0.1977266,-0.479273,-0.288972,-0.3897871,-0.4101726,0.4215595,0.5712078,-0.06142652,-0.7311835,0.2572255,0.6115782,-0.3869084,0.8903832,-0.2434467,0.01315391,0.1095363,-0.8408685,0.4192748,-0.273749,-0.7964056,-0.1957401,-0.2110502,-0.6522329,-0.7196593,0.6955857,0.4693114,0.1766449,0.3340845,0.9915648,0.6396811,0.8310039,0.9464097,0.1469859,0.9647031,0.5124733,-0.5240195,0.2538845,0.8762126,-0.1218668,-0.2525414,-0.7975452,-0.5395496,-0.8145106,-0.3840247,-0.4211711,-0.4123234,-0.8314312,0.06940186,-0.9955845,-0.4541975,-0.4319166,0.3641579,-0.1467587,-0.1675349,0.7374792,0.1355408,-0.7919657,0.5509524,-0.7520964,-0.8469949,-0.3052312,0.5257614,0.1597127,0.1111931,-0.8859525],[0.3161463,0.1995076,0.1520103,0.2569594,-0.08300626,0.5118222,0.1443256,-0.8485069,-0.9054909,-0.02863705,-0.051103,-0.763876,-0.8605266,-0.6433351,-0.1897782,-0.4541489,0.5859313,0.2338096,0.7142498,-0.9708252,-0.1473948,-0.5393224,0.2148114,0.6189177,-0.6710856,-0.6429522,0.664474,-0.2528983,0.09089148,0.3787222,0.6641629,0.1008161,0.08201253,-0.5090024,0.5887492,0.01041925,0.2615502,-0.1846112,0.8375311,0.5249839,0.7720909,-0.2933432,0.0515877,-0.9630363,0.8821957,-0.2523841,-0.8579919,-0.8551314,-0.4168128,-0.009221196,0.1805984,0.1686956,0.1124698,-0.4381789,0.6979947,-0.4263324,0.9373813,0.1264271,0.07862794,0.8353226,-0.3298115,-0.420009,-0.8210764,0.4326715,0.7676749,-0.9692459,0.6548674,0.01753461,-0.01711786,-0.4197966,-0.5683405,-0.7680805,0.4988248,0.0327009,-0.5893905,0.7188272,0.1673878,0.7485237,-0.680609,0.1972371,-0.2169677,-0.6285281,0.8519461,0.2488152,0.7220838,0.6384928,0.8174107,0.08809459,0.7759173,-0.8681898,-0.08708036,-0.1696218,-0.5117791,0.03225625,0.720484,-0.3366402,0.3388736,0.1967076,-0.917259,-0.04281271,-0.0006664991,-0.9476621,-0.6365576,-0.94822,0.6814566,0.8761678,0.1636618,0.5983899,0.9783671,0.1794478,-0.03239,-0.9916396,0.9306529,0.04478228,0.0761925,-0.9549496,-0.1344558,0.7614808,-0.01972425,-0.6716788,-0.2596902,0.1963547,-0.5107481,0.9513664,0.05189383,0.7897148,0.7904108,-0.9140866,-0.4817952,-0.8131919,-0.4280671,-0.5339921,0.9085679,-0.5672076,-0.2072455,0.5701764,0.1523618,0.9939768,-0.9371603,0.02018726,0.2592859,-0.6546395,-0.5752501,0.2440041],[0.1641041,0.9419904,-0.4957703,0.4281525,0.7854681,0.5188034,-0.6318817,-0.909698,-0.756572,-0.3994361,0.6580925,-0.5093384,0.9507284,0.2326258,0.9768069,-0.6585009,-0.1891934,-0.9922876,-0.7306368,-0.9089952,0.5569832,-0.5334156,-0.2975322,-0.9048662,-0.08447587,0.2441071,-0.8962948,-0.6018548,-0.3836843,-0.8077507,-0.8649735,-0.99804,-0.3473042,-0.7658665,0.4421806,-0.3659004,-0.6254413,-0.04330075,-0.2944707,0.3441825,-0.01390135,0.9401133,0.6437864,-0.3997508,-0.3547016,0.521174,0.4978072,-0.124468,0.2422377,0.5255337,0.9270294,-0.7650955,0.1524376,0.4400508,-0.7397041,0.5867407,-0.4017593,0.9254313,-0.7222741,-0.1795799]],[[-0.7008462,-0.9709857,-0.7311919,-0.3257872,-0.8977747,0.7324467,0.2788675,0.298506,0.5179529,-0.5296652,0.7030826,-0.9429004,0.1523474,0.6510372,0.9638462,0.3053603,0.0388335,0.3338751,0.4659331,-0.0243715,-0.463636,-0.334829,-0.6041064,-0.1401585,0.01027858,0.4107046,-0.278308,-0.5545001,0.2661938,0.8127651,-0.514365,0.7907908,-0.4684845,-0.2516476,0.2961032,-0.9849141,-0.7854135,-0.1991607,0.7068777,-0.7382953,0.5011814,-0.1020674,-0.1327351,0.9050579,-0.9098153,-0.4703225,0.05361426,0.3388078,-0.6339626,0.7183056,0.9526429,0.1611501,0.2819185,-0.4624344,0.749341,0.8855672,-0.8963642,-0.01538622,0.07375896,-0.7883539,0.3749628,0.1486083,-0.7497318,-0.7790205,0.710752,-0.2453762,-0.6905,-0.6337836,0.6037416,-0.6232429,0.5312428,0.5255942,0.8809984,-0.9786968,0.1753677,0.779223,0.8579915,-0.060583,-0.5862503,-0.2582141,0.8296483,-0.4906896,0.6350756,-0.6956246,-0.8216605,0.9263723,0.6822531,-0.02978051,-0.9783058,0.397774,0.4238813,-0.486488,-0.01321757,0.5645154,-0.09898341,-0.3640925,-0.8122308,-0.1962637,0.6207869,-0.1390504,0.757067,-0.9936726,0.6426427,-0.4732281,-0.2893997,-0.2125474,0.5447316,-0.2034975,-0.8094065,-0.8633931,-0.4470309,-0.1665651,0.7745047,0.6797791,0.08671153,-0.7704391,0.09441483,-0.3888365,0.5829842,-0.7346292,-0.9240348,0.08450758,-0.4959034,0.21513,-0.3355542,-0.281643,0.1086618,-0.2145549,-0.8126366,0.8451223,-0.9200158,-0.05373609],[-0.5780869,0.7361035,-0.3863593,-0.06659091,-0.879915,-0.09864533,0.9759154,0.3561442,-0.5580819,-0.2749683,0.9921155,0.06610548,0.1973912,0.6021171,0.257605,-0.5582016,-0.9404361,-0.7988305,-0.7213867,-0.4006549,0.9656742,0.763236,0.887063,-0.614444,0.6427577,-0.3499333,0.8360972,-0.5659096,-0.6157749,0.6702545,0.6945648,-0.2123703,0.7641177,0.240136,-0.7007654,-0.05375993,0.3802836,0.1438659,-0.8055573,-0.7785885,-0.2963039,-0.412789,-0.8752902,-0.4949912,0.576323,0.6493692,-0.8397739,0.2367595,0.1855537,0.2334534,0.8757527,0.5676696,-0.7332447,0.383867,0.01057875,-0.8338253,-0.7495761,-0.7277107,-0.3139623,0.9695268,0.3860449,0.9018681,-0.7513585,0.7055259,0.4898698,0.9295137,-0.8338602,-0.9692295,-0.8112683,-0.4725066,-0.09788048,0.9639986,-0.09439743,-0.1944281,-0.7272236,-0.499967,-0.4243449,-0.5944862,-0.2122072,0.3047051,-0.02195466,0.3967573,-0.547776,-0.3441828,-0.3080631,0.7747574,0.0253073,0.09932649,-0.711139,-0.07290924,0.4761297,0.07486212,-0.3542169,-0.5205686,0.3752532,0.06440198,-0.1900367,-0.1313421,0.09854496,-0.5123029,-0.001080394,-0.3640491,0.9405367,-0.596611,-0.06926954,-0.04250562,-0.1154271,-0.1047729,0.6062741,-0.8650715,0.5056341,-0.3227824,-0.5374684,-0.406396,0.8090541,0.02111351,-0.3991224,-0.4516958,0.08263505,0.3035619,0.3770544,-0.3057038,0.2734735,-0.2401904,0.6580203,0.9680417,0.7666881,0.1688946,-0.5491657,0.6376984,-0.8916786,0.7703302,-0.5229499,0.4417014,0.5116966,0.2390372,-0.8982511,-0.3744048,0.1434172,0.2619896,0.4633102,-0.8708396,0.6678483,-0.4148942],[-0.8317955,0.9366736,0.6397376,-0.6751685,0.7877336,-0.09609234,0.6322222,-0.1770378,0.1285561,-0.5475075,0.3875987,0.3729469,-0.6421814,0.9248724,-0.2028371,0.7033627,0.5989287,-0.7680509,-0.4702576,0.5188391,0.5061417,-0.2116534,0.8734818,0.40256,-0.06136572,-0.9489946,-0.7336781,-0.713011,0.8012424,0.772006,0.6387165,-0.9140851,-0.9371634,0.7814581,0.05894744,-0.9319682,0.3554852,-0.1424326,-0.9915149,-0.8592124,0.6825774,0.7641189,0.9700122,-0.4867674,0.2526993,-0.506355,0.5111363,-0.6424098,0.2758701,0.9925981,0.989995,-0.7707798,0.4399836,0.3144827,0.4443211,0.6147552,-0.02425611,-0.3155123,-0.5311964,-0.5029488]],[[0.184076,-0.1144403,0.09070241,-0.6108212,-0.5329716,-0.006301761,0.09298503,0.4482877,0.08603728,0.1246847,0.983072,0.1471483,-0.05226195,0.882323,-0.3584026,-0.5089555,-0.4189109,-0.3385853,0.08497941,-0.7137315,0.8884995,-0.7665792,0.7690005,0.2754917,0.9466581,-0.9214485,0.9609969,-0.159077,-0.1119665,0.7904878,-0.879137,0.6038249,-0.9570913,-0.7384593,-0.8412428,0.6535587,0.7218072,-0.471383,0.9386261,-0.3905243,-0.1500088,-0.6511707,-0.2550856,-0.403345,0.5913937,-0.8153143,-0.1040317,0.8187249,-0.6684818,0.2391683,0.8879249,0.7439051,0.2476975,0.7650754,-0.5579667,0.723146,-0.9262192,0.1553184,0.5446966,0.07850659,-0.2752694,-0.3175577,0.4780585,0.6873915,0.9190636,0.7368033,0.9798949,-0.9062066,-0.3621465,0.4121844,-0.1750048,-0.1800309,-0.3949462,0.7087355,0.829412,0.4518819,0.07264316,0.09440053,-0.4930726,-0.5918469,0.5273275,0.3972747,0.2774565,0.8958867,0.9647944,-0.1408142,0.9168317,-0.2803639,-0.8557718,0.3152327,-0.09504807,-0.382156,-0.3727435,-0.4918376,0.5827565,-0.8321931,-0.12107,0.86725,-0.8690495,0.2024623,0.8996549,-0.1747195,-0.003785253,0.2950732,-0.599736,0.301557,0.1091448,0.04704225,-0.8903213,-0.4879311,-0.5263956,-0.0877775,0.907819,-0.1219813,0.8797216,-0.03480327,-0.6206005,0.6154437,-0.6173878,-0.0703541,0.708257,-0.3329409,0.9046056,-0.02615726,0.1637307,0.3319568,-0.7903593,-0.5929098,-0.2667059,0.5122781,-0.532253,0.1043502],[-0.1200315,-0.2585641,-0.0004321337,-0.7413878,0.7854047,-0.6501131,0.2147909,0.649291,-0.4902848,0.9799061,0.425759,-0.2267607,0.364701,-0.04518735,-0.9289067,0.7916529,-0.2494286,-0.7530518,0.5224099,0.4435332,-0.9929044,0.8791792,-0.5237737,0.4773447,-0.2374607,0.5168793,0.6535769,-0.6016185,-0.1811625,-0.9395685,-0.08129394,0.6153886,0.23781,0.2723951,0.4969938,-0.3532852,0.02945411,-0.5320508,0.7027335,-0.2494138,-0.2627252,0.8407736,0.3547532,-0.4123629,0.1716477,0.9597027,-0.3349079,0.5664024,-0.02719152,0.6355977,-0.2826563,-0.5058253,-0.08308613,0.8299761,-0.6446917,-0.0005766153,0.5421097,0.003700852,-0.7882369,0.2435652,-0.6993711,-0.1530088,-0.8134668,0.8285627,0.4262521,-0.05882132,0.9620335,-0.8668919,0.8137779,0.7947102,-0.523042,-0.008418202,-0.5428162,-0.6764014,0.4111461,-0.144812,-0.05527365,0.3402748,0.1547884,0.6188238,0.9819143,-0.5686326,-0.06069195,-0.6906178,-0.7167075,-0.1584092,-0.6335363,0.7661054,-0.1314141,0.6001863,-0.1317652,-0.02052295,-0.6884787,-0.5600128,0.6304202,0.7129538,-0.9518619,-0.8754852,-0.525183,-0.4000906,-0.3301927,-0.03002918,-0.6983767,-0.3831235,-0.8826568,-0.6482167,-0.400781,-0.7592516,-0.1166121,-0.7189674,-0.7016625,-0.3863469,-0.1358584,0.2240537,-0.6517234,-0.2551979,-0.4072527,0.2967212,-0.2623922,-0.7848604,-0.7434878,0.4296229,0.8342762,-0.1820346,-0.212829,0.8630824,-0.5682528,-0.009933114,-0.3187975,0.3177209,0.821099,0.6892509,0.0683974,0.6643269,-0.506794,0.8980827,0.2524721,0.2629084,0.1996614,-0.08671868,0.3023748,-0.3417739,-0.8741748,-0.6823933],[-0.5496123,0.1226853,-0.6861849,0.8613229,0.3743088,0.2441903,0.2733135,-0.7857504,-0.846746,0.9252541,-0.2756752,0.1401879,-0.09217155,0.4306431,0.2346779,0.2076775,-0.2676474,-0.1979791,-0.4371957,0.452424,0.7190754,0.03383577,-0.1039709,-0.5025508,0.8783419,-0.626879,-0.1465949,-0.2754263,0.1670147,0.9983938,0.07296574,-0.5394626,0.3198607,-0.9029241,-0.01002634,-0.7826459,-0.2460614,-0.08257329,-0.8302042,0.7100663,-0.09175575,-0.1882044,-0.8102536,-0.3677729,-0.8430963,0.0365051,-0.6853571,-0.6702712,0.4838941,-0.4676958,0.7467408,0.9162462,0.9640906,-0.4194611,0.02473938,-0.938313,0.5696723,0.2226454,0.7013774,-0.8986409]],[[0.5006695,-0.470549,-0.07233298,0.605402,0.6833482,-0.947531,0.7264109,-0.8611813,-0.6062269,0.8757641,-0.7823272,-0.456282,-0.1206659,-0.7826514,-0.9499531,0.9938293,-0.8613529,-0.02050841,0.3556115,0.309829,0.119516,-0.3961746,0.8292668,-0.666518,-0.208599,0.08779514,0.349138,-0.5220525,-0.699775,0.6309814,0.4465322,0.784941,-0.2004288,-0.3942577,-0.7458096,-0.9257867,-0.02880895,-0.7789361,0.2359322,0.5394754,-0.8461072,0.8672571,0.3523314,-0.5890064,0.7542984,-0.8244212,-0.6425941,-0.2462317,0.4196145,0.05317342,-0.513526,-0.7008572,-0.2221905,0.4806249,-0.7051611,0.3923142,-0.557816,0.7925928,-0.723067,-0.01856434,-0.7564151,-0.3716973,0.8199794,0.5593004,0.2315415,0.5860424,-0.6950922,-0.7433412,-0.6892648,0.3085627,-0.7063296,-0.8823266,-0.05058563,-0.7710805,-0.6198111,-0.1205479,0.7363031,-0.2658566,-0.7865431,0.8996584,-0.3479534,0.2677755,-0.3676528,0.5888498,0.05303943,-0.2692145,-0.6835608,-0.3772148,-0.8724275,-0.8061054,-0.5795496,0.2798617,-0.7941625,0.557637,-0.331211,0.2216328,-0.04718769,-0.7319903,0.01844275,-0.001355767,-0.62556,0.4920702,-0.5130589,-0.4688588,0.1911758,-0.8377719,0.4817881,-0.3002013,-0.9834902,0.4904966,0.1356639,0.993046,-0.1791073,0.3796901,-0.2596792,-0.9219232,-0.1075512,-0.1676821,0.2541983,-0.6809244,0.268703,-0.9532266,0.4783168,-0.416262,0.6924369,0.1716729,0.7292423,0.6192324,-0.06059802,0.005856872,-0.5094609,-0.472993],[0.44861,0.6635191,0.2003957,-0.9477084,-0.9581051,-0.9632454,-0.2956361,0.3119359,0.8893344,-0.4230975,-0.3822089,-0.9827616,0.7196257,-0.07284892,0.6583376,0.8442471,-0.5414135,0.6027186,0.4492309,-0.9098964,-0.7418787,-0.759264,-0.2515649,0.3052618,0.4040088,-0.1847926,0.7999842,-0.8526669,-0.8730636,-0.7461159,0.3888256,-0.4663283,0.04007995,-0.16761,-0.8462393,-0.3112022,0.01757491,0.3398955,0.9930911,0.8686247,-0.911793,-0.2043074,-0.6403022,-0.02231705,-0.2814499,-0.5723212,0.07249749,-0.4249681,-0.9354982,0.4253072,-0.48958,-0.9976797,-0.9458659,0.4393587,-0.7248924,0.8076618,-0.7794223,0.3541608,-0.03010118,-0.3662089,-0.789767,0.8957675,0.02248204,-0.2956048,-0.3064793,-0.7502093,0.5869935,0.5067074,0.7986321,0.3450162,-0.796124,-0.6358526,-0.3966194,-0.6310806,0.3448467,0.4020037,0.2842517,-0.2612351,0.4565813,0.6393099,-0.688134,0.02025306,-0.4378346,0.7996271,0.493927,-0.9334786,0.3899944,-0.9150779,-0.8562086,-0.3601118,-0.1062011,-0.8628135,-0.9535623,-0.7848189,0.1092848,0.5039539,0.9190834,0.07201779,0.5376961,-0.1423587,0.6071763,-0.3613907,0.7650564,-0.07821357,0.4107606,0.8988433,0.8650298,0.03301966,0.7577703,0.8998139,-0.6970737,-0.5132899,-0.8636267,0.2829466,0.5128615,-0.02692997,-0.1474642,-0.3303653,0.5179338,0.255711,-0.1785465,-0.5714664,0.6577728,0.4122307,0.9509039,-0.3747505,-0.6383824,0.4994676,0.2627532,0.858253,-0.9824224,0.9083159,0.5884445,-0.3651806,0.9334342,0.5879793,-0.6464112,0.3863449,-0.5542231,-0.049209,-0.3125552,-0.4340047,0.6394227,-0.08934462],[0.8866832,0.5127831,-0.6523314,-0.4373063,0.6395595,0.8938348,0.4426791,-0.8743112,0.331397,-0.03171813,0.6721447,0.4698817,0.6336634,-0.3247055,0.0655123,0.6049838,0.7850637,-0.3152131,-0.8678844,-0.01419866,-0.6098664,0.827162,0.7983954,0.8735144,0.1359209,-0.5170147,-0.5381358,0.1092807,0.6634057,0.4855454,0.8288977,0.06946456,-0.6776283,-0.8669684,0.441606,0.05037129,-0.9225838,0.833853,-0.1722184,-0.8359225,0.9105852,0.4740629,-0.794744,0.8715048,-0.6565583,0.1962172,0.1160022,-0.2074665,0.8451154,-0.02073395,-0.4802543,0.7563531,-0.2055036,0.4991936,-0.7411277,0.975744,0.1558629,-0.6628635,-0.696578,0.2008833]],[[0.03307116,0.2880771,0.449995,0.7366011,0.3462624,0.04228628,0.5605845,0.864413,0.713706,-0.7428827,0.9390328,0.6481888,0.1565229,-0.2853168,-0.462648,0.7867541,0.04683888,-0.2115086,0.9671535,0.1874772,-0.07124484,0.1045979,0.5254285,-0.8910575,-0.4303025,0.6220508,0.1076604,-0.3655001,-0.9295812,-0.3087951,-0.8319869,0.4462306,-0.2200905,0.6800728,-0.007148862,0.2730281,0.8308098,-0.3580388,-0.02982438,0.5969183,0.6384556,-0.2662584,-0.3098007,0.2756502,-0.7850864,-0.3463017,0.2873342,0.9960232,-0.7303269,0.5874162,-0.2916795,-0.6906939,-0.09243,0.9757752,0.4104891,0.855139,0.6200268,0.06966341,0.7621605,-0.7171843,0.2360135,-0.1807464,-0.8668375,0.8271821,0.6277027,0.5349593,-0.5159895,0.8676262,-0.8891971,0.5326471,0.7904849,-0.2392491,0.9787827,-0.7437224,-0.09573805,0.8269601,0.3575029,0.05293715,-0.5232832,-0.879746,-0.006732106,-0.5448527,-0.562238,0.04321754,-0.5320725,-0.8394163,-0.1695632,0.6256979,0.1683999,0.7055705,-0.6235812,-0.7068944,0.5779641,0.6163559,-0.2712468,-0.3427366,-0.6561677,0.5533662,0.8171973,0.470865,-0.681169,0.3905041,-0.3585831,0.3650474,0.2479247,0.2452458,0.06469929,0.846946,-0.4820977,-0.4603201,-0.9514308,-0.9988792,-0.6977711,-0.1118654,0.8375387,-0.1174761,0.1836153,-0.7168195,-0.6799705,0.5671728,0.9854317,0.326611,0.2458884,-0.8507695,-0.218449,-0.8342702,0.9146752,-0.1081191,-0.6955163,0.7051847,-0.198063,0.6771817],[-0.1868995,-0.4814318,0.8706548,0.4396116,-0.9536488,0.409528,0.3399503,-0.8602846,0.8505659,0.8757982,-0.6106443,0.4498713,-0.4927939,0.2185873,0.233781,0.5027163,0.08347642,0.1044165,0.06419361,0.7365258,-0.3915166,-0.5548718,0.5627451,-0.9101927,0.01267374,-0.7889698,0.4579003,-0.2859534,0.4685213,0.2075883,0.5442421,0.2931571,-0.365302,0.9661522,-0.6381037,0.8906949,-0.664187,-0.8272817,0.6173844,0.8099957,-0.0316416,0.3676152,0.8084333,-0.320084,-0.9508915,0.6538587,-0.7724209,-0.5650132,-0.9529774,0.03013933,0.5495098,0.7304757,-0.3814374,-0.3176697,-0.7816203,-0.2387873,0.5547252,-0.7387693,0.983958,0.6013358,0.2172104,0.1647056,0.8214123,-0.363443,-0.5695546,-0.4791859,-0.6239011,-0.02055514,0.7971818,-0.03946722,0.5841994,-0.4491538,-0.4815825,-0.07258117,-0.009007812,0.4002371,-0.7188773,0.08546484,0.9383376,0.2726819,0.8150723,-0.1593903,0.1959058,-0.5417492,0.3424687,-0.498269,-0.3782772,-0.2286955,-0.9961362,0.8287873,-0.7611761,0.9009349,-0.5690835,-0.02441871,-0.2838477,0.2511027,-0.4894022,-0.9617305,-0.4816893,0.6546674,0.5478261,0.1860081,-0.8897943,-0.5353765,0.2736005,-0.9859469,-0.3837868,-0.9436564,-0.2651509,0.424284,0.1444994,0.4374613,-0.7772746,0.2216102,0.8969288,-0.9488704,-0.1477009,-0.5095515,0.795181,0.8853188,-0.6414866,0.8064554,-0.9241397,0.6053803,0.6216671,-0.3917643,-0.02575648,-0.4047004,-0.6912467,-0.580637,-3.063679E-05,0.2743869,0.5350819,0.8602569,0.629899,0.7204638,0.8768027,0.7268326,-0.1294409,-0.6995518,-0.5009015,0.7007923,-0.4053918,-0.3180033],[-0.8497531,-0.111365,0.7410042,0.1938435,-0.3260802,0.7823489,0.4922661,-0.181321,-0.2050751,-0.4604684,0.2355224,-0.2965938,0.8314834,0.7780182,0.6161871,0.2214411,-0.8673851,-0.6417346,0.005167842,0.1554469,-0.0946964,-0.5548055,0.4379775,0.1957101,-0.3875839,0.6745701,-0.7532673,-0.09084237,0.2923379,0.3931789,-0.4141937,-0.4905285,-0.6157625,-0.6626103,-0.8918376,0.1709253,0.4153616,-0.219776,0.3419532,0.1697699,0.4602551,0.644757,0.8685946,-0.4692355,0.7561889,0.8093944,0.545656,-0.5200448,0.972182,-0.1859754,-0.2459179,0.6857533,-0.7158487,-0.3891987,0.5460069,0.3269748,0.8268712,0.1264468,0.1275018,0.739243]],[[0.6580718,-0.3961259,-0.8629506,0.924474,0.7419457,-0.9186971,0.3375971,-0.5047905,0.1177775,-0.92029,-0.6164694,-0.2779058,-0.6343853,-0.5331423,0.5937741,0.3118028,-0.4772998,0.9367943,-0.05881798,0.6756966,-0.1617149,-0.6032896,-0.2573911,0.01202953,-0.4564341,0.2508919,0.5189345,-0.3334633,-0.7303214,-0.9669616,0.08936799,0.04925978,-0.4729487,-0.9263692,0.611547,-0.3841449,-0.7488103,-0.7973053,-0.3980571,-0.119701,-0.255391,-0.1636778,0.7714486,-0.2174455,0.2228788,-0.3796176,-0.1458346,0.5361269,0.7801714,-0.6710153,-0.9314909,-0.990972,0.1244489,-0.4976808,0.2026774,-0.6541107,0.4518373,0.3301184,0.1099299,0.02096903,-0.2717024,0.2838688,0.9233162,-0.5892189,0.272896,-0.5631962,0.9507618,-0.9818459,-0.9896698,0.2129315,-0.7356522,0.6255951,0.8426163,0.7617776,0.8193321,0.6273367,0.8710566,0.5802071,0.5347137,0.7355564,0.1517116,0.6187794,-0.2500991,-0.8238499,-0.4821786,0.7922215,0.594774,0.5183928,0.9735978,0.1798817,-0.5105081,-0.4118711,0.1734027,-0.9186354,-0.8382897,0.3891365,-0.2915558,-0.5642116,-0.1823543,0.05695832,-0.5025039,0.9609873,-0.5278354,-0.2927762,0.8660302,-0.8432426,0.07911766,0.4665873,0.2178155,0.6127679,0.3273561,0.7970943,-0.3243603,0.327476,0.3355422,0.3313,-0.2863935,-0.1272296,-0.8742263,-0.149995,0.8671293,-0.5372961,-0.272374,0.2141827,-0.537214,0.6547911,-0.9273684,0.3708722,0.2658264,-0.05311549,0.7810221,-0.7952442],[0.3069005,-0.5505724,-0.005424619,0.8926196,0.8512785,0.1458966,0.4619639,-0.6215494,-0.8561444,-0.7741013,-0.5597367,-0.5383809,0.4365668,0.2850868,0.2781017,-0.2374994,-0.7376816,-0.3330106,0.6962206,0.5623746,-0.5795803,-0.4103719,-0.7307792,-0.7447827,-0.3485531,-0.5326655,-0.4559337,0.6004369,-0.6311965,0.2313272,0.521827,-0.1886472,0.7963347,-0.984138,0.9740479,0.4117961,0.5436163,0.4578671,0.9490757,0.1103517,0.7754915,-0.5574963,-0.1516501,-0.4918412,-0.1174754,0.9608409,-0.3024834,0.934473,0.5096734,0.6430902,0.2796941,-0.812001,0.6484208,0.9991267,0.3276996,0.7079067,0.2652483,-0.9387362,-0.3728031,-0.09709609,0.7063103,0.006010413,0.7043333,-0.9020622,-0.05851138,-0.9968314,0.703979,-0.7408128,0.4868097,-0.1663231,-0.1619378,-0.4961208,0.843327,-0.9229155,-0.2327598,0.6029642,0.1838793,-0.1959702,0.5488675,-0.1349794,-0.3971025,-0.7867413,0.668143,-0.5995915,0.1222719,0.07158577,-0.04774964,-0.5062771,0.4904735,-0.9309773,0.1871632,0.007012486,0.1190115,-0.1981446,-0.7502973,0.9684415,-0.8691812,0.6622393,-0.4956568,-0.4445208,-0.8745646,0.6017549,-0.3894724,-0.8106296,0.3623979,-0.4379085,0.2010835,0.4628756,0.4662199,0.04192364,-0.3404149,-0.07772219,-0.1018227,0.6625793,-0.8766112,0.01862204,-0.6834216,-0.8061366,0.8577795,-0.7214258,-0.3822678,0.3000807,-0.1818584,-0.3060201,0.5389283,-0.4279484,0.1081046,0.620518,0.6439464,-0.3420366,-0.6327295,-0.2430841,0.6380851,-0.04519117,0.7802229,0.2704327,0.3644137,0.4064326,-0.864579,0.6708722,-0.9832735,0.5334618,0.472605,0.9739997],[-0.2698087,-0.5745397,0.1793245,0.1242884,-0.1471883,-0.3975328,-0.6482625,0.9723895,0.6408205,0.5915771,-0.7086902,-0.7787676,0.9111373,0.04205596,-0.9264102,0.5964551,-0.7181568,-0.2555734,-0.1996931,-0.01474035,0.1103324,0.7623606,0.7229407,-0.3750452,0.9870172,-0.08932102,-0.8741083,0.572916,0.3278939,0.8325434,-0.04174984,0.6952968,-0.273091,-0.03234565,0.2240199,0.6144648,-0.05998409,-0.6344199,0.03056872,0.6223989,0.1848401,-0.6749816,-0.8600585,0.3193569,-0.6716545,0.4599952,0.4574172,0.2710919,-0.4979261,0.8587301,-0.09716713,-0.03096306,0.8794615,0.8300467,-0.9188116,-0.1923386,0.8296647,-0.1280297,0.6244829,-0.8013544]],[[0.1430963,0.8427148,-0.8514032,-0.7158546,0.2107564,-0.9176121,-0.8329504,0.819258,0.648248,0.9745989,-0.4618562,-0.6904814,0.9538181,-0.6206956,0.6263392,0.665343,-0.196674,-0.2775115,-0.7505438,0.3814926,-0.7820618,-0.1010073,-0.6407738,-0.4544352,-0.9443164,-0.6216307,0.6739955,-0.8292339,-0.2667729,-0.5332947,0.5076685,-0.518858,0.1004125,-0.06555712,0.1972769,-0.501472,0.9910326,-0.535311,-0.38774,0.990319,0.4310105,-0.02401292,0.3080392,-0.2866307,0.08801186,0.7086926,0.8322628,0.5128431,0.786407,0.9221842,-0.7277334,0.1418508,0.9988773,-0.05251133,-0.855823,0.1629328,-0.4489506,0.7953329,-0.1795171,-0.06817162,-0.3930694,-0.9728267,0.7228076,0.3650305,-0.4590012,0.9684246,-0.9123816,0.502646,-0.3413552,0.4240186,-0.5431969,0.0456003,0.7684159,0.05049074,0.5454192,-0.03988254,0.4141152,0.4109685,-0.1918012,0.6472523,-0.9560428,-0.5959687,0.1283084,0.2246825,-0.302399,0.9072957,-0.2348758,0.9657083,-0.8904777,-0.2660204,-0.5193856,0.2395993,-0.287762,-0.3018702,0.9686174,-0.6940866,0.898001,-0.4398941,0.5183916,0.9630992,0.3628509,0.8317609,0.9934003,0.3057136,0.135214,-0.03590286,0.3147149,-0.4513351,-0.4760705,-0.9039166,-0.2390801,-0.4535602,0.9446189,0.2055091,-0.6181216,0.1186868,0.7211213,0.6104136,0.4832942,-0.03983343,-0.1113297,-0.005324483,-0.7388861,0.1268691,-0.9942706,-0.4126598,-0.457935,-0.9390576,-0.0447067,-0.7903054,-0.5863388,-0.9784861],[-0.2841305,0.2637093,-0.3648154,0.7533655,0.6438038,0.1864325,0.1366462,-0.9553382,-0.2106222,-0.6742918,-0.1846019,-0.4160641,-0.8268528,0.04204786,-0.842279,-0.6760657,-0.05697286,-0.2500039,0.7802467,-0.5525584,-0.6569819,0.7370071,-0.3088232,-0.4920923,-0.1051954,0.47175,-0.669719,0.4598047,0.02272475,0.9241626,0.1110369,0.5759528,0.8255401,0.6308718,0.6277068,0.9168642,0.07820284,0.547158,-0.07813704,0.9667985,0.9299073,-0.8238585,0.5862226,0.3778207,-0.9200611,-0.3156649,-0.04144275,0.7420142,-0.2614347,-0.2273244,0.7947228,-0.3680419,0.3600449,-0.3288184,0.09898031,-0.8040628,0.7541318,-0.05244267,-0.8428395,-0.2706081,-0.4921333,0.9532499,-0.2623295,-0.9996068,0.09758699,0.5167513,-0.6666329,0.3811135,0.1026531,0.6561949,0.3831284,-0.04120886,-0.243524,0.0363723,0.2546718,0.4201944,0.1193377,-0.6670127,0.4680543,0.4495563,0.7175224,0.7892184,0.09027135,-0.8386526,0.5159025,0.2908802,-0.7704763,0.9188704,0.4805247,0.168111,-0.3697132,-0.7930033,-0.05658638,-0.9247348,-0.9298759,0.6919951,-0.3194836,0.9913013,0.449075,0.5453179,0.8752553,-0.253739,0.5543001,-0.4664136,0.5167005,0.4380386,0.7093511,0.8819931,-0.6891773,0.5144336,0.01322138,0.9510961,0.0268327,-0.09987795,-0.0901376,-0.8830662,-0.2854747,-0.4367217,-0.2244874,0.05957353,-0.6899567,0.422522,-0.1728584,-0.5304778,0.7804844,0.7599924,-0.5700734,0.9807274,-0.1255752,0.962389,-0.3864747,-0.7153234,-0.728982,-0.4037091,0.5425966,-0.8047941,0.9003,0.9343252,0.6170228,0.561619,-0.5409398,-0.221496,0.5053413,-0.7847767],[-0.5500143,0.455682,-0.1073881,0.298768,0.7615194,0.4796943,0.113588,0.2489084,-0.007035136,0.2898543,0.9861124,0.5737205,0.9467275,0.1631438,0.9354379,0.8291218,0.6125271,0.1487688,-0.9927647,-0.6455898,0.1848742,-0.6125212,-0.7299869,-0.6115632,0.2850983,-0.396051,0.8589137,0.3659982,0.3215289,0.1395012,-0.9423943,-0.5873642,0.2088248,-0.6853697,-0.2435347,0.2947323,0.6905954,0.02717245,0.6836174,-0.453102,0.1404971,-0.236077,-0.7693906,0.05310261,0.07212198,0.5710554,0.7378762,-0.8219585,-0.3289455,-0.6370881,0.01324165,-0.4318234,0.3980863,-0.6865158,0.1771523,-0.05725944,-0.4172992,0.4961233,0.6619053,-0.1415929]],[[0.8852406,-0.584903,-0.03924072,0.06210315,-0.2075328,-0.6375041,0.6278036,-0.9897552,0.2707336,-0.6419454,-0.8322048,-0.8216431,-0.3371533,0.8617332,0.8232229,0.9939401,-0.9748788,-0.9311283,-0.1542007,-0.5136776,-0.1577259,0.7178092,0.5214972,0.2155021,-0.3328453,0.7501314,0.7762382,-0.4570502,-0.9535599,-0.5902054,-0.7339115,-0.812778,-0.6443682,-0.0758189,-0.03340352,0.3184812,0.4893527,0.159259,-0.7804029,-0.04269588,0.3701317,-0.911561,0.1772231,-0.8709075,0.7080479,-0.5267503,-0.9997528,-0.05910957,0.5582514,-0.2751769,-0.8247139,0.06106913,0.757561,-0.2307218,0.3945102,-0.8024528,0.7333033,-0.1651889,-0.09573495,0.1122998,0.3009288,0.6817307,-0.9140916,-0.2388846,0.3732807,-0.1419922,-0.6818769,0.6891155,0.00829947,0.3481402,-0.9774997,-0.391657,0.01213682,0.6563923,-0.1442558,-0.6749949,-0.1458434,-0.7585242,0.542362,-0.9592984,-0.1833824,0.03478539,0.4090147,0.3536985,0.05348361,-0.5509272,0.8266313,0.2724657,-0.9986753,-0.3008531,-0.4572369,0.9541421,-0.4211119,-0.1892701,-0.7810681,0.9959939,-0.9541798,0.5201862,-0.3430442,0.7783663,-0.8967402,0.6274092,0.1926063,0.5297375,0.3957979,0.09207237,-0.3406299,0.9325268,-0.3662852,0.2361997,-0.06429136,0.8734124,0.4997453,-0.187565,-0.2414602,0.607106,0.4876351,-0.7511568,0.03526199,0.6977494,0.7676971,0.7163913,-0.6551394,-0.615365,-0.02618897,0.4672758,0.827245,-0.9064913,0.08357108,-0.6480575,-0.1151098,-0.9318442],[-0.0348438,-0.9815173,-0.6651618,0.8534009,-0.6152239,0.639169,-0.826735,-0.8527794,-0.5200324,-0.04944932,-0.8068461,0.9889205,0.8367457,0.3417673,-0.8842125,-0.7053287,0.1827146,-0.6364551,-0.9389882,-0.9711993,-0.8833921,0.516144,0.8079803,-0.005532384,-0.8218641,0.152701,0.167859,-0.6972783,0.02580941,-0.104863,0.3961739,0.6975884,-0.1087242,-0.1592225,-0.5894303,-0.8371453,-0.01114762,-0.168394,-0.9699914,-0.4165486,0.7364192,-0.07616651,0.7636216,-0.7086282,0.6184711,0.0733515,-0.5383897,-0.5046041,0.3569183,-0.5714204,0.001148343,0.1644903,0.4584877,-0.03049171,-0.06633031,0.9868078,0.6322043,0.2155844,0.9108324,-0.2586824,-0.2875015,-0.7663424,-0.5931833,-0.1928684,-0.6745853,0.6545064,0.9138176,-0.7972453,0.9445312,0.2048701,0.8157232,-0.5798929,-0.2740563,-0.5174072,-0.9933312,-0.6598878,0.8712986,-0.9941893,-0.2928568,0.5953612,-0.9314787,-0.2195369,0.7690294,-0.98913,0.1467215,0.3896973,0.159058,0.2471823,-0.5872016,0.8004386,-0.1611413,-0.2176853,-0.5797842,-0.2501646,-0.09517372,-0.4012097,-0.6935897,0.5353909,0.1131765,0.8738217,-0.488274,0.05964696,-0.5683651,0.5059228,-0.1579446,-0.7744739,-0.1278218,-0.1856257,-0.7179155,0.8853521,0.2094322,0.8295393,0.7742701,0.8651965,-0.7432499,0.8583093,-0.5096688,0.5338283,0.4750139,-0.5811036,0.852051,-0.4783081,-0.673301,0.1611983,0.4437229,-0.5457351,0.08123267,0.09674609,0.5878394,0.2177669,0.8648345,-0.8741465,0.6378894,0.08866799,0.4262907,0.3402877,-0.1402591,0.7648544,0.4289643,-0.5641861,-0.3498269,-0.2267166,0.3728702,0.3757372],[-0.5589666,0.9587777,0.2648515,-0.1913849,-0.6788166,0.1426393,-0.1160415,0.760622,-0.4782492,0.9770622,0.8757181,0.626456,0.03226125,-0.1599766,0.1232644,0.3347594,-0.2702583,0.1150931,-0.7032959,0.9399893,0.2451559,0.4410989,-0.04453743,-0.1578759,0.6880302,0.2673554,0.9183385,-0.1662866,-0.7490499,0.7795625,-0.6943989,0.9740796,-0.2392656,-0.5581372,-0.05627596,0.3583278,0.5538414,-0.3856894,-0.7035575,0.7195356,-0.6393003,0.9846547,0.6401784,-0.6090264,-0.6076233,0.7726345,-0.7069798,-0.5264173,0.5106807,0.8365698,0.0005785227,0.4103176,0.08785331,-0.2271067,0.5724277,0.4064777,0.5581481,-0.6027558,0.6725566,-0.3201119]],[[-0.351554,-0.9128473,0.3685414,0.8671422,0.2621927,0.05561364,0.04730499,0.8198898,-0.7141478,-0.1935536,-0.2240285,0.8429143,0.9576082,0.9454153,-0.03282273,-0.05322468,0.6391921,-0.4689749,-0.4561867,0.06173646,0.1885432,0.4475379,0.3284881,-0.4395729,-0.660224,0.2323323,-0.6138685,0.9903553,0.6343443,0.3852017,0.6050777,-0.8456366,0.9376452,0.06178558,0.2854354,-0.7890089,0.109033,-0.4577032,0.6184981,0.9689167,-0.8777606,0.1406983,0.3209917,-0.2317339,-0.8002522,0.4616871,0.9388163,-0.6099095,-0.5446126,0.8308389,0.2881496,-0.3084873,-0.4333266,-0.6198518,-0.4120544,0.2052981,0.9840624,-0.08978713,0.7247076,0.06824696,-0.06057036,-0.8279514,-0.1835831,0.8589773,0.2941,-0.5997546,0.4620533,0.8053555,0.5591094,0.2004899,-0.8648567,0.06388605,0.3890307,-0.3066703,-0.4394704,0.6411934,0.9700778,0.8369477,-0.08296835,0.5933409,-0.7309062,0.05721581,-0.1399578,0.3296981,0.2086748,-0.04646146,0.1737562,-0.5680866,0.1106881,0.7535126,0.368937,-0.06509197,-0.3791107,0.6538203,-0.7792151,0.9086258,0.2403027,-0.7339916,-0.851413,-0.5778964,0.4739163,0.9170167,-0.005788922,-0.2837707,0.661202,-0.7632377,0.2825293,-0.3933626,-0.3453373,0.08667719,0.6542418,0.08756554,0.0797292,0.4736914,0.168636,-0.2712387,0.248243,-0.9331768,-0.3364738,0.01449358,-0.7663355,0.6820798,0.7103527,0.5483007,-0.9650478,0.5046201,-0.2939514,-0.224182,0.3619399,0.1300379,0.009635329,-0.2073656],[0.9243822,-0.2357894,-0.6602263,-0.7134953,0.04421222,-0.5186532,0.8570566,-0.9703283,0.3071444,0.1030065,0.3110482,-0.05444491,0.2927746,-0.8890641,-0.4473242,-0.7159665,-0.09050858,0.7327218,-0.02777326,0.2926619,-0.767688,-0.2386779,-0.1901284,-0.08250892,0.5705285,-0.04197037,0.7096121,-0.6589723,-0.02376902,-0.0958513,0.9276812,0.229175,-0.7306099,0.8162105,-0.2510957,0.9160504,-0.9543066,-0.8037288,0.1367191,0.1569802,-0.637558,-0.1883947,-0.6338694,-0.9324744,0.3275916,0.1806377,0.1156746,-0.4983929,0.7360885,-0.4272846,-0.2571419,0.5444911,-0.8228519,0.282149,0.0169071,0.4207093,0.8550687,0.1299506,0.1830555,0.9585865,-0.03447664,0.7301788,0.9148629,-0.6534483,0.2669859,0.2169253,-0.1948153,-0.6027818,-0.1911832,0.6820753,-0.9375837,0.5754158,0.1336316,0.4845497,-0.1707784,0.8570962,-0.7698026,0.5720384,-0.2329398,0.3859734,0.3773577,0.9781625,-0.7415309,-0.2074,0.7100151,0.5840542,-0.6290686,-0.3149971,0.2003838,0.1709818,0.9860501,-0.8913326,-0.7926497,0.14073,-0.7786207,0.7067831,-0.7878621,-0.3276547,0.09027326,-0.7311661,-0.3998359,0.02893603,-0.9430735,0.1351489,0.08627474,0.9369254,0.4776303,-0.9780095,0.1199492,0.9326353,0.8295052,-0.1340145,-0.9746921,0.8060002,-0.6303096,0.8427138,-0.5993235,0.0925349,-0.5390351,-0.2069956,0.3465938,0.1695961,-0.3467644,-0.09292138,0.03325331,0.4023416,0.583914,0.6486487,0.7023273,0.3099897,0.4964232,-0.7811759,-0.05608213,0.7535779,0.2914085,-0.2808045,0.9089284,-0.1747214,0.9604068,0.4927289,0.1965562,0.3925578,0.2557499,-0.3955308],[-0.8617229,0.6586714,-0.8522084,0.1473325,-0.4185232,-0.8263404,-0.8663146,-0.6646779,0.8524177,0.7036448,0.3053138,0.8913217,-0.9761322,0.8079667,-0.6065578,-0.6746697,-0.1242672,-0.09828818,-0.2322723,-0.6830621,-0.5138459,-0.8354506,-0.7872989,0.7921634,-0.4465638,-0.5527647,0.5277569,0.08478749,0.3141622,-0.3595656,-0.5176697,-0.1522862,0.4542181,-0.7635593,-0.3659018,-0.6803563,0.8748875,0.1807078,-0.9044962,-0.5450943,-0.7298832,-0.816772,-0.5432844,0.5494826,0.4530494,0.5949304,-0.7840569,0.5162563,-0.784111,-0.9838059,-0.713433,-0.6983192,-0.9215486,0.1691772,0.763344,-0.0534395,-0.5948853,-0.03900969,-0.3596517,0.2404031]],[[0.3240995,-0.6908243,-0.3489794,-0.7568014,0.6537044,-0.4440783,-0.5725396,-0.7920728,-0.06991851,-0.6908779,0.9258761,-0.9756458,0.2525065,-0.1266867,-0.5908375,0.717716,-0.2606512,0.7400358,0.6461649,-0.2850131,-0.6352735,0.3512139,0.8059897,-0.4495987,-0.3090562,0.2347769,0.077546,-0.7326386,-0.5672336,0.9357219,-0.5394077,0.7280645,0.3705296,-0.7058575,0.3614495,0.6541355,0.5707321,-0.999053,-0.7176404,-0.1248978,0.08043993,0.4674897,0.5085168,-0.7064784,0.8974636,0.4655096,-0.6377378,0.7314963,0.6334014,-0.5767562,-0.2789973,0.7841663,-0.2710661,-0.5789196,0.9784403,0.1724271,0.8738122,0.5129972,-0.05820477,0.9688964,0.7457926,-0.8555472,-0.6471939,-0.1038107,0.06001699,0.6116066,0.5942118,-0.7748542,0.6061828,0.1837908,0.04032218,-0.7116246,0.587384,0.9666064,0.15069,-0.2100517,0.3399639,0.8828714,0.2795005,0.08071458,0.1334602,-0.04218566,0.7551296,-0.6791849,0.01419818,0.8643134,-0.4205171,-0.3948992,-0.5055456,-0.939806,0.6739881,-0.1679751,0.02485788,0.4821913,0.3737547,-0.3094312,-0.9704134,0.4892151,-0.836242,-0.9091511,-0.3680505,-0.735131,-0.3617266,-0.8695178,0.6951013,0.9356284,-0.3748749,0.946424,-0.9108963,-0.4682208,0.5514734,0.02410185,-0.3097576,0.3678417,-0.97106,-0.4720706,0.1068825,-0.3528358,0.1450664,-0.4651233,0.2400051,-0.0423125,-0.9731112,-0.6532547,-0.2618512,0.01666176,0.3370189,0.1279413,0.3355808,-0.06628644,-0.01997554,0.06752598],[0.07819808,-0.3466123,0.9421637,0.5002353,0.6540725,-0.1880637,0.3340013,0.918431,-0.3271245,0.4756422,-0.1727139,0.5606399,-0.7747855,0.1416472,-0.620645,-0.3532289,-0.5067093,-0.9820061,-0.8031096,0.889571,0.2497281,0.6160746,0.8898077,0.8094769,0.5997255,-0.2176372,-0.4560367,-0.9816225,0.5006471,-0.1652061,-0.5973241,0.01323926,0.081653,0.8527043,0.02937734,-0.07163823,0.3068304,-0.4532965,0.09099853,-0.3456074,0.04352653,-0.2282902,0.22168,-0.4549237,-0.598681,-0.4847888,-0.3029245,0.8659129,-0.7420509,-0.4791962,-0.7012777,0.8701248,-0.9100988,-0.3858405,-0.8661819,0.494605,-0.5399442,-0.1187097,0.7836127,0.1431218,0.3467889,-0.98104,-0.9620953,0.1250991,-0.4656597,0.1731416,-0.4552852,0.7889974,-0.2119797,-0.06125796,0.3170068,0.7241774,0.5487146,-0.4086577,-0.8180807,0.890918,-0.7108037,0.5682969,-0.565285,0.4138727,0.5460827,0.6791842,0.3167915,0.1892027,0.6905968,-0.1711575,-0.745487,-0.3753046,-0.471264,0.7611921,0.9408817,0.1430641,0.4142861,-0.4216851,0.5049114,0.8463359,0.1358277,0.08544338,-0.02526677,0.2672102,0.3261153,-0.1421834,0.009638667,-0.1436716,-0.5905435,-0.6490202,0.4299736,-0.4111098,0.07722247,0.3297605,-0.717387,0.06404889,-0.3113421,-0.2216674,-0.7686594,0.4733445,0.4869959,-0.4171544,0.814517,-0.8937304,0.1554381,0.3875158,0.4496271,-0.3273758,0.251981,-0.739511,0.2663712,-0.6344991,-0.1692277,0.9773102,0.7330768,0.1218897,0.3655076,0.7425079,0.2516074,-0.2788888,0.7808936,0.9492388,0.2183181,0.08125007,-0.4420208,-0.1089233,0.7039192,-0.08634937],[0.2374753,-0.9134512,-0.1558503,0.008660436,0.1990229,0.2790134,-0.2315298,0.2295927,-0.9931076,0.2028416,-0.3137783,0.6048853,0.9569738,0.3212583,-0.9625802,-0.6474555,-0.7145913,0.2271975,-0.9156737,-0.6831241,-0.8884182,-0.2644628,-0.7958128,-0.469714,-0.1065723,0.07433379,-0.6875184,-0.9909129,-0.5364888,-0.1139992,0.2609923,0.3914995,-0.5988526,0.1716563,-0.1496485,0.7942078,0.7213707,0.7682886,0.8800657,-0.0508045,-0.7373574,0.6148088,0.10294,0.9229927,-0.6059525,0.4206335,-0.9365551,0.258883,-0.2752515,0.9424303,-0.7902637,0.1091853,-0.03821027,0.07084286,-0.2643734,0.02189147,0.0009497404,0.4000647,-0.7107751,-0.5800951]],[[0.05979145,-0.7866578,-0.9994431,0.2496625,0.8910797,-0.1307346,-0.7581971,0.5211353,-0.7565744,-0.8461995,0.4608638,0.9330721,-0.5958982,0.7871027,-0.1512226,-0.08345711,0.335442,0.127165,-0.1996015,-0.1102618,0.1395088,0.9340296,0.5355475,-0.5567107,0.7220092,-0.9657509,0.3580463,-0.9373391,-0.04290473,-0.9302163,-0.7143362,-0.03492415,-0.9951134,0.2069985,0.2289718,0.948113,-0.8516901,0.2936074,-0.9177406,-0.1570781,-0.3260337,0.5433192,-0.2976493,0.9106786,-0.03351986,-0.8257601,0.5528781,0.1083316,0.8241515,0.4587893,-0.3818604,-0.3373157,0.476218,0.1638869,0.5544777,-0.4502071,0.4002757,-0.9589589,0.1048106,0.9331689,-0.7282233,0.7973397,-0.5476611,-0.3794357,-0.7859464,-0.2568733,-0.1009661,0.5654473,0.9524841,0.4006853,0.9686766,0.592221,-0.8795598,-0.649791,-0.9634945,0.7717154,0.4163837,0.5631433,-0.7705443,-0.9696059,0.2985279,0.1396872,-0.5694361,-0.3480636,-0.2329906,-0.5747802,-0.3642474,-0.04829133,-0.6075165,-0.4454564,0.4325421,-0.4064819,0.08744943,0.07925117,-0.2245086,0.4068796,0.9867806,0.09185994,0.6461871,-0.9406204,-0.3369976,-0.2486013,-0.4626769,0.2940674,-0.09564459,-0.7705629,-0.2278641,0.9456854,-0.001289725,-0.02450931,0.2829568,0.6486547,-0.7282372,-0.1444103,-0.08617985,0.5841053,-0.309672,-0.02929938,-0.3199753,0.4494095,-0.3590316,0.9048388,-0.8005383,-0.5363977,0.1508657,-0.2271694,-0.001831174,-0.05675757,0.8883655,0.1698786,-0.4861826,0.6381271],[0.3270247,0.3251497,0.4466395,0.7899716,0.0798322,0.3579237,0.5527968,-0.3003453,0.1954435,-0.9498112,0.3762438,0.1709517,0.6329267,-0.9487569,0.1744848,-0.4222232,-0.7823584,0.8918686,0.4943275,0.2402483,0.2166573,-0.5626729,0.4985037,0.7821727,0.0903548,-0.5532384,0.7618368,0.9794993,0.3220164,-0.09642828,0.5016408,0.2368697,0.6468928,0.9345973,-0.2500583,0.7051332,0.5784404,0.3696332,-0.8620033,-0.1374968,-0.06654012,-0.1950036,0.7570026,-0.5714569,-0.2980901,-0.8183615,-0.4720207,-0.9796622,0.04419792,-0.0308007,0.397829,0.7720208,0.02125156,0.8788443,-0.9590201,-0.3976964,0.1112663,0.9995801,0.8715601,0.7926071,0.2096237,-0.9162636,-0.9951794,-0.9238691,0.217703,0.9760928,-0.8894253,0.8297017,0.4467115,-0.8885398,-0.007830024,-0.08606446,-0.2217258,0.962923,-0.9191079,0.9430237,-0.4180282,0.8250911,0.2056791,0.3073454,0.5918121,-0.2512091,0.8913164,0.5996561,0.1812171,0.2533908,0.07136166,0.883363,-0.9774814,-0.5112669,-0.2108568,0.4784505,-0.2203749,0.9882073,-0.4446748,0.2868695,-0.966192,0.4583401,0.9086242,0.1535169,0.2019383,0.4890778,-0.5688183,0.4509823,-0.9620566,-0.06371772,0.04678142,0.8314822,-0.6653752,-0.9421399,-0.6521347,0.2135314,-0.7436893,0.6954577,-0.8333292,-0.1490804,0.1644851,0.593159,-0.235047,0.5499475,0.5023556,0.5326984,-0.9683266,0.3194246,0.02610958,-0.5676792,0.4453411,0.5810857,0.7992208,0.7185216,-0.4124097,0.8867414,-0.03398931,-0.5431263,-0.570591,0.1981417,0.6437135,-0.1379744,-0.6543524,0.4187562,0.8958764,-0.6875308,-0.7001777,0.3267836],[-0.410576,-0.4010381,-0.1849219,0.8742056,0.7387879,0.5502987,-0.6323502,-0.01128972,0.6612024,0.3124349,0.3558044,0.7768466,0.5392747,0.5181739,-0.04798996,0.1292206,0.5605686,-0.429952,0.2978,-0.8427904,0.4422049,0.1031896,-0.7100241,0.6743233,0.3192575,0.8936715,0.951401,0.8221428,-0.8831146,0.8744724,0.4602892,0.7193561,0.3248849,0.9796853,0.7997677,-0.5791128,0.5463598,0.1629046,-0.5787501,-0.4939727,-0.5670943,0.372081,0.2675187,0.4963364,0.5316458,-0.08692253,-0.6021106,-0.5369103,0.5886123,0.09293234,-0.7107928,-0.973701,0.1130897,-0.7918675,0.4242079,0.8512366,0.07959402,-0.9675906,0.3686883,0.9150567]],[[0.6060905,-0.7253284,0.07653987,-0.5300276,-0.1092838,0.436032,-0.4557172,-0.3233224,-0.8972926,-0.1154021,-0.359773,-0.6949804,-0.631896,0.927398,-0.0773145,-0.5214093,0.3815434,-0.9781232,-0.9997761,0.866596,-0.8567448,0.961374,0.965904,0.9688261,0.5732512,-0.8700449,0.1328636,0.2514324,0.0775317,0.9265707,-0.09037006,0.8354018,0.7714674,0.4434328,0.6376402,0.2447733,0.9254658,0.2189118,-0.2799646,-0.6984477,-0.9545114,-0.3121389,-0.2584776,-0.6510758,-0.4970714,0.4992885,-0.08078659,0.7283952,-0.6139946,0.2198638,-0.1339337,-0.7527447,-0.8159347,0.8280892,-0.4095639,0.4104836,-0.587796,-0.08185017,0.9900768,-0.1560374,0.7197378,-0.3855797,0.3556132,0.7139781,-0.5902472,-0.5299561,-0.9154396,0.8145921,-0.6893497,-0.9166048,0.7251377,-0.1718041,-0.5163205,-0.863184,0.9708619,0.9026303,-0.71349,0.3719299,-0.6506357,0.582536,0.5749454,-0.7305367,-0.245628,0.1258918,-0.955359,0.8286374,-0.8303559,0.3920078,0.1283203,-0.5984221,-0.4507483,0.3426959,0.8365688,0.1177887,0.4403917,0.4876082,-0.9501379,0.2728574,0.9997132,-0.1570414,-0.6193085,-0.5821199,-0.4602395,0.7596035,-0.09929574,-0.5777929,0.7904305,-0.6385188,-0.8342645,0.7209063,-0.3806309,0.9695048,-0.6711428,-0.3384851,-0.5055816,-0.5659866,-0.3140773,0.8788259,-0.3707219,0.3241358,0.5787737,-0.6510785,-0.6230223,-0.6216111,-0.2562274,0.9874835,0.5347774,0.5157931,-0.5513244,-0.7571771,-0.1514024,0.6675262],[-0.6652393,0.7645319,0.4848282,0.4755859,-0.4110547,-0.07050407,0.4443264,0.4341936,-0.8830755,0.01759112,0.06033933,0.711282,-0.5836077,0.476196,0.161476,0.760319,-0.1600257,0.6377769,0.2583575,-0.5780923,-0.8451338,0.8967054,0.5004377,0.4737897,-0.5420685,0.7215905,0.5730267,-0.2713109,0.4615316,0.2954504,0.1242996,-0.03349197,0.7197263,0.3240826,-0.4910823,0.04814708,-0.8212755,-0.7378755,-0.1303056,0.4682257,0.04315317,-0.7800269,-0.1829053,0.1579155,0.5649667,-0.2207993,-0.198217,-0.4132189,-0.9723682,-0.6841781,-0.8196466,0.4978754,0.09273541,-0.428502,0.6963284,0.8039942,-0.8242557,-0.008698344,-0.8567142,0.3521275,-0.3218349,-0.06479228,-0.3754839,-0.8915441,0.162506,0.4417236,0.7156346,-0.754328,-0.2754554,0.1946462,-0.8265107,0.7780848,0.04375565,0.1630563,-0.8719301,0.6554484,0.2374038,0.3121504,0.6746347,0.1525792,0.5444956,0.1176223,-0.9217694,0.3796646,0.1274382,-0.9501619,0.67874,0.2643213,-0.5210316,0.2027596,0.2994911,0.96505,-0.1170357,-0.9465911,-0.3647774,-0.06125319,-0.2525893,-0.1785585,-0.6366146,0.7443395,-0.2909838,0.2681091,-0.01821053,-0.5227258,-0.1572188,-0.5884869,-0.1246868,-0.5382054,-0.6505549,0.07669437,-0.7512217,0.7932262,0.9938519,0.5402498,-0.2918016,-0.6110711,0.01455629,-0.2251524,0.7111664,0.8502178,0.4189391,0.2422611,-0.3353275,0.9287364,0.1991426,-0.2681133,0.2862432,0.3213372,-0.0545553,0.2279545,-0.8371966,-0.8602161,0.6174715,-0.3733088,0.7548666,-0.4070796,-0.7102563,0.4041049,-0.4872526,-0.9474709,-0.6983418,-0.6876838,-0.1515688,0.412637],[0.6592391,0.8338385,0.5509064,0.2898969,0.03987086,-0.1550828,0.4588434,0.4088905,-0.1724516,-0.6464634,0.6376688,-0.4072562,0.43575,-0.2562009,0.6055133,0.09987772,0.7556007,-0.1241192,0.8808682,0.03519189,0.8393221,0.2746112,0.6117525,0.508657,0.1544157,-0.3674914,-0.3280042,-0.8336887,0.2427019,-0.5986087,0.3102328,-0.2021343,0.3979168,-0.2039436,0.9358158,0.2430564,-0.5280776,-0.3944563,0.566426,0.5863371,0.5853219,-0.7063882,-0.4625057,-0.6800785,-0.006700158,0.9583976,-0.08978593,0.5427217,0.7933149,-0.7460656,0.7298055,0.3698721,-0.2191581,-0.4444906,0.2802984,-0.4983641,-0.3501645,-0.9690001,-0.662756,0.2971961]],[[-0.5133631,0.6482105,-0.7214441,0.2454222,0.1928147,-0.7720189,0.2527942,0.1262993,0.6121054,0.3187051,0.1684357,-0.1031846,-0.8654282,0.4415135,0.3016197,-0.1585749,-0.6914907,-0.9579079,0.995996,-0.8939371,-0.5944378,-0.4164149,-0.2296053,-0.3328816,0.1126834,-0.2778779,0.2675245,0.4222815,-0.4925789,0.8319869,0.3906169,0.2852668,-0.8057296,0.4059205,0.2468375,-0.7152884,-0.3229958,-0.7127304,-0.844254,-0.9193308,0.4480548,0.8242922,-0.8984711,-0.156999,0.6810806,-0.513412,-0.1146806,-0.2930881,0.4286494,0.5220814,0.7538052,0.4614076,-0.6219931,-0.8457971,0.4812512,0.8544736,0.6275172,-0.2630922,0.1136533,-0.6267469,-0.6639996,0.3702554,-0.6678543,0.784359,-0.172371,-0.5462248,0.1453902,-0.2124344,0.1791822,0.3050699,0.35064,-0.4325691,-0.7182415,-0.4224783,-0.2208871,-0.03187263,-0.2253968,-0.6090901,-0.5163386,-0.6883502,-0.5691173,0.9836786,0.8413463,-0.1384381,-0.7013295,-0.6168337,-0.64696,0.3550892,0.08608735,-0.6585307,0.6744735,-0.2088703,0.3642373,0.01230156,0.8492498,0.2207063,0.9381518,-0.95047,0.6800191,-0.3036801,-0.9085779,0.2529223,-0.7259736,-0.8567939,-0.1193062,0.137159,0.1193522,-0.08438289,-0.002821803,0.03531396,-0.08585203,-0.4974805,-0.8767087,-0.3784271,-0.9644516,0.04289925,0.6154554,-0.8220437,0.8664987,-0.4443442,-0.6800454,0.4299047,0.9625628,-0.700088,-0.6561799,-0.1370281,-0.03834784,0.06447756,0.351917,0.3147831,-0.470662,0.4083962],[-0.8956647,-0.3393012,0.599689,-0.2533215,-0.8598087,-0.5645866,-0.996109,0.2995937,0.4880416,-0.7800744,0.9424999,0.7358868,0.3679888,0.6497092,-0.2662457,-0.7821479,0.918385,-0.4028205,-0.07990968,-0.1986824,-0.9790404,0.6969054,-0.2456354,0.8554637,-0.7196553,-0.6870699,-0.1350335,-0.6680164,0.01718128,-0.134988,-0.2025458,-0.8738835,-0.1184226,-0.01176155,0.3775522,0.2884021,-0.5323257,-0.6015799,0.6447284,-0.1536788,-0.3495446,0.3911128,0.4201262,-0.7231946,-0.729306,0.1222445,0.4257466,0.4026975,0.444817,-0.911761,-0.6507523,0.7377093,-0.4425648,0.5397034,0.5235152,-0.06381023,-0.07450831,-0.4771432,-0.05958092,0.8583646,0.9948871,0.9485419,-0.1972951,0.01038826,-0.9643493,-0.804878,0.5750344,-0.1877464,0.940187,-0.019575,0.9300408,-0.4422044,0.8787229,0.1031269,-0.8203063,0.2883651,-0.07466185,0.150596,0.1781601,-0.6418874,0.9892335,0.349596,0.2350229,-0.4815632,0.4163811,-0.118492,0.09536731,-0.4770032,0.1061853,0.5906928,-0.3641247,-0.5923512,0.9330792,0.4642555,0.9354622,-0.8555944,0.6073289,-0.03947246,-0.3320097,-0.5531778,-0.771826,-0.6276093,0.8262711,-0.9244571,0.6129572,0.01301539,0.7607975,-0.1053864,0.1694344,0.1189858,-0.5004945,-0.2999796,0.9311495,-0.9279137,-0.5705628,0.8811755,0.9558244,0.9272454,-0.6670053,0.2500755,-0.1888589,0.2659471,0.1075987,0.4657497,-0.981091,0.6466892,0.638855,-0.8642683,-0.3537155,-0.913795,0.9054148,0.08741462,0.03679693,-0.6487103,0.7421532,0.2571275,-0.8244915,0.4498934,-0.7532365,0.9679027,-0.080809,-0.7981358,-0.09771216,-0.3069414],[0.6207206,0.5509479,-0.1322738,-0.9808476,0.5819111,-0.3317174,0.2771468,0.5475471,0.6190665,-0.1954988,-0.9637637,0.3661797,-0.5369017,0.5314364,0.1533445,-0.8997784,0.7247324,-0.2971574,-0.433174,-0.2696759,-0.465505,-0.8308856,0.008672118,0.2721135,-0.5305109,0.4987011,-0.09523571,-0.2275933,0.9285579,-0.6384544,-0.6946845,-0.6588068,-0.2772976,-0.8360214,0.03067553,-0.6968224,-0.06959164,0.1566166,0.6128006,0.8355086,0.6952815,0.626303,-0.9851387,0.3194072,-0.7282073,0.4519095,0.01386249,0.3750333,0.4797191,-0.01786935,0.4533345,-0.1155049,0.1372217,0.05721343,0.1960756,0.8273194,-0.7376995,0.04636919,-0.9946887,-0.6289835]],[[-0.1505841,-0.6923692,0.1885005,-0.4397458,0.9764481,-0.1554626,-0.7275193,0.9687486,-0.9153271,-0.07785666,-0.6806149,0.3875441,0.9243572,-0.9442036,-0.1561159,-0.7682221,0.4924373,-0.886312,0.5302768,0.243353,0.4742732,-0.774823,0.8922765,0.008201003,0.05842912,0.6629102,-0.8252103,-0.5681562,0.1144506,-0.6983099,0.9065266,-0.9825535,-0.1286229,0.2152976,0.4335506,0.4774637,0.882225,0.8159084,0.32022,-0.02691185,-0.1632913,-0.3936321,0.4259696,-0.6778629,-0.7129025,0.3221872,-0.1777216,0.4294674,0.04974592,-0.168053,0.828572,0.2964563,0.01055157,0.2372588,-0.07893646,-0.06870115,-0.04684961,-0.6110263,-0.2413291,0.231151,0.7998147,0.8036439,0.1349033,0.009460807,0.01754367,-0.8150921,-0.09003317,-0.6296675,0.6248043,-0.7056971,0.8992598,-0.5374193,-0.06652868,0.4332637,0.8975065,0.1994439,0.7709346,0.1774067,-0.426643,-0.1842037,-0.1521331,-0.8587568,0.7437744,0.557368,-0.729223,0.2038916,-0.7363703,-0.1236774,0.3538053,0.08482182,-0.8952639,0.6326673,0.1535412,-0.6364048,0.2428561,-0.8814256,0.02226722,0.7217534,0.5097315,0.1395179,0.2687926,0.5605197,0.2233604,-0.8755555,0.3462104,-0.6859875,-0.9749587,-0.6797142,-0.1759771,-0.5288327,-0.5180221,-0.2532078,-0.6409442,0.8001301,-0.06268322,-0.7917678,-0.2850579,0.9541893,0.9651253,0.1011664,-0.3596915,-0.5244284,0.4541304,-0.06428158,-0.7044246,0.2785101,-0.2919925,0.8983598,0.3819825,0.2132288,-0.9097469,0.1856416],[-0.2970105,-0.6888862,-0.4347752,0.3745966,-0.1658219,0.6568944,-0.6817179,-0.543134,-0.7403145,0.7862935,-0.960031,-0.08510125,0.4442591,0.7858646,0.3818912,0.4712214,-0.7183051,0.5184896,0.6913021,0.0155443,0.462574,-0.08009636,0.7458744,0.0941025,-0.7584257,0.02174532,-0.4230436,0.8161914,0.5822189,0.2339162,-0.9831612,-0.4152445,0.2695772,0.007695794,-0.2424351,-0.7766728,-0.7607746,0.9410074,-0.02112663,0.08225071,0.2066118,0.4702801,0.3021748,0.6653564,-0.2315823,0.08815396,-0.169602,0.2170399,-0.3272396,-0.1974279,0.01683962,-0.9857957,0.04112852,-0.06944931,-0.09444392,-0.05285823,-0.004117846,0.3020713,-0.402553,0.870538,0.8841004,-0.6384034,-0.9566047,-0.5698948,-0.00641048,-0.6305289,0.09661019,-0.5570228,-0.1325017,0.833674,0.2996375,-0.2457191,0.5064223,0.5828269,0.4742043,0.8216739,-0.1247698,0.4703638,0.9240289,0.7749641,-0.5928028,-0.9749348,0.7187879,0.002067447,-0.4939378,-0.1099337,0.6937768,0.9216602,-0.5603402,0.1029457,0.2830255,0.6439319,-0.406231,-0.5518773,-0.9118834,-0.9113998,0.131035,0.2802896,0.3748231,0.1491202,0.3629923,0.9387908,-0.6705472,0.6087706,-0.05834877,-0.5052159,0.1877488,-0.775306,-0.9273124,-0.2483777,0.3496692,0.4770083,-0.4955832,0.2972262,-0.2974988,-0.3049947,-0.7314396,-0.02665889,-0.006011367,-0.3878499,0.5054429,0.8776219,0.3977327,0.01777971,0.2768001,0.9229176,0.9455767,0.1967882,0.8114767,-0.9029334,-0.5010302,-0.02336347,-0.1614774,-0.3657945,0.7405837,0.4915061,0.6239266,0.6012475,-0.4295501,0.4097163,0.2903695,0.7170126,0.05238354,-0.1620528],[0.9857848,0.1533269,0.7826462,-0.1257087,0.5294681,0.1362051,-0.6236587,0.007305503,0.4156289,0.6550827,-0.8656669,-0.3121103,0.3881819,0.637188,0.09160793,0.09019005,0.8851693,0.1301318,-0.9136865,-0.5339987,-0.7451227,0.4353592,0.2137164,0.3634503,-0.9184592,0.9246714,-0.8586478,0.4472682,0.438461,0.02601993,0.4635853,0.7823696,-0.5034373,-0.4128364,-0.4966527,0.2174896,0.005895495,-0.7225013,0.9572427,0.8106625,0.7095001,0.6866381,-0.7425158,-0.5422976,0.6962323,0.5011356,-0.7919245,0.8541241,-0.9660358,-0.5849173,-0.2390674,0.126532,-0.3116294,-0.5046544,0.5824604,-0.2029141,-0.5261078,0.4778237,0.06540239,0.2454809]],[[0.4102335,0.0335778,-0.7248127,0.7331429,0.9685326,-0.4272665,0.4221399,-0.3560814,-0.270157,0.2315942,-0.1156472,0.5398598,-0.6113801,0.09886944,-0.847158,-0.2234138,0.1523014,0.9719744,-0.5795534,0.6698859,0.4639368,0.3012125,0.2686245,0.00273478,-0.3240787,0.4840352,0.3694095,-0.3620623,-0.3052646,-0.2509161,0.2192546,0.2303623,0.899226,0.6903057,0.111317,0.7192101,0.8011298,0.5588224,-0.125003,0.3435986,0.2856106,0.5327382,-0.3722728,-0.1989771,-0.5560241,-0.1359254,-0.4484948,-0.265556,0.9452181,0.5000079,-0.3619508,0.8974473,-0.9132321,-0.1176118,-0.7302082,0.04828489,0.6822951,0.6530132,0.227708,0.6047127,-0.7582576,-0.8798127,0.1138018,-0.1346723,0.7340326,-0.9468846,0.938133,-0.2436198,-0.4105281,-0.2408057,-0.02654493,0.9703767,-0.4059945,-0.506542,-0.4431499,0.3234791,0.9581451,-0.5873618,0.86765,-0.7816238,-0.2319671,0.3947107,-0.5144958,-0.2160155,0.516701,-0.9669168,-0.5780191,0.4231763,0.553592,0.7630713,0.4551499,-0.9485559,-0.3619934,-0.2964197,0.6503475,0.7568033,0.3811445,-0.8067176,0.6421964,-0.6362083,0.8604851,0.7542377,0.8456812,-0.8919966,0.4132476,0.9924798,-0.584502,-0.5606101,0.02445519,0.4236047,0.8752978,0.7241578,-0.3455621,-0.9222815,0.2919171,-0.02285755,0.9559226,-0.1371852,-0.3032187,0.1014966,-0.3677815,0.8185229,0.2980225,0.5942414,0.8326163,0.3163175,-0.4747599,-0.5663264,-0.287594,0.1532098,0.466197,0.4373555],[-0.5555568,0.625212,-0.2189618,-0.6774821,-0.9483633,-0.587431,0.4982109,0.05305612,-0.4387587,-0.156495,0.8074286,0.4305634,0.837116,0.1469041,-0.1708692,0.8279355,0.3436777,0.3184271,-0.6553316,-0.6431882,0.5019519,-0.5797913,-0.1650456,0.1175028,0.7478983,-0.6552646,-0.3816425,0.7686214,-0.009703755,0.7163999,0.5265667,-0.3851124,-0.7493725,0.5944469,-0.5561662,0.5041509,-0.7220783,0.9870789,0.4414496,0.8411686,0.8986008,-0.6427603,-0.3830155,-0.2052883,-0.3853413,-0.3614436,0.9700875,0.4516611,0.7214358,-0.579138,0.08564556,-0.178773,0.5034349,0.2744898,0.7389576,0.7011194,0.7722759,0.176993,0.1580228,-0.1594845,-0.5780938,0.08254588,0.2607994,-0.5298462,0.6971359,0.9796991,-0.4102677,0.3923819,0.8889081,-0.06727254,-0.5437517,0.747493,0.6287146,-0.9876065,-0.5065904,-0.8993359,-0.6313324,0.1706048,-0.727479,0.8633654,0.3767705,0.4909455,0.5850618,0.7317803,-0.344272,0.8070979,-0.006075978,0.8277805,-0.3978904,-0.4286863,0.8641901,-0.8229041,0.5478561,-0.6326509,0.3331964,-0.8369856,0.4158327,-0.5588856,0.01632154,-0.3014001,-0.06904519,-0.3330001,-0.5326138,0.2213873,-0.5279989,-0.4184417,0.7855117,-0.2926565,-0.5560765,-0.1535944,-0.5757475,0.4855997,0.1227292,0.9853969,-0.6223547,0.1997164,0.966244,-0.1974341,-0.1394099,0.7574461,0.3893933,-0.499602,0.2331384,0.10666,0.2694421,-0.2334787,0.610966,-0.7705164,-0.1489931,-0.5890319,-0.2360412,-0.4396397,-0.5844171,0.4268279,-0.1307091,0.7524078,0.4413802,0.00190413,-0.18387,-0.7451446,0.2317747,-0.3910049,0.6477928,0.6510582],[0.659904,0.8144362,-0.5491097,0.5347736,0.6919136,0.3847396,0.2283436,-0.8852952,-0.8939335,-0.641155,0.5731258,-0.4244612,-0.2171341,0.8410699,0.2162014,-0.646487,0.214095,0.8600101,-0.869803,0.6649673,0.2832853,-0.4258841,-0.2660483,-0.9308057,0.1135675,0.6991582,-0.7707477,-0.9714148,-0.8758497,0.3338027,0.6501062,-0.9085486,-0.8744607,0.9416583,-0.214728,-0.1568104,0.484905,0.2117478,-0.205283,-0.5207419,0.3870985,0.8798599,-0.7436869,-0.5487719,0.6409853,0.791959,-0.1249167,0.3288769,0.3578644,0.3819146,0.4010052,0.05562413,0.437273,-0.7962048,-0.0353626,0.01959074,-0.856467,-0.7317214,-0.1527067,-0.3047415]],[[-0.07034004,0.1378375,-0.8961301,0.2634585,-0.1872524,-0.3168732,0.4888651,-0.2867087,0.9107344,0.629374,0.9231861,-0.1932172,-0.2573193,-0.04946125,-0.2441484,0.404833,-0.2166308,0.9293854,0.3293907,-0.2543293,-0.1341454,-0.09645474,0.8723011,-0.5299039,-0.7538946,-0.9245636,-0.8002377,-0.9449716,0.3409903,0.5249248,-0.4254783,0.481466,-0.4605941,-0.1988643,-0.4038473,0.6501868,-0.3738271,0.1205899,-0.6802933,-0.09877717,0.6743658,0.9545131,0.5675223,0.03435814,0.6611648,0.912204,-0.4525417,-0.6235611,0.4778468,0.3967237,-0.4456633,-0.4318429,0.7103853,0.4153619,-0.5069468,0.7644885,0.7945836,-0.6796892,0.7654967,-0.1864697,-0.9475369,0.4544315,0.3962011,-0.8452268,-0.6078842,0.6212053,0.3400194,-0.164584,0.7550261,0.8817167,0.9217992,0.5966556,-0.4869434,-0.2984682,0.750088,0.2256309,0.8585789,-0.3880602,-0.09689915,0.009241939,0.5109031,-0.8392339,0.4986906,0.3097009,-0.7338948,-0.3447503,0.958807,0.8567903,-0.2340721,-0.1439198,-0.8248999,0.7110412,-0.7471023,0.7765126,-0.5545571,-0.1722058,-0.7188683,-0.1533779,0.3619249,0.2587828,-0.2489914,-0.9295716,-0.9434628,0.6266279,-0.5462554,-0.8556852,0.01831877,0.4655201,0.401977,0.08269727,0.6688139,-0.4027411,-0.7120852,-0.1966256,0.8741705,0.8256297,0.5198889,0.3226907,-0.978317,-0.8190184,0.01336014,0.4630193,-0.3866583,0.8335648,0.1985418,-0.08455098,-0.6388774,0.1105903,-0.4910444,-0.3566359,-0.05777824,0.7312658],[0.5190613,0.4823866,-0.1689895,-0.7485037,0.3434767,-0.6192808,0.4611954,-0.845701,0.1427482,0.7614286,0.5714996,-0.3960017,0.9539816,0.2568755,0.5312867,0.7028499,-0.261768,0.4323766,0.03275383,0.667588,0.80949,-0.9576175,0.9565167,0.9240501,0.4222858,-0.7870758,-0.2610117,-0.1235794,-0.9887481,-0.7829189,-0.7747822,-0.1357614,0.4600746,-0.1886834,0.3846008,0.1706601,-0.1136752,0.9512892,-0.3007921,-0.2634152,0.02598488,-0.6020353,-0.9993038,0.7582054,0.6999445,0.1705724,0.695272,-0.3695835,0.7208283,0.1261684,-0.26943,-0.6624918,0.9327488,-0.2135028,0.2490846,0.0916661,-0.5521104,0.5812609,0.8374126,-0.8407142,0.6808589,-0.7222764,0.8067663,-0.8213875,-0.3904594,-0.7552066,-0.4836215,-0.2882808,0.3533194,-0.8678329,0.8742256,-0.7444868,-0.5440738,0.7509465,-0.6964998,0.2226657,0.8388772,-0.6305299,-0.5655587,0.4056875,-0.1421,0.7383137,0.6008101,0.6283872,0.5381734,-0.4392484,0.09712446,-0.6227572,-0.2991818,0.7244339,0.4030771,0.28358,0.5584106,0.103233,-0.3208679,0.8413961,-0.8044062,0.6162949,-0.1294011,-0.7867618,-0.6486597,0.5095215,-0.1090947,-0.5530319,-0.9925909,0.9239807,-0.01389778,-0.8384497,-0.01764762,-0.1263634,0.8018439,-0.8041058,0.4529946,-0.6460323,0.544534,-0.6909871,-0.8139014,0.7289324,-0.3996075,0.4677467,-0.3194388,-0.4313051,-0.7120161,0.1221718,0.6963828,-0.1009368,0.08146536,0.1711668,0.12283,-0.1996251,-0.4184507,-0.7330093,0.7020369,0.8143101,-0.4058083,0.2365021,-0.2655233,0.7135265,-0.7676632,-0.3526539,-0.8592818,0.9351315,-0.3339795,-0.5708413],[0.8646348,0.8460479,0.2359143,-0.5715773,-0.4911438,-0.01841295,-0.3827583,-0.2560834,0.6940057,-0.5616159,-0.160678,0.8802707,-0.1843036,0.7526278,-0.7254696,0.435265,0.4150219,0.7256064,-0.7700028,-0.4548906,-0.1719433,0.2940173,0.6972616,0.6603255,-0.6804142,0.1408027,0.4439904,-0.3061167,0.3817014,-0.3141736,-0.419412,0.01613533,-0.5691841,0.1541733,-0.9093235,-0.9884934,-0.1432632,0.5309248,-0.1882132,0.009322047,0.1705643,-0.3060414,0.08617961,-0.1754104,-0.6310544,-0.2808353,-0.6110065,-0.7714357,0.1592084,0.7566996,-0.06853044,0.6683042,0.6869881,0.2049752,-0.9724119,-0.7866867,0.3579981,0.6693239,-0.2467602,0.4883249]],[[0.543725,-0.6792688,0.354393,-0.06176078,0.7311773,0.1186208,0.8278995,-0.5972013,0.4918883,-0.6506767,-0.1047143,0.9079399,0.4634907,0.2053574,-0.8152931,0.1643122,-0.460883,0.6379759,0.927835,0.8146684,-0.7618153,0.6936955,-0.4787046,0.7064519,-0.1927551,0.5716047,0.620389,-0.05708516,-0.677309,-0.4506999,0.02057445,0.0587424,-0.8660474,-0.1106118,0.669358,0.2296747,-0.6671259,-0.5754516,-0.4040495,0.1434501,-0.5312774,0.7482777,0.3694908,-0.5564275,-0.9374657,-0.3261501,0.7977717,0.8768971,0.2194701,0.8491445,-0.9560304,-0.4237226,-0.679646,0.2956073,0.8443875,0.7113352,0.7103252,-0.1353768,0.02198374,-0.4111642,0.1977323,0.9927032,-0.1479653,-0.08445394,0.9210789,0.08326113,0.1900717,-0.9272399,0.6808615,0.8061342,0.4255302,0.4693901,-0.6460724,0.4749741,-0.3080796,-0.005651355,0.9723089,-0.2740816,-0.8805304,0.5691817,0.5407772,0.7264814,0.05201733,-0.6734786,0.3024704,0.5609543,0.01991737,0.4740762,-0.7668705,-0.3715123,0.9546041,0.5270691,-0.7457526,-0.6846545,0.03698003,-0.7633052,0.6325262,-0.6595275,0.9486153,-0.5681572,-0.7491834,-0.5170376,-0.6721256,-0.1987182,-0.8328118,-0.2759448,-0.760956,-0.7977614,0.5615563,0.459547,0.8229525,0.4081428,-0.7368701,0.9150651,-0.4760209,-0.3414227,0.2534036,0.3693092,0.5501788,0.4937756,-0.6754026,-0.2150799,0.7635324,-0.2900654,-0.4188839,-0.8155234,0.6978443,0.8754632,0.9924066,-0.3890992,0.5287819,-0.4261538],[0.2639246,0.05442083,-0.092255,0.4916637,-0.6641786,0.4843785,-0.5463362,0.6214442,0.8688912,0.4164922,0.3804776,-0.9418941,0.2084502,0.3269636,0.7944076,0.1990474,0.3188553,-0.06415403,-0.3209525,0.476007,-0.2346748,0.8538222,0.7696846,0.5073397,0.9820192,-0.0298866,0.9179056,-0.8594041,0.7208481,-0.350371,0.6729851,-0.7078333,-0.904397,-0.2876345,-0.7097201,-0.6976907,-0.2607769,-0.1892418,-0.8451524,0.7217658,-0.275405,0.9562695,-0.4968673,0.4255891,-0.9587972,-0.8383214,-0.2833635,0.1799012,0.2371951,-0.2072536,0.5756457,0.1723653,-0.1447228,0.8919036,-0.5779006,-0.3236901,0.7243109,0.1101626,-0.5711484,-0.6481469,0.9788244,-0.03526175,0.7221055,-0.8748713,-0.6403997,0.6690159,0.1168925,0.1876439,0.5714455,0.899287,-0.996917,0.7754226,0.1353477,-0.9769974,0.5131834,0.05016911,-0.7447932,-0.7438388,0.7751348,0.6564319,0.6803787,-0.4949993,0.03930485,0.3937568,-0.1009306,0.5877662,-0.7487628,0.0008746386,0.6913595,-0.2094494,0.2580628,-0.4833378,0.2804112,0.5712581,-0.7466195,0.9603064,-0.6366131,0.2207729,-0.9664788,-0.6750422,-0.2454005,0.07219303,0.4319887,0.6708298,0.4929766,-0.3852023,0.3521781,-0.9681737,-0.9010127,0.3620398,0.6258934,0.8164237,-0.6273758,0.7068496,0.0110749,-0.2285794,-0.02651799,0.2008494,-0.8121855,0.6426764,-0.24813,0.03105724,-0.4775118,-0.813472,0.04921353,-0.7772493,-0.8900089,-0.04851806,-0.1528009,0.2196194,-0.9671855,0.5362446,0.1423849,-0.6747105,0.03173196,0.01618946,-0.9601858,0.9159405,0.1301018,0.8864877,0.2544584,-0.1726617,0.2783873,0.09908664],[0.49005,-0.009683251,-0.2078627,-0.3534199,-0.02681983,0.6453185,-0.736573,0.3374178,0.3907416,0.9291015,-0.8045533,0.6407733,0.4855992,0.1269478,-0.7959599,0.7668381,0.3763001,0.4757611,0.593251,-0.2903525,0.6074312,-0.6620786,0.6338925,0.3497097,-0.7299998,-0.9690278,-0.3436249,-0.7887585,0.06378114,0.9864967,-0.1576108,-0.2654985,0.329472,-0.5338259,0.545423,-0.04142416,0.7677083,-0.8094747,-0.5029941,0.07877004,0.03705728,-0.9391322,-0.9086587,-0.9708755,0.781584,0.4973619,0.07960594,0.05194962,-0.455767,-0.8541434,0.2707832,-0.8603344,-0.1231393,-0.4084343,0.85851,-0.6745753,-0.8845432,0.1995298,-0.931901,0.110087]],[[0.04271305,-0.2225493,0.3829586,0.1141151,-0.365518,-0.6570528,0.8376987,0.6592903,-0.4904317,0.7845547,-0.6181309,0.2077087,0.361412,-0.8056793,-0.4480082,-0.5412874,0.5745084,0.7552631,0.5158687,0.3661618,-0.8582635,-0.6670542,-0.7444308,-0.9747744,0.1591567,0.06847465,-0.21846,0.3609736,0.5294776,-0.1820096,-0.2136608,-0.994638,0.84216,-0.0238632,-0.9216394,-0.7870965,0.2346095,0.2131325,0.6842175,-0.3476344,-0.07582724,0.1857721,0.4634008,-0.9357176,-0.1777965,0.5112062,0.5598359,-0.2883464,0.7424977,-0.7306004,0.8427718,0.770987,0.2998433,-0.5276239,-0.4208349,-0.8383296,0.1662446,0.05484498,0.1630899,-0.1245953,0.06129897,-0.02333939,-0.1695377,0.3233008,0.6468065,-0.8980985,0.006598592,-0.2158512,-0.4654664,0.9060299,0.4731476,-0.440025,0.1329182,-0.5895126,0.8501124,0.1595143,-0.6224425,0.5102015,-0.7874019,0.9691939,-0.0584079,0.9642086,-0.9637735,0.5583813,0.5860176,-0.9719625,0.7234445,-0.4553233,-0.6664891,-0.9820447,0.4099323,0.4110949,-0.6297851,0.2855663,-0.6642108,-0.1716517,0.3970573,-0.687567,-0.9774215,0.009521842,-0.2512079,0.239904,-0.08145225,-0.8765504,0.296154,0.2987668,0.746969,0.5900106,-0.5520394,-0.3843824,-0.7733316,-0.4466945,0.8762496,-0.2369972,-0.6617382,0.6403759,0.5139077,-0.2346412,0.2551484,0.4494796,-0.8328462,-0.8797112,0.3338744,0.3170602,-0.2520562,0.2876548,-0.2962116,-0.9930344,0.1415974,0.1415213,-0.8900402,0.5777857],[0.9881046,0.9363165,0.2116069,0.6682177,-0.5283742,0.9458747,0.3381216,-0.9041877,-0.03811729,-0.04640377,-0.09826958,0.9267485,0.8737803,-0.8090236,-0.8271568,0.03975594,-0.1494168,-0.06740177,-0.4883741,0.3488462,-0.1587695,0.7681596,-0.6561024,-0.1408225,0.7104332,-0.2682129,0.3762119,-0.7245557,0.4914512,-0.4934331,0.482841,-0.4321421,0.5009117,-0.5437088,-0.1118566,0.348715,-0.6998568,-0.3196195,0.780163,0.837929,0.675915,0.07643402,-0.7325644,0.2314872,0.2178162,0.7762172,-0.2958401,-0.6340711,0.2322463,0.9175966,-0.06041849,-0.03117931,-0.834476,-0.3879253,0.179104,0.5476475,0.9942079,0.5796964,0.5551004,0.120757,0.4793942,-0.7279894,0.6509113,0.3008053,0.8579531,-0.2163378,0.5792551,-0.1461304,-0.4471897,-0.04862416,-0.5140958,0.1777085,-0.4068483,-0.3436476,-0.6064205,-0.4324321,-0.8249972,0.02300584,0.1725069,-0.8955081,-0.4148835,-0.281814,0.9007647,0.273575,-0.5204384,-0.2214843,-0.4665478,-0.3364817,0.7774806,0.4093926,-0.5044136,0.06157267,0.9400423,-0.02029002,0.8231752,0.8348584,-0.4719487,0.7785642,-0.1132165,-0.005468249,-0.9581118,0.4763963,0.4753716,0.3999288,-0.8324547,0.1462168,-0.1963493,0.4140637,0.2729993,0.5832641,-0.6021316,0.1252512,0.0377394,-0.5722363,0.9430954,0.4980063,0.1667789,-0.9684076,-0.9748011,0.2779221,-0.4241711,0.07149017,0.2980625,0.2273906,0.2068702,-0.3181642,-0.6354926,-0.3289856,0.9303565,-0.1940507,0.71578,0.2992124,-0.5982168,0.3099398,-0.9497545,0.144164,0.99491,-0.8365133,0.6048665,0.2167054,0.345915,0.2652042,-0.7638187,0.139084],[-0.4319102,-0.6964519,-0.3700548,0.2461017,0.6602426,0.3816156,-0.2081329,-0.7005169,0.7010839,-0.6944535,-0.6424713,0.6851571,-0.3444351,-0.2801586,-0.4772676,0.05399048,0.03378141,-0.1558384,-0.7892015,-0.9011004,0.612057,0.8791857,0.5952282,-0.8501742,-0.608707,-0.8358972,0.7190421,-0.4015151,-0.2482356,-0.1822795,-0.7457035,-0.9953752,0.6216941,0.5983858,-0.7483895,0.01916397,0.6859477,0.07098639,0.848573,-0.7551711,0.7826557,-0.4725839,-0.8881667,0.03732407,0.3609438,0.7742178,-0.4171966,0.2630889,-0.65923,0.6190026,0.8313212,0.05652249,-0.7841594,0.2913825,-0.6382604,0.3517317,0.93572,-0.6608255,-0.9099379,-0.864419]],[[-0.7916255,0.9930654,0.2817769,-0.3518575,-0.4446076,-0.0295161,-0.1002861,-0.5418186,0.3555326,0.03521788,-0.09990489,-0.4214624,-0.933162,0.4505596,-0.6578426,0.4520821,0.2436928,0.0785135,0.5951118,0.1029919,0.8095737,-0.6443312,0.2715959,-0.2367147,0.1579167,0.8342621,-0.1349641,0.104812,-0.9090445,0.2344915,-0.8377197,0.7787771,-0.09885037,0.6281183,0.4019308,0.8665171,0.3514638,0.001421332,-0.625947,-0.5334151,-0.5217505,-0.6368203,-0.8717844,0.9798687,-0.7695205,0.5959215,-0.1594402,-0.009497046,0.09065711,-0.9982634,-0.1425678,0.5647109,-0.4162737,-0.1008152,-0.6237533,-0.7011287,0.04911959,-0.3578349,-0.08094585,-0.697932,0.542588,0.8364038,-0.99002,-0.8439798,-0.8052824,-0.4504825,-0.2493476,-0.2582012,0.5488503,0.8309326,0.6460373,0.9823091,0.9201858,0.4089472,0.3462355,-0.2442976,0.08547843,0.7404466,-0.2964736,0.9597383,0.8246737,0.2273351,0.4310598,0.009878755,0.1521744,-0.1124107,-0.2661613,0.0600661,0.2271529,0.8762455,0.4508588,-0.3924948,-0.5695431,-0.1496838,0.4886403,-0.1180245,0.3956315,-0.1731554,0.6453917,-0.5495946,-0.5313146,0.3094949,-0.3621272,-0.02971256,-0.9364951,-0.4621149,-0.4249009,0.2133957,0.3142605,-0.03764451,0.1320633,-0.2355057,-0.3986217,0.5735466,0.910234,0.4022107,0.7552078,-0.823108,0.9900422,-0.3236414,-0.1671294,-0.8262577,-0.7174752,-0.2264246,-0.5383534,0.05050194,-0.5151949,-0.8409176,0.6657095,-0.8864999,0.4613673,0.09444058],[-0.03979719,0.9231119,0.6281068,-0.05959904,0.1853644,-0.350505,-0.9549053,0.9708068,-0.8156726,0.3662057,-0.1929218,0.6717172,0.2958724,-0.1968304,-0.3976659,0.3782873,-0.5796828,-0.1085891,0.5620787,-0.8918521,0.1015087,0.1198419,0.9553347,-0.7782371,0.8610103,0.9574656,0.7914875,-0.6259482,0.3924262,-0.1251992,0.9967387,-0.3813077,0.09617126,-0.5485792,0.8990352,0.4344496,-0.1040579,0.03330553,0.3716855,-0.8121264,0.7522535,0.4717958,-0.3687872,0.3460374,0.4846735,0.01988804,0.3582823,-0.8366354,0.07216465,-0.485536,-0.4767267,0.7140088,0.8883967,-0.1773711,0.4989989,-0.9348834,-0.817492,0.3218877,0.1492168,0.4855175,-0.2206794,-0.9683139,0.2815616,-0.6262412,0.1444331,-0.3647078,0.8612628,-0.1179911,-0.5334971,-0.1093589,-0.3612307,0.6494727,0.7656183,0.9032903,0.7782786,0.3677609,-0.8998687,-0.3949593,0.5689967,0.1845719,0.6735435,0.1742848,0.5385323,0.9025123,0.9494851,0.88044,-0.9920635,0.04244602,-0.2929171,0.9640665,0.6712842,-0.3628055,0.8513646,-0.9580803,0.8205855,0.6028113,0.7954741,-0.1292313,0.2221035,-0.2223457,-0.644326,0.7962301,0.7449133,0.3634495,0.4904506,-0.4183432,-0.9562201,-0.8709931,0.08978498,0.2662837,0.3280756,-0.451753,-0.7910559,0.04806173,0.5835958,-0.1948875,0.5473309,-0.3778518,-0.3399111,0.9305935,0.3428516,-0.1848494,0.7421646,-0.05007064,-0.112718,0.2330562,-0.6190066,0.9909997,0.8056991,-0.07246649,-0.6529338,-0.6310852,0.5066631,-0.2918967,0.3427605,0.678802,-0.6433716,-0.1057309,-0.9102187,0.2166008,0.7831929,0.3500983,-0.6335156,0.5672388],[0.9992266,-0.5379446,0.6022613,0.5214577,0.004424214,0.6921675,0.5858908,0.9495947,-0.1338605,-0.1890255,0.3959877,-0.3197063,0.00125277,0.23287,-0.7636333,0.5663424,0.8982494,-0.8929152,-0.251217,0.1290151,-0.2272338,0.8379254,0.02952659,-0.1609064,-0.2442547,0.656611,0.1127232,-0.7873435,-0.5372097,0.7584143,-0.21797,0.4092028,0.5081563,0.1862985,-0.2875715,-0.9382517,-0.09863937,-0.3451937,0.9914188,0.4602651,-0.9584513,0.1873654,-0.9716356,0.8995004,0.4312339,0.7979946,-0.9128306,0.08856785,-0.7015603,0.9497366,-0.7415009,0.8515527,-0.4737593,0.6112189,0.9812293,0.6417553,-0.7654023,0.9567995,-0.6040854,-0.05336559]],[[0.5343568,0.5482469,-0.03227556,0.6861463,0.6186485,0.5097475,0.04253519,-0.1496252,-0.4090892,-0.5492983,0.1617578,-0.05213034,0.5014286,-0.4937609,0.0358783,0.4249839,0.9658651,-0.804776,-0.6242666,0.9549613,0.6083486,-0.7404561,0.2072915,0.5688169,0.5622418,-0.1721808,-0.166854,0.6492224,0.812309,-0.3418063,0.3197908,0.6202626,-0.09065425,0.3003998,-0.3174709,0.670229,0.3239536,-0.2672719,0.1089493,-0.8058236,0.7342458,-0.1615041,-0.727397,-0.9935668,-0.8733778,0.9394116,0.9586067,0.1614193,-0.4886318,-0.02798355,-0.5364699,-0.405883,0.519742,-0.3393646,-0.2190067,0.9356327,0.2935733,-0.6756601,-0.4840962,-0.8789377,0.3483882,0.5537219,-0.05481064,0.8955863,-0.828877,-0.6709945,-0.5956788,-0.4129916,-0.5917995,0.3525836,0.4804692,0.1430701,0.1009377,-0.220404,-0.5719914,0.611692,0.658581,-0.9766331,0.5678267,0.60235,0.9213247,0.7061095,-0.3904597,0.7293732,0.2464074,-0.6375351,0.2916019,-0.01632178,0.2166089,-0.2589513,-0.8432908,-0.06572878,-0.1409744,-0.470637,0.3350353,0.2749598,-0.5603483,0.8566308,-0.75985,0.9421809,0.4356467,-0.9921618,-0.3774616,-0.5070982,0.8223696,-0.4242691,-0.8155859,-0.5125217,0.32707,0.3192267,-0.5645761,0.1985976,0.4962742,-0.2705356,0.4444754,0.4639558,0.4923882,-0.6215913,0.3101139,0.7063143,-0.5671253,-0.3912596,0.7975156,0.537282,-0.9743299,-0.4516572,0.08231628,-0.4557844,0.3120992,0.3967304,-0.4372834,-0.630444],[0.5035355,0.1816169,0.3650584,0.9643538,-0.8380229,0.6651995,0.001305223,0.1757323,-0.974061,-0.9712541,0.3235039,0.1349357,0.4093408,0.06335652,-0.7574534,-0.4575673,0.4742579,-0.9883673,-0.3198072,-0.4834753,0.6750379,0.1226221,-0.4372743,-0.004643798,-0.7203102,0.9209268,-0.1978532,0.7738819,-0.6124821,-0.6502013,0.4661367,-0.3729681,0.622745,0.3197097,-0.8339479,-0.6961737,0.3735656,0.6343164,0.5302374,-0.7634835,-0.1527711,-0.6464889,0.2051848,-0.5044813,0.2205008,-0.7559979,0.9237585,-0.1601673,0.3506002,0.3886091,-0.3505074,-0.7740142,0.5566199,0.7382636,-0.6044505,-0.4153422,0.636081,0.7444584,-0.9917848,0.6461139,-0.9255681,0.1024572,0.9449503,-0.7664557,-0.9866297,-0.1844791,0.09963739,0.08129418,0.559063,-0.9574444,0.3319974,-0.5976899,-0.6207831,0.397448,0.3110246,0.6205966,0.2728109,0.8121397,0.6791606,-0.1908773,0.9771037,0.9535313,-0.0422827,-0.5202334,-0.3687118,0.2897715,-0.6279073,0.01813328,-0.9622025,-0.0853349,-0.708679,0.9118629,-0.8382072,-0.3862094,-0.1120664,-0.5294645,0.6408424,-0.6491764,0.7842476,0.762135,0.5039361,0.7044778,0.7925756,-0.2474498,-0.1414591,0.5227556,0.196659,-0.2261809,0.09276545,0.5835874,-0.9632025,0.7713141,0.1546587,-0.8985395,-0.7303741,-0.4430941,-0.3543407,-0.3061401,-0.06625998,-0.7855852,-0.06925619,-0.9596946,0.144811,0.5771568,-0.7635331,0.6547818,0.9994972,0.6872656,-0.9470544,0.2541732,0.4919681,0.1619414,0.9376614,-0.05678189,-0.9119768,-0.66872,0.3033035,-0.5375202,0.4419441,-0.1490456,0.2504358,-0.742208,0.09825528,-0.001653552],[0.5796025,-0.2535261,0.9540563,-0.786124,-0.4119531,0.1038247,0.7610688,-0.4887816,-0.9716046,-0.585592,-0.1843544,-0.9611144,-0.09529507,-0.7187359,-0.3771561,0.1655141,-0.2728368,-0.6511788,0.1988076,0.2127081,-0.7369933,0.2289263,0.3596818,-0.7230139,-0.537293,0.7673585,0.176387,-0.6237574,-0.4360555,-0.9499352,-0.4207417,-0.1833814,-0.4907402,-0.9911323,-0.4432434,-0.01532066,-0.0916754,-0.3530906,-0.6354859,0.1741825,-0.8156385,0.556607,0.01370394,-0.6274638,-0.1119577,0.317086,0.6606469,-0.2237953,0.7043014,-0.09704435,0.007087588,0.6052351,0.01474726,-0.8753898,0.3610367,-0.3222133,0.9869401,-0.08662355,-0.793169,-0.973912]],[[0.140133,-0.4861799,-0.7450926,0.8872871,-0.01855457,0.1077937,0.3298092,-0.2569035,0.3818147,0.7071123,-0.1178175,-0.4995939,-0.1893851,-0.8708482,-0.174034,-0.8143253,-0.1991934,-0.5998476,-0.8817632,-0.989152,0.6647916,-0.5356584,-0.4579862,-0.06285751,-0.7289567,-0.5793834,0.4322312,-0.7798123,-0.3016952,0.7116771,-0.7370067,0.4226033,0.5964179,0.9348278,0.4631295,0.7399104,-0.7127314,0.7712409,-0.3596855,-0.3736569,-0.06971419,-0.5108674,-0.9512072,0.07976258,0.6097775,0.3076923,0.7224247,0.3442309,0.6550953,-0.01781714,-0.6677063,-0.2086259,0.7255344,0.3960144,0.9972539,-0.9452755,0.247985,0.4907815,-0.6435432,-0.04503095,-0.7492285,-0.6976016,0.9458377,-0.0878576,-0.1150621,-0.7692111,0.1053494,-0.169598,-0.1295167,0.8929589,-0.6570947,-0.9809859,-0.3292879,0.2018267,0.4116993,0.3889703,0.1141132,-0.7121167,0.6488414,0.3605902,-0.6961477,0.7428224,-0.7854311,0.2444922,-0.84606,-0.5273216,0.216596,-0.2020425,-0.9979267,0.5011585,-0.2925833,-0.5147784,0.7250106,-0.589283,-0.849956,0.6643751,0.3701327,0.02731049,0.210164,0.294172,0.3229055,0.1333803,-0.8638051,0.7595122,-0.4926585,-0.2182904,-0.8854136,0.3944261,-0.5641761,-0.1434578,-0.6684303,-0.2170378,-0.1313776,0.9577343,0.1824123,0.1962403,-0.936739,0.004009366,0.4516658,-0.1274453,-0.8519073,0.4206004,-0.7630792,0.1421624,0.7650678,-0.7047365,0.3613825,-0.2553731,-0.0474478,-0.3839012,0.9312329,0.4233746],[-0.3043102,0.9522638,-0.4947101,0.6066346,0.5191257,-0.7938473,-0.762022,-0.8224001,0.9846139,0.484189,-0.2771043,-0.170128,0.347625,0.06218493,0.9515169,-0.8781307,-0.5913618,-0.03957522,-0.3606809,0.9598184,-0.1499788,0.372225,-0.4451815,-0.4970258,-0.9974995,-0.7894924,0.4292404,-0.6839805,-0.5927927,-0.03773534,-0.5840697,0.6663165,-0.55983,0.1916391,0.5541217,0.1236573,0.1704606,-0.625916,0.8442478,-0.5705633,0.148816,0.5007601,0.34515,-0.967469,-0.4386312,-0.8057854,0.764684,0.8854477,0.1748673,-0.5515716,-0.08430159,-0.3989614,-0.01235616,0.8507025,-0.1798176,0.4658363,-0.3349711,-0.2449459,-0.1320657,-0.8123972,0.5378904,0.1866447,0.7707222,-0.4268194,-0.0458256,-0.3783959,-0.2909054,0.5468655,-0.5814009,-0.07674682,0.7215261,0.5762334,-0.1353749,0.6548748,0.5325632,0.00181973,-0.7592285,0.02481401,-0.2066697,0.9991419,0.6037002,0.3853373,-0.3500193,-0.006039739,-0.03994238,0.6350121,-0.3505319,-0.842278,-0.4303616,-0.5884242,0.65434,-0.6435261,0.1877321,-0.2112182,0.01293266,-0.8778601,-0.8609989,-0.7225919,-0.1583625,-0.3326665,-0.05674803,-0.3453859,-0.485556,-0.5712931,0.6491129,0.8666301,-0.1969608,-0.1320516,0.2295603,-0.2744025,-0.08727443,-0.3515559,-0.3575484,0.6137886,0.1962067,0.9444342,0.5292578,-0.8078539,0.5363889,0.4302275,-0.007299304,-0.8620713,-0.1364535,0.266005,-0.8558302,0.4206302,-0.829164,0.5983953,0.3516881,0.5341194,0.6392932,0.7637122,0.1152109,-0.07132733,0.09166348,-0.3588201,0.117668,0.3179533,-0.5050144,0.5216968,-0.3998944,0.1634377,0.8513815,-0.371519],[0.7055082,-0.1062204,-0.08522928,-0.733743,-0.9188285,0.7622018,0.116814,0.04599178,0.7204103,0.9042206,0.08067501,0.3383157,0.9610548,-0.8723617,-0.3477415,-0.0654124,0.6171482,0.1926538,0.2105204,0.176139,-0.4625264,-0.5887451,-0.5472624,0.839793,0.1548103,0.5645423,-0.4118251,0.9971235,0.7563171,0.2986018,-0.9465115,-0.255134,0.1481858,-0.9673023,0.1687204,-0.4992582,-0.1331903,-0.3743931,0.2403411,-0.789001,0.2175356,0.1333324,-0.5577974,-0.5738537,-0.7767999,0.8110285,0.1052121,-0.8506122,-0.3161513,-0.7436478,-0.6795049,0.9918344,-0.7052462,-0.758745,0.9075861,0.554388,-0.4115013,-0.2177304,-0.3788615,-0.4965447]],[[0.1136056,-0.1701485,-0.6285245,-0.01743853,0.5043709,0.9199054,0.8851771,-0.85607,0.2236813,0.1840097,-0.2453734,0.7410767,0.5113387,0.8221686,-0.5965235,-0.9092269,-0.7595994,0.565268,0.696394,0.6324408,0.9266095,0.1662267,0.3267417,0.3033929,0.8155406,-0.4079,-0.1461982,-0.4600996,0.05139744,0.3219673,0.0879873,-0.1133925,-0.8087924,-0.8083386,0.0397197,0.3522722,0.5178163,-0.5368598,-0.3496863,0.994035,-0.0004364252,-0.8463473,0.499176,-0.1583802,-0.6559713,0.327672,0.05821884,0.8035643,0.6300309,-0.4029337,-0.6754198,0.4911606,-0.9890103,-0.536613,-0.8807528,-0.8586781,0.4292812,-0.6871717,0.9509437,-0.7297397,0.4693646,0.362473,0.4284789,0.3187961,-0.008931756,0.5642669,-0.1823827,-0.828793,-0.1467084,-0.5859234,0.8715792,-0.1797863,-0.8122425,-0.1752325,0.7864077,0.1171604,-0.1316992,0.9432416,-0.3708388,0.171394,0.7455921,-0.8916678,0.1301681,0.1455737,-0.09316576,0.1067063,-0.6856115,0.6432385,-0.5650291,-0.7369447,-0.1612157,-0.6061311,-0.1518277,-0.02985227,-0.4319657,-0.1031045,-0.5864449,-0.2364377,0.6655016,-0.850898,-0.753902,-0.5955892,0.5183198,0.6007035,-0.4499422,-0.6229761,0.4489307,-0.7140222,0.3726489,0.8303204,-0.4978918,0.4087379,-0.2703215,-0.8631737,-0.8195159,0.8001218,0.7075651,-0.06134069,-0.4133514,-0.4298798,-0.8061914,0.9173448,0.655694,-0.6788473,0.4554889,-0.5330379,-0.3941964,0.7046793,-0.8968277,-0.5025806,-0.001772523,0.4281947],[-0.7005243,0.6111119,-0.4145926,0.2209011,0.4167001,0.6570327,-0.1104852,0.8277061,-0.5643067,0.1707069,-0.57551,0.4128246,-0.09111035,-0.3195268,0.2848816,-0.6342111,0.4418792,-0.8453808,0.5268371,-0.1383651,-0.2735425,0.01384938,0.7897079,-0.02156627,-0.9520929,-0.7970076,-0.7527976,0.2930057,0.211496,-0.6933134,-0.7862825,-0.4075392,-0.02677619,0.9049048,-0.08970726,0.3482606,0.9768407,0.9370544,0.4529278,-0.1327993,-0.9191599,0.1868633,-0.1629239,0.7190576,-0.6213601,0.6508398,0.6363251,-0.0281862,0.1615187,-0.2032031,-0.687356,-0.5450342,0.2688927,0.1923643,-0.4118685,0.1335789,0.5240033,-0.1576799,0.1710364,0.1832005,0.2767024,0.361613,0.08745372,-0.2601892,0.3972201,0.5767479,0.8711443,-0.07625473,-0.6758697,-0.779326,0.05855072,0.9424512,-0.8921096,-0.7787049,-0.5549371,0.2055556,-0.5606198,-0.8527431,-0.4136456,-0.6431956,0.490118,0.7044525,-0.3651944,-0.5415835,0.2669048,-0.02744091,0.1109294,-0.609395,-0.6150086,0.8296018,0.0650326,-0.6821017,0.2643737,0.6295404,0.4849202,-0.9050007,0.6180964,0.9985642,0.101755,-0.9298468,-0.6577134,0.1401049,-0.5607357,-0.872031,-0.3176008,-0.3842844,-0.7616947,-0.8232656,-0.4946095,0.041067,-0.393767,-0.7498801,-0.8634026,0.4277942,0.08339107,0.7731531,-0.536386,0.4508755,-0.5656087,-0.8327312,-0.9832461,0.4206524,0.9971466,-0.1544772,0.3593292,-0.497229,0.4214449,-0.4770085,0.4745586,-0.9992073,0.2953171,-0.9845722,-0.1203099,-0.3854946,0.6025112,-0.9034843,-0.928256,0.4960808,-0.1331481,-0.332692,-0.2853323,-0.226791,0.4290454,0.2296408],[-0.5448549,-0.9448376,0.6217234,-0.6509252,-0.4108516,-0.9010603,-0.5750556,-0.05129445,-0.8004036,-0.7090349,0.6313748,-0.2584296,0.6174564,-0.07684338,-0.9405599,0.7451496,0.8323419,0.5724862,0.2727253,0.7047975,0.7210312,0.1574465,-0.693202,-0.06762016,-0.3961414,0.3239681,-0.7391474,0.3545749,0.7643387,0.5534351,-0.9034064,-0.8106587,0.5578642,-0.638088,0.8883224,-0.5094452,0.8103952,0.7454517,0.5141544,0.3706879,-0.984508,-0.3694433,0.06649411,0.2911052,0.08200204,0.5902662,-0.3554608,0.2358583,-0.8012006,0.8109062,-0.7265277,0.4366443,-0.03016508,-0.6694067,-0.270285,0.005737185,0.08989513,-0.8644769,0.2903621,0.4000964]],[[-0.2221607,-0.003478169,0.5327842,0.44721,-0.6975374,-0.6625278,0.3223486,-0.09878933,0.9975569,-0.544589,-0.5306048,-0.2413148,-0.1432337,0.7413642,-0.7698174,0.7350628,-0.4251648,-0.3309416,-0.2703735,0.5807416,0.5989759,-0.235844,-0.7737374,-0.5305281,-0.5716984,-0.5475221,-0.1261026,-0.3429905,0.04573286,0.8765616,-0.8621085,0.423589,-0.6405973,-0.538554,-0.5473144,-0.1889836,-0.1351804,-0.7159386,-0.3454989,-0.3421849,0.6956167,0.6224289,-0.9557459,-0.4754664,-0.467487,-0.7356148,-0.0004521608,0.163783,0.04681599,0.6996758,-0.8438451,0.7713165,0.6448178,-0.7707214,0.7997365,0.009636521,0.07851803,0.6534777,0.007465005,0.8178442,0.9479756,0.4941027,0.7988226,-0.00785625,-0.4461187,0.957094,0.2737908,0.3035173,0.9433992,-0.6105897,-0.2457901,-0.9683955,-0.5275388,-0.1486417,0.5528307,-0.6133895,-0.194436,-0.4839367,0.5786076,-0.2732257,0.1120511,-0.4634937,-0.778384,-0.1897486,0.1208483,0.7197337,-0.09427917,-0.5852644,-0.9074512,-0.5870018,0.9004269,-0.8550274,-0.4943649,-0.783833,0.2051905,0.8364367,-0.09997857,-0.1233844,0.5040643,-0.9604759,0.1950353,-0.2144257,-0.8311739,-0.1181227,0.68962,0.2367073,-0.5863814,-0.7302983,-0.01119244,-0.3484002,-0.5657809,-0.5270591,0.001743674,-0.7905784,0.04735219,0.2910158,-0.827322,0.305459,-0.1649207,0.4315877,-0.1682338,-0.3825687,-0.6666193,0.8191147,-0.391112,-0.6619084,-0.4198445,0.6982758,0.9315615,-0.6798794,0.1616429,0.006159186],[0.5686579,-0.4502279,-0.5275271,0.9996831,-0.2367913,0.6803725,0.1901115,-0.1934501,0.5537519,-0.3271209,-0.3672956,0.4635615,-0.289554,-0.3394557,0.4710345,0.5857427,0.3524744,0.89131,-0.1607093,0.5651827,-0.3586105,-0.2674276,0.3647051,0.1524426,-0.4261411,-0.4724683,0.04545486,0.3753004,-0.1156293,-0.902195,-0.7204218,0.8488996,-0.8427083,0.6069236,-0.8832955,-0.4680034,-0.06950366,0.6203296,0.9554291,-0.1063861,-0.1182619,0.7720444,-0.5315726,-0.1222049,-0.2073382,-0.1556443,-0.5923672,-0.5353885,-0.05171478,-0.6213567,0.7306166,-0.3890725,0.6199629,-0.4554516,-0.2228652,0.1356727,-0.2918607,-0.9619853,0.5082946,-0.1722955,-0.4347876,0.1177217,-0.2589861,-0.2883638,-0.02454841,0.5295041,-0.9002194,-0.1392668,0.6764262,-0.0007520914,-0.6891973,0.6077659,0.1179322,0.7613552,-0.8128667,0.2697296,0.8041778,0.9245255,-0.9312928,-0.2029799,-0.6323102,-0.1265885,0.4955651,0.915766,0.6174269,-0.1307858,-0.5958624,0.4328737,0.6111183,0.3144955,-0.6993663,-0.3603746,0.1721398,0.7254262,0.6334105,0.4186883,-0.3430501,0.6477666,0.117474,-0.006575465,-0.2832831,0.2875096,0.775131,-0.7318137,0.08954155,0.7000761,0.2747624,0.6067238,-0.0936805,0.5547483,-0.4720105,-0.7792616,0.8595679,0.2514305,0.1572372,-0.03714216,-0.2865645,0.05821979,-0.2183198,-0.7580214,0.521183,-0.5374312,0.279592,0.6928866,0.856653,-0.8385623,0.7029116,0.6266639,0.3750796,0.8769004,0.4056298,0.2396973,0.5773416,-0.7267382,-0.1747376,-0.9777708,-0.5679891,0.4576912,-0.4779998,0.7389662,0.427032,0.123294,-0.6876259,0.2010475],[0.5396562,-0.4697012,0.7499516,0.7212615,0.1227435,0.4417579,-0.2260996,0.01794064,0.005350947,0.1560868,-0.3302022,0.8843653,-0.3054475,-0.7465343,-0.0464555,0.1278778,-0.2485372,0.308294,0.7008541,-0.8921754,0.4277208,-0.3390752,-0.414992,-0.3687245,-0.7870345,-0.2261888,-0.3047782,0.4313047,-0.610914,0.2124473,-0.747206,0.1760842,0.6605148,-0.7154768,0.8164575,-0.8629463,0.4328408,0.0027107,-0.03664768,0.5811694,0.3210435,0.8802056,-0.6643281,-0.3014101,-0.7742515,-0.560091,-0.7232625,0.1265038,-0.1767565,-0.3995792,-0.5629256,-0.5080376,-0.4867531,0.07377732,0.2367967,0.11137,-0.299734,-0.3943466,0.3891353,-0.4459504]],[[-0.8570635,-0.4171652,-0.7848916,-0.7103407,0.2967722,0.7616031,0.5621037,-0.880868,0.9344344,0.4328675,0.7955222,-0.6408656,-0.4992117,0.4237816,-0.3131055,-0.3040968,-0.7802064,-0.7224474,0.9466658,-0.4833528,0.6698143,0.7265038,-0.2203506,0.3702967,-0.538769,0.7683692,0.9199677,0.4769721,-0.9798675,0.6933281,-0.4656101,-0.00125277,-0.5518508,0.8208308,0.7516859,-0.2298399,-0.7914143,0.3597536,-0.7604573,-0.1309427,-0.6053882,-0.3649303,0.5472219,0.4659638,-0.3122238,-0.5938103,0.2712166,-0.7176967,0.9084449,0.7221093,0.3367665,0.7040241,-0.8516393,-0.8226552,-0.7913892,0.2205018,0.1859621,-0.2402638,0.02519739,-0.6139228,0.02923071,0.229591,-0.7242239,0.5285199,0.9360609,-0.2901963,-0.5788419,-0.156608,-0.4229335,0.6755779,0.7949405,-0.5711069,0.6015775,-0.1888,0.8682461,-0.7718163,0.4935782,0.9931502,0.3026552,0.578191,0.4714741,0.1808013,0.2329227,0.4713516,-0.6920991,-0.8967576,0.2232927,0.8767316,0.6352284,0.7858591,-0.2674586,0.9312949,0.05158579,-0.6449277,0.6293433,0.9190497,0.02027476,0.4804501,0.5376899,0.3746924,0.8898342,0.7336133,0.9720969,-0.266538,0.6522107,-0.1011285,0.676672,-0.9723115,0.3731856,-0.4280349,0.0929569,-0.7623947,0.1978198,0.4973552,-0.6183443,-0.5934045,-0.2801589,-0.7362947,-0.9524937,0.7340727,-0.9163208,0.6293173,-0.05787957,-0.08055604,0.01356518,-0.3197225,0.4009916,-0.1678392,0.6130373,-0.7950497,-0.679909,0.2488517],[0.09027803,0.8657246,-0.6796634,-0.9192023,-0.6968348,-0.834729,-0.0989784,0.9389782,-0.7384531,-0.4631356,0.2924509,0.1194023,-0.1794442,0.7870929,-0.07006848,0.8996494,0.6058497,0.2625665,-0.4287924,-0.4269484,0.4189341,0.0807482,0.09756505,-0.2216486,0.9255898,0.3885967,-0.7291071,0.3154509,-0.9855907,0.1430837,-0.08998692,0.610939,0.5496955,-0.4168438,0.8607254,-0.06579006,-0.816148,0.5282407,0.7100859,0.1972131,-0.7697463,0.9838247,0.1516806,0.7974951,0.6254559,-0.2283839,-0.2310032,-0.3542601,0.7297878,-0.9814703,-0.4237801,0.1236106,0.7530806,0.0278362,-0.3078882,-0.4709033,-0.9864957,-0.99877,0.2861054,0.4225745,-0.1464163,-0.6303046,-0.8565862,-0.02945673,0.4599509,0.3622818,-0.4544433,0.6277356,-0.7061784,0.6132596,0.8682718,0.2755356,-0.8384824,0.1149758,-0.7933793,0.5647521,-0.7619996,0.9215357,-0.2322866,-0.5560076,-0.2939819,-0.438805,0.8487628,0.1407672,-0.9710877,-0.1070899,0.1421286,-0.774713,-0.8916478,0.3804733,-0.7682014,-0.4113814,-0.3784219,0.85113,0.9418144,-0.8299654,0.7622871,0.6608315,0.8072751,-0.5227401,0.9776211,0.6412935,0.8006725,-0.8045807,-0.6121464,0.4910159,0.2493516,-0.6175883,-0.9461629,0.6528854,0.1369706,-0.1316222,0.1236712,-0.7816215,0.1926633,-0.5941761,-0.7285573,0.8855915,-0.5177376,-0.713836,0.9986918,-0.8516974,-0.439977,0.3061683,0.8401237,0.1408032,-0.9983578,-0.436587,0.9946594,-0.6450868,0.7455754,-0.8772068,0.3697207,0.5789218,0.05277836,-0.6378622,0.7276595,-0.8752875,0.5548759,-0.695719,0.2540464,-0.9973586,0.8655508,-0.3602024],[0.3694541,-0.0241214,0.5801508,-0.4688529,0.6203778,-0.09239757,0.2005371,0.4446931,0.2529921,-0.07908475,-0.6388087,0.7243052,-0.6560771,-0.1021408,0.8376756,-0.1336859,-0.4796222,0.3449015,0.6383929,-0.6084771,-0.07841837,0.348356,-0.6286457,0.1889592,0.6797421,0.6793032,-0.2862319,0.06315935,0.1614891,-0.9278808,0.874959,-0.5151165,-0.7264667,-0.7938309,0.04302275,0.510649,-0.5508804,0.7273612,0.5951266,0.3269388,-0.5665009,0.4469242,0.09628499,-0.8601429,0.06573308,-0.6315684,0.4434373,-0.9009147,0.7319112,-0.7362068,-0.7035449,0.5521259,-0.1910051,-0.6818259,-0.2170113,0.4475758,0.5229142,-0.2985486,-0.7835603,0.01892507]],[[0.3449964,0.9880373,0.43753,0.5346379,-0.2964026,0.00358665,0.8054986,-0.1737407,0.9687877,-0.3573254,-0.9931159,-0.2838167,0.1307424,-0.8368878,-0.7226558,0.7735941,-0.6129699,-0.1504401,0.008381724,-0.4537586,-0.7688518,-0.7761281,-0.5804751,-0.5194778,-0.02542937,-0.6987274,0.0733887,0.7725663,0.66487,-0.2112662,0.3697836,-0.5637081,-0.3637718,-0.2138492,0.2678892,-0.6086874,-0.6554067,-0.669863,-0.4258348,0.4500398,0.9881201,-0.5604715,0.838032,-0.7598269,-0.6996176,0.6003189,-0.6217675,0.5607634,0.2843759,0.1737269,-0.06022751,0.357913,0.7457895,0.2217466,-0.2051314,-0.7664618,-0.3129586,0.6769619,-0.3625673,0.8667166,0.6023765,0.7049339,0.8539014,-0.6931171,-0.1010519,-0.100345,0.2255586,-0.8505611,0.227681,0.3159935,0.3528852,-0.6122975,-0.9285996,-0.2444645,0.1166016,0.5823612,0.8727319,-0.9158411,0.3016004,-0.680192,-0.238959,-0.426885,-0.8666861,-0.9103866,-0.6683378,0.9766672,0.5451035,-0.5169477,0.4879679,0.1626488,0.7458105,-0.8176806,-0.0007728338,0.04221928,0.8896065,-0.2985736,-0.7327929,0.2147185,-0.73141,0.579252,-0.1693324,0.988035,-0.1143507,0.0771786,-0.09508121,-0.4241644,-0.05640161,0.009915471,0.9717793,-0.820334,-0.05539477,-0.4025537,-0.01717269,-0.8162506,0.9367979,0.2184404,-0.512615,-0.1937517,-0.142675,-0.1675893,0.850208,-0.8511629,-0.06465781,0.2139503,0.125604,-0.1349941,0.2324566,0.7415092,-0.5256014,-0.9093063,0.6781397,0.7162552],[-0.3971354,0.7466352,0.05362928,-0.5138917,0.7766597,0.3076605,0.8928738,0.8107886,0.08358443,0.6485751,-0.9318998,0.9131415,-0.2074252,-0.6988316,0.2384413,0.3605218,0.1970555,0.46331,0.25564,0.5131021,-0.9903755,-0.591408,0.5220397,-0.8493986,-0.6988986,0.6364584,-0.9896584,-0.3641165,-0.8715363,-0.3222469,0.8680739,-0.4906849,-0.5323703,0.1763495,0.1161009,0.905364,0.1843804,0.03785026,-0.7164726,-0.3679563,-0.5146976,0.544888,0.5057602,0.8084662,-0.6594324,-0.05404675,-0.2466415,-0.7834277,0.323411,0.3068781,0.1277961,0.9148903,-0.04705083,-0.4363922,-0.5945208,0.4463887,0.6925886,-0.2693366,-0.2771629,-0.9373064,0.675802,-0.3954126,0.5371344,-0.3264474,0.8367331,0.9682255,0.5807705,0.8067961,0.1785144,0.1552318,-0.7841046,0.05087578,-0.4276809,-0.7818973,0.1481098,-0.5694003,0.2590921,0.2252816,-0.7798734,-0.1798886,-0.4112912,-0.5894308,0.3448355,0.8140597,-0.4799103,0.001691699,0.02366292,0.05962431,-0.4943651,0.781179,-0.1759971,0.02626932,-0.418887,0.08530915,0.09612691,-0.1015173,0.3228669,-0.6558673,-0.9395297,0.6797671,-0.9465754,0.6630144,-0.5668907,0.6820071,-0.6488748,-0.3269676,0.3812248,-0.08438718,-0.6011105,-0.5536289,0.5300574,-0.1839176,0.4036636,-0.7254653,-0.2988628,0.8839874,-0.619971,-0.7564368,-0.9304092,-0.2666248,0.9622812,-0.3441869,0.50583,0.01574671,-0.04980552,-0.2580577,0.7194831,-0.9269621,-0.04228127,0.3445081,-0.6712971,0.1310383,-0.3925894,0.4320633,-0.6220548,-0.7900941,0.5607531,-0.581764,-0.6810579,-0.6695464,0.4334836,-0.8614006,0.423295,-0.8337388],[-0.6367323,-0.2647446,-0.5394435,-0.54951,-0.9181595,-0.2799021,0.1676437,0.5305755,-0.2865626,-0.2021912,-0.01872742,-0.4690558,0.4706106,0.8694165,-0.0552398,0.844806,-0.7823353,-0.418507,-0.6287041,-0.04149425,-0.523026,0.5045595,-0.4824458,-0.6879253,-0.1299006,-0.5965374,-0.5965583,0.09674656,-0.4141566,0.7358842,0.581583,0.195989,0.2282163,-0.4612237,-0.8539402,-0.05482972,0.2367765,0.8090236,-0.4294068,0.6866009,0.9991117,0.8546956,-0.6185665,0.7863069,0.1927205,0.5425878,0.6841307,-0.7622981,0.340033,0.8570073,0.08513415,0.1236643,0.4725496,-0.4628407,-0.2274536,0.179495,-0.7424526,0.5427487,0.349024,0.1293873]],[[-0.8202336,-0.09754074,0.6533055,-0.469335,0.4951276,-0.5396724,0.197857,0.6099899,-0.7941527,0.849684,0.6448767,-0.423345,0.2882118,-0.01953614,-0.7666421,0.8484225,0.938931,-0.9885509,-0.006970525,0.00386107,0.757699,-0.9507532,0.2451376,0.8781755,-0.9802372,0.8944871,-0.9933999,0.4638993,0.814719,0.2450472,0.6363726,-0.5472186,-0.5417278,-0.6314876,0.5018239,0.6997166,0.1812907,-0.8115802,-0.7641258,-0.8314397,-0.6032884,-0.4062194,-0.2068874,-0.3077062,0.6006229,-0.08137476,-0.5327454,0.7455409,-0.1187514,0.9197016,0.1735755,-0.06403625,-0.693542,-0.7147217,-0.9815974,-0.4077512,-0.6324627,0.1694709,0.5799975,-0.1512531,-0.5751169,-0.1316887,-0.1031867,0.1405059,0.6892707,-0.0782367,-0.2019678,0.3391626,-0.5367002,0.4976725,-0.4011043,0.5583458,0.7751405,0.009941936,0.8368814,0.5231638,0.1933607,-0.2341341,-0.7865386,-0.7904024,-0.633528,-0.2689239,-0.3531526,-0.7631364,0.1135625,-0.9776139,0.4533593,-0.8784628,0.1513339,-0.9206309,0.07726681,-0.02056968,-0.6621802,0.8234112,0.8290322,0.5560741,-0.503453,-0.310486,-0.1044809,-0.7085214,-0.1535183,0.309534,-0.6207168,0.6235716,0.03915179,0.9744477,0.6999176,0.3871176,0.3785639,0.8617029,0.3164606,-0.5672264,0.9535995,-0.6641617,0.6241262,-0.6584265,0.8007414,0.4558181,0.1682998,-0.3069073,-0.3963155,-0.487996,-0.1166557,-0.6681089,-0.2888471,-0.3632857,0.7260137,-0.5541911,0.6577976,0.2975337,0.6043611,0.08462346],[0.6268399,0.0994755,-0.317784,-0.1240202,0.03430355,0.2538213,-0.99896,-0.7455273,0.3757593,0.199242,0.08601487,-0.1819891,0.9521847,0.3498819,-0.132481,0.4132728,-0.5033808,0.6087558,0.3594501,0.4492769,0.4796591,-0.8316936,0.661325,-0.6124258,-0.2428967,0.1689905,0.4895472,0.6925573,-0.9664202,-0.1051067,0.9536896,0.9133546,-0.09352386,0.7605438,-0.9307728,0.4294657,-0.8364396,0.5033865,-0.7986856,0.2940736,0.995172,-0.7496202,0.08391774,0.4079182,-0.7892368,0.1572963,0.9865067,0.4847936,-0.7629149,-0.4168004,-0.8284929,-0.9166007,-0.08335149,0.7497048,0.89923,-0.8873332,-0.826684,-0.584053,0.05153549,-0.7308908,0.3969023,0.5091503,-0.5588994,0.7731376,-0.6295428,0.1597539,-0.316604,0.8491075,-0.9009876,-0.2153286,0.6929898,-0.297563,0.3871438,0.9984848,0.6486943,0.3778193,0.714309,-0.5323875,0.5788751,0.1494666,0.7192445,0.4755621,0.6436565,0.8684838,0.1237136,-0.001152158,-0.8143759,-0.4798824,0.3798177,0.9470694,0.9805961,-0.2236234,-0.5364022,0.2729242,0.8898404,0.3556947,0.6573992,0.1589833,0.7111669,-0.7574418,0.02931893,-0.6997855,0.5834601,0.6083562,0.3859048,0.67258,-0.644449,-0.8629539,0.1321737,0.9101148,-0.2707192,-0.1457263,0.5139828,0.09060538,0.1088964,-0.4944667,0.4273991,0.04613769,-0.3383473,-0.1446408,-0.07178724,-0.6480775,-0.4681741,-0.2294029,-0.8119645,-0.7172768,-0.4604243,-0.7616854,-0.9899969,0.02989972,0.7477531,0.2872376,0.02991951,0.4233985,0.1187872,0.8183923,-0.920963,-0.07601082,0.02459443,-0.1980222,-0.3555611,-0.05185139,0.6304479,0.279721],[-0.4001967,0.3075294,0.7244918,0.2001296,-0.3914708,7.593632E-05,0.7477756,-0.1668345,0.6127326,-0.03790128,0.2830527,-0.5896087,0.4172353,-0.4024271,0.5213406,-0.1285957,-0.1104604,-0.5527775,-0.4064583,0.6417406,0.00805223,-0.7089391,-0.5980718,-0.5558279,-0.7297623,0.773741,0.06955373,-0.8753066,0.06890047,0.7104375,-0.9878545,0.1899933,0.01061881,-0.3291253,0.9453027,0.6880093,-0.1979879,0.9695609,-0.2068001,0.1840476,-0.9246867,-0.06226027,-0.677109,0.9919384,0.1614276,-0.0386399,0.7110372,-0.5385146,-0.1547664,-0.7194698,0.1489774,0.9224064,0.9391658,-0.2818233,-0.1144654,0.511003,0.6852646,-0.2200125,-0.5177927,-0.8591878]],[[-0.1134373,0.1365534,-0.9438334,-0.6832213,-0.7079556,-0.04069293,-0.9176872,0.1241966,0.3685596,-0.1383926,0.4179544,-0.1775104,0.6255815,-0.2240211,0.9880731,0.8040693,-0.258314,-0.308935,0.3546221,-0.2826484,-0.9555485,-0.3927501,-0.7556345,0.8843477,0.7088256,-0.8026209,-0.6658139,-0.9315596,0.3914041,-0.4788393,-0.7219019,-0.8731318,-0.7473762,0.9316256,-0.3071269,-0.2837924,0.7705665,-0.284526,-0.9586484,-0.2549151,-0.6842902,-0.5777695,0.9543905,-0.07587326,-0.8739016,-0.130808,-0.5353658,0.2598929,-0.5507627,-0.72774,0.8537421,-0.7201645,-0.9880543,-0.3364452,-0.006305099,-0.8242567,0.7996743,-0.8331423,0.2471925,0.09568989,-0.8851075,-0.5392265,-0.3612388,0.2115639,-0.7078092,0.01853025,-0.9941823,-0.8156607,0.5852003,-0.8949323,0.1738166,0.4694984,0.1298672,-0.3542081,0.6648097,0.8628297,-0.04380763,0.661967,0.2914223,-0.5239303,0.5312088,0.3575551,0.8356144,-0.8468592,0.5573628,0.466958,0.4469685,-0.4330884,-0.4612781,0.4186787,0.08353031,0.6059818,0.3831381,0.5902548,-0.1108514,-0.6146793,0.2957508,0.6601441,-0.2241577,-0.07786024,-0.1568261,-0.00524199,-0.3406228,-0.444703,0.8371503,-0.9813671,-0.5880699,-0.9481733,0.919837,0.4630115,0.7597036,-0.6197066,-0.338298,0.3043315,0.1434389,0.4611265,-0.3728279,0.462415,0.4503548,-0.042081,-0.6567769,0.2391375,0.8067112,0.600934,0.192223,0.5783803,-0.5797474,-0.394447,-0.4658264,-0.601105,-0.2882963,-0.6963065],[0.3940839,0.2257479,-0.6358414,-0.7819431,-0.4986972,0.08689272,0.104082,-0.3693196,-0.08529699,-0.8736212,0.7579288,0.8359439,0.3612995,-0.02976906,-0.4325377,0.4047825,-0.4066333,-0.6944637,0.009508491,-0.02023184,0.9058163,0.3087067,0.9696081,-0.02949917,0.2493523,0.4164843,0.02104223,0.3356147,-0.01712644,-0.1751317,-0.6783972,0.4577462,0.03984344,-0.9130225,-0.07740486,-0.001788735,0.9228551,-0.8621566,0.5682175,0.563308,0.7892671,0.5738659,-0.7964027,0.1388193,-0.229647,-0.353248,-0.5985942,-0.417786,0.0762955,-0.6086352,0.3160996,-0.1380328,-0.9273498,-0.4659649,0.09871137,-0.7998762,0.736485,-0.5269511,-0.3665401,0.2896013,0.5595145,-0.2214357,0.9754314,-0.8437777,-0.2337855,0.3058047,0.07552016,0.6899869,-0.3505198,-0.8563385,-0.03042185,0.3262081,-0.4611419,-0.6442442,-0.6389644,-0.9921191,0.5479057,0.5435586,0.05840409,0.4897875,-0.6379426,-0.3666996,0.8857243,0.5876164,0.0848757,0.3679993,-0.460687,-0.9187024,0.081236,-0.563334,-0.4653023,-0.4949647,-0.5706544,0.7297571,-0.9048252,-0.1315283,0.204893,0.5288801,0.7765656,0.1942123,-0.462653,0.1378511,0.2100466,0.2496389,0.6189988,-0.1035079,-0.03290212,0.3394799,0.9736381,-0.7176979,-0.08516634,-0.1094414,-0.001139522,0.6800463,-0.7838583,0.7378383,0.3536222,-0.7043252,-0.02035844,-0.4176027,0.7395487,-0.2987548,0.4288258,0.5831604,0.3948812,-0.3903128,0.2225968,0.006099105,0.3987972,-0.7115765,-0.6822157,0.7665081,-0.5113261,-0.4645065,-0.9992812,-0.7475927,0.07416284,0.4024529,-0.9348485,-0.01314723,0.2425982,-0.3083295,-0.3260106,0.01080096],[0.5565925,-0.5235868,-0.2456483,-0.3190433,-0.2935649,0.4974239,-0.1813475,0.4163541,-0.807899,-0.4974147,0.3004327,0.2687843,-0.7556443,0.1678718,-0.90973,0.5102832,-0.4336346,0.3347838,-0.5861132,0.08968961,-0.681134,0.5692096,0.4691689,-0.08834922,-0.3826405,-0.3343672,0.4845435,0.302119,-0.211522,0.6842535,-0.288783,0.155825,-0.8441703,-0.899338,-0.9869633,-0.1563817,-0.9734054,-0.1685878,-0.6232932,0.49334,-0.8607664,0.1173373,-0.0487138,0.6349995,0.08155906,0.2939708,0.07017171,-0.3733536,-0.1691722,-0.9541504,0.4402544,-0.2880422,-0.8870313,0.4018829,0.1275681,0.1125723,-0.620316,0.4524576,-0.2129141,0.9932392]],[[0.745821,-0.805809,-0.3119205,-0.4500602,0.8594441,0.289186,-0.8273966,0.8864703,-0.9714172,-0.3102709,0.5863371,-0.9391751,-0.2818965,-0.3672935,-0.4307202,-0.3079993,0.8824584,0.2790565,0.06028593,-0.9605651,0.8796668,-0.432978,-0.8548663,-0.4586436,-0.4178983,0.01217473,0.2057861,0.2370528,0.2029341,-0.4126514,-0.9384406,-0.09853828,-0.8510039,0.3734381,-0.6295829,-0.5573077,0.8939784,-0.8689599,0.6280897,0.7156496,-0.5519259,-0.4463044,-0.2845267,0.08781922,0.6361585,-0.234584,0.2310926,0.2863991,-0.7078328,-0.5532503,-0.3498319,-0.1130942,0.06360543,-0.135866,-0.2836839,-0.1384548,0.1178516,0.7932463,0.8602939,0.3982224,0.709295,0.3769903,0.7858348,-0.5740602,-0.8535504,0.1863316,-0.8524487,0.8348081,-0.200724,-0.4736727,0.5011353,-0.2725216,0.7669456,0.3710434,-0.7499766,0.2777409,-0.2405559,0.687098,-0.9380758,-0.924917,-0.1802694,0.7403982,-0.621999,0.856499,-0.08543003,-0.359826,-0.3268021,-0.4343456,-0.8147571,0.1824702,0.7007945,0.8076534,-0.2808207,-0.3640612,-0.2288734,-0.4892355,-0.1967655,-0.6999524,-0.6478121,-0.1177217,0.467983,0.3369147,0.4795959,0.634918,-0.4621559,-0.05153835,-0.221532,-0.6960473,0.2894475,0.1927701,0.5924397,-0.2782646,-0.9191926,0.887202,-0.8027327,0.898289,0.6877043,-0.8693049,0.02757418,0.5581677,0.09428895,0.8487248,0.7965007,-0.3942696,-0.375193,-0.8076255,-0.5004294,0.6630342,0.2883012,0.3394093,0.1670483,0.05400765],[-0.2742904,0.3251471,0.2329282,-0.3749014,0.4837179,-0.9024303,0.8914285,-0.5819461,0.3361034,-0.2973343,-0.04475605,0.8255415,-0.2697946,-0.5720701,0.5984836,0.9540713,-0.9110403,0.8896115,-0.2226437,0.6839702,0.8650985,0.8134899,0.2305399,-0.6632366,0.9522128,0.55778,-0.7036452,-0.8941283,-0.4343849,-0.6852069,0.1192499,0.05469358,-0.8629789,-0.9792049,-0.5083139,-0.5470438,0.4794333,0.6701236,0.9596944,0.5402396,0.2709439,-0.903084,-0.8215423,0.176649,-0.7455993,-0.3894016,-0.5868776,0.7682908,-0.562567,-0.1924351,-0.9839811,-0.836215,-0.2910606,0.01645529,0.6959782,0.4697272,-0.6242537,0.5147958,0.9609089,0.7833247,0.9227455,0.6682038,0.05645835,-0.03587902,-0.7696486,-0.3068923,-0.1891125,0.6500993,0.804049,-0.4160701,0.3517632,-0.5002942,-0.8419385,-0.8548384,0.6540186,-0.2330362,-0.2871176,0.1436733,0.6914456,-0.04335487,-0.02939451,-0.2045711,-0.2831012,0.7396653,0.4012029,0.9893963,-0.8853574,-0.4582015,-0.4553405,-0.5344796,0.5359943,-0.05262601,0.6486185,-0.3013912,-0.6602392,0.9376009,0.418597,-0.1256806,0.3765227,-0.244413,0.2466794,-0.2191001,-0.2197894,-0.6083176,0.3371217,0.6183841,0.7412205,-0.2280103,-0.6006768,0.08115351,-0.9215779,0.5801542,-0.08015811,-0.9401705,0.9931533,0.478826,-0.7229941,-0.8245313,-0.7618613,-0.1201466,0.05559576,0.1624826,0.381181,-0.6428139,0.2420391,0.03170311,-0.3886179,-0.1161216,0.310086,0.9804738,-0.1818737,0.8886626,-0.9212852,-0.3425194,-0.7360246,0.5376616,0.4669389,-0.8641715,0.3938698,0.8308907,-0.1389161,0.2184614,-0.2659265,0.06630886],[0.08915436,-0.6642578,-0.2560223,0.861433,-0.534821,-0.4118949,-0.2458664,-0.240065,-0.4728669,-0.1304113,0.1658603,0.0194813,-0.9039457,-0.6452374,-0.6996837,0.9899805,-0.1044649,0.9249442,0.3168628,-0.04493463,-0.7188168,-0.8293097,-0.7019358,-0.4371232,0.1148208,-0.9001453,-0.6163604,0.3748827,-0.5550408,0.3918028,-0.2648011,-0.3162211,0.4433343,0.7077472,0.6548069,-0.5105793,0.9393938,0.8387833,-0.966773,-0.4351305,0.3290045,0.3401215,-0.1674258,0.4139178,0.9547756,-0.831018,-0.5646722,0.1731378,-0.1960412,0.3818257,-0.279616,-0.2504379,0.2091109,-0.3817807,-0.2680427,0.3494575,0.9987869,-0.2428797,-0.8464332,-0.2077438]],[[-0.7383013,0.3561768,0.7369437,0.08701742,-0.004002213,-0.4506437,0.3999414,-0.7453482,-0.5652139,0.1284662,0.77635,0.6585422,-0.5510776,0.1524056,0.8650737,-0.1587399,-0.225547,0.02352726,-0.3169709,0.005626321,0.7566669,-0.7590537,-0.9657981,-0.8718128,-0.007039666,-0.7658138,-0.6776249,0.4440238,0.8192301,-0.8867421,0.2467908,-0.2231795,0.7629685,0.2028736,-0.8291533,0.3234796,-0.5088208,-0.2099844,-0.536355,-0.3075789,0.8125341,0.3699374,0.5014536,0.8280592,0.1167899,0.1804608,0.3093612,-0.7983127,-0.9458234,0.9076905,-0.5236208,-0.3788334,-0.748723,0.04837787,0.4913587,-0.2647592,0.771318,-0.7153351,-0.05756199,0.4671476,0.532315,-0.6788776,0.5827522,0.7130241,-0.3773445,-0.6705768,-0.4050835,0.7135227,0.02648914,0.5489638,0.2654946,-0.8723562,-0.903095,-0.03587425,0.3912081,0.7576456,-0.4868773,0.5407896,0.3506081,0.462141,-0.581872,-0.8591902,0.1289514,0.3007202,0.556453,0.0195111,-0.4957501,-0.3712703,-0.06481326,-0.1476923,-0.2847232,-0.6809149,