[[[0.3407609,0.0009571314,-0.5197723,-0.6285343,0.7903569,0.02143395,0.4060619,-0.7768421,0.1209677,0.9631014,0.5425372,0.02945864,0.3847589,0.4583111,0.04271853,0.4082637,0.1809362,0.1640817,0.6491327,-0.9684534,0.6150367,0.2740159,-0.07454193,-0.2907876,-0.09953296,0.9760573,0.009154916,-0.4895786,0.7528183,-0.1992048,0.9258235,0.8897545,0.6278627,0.2508752,0.05782592,-0.2377182,-0.02692401,0.105837,-0.181471,0.9067991,-0.479267,-0.5675323,0.1690761,0.0008803606,0.06144345,-0.7379935,-0.6258726,-0.605716,-0.2126595,-0.380294,0.8821959,-0.2480856,0.3295018,0.9969106,0.3169026,-0.2506164,-0.5163393,0.1822311,-0.0004454851,-0.2076567,0.4299874,0.5601046,0.5746214,0.537401,-0.6125126,0.1206752,-0.3598429,0.9438987,0.04847944,-0.7651608,0.5351355,0.6850259,0.7656727,0.6783016,-0.1937581,0.3783245,0.1469051,0.8191667,-0.747786,-0.9803443,0.6468735,-0.6444719,0.8811529,0.07703745,0.5883563,-0.7228217,-0.945792,-0.190082,-0.5197668,0.330244,0.9647827,-0.8443336,-0.9670453,0.4102413,0.5946279,-0.4556245,-0.3372091,0.8249011,-0.08143914,-0.4375857,0.05837882,-0.879247,-0.2181858,0.7098031,0.3162589,0.2581029,-0.6794522,0.4786803,0.8908765,0.5853338,-0.5916443,-0.1044492,-0.3283733,-0.06154406,0.9797697,0.9594021,0.5078914,-0.03886044,-0.4666537,-0.7934222,-0.9286921,-0.1755494,-0.3273526,0.2718353,0.1643842,0.6338971,0.9985194,-0.08488286,-0.4797174,-0.4372116,0.6217597,0.07426775,-0.2232605,0.2419466,-0.5020177,-0.1542968,0.02871859,-0.7200546,0.560353,0.6846604,0.6463823,-0.430503,-0.4418491,-0.01159346,-0.06910121,0.8334737,0.2573888,-0.3845204,0.5469773,0.0484184,0.3990674,-0.04911482,0.7858012,-0.2016255,-0.3982688,-0.6508794,-0.2166935,-0.9162023,0.1243247,0.193766,0.7651978,0.6693659,-0.6681075,-0.7901058,-0.05847514,0.2321121,0.895658,0.7355108,-0.008725762,0.9731178,-0.01112163,-0.2273422,-0.6957951,-0.6707733,-0.9469011,0.1399947,0.9620178,0.6561122,-0.985492,-0.5143745,0.3820445,0.3966443,-0.04720199,-0.7863872,0.2468134,-0.7721729,0.2367021,-0.189329,-0.5013866,-0.7656212,0.7476656,-0.5647964],[0.07314813,0.9643772,0.7938986,0.5512221,0.951649,-0.66184,-0.5445549,-0.7271976,0.2551791,0.8986077,-0.8033113,0.4542751,0.2090734,-0.6664257,0.664854,-0.8994942,-0.9624722,0.6513095,0.6415875,0.3609736,0.1953946,-0.6199083,0.03758705,-0.1807503,0.7794454,-0.7064381,-0.7130697,0.7321389,-0.5124412,-0.3369485,0.03613508,-0.04898036,0.3210754,-0.6907058,-0.6863484,-0.00704205,0.6149838,0.6963537,0.3496573,-0.7064328,-0.5605879,0.3052635,0.1239763,0.5793731,-0.03439653,0.1984779,0.9410267,0.4600815,-0.5484631,-0.18935,0.8481464,-0.02784383,-0.9336681,-0.1420902,0.3549139,0.398246,0.9685152,-0.1100904,0.02223432,-0.6365304,-0.7488496,0.8411922,0.9578142,-0.973084,0.3419406,-0.6978879,0.5716736,0.4078335,-0.6648815,-0.6422474,-0.2999829,0.4040658,0.1727422,0.1175417,-0.7557538,0.804285,-0.8612106,0.8355665,-0.2804831,0.708997,-0.7975631,-0.3597816,0.9713538,0.7275517,0.2658846,-0.5671153,-0.2043751,-0.4026524,0.07499468,-0.7380755,0.4204535,0.291125,-0.7982719,-0.16,0.6876173,0.2065798,0.9056647,0.2954497,-0.1909994,0.1984352,-0.4019905,0.04862201,-0.06073844,-0.5353169,-0.6537251,0.670624,0.660609,-0.01581109,-0.5246229,0.6510992,-0.3916177,0.6135046,0.9682302,0.3622465,0.8666244,0.5476971,0.9763129,0.05707848,0.6522429,0.1098672,0.7518036,0.5106161,-0.3383743,-0.2521073,-0.5132957,0.3034167,0.9506044,0.2973728,-0.03399885,0.355551,0.1054746,-0.6103783,0.1271402,0.3733577,-0.8251872,0.1364583,0.05936205,0.4199953,0.1616243,0.9715986,0.8809228,-0.4094707,-0.01753485,-0.396551,0.3490133,0.1509396,0.4027476,0.8018398,0.6435232,-0.8914855,-0.4654342,-0.03541219,0.6230285,-0.1011106,-0.7229285,0.2513759,0.8009174,0.7105436,0.0836221,0.6866198,0.5000691,0.0788995,0.7557883,-0.8695359,0.135008,0.7031696,0.5702677,0.7556477,0.4050421,0.6220522,0.675277,-0.5495479,0.8236887,-0.593766,0.2171103,-0.2695452,-0.2925528,-0.605669,-0.7539837,0.646759,-0.6453774,0.955426,0.3474292,0.2171425,-0.9786916,0.2766339,0.6880076,-0.8393445,0.1719502,-0.6299708,0.790345,0.1075548,0.3966067,-0.2925287,-0.9593391,0.9421198,-0.04041421,-0.6321983,0.7703247,-0.08203566,-0.4549755,0.6195049,0.7508984,-0.9840269,-0.1921242,0.2342433,0.04323781,0.4349916,0.8143127,-0.1502243,0.4532215,0.1022969,0.67293,-0.7885931,0.1387182,0.2753813,0.3621819,0.7673683,-0.6533995,0.5678117,0.3066818,0.7237689,-0.1683706,-0.5154128,-0.7649722,0.7715142,0.7099702,-0.3019663,0.8436966,0.8534076,0.6513495,-0.5956578,0.5926635,0.8944049,0.9477291,0.1748546,0.5822763,-0.1778334,-0.7685068,-0.2785743,0.2452,0.5927687,-0.368816,0.8601263,-0.1606585,-0.6388073,-0.9305341,0.3208859,-0.8735421,-0.8249969,0.7238421,0.05303061,0.8336854,-0.8995087,0.158898,0.2171904],[-0.2133278,0.7305381,-0.7907598,0.4597864,-0.360973,-0.9477654,-0.8118644,-0.1678327,-0.6923087,-0.5024707,-0.3618046,-0.4379245,-0.9701982,0.1358212,-0.5703115,-0.05824029,-0.5736914,-0.5404391,0.5273521,0.5992372,0.7795148,-0.5658219,0.09249246,0.9334846,0.839838,-0.3016099,0.8118498,0.4606826,0.5058935,-0.2716075,-0.04007232,-0.4296309,-0.9081726,-0.8832757,0.3734107,-0.1293875,-0.06592262,-0.4191538,-0.6710591,0.6742837,-0.8656981,-0.9395866,0.9896557,0.3140254,-0.5240576,0.5363538,0.4908809,-0.5779023,-0.2735308,-0.4109403,0.07645833,0.4503584,-0.2235638,-0.6561975,-0.8110266,0.5205889,-0.3927001,0.7372513,0.2539124,-0.8843503,-0.2735692,0.2530055,0.5142026,-0.1756319,-0.3941151,-0.1505264,-0.05402982,0.7573755,0.1511232,0.8373313,-0.9557343,-0.4104592,0.9167955,0.1619581,-0.1453327,-0.161841,0.3937795,0.9371192,0.6876428,-0.3267008,-0.3434156,0.1301354,0.6493745,0.2293609,-0.1726207,0.5588052,-0.5074799,0.4892072,-0.05043113,-0.8395746,0.9598393,0.9738975,-0.5000563,-0.05006659,0.02540648,0.2665074,-0.8807864,0.06462181,-0.02610433,0.6998761,-0.6410186,-0.7810285,-0.215798,0.2031218,0.8625453,-0.8642304,-0.6583061,-0.1004771,0.7779837,0.1639313,0.4339699,0.6130402,-0.303635,-0.8124924,-0.6022718,-0.7949092,-0.7592134,-0.4142011,0.6976826,-0.4657356,-0.7038448,0.4075031,-0.04211581,-0.5107605,0.354717,-0.6642361,0.9639745,-0.02194273,0.524956,-0.3318142,-0.7184172,-0.5606966,-0.4106215,0.5178945,-0.3867291,-0.3254455,0.5617325,0.3113739,-0.0356878,0.535326,0.4007654,0.4533269,-0.4235841,0.913239,-0.4268445,0.1723009,0.6444895,0.01084936,-0.6329489,-0.09731734,0.7647254,0.735673,0.9790347,-0.43622,-0.9597797,-0.1584164,-0.6128635,-0.6467628,0.6069298,-0.5895269,0.6015501,-0.9032109,-0.6663637,-0.4111239,-0.7961936,-0.5795598,-0.6940889,0.9638913,-0.6524322,0.2564466,0.9020987,-0.4011365,-0.9000247,0.8355904,0.6362646,-0.1653422,-0.0896045,0.1952492,0.5630376,-0.9016061,0.8106618,0.8768198,-0.2846416,-0.4802612,0.1686281,-0.4238399,0.673358,0.9729092,-0.8919175,-0.2497774,-0.3362275,0.06003129,-0.9304154,0.5928562,-0.09206069,-0.7067645,0.1802725,-0.603672,-0.7370276,0.4897492,-0.7352514,-0.9711885,0.8272948,-0.347227,0.05575168,-0.5002317,-0.7915728,0.03574908,0.7720985,-0.8395276,0.3172402,-0.6214154,-0.6239886,0.103248,-0.6373525,-0.7106051,0.5956893,-0.5323753,-0.4684869,0.909133,0.235104,-0.2953142,0.09333885,-0.7726822,0.2905209,0.9520576,-0.6938076,-0.7813871,-0.01187408,0.324835,0.9194961,0.5291314,-0.9369023,-0.7951283,-0.0807122,-0.6747437,0.5754662,0.7856843,-0.4855179,-0.2930707,0.02889383,-0.6465368,0.7039287,0.950156,0.8153474,0.06176865,0.7839539,-0.9822655,-0.23901,-0.9210858,0.8870263,0.7105989,0.02727759,0.5741978,0.7571471,-0.379505],[-0.4611417,0.6244175,-0.9840922,0.9714365,0.2057134,-0.5447226,-0.1860069,-0.1381568,0.3792658,-0.3394755,0.6963398,-0.2839836,0.5927799,-0.4080545,-0.7081509,0.07644475,-0.03688872,0.2049657,-0.6939766,-0.9163184,-0.9510319,0.4340427,0.3514273,0.9554493,-0.7764747,-0.2710441,-0.8170354,0.8737159,0.002046466,0.4019952,0.07397306,-0.8005331,0.4776482,-0.8527837,-0.5452037,-0.6658452,0.7093961,0.7521749,0.2724461,0.2858767,0.5327208,0.09951246,0.2128335,0.940285,-0.84585,-0.98542,0.8088059,-0.6806228,0.9927783,0.8062103,-0.009477258,0.03068078,0.214096,0.4471922,-0.4971994,-0.3462993,0.380588,0.9945061,-0.01922715,-0.5897908,-0.7595892,0.9522047,0.05315125,0.5281768,0.9848502,-0.03390419,-0.3134381,0.7355165,-0.6548829,-0.6128855,0.7973332,-0.4379498,0.4512717,0.2030002,-0.4495229,0.1278816,-0.1476604,-0.9704468,-0.2499629,-0.5280907,-0.8714466,0.04594839,0.3998713,-0.6150758,0.8373718,-0.1057473,-0.3803793,-0.5020072,-0.1099449,0.480596,0.1719731,0.3714142,0.7723289,-0.4722205,0.4104087,-0.9122362,-0.4174129,-0.6010809,-0.3961738,0.3695728,-0.6192696,0.4813549,-0.7922566,-0.3013805,0.1265131,-0.4090236,0.7973571,-0.3548573,0.352689,-0.01553214,-0.5716784,-0.5012081,-0.3670636,0.9540772,-0.8777773,-0.7906282,-0.867908,0.9788234,0.6027088,0.8219748,0.5905354,0.1710206,-0.7696564,-0.3319975,-0.2720641,0.2379838,-0.9376354,-0.3283437,-0.2749561,-0.7451956,-0.5303099,0.9281859,0.928632,0.2797503,0.6673777,0.7999156,-0.2117797,-0.8038559,-0.9304695,-0.05141294,-0.5079234,0.4531419,0.8276811,0.2878542,-0.6639197,0.3045819,-0.9844055,0.2844431,-0.4682006,0.4204621,-0.9766631,-0.4729172,0.7160463,0.146515,0.8929279,-0.7395725,-0.249808,-0.2476338,0.633189,0.9322937,0.292123,-0.6147168,0.06570899,-0.4431332,0.5220037,-0.3783451,-0.06859648,-0.8022933,-0.1344343,0.7479508,-0.5486033,-0.2310623,0.8381062,0.04095376,0.3924617,-0.1472865,0.2405297,0.8785007,-0.669883,0.5208073,-0.9376378,-0.9578109,-0.7953515,-0.4510013,-0.07246125,0.7377861,-0.8613763,-0.8574445,0.3329985,0.6348612,0.5974054,0.3635022,0.4202091,-0.5826013,-0.8096092,-0.4012626,0.8027778,0.2606382,-0.2342538,-0.003449798,0.7403202,0.9019396,0.6560264,-0.7353053,-0.3390061,0.06823027,-0.01544654,0.6949956,0.5897391,-0.3071526,0.1883622,0.5022495,0.5276814,0.1636103,-0.8931334,0.1010548,-0.6833241,0.5553269,-0.002312779,-0.3337168,0.9619198,0.6709683,-0.287367,0.1428765,-0.9844661,0.1771013,-0.9447608,-0.5273204,0.5605381,0.8970234,-0.1971742,-0.2075776,0.3552878,-0.09680331,-0.9930422,-0.5994904,0.7186058,0.4175198,0.8781812,-0.5309649,-0.8920577,0.420768,0.8825138,0.8780277,0.479608,-0.2964762,-0.4367992,0.0008171797,0.2776148,0.2902116,0.3459642,-0.1553084,0.01888859,-0.9927258,-0.2571231,0.8070116],[-0.1759702,-0.2567064,0.4472708,0.6460812,0.3987155,0.9808972,-0.421455,0.402893,-0.5024829,0.01459253,-0.7035244,0.8255157,-0.465171,-0.8541217,-0.689476,0.0648402,0.9684701,0.03160608,-0.04461157,0.7401345,0.7077973,0.4383809,0.9471958,0.5568621,0.4380407,-0.7147315,0.1260659,-0.542825,0.6105397,-0.8680761,-0.09310901,0.08741796,0.8875718,-0.2232567,0.8727195,0.3164355,0.2477444,0.04185545,0.8562026,-0.7655892,0.6031897,0.2828819,0.6471026,-0.2603272,0.5489419,-0.3781124,-0.3355273,0.9085696]],[[-0.3776783,-0.2961987,0.9909563,-0.9931548,0.5830677,0.2042233,-0.9096832,0.3754637,-0.2817768,0.6135302,0.9253769,-0.8427944,-0.2484761,-0.882715,-0.9542427,0.4667589,0.993598,0.7070513,-0.924552,0.8386223,-0.4570843,0.28163,-0.4632214,-0.9816322,0.933991,-0.4378856,-0.1034919,-0.4735032,0.6047754,0.9183044,-0.8339968,0.1546286,0.126331,0.1629874,-0.4076654,-0.1712726,0.6969502,-0.3391985,0.2764587,0.1128477,0.5496838,0.1581744,-0.999779,0.150287,-0.2886139,0.7829618,0.1238228,0.2521903,-0.04806292,0.0109154,-0.8304474,-0.01282012,-0.9957101,-0.03845346,-0.3655185,0.9654627,0.3580811,-0.1192087,-0.2658764,0.1419417,0.04041541,0.7352929,-0.295303,-0.7512541,0.7004888,0.5789058,-0.06314051,-0.9624867,-0.3109466,-0.5656798,0.7926102,-0.5772519,-0.1802348,-0.2066237,0.6206098,0.6747577,-0.2338411,-0.6294067,0.2130531,-0.4402727,-0.3004917,0.6679494,0.7586117,-0.8368878,0.2078215,0.1335672,0.2761159,0.05714095,-0.9174912,0.993999,0.6522617,0.8834209,-0.8220971,0.3595996,-0.3033215,0.5939765,0.2808017,-0.5497713,-0.01022542,0.2738595,0.09171379,-0.1878279,-0.9702249,0.1606308,0.8396144,0.05835307,0.7853358,0.8871443,0.5331368,-0.2504538,-0.4084586,-0.2639357,-0.3861579,0.2553892,-0.8451049,0.1629232,0.1607558,-0.7067168,0.750282,0.3819751,-0.0753783,0.6468151,0.6214931,-0.05674064,-0.9417379,0.3571,-0.03746593,-0.8920684,-0.1317257,0.7197621,-0.0821656,0.6306798,-0.3342677,-0.2851263,-0.8472981,0.8902769,-0.6822636,0.7790861,0.2085022,-0.9254155,-0.4221612,0.1933869,0.05325043,0.09200299,-0.7949936,0.2148434,-0.1113251,-0.8317568,0.6990578,0.1449679,-0.1018931,-0.4069885,-0.122897,0.682914,0.6878667,0.7177694,-0.8631816,-0.175393,0.2277876,0.2283891,-0.01761997,0.4516208,-0.467182,-0.9797757,-0.2446929,0.3534889,0.4747152,0.9178238,0.992171,0.5259769,-0.4004928,0.9532993,-0.5287344,-0.7437134,0.201851,-0.1114792,-0.865757,-0.6518171,0.4013748,0.6418669,0.4239249,0.150633,0.8151288,-0.09072006,0.8892958,0.7231817,-0.8383782,-0.9858093,-0.6331737,0.8558569,-0.5037115,-0.7438896],[-0.5241702,0.3302419,-0.1344506,0.341784,-0.01016223,0.02796471,-0.6328337,-0.190648,0.7642071,-0.5882428,0.8652954,-0.84302,-0.1186799,0.3787131,0.7160184,-0.06821978,-0.3164972,-0.3656574,-0.8161359,0.07857025,0.6549132,0.4702804,0.6970913,-0.6216712,-0.02835166,0.4869289,-0.4439348,0.379188,0.5837524,0.8018456,0.9968917,-0.7253582,-0.6362572,0.4156694,-0.8851242,-0.4825002,-0.6735337,0.4059734,0.7252393,0.05622733,-0.1038946,0.4697072,0.4118008,0.9690816,-0.1023813,0.8311398,-0.7892728,-0.4716216,0.978817,0.9896553,0.4796126,-0.3004915,-0.3632244,0.231928,0.842289,0.2792792,-0.2759155,-0.7160275,0.3924069,-0.8771288,0.1901077,0.1586095,-0.295688,-0.7214446,0.4175083,-0.1379989,0.9622858,-0.06947529,0.5392218,-0.1884276,0.6500542,0.2799389,0.02886784,-0.3755029,-0.832041,-0.1565896,0.7261503,0.1328739,0.9826202,-0.5928702,-0.01994479,0.8355184,0.6336663,0.4803092,0.2602212,0.01521957,0.9768806,-0.5607791,-0.3440305,0.3096275,-0.02123773,-0.08813369,0.01532757,-0.04681575,0.4282663,-0.3786997,0.08159506,0.03546083,-0.33574,-0.4470254,0.8985059,0.05241191,-0.5153868,-0.1532651,0.4486565,0.3881647,0.1159059,-0.159767,0.309488,-0.8212137,0.1728252,0.06726682,0.35976,-0.6247945,-0.01975334,0.626214,0.008892417,-0.07953942,-0.08697426,0.1025227,-0.8550882,0.4497056,0.7418714,0.140642,-0.7415154,-0.6339073,-0.3964676,0.1772028,-0.8664274,-0.00755012,0.2145563,-0.4475037,0.03281844,-0.03981268,-0.7567816,-0.9787447,0.05230033,-0.1303209,0.3907032,0.5679209,0.5016387,0.5354943,0.2680199,-0.4329888,0.6198637,-0.03266728,-0.08073509,0.0341922,-0.9531841,0.09904301,-0.04846609,0.04188025,0.9211586,0.2670262,-0.3967241,-0.01942313,0.2094773,-0.8803523,-0.1645645,-0.6217091,-0.02730262,-0.3383247,-0.7097473,0.5210276,-0.8929396,0.09992611,-0.7422457,-0.1402029,-0.941962,-0.4035627,0.700346,0.8687673,-0.5118554,0.5533459,0.3113753,0.5839615,-0.9520411,0.9912634,0.07248223,0.5329924,0.8295031,-0.08188021,-0.7688928,0.7269592,0.677458,0.2247661,0.301671,-0.3282129,0.3165853,0.592581,-0.9903169,0.8416655,-0.3953825,0.2979686,-0.09617627,-0.05762994,-0.5057418,-0.7863765,0.7967253,-0.9183829,-0.3281392,-0.3960971,-0.4291102,0.9884799,0.9578371,-0.06050742,-0.8205602,0.9894955,-0.0528425,-0.8011878,-0.2015601,-0.8739803,0.3673191,-0.8159876,0.8931601,0.9237056,0.4512884,0.8822477,0.2444934,0.1217655,0.3469906,0.5777709,0.09457862,0.08220637,0.6670713,0.6233048,-0.4801015,-0.6137784,-0.05153716,0.6921942,-0.2082404,0.9763045,0.2589788,0.063851,-0.2436482,-0.07724988,-0.4835418,-0.03195918,-0.4851493,0.8134069,-0.3833901,-0.3741361,-0.8936105,-0.3436555,-0.6999872,-0.8316391,0.3479659,-0.5856509,-0.5627012,-0.4227706,-0.5888388,0.6558356,0.3955478,0.1175007,0.4365239,-0.2574822],[0.6981938,0.4337127,-0.0007153749,0.8073931,-0.3643337,0.26038,0.9911783,0.8481851,-0.4042112,0.06318629,0.723429,-0.4624683,0.9582841,0.5181913,-0.6373396,0.5240376,0.253879,0.6861749,-0.6668773,-0.3149389,0.8085258,0.6586077,0.5387368,0.9783175,-0.08218277,0.1527754,-0.9636214,0.8492043,-0.2876672,0.6048384,0.47618,-0.1730112,-0.3342758,-0.8873146,-0.2722358,0.1514848,0.8128839,-0.8769143,-0.9019377,0.8013585,-0.416509,0.7144248,-0.3129154,0.9636114,-0.3490878,0.2296377,-0.3721818,0.3091879,-0.870095,-0.622205,-0.06046355,0.3863926,0.03242838,0.6656456,0.4993062,-0.7504139,0.2477425,0.6262827,-0.1156567,-0.8451488,0.761487,0.5379078,0.7286575,-0.2551278,-0.5933206,0.7625554,0.8448901,0.814889,-0.2923516,0.9642239,-0.5042286,-0.2442511,-0.5144484,0.3172059,-0.6338944,0.03827226,0.934406,-0.09549463,-0.2060541,-0.09248984,-0.8715997,0.5975289,-0.2521247,0.4904699,-0.1366333,0.4867429,0.1901079,-0.2062138,-0.2962526,0.08616006,-0.7354178,0.20886,0.6364901,-0.3083829,-0.2496637,-0.9866772,0.7254763,-0.8961949,0.4409711,0.445141,-0.9997842,0.9049923,-0.3253683,-0.8910701,-0.4589118,-0.2850426,-0.5564935,0.4201109,0.7331061,-0.9223628,-0.05824888,0.8854136,0.8564577,-0.7037888,0.2751519,-0.774085,0.004137397,0.04711235,-0.9438958,0.4355967,-0.2472233,0.9279957,-0.4469341,-0.4633337,0.2308306,0.7088568,-0.04279864,0.3679516,0.6381936,0.2942445,-0.5946636,-0.7271681,-0.3788508,-0.4083687,0.9140406,0.6574655,0.2762594,0.5387065,-0.3352228,-0.4581476,-0.09393799,0.3108892,0.8316844,0.3731446,-0.9204686,0.9976184,-0.08929622,0.8854964,0.1217777,-0.2738587,0.1877774,0.9113214,-0.8017919,-0.5167887,-0.7683992,-0.1353265,0.07081807,0.498748,0.4727399,0.304677,0.05674708,0.6277444,-0.9092515,0.8215373,0.8437822,0.1016287,0.4395523,-0.1341764,-0.4586943,-0.2372552,-0.9872341,0.9920907,-0.1351305,-0.9642365,0.6384692,0.9916632,-0.7743552,0.984189,0.8946807,-0.7231472,-0.3297349,-0.1163915,0.7286251,-0.6325774,-0.2723776,0.3917486,-0.7015803,-0.2756034,0.1499265,0.4298062,-0.49784,-0.6462805,-0.5375426,-0.9948514,-0.7834234,0.9974096,-0.9414899,-0.4908558,-0.6629157,0.8121388,0.839011,-0.6997187,-0.8136287,-0.1622938,-0.7879441,-0.4472224,-0.5862558,0.8827963,0.1400858,-0.1717888,-0.1720687,0.4494741,0.673214,-0.3839556,0.09144247,-0.4372319,-0.9261692,-0.05118501,0.8814359,-0.04160464,0.3609805,-0.1442386,0.5784175,0.5173051,-0.5163989,0.7021298,-0.1881815,-0.1017395,-0.765398,0.4840491,0.736629,0.9025297,-0.2962779,-0.2619799,0.0652684,0.8487523,-0.3999528,0.9904969,-0.981401,0.6356146,0.3390221,0.1480018,-0.2729701,-0.6487467,-0.4569603,0.9966085,0.5317597,0.3338737,0.3891494,0.8904173,-0.4287049,-0.2411147,-0.2955533,0.3476529,-0.8316848,0.4829793],[-0.4726163,0.1448408,-0.244336,-0.2391325,-0.9069397,0.7632227,-0.4350523,-0.6508298,-0.5148726,-0.02512658,0.6869702,-0.8267562,-0.4096519,0.8318672,0.8290579,-0.322307,-0.7518265,-0.6214182,0.2407905,0.2968254,0.610076,-0.1561934,0.24375,-0.09002316,0.4571094,-0.4521297,0.4582495,-0.9720185,-0.1096624,0.1665431,0.320863,-0.2405947,0.05896199,-0.5581677,0.9608467,0.8490431,0.5808258,-0.9681203,-0.1958517,0.9091506,-0.7507501,0.431859,0.5945404,-0.6322072,-0.2840282,0.5733418,-0.223483,0.09762561,-0.2962147,0.3253011,-0.5795517,0.3763992,0.257123,-0.43546,0.173273,0.9459009,0.5242398,-0.3444971,0.9324479,-0.9909127,0.03428972,-0.56372,0.4306287,-0.03647411,0.7369225,-0.3415676,0.5902252,-0.6818185,-0.4417595,-0.6760714,0.3095541,-0.2615553,0.8695345,-0.3250908,-0.06228435,0.4228325,-0.2517742,0.1917027,-0.3555492,-0.2588834,-0.4872373,-0.4118198,0.8784366,-0.1374017,0.1016592,0.4268839,-0.7316434,-0.5627692,-0.5233386,0.6499085,-0.9787469,-0.6828105,-0.2474769,-0.314896,-0.494471,0.05952179,-0.04411209,-0.08722627,-0.7358022,0.8941691,-0.7657545,-0.7351153,-0.04342353,0.7599962,0.6818647,-0.5509441,-0.827605,-0.9465318,-0.2204434,0.0318948,0.4370143,0.1768028,0.9242325,0.3158869,0.735234,0.8661397,0.2262946,-0.6522293,0.1218437,-0.546464,0.6641388,0.5124295,-0.6800418,0.5116,-0.9039536,0.9913771,-0.838583,0.2518096,-0.9918373,-0.5026703,0.4517042,-0.656558,-0.1993176,-0.8396711,0.545346,0.7103138,0.4610431,0.9826434,-0.4943856,0.404283,0.07445204,0.230949,-0.4046041,0.5118005,0.9823906,0.8061328,-0.2770764,-0.01109207,0.8346195,0.5591271,0.8213565,0.7586665,-0.4687992,-0.5326142,0.4267411,-0.1293226,0.5012271,0.08782542,-0.6072428,-0.8496459,-0.6638148,-0.4631208,-0.1476983,-0.167111,0.2049598,0.8868389,0.5696487,-0.9295695,-0.6976354,-0.6434722,-0.8891151,0.8033135,0.06984842,0.7102323,0.1534325,0.1862253,-0.4199013,0.9845946,0.73773,-0.9892724,0.06437361,-0.9811883,-0.3517855,-0.3873752,-0.4909626,-0.105934,0.9023678,0.9700336,0.946698,0.7555587,0.753952,0.6741936,0.8973129,-0.59357,0.4810908,-0.03363287,0.1049525,0.8306992,0.3106918,-0.0009175539,0.608855,0.05612743,-0.5506294,0.1904122,-0.705714,0.06379521,-0.8951836,-0.6635785,0.9656267,0.3968637,0.5696068,0.5644794,0.02170599,0.9262006,-0.6388881,0.8002868,-0.1159118,0.5230558,0.1365863,0.9278033,0.2779872,-0.6888504,0.1295005,-0.4004661,0.4896509,-0.9924762,-0.4004499,-0.09633219,-0.2737523,0.8355379,-0.11947,-0.8039804,-0.7150028,-0.6961207,-0.09258854,-0.3530363,-0.9992275,0.5072098,-0.3526286,-0.7850249,0.006924987,0.4795103,0.7317815,-0.8481126,0.9481537,-0.3968908,-0.8111744,0.6463664,0.4846174,0.4113128,-0.2778465,0.5075684,0.9293098,-0.2668096,0.263308,-0.4226779],[0.3952536,0.746207,-0.7993138,-0.1357557,-0.5518837,-0.59676,0.1648637,0.1523091,-0.9470184,-0.5988457,0.1502978,0.4278502,-0.1273936,-0.4131969,-0.9536035,0.9523933,-0.7953162,-0.4350823,-0.05667722,0.5297587,-0.2744502,-0.8016469,0.6493795,0.9086542,-0.6978693,-0.9774587,-0.8748534,-0.9705856,-0.5331726,-0.3661469,0.4563379,-0.08234131,-0.6675084,-0.6471741,-0.7759683,0.3478486,-0.9466746,0.7698689,-0.2981735,0.7706144,0.8844666,-0.2086154,0.3497662,0.1359338,-0.9482062,-0.3026148,0.8760788,-0.3133668]],[[-0.1806186,0.9204357,0.2415439,0.6318944,-0.1130561,-0.5100017,0.2021502,-0.1989523,0.5349007,0.1649386,0.9076948,0.9165618,-0.362799,0.7058489,-0.2554477,-0.951098,0.8877718,0.2260867,0.9247367,-0.3167387,-0.2481922,0.4650774,-0.1413032,0.7627406,-0.4687558,0.562072,0.2125417,-0.760772,0.544435,0.5769145,-0.661792,-0.3515199,-0.5657413,-0.5394385,0.1075472,-0.4408873,-0.4300832,-0.8282506,-0.5912704,0.430114,0.5499873,0.4871642,-0.5967546,0.1144773,-0.6809006,-0.1187528,0.6231582,0.1587797,0.870991,0.1800398,0.3835966,-0.07452404,0.8761678,-0.808521,0.01830375,-0.4753453,-0.68857,0.8476119,-0.749795,0.4878206,-0.7739961,0.9684634,0.01732504,0.5581644,0.4789226,-0.507143,-0.1360632,-0.7584872,-0.656702,0.05402744,0.2213134,0.3264637,-0.7181373,0.09233034,0.9410851,0.2891617,0.6879547,-0.7173526,-0.1887535,0.192593,-0.2094511,-0.241371,0.8860047,0.3070676,-0.998081,0.2468556,0.5042453,0.3427121,0.02453363,0.6352286,-0.3695947,0.9137759,-0.8663499,-0.3085581,-0.06905544,-0.9736276,0.3283992,-0.5806472,-0.3826205,0.2426835,0.06381595,-0.7639115,-0.5460446,-0.6546195,0.4159205,-0.2822047,0.8790684,0.033301,0.2829542,0.6107574,-0.608886,0.7224419,0.5380208,-0.9512677,-0.830255,0.3601563,0.7742467,-0.8418407,0.9597917,0.6210485,0.2526357,0.4303639,-0.5823469,-0.2561783,-0.5181081,-0.9468055,-0.7864716,-0.1263138,0.5318849,0.4926684,-0.1260496,0.8151379,-0.05132234,0.177255,0.6341479,-0.5284696,0.9542694,-0.09414613,0.1974696,0.5323741,-0.3580731,-0.6547706,-0.7140417,-0.6105897,-0.5649691,0.9763885,0.1240436,0.2997491,-0.9813385,0.9445744,0.4606886,0.387634,-0.5475876,-0.1834804,-0.7282519,-0.5787833,0.6584008,-0.740386,0.7079983,0.6277828,0.5785873,0.7941592,-0.3320328,0.8857331,0.5064785,-0.5807695,0.3041665,-0.7575634,0.5531611,0.01463664,0.5821421,-0.08819902,-0.42831,0.2534494,-0.7340968,0.4795501,0.2535023,-0.1703416,0.2867465,-0.9031138,0.9067473,-0.1234618,0.7052681,-0.8585379,0.2037021,0.7017767,-0.1364065,-0.4133304,-0.8405151,0.4948291,0.07832229,0.4067845],[0.149973,-0.3897051,0.001304984,0.9142685,0.7785966,-0.08525026,0.1074787,0.0618223,-0.456663,-0.1146959,0.8664505,0.2549011,-0.05033886,-0.6632144,0.420948,0.3359756,-0.6384845,-0.1339628,0.705277,-0.5624819,0.5177064,-0.669323,-0.556618,0.3371753,0.6347299,0.8342464,-0.602355,-0.9263165,0.3975227,0.6411822,-0.5412071,0.2748789,0.2754373,0.0715884,0.4580197,0.08332813,-0.1306735,0.7090878,-0.4297136,0.6283197,0.3348946,0.1392585,-0.2363626,-0.8476784,-0.2234663,-0.02015722,-0.5037484,-0.3735832,-0.6670389,0.6955688,0.7029679,-0.8235991,0.5316551,-0.7695162,-0.4950351,-0.6108594,0.5335081,-0.8815532,-0.5826731,-0.2639385,-0.9831293,-0.7547741,0.1926211,0.7760077,-0.8863776,-0.8243043,-0.1154472,0.3960826,0.2657196,0.5557897,-0.7523646,0.5512333,-0.4774739,-0.6800771,0.08426678,-0.6913741,-0.08577859,-0.8085067,-0.518883,0.01102173,0.7148447,-0.2271467,0.1023868,-0.4075969,-0.3852447,0.825052,-0.7909291,-0.3733076,0.9222238,-0.5796459,0.9190493,-0.7815604,0.8210831,-0.7743349,0.1066972,-0.6225512,0.6289065,-0.9488699,0.7799847,0.2487913,-0.4565972,-0.02981055,-0.3836302,-0.294737,0.9849546,0.5191681,-0.1304322,-0.7250018,0.7465212,0.8939278,-0.7515819,-0.896307,-0.04340541,-0.8730235,-0.8226397,-0.1226989,0.2772035,-0.552762,-0.1097244,0.8329985,0.2471179,-0.9007583,-0.8763387,0.2871289,-0.6364357,-0.1405894,0.7458858,0.04081452,-0.360999,-0.3611766,0.4213702,-0.7425961,0.8383281,-0.5750499,0.006609797,-0.5045083,-0.5300002,0.9100378,0.2845368,-0.7933557,-0.9715116,0.8595254,-0.03856385,0.04225242,-0.05547917,0.9239931,0.09455884,-0.4720114,-0.5352709,0.7882583,0.8717935,-0.7035282,-0.6817644,0.5669816,0.3768489,-0.3737291,-0.4298295,0.6309879,0.3049061,0.57901,-0.9954593,0.3685252,0.898041,-0.9596021,-0.08364069,-0.1237377,0.5290051,-0.704731,0.7701745,0.8696887,0.8581181,-0.1368228,-0.9134557,-0.769309,-0.3178276,-0.6465356,-0.400422,-0.2697848,0.8805516,-0.02425706,-0.1558872,0.2432412,0.599267,0.2830145,0.04819715,0.177085,0.9243135,0.8649597,-0.4934992,0.8620207,-0.9480026,0.08262789,0.4355206,-0.7414021,0.9015002,0.466254,0.1829644,-0.2385682,0.6501682,-0.2267119,0.6285653,0.6255124,0.7784216,0.06382215,0.5359607,-0.003156066,0.6434031,0.6885257,-0.433899,-0.493688,0.5273857,-0.8302076,0.921088,-0.605408,0.1882507,0.01922381,0.1474801,0.3867707,0.5394149,0.516362,-0.637655,0.857841,0.04693139,-0.2174612,0.4517665,0.2694404,-0.7728074,0.8661208,-0.7753029,0.5063808,-0.7227859,-0.6880708,-0.132049,-0.8499372,0.2314554,0.0350734,-0.102904,-0.3792366,-0.344494,-0.7067473,-0.9071834,-0.05409658,0.7839496,0.6475585,-0.9583704,-0.5978816,0.7002482,-0.6077008,0.7201061,-0.9589524,-0.2035092,-0.6826096,-0.208146,-0.00533402,-0.694571,-0.9335091],[-0.6271999,0.05090225,-0.3108219,-0.963202,-0.06427205,-0.7864902,0.6194055,0.9459538,-0.4616307,0.0740205,0.8513217,-0.01895344,0.4381084,-0.6401198,-0.8578694,0.2753477,-0.5598602,-0.3943092,0.9589376,-0.371998,-0.4413399,0.7142062,0.3620863,-0.5414085,0.2355355,0.7744479,0.2539472,-0.3001405,-0.03898108,-0.9206696,-0.8930578,0.6031454,-0.9603899,0.0559839,-0.6461987,-0.2348222,-0.8524809,0.2171484,0.6731584,-0.1486071,-0.4900481,0.2757706,-0.4637891,-0.7702291,0.6766591,0.1993819,-0.8031015,0.4145641,0.1923171,0.5037148,-0.05457628,0.8163276,-0.427399,0.4987864,0.6681564,0.9184599,-0.8195705,0.713316,0.6267922,-0.1774985,0.1883527,0.6916275,0.2300998,0.1226608,-0.7469354,0.7013035,0.350609,-0.7598438,-0.6429038,-0.6029124,0.2777154,-0.3010565,-0.05493176,-0.1518735,0.3013014,0.2014405,-0.7176619,-0.3515657,-0.4670168,0.07325089,-0.5774159,0.5886364,0.1837686,0.4531994,0.8614156,0.05766785,-0.2148026,-0.2627441,-0.3968967,-0.963289,0.8715408,0.0258292,0.8464718,-0.4930099,-0.5470238,0.09773362,-0.7143421,0.2066253,0.05850089,-0.9058647,-0.08045781,0.04142368,-0.8838758,0.5432639,0.2316495,0.4601803,-0.7297399,-0.650296,-0.1056854,0.9172325,0.6286216,0.3226843,-0.347488,0.842947,-0.1439151,0.6221688,-0.3795289,0.547055,0.1623944,0.3318884,0.3191292,-0.3355252,0.1840945,0.7969589,0.01867068,-0.4580482,0.3016419,-0.6277614,0.8676112,0.536114,0.8826611,0.4022247,-0.6574464,0.5806305,0.8588979,0.8452125,0.1123329,0.07433617,0.07704294,-0.6856155,-0.8769639,-0.3401657,0.1998197,0.5184233,-0.5076048,0.7274725,-0.9206421,0.04554403,0.9414566,0.3987763,0.8159676,-0.5958698,0.2956705,-0.9227889,0.775074,0.3221299,0.4102814,0.9235532,-0.5347073,-0.6210279,-0.411137,0.3435232,0.3402219,0.775454,-0.8796155,0.2213331,0.7828455,0.06322348,-0.2023944,0.2304424,-0.1640552,-0.8620152,-0.3689662,0.4208831,-0.2708708,-0.7541835,0.8148468,0.04046714,0.2211999,0.7013502,0.07130945,0.842489,-0.394307,0.5243261,-0.1340884,0.1263973,0.5955215,0.5072782,-0.0751518,0.4373028,-0.2616175,-0.3043205,-0.394869,-0.1504067,0.609216,0.1943861,0.6581025,0.389271,0.4329695,0.9532843,0.6463006,-0.5447886,-0.5268967,0.389158,0.3722942,-0.5690989,-0.7115264,0.04379237,0.109934,-0.2718033,-0.9752789,-0.6712923,0.1143514,0.04046905,0.5293298,-0.3157674,-0.04537666,0.1512815,-0.1883718,-0.6419518,0.4044158,0.9022543,-0.6285176,0.8499668,0.1769868,-0.2150706,0.01155126,0.6225972,0.2466644,0.4607935,0.8497839,-0.7343743,0.6892278,0.8104599,0.5794742,0.9464862,0.6706622,-0.4338516,0.8856835,0.2597258,-0.03179705,-0.5231009,-0.3362964,-0.124879,-0.871907,0.2057406,0.3015101,-0.317814,0.2175165,0.7901165,0.2154099,-0.5793326,0.9264152,-0.2731935,0.2095076,0.2557792],[0.5191066,0.1702398,-0.4608341,0.6501417,-0.04885805,0.6246631,0.2861504,0.1276084,0.7851372,0.4641702,-0.4690677,0.7450178,-0.6025896,0.9613903,0.4184217,-0.1555768,0.6399779,-0.3533739,-0.4134015,-0.2219115,0.02868903,0.03987253,-0.9491415,-0.1040944,-0.7304745,0.03368318,-0.8072913,0.949029,0.8379281,-0.7967169,-0.5727093,0.1631147,0.4823901,0.5623884,-0.5679333,-0.1359197,-0.1331855,0.208454,0.7033017,-0.05085838,0.7207258,-0.829463,0.7062123,-0.08358467,0.8453453,-0.1085001,0.8586283,0.6911471,-0.5847087,0.7178435,0.7644939,0.8352828,-0.5343146,-0.2892183,0.9875839,0.7915313,0.08316338,-0.6500711,-0.9440577,0.03970778,-0.619117,-0.4871258,0.5166852,0.6422,-0.2355279,-0.8842924,-0.9236467,-0.6695056,0.8578813,0.1358646,-0.3735322,0.008837342,0.5630658,-0.3767766,-0.4613715,-0.8910422,-0.9937859,-0.560951,-0.6792016,0.7563326,0.6435044,0.1013428,-0.04818523,-0.2615205,-0.5063481,-0.6180801,0.36186,-0.8948824,0.6248975,-0.3657466,-0.07727253,-0.9047256,-0.2124647,-0.4889985,0.7478483,-0.1270012,-0.345338,-0.4510206,0.03317153,-0.01997054,0.5002279,0.3336508,-0.8242662,0.05571043,-0.4419371,-0.747159,0.06636608,0.2887447,-0.9273136,-0.9834366,0.3853664,0.4143476,-0.6536531,0.4894616,0.2635681,-0.4772438,0.8732996,0.4741363,0.8332448,0.8832347,-0.9338729,-0.7495754,-0.4977926,0.2688689,0.9945619,-0.9502933,-0.956933,0.198121,-0.1262175,0.1797141,0.1047584,-0.05144727,0.06871021,0.1994609,-0.9542768,-0.3364435,-0.6553028,-0.6620073,0.8303142,-0.7193303,-0.01999438,-0.2669629,0.03515637,-0.2110273,-0.4548532,-0.0657419,0.9419715,0.691947,0.6947875,-0.7208769,-0.7629144,0.430505,0.1964003,-0.8739858,-0.8894336,-0.7572491,-0.791348,0.4012773,-0.975749,0.8828835,0.1395544,0.8015566,-0.8031113,-0.5204647,-0.3085703,0.875906,-0.7054679,0.301496,-0.1143583,-0.7096913,-0.6495929,-0.6866567,0.1507493,-0.5894372,0.9262664,-0.9808393,-0.5324755,-0.1667291,0.5289068,0.691576,0.7753398,0.9323237,0.9938591,-0.9451773,-0.05682623,0.5826528,-0.2125558,-0.1667708,-0.2128409,0.6548591,0.3427636,0.8219359,-0.2997357,0.2989673,0.5438929,0.4091403,0.1539379,-0.5225685,-0.8926132,0.9158401,-0.6449959,-0.4886595,0.08403504,0.7738881,-0.6490071,-0.4484895,-0.7850444,-0.3280836,0.6486957,-0.8961046,-0.7600245,0.7750859,-0.5530152,0.574861,-0.01066029,-0.08619177,-0.5535564,0.01228988,0.2344881,-0.6764102,0.834682,-0.6097684,0.9128919,-0.9549909,-0.830744,0.7982042,0.8431118,0.5609353,-0.0994879,0.9979742,-0.7388742,0.3820436,0.461765,0.2449805,-0.07194626,0.7721899,0.3383953,0.6753633,-0.6547637,-0.7862678,-0.504406,0.3062505,0.7440007,-0.75646,-0.1246928,-0.02558839,-0.2817737,-0.9764676,-0.3544568,0.5434172,0.6786938,-0.8749385,-0.1667861,-0.2176975,-0.3472444,0.2774007],[0.9563906,-0.4770948,-0.8544185,0.300117,0.6768966,-0.5609992,-0.9080737,-0.1120204,-0.2842275,0.2442709,-0.1523834,0.6275342,-0.07731283,0.178146,-0.8535352,-0.7440593,0.5357447,-0.7167282,0.8659527,-0.8645589,0.7623305,-0.2194144,0.8990374,0.3120484,-0.5356896,-0.1062223,-0.7264316,-0.2391831,-0.03639877,-0.3425807,0.05034769,-0.3063482,0.3833828,0.7732546,0.2489387,0.30178,0.5684681,-0.7888219,-0.8712032,-0.6757624,-0.2506131,0.3037178,0.3690421,-0.6524105,0.1474525,0.2443348,0.5632393,0.2514462]],[[-0.3283602,-0.2372559,-0.9268782,-0.8190725,0.2739808,-0.7412169,0.6710749,0.08263886,-0.6801021,0.05023205,0.4317262,0.2480258,0.04378068,0.6722083,0.130541,-0.1865448,0.6647797,0.00691545,0.4677698,-0.07694113,-0.4789826,0.9297712,-0.3942543,0.5288365,-0.5917382,-0.1684233,0.947577,0.1634516,-0.9315822,-0.9958994,-0.399968,-0.7023623,0.5605259,0.4606421,-0.360432,0.1155299,-0.1952761,-0.7617278,-0.4612015,0.2636654,-0.106258,0.1756488,-0.2835699,-0.5384359,-0.2187093,-0.8324313,0.4292357,-0.08439767,0.2724192,-0.677916,-0.2089416,0.3988881,0.6453483,-0.4140006,-0.3356105,-0.2194539,0.3706498,0.1339947,-0.08157957,0.8846545,0.7012665,0.8103666,0.496068,-0.09656036,-0.6916101,0.8549316,0.5894394,-0.001826882,-0.05560005,0.2513985,0.8273571,0.730284,-0.8980868,0.9636154,-0.4538997,0.9465661,-0.5413277,-0.2229244,0.1953295,0.836715,-0.5849257,-0.08408535,-0.6659415,0.2036291,0.09633458,0.3468175,-0.7976871,0.2260853,0.422055,0.1001447,-0.647676,-0.8576028,0.9965363,0.8684509,0.0654062,-0.7645841,0.7416747,0.276025,0.4728975,-0.5445786,-0.2611552,0.3567676,-0.425506,0.8806508,-0.9973626,0.3316221,0.4909632,0.0173465,0.113855,-0.8948166,-0.9946558,0.3728068,0.0186125,0.3557887,-0.7379608,-0.6453493,0.1932636,0.4309847,0.06146085,0.5160155,-0.1716732,0.9061649,-0.7273605,-0.3733169,-0.3847665,0.2646513,-0.1718785,-0.9682808,0.0375911,0.2038175,-0.5746994,0.1882485,0.04148829,-0.9548335,-0.4450766,-0.3875023,0.8137331,-0.253373,-0.5696239,-0.4407696,0.07857955,-0.07280505,0.08288062,0.2275699,0.2247149,0.3268783,-0.3539752,-0.7262871,0.4056506,-0.6560001,-0.9765708,0.9648604,-0.6849751,-0.5661604,-0.5670831,-0.1374472,0.8241403,-0.6811628,-0.7557287,-0.8661752,-0.6164455,0.9746132,0.3352093,0.09122717,-0.2197987,-0.1090757,0.3603503,-0.4067165,0.1997222,0.2108752,-0.7247198,-0.628895,-0.5561283,-0.2123019,0.3364572,-0.6385515,0.1193641,0.3057754,-0.7343035,-0.5715501,0.3800811,0.3528444,0.4207003,0.1423203,0.4595902,0.2968993,0.6306317,-0.2111655,-0.5632994,0.8061903,-0.5549548,-0.1587991],[-0.1392401,0.8338757,0.4075248,-0.910964,0.06602228,0.5681334,-0.3648628,-0.3093981,0.9568799,-0.9343445,-0.1612424,-0.6698635,0.2222656,-0.3423311,-0.143675,0.5447073,-0.1836032,-0.2601753,0.4992015,-0.7747781,0.8638098,0.7849793,0.6539748,-0.1141945,0.9940095,0.4362139,0.3410196,0.2971189,-0.1205484,0.309952,-0.1113917,0.2652151,-0.3177046,0.8292005,0.8927777,0.07932222,0.05570662,-0.8740153,0.9286356,0.8320384,-0.3661522,0.3132913,-0.3761677,-0.8336697,-0.8726978,-0.8886709,-0.5722234,0.3701575,-0.4221286,-0.227707,-0.9682105,0.815222,0.6083953,0.6356058,0.2000118,-0.3558453,-0.06490052,-0.7032897,0.3355663,-0.9291205,0.2567956,0.5634699,0.5415525,-0.8491127,-0.8233385,0.3645246,-0.5450268,0.1087149,-0.707828,0.7025828,-0.1755711,-0.4969286,0.2505727,-0.871079,0.4565284,0.1432911,-0.988678,-0.671747,-0.07376635,0.5625412,0.9670942,-0.552676,0.1118754,0.189767,0.6237605,0.5463274,0.9362743,-0.1706306,-0.8388994,0.5513189,-0.4084767,-0.7918911,-0.04389942,-0.4578499,-0.129392,-0.4738306,0.220734,0.6646223,0.1734437,0.9438143,0.7284172,-0.4533571,-0.7271569,-0.3697981,-0.9334173,0.9208827,0.2143079,0.7375932,-0.7759731,-0.1975189,0.3009548,-0.08616269,0.4640743,-0.1116441,0.5294838,0.2379264,-0.5641847,0.07575095,0.392838,-0.4455909,0.1801761,0.4849121,-0.1273543,0.6698208,0.3099281,0.07337701,0.5532472,0.7115929,0.9421692,0.7588484,0.7021713,-0.8478043,-0.3582157,0.4710705,0.738472,-0.4602653,-0.7766886,0.1756192,0.06124556,-0.9995353,-0.641305,0.9162323,-0.6521728,0.8758228,0.5028827,-0.9759526,-0.6620793,-0.2109879,0.8524535,0.7454736,-0.5719142,-0.1213671,-0.3691283,0.5811622,-0.61097,0.09472573,0.09111226,0.5323231,-0.0202359,-0.4848005,0.2501127,0.4884646,-0.3000649,0.999903,-0.7669656,0.9600136,0.1671304,-0.4677554,-0.008746266,-0.2646562,0.5774205,0.8529885,0.3559835,0.8349867,-0.7986331,0.4892387,0.2181524,0.3074209,0.441602,0.5993807,-0.7436638,-0.1685597,-0.9124625,-0.05040061,-0.686723,-0.2545086,-0.1286148,-0.9773719,-0.8233783,-0.750474,-0.8264637,-0.92959,0.2592084,-0.7372305,0.9819798,-0.2871948,-0.9832299,0.4760272,0.6876392,0.9776428,-0.8119423,-0.1991976,-0.803298,0.5311666,0.1828328,-0.1402134,0.993629,0.6937759,-0.9794114,-0.7323198,0.8444662,-0.747683,0.8263307,-0.6538398,0.4819834,-0.7504199,0.1360995,-0.3394836,0.4002716,-0.7061734,0.5826542,-0.355523,-0.0485543,-0.185315,0.1159257,0.9362335,-0.5642474,0.5394413,0.7733192,0.3247325,-0.2848197,-0.5287964,0.7301977,-0.4658836,0.1398534,-0.9443192,0.2650807,0.4325146,0.6698489,0.115887,0.9027057,-0.9570155,-0.4309887,0.2049061,0.05363476,-0.7305954,-0.0341996,0.8127899,-0.8788509,0.9988041,-0.9440584,0.2134839,-0.8333554,-0.6488316,0.7286127,0.4888186],[0.1462988,-0.06688654,0.6378038,0.9826932,-0.4821872,-0.6643806,-0.6255093,-0.7372818,0.9063642,-0.9854074,0.5538404,0.4087233,-0.8797708,-0.1240367,0.398431,-0.1580473,-0.8129895,0.006178498,0.789459,0.2688639,-0.4898087,0.4684424,-0.8154371,0.9074485,-0.3049399,-0.6067715,0.8217609,-0.8048091,-0.6952071,-0.3884131,0.5336046,0.1597377,-0.7118185,-0.7623928,0.5976675,0.2236959,0.9946325,-0.8588908,0.0742625,0.04801214,-0.5317211,-0.4745568,-0.272869,0.1531051,-0.2233793,0.4038684,0.08148563,-0.5622032,-0.5774112,-0.5226774,0.6120875,0.5610721,-0.1767138,0.7494359,-0.9239562,0.3249671,-0.1075765,0.01081669,-0.03708899,0.6684217,0.6739016,-0.5545311,0.5572495,-0.367968,-0.8007932,0.01824439,-0.7206771,-0.6234062,-0.2084597,0.3320641,0.1992649,0.8887866,0.9987357,-0.7240789,-0.45073,0.7687836,-0.1223475,0.2082683,-0.5850697,-0.7695637,-0.229082,-0.8623521,0.1007217,0.2415088,-0.6725156,-0.4983457,0.5453212,-0.3212441,-0.2312425,-0.8504443,-0.5404835,-0.5495567,0.6296134,-0.3536187,0.2291025,0.7462139,-0.04656327,0.2963378,0.5730677,-0.4025902,0.5307741,-0.6959732,-0.9785237,0.2683193,-0.1723112,0.09887207,0.9857535,-0.4507166,0.3582661,0.3310303,0.1289862,-0.8237545,0.01808655,0.4747405,-0.6399157,0.6279447,-0.9589024,0.6349909,0.09429324,0.9325314,-0.5818696,0.7976079,0.971586,0.06627262,-0.5578604,-0.8390224,0.614768,0.1287256,-0.4107026,0.5036545,0.648613,-0.5737948,-0.3584448,-0.2360336,-0.8445189,-0.3825976,0.1366454,-0.8539398,0.03266323,0.2663362,-0.977411,0.8519447,-0.1200591,-0.2273258,0.1306449,0.7045305,0.7649937,-0.1739761,0.2621009,-0.9735379,-0.661834,0.1829225,0.0007959604,-0.324159,-0.6669486,-0.7561934,0.6628664,-0.136103,-0.3570307,0.3102226,-0.6075268,-0.4124755,-0.5954063,0.2396747,0.5302651,0.7200313,0.721483,0.2148434,-0.1225349,-0.529819,0.1184303,0.5383384,0.1357638,0.5326962,-0.6629367,0.9396672,-0.5774987,-0.1974999,0.6914618,-0.2104014,0.2787955,-0.5546284,0.1549007,0.183642,0.5412245,0.1638128,0.6670866,0.6082373,0.31094,0.989784,-0.9950628,-0.1407629,-0.8676238,-0.2195219,0.3376617,0.5433376,0.6597528,0.142624,-0.1650187,0.8933775,0.1127516,-0.8866355,-0.6616957,0.4574337,-0.6545415,-0.4805719,-0.8346508,0.8362682,0.1036812,0.691231,0.5336692,0.9802339,-0.8062758,-0.9090765,-0.8414948,0.5566788,-0.9726689,-0.8438063,-0.8203475,0.9035943,0.03577626,-0.165368,0.8752346,-0.5095198,-0.3445393,0.2892203,0.8870976,-0.793627,0.6156225,-0.07662594,0.8549151,-0.1944011,-0.7738929,0.5073175,0.4059133,-0.2921239,0.2610378,0.3921525,-0.2320052,-0.9133797,0.4514649,0.8962555,0.6554592,0.7598028,-0.3152555,-0.821872,0.2526848,-0.9816012,0.5486102,-0.09668839,-0.4363641,0.7791979,-0.9898262,-0.961633,-0.8175845,-0.4698843],[0.1078223,0.5301876,0.9022224,-0.003597856,-0.3259057,0.5306435,-0.9475193,0.01406467,0.4476568,-0.7271259,-0.2707397,0.8555377,0.08381069,0.1910828,-0.229833,-0.6732764,-0.4663931,0.07178104,-0.9847412,-0.7880201,0.5984998,0.3389945,-0.1324991,-0.08236539,-0.6027217,0.4949937,0.5181777,0.2308515,0.1773425,-0.08586729,-0.9910667,0.3607945,-0.4455601,-0.305308,0.1107675,0.06839025,-0.8912134,0.9789629,0.3721537,-0.08667147,-0.8458092,0.7926164,-0.9478331,0.1683048,0.1167589,0.853977,0.7721953,-0.9007149,-0.7972057,0.2577464,0.5866017,-0.8899384,-0.2246436,-0.8434093,-0.7076836,0.007259011,0.4955785,0.6905582,-0.2790896,-0.08094418,-0.7190728,-0.3064929,-0.2137433,0.6535685,0.301542,-0.0107168,-0.6858389,0.6106241,0.121931,0.3900459,0.5875957,0.8109598,-0.5440426,0.7448676,0.3486414,0.8735094,0.2494842,-0.4498097,0.541533,0.3456456,0.201624,-0.7679536,0.5949686,0.4258148,-0.9833872,-0.277088,-0.1324292,0.7801387,-0.6316824,0.6769195,-0.1886657,0.4267924,0.9200046,-0.1893774,0.1325241,-0.8288746,0.128343,-0.0151521,-0.6988978,-0.1964158,0.4780214,-0.06432474,-0.09995329,0.6304047,0.8845425,0.719347,-0.7492709,-0.342353,0.2687919,-0.5983102,0.4294064,-0.7898319,-0.2492594,0.4422855,-0.6170492,-0.2304119,0.117535,0.7861481,-0.9937134,-0.008721948,0.2113813,-0.7129984,0.735729,0.6879475,-0.486884,-0.3424517,-0.2159349,-0.7761085,-0.2790695,-0.4053565,0.6735291,0.03955519,0.05176151,0.6808906,0.07678735,-0.734684,-0.10926,-0.6132135,-0.05366147,-0.03534949,0.6261232,0.03359258,0.2650284,0.6903434,-0.0246402,-0.7853003,-0.7429035,0.8341799,0.7352042,-0.6641412,-0.2559866,-0.5230446,0.3383572,-0.1782719,-0.3434583,-0.8098938,0.9805887,0.5276415,0.3428614,-0.7807589,0.7584643,0.2985384,0.7692406,-0.5304143,0.5282085,0.1838366,-0.2863799,0.1386656,0.6612358,0.9854119,-0.2285374,-0.8824027,0.1211563,0.8020492,-0.0320226,-0.08618963,0.5912805,0.1317509,0.508616,-0.9543364,-0.238974,0.7840221,0.2098235,-0.7929263,0.03607714,0.6825445,-0.1313328,0.5202708,-0.3819276,-0.09634483,0.269736,-0.391766,0.2242557,-0.7275651,0.2136306,0.4670646,0.6183817,-0.5762026,0.3497622,-0.6503499,-0.4126364,0.875406,-0.8012972,-0.6399515,0.3738553,-0.6780236,-0.1035048,-0.01635945,-0.737895,0.4237714,-0.6770611,-0.1506726,0.8450859,0.6987033,-0.6952124,0.4018678,0.115698,-0.05545676,0.05973446,0.1948463,-0.7233627,0.5603387,0.9505653,0.2778063,-0.8646204,-0.4550964,0.7845998,0.1257526,0.6174374,-0.2255496,0.6087663,0.389646,-0.9984546,-0.6892707,0.1714231,-0.8972502,0.997473,0.7788181,-0.2041286,0.6695235,-0.5465708,0.6769829,-0.1397732,-0.9897108,-0.2660342,-0.12246,0.7625477,-0.7576749,-0.1511465,0.1470491,-0.858988,-0.8590713,-0.2966894,0.2889485,0.1701216,0.4143996],[0.9995654,0.175083,0.6819382,0.2652697,-0.5289135,-0.1558114,0.1336054,0.7043145,0.5821517,0.1355904,-0.9620085,-0.6016092,0.8836179,-0.5934985,-0.5198133,-0.0266937,0.6841362,0.109435,0.06995165,-0.2666537,0.680656,-0.2091016,0.544558,-0.4330672,0.5348191,-0.455305,0.3275454,0.3250556,0.5625505,-0.4871339,-0.2288262,-0.6089878,0.7186489,0.7408876,0.008320451,0.7731256,0.08200729,0.8192649,0.1785218,0.08933866,0.4669864,0.9947448,-0.1521169,0.8331378,0.6272662,-0.2090801,0.4038896,0.4746318]],[[-0.589638,0.7310381,-0.6511233,0.6697326,-0.6026547,-0.6711128,-0.9660425,0.2776477,-0.8739486,-0.9199321,-0.107406,0.2867577,-0.2420667,-0.06477129,0.2075795,0.09286964,-0.9366057,-0.03908265,-0.5790367,-0.2372707,0.2984693,-0.5252154,-0.7412543,-0.8345945,-0.3130332,0.6246312,-0.4633764,0.1550957,-0.4985341,0.3269717,0.6255012,-0.5634451,-0.5201387,-0.05144131,-0.2071851,0.1156653,0.1889445,0.7853715,0.3748877,-0.7495105,-0.3789145,0.3474035,-0.01994312,-0.3860651,0.1923133,0.5806453,-0.07835567,0.5850563,-0.6104951,-0.5833013,-0.1039311,0.8937817,-0.7731352,0.764374,0.4191117,0.2215599,-0.3721753,-0.914227,0.0105387,-0.4471563,0.4240248,0.9655514,-0.1718117,-0.1560317,-0.08337557,-0.3129011,-0.7875178,-0.8330495,0.8941307,-0.4173023,0.858011,-0.8958948,-0.2677077,-0.5980694,0.7309458,0.6782539,-0.04049933,-0.9321864,0.1691626,-0.6169026,-0.05923975,0.9083545,-0.04955137,0.97926,0.6528718,0.168317,-0.08375728,-0.4358641,-0.2130851,-0.04229343,-0.561044,-0.55373,-0.2176989,-0.04356706,0.9033029,-0.8646696,-0.2913822,-0.2981585,0.5718431,0.780966,0.8317468,0.63166,-0.2834917,-0.6905966,0.6473,-0.2359203,0.4203705,0.4280464,-0.4852215,0.1313425,-0.8728175,-0.2532889,0.7189991,0.01361167,-0.2816092,0.03372967,0.544899,-0.567379,-0.1665355,-0.7590976,0.09026635,-0.9929841,0.8188403,-0.08116114,0.4933729,-0.2984661,0.403224,0.191414,0.6370199,0.817749,0.3592291,0.5452516,-0.7487433,-0.7812614,0.7015173,-0.3842999,-0.06338656,0.1468598,0.4068579,0.1951731,-0.05634081,-0.7224977,-0.6188717,-0.5848851,0.5422211,-0.05242741,-0.7856381,-0.494552,0.06112421,0.5141413,-0.6203995,-0.6416323,0.9256513,0.6875119,-0.662693,0.3040271,0.6036005,0.3796696,0.4296179,-0.6240599,0.03577268,0.7142076,0.7458394,-0.9687886,0.9286277,-0.02939498,-0.184064,-0.815942,0.955338,0.6227465,-0.3078758,-0.5408924,-0.8270922,0.959235,-0.3854936,-0.7954183,0.4518521,-0.3968948,0.9974184,0.6184928,-0.5726304,0.9063334,-0.2254802,-0.7848861,-0.3452626,-0.2206265,-0.4917978,-0.2263335,0.2634377,-0.2099503,0.469748,-0.09921873],[-0.0702678,0.7630863,0.2388304,0.3097157,0.4013786,-0.8115478,-0.7856934,-0.1447529,0.7843077,-0.413062,-0.2097942,0.595156,-0.05405962,-0.1158301,-0.3990945,0.5921443,0.9103549,-0.9970486,-0.2089373,0.09378088,-0.6449211,-0.932668,-0.8517187,0.6835248,-0.4340724,0.1844195,0.6850505,-0.9598486,0.9145205,-0.2833647,0.166083,0.1574732,0.4660883,-0.9830647,0.2684414,-0.4915715,-0.3338825,-0.854888,-0.1893862,0.2367469,0.0310632,-0.0731653,0.7557249,-0.6956539,0.7526288,0.7231665,0.8645744,-0.1996335,0.01002681,0.6809816,0.9606581,0.6267469,-0.4611818,-0.6528049,-0.1055108,0.888454,-0.2006279,-0.9252276,0.3260188,-0.5253503,0.287843,0.9291046,-0.2031473,0.4346587,0.04957354,-0.804383,0.9708269,-0.3650976,0.5242476,0.4261741,-0.8102477,-0.0176872,-0.5473619,-0.5905983,0.4533951,0.5347044,0.8554683,0.5250123,0.4147644,-0.2379714,-0.6014309,-0.01113665,-0.3403841,-0.1105744,0.2603616,0.9497201,-0.752162,-0.3560487,0.6407509,-0.1440707,0.1218802,-0.8042231,0.9307327,0.5468836,0.06118166,0.8776786,-0.1460809,-0.01098096,0.04854834,0.4545853,-0.252664,-0.4307359,0.5975344,-0.6306686,0.7363729,0.01616991,0.5504868,0.1032573,-0.1483439,-0.3830403,-0.2575377,-0.942868,-0.6360962,0.5683324,-0.3069531,0.8952138,-0.4873601,-0.8528125,0.01215374,0.6933277,0.6857188,-0.5402117,-0.1114122,-0.5653892,-0.2441834,-0.9103441,0.8948295,0.9354517,-0.3869525,-0.03857601,0.1879689,0.5604627,0.8031719,-0.8415728,-0.4426795,-0.1635894,-0.290059,0.4006581,0.3270716,-0.6103957,-0.5836372,0.8659921,0.450572,-0.6875556,0.1467608,0.1523677,0.619503,-0.576663,0.3785772,-0.2884895,0.6573992,-0.1943983,0.8349807,0.1805519,0.4518392,0.03904498,-0.7111371,-0.4990193,0.7978647,-0.07848966,-0.5509279,0.8444645,-0.7754643,0.3657613,0.8738711,-0.6968217,0.696945,-0.9387386,-0.2254792,0.4125366,0.4016208,-0.06642973,-0.9699948,0.8609576,-0.24321,0.5689938,0.9777355,-0.2838317,-0.8197381,0.5065808,0.1750351,0.8498361,0.3501072,-0.8171864,-0.3213054,0.5363266,-0.139347,0.6717136,-0.9913721,-0.3083638,-0.9475245,-0.5480266,-0.8914511,0.8382359,-0.2696859,-0.01200998,0.7259541,-0.3558561,-0.2899953,0.5378544,0.4292009,0.9612534,0.8187017,-0.8877845,0.06098258,-0.04151022,-0.4732352,0.9487126,0.2692492,0.4348774,0.5935533,0.1434284,-0.6704991,0.7358716,-0.01035964,0.02675426,-0.7601783,-0.70558,0.8774073,0.05940282,0.3391502,0.8117657,-0.8426492,-0.7667859,-0.2461406,-0.3345627,-0.1900617,0.3053879,-0.317129,-0.3889326,0.9992487,-0.379516,-0.7912414,-0.49233,-0.8453307,0.1145459,-0.905766,0.4283788,0.8355939,-0.3124095,-0.8385315,0.5279243,0.09285295,-0.7327576,0.6476023,-0.4683338,-0.3537582,0.9457433,-0.8422728,-0.2731138,0.1514333,-0.5386958,0.9982555,0.1021124,-0.29166,-0.5625098],[0.4713313,-0.8869789,-0.4533333,0.1605772,0.0650357,-0.9495864,0.3384723,0.7521176,0.2778861,-0.7190294,-0.4860536,-0.606848,0.8358636,0.1275576,-0.559648,-0.8135357,0.3398785,-0.714376,0.1997823,0.7975242,0.03160155,0.7768443,-0.3245345,0.5090775,-0.845576,0.03156769,-0.236997,0.1681095,-0.4604303,0.5518603,0.129763,0.189494,0.05077231,0.6080594,0.9735808,0.6319387,-0.5356939,-0.9151864,0.1644181,-0.8534923,0.7108562,-0.2534686,0.3617153,0.8803389,-0.4063443,0.1397027,-0.7888517,-0.2365805,-0.2460655,-0.07920921,0.5436163,0.3456647,0.7158027,-0.02972853,-0.5119009,0.3816609,0.8293495,-0.1315433,0.5928316,-0.4962052,0.360553,0.1776139,-0.714515,-0.4552907,-0.6645451,-0.07564795,0.5749464,-0.4700869,-0.2404605,0.6943512,0.7157779,-0.8122432,-0.9843187,0.8660233,0.200611,0.3100645,0.2533898,0.7062275,0.1793631,0.225964,-0.275354,-0.5529106,-0.4123334,0.04812825,0.9460809,0.04818499,-0.4931675,0.2310406,-0.1410078,-0.847887,-0.02205837,-0.2702409,0.5153768,-0.7350996,0.2998302,-0.938365,-0.3779587,-0.6633854,-0.7322867,-0.7120955,0.9655218,-0.6585884,0.02754796,0.9369369,0.3643813,0.5595708,-0.4918133,0.571795,0.09725511,-0.8660672,-0.1479105,-0.6495032,0.7130594,0.4050581,0.4304349,0.1448876,0.6650357,-0.9359133,-0.8619704,-0.002235532,-0.05763781,0.02255046,-0.9244978,0.7361863,-0.338621,-0.07372177,-0.8820043,0.08423054,-0.477235,0.6077626,0.06166375,-0.08211529,0.7272131,0.8594561,-0.6427755,-0.02561748,-0.7386642,0.6149497,-0.4414009,0.6495175,0.002336621,-0.04850352,0.2219027,-0.00380671,0.5200539,0.9489272,0.5533707,-0.8827212,-0.3028318,0.5602624,-0.8208592,-0.2793475,-0.7666645,0.3864259,-0.6066258,-0.02776253,0.249307,-0.5645802,0.02883184,0.3366081,0.4084723,-0.002847075,0.3597173,0.97596,-0.1734952,-0.799252,0.3510015,0.3800139,0.5174277,0.2403232,-0.2336649,0.3461449,-0.6016874,-0.8987987,0.4387579,-0.7156038,0.9621241,-0.7324641,-0.1540114,-0.1329833,-0.09289896,0.5630555,-0.4320937,-0.3061966,-0.25428,-0.7451072,-0.2125176,0.7759507,-0.8063364,0.7023242,0.1942979,-0.5388272,-0.3019544,-0.1216451,0.1084119,0.6679249,-0.5554776,0.568841,0.6735575,0.9774272,0.8366699,-0.6525702,-0.3346928,-0.8778834,0.384295,0.9384661,0.1830853,-0.04755986,0.4874837,0.2600228,-0.3633233,0.7574899,-0.5403054,-0.1161143,0.7510753,0.1860448,0.3807923,0.07496417,0.2306627,0.8118334,-0.4107202,-0.1648608,0.7659714,0.6129408,0.7821705,0.5863717,-0.05904043,0.7719975,-0.2839266,-0.2579697,0.02760899,0.862076,0.1995965,0.8361244,-0.8452353,-0.2373809,-0.8447173,-0.6262348,-0.3059241,-0.9940679,0.7449975,0.03461587,-0.9241514,-0.2390605,-0.8229892,0.4479012,-0.4747134,-0.08066356,0.4001507,-0.8063607,0.01558244,-0.01580131,-0.4480377,0.4097197,0.1577717,-0.2209889],[0.7024276,-0.7723904,0.3590643,-0.5728705,0.8815169,-0.105872,0.6347444,0.3885398,0.4866788,0.1308059,0.5845015,0.7920961,-0.131313,0.727999,0.7517593,-0.3627468,0.5340087,-0.371508,0.6582782,-0.2338902,0.5185013,-0.690263,-0.3862864,-0.7053242,0.6660056,-0.858048,-0.993217,0.1983315,0.9156559,-0.9096925,0.9105501,0.4467461,-0.9220924,0.7246022,-0.7769074,-0.6358998,-0.003669143,0.6109097,-0.2443737,-0.5900877,0.6150334,-0.5740047,0.03399384,-0.1571201,-0.8038847,-0.9640961,0.7090874,-0.3072599,0.0004678965,0.354033,0.8093765,0.07508194,0.6166894,0.742799,-0.846138,0.03260338,-0.4050936,0.9771881,-0.6466334,0.5486758,0.143279,0.4746611,0.920799,-0.9780934,-0.2888325,0.1480023,-0.8831558,0.4921004,0.4374413,0.8827715,-0.1433254,-0.3589181,-0.2956198,-0.1180099,0.6250489,0.131534,0.8201962,0.266505,0.2128514,-0.529443,-0.7993817,-0.5907183,-0.7531576,-0.9851847,0.1002129,-0.2632672,-0.2245189,0.3085224,0.5664511,0.8264809,0.05703461,-0.8039281,-0.8919783,-0.01991618,-0.5340188,-0.2080797,-0.9658017,-0.2517792,-0.2239145,0.3872451,-0.8513038,0.26668,-0.02574241,0.02322853,0.2694506,-0.6305063,-0.5789428,0.1209358,-0.4708182,0.8049266,-0.5285656,0.05436409,-0.7170737,-0.8797162,-0.2250127,0.1871387,0.5797384,0.06963456,0.1742569,-0.5795388,0.8537004,0.8676872,0.6482487,-0.5475419,0.5557144,-0.252169,0.0236758,-0.7370782,0.9162564,-0.4761039,0.9123757,-0.5451238,0.2241858,-0.3150183,0.2749538,0.4210243,-0.9474075,-0.6495187,0.9108725,0.5482385,0.2008566,0.1801502,-0.6688914,-0.4241048,0.5178041,-0.7358029,-0.8700533,-0.7056241,0.9300928,-0.2115439,0.5049164,-0.3554195,0.4229397,-0.1335689,0.9793031,0.3709337,-0.2513338,-0.4705983,0.9831464,0.1707639,0.3481376,0.2143902,0.5722148,0.5167885,-0.2702175,0.6494606,0.9115176,-0.9950254,0.2568502,-0.7498999,0.6238372,-0.8873365,0.5593963,0.6234312,0.9784009,-0.4123434,0.2262253,0.03248274,0.12371,-0.4464253,-0.486699,0.6126962,0.8540683,-0.004562974,0.3671477,-0.5101619,-0.2308897,0.929637,0.1793834,0.3821225,-0.9545178,-0.2926546,-0.7801609,-0.5775025,0.2470208,-0.9275994,0.5311644,-0.771049,-0.4250537,-0.09698951,0.686919,0.07770669,0.6268013,-0.2294964,-0.8641694,-0.9305799,-0.2194687,-0.1943947,0.2835815,0.380804,0.2644422,0.4451174,-0.6368892,0.147194,0.4812958,0.5777345,0.6343315,-0.9538758,0.2563376,0.1470414,0.106393,0.3163194,0.04756272,0.05333769,-0.4744362,0.103798,0.3836901,0.2570591,-0.3692211,0.9302123,-0.6448789,0.4709034,-0.8701413,-0.7085884,0.4474137,0.3031571,0.3129496,0.8264551,0.01403534,0.6575017,-0.9599931,0.3081441,0.6098971,0.6843252,-0.7043154,-0.7917569,0.392132,-0.01994598,0.3330269,-0.3696741,-0.760622,-0.2933227,0.6607721,0.7188897,0.9236248,0.3183031],[-0.6547427,-0.4038762,0.1546482,-0.0389415,0.4432492,-0.2141458,-0.4094194,-0.5592682,-0.8927536,0.3605756,0.5952857,0.7121117,0.2838506,0.9791353,0.1758918,0.1460148,-0.6848009,0.5324023,0.1795877,0.1602148,-0.9083428,-0.4657241,0.7206945,0.3314202,-0.7948089,0.9707658,-0.3763231,-0.07421672,-0.2707816,-0.8159242,-0.3382701,0.1001745,0.4097323,0.890053,0.2815575,-0.3921167,0.01150143,0.891665,0.7304015,0.0975951,-0.7244272,-0.2964188,-0.3576373,0.8035021,0.3546498,0.1868857,-0.1329981,-0.2798492]],[[-0.981164,-0.05153191,-0.7633615,0.6998799,-0.1147941,0.9335477,-0.6794765,0.7160718,0.9578567,-0.6778917,0.01817882,0.489949,-0.8643498,-0.6763971,-0.7549567,-0.01711142,-0.8630435,0.9617443,-0.8977597,-0.1041168,0.730284,0.4699213,0.977792,0.1718704,-0.998507,-0.4097513,0.5416875,0.2502656,-0.9857001,0.2458214,-0.8565395,-0.6638703,-0.03187096,0.7659287,-0.5476906,-0.8082614,-0.09179056,0.7766914,-0.53352,0.1040107,-0.6495912,0.6011503,-0.9907513,-0.7990925,-0.6863286,0.8541498,-0.5425174,0.7974801,0.5158756,-0.9514503,0.6612697,0.3236198,-0.6146173,-0.5790017,-0.02812564,0.7744222,0.9706914,0.6086953,-0.1334904,0.6019394,0.9526269,0.7293756,0.3582718,-0.8780224,-0.8382919,-0.5740921,0.1170021,0.3911564,0.2716992,-0.6777344,0.9819183,-0.2274486,-0.4146048,-0.8622937,0.6831114,0.4958155,-0.1693958,-0.5137594,-0.3082224,-0.5164957,0.9105756,0.8471227,-0.7535508,0.4118445,0.502311,0.482203,-0.3883983,-0.7153752,0.1829585,0.5629475,0.5922034,0.2837085,0.7700732,-0.9343467,0.8399897,0.583118,-0.8009915,0.1620067,0.4590509,0.05751002,0.2202805,0.9360569,0.6857238,-0.506325,0.3673005,-0.9673181,0.3629796,0.09529793,0.4540529,0.6024969,0.6771166,-0.4893228,0.3913023,0.1077436,0.7105408,0.2094833,-0.3166271,0.4384527,0.2837777,-0.974041,0.1148916,0.2443241,-0.3857328,0.4721255,0.03089368,0.7815354,-0.9011016,0.1550101,-0.8773971,0.8340583,-0.9317012,-0.6896684,0.9542806,-0.5357223,-0.4839011,-0.2660147,0.5217791,0.8307736,0.8074536,-0.8694448,-0.751538,0.997884,-0.6647892,0.7619712,-0.9688396,-0.9441934,-0.882447,0.9843857,0.5438278,-0.5094306,0.15951,-0.4354793,-0.485999,-0.9478476,-0.4637173,-0.2807871,-0.1583732,-0.5152745,0.9416153,0.9825017,0.9500155,0.4470594,0.5202861,0.1585869,0.2189826,0.8565111,0.02153099,-0.8521512,0.3805756,0.5309181,0.6296005,0.7153933,0.4038508,0.2651982,0.4605601,0.3293318,0.7854197,-0.4271446,-0.3389732,-0.7157671,-0.2389911,0.2833423,0.6740417,-0.2668184,-0.8171821,0.5619359,-0.7065587,-0.4699503,0.2985725,-0.7542922,-0.4740404,-0.9342041],[-0.5724995,-0.3783218,0.05486572,-0.2172769,0.5765603,-0.1039225,0.8489048,0.362257,0.1321565,-0.3453993,-0.783926,-0.8211102,0.7890468,0.9040821,-0.9845281,0.3193717,0.006996751,-0.6026814,-0.287423,0.219262,-0.7000015,0.5692842,0.5685682,-0.03927147,-0.9654567,-0.6957295,-0.5760312,-0.349671,-0.4891263,0.3867871,0.1019551,0.7763927,0.06399119,0.7731016,-0.9234354,-0.3918833,0.3829288,0.2140921,0.516968,0.1191183,0.02964485,0.47563,-0.02928483,0.4075164,-0.8428314,0.4840021,0.4606013,0.5294616,0.7024012,-0.3432475,0.3057954,0.8611441,0.9638171,-0.2247204,0.7402754,-0.6303029,0.6471181,-0.667268,-0.3748938,-0.7721386,0.02055681,-0.389768,-0.6354682,0.6748939,0.997134,0.5291574,-0.822648,-0.7778764,0.6305189,0.1973978,-0.3700138,0.7642906,-0.908813,-0.5943992,0.8768048,-0.1751438,-0.8168859,-0.7183414,0.6173182,0.6590986,-0.06292784,0.5125947,-0.3801891,-0.7677562,0.2691114,0.08800423,-0.1055273,-0.2704061,-0.5877306,0.4832933,0.8793716,0.7674897,0.4768412,0.8903935,0.5710747,0.4047789,0.09461153,-0.9403892,0.5573726,-0.2325143,-0.3551811,0.801605,0.8627152,-0.3041223,0.3350417,-0.1829537,-0.6733451,0.320657,-0.6297431,-0.5485055,-0.04698169,0.6828885,0.08204353,0.7244437,-0.1420373,0.9381945,0.5937586,0.8997264,0.02262914,0.9272857,-0.7625642,-0.334381,-0.9034746,-0.7594273,-0.642,-0.2720743,-0.951833,-0.5375724,-0.1493858,0.02786553,-0.302241,0.9483428,0.7242918,-0.5860736,-0.3199567,-0.8533759,0.2937827,-0.6656818,0.7711403,0.2490724,0.6901026,0.11263,-0.2308203,0.9682221,0.07716382,0.5715406,-0.3093351,-0.4875759,0.5852351,0.7009995,0.9695168,-0.7676272,0.6641097,0.2056309,0.05096328,-0.3370911,0.3777597,0.4447627,0.7216303,-0.5339379,-0.7195985,0.5711403,-0.5988667,0.4898593,0.1014417,0.5486147,-0.1634473,0.8924463,0.05332506,0.2328869,-0.07444036,-0.9208515,0.9548757,-0.5007212,0.6395669,-0.5420194,0.08980381,-0.06238067,0.7537909,-0.5635712,-0.3573111,-0.5362761,-0.3385242,-0.4792649,0.9805632,0.3320279,-0.9982321,0.3155257,0.1697916,-0.8694866,0.9540255,0.9835501,-0.5870678,0.9415991,0.8012426,0.4766366,-0.8156729,0.1195854,0.4662933,0.7687581,0.7456756,-0.2934166,0.8273878,-0.09321463,-0.1215702,0.4865248,0.1944171,-0.5907862,0.9512622,-0.7129381,-0.5191514,0.2904803,0.4734451,-0.7000279,-0.1861771,0.6132166,0.9332914,-0.6574709,0.3299989,-0.03696811,-0.3750552,0.221464,-0.7018633,0.939002,-0.8612127,0.5520139,-0.8817096,0.3342855,-0.1844963,-0.8183036,-0.6695871,-0.6912758,-0.1502873,-0.4452184,0.8968012,0.4481358,0.8356566,0.9775448,-0.1061758,-0.8554771,0.589992,-0.467981,-0.3204678,0.2705681,-0.7568307,0.5944476,0.2672195,-0.3057598,0.3558376,0.9542184,-0.4076394,0.5493393,-0.05005062,-0.008523822,-0.05301726,0.4685676],[-0.124375,0.244923,-0.1916691,0.3741646,0.1007494,0.007532001,0.9252422,-0.6101325,-0.5982924,0.2417194,0.2383593,-0.2327563,-0.396403,0.7888057,-0.2849241,0.4152281,0.9240401,-0.4199215,-0.9422178,0.9489501,-0.4731532,-0.07503855,-0.1927663,0.1395277,0.3912086,-0.7015171,0.2958784,0.3220725,0.9757249,-0.1579369,-0.4862972,-0.4141876,-0.651454,-0.870405,-0.1405891,0.9557652,0.4006281,-0.1807467,0.4046867,0.7716172,0.415935,-0.3824991,0.04701746,0.6090291,-0.02041137,-0.7007859,0.1849197,-0.5516031,0.8840544,0.008067489,0.7804658,0.8451569,0.3133988,-0.6779926,-0.9806736,-0.9673517,-0.8987386,0.1892244,0.8820076,0.1492463,-0.6618586,0.6652007,-0.3910726,-0.2999905,0.3077466,0.2335197,-0.7792816,-0.5219083,-0.1309875,-0.6754165,0.4910392,-0.7364187,0.799113,-0.8201723,0.5723269,-0.03612483,0.7909012,0.8268111,-0.3791541,0.2766521,0.8956487,0.3804218,-0.9445794,-0.279344,0.779176,0.3314748,0.7710524,0.3243046,0.7129939,-0.3297526,0.4667504,-0.5392423,-0.7238896,0.5466363,0.2092091,-0.3575202,0.9642129,-0.7812817,0.3851359,-0.1572205,0.7003052,0.5554912,0.4649372,0.5510852,0.1659347,-0.8617542,-0.1567274,0.5339668,0.1872205,0.1151661,0.9096498,-0.6165874,-0.1844269,-0.7209971,0.5184534,0.7696633,0.1258401,-0.4146153,-0.4375509,-0.6941085,-0.2462898,0.6531277,0.3943007,0.7330317,-0.5973907,-0.1930624,0.05368245,-0.2835704,0.03087413,0.8314118,-0.4186498,-0.7063336,0.9767528,0.02634847,0.1517881,0.5207098,0.6136103,-0.4017528,0.7295625,-0.9067724,-0.8519001,0.3708977,0.8169527,0.06371415,-0.1810929,0.698442,0.7160561,-0.8643224,0.6943128,-0.4607824,0.2630441,-0.07643974,-0.7733161,0.2951936,0.3584094,-0.9531271,-0.1082333,0.9226789,0.106836,0.04525602,0.7879565,0.4950924,-0.723695,-0.5713401,0.9544878,0.8147154,0.7992592,0.09216011,-0.65324,-0.01479638,0.2822733,0.946934,-0.403675,-0.9081028,0.7460313,0.1421036,-0.4492079,0.3764274,0.4991231,0.8068211,-0.08253276,-0.5740974,-0.3134381,0.6718802,0.6397631,-0.1504787,-0.1716484,0.2626254,-0.4799942,0.1673979,0.94857,0.571698,0.4992048,0.7829437,0.3834605,-0.8319957,-0.02004397,0.2574172,-0.1622869,0.06132019,0.5952804,0.6694598,0.5184875,0.4087224,0.5161607,-0.3200454,0.361176,0.6039729,-0.4652613,0.9799881,-0.507705,-0.08496344,0.7284367,0.4914555,-0.7035315,0.4221842,0.3085687,-0.01357496,0.06491101,0.3727061,0.2332531,-0.05772984,0.977051,-0.007314563,-0.3885623,-0.9358079,0.8858507,-0.8581777,0.2542979,-0.7681053,0.3786423,0.7384334,-0.6769459,0.182582,-0.2116648,-0.3178207,0.9087827,0.9348235,0.6571133,-0.2534529,-0.6143551,0.914659,0.3229198,0.7969763,-0.6560957,-0.9208627,0.6182034,0.8223093,-0.04526842,0.1357585,-0.3530277,-0.2566198,-0.2198828,0.3068061,0.509995,-0.143119],[-0.8217661,-0.7392335,-0.7737863,-0.1292754,0.02187288,0.7104313,-0.6242588,-0.2291785,-0.5994871,0.2141663,-0.2113663,-0.1369423,-0.00698173,0.7559621,0.3770826,0.6156371,-0.5805392,-0.7001321,-0.2480124,-0.6208727,0.9040494,0.5268426,-0.4112657,0.6486106,-0.1963927,0.2554233,0.8622496,0.2181584,0.542304,-0.004729629,-0.3084246,0.4477691,-0.7960498,-0.5231278,-0.5115299,-0.2324439,0.8406188,0.04520547,0.7804608,0.1365424,-0.2747239,-0.8776686,-0.8069968,0.7689967,-0.6660686,-0.2803429,0.3009336,-0.7845418,0.1545511,0.9576623,-0.5675464,-0.9656322,-0.3756036,-0.809356,0.6405818,0.7419965,-0.8986554,-0.2064396,-0.1338717,-0.8610864,0.7121742,-0.7008991,0.6600645,-0.7986257,-0.5977094,-0.884321,0.04943049,0.2464894,0.07813346,0.1571528,-0.839843,0.09674466,-0.7739058,0.8133676,0.871114,0.5490105,-0.06834519,-0.006869435,0.4471836,0.05069864,0.03758085,-0.5433993,-0.4731008,-0.6793234,0.3950474,0.2530448,-0.6510677,-0.4087011,0.6749098,0.8799443,-0.6814563,0.09447682,0.1646649,-0.8793507,-0.8368871,0.1365634,-0.6042449,0.4209389,-0.0381211,-0.0359751,0.956075,0.1142343,-0.2273899,-0.83865,-0.5832222,0.8787546,-0.9548416,-0.8786805,-0.9081352,-0.3867005,-0.9662828,-0.5785706,0.9910746,-0.7272437,-0.860785,0.1763428,-0.9589818,0.3484859,0.7314656,-0.5932817,0.9047613,0.605351,-0.5517316,0.9677815,-0.9910362,0.7772059,0.2481524,0.474792,0.8528116,-0.0888387,0.9318879,0.2568903,-0.5227976,-0.8386633,0.7540002,-0.07963669,-0.9007156,0.6985872,-0.5734987,0.4285462,0.4852409,0.5665324,0.7380173,0.2896366,-0.9317544,-0.3685936,0.3678026,0.542021,0.8293588,0.01809347,-0.2550355,-0.4657389,0.08212006,-0.7672477,-0.5158906,0.5370557,0.7655871,-0.5393205,0.0468024,0.8411565,-0.5911696,-0.5983243,-0.7953751,0.5082459,-0.8789008,0.08181655,0.9201488,-0.8058488,-0.2491263,0.1527401,0.8981812,0.4950661,-0.8602345,0.846498,-0.8895276,-0.8079371,-0.8527932,0.6171763,0.01171339,0.03488886,0.6040337,-0.799818,0.2749102,0.5282462,-0.04458058,-0.6522484,0.3727641,-0.04136503,0.2471725,-0.1786262,-0.9115763,0.988142,0.4978149,-0.1022938,-0.6654663,-0.3296949,0.4468984,0.5273724,-0.6803997,0.8383508,0.5780818,0.1718403,-0.1626984,0.04166758,0.6644299,0.2677917,0.7256293,0.1035222,0.3246171,-0.980221,-0.1264864,0.3321933,0.1686503,-0.3775579,-0.8577275,0.4490485,0.3941786,0.9510608,0.03717458,-0.2613453,0.08160365,-0.1394628,-0.6299202,0.2971227,-0.07278311,-0.7471209,-0.6259429,0.7733696,0.181496,0.003409505,0.5740068,0.825356,-0.2740525,-0.6978137,0.05130255,0.6246641,-0.8359537,0.6195948,0.8542848,-0.1784505,-0.1647934,-0.1312331,0.5929253,0.3245792,-0.507494,0.7645278,0.03239501,0.2971744,-0.8206236,-0.8478656,-0.7971983,0.1743568,-0.8567691,0.7326915,0.1002041,-0.1792315],[-0.5869825,-0.7339489,0.6502595,0.9728158,-0.7755463,-0.3650817,-0.6098714,0.55071,-0.835119,-0.7879722,-0.4117464,0.7770109,-0.7420545,-0.7350733,0.3480944,0.4690995,0.9359269,0.6842582,0.3922527,-0.6211467,0.6849675,0.1744469,-0.7428062,-0.5434444,-0.8638272,0.04835355,-0.4810547,-0.3830413,-0.3277372,-0.5967481,0.8490462,-0.3986777,0.8312263,0.86834,0.408803,0.5866137,-0.263333,-0.5098982,0.4365546,-0.2140697,-0.6087153,-0.693645,0.04241312,-0.9551754,-0.3690103,-0.324392,-0.6902885,-0.07616723]],[[0.1011895,0.748513,-0.4209985,-0.02749431,0.1606127,-0.7890661,-0.9955318,0.7570171,0.9543734,0.4940524,0.8381171,0.2904706,0.4270258,0.5480015,-0.3285671,-0.6239669,-0.4744323,0.03113639,0.3114085,0.9537559,0.8542352,0.6562057,-0.8233671,-0.4394785,0.6882203,0.2087871,0.2382859,-0.1649209,-0.06701815,-0.6801527,-0.3522264,-0.6668637,0.2148234,-0.304381,-0.976382,0.2345933,-0.002241015,0.07015622,0.6534274,-0.02156007,-0.6020772,0.3473417,-0.8887281,0.1150092,-0.6395116,0.8888345,0.3626277,-0.3714913,-0.9397159,0.2987687,-0.04570663,0.7460866,0.791642,-0.4810632,-0.52109,-0.2330693,-0.9133193,0.5962179,0.439218,-0.7002773,-0.7074537,-0.001955152,0.2009369,0.1293942,-0.6086624,-0.2235047,-0.4628366,-0.2936801,-0.7485113,0.5834816,-0.1789523,0.2104126,0.8829434,-0.06857455,-0.7960572,-0.4979397,0.4294827,-0.7204463,-0.1917964,0.6826179,0.6847079,-0.4496261,0.7851474,-0.9701078,0.4656346,-0.2803892,-0.5173042,0.6770387,-0.257104,-0.8195121,0.8694713,0.7260339,-0.6984587,-0.43358,-0.8060863,-0.1803812,0.240939,-0.7926664,-0.5645127,0.8231633,0.1644109,-0.07289612,0.5905845,0.4424638,0.4852352,0.8836017,-0.9319203,0.480745,-0.9406254,0.5581298,0.4670617,-0.5240307,0.3835611,-0.3884519,-0.6867497,0.2663233,-0.6451545,0.7960489,-0.769268,0.2383302,0.9454339,0.6835749,0.419193,0.1429423,0.8386319,0.547303,-0.7532341,-0.0908128,0.3536777,0.0143851,-0.3298491,0.2662368,0.2382826,0.7552929,-0.8273094,0.4323303,0.6652369,-0.8178258,0.4331209,-0.0009356737,0.482799,-0.2512037,-0.1118857,0.1854511,0.8630571,0.4802346,-0.943747,-0.1093479,-0.5908952,-0.07149518,0.2745249,-0.6065702,-0.370138,-0.02151453,0.4347727,-0.4972254,-0.2751957,0.1353544,-0.0370692,-0.7429295,0.6366138,-0.2478768,0.1548768,-0.7675884,0.325257,-0.3198441,0.8893414,-0.266194,0.07741463,0.1179754,-0.2435259,0.5927393,-0.3190528,-0.2829577,-0.7984164,-0.2339004,0.1094915,-0.3860325,-0.08726585,0.4580645,-0.1587886,-0.9369631,0.7175097,0.5632255,0.3293438,0.5258405,0.665328,0.8537543,-0.4256636,-0.1739675,0.2865834,0.3174724],[-0.5730672,0.7170088,-0.1427125,-0.9234879,0.879492,0.5791998,-0.04072535,0.6504593,-0.1628598,-0.1610547,-0.9330151,-0.6574759,0.06962407,0.6685548,-0.7246873,-0.7050331,0.245351,-0.2262186,0.5584557,-0.739368,0.8034823,0.8185804,0.09703982,0.6245666,-0.5839953,-0.03202546,-0.1717662,-0.07985389,0.8535008,-0.7879925,0.1944674,0.02053225,-0.3693773,0.1886798,-0.9751227,-0.7468133,-0.4558505,0.1514999,-0.1696943,-0.5695169,0.2772615,-0.5359561,-0.9298344,-0.300212,0.7574487,0.8591347,0.7137918,0.5937681,-0.1558658,0.6268849,-0.7079663,-0.3904017,-0.9630971,-0.9323468,-0.02238667,0.3437073,0.651906,-0.03628838,-0.9582565,-0.2566735,-0.09249294,-0.9144711,0.02275264,-0.8581402,0.8086362,0.1575164,0.5412395,-0.17565,-0.7662053,-0.665643,-0.6801779,-0.9588418,-0.7247789,-0.2104927,0.6476061,-0.7978978,-0.1442937,0.5398912,0.6811512,-0.1815335,-0.4353887,0.7143219,0.08803308,0.3511283,0.8260963,-0.06726491,0.146603,0.1641592,0.4583835,-0.5286856,-0.5545101,-0.6971359,-0.5328264,0.4555795,-0.8528557,0.5318997,-0.2316233,0.4167087,-0.7566881,-0.9988623,-0.8786347,0.7928977,-0.1113657,-0.007994533,0.6417608,0.02402937,-0.3275527,0.9068861,0.002239823,0.5576456,0.2703602,-0.434059,-0.8127315,-0.717757,-0.691221,-0.006293178,-0.3411051,0.797919,-0.9524839,-0.3457807,0.4015691,-0.4673058,-0.7766092,-0.2871104,-0.7176657,-0.3007756,0.9169371,0.775924,-0.1867446,-0.6517301,-0.7243242,-0.471974,-0.898212,-0.3055187,0.2189015,0.6134825,0.6149526,0.876801,0.00084126,0.0537585,-0.5930533,-0.2263883,-0.9141469,-0.00881803,-0.2593518,-0.09313262,0.07776201,-0.3842632,0.245438,0.2056504,0.1439289,-0.9387541,0.9569016,-0.5527539,-0.1899134,0.09866226,-0.6635137,0.4765727,-0.3513252,0.6619346,0.5149114,-0.6648371,-0.151153,-0.1160325,0.9107988,0.8008106,0.3071143,-0.7818639,0.06543243,-0.5421681,0.32127,0.2702901,-0.5707588,-0.9584105,-0.2898043,-0.7357349,-0.5267246,-0.4132634,-0.5617106,-0.3598226,-0.3149377,-0.9030535,0.4328432,0.4840159,-0.8730397,-0.5176671,-0.4968702,-0.6777318,-0.2909697,0.8058434,0.7848537,0.06007016,-0.2103921,0.2435826,0.1614162,0.2036215,0.703824,-0.2480439,0.9172168,0.6989326,-0.6708286,-0.3765229,-0.1974312,0.4404614,-0.5689116,0.1644543,-0.8225152,0.6495161,-0.6006539,0.9164627,-0.4542273,0.6071973,0.8152428,0.1853493,-0.1256789,-0.9505339,0.1790372,-0.03810847,-0.4001948,0.6748145,-0.7666857,-0.4040872,-0.4091638,-0.9241731,-0.5117247,0.7156239,-0.3960115,0.4982052,-0.2723438,0.7016895,-0.8484459,0.3927335,0.8960929,-0.7921259,-0.6968017,0.2310749,0.6409924,0.5601323,0.4271209,-0.2356125,-0.2568449,0.9432998,-0.4549192,0.2913751,-0.4501201,0.5124576,0.2313293,-0.1779801,-0.1661695,0.09871614,0.5609813,0.1066047,0.8050244,-0.009160638,0.2844495,0.2780478],[-0.5280294,-0.5945759,0.05413711,-0.3127385,-0.596648,0.2574377,-0.6223786,0.2301837,0.3332195,0.06161511,0.9150579,-0.224775,0.9004757,-0.7876937,0.8047347,-0.3593444,-0.54019,0.9879839,-0.4934107,0.7860467,-0.5948913,0.6857955,-0.7456708,0.9482927,-0.4645377,-0.993361,-0.6265504,0.260374,-0.03292358,0.07476008,0.8174036,0.9976754,0.9854665,-0.20813,-0.559309,-0.05363739,0.06145394,-0.1883827,-0.8099432,-0.2929975,0.8830967,-0.8428652,0.9268658,-0.9362574,-0.07888782,0.9056802,-0.7656317,0.9795482,-0.5798986,-0.1543077,-0.5437717,0.6584299,-0.8468268,-0.3741044,0.1483623,0.5331421,-0.3426803,-0.04440916,-0.3538483,-0.7392828,0.8620429,-0.06503999,0.9392216,0.1482612,0.1214381,-0.0225755,0.3538036,0.7586508,0.1967477,0.7441609,0.09069192,-0.1389073,-0.5170953,0.4700494,0.3095755,0.425091,-0.2148679,-0.4368325,0.4405293,-0.7432306,0.6931481,0.9741399,-0.4261669,-0.6191134,-0.6172116,0.4605469,-0.7223697,-0.7075908,0.6083443,-0.1440545,-0.9418964,-0.4132184,-0.8273649,0.8006408,-0.6573172,-0.1399211,0.7852521,0.7642765,0.5282185,-0.9233103,0.802247,0.1894637,-0.4016665,-0.01480877,0.6004021,-0.08702576,0.9857275,-0.9113479,-0.8331268,-0.02649915,-0.5114384,0.6925266,0.8428297,-0.518564,0.8978086,0.3520245,0.4273109,-0.3961188,-0.7800212,-0.1421713,0.5982528,0.4770734,0.9004147,0.6108019,-0.6826518,-0.427636,0.05982864,0.6574526,-0.2220684,-0.896199,0.466659,-0.3651367,-0.05391419,0.3045985,0.2099494,0.7296872,0.8935368,-0.4424914,-0.1935188,0.9806235,-0.2130672,-0.9767504,-0.5907867,0.5596552,-0.8971314,-0.3845288,0.6192455,-0.7959428,-0.1322891,0.2621443,-0.04374421,-0.5792384,0.914228,0.6795511,0.2833085,0.3463773,0.3966698,0.0792321,0.3705361,0.06742322,-0.9666624,-0.3132108,0.7385337,-0.8584726,-0.8510263,-0.4902073,0.2214252,-0.9292247,0.6423292,-0.9751225,-0.7810936,0.1499397,0.2255541,0.2042149,-0.8431113,-0.5952442,-0.05623901,0.1702477,0.05578554,-0.1260508,0.2929601,0.4780364,0.5890422,-0.4797286,0.2347869,-0.5048628,-0.7875159,-0.7718742,-0.8822608,-0.4512383,-0.282895,0.9659622,-0.5740678,0.9259689,0.8168192,-0.9609504,-0.7747769,0.4578499,0.4648611,0.1812938,-0.5647595,-0.8371041,-0.1853796,-0.6843035,0.7099733,-0.5016103,-0.2186781,-0.2203408,-0.6331928,0.5839186,0.9456265,0.6657484,0.08006299,0.773999,0.7255504,-0.3322092,0.6489279,-0.3256851,0.767349,-0.3630773,0.9322219,0.9183836,0.5261807,-0.7899003,-0.9174757,0.6329324,-0.5128992,0.147467,-0.07388794,-0.436654,0.6651886,0.701426,-0.6655681,-0.174606,0.603905,0.9431646,-0.4728059,-0.5727794,0.5425625,0.3217313,-0.3655771,0.9663837,0.069646,-0.4067377,-0.9512231,-0.2148749,-0.8889472,-0.07712162,0.7920454,-0.9273765,-0.631465,0.3942456,-0.4137794,-0.8607635,0.9757664,-0.2615513],[-0.7448456,-0.9783442,0.4745252,-0.8540502,-0.7389815,0.8623066,0.5334127,-0.1227807,-0.9452116,-0.1267854,-0.5812447,0.7283096,0.4487714,-0.4596742,-0.02913129,-0.595742,-0.9970279,-0.3404723,-0.3740526,0.7625651,-0.9779305,-0.7521784,0.6582708,-0.116079,0.0004402399,0.5747764,0.2702665,0.8552108,0.7646937,0.2049788,-0.6306539,0.5789447,-0.8828804,0.2604708,-0.8132102,-0.5544236,0.7741058,-0.1436678,0.3824172,-0.9481301,-0.1565186,-0.6983082,0.3137004,-0.1495742,-0.6693852,0.7478266,0.2775309,-0.8754616,-0.7616053,-0.7250907,0.2110242,-0.3956953,-0.6547272,-0.7082608,0.8161957,0.5579407,0.2637989,-0.7690542,-0.623831,-0.04545343,0.6416276,-0.2739199,0.6295831,0.6881642,-0.2255002,-0.4257416,-0.6013584,-0.7791102,0.05059612,0.06930125,-0.8949294,0.007448554,-0.3233439,0.1154724,-0.7695098,0.9446583,0.2784149,0.2480365,0.2010881,0.5445225,0.4798896,-0.1098734,0.01695144,-0.4877526,-0.9989858,-0.354232,0.5926228,0.6018081,0.1308595,-0.8104131,-0.7508113,-0.02309549,0.4403445,-0.9053237,0.2461561,0.7892125,0.1614555,-0.1973692,0.7414057,0.259803,-0.1206728,-0.01295888,0.8396373,-0.03532588,0.5211382,-0.2813002,0.9172151,-0.1867992,-0.353017,-0.6213067,0.6066329,0.9916501,-0.4271578,-0.9227319,0.1293336,-0.875782,-0.8021441,-0.03983366,-0.4880918,-0.3795789,0.01886284,0.8284125,0.4707465,0.7388477,-0.4307698,0.5721052,0.5822394,-0.4911448,0.711139,0.7417808,0.1413928,0.8602312,0.5876315,-0.01742184,-0.8914969,0.7944472,0.1859576,0.0991329,-0.01558673,-0.3086165,-0.09429204,-0.5040476,-0.05283082,0.218423,-0.345523,-0.2837268,-0.6834135,0.2667541,0.8720541,-0.2756294,0.378823,-0.6243145,-0.02955163,0.4874215,-0.5674264,-0.2462374,-0.401141,-0.3910085,0.4125087,-0.3015121,0.8966684,-0.3547713,-0.9127114,0.3517511,-0.374076,0.9968185,0.1631113,0.03200948,-0.01833093,-0.3536934,0.9091108,0.07049263,-0.2006289,-0.3112336,0.9901004,-0.6012774,-0.2193342,0.04776371,0.6987708,0.7093494,0.2184876,-0.1847752,-0.7361591,0.6969643,0.5694327,-0.2857422,-0.6179669,0.03392875,-0.5688324,0.5315182,-0.5982172,0.04000366,-0.4725884,0.7683525,0.6371708,0.8782811,0.3860371,0.3112879,0.6071374,0.8774152,0.05978239,0.7667928,-0.9637134,-0.1460694,-0.9313471,-0.7492785,-0.2594851,0.275635,0.7746313,0.5439374,0.6075616,-0.7399507,0.8941343,-0.4056607,-0.002195477,0.2966208,0.7518044,-0.2299269,0.6158226,0.3074798,0.7632315,-0.5949037,-0.685164,-0.6903169,-0.1188477,-0.9663048,-0.3968602,-0.01484573,0.579551,0.912365,0.6279111,-0.939975,0.9211845,-0.4728879,0.437592,0.521729,0.3157448,-0.4234399,0.01797664,0.4221244,-0.04584944,-0.8970053,0.08488309,-0.9571764,-0.2745863,0.8358517,-0.8375471,-0.3460242,0.289423,0.2778539,0.05518591,0.4186237,-0.4368676,-0.3040913,-0.7060194,-0.7763021],[-0.5256383,0.08752644,-0.4315635,-0.4571666,-0.9191492,-0.7277231,0.09695137,0.07945478,-0.2485095,0.7574337,0.5027535,-0.3666869,0.08964789,0.2538545,-0.929956,0.3676946,-0.09601843,0.4126579,-0.1480366,-0.2050232,0.8030169,-0.6329353,-0.009618878,-0.7098958,0.9789126,0.5904505,0.009870172,-0.4268833,0.1836749,0.9398699,-0.7735605,-0.4372944,0.4169409,-0.7929132,0.4475438,0.5072746,-0.817035,0.6816456,0.09510911,-0.2772914,-0.2520887,-0.8493268,-0.8595569,-0.4018477,0.1705097,-0.1576151,0.9036875,0.02969825]],[[-0.981164,-0.05153191,-0.7633615,0.6998799,-0.1147941,0.9335477,-0.6794765,0.7160718,0.9578567,-0.6778917,0.01817882,0.489949,-0.8643498,-0.6763971,-0.7549567,-0.01711142,-0.8630435,0.9617443,-0.8977597,-0.1041168,0.730284,0.4699213,0.977792,0.1718704,-0.998507,-0.4097513,0.5416875,0.2502656,-0.9857001,0.2458214,-0.8565395,-0.6638703,-0.03187096,0.7659287,-0.5476906,-0.8082614,-0.09179056,0.7766914,-0.53352,0.1040107,-0.6495912,0.6011503,-0.9907513,-0.7990925,-0.6863286,0.8541498,-0.5425174,0.7974801,0.5158756,-0.9514503,0.6612697,0.3236198,-0.6146173,-0.5790017,-0.02812564,0.7744222,0.9706914,0.6086953,-0.1334904,0.6019394,0.9526269,0.7293756,0.3582718,-0.8780224,-0.8382919,-0.5740921,0.1170021,0.3911564,0.2716992,-0.6777344,0.9819183,-0.2274486,-0.4146048,-0.8622937,0.6831114,0.4958155,-0.1693958,-0.5137594,-0.3082224,-0.5164957,0.9105756,0.8471227,-0.7535508,0.4118445,0.502311,-0.653626,-0.3883983,-0.7153752,0.1829585,0.5629475,0.5922034,0.2837085,0.7700732,-0.9343467,0.8399897,0.583118,-0.8009915,0.1620067,0.4590509,0.05751002,0.2202805,0.9360569,0.6857238,-0.506325,0.3673005,-0.9673181,0.3629796,0.09529793,0.4540529,0.6024969,0.6771166,-0.4893228,0.3913023,0.1077436,0.7105408,0.2094833,-0.3166271,0.4384527,0.2837777,-0.974041,0.1148916,0.2443241,-0.3857328,0.4721255,0.03089368,0.7815354,-0.9011016,0.1550101,-0.8773971,0.8340583,-0.9317012,-0.6896684,0.9542806,-0.5357223,-0.4839011,-0.2660147,0.5217791,0.8307736,0.8074536,-0.8694448,-0.751538,0.997884,-0.6647892,0.7619712,-0.9688396,-0.9441934,-0.882447,0.9843857,0.5438278,-0.5094306,-0.3927351,-0.4354793,-0.485999,-0.9478476,-0.4637173,-0.2807871,-0.1583732,-0.5152745,0.9416153,0.9825017,0.9500155,0.4470594,0.5202861,0.1585869,0.2189826,0.8565111,0.02153099,-0.8521512,0.3805756,0.5309181,0.6296005,0.7153933,0.4038508,0.2651982,0.4605601,0.3293318,0.7854197,-0.4271446,-0.3389732,-0.7157671,-0.2389911,0.2833423,0.6740417,-0.2668184,-0.8171821,0.5619359,-0.7065587,-0.4699503,0.2985725,-0.7542922,-0.4740404,-0.9342041],[-0.5724995,-0.3783218,0.05486572,-0.2172769,0.5765603,-0.1039225,0.8489048,0.362257,0.1321565,-0.3453993,-0.783926,-0.8211102,0.7890468,0.9040821,-0.9845281,0.3193717,0.006996751,-0.6026814,-0.287423,0.219262,-0.7000015,0.5692842,0.5685682,-0.03927147,-0.9654567,-0.6957295,-0.5760312,-0.349671,-0.4891263,0.3867871,0.1019551,0.7763927,0.06399119,0.7731016,-0.9234354,-0.3918833,0.3829288,0.2140921,0.516968,-0.469256,0.02964485,0.47563,-0.02928483,0.4075164,-0.8428314,0.4840021,0.4606013,0.5294616,0.7024012,-0.3432475,0.3057954,0.8611441,0.9638171,-0.2247204,0.7402754,-0.6303029,0.6471181,-0.667268,-0.3748938,0.9109433,0.02055681,-0.389768,-0.6354682,0.6748939,0.997134,0.5291574,-0.822648,-0.7778764,0.6305189,0.1973978,-0.3700138,0.7642906,-0.908813,-0.5943992,0.8768048,-0.1751438,-0.8168859,-0.7183414,0.6173182,0.6590986,-0.06292784,0.5125947,-0.3801891,0.5195606,0.2691114,0.08800423,-0.1055273,-0.2704061,-0.5877306,0.4832933,0.8793716,0.7674897,0.4768412,0.8903935,0.5710747,0.4047789,0.09461153,-0.9403892,0.5573726,-0.2325143,-0.3551811,0.801605,0.8627152,-0.3041223,0.3350417,-0.1829537,-0.6733451,0.320657,-0.6297431,-0.5485055,-0.04698169,0.6828885,0.08204353,0.7244437,-0.1420373,0.9381945,0.5937586,0.8997264,0.02262914,0.9272857,-0.7625642,-0.334381,-0.9034746,-0.7594273,-0.642,-0.2720743,-0.951833,-0.5375724,-0.1493858,0.02786553,-0.302241,0.9483428,0.7242918,-0.5860736,-0.3199567,-0.8533759,0.2937827,-0.6656818,0.7711403,0.2490724,0.6901026,0.11263,-0.2308203,0.9682221,0.07716382,0.5715406,-0.3093351,-0.4875759,0.5852351,0.7009995,0.9695168,-0.7676272,0.6641097,0.2056309,0.05096328,-0.3370911,0.3777597,0.4447627,0.7216303,-0.5339379,-0.7195985,0.5711403,-0.5988667,0.4898593,0.1014417,0.5486147,-0.1634473,0.8924463,0.05332506,0.2328869,-0.07444036,-0.9208515,0.9548757,-0.5007212,0.6395669,-0.5420194,0.08980381,-0.6215699,0.7537909,-0.5635712,-0.3573111,-0.5362761,-0.3385242,-0.4792649,0.9805632,0.3320279,-0.9982321,0.3155257,0.1697916,-0.8694866,0.9540255,0.9835501,-0.5870678,0.9415991,0.8012426,0.4766366,-0.8156729,0.1195854,0.4662933,0.7687581,0.7456756,-0.2934166,0.8273878,-0.09321463,-0.1215702,-0.8553815,0.1944171,-0.5907862,0.9512622,-0.7129381,-0.5191514,0.2904803,0.4734451,-0.7000279,-0.1861771,0.6132166,0.9332914,-0.6574709,0.3299989,-0.03696811,-0.3750552,0.221464,-0.7018633,0.939002,-0.8612127,0.5520139,-0.8817096,0.3342855,-0.1844963,-0.8183036,-0.6695871,-0.6912758,-0.1502873,-0.4452184,0.8968012,0.4481358,0.8356566,0.9775448,-0.1061758,-0.8554771,0.589992,-0.467981,-0.3204678,0.2705681,-0.7568307,0.5944476,0.2672195,-0.3057598,0.3558376,0.9542184,-0.4076394,0.5493393,-0.05005062,-0.008523822,-0.05301726,0.4685676],[-0.124375,0.244923,-0.1916691,0.3741646,0.1007494,0.007532001,0.9252422,-0.6101325,-0.5982924,0.2417194,0.2383593,-0.2327563,-0.396403,0.7888057,-0.2849241,0.4152281,0.9240401,-0.4199215,-0.9422178,0.9489501,-0.4731532,-0.07503855,-0.1927663,0.1395277,0.3912086,-0.7015171,0.2958784,0.3220725,0.9757249,-0.1579369,-0.4862972,-0.4141876,-0.651454,-0.870405,-0.1405891,0.9557652,0.4006281,-0.1807467,0.4046867,0.7716172,0.415935,-0.3824991,0.04701746,0.6090291,-0.02041137,-0.7007859,0.1849197,-0.5516031,0.8840544,0.008067489,0.7804658,0.8451569,0.3133988,-0.6779926,-0.9806736,-0.9673517,-0.8987386,0.1892244,0.8820076,0.1492463,-0.6618586,0.6652007,-0.3910726,-0.2999905,0.3077466,0.2335197,-0.7792816,-0.5219083,-0.1309875,-0.6754165,0.4910392,-0.7364187,0.799113,-0.8201723,0.5723269,-0.03612483,0.7909012,0.8268111,-0.3791541,0.2766521,0.8956487,0.3804218,-0.9445794,-0.279344,0.779176,0.3314748,0.7710524,0.3243046,0.7129939,-0.3297526,0.4667504,-0.5392423,-0.7238896,0.5466363,0.2092091,-0.3575202,0.9642129,-0.7812817,0.3851359,-0.7619088,0.7003052,0.5554912,0.4649372,0.5510852,-0.4571029,-0.8617542,-0.1567274,0.5339668,0.1872205,0.1151661,0.9096498,-0.6165874,-0.1844269,-0.7209971,0.5184534,0.7696633,0.1258401,-0.4146153,-0.4375509,-0.6941085,-0.2462898,-0.8253756,0.3943007,0.7330317,-0.5973907,-0.1930624,0.05368245,-0.2835704,0.03087413,0.8314118,-0.4186498,-0.7063336,0.9767528,0.02634847,0.1517881,0.5207098,0.6136103,-0.4017528,0.7295625,-0.9067724,-0.8519001,0.3708977,0.8169527,0.06371415,-0.1810929,0.698442,0.7160561,-0.8643224,0.6943128,-0.4607824,0.2630441,-0.07643974,-0.7733161,0.2951936,0.3584094,-0.9531271,-0.1082333,0.9226789,0.106836,0.04525602,0.7879565,0.4950924,-0.723695,-0.5713401,0.9544878,0.8147154,0.7992592,0.09216011,-0.65324,-0.01479638,0.2822733,0.946934,-0.403675,-0.9081028,0.7460313,0.1421036,-0.4492079,0.3764274,0.4991231,0.8068211,-0.08253276,-0.5740974,-0.3134381,0.6718802,0.6397631,-0.1504787,-0.1716484,0.2626254,-0.4799942,0.1673979,0.94857,0.571698,0.4992048,0.7829437,0.3834605,-0.8319957,-0.02004397,0.2574172,-0.1622869,0.06132019,0.5952804,0.6694598,0.5184875,0.4087224,0.5161607,-0.3200454,0.361176,0.6039729,-0.4652613,0.9799881,-0.507705,-0.08496344,0.7284367,0.4914555,-0.7035315,0.4221842,0.3085687,-0.01357496,0.06491101,0.3727061,0.2332531,-0.05772984,0.977051,-0.007314563,-0.3885623,-0.9358079,0.8858507,-0.8581777,0.2542979,-0.7681053,0.3786423,0.7384334,-0.6769459,0.182582,-0.2116648,-0.3178207,0.9087827,0.9348235,0.6571133,-0.2534529,-0.6143551,0.914659,0.3229198,0.7969763,-0.6560957,-0.9208627,0.6182034,0.8223093,-0.04526842,0.1357585,-0.3530277,-0.2566198,-0.2198828,0.3068061,0.509995,-0.143119],[-0.8217661,-0.7392335,-0.7737863,-0.1292754,0.02187288,0.7104313,-0.6242588,-0.2291785,-0.5994871,0.2141663,-0.2113663,-0.1369423,-0.00698173,0.7559621,0.3770826,0.6156371,-0.5805392,-0.7001321,-0.2480124,-0.6208727,0.9040494,0.5268426,-0.4112657,0.6486106,-0.1963927,0.2554233,0.8622496,0.2181584,0.542304,-0.004729629,-0.3084246,0.4477691,-0.7960498,-0.5231278,-0.5115299,-0.2324439,0.8406188,0.04520547,0.7804608,0.1365424,-0.2747239,-0.8776686,-0.8069968,0.3514154,-0.6660686,-0.2803429,0.3009336,-0.7845418,0.1545511,0.9576623,-0.5675464,-0.9656322,-0.3756036,-0.809356,0.6405818,0.7419965,-0.8986554,-0.2064396,-0.1338717,-0.8610864,0.7121742,-0.7008991,0.6600645,-0.7986257,-0.5977094,-0.884321,0.04943049,0.2464894,0.07813346,0.1571528,-0.839843,0.09674466,-0.7739058,0.8133676,0.871114,0.5490105,-0.06834519,-0.006869435,0.4471836,0.05069864,0.03758085,-0.5433993,-0.4731008,-0.6793234,0.3950474,0.2530448,0.1468211,-0.4087011,0.6749098,0.5654879,-0.6814563,0.09447682,0.1646649,-0.8793507,-0.8368871,0.1365634,-0.6042449,0.4209389,-0.0381211,-0.0359751,0.956075,0.1142343,-0.2273899,-0.83865,-0.5832222,0.8787546,-0.9548416,-0.8786805,-0.9081352,-0.3867005,-0.9662828,-0.5785706,0.9910746,-0.7272437,-0.860785,0.1763428,-0.9589818,0.3484859,0.7314656,-0.5932817,0.9047613,0.605351,-0.5517316,0.9677815,-0.9910362,0.7772059,0.2481524,0.474792,0.8528116,-0.0888387,0.9318879,0.2568903,-0.5227976,-0.8386633,0.7540002,-0.07963669,-0.9007156,0.6985872,-0.5734987,0.4285462,0.4852409,0.5665324,0.7380173,0.2896366,-0.9317544,-0.3685936,0.3678026,0.542021,0.8293588,0.01809347,-0.2550355,-0.4657389,0.08212006,-0.7672477,-0.5158906,0.5370557,0.7655871,-0.5393205,0.0468024,0.8411565,-0.5911696,-0.5983243,-0.7953751,0.5082459,-0.8789008,0.08181655,0.9201488,-0.8058488,-0.2491263,0.1527401,0.8981812,0.4950661,-0.8602345,0.846498,-0.8895276,-0.8079371,-0.8527932,0.6171763,0.01171339,0.03488886,0.6040337,-0.799818,0.2749102,0.5282462,-0.04458058,-0.6522484,0.3727641,-0.04136503,0.2471725,-0.1786262,-0.9115763,0.988142,0.4978149,-0.1022938,-0.6654663,0.08034098,0.4468984,0.5273724,-0.6803997,0.8383508,0.5780818,0.1718403,-0.1626984,0.04166758,0.6644299,0.2677917,0.7256293,0.1035222,0.3246171,-0.980221,-0.1264864,0.3321933,0.1686503,-0.3775579,-0.8577275,0.4490485,0.3941786,0.9510608,0.03717458,-0.2613453,0.08160365,-0.1394628,-0.6299202,0.2971227,-0.07278311,-0.7471209,-0.6259429,0.7733696,0.181496,0.003409505,0.5740068,0.825356,-0.2740525,-0.6978137,0.05130255,0.6246641,-0.8359537,0.6195948,0.8542848,-0.1784505,-0.1647934,-0.1312331,0.5929253,0.3245792,-0.507494,0.7645278,0.03239501,0.2971744,-0.8206236,-0.8478656,-0.3087929,0.1743568,-0.8567691,0.7326915,0.1002041,0.07290208],[-0.5869825,-0.7339489,0.6502595,0.9728158,-0.7755463,-0.3650817,-0.6098714,0.55071,-0.835119,-0.7879722,-0.4117464,0.7770109,-0.7420545,-0.7350733,0.3480944,0.4690995,0.9359269,0.6842582,0.3922527,-0.6211467,0.6849675,0.1744469,-0.7428062,-0.5434444,-0.8638272,0.04835355,-0.4810547,-0.3830413,-0.3277372,-0.5967481,0.8490462,-0.3986777,0.8312263,0.86834,0.408803,0.5866137,-0.263333,-0.5098982,0.4365546,-0.2140697,-0.6087153,-0.693645,0.04241312,-0.9551754,-0.3690103,-0.324392,-0.03660095,-0.07616723]],[[-0.3283602,-0.2372559,-0.9268782,-0.8190725,0.2739808,-0.7412169,0.6710749,0.08263886,-0.6801021,0.05023205,0.4317262,0.2480258,0.04378068,0.6722083,0.4217164,-0.1865448,0.6647797,0.00691545,0.4677698,-0.07694113,-0.4789826,0.9297712,-0.3942543,0.5288365,-0.5917382,-0.1684233,0.947577,0.1634516,-0.9315822,-0.9958994,-0.399968,-0.7023623,0.5605259,0.4606421,-0.360432,0.1155299,-0.1952761,-0.7617278,-0.4612015,0.2636654,-0.106258,0.1756488,-0.2835699,-0.5384359,-0.2187093,-0.8324313,0.4292357,-0.08439767,0.2724192,-0.677916,-0.7410223,0.3988881,0.6453483,-0.4140006,-0.3356105,-0.2194539,0.3706498,0.1339947,-0.08157957,0.8846545,0.7012665,0.8103666,0.496068,-0.09656036,-0.6089952,0.8549316,0.5894394,-0.001826882,-0.05560005,0.2513985,0.8273571,0.730284,-0.8980868,0.9636154,-0.4538997,0.9465661,-0.5413277,0.8343995,0.1953295,0.836715,-0.5849257,-0.08408535,-0.6659415,0.2036291,0.09633458,0.3468175,-0.7976871,0.2260853,0.422055,0.1001447,-0.647676,-0.8576028,0.9965363,0.8684509,0.0654062,-0.7645841,0.7416747,0.276025,0.4728975,-0.5445786,-0.2611552,0.3567676,-0.425506,0.8806508,-0.09901631,0.3316221,0.4909632,0.0173465,0.113855,-0.8948166,-0.9946558,0.3728068,0.0186125,0.3557887,-0.7379608,-0.6453493,0.1932636,0.4309847,0.06146085,0.5160155,-0.1716732,0.9061649,0.7895415,-0.3733169,-0.3847665,0.2646513,-0.1718785,-0.9682808,0.0375911,0.2038175,-0.5746994,0.1882485,0.04148829,-0.9548335,-0.4450766,-0.3875023,0.8137331,-0.253373,-0.5696239,-0.4407696,0.07857955,-0.07280505,0.08288062,0.2275699,0.2247149,0.3268783,-0.3539752,-0.7262871,0.4056506,-0.6560001,-0.9765708,0.9648604,-0.6849751,-0.5661604,-0.5670831,-0.1374472,0.8241403,-0.6811628,-0.7557287,-0.8661752,-0.6164455,0.9746132,0.3352093,0.09122717,-0.2197987,-0.1090757,0.3603503,-0.4067165,0.1997222,0.2108752,-0.7247198,-0.628895,-0.5561283,-0.2123019,0.3364572,-0.6385515,0.1193641,0.3057754,-0.7343035,-0.5715501,0.3800811,0.3528444,0.4207003,0.1423203,0.4595902,0.2968993,0.6306317,-0.2111655,-0.5632994,0.8061903,-0.5549548,-0.1587991],[-0.1392401,0.8338757,0.4075248,-0.910964,0.06602228,0.5681334,-0.3648628,-0.3093981,0.9568799,-0.9343445,-0.1612424,-0.6698635,0.2222656,-0.3423311,-0.143675,0.5447073,-0.1836032,-0.2601753,0.4992015,-0.7747781,0.8638098,0.7849793,0.6539748,-0.1141945,0.9940095,0.4362139,0.3410196,0.2971189,-0.1205484,0.309952,-0.1113917,0.2652151,-0.3177046,0.8292005,0.8927777,0.07932222,0.05570662,-0.8740153,0.9286356,0.8320384,-0.3661522,0.3132913,-0.3761677,-0.8336697,-0.8726978,-0.8886709,-0.5722234,0.3701575,-0.4221286,-0.227707,-0.9682105,0.815222,0.6083953,0.6356058,0.2000118,-0.3558453,-0.06490052,-0.7032897,0.3355663,-0.9291205,0.2567956,0.5634699,0.5415525,-0.8491127,-0.8233385,0.3645246,-0.5450268,0.1087149,-0.707828,0.7025828,-0.1755711,-0.4969286,0.2505727,-0.871079,0.4565284,0.1432911,-0.988678,-0.671747,-0.07376635,0.5625412,0.9670942,-0.4864551,0.1118754,0.189767,0.6237605,0.5463274,0.9362743,-0.1706306,-0.8388994,0.5513189,-0.4084767,-0.7918911,-0.04389942,-0.4578499,-0.129392,-0.4738306,0.220734,0.6646223,0.1734437,0.9438143,0.7284172,-0.4533571,-0.7271569,-0.3697981,-0.9334173,0.9208827,0.2143079,0.7375932,-0.7759731,-0.1975189,0.3009548,-0.08616269,0.4640743,-0.1116441,0.5294838,0.2379264,-0.5641847,0.07575095,0.392838,-0.4455909,0.1801761,0.4849121,-0.1273543,0.6698208,0.3099281,0.07337701,0.5532472,0.7115929,0.9421692,0.7588484,0.7021713,-0.8478043,-0.3582157,0.4710705,0.738472,-0.4602653,-0.7766886,0.1756192,0.06124556,-0.9995353,-0.641305,0.9162323,-0.6521728,0.8758228,0.5028827,-0.9759526,-0.6620793,-0.2109879,0.8524535,0.7454736,-0.5719142,-0.1213671,-0.3691283,0.5811622,-0.61097,0.09472573,0.09111226,0.5323231,-0.0202359,-0.4848005,0.2501127,0.4884646,-0.3000649,0.999903,-0.7669656,0.9600136,0.1671304,0.1140429,-0.008746266,-0.2646562,0.5774205,0.8529885,0.3559835,0.8349867,-0.7986331,0.4892387,0.2181524,0.3074209,0.441602,0.5993807,-0.7436638,-0.1685597,-0.9124625,-0.05040061,-0.686723,-0.2545086,-0.1286148,-0.9773719,-0.8233783,-0.750474,-0.8264637,-0.92959,0.2592084,-0.7372305,0.9819798,-0.2871948,-0.9832299,0.4760272,0.6876392,0.9776428,-0.8119423,-0.1991976,-0.803298,0.5311666,0.1828328,-0.1402134,0.993629,0.6937759,-0.9794114,-0.7323198,0.8444662,-0.747683,0.8263307,-0.6538398,0.4819834,-0.7504199,0.1360995,-0.3394836,0.4002716,-0.7061734,0.5826542,-0.355523,-0.0485543,-0.185315,0.1159257,0.9362335,-0.5642474,0.5394413,0.7733192,0.3247325,-0.2848197,-0.5287964,0.7301977,-0.4658836,0.1398534,-0.9443192,0.2650807,0.4325146,0.6698489,0.115887,0.9027057,-0.9570155,-0.4309887,0.2049061,0.05363476,-0.7305954,-0.0341996,0.8127899,-0.8788509,0.9988041,-0.9440584,0.2134839,-0.8333554,-0.6488316,0.7286127,0.4888186],[0.1462988,-0.06688654,0.6378038,0.9826932,-0.4821872,-0.6643806,-0.6255093,-0.7372818,0.9063642,-0.9854074,0.5538404,0.4087233,-0.8797708,-0.1240367,0.398431,-0.1580473,-0.8129895,0.006178498,0.789459,0.2688639,-0.4898087,0.4684424,-0.8154371,0.9074485,-0.3049399,-0.6067715,0.8217609,-0.8048091,-0.6952071,-0.3884131,0.5336046,0.1597377,-0.7118185,-0.7623928,0.5976675,0.6259804,0.9946325,-0.8588908,0.0742625,0.04801214,-0.5317211,-0.4745568,-0.272869,0.1531051,-0.2233793,0.4038684,0.08148563,-0.5622032,-0.5774112,-0.5226774,0.6120875,0.5610721,-0.1767138,0.7494359,-0.9239562,0.3249671,-0.1075765,0.01081669,-0.03708899,0.6684217,0.6739016,-0.5545311,0.5572495,-0.367968,-0.8007932,0.01824439,-0.7206771,-0.6234062,-0.2084597,0.3320641,0.1992649,0.8887866,0.9987357,-0.7240789,-0.45073,0.7687836,-0.1223475,0.2082683,-0.5850697,-0.7695637,-0.229082,-0.8623521,0.1007217,0.2415088,-0.6725156,-0.4983457,0.5453212,-0.3212441,-0.2312425,-0.8504443,-0.5404835,-0.5495567,0.6296134,-0.3536187,0.2291025,0.7462139,-0.04656327,0.2963378,0.5730677,-0.4025902,0.5307741,-0.6959732,-0.9785237,0.2683193,-0.1723112,0.09887207,0.9857535,-0.4507166,0.3582661,0.3310303,0.1289862,-0.8237545,0.01808655,0.4747405,-0.6399157,0.6279447,-0.9589024,0.6349909,0.09429324,0.9325314,-0.5818696,0.7976079,0.971586,0.06627262,-0.5578604,-0.8390224,0.614768,0.1287256,-0.4107026,0.5036545,0.648613,-0.5737948,-0.3584448,-0.2360336,-0.8445189,-0.3825976,0.1366454,-0.8539398,0.03266323,0.2663362,-0.977411,0.8519447,-0.1200591,-0.2273258,0.1306449,0.7045305,0.7649937,-0.1739761,0.2621009,-0.9735379,-0.661834,0.1829225,0.0007959604,-0.324159,-0.6669486,-0.7561934,0.6628664,-0.136103,-0.3570307,0.3102226,-0.6075268,-0.4124755,-0.5954063,0.2396747,0.5302651,0.7200313,0.721483,0.2148434,-0.1225349,-0.529819,0.1184303,0.5383384,0.1357638,0.5326962,-0.6629367,0.9396672,-0.5774987,-0.1974999,0.6914618,-0.2104014,0.2787955,-0.5546284,0.1549007,0.183642,0.5412245,0.1638128,0.6670866,0.6082373,0.31094,0.989784,-0.9950628,-0.1407629,-0.8676238,-0.2195219,0.3376617,0.5433376,0.6597528,0.142624,-0.1650187,0.8933775,0.1127516,-0.8114471,-0.6616957,0.4574337,-0.6545415,-0.4805719,-0.8346508,0.8362682,0.1036812,0.691231,0.5336692,0.9802339,-0.8062758,-0.9090765,-0.8414948,0.5566788,-0.9726689,-0.8438063,-0.8203475,0.9035943,0.03577626,-0.165368,0.8752346,-0.5095198,-0.3445393,0.2892203,0.8870976,-0.793627,0.6156225,-0.07662594,0.8549151,-0.1944011,-0.7738929,0.5073175,0.4059133,-0.2921239,0.2610378,0.3921525,-0.2320052,-0.9133797,0.4514649,0.8962555,0.6554592,0.7598028,-0.3152555,-0.821872,0.2526848,-0.9816012,0.5486102,-0.09668839,-0.4363641,0.7791979,-0.9898262,-0.961633,-0.8175845,-0.4698843],[0.1078223,0.5301876,0.9022224,-0.003597856,-0.3259057,0.5306435,-0.9475193,-0.1806387,0.4476568,-0.7271259,-0.2707397,0.8555377,0.08381069,0.1910828,-0.229833,-0.6732764,-0.4663931,0.07178104,-0.9847412,-0.7880201,0.5984998,0.3389945,-0.1324991,-0.08236539,-0.6027217,0.4949937,0.5181777,0.2308515,0.1773425,-0.08586729,-0.9910667,0.3607945,-0.4455601,-0.305308,0.1107675,0.06839025,-0.8912134,0.9789629,0.3721537,-0.08667147,-0.8458092,0.7926164,-0.9478331,0.1683048,0.1167589,0.853977,0.7721953,-0.9007149,-0.7972057,0.2577464,0.5866017,-0.8899384,-0.2246436,-0.8434093,-0.7076836,0.007259011,0.4955785,0.6905582,-0.2790896,-0.08094418,-0.7190728,-0.3064929,-0.2137433,0.6535685,0.301542,-0.0107168,-0.6858389,0.6106241,0.121931,0.3900459,0.5875957,0.8109598,-0.5440426,0.7448676,0.3486414,0.8735094,-0.4024223,-0.4498097,0.541533,0.3456456,0.201624,-0.7679536,0.5949686,0.4258148,-0.9833872,-0.277088,-0.1324292,-0.4841751,-0.6316824,0.6769195,-0.1886657,0.4267924,0.9200046,-0.1893774,0.1325241,-0.8288746,0.128343,-0.0151521,-0.6988978,-0.1964158,0.4780214,-0.06432474,-0.09995329,0.6304047,0.8845425,0.719347,-0.7492709,-0.342353,0.2687919,-0.5983102,0.4294064,-0.7898319,-0.2492594,0.4422855,-0.6170492,-0.2304119,0.117535,0.7861481,-0.9937134,-0.3917423,0.2113813,-0.7129984,0.735729,0.6879475,-0.486884,-0.3424517,-0.2159349,-0.7761085,-0.2790695,-0.4053565,0.6735291,-0.7794139,0.1147159,0.6808906,0.07678735,-0.734684,-0.10926,-0.6132135,-0.05366147,-0.03534949,0.6261232,0.03359258,0.2650284,0.6903434,-0.0246402,-0.7853003,-0.7429035,0.8341799,0.7352042,-0.6641412,-0.2559866,-0.5230446,0.3383572,-0.1782719,-0.3434583,-0.8098938,0.9805887,0.5276415,0.3428614,-0.7807589,0.7584643,0.2985384,0.7692406,-0.5304143,0.5282085,0.1838366,-0.2863799,0.1386656,0.6612358,0.9854119,-0.2285374,-0.8824027,0.1211563,0.8020492,-0.0320226,-0.08618963,0.5912805,0.1317509,0.508616,-0.9543364,-0.238974,0.7840221,0.2098235,-0.7929263,0.03607714,0.6825445,-0.1313328,0.5202708,-0.3819276,-0.09634483,0.269736,-0.391766,0.2242557,-0.7275651,0.2136306,0.4670646,0.6183817,-0.5762026,0.3497622,-0.845654,-0.4126364,0.875406,-0.8012972,-0.6399515,0.3738553,-0.6780236,-0.1035048,-0.01635945,-0.737895,0.4237714,-0.6770611,-0.1506726,0.8450859,0.6987033,-0.6952124,0.4018678,0.115698,-0.05545676,0.05973446,0.1948463,-0.7233627,0.5603387,0.9505653,0.2778063,-0.8646204,-0.4550964,0.7845998,0.1257526,0.6174374,-0.2255496,0.6087663,0.389646,-0.9984546,-0.6892707,0.1714231,-0.8972502,0.997473,0.7788181,-0.2041286,0.6695235,-0.5465708,0.6769829,-0.1397732,-0.3152822,-0.2660342,-0.12246,0.7625477,-0.7576749,-0.1511465,0.1470491,-0.858988,-0.8590713,-0.2966894,0.2889485,0.1701216,0.4143996],[0.9995654,0.175083,0.6819382,0.2652697,0.5394027,-0.1558114,0.1336054,0.7043145,0.5821517,0.1355904,-0.9620085,-0.6016092,0.8836179,-0.5934985,-0.5198133,-0.0266937,0.6841362,0.109435,0.06995165,-0.2666537,0.680656,-0.2091016,0.544558,-0.4330672,0.5348191,-0.455305,0.3275454,0.3250556,0.5625505,-0.4871339,-0.2288262,-0.6089878,0.7186489,0.7408876,0.09345329,0.7731256,0.08200729,0.8192649,0.1785218,0.08933866,0.4669864,0.9947448,-0.1521169,0.8331378,0.6272662,-0.2090801,0.4038896,0.4746318]],[[-0.589638,0.7310381,-0.6511233,0.6697326,-0.6026547,-0.6711128,-0.9660425,0.2776477,-0.8739486,-0.9199321,-0.107406,0.2867577,-0.2420667,-0.06477129,0.2075795,0.09286964,-0.9366057,0.7794251,-0.5790367,-0.2372707,0.2984693,-0.5252154,-0.7412543,-0.8345945,-0.3130332,0.6246312,-0.4633764,0.1550957,-0.4985341,0.3269717,0.6255012,-0.5634451,-0.5201387,-0.05144131,-0.2071851,0.1156653,0.1889445,0.7853715,0.3748877,-0.7495105,-0.3875855,0.3474035,-0.01994312,-0.3860651,0.1923133,0.5806453,-0.07835567,0.5850563,-0.6104951,-0.5833013,-0.1039311,0.8937817,-0.7731352,0.764374,0.4191117,0.2215599,-0.3721753,-0.914227,0.0105387,-0.4471563,0.4240248,0.9655514,-0.1718117,-0.1560317,-0.08337557,-0.3129011,-0.7875178,-0.8330495,0.8941307,-0.4173023,0.858011,0.3838417,-0.2677077,0.5383379,0.7309458,0.6782539,-0.04049933,-0.9321864,0.1691626,-0.6169026,-0.05923975,0.9083545,-0.04955137,0.97926,0.6528718,0.168317,-0.08375728,-0.4358641,-0.2130851,-0.04229343,-0.561044,-0.8787696,-0.2176989,-0.04356706,0.9033029,-0.8646696,-0.2913822,-0.2981585,0.5718431,0.780966,0.8317468,0.63166,-0.2834917,-0.6905966,0.6473,-0.2359203,0.4203705,0.4280464,-0.4852215,0.1313425,-0.8728175,-0.2532889,0.7189991,0.01361167,-0.2816092,0.03372967,0.544899,-0.567379,-0.1665355,-0.7590976,0.09026635,-0.9929841,0.8188403,-0.08116114,0.4933729,-0.2984661,0.403224,0.191414,0.6370199,0.817749,0.3592291,0.5452516,-0.7487433,-0.7812614,0.7015173,-0.3842999,-0.06338656,0.1468598,0.4068579,0.1951731,-0.05634081,-0.7224977,-0.6188717,-0.5848851,0.5422211,-0.05242741,-0.7856381,-0.494552,0.06112421,0.5141413,-0.6203995,-0.6416323,0.9256513,0.6875119,-0.662693,0.3040271,0.6036005,0.3796696,0.4296179,-0.6240599,0.03577268,0.7142076,0.7458394,-0.9687886,0.9286277,-0.02939498,-0.184064,-0.815942,0.955338,0.6227465,-0.3078758,-0.5408924,-0.8270922,0.959235,-0.3854936,-0.7954183,0.4518521,-0.3968948,0.9974184,0.6184928,-0.5726304,0.9063334,-0.2254802,-0.7848861,-0.3452626,-0.2206265,-0.4917978,-0.2263335,0.2634377,-0.2099503,0.469748,-0.09921873],[-0.0702678,0.7630863,0.2388304,0.3097157,0.4013786,-0.8115478,-0.7856934,-0.1447529,0.7843077,-0.413062,-0.2097942,0.595156,-0.05405962,-0.1158301,-0.3990945,0.5921443,0.9103549,-0.9970486,-0.2089373,0.09378088,-0.6449211,-0.932668,-0.8517187,0.6835248,-0.4340724,-0.2792972,0.6850505,-0.9598486,0.9145205,-0.2833647,0.166083,0.1574732,0.4660883,-0.9830647,0.2684414,-0.4915715,-0.3338825,-0.854888,-0.1893862,0.2367469,0.0310632,-0.0731653,0.7557249,-0.6956539,0.7526288,0.7231665,0.8645744,-0.1996335,0.01002681,0.6809816,0.9606581,0.6267469,-0.4611818,-0.6528049,-0.1055108,0.888454,-0.2006279,-0.9252276,0.3260188,-0.5253503,0.287843,0.9291046,-0.2031473,0.4346587,0.04957354,-0.804383,0.9708269,-0.3650976,0.5242476,0.4261741,-0.8102477,-0.0176872,-0.5473619,-0.5905983,0.4533951,0.5347044,0.8554683,0.5250123,0.4147644,-0.2379714,-0.6014309,-0.01113665,-0.3403841,-0.1105744,0.2603616,0.9497201,-0.752162,-0.3560487,0.6407509,-0.1440707,0.1218802,-0.8042231,0.9307327,0.5468836,0.06118166,0.8776786,-0.1460809,-0.01098096,0.04854834,0.4545853,-0.252664,-0.4307359,0.5975344,-0.6306686,0.7363729,0.01616991,0.5504868,0.1032573,-0.9966452,-0.3830403,-0.2575377,-0.942868,-0.6360962,0.5683324,-0.3069531,-0.1698321,-0.4873601,-0.8528125,0.01215374,0.6933277,0.6857188,-0.5402117,-0.1114122,-0.5653892,-0.2441834,-0.9103441,0.8948295,0.9354517,-0.3869525,-0.03857601,0.1879689,0.5604627,0.8031719,-0.1796354,-0.4426795,-0.1635894,-0.290059,0.4006581,0.3270716,-0.6103957,-0.5836372,0.8659921,0.450572,-0.6875556,0.1467608,0.1523677,0.619503,-0.576663,0.3785772,-0.2884895,0.6573992,-0.1943983,0.8349807,0.1805519,0.4518392,0.03904498,-0.7111371,-0.4990193,0.7978647,-0.07848966,-0.5509279,0.8444645,-0.7754643,0.3657613,0.8738711,-0.6968217,0.696945,-0.9387386,-0.1548804,0.4125366,0.4016208,-0.06642973,-0.9699948,0.8609576,-0.24321,0.5689938,0.9777355,-0.2838317,-0.8197381,0.5065808,0.1750351,0.8498361,0.3501072,-0.8171864,-0.3213054,0.5363266,-0.139347,0.6717136,-0.9913721,-0.3083638,-0.9475245,-0.5480266,-0.8914511,0.8382359,-0.2696859,-0.01200998,0.7259541,-0.3558561,-0.2899953,0.5378544,0.4292009,0.9612534,0.8187017,-0.8877845,0.06098258,-0.04151022,-0.4732352,0.9487126,0.2692492,0.4348774,0.5935533,0.1434284,-0.6704991,0.7358716,-0.01035964,0.02675426,-0.7601783,-0.70558,0.8774073,0.05940282,0.3391502,0.8117657,-0.6184781,-0.7667859,-0.2461406,-0.3345627,-0.1900617,0.3053879,-0.317129,-0.3889326,0.9992487,-0.379516,-0.7912414,-0.49233,-0.8453307,0.1145459,-0.905766,0.4283788,0.8355939,-0.3124095,-0.8385315,0.5279243,0.09285295,-0.7327576,0.6476023,-0.4683338,-0.3537582,0.9457433,-0.8422728,-0.2731138,0.1514333,-0.5386958,0.9982555,0.1021124,-0.29166,-0.5625098],[0.4713313,-0.8869789,-0.4533333,0.1605772,0.0650357,