[[[0.2959885,0.8349595,-0.3748597,0.1166815,0.4369228,0.0008832216,0.6869352,-0.5133722,0.7042871,-0.2362839,-0.02859104,0.2258998,-0.9842608,0.7428384,0.7547667,-0.8987932,0.8519931,-0.5549586,0.2409624,-0.1932207,-0.2801307,-0.4609846,-0.1586517,0.1075155,-0.6489365,-0.1042031,0.7040143,-0.6564364,0.6204138,0.3418934,-0.275349,0.1784865,0.5236733,-0.7068589,-0.4878989,-0.2631372,0.9709437,0.01992381,-0.2796401,-0.9239902,0.7414813,-0.9216757,0.984324,-0.9438696,-0.2832979,-0.9614279,0.6926649,0.05196178,-0.5498343,0.3853161,0.7788107,-0.6568916,-0.157077,0.2639837,0.2790849,0.0543164,-0.8560531,-0.1485983,0.6710036,-0.1558751,0.8342187,0.7063541,0.6071649,-0.501915,0.6375127,-0.1163481,0.1939915,-0.2914788,-0.5840914,0.5595758,-0.08535278,0.546577,-0.1496316,-0.7517796,0.8515861,-0.146844,-0.03024256,0.7013674,-0.4979159,-0.0520376,-0.2186011,-0.1930875,-0.6053224,0.7390184,0.01557815,-0.5209308,-0.8469996,-0.4920663,0.1880225,-0.1033577,0.9051046,0.9002311,0.5308967,-0.8535893,-0.3948802,-0.02204978,-0.5690181,0.3208105,-0.586314,0.5714102,0.7406006,0.1946384,-0.430817,0.769825,0.3160665,-0.05159342,0.1318556,0.9666047,-0.4437596,-0.8895297,0.8396854,0.7361693,0.6856177,-0.3290058,-0.7806413,-0.3393716,-0.6001265,0.05496132,-0.8244567,-0.7019293,0.852042,-0.6627362,-0.02017057,-0.5854659,-0.6702073,0.8715038,0.5122523,0.1358632,-0.1959597,0.1137346,0.6461754,0.6560726,0.7828023,0.8861194,0.5840728,0.6200209,0.8470433,-0.6491623,0.1543595,0.001493812,-0.8694162,-0.6012464,-0.1945692,0.9715726,0.1149791,-0.1709925,-0.5204742,0.6210532,-0.3486048,0.1066638,0.2748906,0.01197541,0.984163,0.5359597,0.9417448,-0.7832978,0.5393448,-0.006303668,-0.1114506,-0.7895558,-0.7613339,-0.7593136,0.2432398,-0.8113654,-0.6703088,0.9705935,0.5603728,-0.8795011,0.4298014,-0.5388708,0.3019013,0.759743,0.5031168,0.4228737,-0.6205666,0.2235111,0.1938082,-0.3012813,0.2132398,0.5433621,-0.2196409,0.8710604,0.6042233,-0.3098327,-0.6198466,-0.8383274,-0.4527656,-0.7463336,-0.2418734,-0.5168111,0.5418735,0.7733755],[-0.2591568,-0.07256067,0.8367734,-0.9509151,0.5903335,0.1409308,0.1621097,0.05663002,0.7218406,-0.2270192,0.277466,0.9578221,-0.5907166,0.8093691,0.1260535,-0.990793,0.09665787,0.6162179,0.5670466,-0.2863003,-0.5157962,0.5797913,0.7166438,-0.8040895,0.9532042,0.02148354,-0.5672629,0.1358701,-0.7010696,0.132454,0.4800605,-0.05924737,0.6488891,0.6980634,0.6052389,0.03314269,0.1796397,0.9462516,0.5230117,0.568017,0.9022276,0.8068004,-0.4639243,0.9316986,0.3441233,0.1327838,-0.6421571,0.8017106,-0.2612482,0.8317835,0.03702009,0.001932502,0.4499807,-0.7839441,0.7169662,0.6418118,-0.8884039,-0.1472863,-0.02209604,-0.4723758,0.2259053,-0.832082,0.3855245,-0.535809,-0.8056993,0.1859032,-0.3468031,-0.2592238,0.8624654,-0.1614941,0.7308943,0.727339,-0.1535114,-0.640449,-0.08754909,0.6680837,0.4945621,-0.3766686,0.6998467,-0.389064,-0.09517443,0.21653,-0.1331736,-0.5308862,-0.47923,0.5486081,0.1114725,-0.3260533,-0.5188713,0.5011778,-0.4647075,-0.303141,0.2552612,0.5530624,0.8366053,-0.5848954,0.5711741,-0.6176107,0.4966149,-0.3892497,0.4020574,-0.9192593,-0.9252765,0.3763056,0.1477748,-0.175721,0.4111652,-0.2583185,-0.6929016,0.1833221,-0.01657426,0.5579352,0.6298516,-0.7333195,-0.8045645,0.9816959,-0.9385412,-0.7075758,-0.444151,0.9183376,-0.7678592,-0.8021059,0.3674762,-0.6229775,-0.9364088,0.7257392,-0.1093274,-0.5666053,-0.825424,-0.886616,-0.6987441,0.5152464,-0.5760524,0.6184978,-0.1270703,0.8178177,0.01963294,-0.01275265,0.1380898,-0.06113851,-0.06016529,-0.7554226,-0.3708237,0.4636781,0.5865963,-0.7851384,-0.6644123,0.01239264,-0.2558314,-0.4343785,0.08777726,-0.1054724,-0.8120239,-0.7625153,0.6828175,0.1060911,-0.2649652,-0.6866019,0.9051321,0.7838476,-0.3545691,0.2172309,-0.9314535,-0.03751695,0.6660845,0.3957524,-0.7150862,0.5434136,0.6309016,-0.7906127,-0.005867362,-0.8264179,-0.8641651,-0.07867944,0.6072762,0.461152,-0.9133179,-0.7483687,-0.9514618,0.934948,-0.09141529,-0.494902,0.2368945,0.3297379,0.7938776,-0.03036892,-0.7043788,-0.2126693,-0.5827589,0.6893449,-0.9640858,-0.4353503,-0.02874768,0.8120129,0.3179664,-0.7769485,0.1889209,0.2412471,-0.4028298,-0.6951699,0.0592984,0.6146522,0.9585781,-0.406438,-0.1615871,-0.4410542,0.8828127,0.1703283,0.7676425,0.9659302,0.7965114,-0.4354407,0.0982548,-0.2420052,0.2512011,-0.4314946,-0.1520621,-0.8366058,-0.515563,-0.05692399,0.6979389,-0.09945428,0.8600399,-0.2673136,-0.3667802,0.8877847,0.9343684,-0.3533891,0.8816893,-0.1573087,-0.1278516,0.3809659,0.1071337,0.4745888,-0.4633852,0.6647172,-0.6806777,0.1453811,0.238402,-0.7301559,-0.7901583,0.6795111,-0.2876061,-0.8830259,-0.6311674,-0.8493311,-0.7516191,-0.04763162,0.0938884,-0.03227031,0.8577325,0.7726612,-0.1311854,0.6786878,0.7790053,-0.7702239],[0.4661669,-0.4256819,-0.8767509,0.7398343,-0.3625926,-0.743788,0.8606343,-0.164976,0.0168699,0.1074449,0.6913116,0.441277,0.1639186,0.9653766,-0.01710546,0.6096604,0.6954155,-0.8088057,-0.7080898,-0.1892959,-0.5876226,0.6190958,0.9464757,0.7776184,0.4862091,-0.212762,-0.3630029,0.3956237,-0.2716118,-0.335519,0.3336711,0.2180129,0.4048268,-0.8208857,0.3639731,0.2742595,0.001384616,-0.2946519,0.504698,0.8797307,0.4987225,0.1517729,0.9644394,-0.1097137,0.4179763,0.3244092,0.5717695,0.2268115]],[[0.2959885,0.8349595,-0.3748597,0.1166815,0.4369228,0.0008832216,0.6869352,-0.5133722,0.7042871,-0.2362839,-0.02859104,0.2258998,-0.9842608,0.7428384,0.7547667,-0.8987932,0.8519931,-0.5549586,0.2409624,-0.1932207,-0.2801307,-0.4609846,-0.1586517,0.1075155,-0.6489365,-0.1042031,0.7040143,-0.6564364,0.6204138,0.3418934,-0.275349,0.1784865,0.5236733,-0.7068589,-0.8707736,-0.2631372,0.9709437,0.01992381,-0.2796401,-0.9239902,0.7414813,-0.9216757,0.984324,-0.9438696,-0.2832979,-0.9614279,0.6926649,0.05196178,-0.5498343,0.3853161,0.7788107,-0.6568916,-0.157077,0.2701308,0.2790849,0.0543164,-0.8560531,-0.1485983,0.6710036,-0.1558751,0.8342187,0.7063541,0.6071649,-0.501915,0.6375127,-0.1163481,0.1939915,-0.2914788,-0.5840914,0.5595758,-0.08535278,0.546577,-0.1496316,-0.7517796,0.8515861,-0.146844,-0.03024256,0.7013674,-0.4979159,-0.0520376,-0.2186011,-0.1930875,-0.6053224,0.7390184,0.01557815,-0.5209308,-0.8469996,-0.4920663,0.1880225,-0.1033577,0.9051046,0.9002311,0.5308967,-0.8535893,0.7467089,-0.02204978,-0.5690181,0.3208105,-0.586314,0.5714102,0.7406006,0.1946384,-0.430817,0.769825,0.3160665,-0.05159342,0.1318556,0.9666047,-0.4437596,-0.8895297,0.8396854,0.7361693,0.6856177,-0.3290058,-0.7806413,-0.3393716,-0.6001265,0.05496132,-0.8244567,-0.7019293,0.852042,-0.6627362,-0.02017057,-0.5854659,-0.6702073,0.8715038,0.5122523,0.1358632,-0.1959597,0.1137346,0.6461754,0.6560726,0.7828023,0.8861194,0.5840728,0.6200209,0.8470433,-0.6491623,0.1543595,0.001493812,-0.8694162,-0.6012464,-0.1945692,0.9715726,0.1149791,-0.1709925,-0.5204742,0.6210532,-0.3486048,0.1066638,0.2748906,0.01197541,0.984163,0.5359597,0.9417448,-0.7832978,0.5393448,-0.006303668,-0.1114506,-0.7895558,-0.7613339,-0.7593136,0.2432398,-0.8113654,-0.6703088,0.9705935,0.5603728,-0.8795011,0.4298014,-0.6925991,0.3019013,0.759743,0.5031168,0.4228737,-0.6205666,0.2235111,0.1938082,-0.3012813,0.2132398,0.5433621,-0.2196409,0.8710604,0.6042233,-0.3098327,-0.8781297,-0.8383274,-0.4527656,-0.7463336,-0.2418734,-0.5168111,0.5418735,0.7733755],[-0.2591568,-0.07256067,0.8367734,-0.9509151,0.5903335,0.1409308,0.1621097,0.05663002,0.7218406,-0.2270192,0.277466,0.9578221,-0.5907166,0.8093691,-0.1781055,-0.990793,0.09665787,0.6162179,0.5670466,-0.2863003,-0.5157962,0.5797913,0.7166438,-0.8040895,0.9532042,0.02148354,-0.5672629,0.1358701,-0.7010696,0.132454,0.4800605,-0.05924737,0.6488891,0.6980634,0.6052389,0.03314269,0.1796397,0.9462516,0.5230117,0.568017,0.9022276,0.8068004,-0.4639243,0.9316986,0.3441233,0.1327838,-0.6421571,0.8017106,-0.2612482,0.8317835,0.03702009,0.001932502,0.4499807,-0.7839441,0.7169662,0.6418118,-0.8884039,-0.1472863,-0.02209604,-0.4723758,0.2259053,-0.832082,0.3855245,-0.535809,-0.8056993,0.1859032,0.2828641,-0.2592238,0.8624654,-0.1614941,0.7308943,0.727339,-0.1535114,-0.640449,-0.08754909,0.6680837,0.4945621,-0.3766686,0.6998467,-0.389064,-0.09517443,0.21653,-0.1331736,-0.5308862,-0.47923,0.5486081,0.1114725,-0.3260533,-0.5188713,0.5011778,-0.4647075,-0.303141,0.2552612,0.5530624,0.8366053,-0.5848954,0.5711741,-0.6176107,0.2135817,-0.3892497,0.4020574,-0.9192593,-0.9252765,0.3763056,0.1477748,-0.175721,0.4111652,-0.2583185,-0.6929016,0.1833221,-0.01657426,0.5579352,0.6298516,-0.7333195,-0.8045645,0.9816959,-0.9385412,-0.7075758,-0.444151,0.9183376,-0.7678592,-0.8021059,0.3674762,-0.6229775,-0.9364088,0.7257392,-0.1093274,-0.5666053,-0.825424,-0.886616,-0.6987441,0.5152464,-0.4794954,0.6184978,-0.1270703,0.8178177,0.01963294,-0.01275265,0.1380898,-0.06113851,-0.06016529,-0.7554226,-0.3708237,0.4636781,0.5865963,-0.7851384,-0.6644123,0.01239264,-0.2558314,-0.4343785,0.08777726,-0.1054724,-0.8120239,-0.7625153,0.6828175,-0.9866822,-0.2649652,-0.6866019,0.9051321,0.7838476,-0.3545691,0.2172309,-0.9314535,-0.03751695,0.6660845,0.3957524,-0.7150862,0.5434136,0.6309016,-0.7906127,-0.005867362,-0.8264179,-0.8641651,-0.07867944,0.6072762,0.461152,-0.9133179,-0.7483687,-0.9514618,0.934948,-0.09141529,-0.494902,0.2368945,0.3297379,0.7938776,-0.03036892,-0.7043788,0.9906125,-0.5827589,0.6893449,-0.9640858,-0.4353503,-0.02874768,0.8120129,0.3179664,-0.7769485,0.1889209,0.2412471,-0.4028298,-0.6951699,0.0592984,0.6146522,0.9585781,-0.406438,-0.1615871,-0.4410542,0.8828127,0.1703283,0.7676425,0.9659302,0.7965114,-0.4354407,0.0982548,-0.2420052,0.2512011,-0.4314946,-0.1520621,-0.8366058,-0.515563,-0.05692399,0.6979389,-0.09945428,0.8600399,-0.2673136,-0.3667802,0.8877847,0.9343684,-0.3533891,0.8816893,-0.1573087,-0.1278516,0.3809659,0.1071337,0.4745888,-0.4633852,0.6647172,-0.6806777,0.1453811,0.238402,-0.7301559,-0.7901583,0.6795111,-0.2876061,-0.8830259,-0.6311674,-0.8493311,-0.7516191,-0.04763162,-0.865891,-0.03227031,0.8577325,0.7726612,-0.1311854,0.6786878,0.7790053,-0.7702239],[0.4661669,-0.4256819,-0.8767509,0.7398343,-0.3625926,-0.743788,0.8606343,-0.164976,0.0168699,0.1074449,0.6913116,0.441277,0.1639186,0.9653766,-0.01710546,0.6096604,0.6954155,-0.8088057,-0.7080898,-0.1892959,-0.5876226,0.8427491,0.9464757,0.7776184,0.4862091,-0.212762,-0.3630029,0.3956237,-0.2716118,-0.335519,0.3336711,0.2180129,0.4048268,-0.8208857,0.3639731,0.2742595,0.001384616,-0.2946519,0.504698,0.8797307,0.4987225,0.1517729,0.9644394,-0.1097137,0.4179763,0.3244092,0.5717695,0.2268115]],[[0.2959885,0.8349595,-0.3748597,0.1166815,0.4369228,0.0008832216,0.6869352,-0.5133722,0.7042871,-0.2362839,-0.02859104,0.2258998,-0.9842608,0.7428384,0.7547667,-0.8987932,0.8519931,-0.5549586,0.2409624,-0.2021407,-0.2801307,-0.4609846,-0.1586517,0.1075155,-0.6489365,-0.1042031,0.7040143,-0.6564364,0.6204138,0.3418934,-0.275349,0.1784865,0.5236733,-0.7068589,-0.4878989,-0.2631372,0.9709437,0.01992381,-0.2796401,-0.9239902,0.7414813,-0.9216757,0.984324,-0.9438696,-0.2832979,-0.9614279,0.6926649,0.05196178,-0.5498343,0.3853161,0.7788107,-0.6568916,-0.157077,0.2639837,0.2790849,0.0543164,-0.8560531,-0.1485983,0.6710036,-0.1558751,0.8342187,0.7063541,0.6071649,-0.501915,0.6375127,-0.1163481,0.1939915,-0.2914788,-0.5840914,0.5595758,-0.08535278,0.546577,-0.1496316,-0.7517796,0.8515861,-0.146844,-0.03024256,0.7013674,-0.4979159,-0.0520376,-0.2186011,-0.1930875,-0.6053224,0.7390184,0.01557815,-0.5209308,-0.8469996,-0.4920663,0.1880225,-0.1033577,0.9051046,0.9002311,0.5308967,-0.8535893,-0.3948802,-0.02204978,-0.5690181,0.3208105,-0.586314,0.5714102,0.7406006,0.1946384,-0.430817,0.769825,0.3160665,-0.05159342,0.1318556,0.9666047,-0.4437596,-0.8895297,0.8396854,0.7361693,0.6856177,-0.3290058,-0.7806413,-0.3393716,-0.6001265,0.05496132,-0.8244567,-0.7019293,0.852042,-0.6627362,-0.02017057,-0.5854659,-0.6702073,0.8715038,0.5122523,0.1358632,-0.1959597,0.1137346,0.6461754,0.6560726,0.7828023,0.8861194,0.5840728,0.6200209,0.8470433,-0.6491623,0.1543595,0.001493812,-0.8694162,-0.6012464,-0.1945692,0.9715726,0.1149791,-0.1709925,-0.5204742,0.6210532,-0.3486048,0.1066638,0.2748906,0.01197541,0.984163,0.5359597,0.9417448,-0.7832978,0.5393448,-0.006303668,-0.1114506,-0.7895558,-0.7613339,-0.7593136,0.2432398,-0.8113654,0.7720211,0.9705935,0.5603728,-0.8795011,0.4298014,-0.5388708,0.3019013,0.759743,0.5031168,0.4228737,-0.6205666,0.2235111,0.1938082,-0.3012813,0.2132398,0.5433621,-0.2196409,0.8710604,0.6042233,-0.3098327,-0.6198466,-0.8383274,-0.4527656,-0.7463336,-0.2418734,-0.5168111,0.5418735,0.7733755],[-0.2591568,-0.07256067,0.8367734,-0.9509151,0.5903335,0.1409308,0.1621097,0.05663002,0.7218406,-0.2270192,0.277466,0.9578221,-0.5907166,0.8093691,0.1260535,-0.990793,0.09665787,0.6162179,0.5670466,-0.2863003,-0.5157962,0.5797913,0.7166438,-0.8040895,0.9532042,0.02148354,-0.5672629,0.1358701,-0.7010696,0.132454,0.4800605,-0.05924737,0.6488891,0.05463183,0.6052389,0.03314269,0.1796397,0.9462516,0.5230117,0.568017,0.9022276,0.8068004,-0.4639243,0.9316986,0.3441233,0.1327838,-0.6421571,0.8017106,-0.2612482,0.8317835,0.03702009,0.001932502,0.4499807,-0.7839441,0.7169662,0.6418118,-0.8884039,-0.1472863,-0.02209604,-0.4723758,0.2259053,-0.832082,0.7363591,-0.535809,-0.8056993,0.1859032,-0.3468031,-0.2592238,0.8624654,-0.1614941,0.7308943,0.727339,-0.1535114,-0.640449,-0.08754909,0.6680837,0.4945621,-0.3766686,0.6998467,-0.389064,-0.09517443,0.21653,-0.1331736,-0.5308862,-0.47923,0.5486081,0.1114725,-0.3260533,-0.5188713,0.5011778,-0.4647075,-0.303141,0.2552612,0.5530624,0.8366053,-0.8669569,0.5711741,-0.6176107,0.4966149,-0.3892497,0.9796078,-0.9192593,-0.9252765,0.3763056,0.1477748,-0.175721,0.4111652,-0.2583185,-0.6929016,0.1833221,-0.01657426,0.5579352,0.6298516,-0.7333195,-0.8045645,0.9816959,-0.9385412,-0.7075758,-0.444151,0.9183376,-0.7678592,-0.8021059,0.3674762,-0.6229775,-0.9364088,0.7257392,-0.1093274,-0.5666053,-0.825424,-0.886616,-0.6987441,0.5152464,-0.5760524,0.6184978,-0.1270703,0.8178177,0.01963294,-0.01275265,0.1380898,-0.06113851,-0.06016529,-0.7554226,-0.3708237,0.4636781,0.5865963,-0.7851384,-0.6644123,0.01239264,-0.2558314,-0.4343785,0.08777726,-0.1054724,-0.8120239,-0.7625153,0.6828175,0.1060911,-0.2649652,-0.6866019,0.9051321,0.7838476,-0.3545691,0.2172309,-0.9314535,-0.03751695,0.6660845,0.3957524,-0.7150862,0.5434136,0.6309016,-0.7906127,-0.005867362,-0.8264179,-0.8641651,-0.07867944,0.6072762,0.461152,-0.9133179,-0.7483687,-0.9514618,0.934948,-0.09141529,-0.494902,0.2368945,0.3297379,0.7938776,-0.03036892,-0.7043788,-0.2126693,-0.5827589,0.6893449,-0.9640858,-0.4353503,-0.02874768,0.8120129,0.3179664,-0.7769485,0.1889209,0.2412471,-0.4028298,-0.6951699,0.0592984,0.6146522,0.9585781,-0.406438,-0.1615871,-0.4410542,0.8828127,0.1703283,0.7676425,0.9659302,0.7965114,-0.4354407,0.0982548,-0.2420052,0.2512011,-0.4314946,-0.1520621,-0.8366058,-0.515563,-0.05692399,0.6979389,-0.09945428,0.8600399,-0.2673136,-0.3667802,0.8877847,0.9343684,-0.3533891,0.8816893,-0.1573087,-0.1278516,0.3809659,0.1071337,0.4745888,-0.4633852,0.6647172,-0.6806777,0.1453811,0.238402,-0.3045985,-0.7901583,0.6795111,-0.2876061,-0.8830259,-0.6311674,-0.8493311,-0.7516191,-0.04763162,0.0938884,-0.03227031,0.8577325,0.7726612,-0.1311854,0.6786878,0.7790053,-0.7702239],[0.4661669,-0.4256819,-0.8767509,0.7398343,-0.3625926,-0.743788,0.8606343,-0.164976,0.0168699,0.1074449,0.6913116,0.441277,0.1639186,0.9653766,-0.01710546,0.6096604,0.6954155,-0.8088057,-0.7080898,-0.1892959,-0.5876226,0.6190958,0.9464757,0.7776184,0.4862091,-0.212762,-0.3630029,0.3956237,-0.2716118,-0.335519,0.3336711,0.2180129,0.4048268,-0.8208857,0.3639731,0.2742595,0.001384616,-0.2946519,0.504698,0.8797307,0.4987225,0.1517729,0.9644394,-0.1097137,0.4179763,0.3244092,0.5717695,0.2268115]],[[0.2959885,0.8349595,-0.3748597,0.1166815,0.4369228,0.0008832216,0.6869352,-0.5133722,0.7042871,-0.2362839,-0.02859104,0.2258998,-0.9842608,0.7428384,0.7547667,-0.8987932,0.8519931,-0.5549586,0.2409624,-0.1932207,-0.2801307,-0.4609846,-0.1586517,0.1075155,-0.6489365,-0.1042031,0.7040143,-0.6564364,0.6204138,0.3418934,-0.275349,0.1784865,0.5236733,-0.7068589,-0.4878989,-0.2631372,0.9709437,0.01992381,-0.2796401,-0.9239902,0.7414813,-0.9216757,0.984324,-0.9438696,-0.2832979,-0.9614279,0.6926649,0.05196178,-0.5498343,0.3853161,0.7788107,-0.6568916,-0.157077,0.2639837,0.2790849,0.0543164,-0.8560531,-0.1485983,0.6710036,-0.1558751,0.8342187,0.7063541,0.6071649,-0.501915,0.6375127,-0.1163481,0.1939915,-0.2914788,-0.5840914,0.5595758,-0.08535278,0.546577,-0.1496316,-0.7517796,0.8515861,-0.146844,-0.03024256,0.7013674,-0.4979159,-0.0520376,-0.2186011,-0.1930875,-0.6053224,0.7390184,0.01557815,-0.5209308,-0.8469996,-0.4920663,0.1880225,-0.1033577,0.9051046,0.9002311,0.5308967,-0.8535893,-0.3948802,-0.02204978,-0.5690181,0.3208105,-0.586314,0.5714102,0.7406006,0.1946384,-0.430817,0.769825,0.3160665,-0.05159342,0.1318556,0.9666047,-0.4437596,-0.8895297,0.8396854,0.7361693,0.6856177,-0.3290058,-0.7806413,-0.3393716,-0.6001265,0.05496132,-0.8244567,-0.7019293,0.852042,-0.6627362,-0.02017057,-0.5854659,-0.6702073,0.8715038,0.5122523,0.1358632,-0.1959597,0.1137346,0.6461754,0.6560726,0.7828023,0.8861194,0.5840728,0.6200209,0.8470433,-0.6491623,0.1543595,0.001493812,-0.8694162,-0.6012464,-0.1945692,0.9715726,0.1149791,-0.1709925,-0.5204742,0.6210532,-0.3486048,0.1066638,0.2748906,0.01197541,0.984163,0.5359597,0.9417448,-0.7832978,0.5393448,-0.1102515,-0.1114506,-0.7895558,-0.7613339,-0.7593136,0.2432398,0.5152369,-0.6703088,0.9705935,0.5603728,-0.8795011,0.4298014,-0.5388708,0.3019013,0.759743,0.5031168,0.4228737,-0.6205666,0.2235111,0.1938082,-0.3012813,0.2132398,0.5433621,-0.2196409,0.8710604,0.6042233,-0.3098327,-0.6198466,-0.8383274,-0.4527656,-0.7463336,-0.2418734,-0.5168111,0.5418735,0.7733755],[-0.2591568,-0.07256067,0.8367734,-0.9509151,0.5903335,0.1409308,0.1621097,0.05663002,0.7218406,-0.2270192,0.277466,0.9578221,-0.5907166,0.8093691,0.1260535,-0.990793,0.09665787,0.6162179,0.5670466,-0.2863003,-0.5157962,0.5797913,0.7166438,-0.8040895,0.8450072,0.02148354,-0.5672629,0.1358701,-0.7010696,0.132454,0.4800605,-0.05924737,0.6488891,0.6980634,0.6052389,0.03314269,0.1796397,0.9462516,0.5230117,0.568017,0.9022276,0.8068004,-0.4639243,0.9316986,0.3441233,0.1327838,-0.6421571,0.8017106,-0.2612482,0.8317835,0.03702009,0.001932502,0.4499807,-0.7839441,0.7169662,0.6418118,-0.8884039,-0.1472863,-0.02209604,-0.4723758,0.2259053,-0.832082,0.3855245,-0.535809,-0.8056993,0.1859032,-0.3468031,-0.2592238,0.8624654,-0.1614941,0.7308943,0.727339,-0.1535114,-0.640449,-0.08754909,0.6680837,0.4945621,-0.3766686,0.6998467,-0.389064,-0.09517443,0.21653,-0.1331736,0.1048769,-0.47923,0.5486081,0.1114725,-0.3260533,-0.5188713,0.5011778,-0.4647075,-0.303141,0.2552612,0.5530624,0.8366053,-0.5848954,0.5711741,-0.6176107,0.4966149,-0.3892497,0.4020574,-0.9192593,-0.9252765,0.3763056,0.1477748,-0.175721,0.4111652,-0.2583185,-0.6929016,0.1833221,-0.01657426,0.5579352,0.6298516,-0.7333195,-0.8045645,0.9816959,-0.9385412,-0.7075758,-0.444151,0.9183376,-0.7678592,-0.8021059,0.3674762,-0.6229775,-0.9364088,0.7257392,-0.1093274,-0.5666053,-0.825424,-0.886616,-0.6987441,0.5152464,-0.5760524,0.6184978,-0.1270703,0.8178177,0.01963294,-0.01275265,0.1380898,-0.06113851,-0.06016529,-0.7554226,-0.3708237,0.4636781,0.5865963,-0.7851384,-0.6644123,0.01239264,-0.2558314,-0.4343785,0.08777726,-0.1054724,-0.8120239,-0.7625153,0.6828175,0.1060911,-0.2649652,-0.6866019,0.9051321,0.7838476,-0.3545691,0.2172309,-0.9314535,-0.03751695,0.6660845,0.3957524,-0.7150862,0.5434136,0.6309016,-0.7906127,-0.005867362,-0.8264179,-0.8641651,-0.07867944,0.6072762,0.461152,-0.9133179,-0.7483687,-0.9514618,0.934948,-0.09141529,-0.494902,0.2368945,0.3297379,0.7938776,-0.03036892,-0.7043788,-0.2126693,-0.5827589,0.6893449,-0.9640858,-0.4353503,-0.02874768,0.8120129,0.3179664,-0.7769485,0.1889209,0.2412471,-0.4028298,-0.6951699,0.0592984,0.6146522,0.9585781,-0.406438,-0.1615871,-0.4410542,0.8828127,0.1703283,0.7676425,0.9659302,0.7965114,-0.4354407,0.0982548,-0.2420052,0.2512011,-0.4314946,-0.1520621,-0.8366058,-0.515563,-0.05692399,0.6979389,-0.09945428,0.8600399,-0.2673136,-0.3667802,0.8877847,0.9343684,-0.3533891,0.8816893,-0.1573087,-0.1278516,0.3809659,0.1071337,0.4745888,-0.4633852,0.6647172,-0.6806777,0.1453811,0.238402,-0.7301559,-0.7901583,0.6795111,-0.2876061,-0.8830259,-0.6311674,-0.8493311,-0.7516191,-0.04763162,0.0938884,-0.03227031,0.8577325,0.7726612,-0.1311854,0.6786878,0.7790053,-0.7702239],[0.4661669,-0.4256819,-0.8767509,0.7398343,-0.3625926,-0.743788,0.8606343,-0.164976,0.0168699,0.1074449,0.6913116,0.441277,0.1639186,0.9653766,-0.01710546,0.6096604,0.6954155,-0.8088057,-0.7080898,-0.1892959,-0.5876226,0.6190958,0.9464757,0.7776184,0.4862091,-0.212762,-0.3630029,0.3956237,-0.2716118,-0.335519,0.3336711,0.2180129,0.4048268,-0.8208857,0.3639731,0.2742595,0.001384616,-0.2946519,0.504698,-0.4154023,0.4987225,0.1517729,0.9644394,-0.1097137,0.4179763,0.3244092,0.5717695,0.2268115]],[[0.2959885,0.8349595,-0.3748597,0.1166815,0.4369228,0.0008832216,0.6869352,-0.5133722,0.7042871,-0.2362839,-0.02859104,0.2258998,-0.9842608,0.7428384,0.7547667,-0.8987932,0.8519931,-0.5549586,0.2409624,-0.1932207,-0.2801307,-0.4609846,-0.1586517,0.1075155,-0.6489365,-0.1042031,0.7040143,-0.6564364,0.6204138,0.3418934,-0.275349,0.1784865,0.5236733,-0.7068589,-0.4878989,-0.2631372,0.9709437,0.01992381,-0.2796401,-0.9239902,0.7414813,-0.9216757,0.984324,-0.9438696,-0.2832979,-0.9614279,0.6926649,0.05196178,-0.5498343,0.3853161,0.7788107,-0.6568916,-0.157077,0.2639837,0.2790849,0.0543164,-0.8560531,-0.1485983,0.6710036,-0.1558751,0.8342187,0.7063541,0.6071649,-0.501915,0.6375127,-0.1163481,0.1939915,-0.2914788,-0.5840914,0.5595758,-0.08535278,0.546577,-0.1496316,-0.7517796,0.8515861,-0.146844,-0.03024256,0.7013674,-0.4979159,-0.0520376,-0.2186011,-0.1930875,-0.6053224,-0.4948486,0.01557815,-0.5209308,-0.8469996,-0.4920663,0.1880225,-0.1033577,0.9051046,0.9002311,0.5308967,-0.8535893,-0.3948802,-0.02204978,-0.5690181,0.2997408,-0.586314,0.5714102,0.7406006,0.1946384,-0.430817,0.769825,0.3160665,-0.05159342,0.1318556,0.9666047,-0.4437596,-0.8895297,0.8396854,0.7361693,0.6856177,-0.3290058,-0.7806413,-0.3393716,-0.6001265,0.05496132,-0.8244567,-0.7019293,0.852042,-0.6627362,-0.02017057,-0.5854659,-0.6702073,0.8715038,0.5122523,0.1358632,-0.1959597,0.1137346,0.6461754,0.6560726,0.7828023,0.8861194,0.5840728,0.6200209,0.8470433,-0.6491623,0.1543595,0.001493812,-0.8694162,-0.6012464,-0.1945692,0.9715726,0.1149791,-0.1709925,-0.5204742,0.6210532,-0.3486048,0.1066638,0.2748906,0.01197541,0.984163,0.5359597,0.9417448,-0.7832978,0.5393448,-0.006303668,-0.1114506,-0.7895558,-0.7613339,-0.7593136,0.2432398,-0.8113654,-0.6703088,0.9705935,0.5603728,-0.8795011,0.4298014,-0.5388708,0.3019013,0.759743,0.5031168,0.4228737,-0.6205666,0.2235111,0.1938082,-0.3012813,0.2132398,0.5433621,-0.2196409,0.8710604,0.6042233,-0.3098327,-0.6198466,-0.8383274,-0.4527656,-0.7463336,-0.2418734,-0.5168111,0.5418735,0.7733755],[-0.2591568,-0.07256067,0.8367734,-0.9509151,0.5903335,0.1409308,0.1621097,0.05663002,0.7218406,-0.2270192,0.277466,0.9578221,-0.5907166,0.8093691,0.1260535,-0.990793,0.09665787,0.6162179,0.5670466,-0.2863003,-0.5157962,0.5797913,0.7166438,-0.8040895,0.9532042,0.02148354,-0.5672629,0.1358701,-0.7010696,0.132454,0.4800605,-0.05924737,0.6488891,0.6980634,0.6052389,0.03314269,0.1796397,0.9462516,0.5230117,0.568017,0.9022276,0.8068004,-0.4639243,0.9316986,0.3441233,0.1327838,-0.6421571,0.8017106,-0.2612482,0.8317835,0.03702009,0.001932502,0.4499807,-0.7839441,0.7169662,0.6418118,-0.8884039,-0.1472863,-0.02209604,-0.4723758,0.2259053,-0.832082,0.3855245,-0.535809,-0.8056993,0.1859032,-0.3468031,-0.2592238,0.8624654,-0.1614941,0.7308943,0.727339,-0.1535114,-0.640449,-0.08754909,0.6680837,0.4945621,-0.3766686,0.6998467,-0.389064,-0.09517443,0.21653,-0.1331736,-0.5308862,-0.47923,0.5486081,0.1114725,-0.3260533,-0.5188713,0.5011778,-0.4647075,-0.303141,0.2552612,0.5530624,0.8366053,-0.5848954,0.5711741,-0.6176107,0.4966149,-0.3892497,0.4020574,-0.9192593,-0.9252765,0.3763056,0.1477748,-0.175721,0.4111652,-0.2583185,-0.6929016,0.1833221,-0.01657426,0.5579352,0.6298516,-0.7333195,-0.8045645,0.9816959,-0.9385412,-0.7075758,-0.444151,0.9183376,-0.7678592,-0.8021059,0.3674762,-0.6229775,-0.9364088,0.7257392,-0.1093274,-0.5666053,-0.825424,-0.886616,-0.6987441,0.5152464,-0.5760524,0.6184978,-0.1270703,0.8178177,0.01963294,-0.01275265,0.1380898,-0.06113851,-0.06016529,-0.7554226,-0.3708237,0.4636781,0.5865963,-0.7851384,-0.6644123,0.01239264,-0.2558314,-0.4343785,0.08777726,-0.1054724,-0.8120239,-0.7625153,0.6828175,0.1060911,-0.2649652,-0.6866019,0.9051321,0.7838476,-0.3545691,0.2172309,-0.9314535,-0.03751695,0.6660845,0.3957524,-0.7150862,0.5434136,0.6309016,-0.7906127,-0.005867362,-0.8264179,-0.8641651,-0.07867944,0.6072762,0.461152,-0.9133179,-0.7483687,-0.9514618,0.934948,-0.09141529,-0.2724086,0.2368945,0.3297379,0.7938776,-0.03036892,-0.7043788,-0.2126693,-0.5827589,0.6893449,-0.9640858,-0.4353503,-0.02874768,0.8120129,0.3179664,-0.7769485,0.1889209,0.2412471,-0.4028298,-0.6951699,0.0592984,0.6146522,-0.3824314,-0.406438,-0.1615871,-0.4410542,0.8828127,0.1703283,0.7676425,0.9659302,0.7965114,-0.4354407,0.0982548,-0.2420052,0.2512011,-0.4314946,-0.1520621,-0.8366058,-0.515563,-0.05692399,0.6979389,-0.09945428,0.8600399,-0.2673136,-0.3667802,0.8877847,0.9343684,-0.3533891,0.8816893,-0.1573087,-0.1278516,0.3809659,0.1071337,0.4745888,-0.4633852,0.6647172,-0.6806777,0.1453811,0.238402,-0.7301559,-0.7901583,0.6795111,-0.2876061,-0.8830259,-0.6311674,-0.8493311,-0.7516191,0.5434968,0.0938884,-0.03227031,0.8577325,0.7726612,-0.1311854,0.6786878,0.7790053,-0.7702239],[0.4661669,-0.4256819,-0.8767509,0.7398343,-0.3625926,-0.743788,0.8606343,-0.164976,0.0168699,0.1074449,0.6913116,0.441277,0.1639186,0.9653766,-0.01710546,0.6096604,0.6954155,-0.8088057,-0.7080898,-0.1892959,-0.5876226,0.6190958,0.9464757,0.7776184,0.4862091,-0.212762,-0.3630029,0.3956237,-0.2716118,-0.335519,0.3336711,0.2180129,0.4048268,-0.8208857,0.3639731,0.2742595,0.001384616,-0.2946519,0.504698,0.8797307,0.4987225,0.1517729,0.9644394,-0.1097137,0.4179763,0.3244092,0.5717695,0.2268115]],[[0.2959885,0.8349595,-0.3748597,0.1166815,0.4369228,0.0008832216,0.6869352,-0.5133722,0.7042871,-0.2362839,-0.02859104,0.2258998,-0.9842608,0.7428384,0.7547667,-0.8987932,0.8519931,-0.5549586,0.2409624,-0.1932207,-0.2801307,-0.4609846,-0.1586517,0.1075155,-0.6489365,-0.1042031,0.7040143,-0.6564364,0.6204138,0.3418934,-0.275349,0.1784865,0.5236733,-0.7068589,-0.4878989,-0.2631372,0.9709437,0.01992381,-0.2796401,-0.9239902,0.7414813,-0.9216757,0.984324,-0.9438696,-0.2832979,-0.9614279,0.6926649,0.05196178,-0.5498343,0.3853161,0.7788107,-0.6568916,-0.157077,0.2639837,0.2790849,0.0543164,-0.8560531,-0.1485983,0.6710036,-0.1558751,0.8342187,0.7063541,0.6071649,-0.501915,0.6375127,-0.1163481,0.1939915,-0.2914788,-0.5840914,0.5595758,-0.08535278,0.546577,-0.1496316,-0.7517796,0.8515861,-0.146844,-0.03024256,0.7013674,-0.4979159,-0.0520376,-0.2186011,-0.1930875,-0.6053224,0.7390184,0.01557815,-0.5209308,-0.8469996,-0.4920663,0.1880225,-0.1033577,0.9051046,0.9002311,0.5308967,-0.8535893,-0.3948802,-0.02204978,-0.5690181,0.3208105,-0.586314,0.5714102,0.7406006,0.1946384,-0.430817,0.769825,0.3160665,-0.05159342,0.1318556,0.9666047,-0.4437596,-0.8895297,0.8396854,0.7361693,0.6856177,-0.3290058,-0.7806413,-0.3393716,-0.6001265,0.05496132,-0.8244567,-0.7019293,0.852042,0.4317953,-0.02017057,-0.5854659,-0.6702073,0.8715038,0.5122523,0.1358632,-0.1959597,0.1137346,0.6461754,0.6560726,0.7828023,0.8861194,0.5840728,0.6200209,0.8470433,-0.6491623,0.1543595,0.001493812,-0.8694162,-0.6012464,-0.1945692,0.9715726,0.1149791,-0.1709925,-0.5204742,0.6210532,-0.3486048,0.1066638,0.2748906,0.01197541,0.984163,0.5359597,0.9417448,-0.7832978,0.5393448,-0.006303668,-0.1114506,0.8709509,-0.7613339,-0.7593136,0.2432398,-0.8113654,-0.6703088,0.9705935,0.5603728,-0.8795011,0.4298014,-0.5388708,0.3019013,0.759743,0.5031168,0.4228737,-0.6205666,-0.4748982,0.1938082,-0.3012813,0.2132398,0.5433621,-0.2196409,0.8710604,0.08493817,-0.3098327,-0.6198466,-0.8383274,-0.4527656,-0.7463336,-0.2418734,-0.5168111,0.5418735,0.7733755],[-0.2591568,-0.07256067,0.8367734,-0.9509151,0.5903335,0.1409308,0.1621097,0.05663002,0.7218406,-0.2270192,0.277466,0.9578221,-0.5907166,0.8093691,0.1260535,-0.990793,0.09665787,0.6162179,0.5670466,-0.2863003,-0.5157962,0.5797913,0.7166438,-0.8040895,0.9532042,0.02148354,-0.5672629,0.1358701,-0.7010696,0.132454,0.4800605,-0.05924737,0.6488891,0.6980634,0.6052389,0.03314269,0.1796397,0.9462516,0.5230117,0.568017,0.9022276,0.8068004,-0.4639243,0.9316986,0.3441233,0.1327838,-0.6421571,0.8017106,-0.2612482,0.8317835,0.03702009,0.001932502,0.4499807,-0.7839441,0.7169662,0.6418118,-0.8884039,-0.1472863,-0.02209604,-0.4723758,0.2259053,-0.832082,0.3855245,-0.535809,-0.8056993,0.1859032,-0.3468031,-0.2592238,0.8624654,-0.1614941,0.7308943,0.727339,-0.1535114,-0.640449,-0.08754909,0.6680837,0.4945621,-0.3766686,0.6998467,-0.389064,-0.09517443,0.21653,-0.1331736,-0.5308862,-0.47923,0.5486081,0.1114725,-0.3260533,-0.5188713,0.5011778,-0.4647075,-0.303141,0.2552612,0.5530624,0.8366053,-0.5848954,0.5711741,-0.6176107,0.4966149,-0.3892497,0.4020574,-0.9192593,-0.9252765,0.3763056,0.1477748,-0.175721,0.4111652,-0.2583185,-0.6929016,0.1833221,-0.01657426,0.5579352,0.6298516,-0.7333195,-0.8045645,0.9816959,-0.9385412,-0.7075758,-0.444151,0.9183376,-0.7678592,-0.8021059,0.3674762,-0.6229775,-0.9364088,0.7257392,-0.1093274,-0.5666053,-0.825424,-0.886616,-0.6987441,0.5152464,-0.5760524,0.6184978,-0.1270703,0.8178177,0.01963294,-0.01275265,0.1380898,-0.06113851,-0.06016529,-0.7554226,-0.3708237,0.4636781,0.5865963,-0.7851384,-0.6644123,0.01239264,-0.2558314,-0.4343785,0.08777726,-0.1054724,-0.8120239,-0.7625153,0.6828175,0.1060911,-0.2649652,-0.6866019,0.9051321,0.7838476,-0.3545691,0.2172309,-0.9314535,-0.03751695,0.6660845,0.3957524,-0.7150862,0.5434136,0.6309016,-0.7906127,-0.005867362,-0.8264179,-0.8641651,-0.07867944,0.6072762,0.461152,-0.9133179,-0.7483687,-0.9514618,0.934948,-0.09141529,-0.494902,0.2368945,0.3297379,0.7938776,-0.03036892,-0.7043788,-0.2126693,-0.5827589,0.6893449,-0.9640858,-0.4353503,-0.02874768,0.8120129,0.3179664,-0.7769485,0.1889209,0.2412471,-0.4028298,-0.6951699,0.0592984,0.6146522,0.9585781,-0.406438,-0.1615871,-0.4410542,0.8828127,0.1703283,0.7676425,0.9659302,0.7965114,-0.4354407,0.0982548,-0.2420052,0.2512011,-0.4314946,-0.1520621,-0.8366058,-0.515563,-0.05692399,0.6979389,-0.09945428,0.8600399,-0.2673136,-0.3667802,0.8877847,0.9343684,-0.3533891,0.8816893,-0.1573087,-0.1278516,0.3809659,0.1071337,0.4745888,-0.4633852,0.6647172,-0.6806777,0.1453811,0.238402,-0.7301559,-0.7901583,0.6795111,-0.2876061,-0.8830259,-0.6311674,-0.8493311,-0.7516191,-0.04763162,0.0938884,-0.03227031,0.8577325,0.7726612,-0.1311854,0.6786878,0.7790053,-0.7702239],[0.4661669,-0.4256819,-0.8767509,0.7398343,-0.3625926,-0.743788,0.8606343,-0.164976,0.0168699,0.1074449,0.6913116,0.441277,0.1639186,0.9653766,-0.01710546,0.6096604,0.6954155,-0.8088057,-0.7080898,-0.1892959,-0.5876226,0.6190958,0.9464757,0.7776184,0.4862091,-0.212762,-0.3630029,0.3956237,-0.2716118,-0.335519,0.3336711,0.2180129,0.4048268,-0.8208857,0.3639731,0.2742595,0.001384616,-0.2946519,0.504698,0.8797307,0.4987225,0.1517729,0.9644394,-0.1097137,0.4179763,0.3244092,0.5717695,0.2268115]],[[0.2959885,0.8349595,-0.3748597,0.1166815,0.4369228,0.0008832216,0.6869352,-0.5133722,0.7042871,-0.2362839,-0.02859104,0.2258998,-0.9842608,0.7428384,0.7547667,-0.8987932,0.8519931,-0.5549586,0.2409624,-0.1932207,-0.2801307,-0.4609846,-0.1586517,0.1075155,-0.6489365,0.3092851,0.7040143,-0.6564364,0.6204138,0.3418934,-0.275349,0.1784865,0.5236733,-0.7068589,-0.4878989,-0.2631372,0.9709437,0.01992381,-0.2796401,-0.9239902,0.7414813,-0.9216757,0.984324,-0.9438696,-0.2832979,-0.9614279,0.6926649,0.05196178,-0.5498343,0.3853161,0.7788107,-0.6568916,-0.157077,0.2639837,0.2790849,0.0543164,-0.8560531,-0.1485983,0.6710036,-0.1558751,0.8342187,0.7063541,0.6071649,-0.501915,0.6375127,-0.1163481,0.1939915,-0.2914788,0.4947436,0.5595758,-0.08535278,0.546577,-0.1496316,-0.7517796,0.8515861,-0.146844,-0.03024256,0.7013674,-0.4979159,-0.0520376,-0.2186011,-0.1930875,-0.6053224,0.7390184,0.01557815,-0.5209308,-0.8469996,-0.4920663,0.1880225,-0.1033577,0.9051046,0.9002311,0.5308967,-0.8535893,-0.3948802,-0.02204978,-0.5690181,0.3208105,0.4352829,0.5714102,0.7406006,0.1946384,-0.430817,0.769825,0.3160665,-0.05159342,0.1318556,0.9666047,-0.4437596,-0.8895297,0.8396854,0.7361693,0.6856177,-0.3290058,-0.7806413,-0.3393716,-0.6001265,0.05496132,-0.8244567,-0.7019293,0.852042,-0.6627362,-0.02017057,-0.5854659,-0.6702073,0.8715038,0.5122523,0.1358632,-0.1959597,0.1137346,0.6461754,0.6560726,0.7828023,0.8861194,0.5840728,0.6200209,0.8470433,-0.6491623,0.1543595,0.001493812,-0.8694162,-0.6012464,-0.1945692,0.9715726,0.1149791,0.8408222,-0.5204742,0.6210532,-0.3486048,0.1066638,0.2748906,0.01197541,0.984163,0.5359597,0.9417448,-0.7832978,0.5393448,-0.006303668,-0.1114506,-0.7895558,-0.7613339,-0.7593136,0.2432398,-0.8113654,-0.6703088,0.9705935,0.5603728,-0.8795011,0.4298014,-0.5388708,0.3019013,0.759743,0.5031168,0.4228737,-0.6205666,0.2235111,0.1938082,-0.3012813,0.2132398,0.5433621,-0.2196409,0.8710604,0.6042233,-0.3098327,-0.6198466,-0.8383274,-0.4527656,-0.7463336,-0.2418734,-0.5168111,0.5418735,0.7733755],[-0.2591568,-0.07256067,0.8367734,-0.9509151,0.5903335,0.1409308,0.1621097,0.05663002,0.7218406,-0.2270192,0.277466,0.9578221,-0.5907166,0.8093691,0.1260535,-0.990793,0.09665787,0.6162179,0.5670466,-0.2863003,-0.5157962,0.5797913,0.7166438,-0.8040895,0.9532042,0.02148354,-0.5672629,0.1358701,-0.7010696,0.132454,0.4800605,-0.05924737,0.6488891,0.6980634,0.6052389,0.03314269,0.1796397,0.9462516,0.5230117,0.568017,0.9022276,0.8068004,-0.4639243,0.9316986,0.3441233,0.1327838,-0.6421571,0.8017106,-0.2612482,0.8317835,0.03702009,0.001932502,0.4499807,-0.7839441,0.7169662,0.6418118,-0.8884039,-0.1472863,-0.02209604,-0.4723758,0.2259053,-0.832082,0.3855245,-0.535809,-0.8056993,0.1859032,-0.3468031,-0.2592238,0.8624654,-0.1614941,0.7308943,0.727339,-0.1535114,-0.640449,-0.08754909,0.6680837,0.4945621,-0.3766686,0.6998467,-0.389064,-0.09517443,0.21653,-0.1331736,-0.5308862,-0.47923,0.5486081,0.1114725,-0.3260533,-0.5188713,0.5011778,-0.4647075,-0.303141,0.2552612,0.5530624,0.8366053,-0.5848954,0.5711741,-0.6176107,0.4966149,-0.3892497,0.6653309,-0.9192593,-0.9252765,0.3763056,0.1477748,-0.175721,0.4111652,-0.2583185,-0.6929016,0.1833221,-0.01657426,0.5579352,0.6298516,-0.7333195,-0.8045645,0.9816959,-0.9385412,-0.7075758,-0.444151,0.9183376,-0.7678592,-0.8021059,0.3674762,-0.6229775,-0.9364088,0.7257392,-0.1093274,-0.5666053,-0.825424,-0.886616,-0.6987441,0.5152464,-0.5760524,0.6184978,-0.1270703,0.8178177,0.01963294,-0.01275265,0.1380898,-0.06113851,-0.06016529,-0.7554226,-0.3708237,0.4636781,0.5865963,-0.7851384,-0.6644123,0.01239264,-0.2558314,-0.4343785,0.08777726,-0.1054724,-0.8120239,-0.7625153,0.6828175,0.1060911,-0.2649652,-0.6866019,0.9051321,0.7838476,-0.3545691,0.2172309,-0.9314535,-0.03751695,0.6660845,0.3957524,-0.7150862,0.5434136,0.6309016,-0.7906127,-0.005867362,-0.8264179,-0.8641651,-0.07867944,0.6072762,0.461152,-0.9133179,-0.7483687,-0.9514618,0.934948,-0.09141529,-0.494902,0.2368945,0.3297379,0.7938776,-0.03036892,-0.7043788,-0.2126693,-0.5827589,0.6893449,-0.9640858,-0.4353503,-0.02874768,0.8120129,0.3179664,-0.7769485,0.1889209,0.2412471,-0.4028298,-0.6951699,0.0592984,0.6146522,0.9585781,-0.406438,-0.1615871,-0.4410542,-0.4093739,0.1703283,0.7676425,0.9659302,0.7965114,-0.4354407,0.0982548,-0.2420052,0.2512011,-0.4314946,-0.1520621,-0.8366058,-0.515563,-0.05692399,0.6979389,-0.09945428,0.8600399,-0.2673136,-0.3667802,0.8877847,0.9343684,-0.3533891,0.8816893,-0.1573087,-0.1278516,0.3809659,0.1071337,0.4745888,-0.4633852,0.6647172,-0.6806777,0.1453811,0.238402,-0.7301559,-0.7901583,0.6795111,-0.2876061,-0.8830259,-0.6311674,-0.8493311,-0.7516191,-0.04763162,0.0938884,-0.03227031,0.8577325,0.7726612,-0.1311854,0.6786878,0.7790053,-0.7702239],[0.4661669,-0.4256819,-0.8767509,0.7398343,-0.3625926,-0.743788,0.8606343,-0.164976,0.0168699,0.1074449,0.6913116,0.3117244,0.1639186,0.9653766,-0.01710546,0.6096604,0.6954155,-0.8088057,-0.7080898,-0.1892959,-0.5876226,0.6190958,0.9464757,0.7776184,0.4862091,-0.212762,-0.3630029,0.3956237,-0.2716118,-0.335519,0.3336711,0.2180129,0.4048268,-0.8208857,0.3639731,0.2742595,0.001384616,-0.2946519,0.504698,0.8797307,0.4987225,0.1517729,0.9644394,-0.1097137,0.4179763,0.3244092,0.5717695,0.2268115]],[[0.2959885,0.8349595,-0.3748597,0.1166815,0.4369228,0.0008832216,0.6869352,-0.5133722,0.7042871,-0.2362839,-0.02859104,0.2258998,-0.9842608,0.7428384,0.7547667,-0.8987932,0.7820652,-0.5549586,0.2409624,-0.1932207,-0.2801307,-0.4609846,-0.1586517,0.1075155,-0.6489365,-0.1042031,0.7040143,-0.6564364,0.6204138,0.3418934,-0.275349,0.1784865,0.5236733,-0.7068589,-0.4878989,-0.2631372,0.9709437,0.01992381,-0.2796401,-0.9239902,0.7414813,-0.9216757,0.984324,-0.9438696,-0.2832979,-0.9614279,0.6926649,0.05196178,-0.5498343,0.3853161,0.7788107,-0.6568916,-0.157077,0.2639837,0.2790849,0.0543164,-0.8560531,-0.1485983,0.6710036,-0.1558751,0.8342187,0.7063541,0.6071649,-0.501915,0.6375127,-0.1163481,0.1939915,-0.2914788,-0.5840914,0.5595758,-0.08535278,0.546577,-0.1496316,-0.7517796,0.8515861,-0.146844,-0.03024256,0.7013674,-0.4979159,-0.0520376,-0.2186011,-0.1930875,-0.6053224,0.7390184,0.01557815,-0.5209308,-0.8469996,-0.4920663,0.1880225,-0.1033577,0.9051046,0.9002311,0.5308967,-0.8535893,-0.3948802,-0.02204978,-0.5690181,0.3208105,-0.586314,0.5714102,0.7406006,0.1946384,-0.430817,0.769825,0.3160665,-0.05159342,0.1318556,0.9666047,-0.4437596,-0.8895297,0.8396854,0.7361693,0.6856177,-0.3290058,-0.7806413,-0.3393716,-0.6001265,0.05496132,-0.8244567,-0.7019293,0.852042,-0.6627362,-0.02017057,-0.5854659,-0.6702073,0.8715038,0.5122523,0.1358632,-0.1959597,0.1137346,0.6461754,0.6560726,0.7828023,0.8861194,0.5840728,0.6200209,0.8470433,-0.6491623,0.1543595,0.001493812,-0.8694162,-0.6012464,-0.1945692,0.9715726,0.1149791,-0.1709925,-0.5204742,0.6210532,-0.3486048,0.1066638,0.2748906,0.01197541,0.984163,0.5359597,0.9417448,-0.7832978,0.5393448,-0.006303668,-0.1114506,-0.7895558,-0.7613339,-0.7593136,0.2432398,-0.8113654,-0.6703088,0.9705935,0.5603728,-0.8795011,0.4298014,-0.320958,0.3019013,0.759743,0.5031168,0.4228737,-0.6205666,0.2235111,0.1938082,-0.3012813,0.2132398,0.5433621,-0.2196409,0.8710604,0.6042233,-0.3098327,-0.6198466,-0.8383274,-0.4527656,-0.7463336,-0.2418734,-0.5168111,0.5418735,0.7733755],[-0.2591568,-0.07256067,0.8367734,-0.9509151,0.5903335,0.1409308,0.1621097,0.05663002,0.7218406,-0.2270192,0.277466,0.9578221,-0.5907166,0.8093691,0.1260535,-0.990793,0.09665787,0.6162179,0.5670466,-0.2863003,-0.5157962,0.5797913,0.7166438,-0.8040895,0.9532042,0.02148354,-0.5672629,0.1358701,-0.7010696,0.132454,0.4800605,-0.05924737,0.6488891,0.6980634,0.6052389,0.03314269,0.1796397,0.9462516,0.5230117,0.568017,0.9022276,0.8068004,-0.4639243,0.9316986,0.3441233,0.1327838,-0.6421571,0.8017106,-0.2612482,0.8317835,0.03702009,0.001932502,0.4499807,-0.7839441,0.7169662,0.6418118,-0.8884039,-0.1472863,-0.02209604,-0.4723758,0.2259053,-0.832082,0.3855245,-0.535809,-0.8056993,0.1859032,-0.3468031,-0.2592238,0.8624654,-0.1614941,0.7308943,0.727339,-0.1535114,-0.640449,-0.08754909,0.6680837,0.4945621,-0.3766686,0.6998467,-0.389064,-0.09517443,0.21653,-0.1331736,-0.5308862,-0.47923,0.5486081,0.1114725,-0.3260533,-0.5188713,0.5011778,-0.4647075,-0.303141,0.2552612,0.5530624,0.8366053,-0.5848954,0.5711741,0.276391,0.4966149,-0.3892497,0.4020574,-0.9192593,-0.9252765,0.3763056,0.1477748,-0.175721,0.4111652,-0.2583185,-0.6929016,0.1833221,-0.01657426,0.5579352,0.6298516,-0.7333195,-0.8045645,0.9816959,-0.9385412,-0.7075758,-0.444151,0.9183376,-0.7678592,-0.8021059,0.3674762,-0.6229775,-0.9364088,0.7257392,-0.1093274,-0.5666053,-0.825424,-0.886616,-0.6987441,0.5152464,-0.5760524,0.6184978,-0.1270703,0.8178177,0.01963294,-0.04450428,0.1380898,-0.06113851,-0.06016529,-0.7554226,-0.3708237,0.4636781,0.5865963,-0.7851384,-0.6644123,0.01239264,-0.2558314,-0.4343785,0.08777726,-0.1054724,-0.8120239,-0.7625153,0.6828175,0.1060911,-0.2649652,-0.6866019,0.9051321,0.7838476,-0.3545691,0.2172309,-0.9314535,-0.03751695,0.6660845,0.3957524,-0.7150862,0.5434136,0.6309016,-0.7906127,-0.005867362,-0.8264179,-0.8641651,-0.07867944,0.6072762,0.461152,-0.9133179,-0.7483687,-0.9514618,0.934948,-0.09141529,-0.494902,0.2368945,0.3297379,0.7938776,-0.03036892,-0.7043788,-0.2126693,-0.5827589,0.6893449,-0.9640858,-0.4353503,-0.02874768,0.8120129,0.3179664,-0.7769485,0.1889209,0.2412471,-0.4028298,-0.6951699,0.0592984,0.6146522,0.9585781,-0.406438,-0.1615871,-0.4410542,0.8828127,0.1703283,0.7676425,0.9659302,0.7965114,0.003644347,0.0982548,-0.2420052,0.2512011,-0.4314946,-0.1520621,-0.8366058,-0.515563,-0.05692399,0.6979389,-0.09945428,0.8600399,-0.2673136,-0.3667802,0.8877847,0.9343684,-0.3533891,0.8816893,-0.1573087,-0.1278516,0.3809659,0.4086258,0.4745888,-0.4633852,0.6647172,-0.6806777,0.1453811,0.238402,-0.7301559,-0.7901583,0.6795111,-0.2876061,-0.8830259,-0.6311674,-0.8493311,-0.7516191,-0.04763162,0.0938884,-0.03227031,0.8577325,0.7726612,-0.1311854,0.6786878,0.7790053,-0.7702239],[0.4661669,-0.4256819,-0.8767509,0.7398343,-0.3625926,-0.743788,0.8606343,-0.164976,0.0168699,0.1074449,0.6913116,0.441277,0.1639186,0.9653766,0.2757048,0.6096604,0.6954155,-0.8088057,-0.7080898,-0.1892959,-0.5876226,0.6190958,0.9464757,0.7776184,0.4862091,-0.212762,-0.3630029,0.3956237,-0.2716118,-0.335519,0.3336711,0.2180129,0.4048268,-0.8208857,0.3639731,0.2742595,0.001384616,-0.2946519,0.504698,0.8797307,0.4987225,0.1517729,0.9644394,-0.1097137,0.4179763,0.3244092,0.5717695,0.2268115]],[[0.2959885,0.8349595,-0.3748597,0.1166815,0.4369228,0.0008832216,0.6869352,-0.5133722,0.7042871,-0.2362839,-0.02859104,0.2258998,-0.9842608,0.7428384,0.7547667,-0.8987932,0.8519931,-0.5549586,0.2409624,-0.1932207,-0.2801307,-0.4609846,-0.1586517,-0.2935008,-0.6489365,-0.1042031,0.7040143,-0.6564364,0.6204138,0.3418934,-0.275349,0.1784865,0.5236733,-0.7068589,-0.4878989,-0.2631372,0.9709437,0.01992381,-0.2796401,-0.9239902,0.7414813,-0.9216757,0.984324,-0.9438696,-0.2832979,-0.9614279,0.6926649,0.05196178,-0.5498343,0.3853161,0.7788107,-0.3499631,-0.157077,0.2639837,0.2790849,0.0543164,-0.8560531,-0.1485983,0.6710036,-0.1558751,0.8342187,0.7063541,0.6071649,-0.501915,0.6375127,-0.1163481,0.1939915,-0.2914788,-0.5840914,0.5595758,-0.08535278,0.546577,-0.1496316,-0.7517796,0.8515861,-0.146844,-0.03024256,0.7013674,-0.4979159,-0.0520376,-0.2186011,-0.1930875,-0.6053224,0.7390184,0.01557815,-0.5209308,-0.8469996,-0.4920663,0.1880225,-0.1033577,0.9051046,0.9002311,0.5308967,-0.8535893,-0.3948802,-0.02204978,-0.5690181,0.3208105,-0.586314,0.5714102,0.7406006,0.1946384,-0.430817,0.769825,0.3160665,-0.05159342,0.1318556,0.9666047,-0.4437596,-0.8895297,0.8396854,0.7361693,0.6856177,-0.3290058,-0.7806413,-0.3393716,-0.6001265,0.05496132,-0.8244567,-0.7019293,0.852042,-0.6627362,-0.02017057,-0.5854659,-0.6702073,0.8715038,0.5122523,0.1358632,-0.1959597,0.1137346,0.6461754,0.6560726,0.7828023,0.8861194,0.5840728,0.6200209,0.8470433,-0.6491623,0.1543595,0.001493812,-0.8694162,-0.6012464,-0.1945692,0.9715726,0.1149791,-0.1709925,-0.5204742,0.6210532,-0.3486048,0.1066638,0.2748906,0.01197541,0.984163,0.5359597,0.9417448,-0.7832978,0.5393448,-0.006303668,-0.1114506,-0.7895558,-0.7613339,-0.7593136,0.2432398,-0.8113654,-0.6703088,0.9705935,0.5603728,-0.8795011,0.4298014,-0.5388708,0.3019013,0.759743,0.5031168,0.4228737,-0.6205666,0.2235111,0.1938082,-0.3012813,0.2132398,0.5433621,-0.2196409,0.8710604,0.6042233,-0.3098327,-0.6198466,-0.8383274,-0.4527656,-0.7463336,-0.2418734,-0.5168111,0.5418735,0.7733755],[-0.2591568,-0.07256067,0.8367734,-0.9509151,0.5903335,0.1409308,0.1621097,0.05663002,0.7218406,-0.2270192,0.277466,0.9578221,-0.5907166,0.8093691,0.1260535,-0.7517509,0.09665787,0.6162179,0.5670466,-0.2863003,-0.5157962,0.5797913,0.7166438,-0.8040895,0.9532042,0.02148354,-0.5672629,0.1358701,-0.7010696,0.132454,0.4800605,-0.05924737,0.6488891,0.6980634,0.6052389,0.03314269,0.1796397,0.9462516,0.5230117,0.568017,0.9022276,0.8068004,-0.4639243,0.9316986,0.3441233,0.1327838,-0.6421571,0.8017106,-0.2612482,0.8317835,0.03702009,0.001932502,0.4499807,-0.7839441,0.7169662,0.6418118,-0.8884039,-0.1472863,-0.02209604,-0.4723758,0.2259053,-0.832082,0.3855245,-0.535809,-0.8056993,0.1859032,-0.3468031,-0.2592238,0.8624654,-0.1614941,0.7308943,0.727339,-0.1535114,-0.640449,-0.08754909,0.6680837,0.4945621,-0.3766686,0.6998467,-0.389064,-0.09517443,0.21653,-0.1331736,-0.5308862,-0.47923,0.5486081,0.1114725,-0.3260533,-0.5188713,0.5011778,-0.4647075,-0.303141,0.2552612,0.5530624,0.8366053,-0.5848954,0.5711741,-0.6176107,0.4966149,-0.3892497,0.4020574,-0.9192593,-0.9252765,0.3763056,0.1477748,-0.175721,0.4111652,-0.2583185,-0.6929016,0.1833221,-0.01657426,0.5579352,0.6298516,-0.7333195,-0.8045645,0.9816959,-0.9385412,-0.7075758,-0.444151,0.9183376,-0.7678592,-0.8021059,0.3674762,-0.6229775,-0.9364088,0.7257392,-0.1093274,-0.5666053,-0.825424,-0.886616,-0.6987441,0.5152464,-0.5760524,0.6184978,-0.1270703,0.8178177,0.01963294,0.7676227,0.1380898,-0.06113851,-0.06016529,-0.7554226,-0.3708237,0.4636781,0.5865963,-0.7851384,-0.6644123,0.01239264,-0.2558314,-0.4343785,0.08777726,-0.1054724,-0.8120239,-0.7625153,0.6828175,0.1060911,-0.2649652,-0.6866019,0.9051321,0.7838476,-0.3545691,0.2172309,-0.9314535,-0.03751695,0.6660845,0.3957524,-0.7150862,0.5434136,0.6309016,-0.7906127,-0.005867362,-0.8264179,-0.8641651,-0.07867944,0.6072762,0.461152,-0.9133179,-0.7483687,-0.9514618,0.934948,-0.09141529,-0.494902,0.2368945,0.3297379,0.7938776,-0.03036892,-0.7043788,-0.2126693,-0.5827589,0.6893449,-0.9640858,-0.4353503,-0.02874768,0.8120129,0.3179664,-0.7769485,0.1889209,0.2412471,-0.4028298,-0.6951699,0.0592984,0.6146522,0.9585781,-0.406438,-0.1615871,-0.4410542,0.8828127,0.1703283,0.7676425,0.9659302,0.7965114,-0.4354407,0.0982548,-0.2420052,0.2512011,-0.4314946,-0.1520621,-0.8366058,-0.515563,-0.05692399,0.6979389,-0.09945428,0.8600399,-0.2673136,-0.3667802,0.8877847,0.9343684,-0.3533891,0.8816893,-0.1573087,-0.1278516,0.3809659,0.1071337,0.4745888,-0.4633852,0.6647172,-0.6806777,0.1453811,0.238402,-0.7301559,-0.7901583,0.6795111,-0.4707729,-0.8830259,-0.6311674,-0.8493311,-0.7516191,-0.04763162,0.0938884,-0.03227031,0.8577325,0.7726612,-0.1311854,0.6786878,0.7790053,-0.7702239],[0.4661669,-0.4256819,-0.8767509,0.7398343,-0.3625926,-0.743788,0.8606343,-0.164976,0.0168699,0.1074449,0.6913116,0.441277,0.1639186,0.9653766,-0.01710546,0.6096604,0.6954155,-0.7349398,-0.7080898,-0.1892959,-0.5876226,0.6190958,0.9464757,0.7776184,0.4862091,-0.212762,-0.3630029,0.3956237,-0.2716118,-0.335519,0.3336711,0.2180129,0.4048268,-0.8208857,0.3639731,0.2742595,0.001384616,-0.2946519,0.504698,0.8797307,0.4987225,0.1517729,0.9644394,-0.1097137,0.4179763,0.3244092,0.5717695,0.2268115]],[[0.2959885,0.8349595,-0.3748597,0.1166815,0.4369228,0.0008832216,0.6869352,-0.5133722,0.7042871,-0.2362839,-0.02859104,0.2258998,-0.9842608,0.7428384,0.7547667,-0.8987932,0.8519931,-0.5549586,0.2409624,-0.1932207,-0.2801307,-0.4609846,-0.1586517,0.1075155,-0.6489365,-0.1042031,0.7040143,-0.6564364,0.6204138,0.3418934,-0.275349,0.1784865,0.5236733,-0.7068589,-0.4878989,-0.2631372,0.9709437,0.01992381,-0.2796401,-0.9239902,0.7414813,-0.9216757,0.984324,-0.9438696,-0.2832979,-0.9614279,0.6926649,0.05196178,-0.5498343,0.3853161,0.7788107,-0.6568916,-0.157077,0.2639837,0.2790849,0.0543164,-0.8560531,-0.1485983,0.6710036,-0.1558751,0.8342187,0.7063541,0.6071649,-0.501915,0.6375127,-0.1163481,0.1939915,-0.2914788,-0.5840914,0.5595758,-0.08535278,0.546577,-0.1496316,-0.7517796,0.8515861,-0.146844,-0.03024256,0.7013674,-0.4979159,-0.0520376,-0.2186011,-0.1930875,-0.6053224,0.7390184,0.01557815,-0.5209308,-0.8469996,-0.4920663,0.1880225,-0.1033577,0.9051046,0.9002311,0.5308967,-0.8535893,-0.3948802,-0.02204978,-0.5690181,0.3612916,-0.586314,0.5714102,0.7406006,0.1946384,-0.430817,0.769825,0.3160665,-0.05159342,0.1318556,0.9666047,-0.4437596,-0.8895297,0.8396854,0.7361693,0.6856177,-0.3290058,-0.7806413,-0.3393716,-0.6001265,0.05496132,-0.8244567,-0.7019293,0.852042,-0.6627362,-0.02017057,-0.5854659,-0.6702073,0.8715038,0.5122523,0.1358632,-0.1959597,0.1137346,0.6461754,0.6560726,0.7828023,0.8861194,0.5840728,0.6200209,0.8470433,-0.6491623,0.1543595,0.001493812,-0.8694162,-0.6012464,-0.1945692,0.9715726,0.1149791,-0.1709925,-0.5204742,0.6210532,-0.3486048,0.1066638,0.2748906,0.01197541,0.984163,0.5359597,0.9417448,-0.7832978,0.5393448,-0.006303668,-0.1114506,-0.7895558,-0.7613339,-0.7593136,0.2432398,-0.8113654,-0.6703088,0.9705935,0.5603728,-0.8795011,0.4298014,-0.5388708,0.3019013,0.759743,0.5031168,0.4228737,-0.6205666,0.2235111,0.1938082,-0.3012813,0.2132398,0.5433621,-0.2196409,0.8710604,0.6042233,-0.3098327,-0.6198466,-0.8383274,-0.4527656,-0.7463336,-0.2418734,-0.5168111,0.5418735,0.7733755],[-0.2591568,-0.07256067,0.8367734,-0.9509151,0.5903335,0.1409308,0.1621097,0.05663002,0.7218406,-0.2270192,0.277466,0.9578221,-0.5907166,0.8093691,0.1260535,-0.990793,0.09665787,-0.4788193,0.5670466,-0.2863003,-0.5157962,0.5797913,0.7166438,-0.8040895,0.9532042,0.02148354,-0.5672629,0.1358701,-0.7010696,0.132454,0.4800605,-0.05924737,0.6488891,0.6980634,0.6052389,0.03314269,0.1796397,0.9462516,0.5230117,0.568017,0.9022276,0.8068004,-0.4639243,0.9316986,0.3441233,0.1327838,-0.6421571,0.8017106,-0.2612482,0.8317835,0.03702009,0.001932502,0.4499807,-0.7839441,0.7169662,0.6418118,-0.8884039,-0.1472863,-0.02209604,-0.4723758,0.2259053,-0.832082,0.3855245,-0.535809,-0.8056993,0.1859032,-0.3468031,-0.2592238,0.8624654,-0.1614941,0.7308943,0.727339,-0.1535114,-0.640449,-0.08754909,0.6680837,0.4945621,-0.3766686,0.6998467,-0.389064,-0.09517443,0.21653,-0.1331736,-0.5308862,-0.47923,0.5486081,0.1114725,-0.3260533,-0.5188713,0.5011778,-0.4647075,-0.303141,0.2552612,0.5530624,0.8366053,-0.5848954,0.5711741,-0.6176107,0.4966149,-0.3892497,0.4020574,-0.9192593,-0.9252765,0.3763056,0.1477748,-0.175721,0.4111652,-0.2583185,-0.6929016,0.1833221,-0.01657426,0.5579352,0.6298516,-0.7333195,-0.8045645,0.9816959,-0.9385412,-0.7075758,-0.444151,0.9183376,-0.7678592,-0.8021059,0.3674762,-0.6229775,-0.9364088,0.7257392,-0.1093274,-0.5666053,-0.825424,-0.886616,-0.6987441,0.5152464,-0.5760524,0.6184978,-0.1270703,0.8178177,0.01963294,-0.01275265,0.1380898,-0.06113851,-0.06016529,-0.7554226,-0.3708237,0.4636781,0.5865963,-0.7851384,-0.6644123,0.01239264,-0.2558314,-0.4343785,0.08777726,-0.1054724,-0.8120239,-0.7625153,0.6828175,0.1060911,-0.2649652,-0.6866019,0.9051321,0.7838476,-0.3545691,0.2172309,-0.9314535,-0.03751695,0.6660845,0.3957524,-0.7150862,0.5434136,0.6309016,-0.7906127,-0.005867362,-0.8264179,-0.8641651,-0.07867944,0.6072762,0.461152,-0.9133179,-0.7483687,-0.9514618,0.934948,-0.09141529,-0.494902,0.2368945,0.3297379,0.7938776,-0.03036892,-0.7043788,-0.2126693,-0.5827589,0.6893449,-0.9640858,-0.4353503,-0.02874768,0.8120129,0.3179664,-0.7769485,0.1889209,0.2412471,-0.809921,-0.6951699,0.0592984,0.6146522,0.9585781,-0.406438,-0.1615871,-0.4410542,0.8828127,0.1703283,0.7676425,0.9659302,0.7965114,-0.4354407,0.0982548,-0.2420052,0.2512011,-0.4314946,-0.1520621,-0.8366058,-0.515563,-0.05692399,0.6979389,-0.09945428,0.8600399,-0.2673136,-0.3667802,0.8877847,0.9343684,-0.3533891,0.8816893,-0.1573087,-0.1278516,0.3809659,0.1071337,0.4745888,-0.4633852,0.6647172,-0.6806777,0.1453811,0.238402,-0.7301559,-0.7901583,0.6795111,-0.2876061,-0.8830259,-0.6311674,-0.8493311,-0.7516191,-0.04763162,0.0938884,-0.03227031,0.8577325,0.7726612,-0.1311854,0.6786878,0.7790053,-0.7702239],[0.4661669,-0.4256819,-0.8767509,0.7398343,-0.3625926,-0.743788,0.8606343,-0.164976,0.0168699,0.1074449,0.6913116,0.441277,0.1639186,0.9653766,-0.01710546,0.6096604,0.6954155,-0.8088057,-0.7080898,-0.1892959,-0.5876226,0.6190958,0.9464757,0.7776184,0.4862091,-0.212762,-0.3630029,0.3956237,-0.2716118,-0.335519,0.3336711,0.2180129,0.4048268,-0.8208857,0.3639731,0.2742595,0.001384616,-0.2946519,0.504698,0.8797307,0.4987225,0.1517729,0.9644394,-0.1097137,0.4179763,0.3244092,0.5717695,0.2268115]],[[0.2959885,0.8349595,-0.3748597,0.1166815,0.4369228,0.0008832216,0.6869352,-0.5133722,0.7042871,-0.2362839,-0.02859104,0.2258998,-0.9842608,0.7428384,0.7547667,-0.8987932,0.8519931,-0.5549586,0.2409624,-0.1932207,-0.2801307,-0.4609846,-0.1586517,0.1075155,-0.6489365,-0.1042031,0.7040143,-0.6564364,0.6204138,0.3418934,-0.275349,0.1784865,0.5236733,-0.7068589,-0.4878989,-0.2631372,0.9709437,0.01992381,-0.2796401,-0.9239902,0.7414813,-0.9216757,0.984324,-0.9438696,-0.2832979,-0.9614279,0.6926649,0.05196178,-0.5498343,0.3853161,0.7788107,-0.6568916,-0.157077,0.2639837,0.2790849,0.0543164,-0.8560531,-0.1485983,0.6710036,-0.1558751,0.8342187,0.7063541,0.6071649,-0.501915,0.6375127,-0.1163481,0.1939915,-0.2914788,-0.5840914,0.5595758,-0.08535278,0.546577,-0.1496316,-0.7517796,0.8515861,-0.146844,-0.03024256,0.7013674,-0.4979159,-0.0520376,-0.2186011,-0.1930875,-0.6053224,0.7390184,0.01557815,-0.5209308,-0.8469996,-0.4920663,0.1880225,-0.1033577,0.9051046,0.9002311,0.5308967,-0.8535893,-0.3948802,-0.02204978,-0.5690181,0.3208105,-0.586314,0.5714102,0.7406006,0.1946384,-0.430817,0.769825,0.3160665,-0.05159342,0.1318556,0.9666047,-0.4437596,-0.8895297,0.8396854,0.7361693,0.6856177,-0.3290058,-0.7806413,-0.3393716,-0.6001265,0.05496132,-0.4449221,-0.7019293,0.852042,-0.6627362,-0.02017057,-0.5854659,-0.6702073,0.8715038,0.5122523,0.8805294,-0.1959597,0.1137346,0.6461754,0.6560726,0.7828023,0.8861194,0.5840728,0.6200209,0.8470433,-0.6491623,0.1543595,0.001493812,-0.8694162,-0.6012464,-0.1945692,0.9715726,0.1149791,-0.1709925,-0.5204742,0.6210532,-0.3486048,0.1066638,0.2748906,0.01197541,0.984163,0.5359597,0.9417448,-0.7832978,0.5393448,-0.006303668,-0.1114506,-0.7895558,-0.7613339,-0.7593136,0.2432398,-0.8113654,-0.6703088,0.9705935,0.5603728,-0.8795011,0.4298014,-0.5388708,0.3019013,0.759743,0.5031168,0.4228737,-0.6205666,0.2235111,0.1938082,-0.3012813,0.2132398,0.5433621,-0.2196409,0.8710604,0.6042233,-0.3098327,-0.6198466,-0.8383274,-0.4527656,-0.7463336,-0.2418734,-0.5168111,0.5418735,0.7733755],[-0.2591568,-0.07256067,0.8367734,-0.9509151,0.5903335,0.1409308,0.1621097,0.05663002,0.7218406,-0.3605047,0.277466,0.9578221,-0.5907166,0.8093691,-0.8501015,-0.990793,0.09665787,0.6162179,0.5670466,-0.2863003,-0.5157962,0.5797913,0.7166438,-0.8040895,0.9532042,0.02148354,-0.5672629,0.1358701,-0.7010696,0.132454,0.4800605,-0.05924737,0.6488891,0.6980634,0.6052389,0.03314269,0.1796397,0.9462516,0.5230117,0.568017,0.9022276,0.8068004,-0.4639243,0.9316986,0.3441233,0.1327838,-0.6421571,0.8017106,-0.2612482,0.8317835,0.03702009,0.001932502,0.4499807,-0.7839441,-0.2477123,0.6418118,-0.8884039,-0.1472863,-0.02209604,-0.4723758,0.2259053,-0.832082,0.3855245,-0.535809,-0.8056993,0.1859032,-0.3468031,-0.2592238,0.8624654,-0.1614941,0.7308943,0.727339,-0.1535114,-0.640449,-0.08754909,0.6680837,0.4945621,-0.3766686,0.6998467,-0.389064,-0.09517443,0.21653,-0.1331736,-0.5308862,-0.47923,0.5486081,0.1114725,-0.3260533,-0.5188713,0.5011778,-0.4647075,-0.303141,0.2552612,0.5530624,0.8366053,-0.5848954,0.5711741,-0.6176107,0.4966149,-0.3892497,0.4020574,-0.9192593,-0.9252765,0.3763056,0.1477748,-0.175721,0.4111652,-0.2583185,-0.6929016,0.1833221,-0.01657426,0.5579352,0.6298516,-0.7333195,-0.8045645,0.9816959,-0.9385412,-0.7075758,-0.444151,0.9183376,-0.7678592,-0.8021059,0.3674762,-0.6229775,-0.9364088,0.7257392,-0.1093274,-0.5666053,-0.825424,-0.886616,-0.6987441,0.5152464,-0.5760524,0.6184978,-0.1270703,0.8178177,0.01963294,-0.01275265,0.1380898,-0.06113851,-0.06016529,-0.7554226,-0.3708237,0.4636781,0.5865963,-0.7851384,-0.6644123,0.01239264,-0.2558314,-0.4343785,0.08777726,-0.1054724,-0.8120239,-0.7625153,0.6828175,0.1060911,-0.2649652,-0.6866019,0.9051321,0.7838476,-0.3545691,0.2172309,-0.9314535,-0.03751695,0.6660845,0.3957524,-0.7150862,0.5434136,0.6309016,-0.7906127,-0.005867362,-0.8264179,-0.8641651,-0.07867944,0.6072762,0.461152,-0.9133179,-0.7483687,-0.9514618,0.934948,-0.09141529,-0.494902,0.2368945,0.3297379,0.7938776,-0.03036892,-0.7043788,-0.2126693,-0.5827589,0.6893449,-0.9640858,-0.4353503,-0.02874768,0.8120129,0.3179664,-0.7769485,0.1889209,0.2412471,-0.4028298,-0.6951699,0.0592984,0.6146522,0.9585781,-0.406438,-0.1615871,-0.4410542,0.8828127,0.1703283,0.7676425,0.9659302,0.7965114,-0.4354407,0.0982548,-0.2420052,0.2512011,-0.4314946,-0.1520621,-0.8366058,-0.515563,-0.05692399,0.6979389,-0.09945428,0.8600399,-0.2673136,-0.3667802,0.8877847,0.9343684,-0.3533891,0.8816893,-0.1573087,-0.1278516,0.3809659,0.1071337,0.4745888,-0.4633852,0.6647172,-0.6806777,0.1453811,0.238402,-0.7301559,-0.7901583,0.6795111,-0.2876061,-0.8830259,-0.6311674,-0.8493311,-0.7516191,-0.04763162,0.0938884,-0.03227031,0.8577325,0.7726612,-0.1311854,0.6786878,0.7790053,-0.7702239],[0.4661669,-0.4256819,-0.8767509,0.7398343,-0.3625926,-0.743788,0.8606343,-0.164976,0.0168699,0.1074449,0.6913116,0.441277,0.1639186,0.9653766,-0.01710546,0.6096604,0.6954155,-0.8088057,-0.7080898,-0.1892959,-0.5876226,0.6190958,0.9464757,0.7776184,0.4862091,-0.212762,-0.3630029,0.3956237,-0.2716118,-0.335519,0.3336711,0.2180129,0.4048268,-0.8208857,0.3639731,0.2742595,0.001384616,-0.2946519,0.504698,0.8797307,0.4987225,0.1517729,0.9644394,-0.1097137,0.4179763,0.3244092,0.5717695,0.2268115]],[[0.2959885,0.8349595,-0.3748597,0.1166815,-0.6252418,0.0008832216,0.6869352,-0.5133722,0.7042871,-0.2362839,-0.02859104,0.2258998,-0.9842608,0.7428384,0.7547667,-0.8987932,0.8519931,-0.5549586,0.2409624,-0.1932207,-0.2801307,-0.4609846,-0.1586517,0.1075155,-0.6489365,-0.1042031,0.7040143,-0.6564364,0.6204138,0.3418934,-0.275349,0.1784865,0.5236733,-0.7068589,-0.4878989,-0.2631372,0.9558918,0.01992381,-0.2796401,-0.9239902,0.7414813,-0.9216757,0.984324,-0.9438696,-0.2832979,-0.9614279,0.6926649,0.05196178,-0.5498343,0.3853161,0.7788107,-0.6568916,-0.157077,0.2639837,0.2790849,0.0543164,-0.8560531,-0.1485983,0.6710036,-0.1558751,0.8342187,0.7063541,0.6071649,-0.501915,0.6375127,-0.1163481,0.1939915,-0.2914788,0.3190109,0.5595758,-0.2612559,0.546577,-0.1496316,-0.7517796,0.8515861,-0.146844,-0.03024256,-0.7305319,-0.4979159,-0.0520376,-0.2186011,-0.1930875,-0.6053224,0.7390184,0.01557815,-0.5209308,-0.8469996,-0.4920663,0.1880225,-0.1033577,0.9051046,0.9002311,0.5308967,0.4380433,-0.3948802,-0.02204978,-0.5690181,0.3208105,-0.586314,0.5714102,0.7406006,0.1946384,-0.430817,0.769825,0.3160665,-0.05159342,0.1318556,0.9666047,-0.4437596,-0.8895297,0.8396854,-0.1919059,0.6856177,-0.3290058,-0.7806413,-0.3393716,-0.6001265,0.05496132,-0.8244567,-0.7019293,0.852042,-0.6627362,-0.02017057,-0.5854659,-0.6702073,0.8715038,0.5122523,0.1358632,-0.1959597,0.1137346,0.6461754,0.6560726,0.7828023,0.8861194,0.5840728,0.6200209,0.8470433,-0.6491623,0.1543595,0.001493812,-0.8694162,-0.6012464,-0.1945692,0.9715726,0.1149791,-0.1709925,-0.5204742,0.6210532,-0.3486048,0.1066638,0.2748906,0.01197541,0.984163,-0.1270176,-0.9468257,-0.7832978,0.5393448,-0.006303668,-0.1114506,-0.7895558,-0.7613339,-0.7593136,0.2432398,-0.8113654,-0.6703088,0.9705935,0.5603728,-0.8795011,0.4298014,-0.5388708,0.3019013,0.910156,0.5031168,0.4228737,-0.6205666,0.2235111,0.1938082,-0.3012813,0.2132398,0.5433621,-0.2196409,0.8710604,0.6042233,-0.3098327,-0.6198466,-0.8383274,-0.4527656,-0.7463336,-0.2418734,-0.5168111,0.5418735,0.7733755],[-0.2591568,-0.07256067,0.8367734,-0.9509151,0.5903335,-0.7503843,0.1621097,0.05663002,0.7218406,-0.2270192,0.5498543,0.9578221,-0.5907166,0.8093691,0.1260535,-0.990793,0.09665787,0.6162179,0.5670466,-0.2863003,-0.5157962,0.5797913,0.7166438,-0.8040895,0.9532042,0.02148354,-0.5672629,0.1358701,-0.7010696,0.132454,-0.257872,-0.05924737,0.6488891,0.6980634,0.6052389,0.03314269,0.1796397,0.9462516,0.5230117,0.568017,0.9022276,0.108344,-0.4639243,0.9316986,0.3441233,0.1327838,-0.6421571,0.8017106,-0.2612482,0.8317835,0.03702009,-0.5164762,0.4499807,-0.7839441,0.7169662,0.6418118,-0.8884039,-0.1472863,-0.02209604,-0.4723758,0.2259053,-0.832082,0.3855245,-0.535809,-0.8056993,0.1859032,-0.3468031,-0.2592238,0.8624654,-0.1614941,0.7308943,0.727339,-0.1535114,-0.640449,-0.08754909,0.6680837,0.4945621,-0.3766686,0.6998467,-0.389064,-0.09517443,0.21653,-0.1331736,-0.5308862,-0.47923,0.5486081,0.1114725,-0.3260533,-0.5584872,0.5011778,-0.4647075,-0.303141,0.2552612,0.5530624,0.8366053,-0.5848954,0.5711741,-0.6176107,0.4966149,-0.3892497,0.4020574,-0.9192593,-0.9252765,0.3763056,0.1477748,-0.175721,0.4111652,-0.2583185,-0.6929016,0.1833221,-0.01657426,0.5579352,0.6298516,-0.7333195,-0.8045645,0.9816959,-0.9385412,-0.8494895,-0.444151,0.9183376,-0.7678592,-0.8021059,0.3674762,-0.6229775,-0.9364088,0.7257392,-0.1093274,-0.5666053,-0.825424,-0.886616,-0.6987441,0.5152464,-0.5760524,0.6184978,-0.1270703,0.8178177,0.01963294,-0.01275265,0.1380898,-0.06113851,-0.06016529,-0.7554226,-0.3708237,0.4636781,0.5865963,-0.7851384,-0.6644123,0.01239264,-0.2558314,-0.4343785,0.08777726,-0.1054724,-0.8120239,-0.7625153,-0.41473,0.1060911,-0.2649652,-0.6866019,0.9051321,0.7838476,-0.3545691,0.2172309,-0.9314535,-0.03751695,0.6660845,0.3957524,-0.7150862,0.5434136,0.6309016,-0.7906127,-0.005867362,-0.8264179,-0.8641651,-0.07867944,0.6072762,0.461152,-0.9133179,-0.7483687,-0.9514618,0.934948,-0.09141529,-0.494902,0.2368945,0.3297379,0.7938776,-0.03036892,-0.7043788,-0.2126693,0.3460393,0.6893449,-0.9640858,-0.4353503,-0.02874768,0.8120129,0.3179664,-0.7769485,0.1889209,0.2412471,-0.4028298,-0.6951699,0.0592984,0.6146522,0.9585781,-0.406438,-0.1615871,-0.4410542,0.8828127,0.1703283,0.7676425,0.9659302,0.7965114,-0.4354407,0.0982548,-0.2420052,0.2512011,-0.4314946,-0.1520621,-0.8366058,-0.515563,-0.05692399,0.6979389,-0.09945428,0.8600399,-0.2673136,-0.3667802,0.8877847,0.9343684,-0.3533891,0.8816893,-0.1573087,-0.1278516,0.3809659,0.1071337,0.4745888,-0.4633852,0.6647172,-0.6806777,0.1453811,0.238402,-0.9837167,-0.7901583,0.6795111,-0.2876061,-0.8830259,-0.6311674,-0.8493311,-0.7516191,-0.04763162,0.0938884,-0.03227031,0.8577325,0.7726612,-0.1311854,0.6786878,0.7790053,-0.7702239],[0.4661669,-0.4256819,-0.8767509,0.7398343,-0.3625926,-0.743788,0.8606343,-0.164976,0.0168699,0.1074449,0.6913116,0.441277,0.1639186,0.9653766,-0.01710546,0.6096604,0.6954155,-0.8088057,-0.7080898,-0.1892959,-0.5876226,0.6190958,0.9464757,0.7776184,0.4862091,-0.212762,-0.3630029,0.3956237,-0.2716118,-0.335519,0.3336711,0.2180129,0.4048268,-0.8208857,0.3639731,0.2742595,0.001384616,-0.2946519,0.504698,0.8797307,0.5465086,0.1517729,0.9644394,-0.1097137,0.4179763,0.3244092,0.5717695,0.2268115]],[[0.2959885,0.5698123,-0.3748597,0.1166815,0.4369228,0.0008832216,0.6869352,-0.5133722,0.7042871,-0.2362839,-0.02859104,0.2258998,-0.9842608,0.7428384,0.7547667,-0.8987932,0.8519931,-0.5549586,0.2409624,-0.1932207,-0.2801307,-0.4609846,-0.1586517,0.1075155,-0.6489365,-0.1042031,0.7040143,-0.6564364,0.6204138,0.3418934,-0.275349,0.1784865,0.5236733,-0.7068589,-0.4878989,-0.2631372,0.9709437,0.01992381,-0.2796401,-0.9239902,0.7414813,-0.9216757,0.984324,-0.9438696,-0.2832979,-0.9614279,0.6926649,0.05196178,-0.5498343,0.3853161,0.7788107,-0.6568916,-0.157077,0.2639837,0.2790849,0.0543164,-0.8560531,-0.1485983,0.6710036,-0.1558751,0.8342187,0.7063541,0.6071649,-0.501915,-0.5609756,-0.1163481,0.1939915,-0.2914788,-0.5840914,0.5595758,-0.08535278,0.546577,-0.1496316,-0.7517796,0.8515861,-0.146844,-0.03024256,0.7013674,-0.4979159,-0.0520376,-0.2186011,-0.1930875,-0.6053224,0.7390184,0.01557815,-0.5209308,-0.8469996,-0.4920663,0.1880225,-0.1033577,0.9051046,0.9002311,0.5308967,-0.8535893,-0.3948802,-0.02204978,-0.5690181,0.3208105,-0.586314,0.5714102,0.7406006,0.1946384,-0.430817,0.769825,0.3160665,-0.05159342,0.1318556,0.9666047,-0.4437596,-0.8895297,0.8396854,0.7361693,0.6856177,-0.3290058,-0.7806413,-0.3393716,-0.6001265,0.05496132,-0.8244567,-0.7019293,0.852042,-0.6627362,-0.02017057,-0.5854659,-0.6702073,0.8715038,0.5122523,0.1358632,-0.1959597,0.1137346,0.6461754,0.6560726,0.7828023,0.8861194,0.5840728,0.6200209,0.8470433,-0.6491623,0.1543595,0.001493812,-0.8694162,-0.6012464,-0.1945692,0.9715726,0.1149791,-0.1709925,-0.9854217,0.6210532,-0.3486048,0.1066638,0.2748906,0.01197541,0.984163,0.5359597,0.9417448,-0.7832978,0.5393448,-0.006303668,-0.1114506,-0.7895558,-0.7613339,-0.7593136,0.2432398,-0.8113654,-0.6703088,0.9705935,0.5603728,-0.8795011,0.4298014,-0.5388708,0.3019013,0.759743,0.5031168,0.4228737,-0.6205666,0.2235111,0.1938082,-0.3012813,0.2132398,0.5433621,-0.2196409,0.8710604,0.6042233,-0.3098327,-0.6198466,-0.8383274,-0.4527656,-0.7463336,-0.2418734,-0.5168111,0.5418735,0.7733755],[-0.2591568,-0.07256067,0.8367734,-0.9509151,0.5903335,0.1409308,0.1621097,0.05663002,0.7218406,-0.2270192,0.277466,0.9578221,-0.5907166,0.8093691,0.1260535,-0.990793,0.09665787,0.6162179,0.5670466,-0.2863003,-0.5157962,0.5797913,0.7166438,-0.8040895,0.9532042,0.02148354,-0.5672629,0.1358701,-0.7010696,0.132454,0.5899301,-0.05924737,0.6488891,0.6980634,0.6052389,0.03314269,0.1796397,0.9462516,0.5230117,0.568017,0.9022276,0.8068004,-0.4639243,0.9316986,0.3441233,0.1327838,-0.6421571,0.8017106,-0.2612482,0.8317835,0.03702009,0.001932502,0.4499807,-0.7839441,0.7169662,0.6418118,-0.8884039,-0.1472863,-0.02209604,-0.4723758,0.2259053,-0.832082,0.3855245,-0.535809,-0.8056993,0.1859032,-0.3468031,-0.2592238,0.8624654,-0.1614941,0.7308943,0.727339,-0.1535114,-0.640449,-0.08754909,0.6680837,0.4945621,-0.3766686,0.6998467,-0.389064,-0.09517443,0.21653,0.9637189,-0.5308862,-0.47923,0.5486081,0.1114725,-0.3260533,-0.5188713,0.5011778,-0.4647075,-0.303141,0.2552612,0.5530624,0.8366053,-0.5848954,0.5711741,-0.6176107,0.4966149,-0.3892497,0.4020574,-0.9192593,-0.9252765,0.3763056,0.1477748,-0.175721,0.4111652,-0.2583185,-0.6929016,0.1833221,-0.01657426,0.5579352,0.6298516,-0.7333195,-0.8045645,0.9816959,-0.9385412,-0.7075758,-0.444151,0.9183376,-0.7678592,-0.8021059,0.3674762,-0.6229775,-0.9364088,0.7257392,-0.1093274,-0.5666053,-0.825424,-0.886616,-0.6987441,0.5152464,-0.5760524,0.6184978,-0.1270703,0.8178177,0.01963294,-0.01275265,0.1380898,-0.06113851,-0.06016529,-0.7554226,-0.3708237,0.4636781,0.5865963,-0.7851384,-0.6644123,0.01239264,-0.2558314,-0.4343785,0.08777726,-0.1054724,-0.8120239,-0.7625153,0.6828175,0.1060911,-0.2649652,-0.6866019,0.9051321,0.7838476,-0.3545691,0.2172309,-0.9314535,-0.03751695,0.6660845,0.3957524,-0.7150862,0.5434136,0.6309016,-0.7906127,-0.005867362,-0.8264179,-0.8641651,-0.07867944,0.6072762,0.461152,-0.9133179,-0.7483687,-0.9514618,0.934948,-0.09141529,-0.494902,0.2368945,0.3297379,0.7938776,-0.03036892,-0.7043788,-0.2126693,-0.5827589,0.6893449,-0.9640858,-0.4353503,-0.02874768,0.8120129,0.3179664,-0.7769485,0.1889209,0.2412471,-0.4028298,-0.2020119,0.0592984,0.6146522,0.9585781,-0.406438,-0.1615871,-0.4410542,0.8828127,0.1703283,0.7676425,0.9659302,0.7965114,-0.4354407,0.0982548,-0.2420052,0.2512011,-0.4314946,-0.1520621,-0.8366058,-0.515563,-0.05692399,0.6979389,-0.09945428,0.8600399,-0.2673136,-0.3667802,0.8877847,0.9343684,-0.3533891,0.8816893,-0.1573087,-0.1278516,0.3809659,0.1071337,0.4745888,-0.4633852,0.6647172,-0.6806777,0.1453811,0.238402,-0.3684055,-0.7901583,0.6795111,-0.2876061,-0.8830259,-0.6311674,-0.8493311,-0.7516191,-0.04763162,0.0938884,-0.03227031,0.8577325,0.7726612,-0.1311854,0.6786878,0.7790053,-0.7702239],[0.4661669,-0.4256819,-0.8767509,0.7398343,-0.3625926,-0.743788,0.8606343,-0.164976,0.0168699,0.1074449,0.6913116,0.441277,0.1639186,0.9653766,-0.01710546,0.6096604,0.6954155,-0.8088057,-0.7080898,-0.1892959,-0.5876226,0.6190958,0.9464757,0.7776184,0.4862091,-0.212762,-0.3630029,0.3956237,-0.2716118,-0.335519,0.3336711,0.2180129,0.4048268,-0.8208857,0.3639731,0.2742595,0.001384616,-0.2946519,0.504698,0.8797307,0.4987225,0.1517729,0.9644394,-0.1097137,0.4179763,0.3244092,0.5717695,0.2268115]],[[0.2959885,0.8349595,-0.3748597,0.1166815,0.4369228,0.0008832216,0.6869352,-0.5133722,0.7042871,-0.2362839,-0.02859104,0.2258998,-0.9842608,0.7428384,0.7547667,-0.8987932,0.8519931,-0.5549586,0.2409624,-0.1932207,-0.2801307,-0.4609846,-0.1586517,0.1075155,-0.6489365,-0.1042031,0.7040143,-0.6564364,0.6204138,0.3418934,-0.275349,0.1784865,0.5236733,-0.7068589,-0.534658,-0.2631372,0.9709437,0.01992381,-0.2796401,-0.9239902,0.7414813,-0.9216757,0.984324,-0.9438696,-0.2832979,-0.9614279,0.6926649,0.05196178,-0.5498343,0.3853161,0.7788107,-0.6568916,0.7450142,0.2639837,0.2790849,0.0543164,-0.8560531,-0.1485983,0.6710036,-0.1558751,0.8342187,0.7063541,0.6071649,-0.501915,0.6375127,-0.1163481,0.1939915,-0.2914788,-0.5840914,0.5595758,-0.08535278,0.546577,-0.1496316,-0.7517796,0.8515861,-0.146844,-0.03024256,0.7013674,-0.4979159,-0.0520376,-0.2186011,-0.1930875,-0.6053224,0.7390184,0.01557815,-0.5209308,-0.8469996,-0.4920663,0.1880225,-0.1033577,0.9051046,0.9002311,0.5308967,-0.8535893,-0.3948802,-0.02204978,-0.5690181,0.3208105,-0.586314,0.5714102,0.7406006,0.1946384,-0.430817,0.769825,0.3160665,-0.05159342,0.1318556,0.9666047,-0.4437596,-0.8895297,0.8396854,0.7361693,0.6856177,-0.3290058,-0.7806413,-0.3393716,-0.6001265,0.05496132,-0.8244567,-0.7019293,0.852042,-0.6627362,-0.02017057,-0.5854659,-0.6702073,0.8715038,0.5122523,0.1358632,-0.1959597,0.1137346,0.6461754,0.6560726,0.9541841,0.7033215,0.5840728,0.6200209,0.8470433,-0.6491623,0.1543595,0.001493812,-0.8694162,-0.6012464,-0.1945692,0.9715726,0.1149791,-0.1709925,-0.5204742,0.6210532,-0.3486048,0.1066638,0.2748906,0.01197541,0.984163,0.5359597,0.9417448,-0.7832978,0.5393448,-0.006303668,-0.1114506,-0.7895558,-0.7613339,-0.7593136,0.2432398,0.6860914,-0.6703088,0.9705935,0.5603728,-0.8795011,0.4298014,-0.5388708,0.3019013,0.759743,0.5031168,0.4228737,-0.6205666,0.2235111,0.1938082,-0.3012813,0.2132398,0.5433621,-0.2196409,0.8710604,0.6042233,-0.3098327,-0.6198466,-0.8383274,-0.4527656,-0.7463336,-0.2418734,-0.5168111,0.5418735,0.7733755],[-0.2591568,-0.07256067,0.8367734,-0.9509151,0.5903335,0.1409308,0.1621097,0.05663002,0.7218406,-0.2270192,0.277466,0.9578221,-0.5907166,0.8093691,0.1260535,-0.990793,0.09665787,0.6162179,0.5670466,-0.2863003,-0.5157962,0.5797913,0.7166438,-0.8040895,0.9532042,0.02148354,-0.5672629,0.1358701,-0.7010696,0.132454,0.4800605,-0.05924737,0.6488891,0.6980634,0.6052389,0.03314269,0.1796397,0.9462516,0.5230117,0.568017,0.9022276,0.8068004,-0.4639243,0.9316986,0.3441233,0.1327838,-0.6421571,0.8017106,-0.2612482,0.8317835,0.03702009,0.001932502,0.4499807,-0.7839441,0.7169662,0.6418118,-0.8884039,-0.1472863,-0.02209604,-0.4723758,0.2259053,-0.832082,0.3855245,-0.535809,-0.8056993,0.1859032,-0.3468031,-0.2592238,0.8624654,-0.1614941,0.7308943,0.727339,-0.1535114,-0.640449,-0.08754909,0.6680837,0.4945621,-0.3766686,0.6998467,-0.389064,-0.09517443,0.21653,-0.1331736,-0.5308862,-0.47923,0.5486081,-0.8418016,-0.3260533,-0.5188713,0.5011778,-0.4647075,-0.303141,0.2552612,0.5530624,0.8366053,-0.5848954,0.5711741,-0.6176107,0.4966149,-0.3892497,0.4020574,-0.9192593,-0.9252765,0.3763056,0.1477748,-0.175721,0.4111652,-0.2583185,-0.6929016,0.1833221,-0.01657426,0.5579352,0.6298516,-0.7333195,-0.8045645,0.9816959,-0.9385412,-0.7075758,-0.444151,0.9183376,-0.7678592,-0.8021059,0.3674762,-0.6229775,-0.9364088,0.7257392,-0.1093274,-0.5666053,-0.825424,-0.886616,-0.6987441,0.5152464,-0.5760524,0.6184978,-0.1270703,0.8178177,0.01963294,-0.01275265,0.1380898,-0.06113851,-0.06016529,-0.7554226,-0.3708237,0.4636781,0.5865963,-0.7851384,-0.6644123,0.01239264,-0.2558314,-0.4343785,0.08777726,-0.1054724,-0.8120239,-0.7625153,0.6828175,0.1060911,-0.2649652,-0.6866019,0.9051321,0.7838476,-0.3545691,0.2172309,-0.9314535,-0.03751695,0.6660845,0.3957524,-0.7150862,0.5434136,0.6309016,-0.7906127,-0.005867362,-0.8264179,-0.8641651,-0.07867944,0.1986359,0.461152,-0.9133179,-0.7483687,-0.9514618,0.934948,-0.09141529,-0.494902,0.2368945,0.3297379,0.7938776,-0.03036892,-0.7043788,-0.2126693,-0.5827589,0.6893449,-0.9640858,-0.4353503,-0.02874768,0.8120129,0.3179664,-0.7769485,0.1889209,0.2412471,-0.4028298,0.08449566,0.0592984,0.6146522,0.9585781,-0.406438,-0.1615871,-0.4410542,0.8828127,0.1703283,0.7676425,0.9659302,0.7965114,-0.4354407,0.0982548,-0.2420052,0.2512011,-0.4314946,-0.1520621,-0.8366058,-0.515563,-0.05692399,0.6979389,-0.09945428,-0.2289234,-0.2673136,-0.3667802,0.6975372,0.9343684,-0.3533891,0.8816893,-0.1573087,-0.1278516,0.3809659,0.1071337,0.4745888,-0.4633852,0.6647172,-0.6806777,0.1453811,0.238402,-0.7301559,-0.7901583,0.6795111,-0.2876061,-0.8830259,-0.6311674,-0.8493311,-0.7516191,-0.04763162,0.0938884,-0.03227031,0.8577325,0.7726612,-0.1311854,0.6786878,0.7790053,-0.7702239],[0.4661669,-0.4256819,-0.8767509,0.7398343,-0.3625926,-0.743788,0.8606343,-0.164976,0.0168699,0.1074449,0.6913116,0.441277,0.1639186,0.9653766,-0.01710546,0.6096604,0.6954155,-0.8088057,-0.7080898,-0.1892959,-0.5876226,0.6190958,0.9464757,0.7776184,0.4862091,-0.212762,-0.3630029,0.3956237,-0.2716118,-0.335519,-0.3133038,0.2180129,0.4048268,-0.8208857,0.3639731,0.2742595,0.001384616,-0.2946519,0.504698,0.04055798,0.4987225,0.1517729,0.9644394,-0.1097137,0.4179763,0.3244092,0.5717695,0.2268115]],[[0.2959885,0.8349595,-0.3748597,0.1166815,0.4369228,0.0008832216,0.6869352,-0.5133722,0.7042871,-0.2362839,-0.02859104,0.2258998,-0.9842608,0.7428384,0.7547667,-0.8987932,0.8519931,-0.5549586,0.2409624,-0.1932207,-0.2801307,-0.4609846,-0.1586517,-0.06736243,-0.6489365,-0.1042031,0.7040143,-0.6564364,0.6204138,0.3418934,-0.275349,0.1784865,0.5236733,-0.7068589,-0.4878989,-0.2631372,0.9709437,0.01992381,-0.2796401,-0.9239902,0.7414813,-0.9216757,0.984324,-0.9438696,-0.2832979,-0.9614279,0.6926649,0.05196178,-0.5498343,0.3853161,0.7788107,-0.6568916,-0.157077,0.2639837,0.2790849,0.0543164,-0.8560531,-0.1485983,0.6710036,-0.1558751,0.8342187,0.7063541,0.6071649,-0.501915,0.6375127,-0.1163481,0.1939915,-0.2914788,-0.5840914,0.5595758,-0.08535278,0.546577,-0.1496316,-0.7517796,0.8515861,-0.146844,-0.03024256,0.7013674,-0.4979159,-0.0520376,-0.2186011,-0.1930875,-0.6053224,0.7390184,0.01557815,-0.5209308,-0.8469996,-0.4920663,0.1880225,-0.1033577,0.9051046,0.9002311,0.5308967,-0.8535893,-0.3948802,-0.02204978,-0.5690181,0.3208105,-0.586314,0.5714102,0.7406006,0.1946384,-0.430817,0.769825,0.3160665,-0.05159342,0.1318556,0.9666047,-0.4437596,-0.8895297,0.8396854,0.7361693,0.6856177,-0.3290058,-0.7806413,-0.3393716,-0.6001265,0.05496132,-0.8244567,-0.7019293,0.852042,-0.6627362,-0.02017057,-0.5854659,-0.6702073,0.8715038,0.5122523,0.1358632,-0.1959597,-0.4558502,0.6461754,0.6560726,0.7828023,0.8861194,0.5840728,0.6200209,0.8470433,-0.6491623,0.1543595,0.001493812,-0.8694162,-0.6012464,-0.1945692,0.9715726,0.1149791,-0.1709925,-0.5204742,0.6210532,-0.3486048,0.1066638,0.2748906,0.01197541,-0.9535692,0.5359597,0.9417448,-0.7832978,0.5393448,-0.006303668,-0.1114506,-0.7895558,-0.7613339,-0.7593136,0.2432398,-0.8113654,-0.6703088,0.9705935,0.5603728,-0.8795011,0.4298014,-0.5388708,0.3019013,0.759743,0.5031168,0.4228737,-0.6205666,0.2235111,0.1938082,-0.3012813,0.2132398,0.5433621,-0.2196409,0.8710604,0.6042233,-0.3098327,-0.6198466,-0.8383274,-0.4527656,-0.7463336,-0.2418734,-0.5168111,0.5418735,0.7733755],[-0.2591568,-0.07256067,0.8367734,-0.9509151,0.5903335,0.1409308,0.1621097,0.05663002,0.2803566,-0.2270192,0.277466,0.9578221,-0.5907166,0.8093691,0.1260535,-0.990793,0.09665787,0.5491424,0.5670466,-0.2863003,-0.5157962,0.5797913,0.7166438,-0.8040895,0.9532042,0.02148354,-0.5672629,0.1358701,-0.7010696,0.132454,0.4800605,-0.05924737,0.6488891,0.6980634,0.6052389,0.03314269,0.1796397,0.9462516,0.5230117,0.568017,0.9022276,0.8068004,-0.4639243,0.9316986,0.3441233,0.1327838,-0.6421571,0.8017106,-0.2612482,0.8317835,0.03702009,0.001932502,0.4499807,-0.7839441,0.7169662,0.6418118,-0.8884039,-0.1472863,-0.02209604,-0.4723758,0.2259053,-0.832082,0.3855245,-0.535809,-0.8056993,0.1859032,-0.3468031,-0.2592238,0.8624654,-0.1614941,0.7308943,0.727339,-0.1535114,-0.640449,-0.08754909,0.6680837,0.4945621,-0.3766686,0.6998467,-0.389064,-0.09517443,0.21653,-0.1331736,-0.5308862,-0.47923,0.8193405,0.1114725,-0.3260533,-0.5188713,0.5011778,-0.4647075,-0.303141,0.2552612,0.5530624,0.8366053,-0.5848954,0.5711741,-0.6176107,0.4966149,-0.3892497,0.4020574,-0.9192593,-0.9252765,0.3763056,0.1477748,-0.175721,0.4111652,-0.2583185,-0.6929016,0.1833221,-0.01657426,0.5579352,0.6298516,-0.7333195,-0.8045645,0.9816959,-0.9385412,-0.7075758,-0.444151,0.9183376,-0.7678592,-0.8021059,0.3674762,-0.6229775,-0.9364088,0.7257392,-0.1093274,-0.5666053,-0.825424,-0.886616,-0.6987441,0.5152464,-0.5760524,0.6184978,-0.1270703,0.8178177,0.01963294,-0.01275265,0.1380898,-0.06113851,-0.06016529,-0.7554226,-0.3708237,0.4636781,0.5865963,-0.7851384,-0.6644123,0.01239264,-0.2558314,-0.4343785,0.08777726,-0.1054724,-0.8120239,-0.7625153,0.6828175,0.1060911,-0.2649652,-0.6866019,0.9051321,0.7838476,-0.3545691,0.2172309,-0.9314535,-0.03751695,0.6660845,0.3957524,-0.7150862,0.5434136,0.6309016,-0.7906127,-0.005867362,-0.8264179,-0.8641651,-0.07867944,0.6072762,0.461152,-0.9133179,-0.7483687,-0.9514618,0.934948,-0.09141529,-0.494902,0.2368945,0.3297379,0.7938776,-0.03036892,-0.7043788,-0.2126693,-0.5827589,0.6893449,-0.9640858,-0.4353503,-0.02874768,0.8120129,0.3179664,-0.7769485,0.1889209,0.2412471,-0.4028298,-0.6951699,0.0592984,0.6146522,0.9585781,-0.406438,-0.1615871,-0.4410542,0.8828127,0.1703283,0.7676425,0.9659302,0.7965114,-0.4354407,0.0982548,-0.2420052,0.2512011,-0.4314946,-0.1520621,-0.8366058,-0.515563,-0.05692399,0.6979389,-0.09945428,0.8600399,-0.2673136,-0.7037289,0.8877847,0.9343684,-0.3533891,0.8816893,-0.1573087,-0.1278516,0.3809659,0.1071337,0.4745888,-0.4633852,0.6647172,-0.6806777,0.1453811,0.238402,-0.7301559,-0.7901583,0.6795111,-0.2876061,-0.8830259,-0.6311674,-0.8493311,-0.7516191,-0.04763162,0.0938884,-0.03227031,0.8577325,0.7726612,-0.1311854,0.6786878,0.7790053,-0.7702239],[0.4661669,-0.4256819,-0.8767509,0.7398343,-0.3625926,-0.743788,0.8606343,-0.164976,0.0168699,0.1074449,0.6913116,0.441277,0.1639186,0.9653766,0.1605891,0.6096604,0.6954155,-0.8088057,-0.7080898,-0.1892959,-0.5876226,0.6190958,0.9464757,0.7776184,0.4862091,-0.212762,-0.3630029,0.3956237,-0.2716118,-0.335519,0.3336711,0.2180129,0.4048268,-0.8208857,0.3639731,0.2742595,0.001384616,-0.2946519,0.504698,0.8797307,0.4987225,0.1517729,0.9644394,-0.1097137,0.4179763,0.3244092,0.5717695,0.2268115]],[[0.2959885,0.8349595,-0.3748597,0.1166815,0.4369228,0.0008832216,0.6869352,-0.5133722,0.7042871,-0.2362839,-0.02859104,0.2258998,-0.9842608,0.7428384,0.7547667,-0.8987932,0.8519931,-0.5549586,0.2409624,-0.1932207,-0.03428495,-0.4609846,-0.1586517,0.1075155,-0.6489365,-0.1042031,0.7040143,-0.6564364,0.6204138,0.3418934,-0.9995842,0.1784865,0.5236733,-0.7068589,-0.4878989,-0.2631372,0.9709437,0.01992381,-0.2796401,-0.9239902,0.7414813,-0.9216757,0.984324,-0.9438696,-0.2832979,-0.9614279,0.6926649,0.05196178,-0.5498343,0.3853161,0.7788107,-0.6568916,-0.157077,0.2639837,0.2790849,0.0543164,-0.8560531,-0.1485983,0.6710036,-0.1558751,0.8342187,0.7063541,0.6071649,-0.501915,0.6375127,-0.1163481,0.1939915,-0.2914788,-0.5840914,0.5595758,-0.08535278,0.546577,-0.1496316,-0.7517796,0.8515861,-0.146844,0.02582061,0.7013674,-0.4979159,-0.0520376,-0.2186011,-0.1930875,-0.6053224,0.7390184,0.01557815,-0.5209308,-0.8469996,-0.4920663,0.1880225,-0.1033577,0.9051046,0.9002311,0.5308967,-0.8535893,-0.3948802,-0.02204978,-0.5690181,0.3208105,-0.586314,0.5714102,0.7406006,0.1946384,-0.430817,0.769825,0.3160665,0.2398168,0.1318556,0.9666047,-0.4437596,-0.8895297,0.8396854,0.7361693,0.6856177,-0.3290058,-0.7806413,-0.3393716,-0.6001265,0.05496132,-0.8244567,0.5365896,0.852042,-0.6627362,-0.02017057,-0.5854659,-0.6702073,0.8715038,0.5122523,0.1358632,-0.1959597,0.1137346,0.6461754,0.6560726,0.7828023,0.8861194,0.5840728,0.6200209,0.8470433,-0.6491623,0.1543595,0.001493812,-0.8694162,-0.6012464,-0.1945692,0.9715726,0.1149791,-0.1709925,-0.5204742,0.6210532,-0.3486048,0.1066638,0.2748906,0.01197541,-0.5561604,0.5359597,0.9417448,-0.7832978,0.5393448,-0.006303668,-0.1114506,-0.7895558,-0.7613339,-0.7593136,0.2432398,-0.8113654,-0.6703088,0.9705935,0.5603728,-0.8795011,0.4298014,-0.5388708,0.3019013,0.759743,0.5031168,0.4228737,-0.6205666,0.2235111,0.1938082,-0.3012813,0.2132398,0.5433621,-0.2196409,0.8710604,0.6042233,-0.3098327,-0.6198466,-0.8383274,-0.4527656,-0.7463336,-0.2418734,-0.5168111,0.5418735,0.7733755],[-0.2591568,-0.07256067,0.8367734,-0.9509151,0.5903335,0.1409308,0.1621097,0.05663002,0.7218406,-0.2270192,0.277466,0.9578221,-0.5907166,0.8093691,0.1260535,-0.990793,0.09665787,0.6162179,0.5670466,-0.2863003,-0.5157962,0.5797913,0.7166438,-0.8040895,0.9532042,0.02148354,-0.5672629,0.1358701,-0.7010696,0.132454,0.4800605,-0.05924737,0.6488891,0.6980634,0.6052389,0.03314269,0.1796397,0.9462516,0.5230117,0.568017,0.9022276,0.8068004,-0.4639243,0.9316986,0.3441233,0.1327838,-0.6421571,0.8017106,-0.2612482,0.8317835,0.03702009,0.001932502,0.4499807,-0.7839441,0.7169662,0.6418118,-0.8884039,-0.1472863,-0.02209604,-0.4723758,0.3551247,-0.832082,0.3855245,-0.535809,-0.8056993,0.1859032,-0.3468031,-0.2592238,0.8624654,-0.1614941,0.7308943,0.727339,-0.1535114,-0.640449,-0.08754909,0.6680837,0.4945621,-0.3766686,0.6998467,-0.389064,-0.09517443,0.21653,-0.1331736,-0.5308862,-0.47923,0.5486081,0.1114725,-0.3260533,-0.5188713,0.5011778,-0.4647075,-0.303141,0.2552612,0.5530624,0.8366053,-0.5848954,0.5711741,-0.6176107,0.4966149,-0.3892497,0.4020574,-0.9192593,-0.9252765,0.3763056,0.1477748,-0.175721,0.4111652,-0.2583185,-0.6929016,0.1833221,-0.01657426,0.5579352,0.6298516,-0.7333195,-0.8045645,0.9816959,-0.9385412,-0.7075758,-0.444151,0.9183376,-0.7678592,-0.8021059,0.3674762,-0.6229775,-0.9364088,0.7257392,-0.1093274,-0.5666053,-0.825424,-0.886616,-0.6987441,0.5152464,-0.5760524,0.6184978,-0.1270703,0.8178177,0.01963294,-0.01275265,0.1380898,-0.06113851,-0.06016529,-0.7554226,-0.3708237,0.4636781,0.5865963,-0.7851384,-0.6644123,0.01239264,-0.2558314,-0.4343785,0.08777726,-0.1054724,-0.8120239,-0.7625153,0.6828175,0.1060911,-0.2649652,-0.6866019,0.9051321,0.7838476,-0.3545691,0.2172309,-0.9314535,-0.03751695,0.6660845,0.3957524,-0.7150862,0.5434136,0.6309016,-0.7906127,-0.005867362,-0.8264179,-0.8641651,-0.07867944,0.6072762,0.461152,-0.9133179,-0.7483687,-0.9514618,0.934948,-0.09141529,-0.494902,0.2368945,0.3297379,0.7938776,-0.03036892,-0.7043788,-0.2126693,-0.5827589,0.6893449,-0.9640858,-0.4353503,-0.02874768,0.8120129,0.3179664,-0.7769485,0.1889209,0.2412471,-0.4028298,-0.6951699,0.0592984,0.6146522,0.9585781,-0.406438,-0.1615871,-0.4410542,0.8828127,0.1703283,0.7676425,0.9659302,0.7965114,-0.4354407,0.0982548,-0.2420052,0.2512011,-0.4314946,-0.1520621,-0.8366058,-0.515563,-0.05692399,0.6979389,-0.09945428,0.8600399,-0.2673136,-0.3667802,0.8877847,0.9343684,-0.3533891,0.8816893,-0.1573087,-0.1278516,0.3809659,0.1071337,0.4745888,-0.4633852,0.6647172,-0.6806777,0.1453811,0.238402,-0.7301559,-0.7901583,0.6795111,-0.2876061,-0.8830259,-0.6311674,-0.8493311,-0.7516191,-0.04763162,0.0938884,0.7408109,0.8577325,0.7726612,-0.1311854,0.6786878,0.7790053,-0.7702239],[0.4661669,-0.4256819,-0.8767509,0.7398343,-0.3625926,-0.743788,0.8606343,-0.164976,0.0168699,0.1074449,0.6913116,0.441277,0.1639186,0.9653766,-0.01710546,0.6096604,0.6954155,-0.8088057,-0.7080898,-0.1892959,-0.5876226,0.6190958,0.9464757,0.7776184,0.4862091,-0.212762,-0.3630029,0.3956237,-0.2716118,-0.335519,0.3336711,0.2180129,0.4048268,-0.8208857,0.3639731,0.2742595,0.001384616,-0.2946519,0.504698,0.8797307,0.4987225,0.1517729,0.9644394,-0.1097137,0.4179763,0.3244092,0.5717695,0.2268115]],[[0.2959885,0.8349595,-0.3748597,0.1166815,0.4369228,0.0008832216,0.6869352,-0.5133722,0.7042871,-0.2362839,-0.02859104,0.2258998,-0.9842608,0.7428384,0.7547667,-0.8987932,0.8519931,-0.5549586,0.2409624,-0.1932207,-0.2801307,-0.4609846,-0.1586517,0.1075155,-0.6489365,-0.1042031,0.7040143,-0.6564364,0.6204138,0.3418934,-0.275349,0.1784865,0.5236733,-0.7068589,-0.4878989,-0.2631372,0.9709437,0.01992381,-0.2796401,-0.9239902,0.7414813,-0.9216757,0.984324,-0.9438696,-0.2832979,-0.9614279,0.6926649,0.05196178,-0.5498343,0.3853161,0.7788107,-0.6568916,-0.7062418,0.2639837,0.2790849,0.0543164,-0.8560531,-0.1485983,0.6710036,-0.1558751,0.8342187,0.7063541,0.6071649,-0.501915,0.6375127,-0.1163481,0.1939915,-0.2914788,-0.5840914,0.5595758,-0.08535278,0.546577,-0.1496316,-0.7517796,0.8515861,-0.146844,-0.1865939,0.7013674,-0.4979159,-0.0520376,-0.2186011,-0.1930875,-0.6053224,0.7390184,0.01557815,-0.5209308,-0.8469996,-0.4920663,0.1880225,-0.1033577,0.9051046,0.9002311,0.5308967,-0.8535893,-0.3948802,-0.02204978,-0.5690181,0.3208105,-0.586314,0.5714102,0.7406006,0.1946384,-0.430817,0.769825,0.3160665,-0.05159342,0.1318556,0.9666047,-0.4437596,-0.8895297,0.8396854,0.7361693,0.6856177,-0.3290058,-0.7806413,-0.3393716,-0.6001265,0.05496132,-0.8244567,-0.7019293,0.852042,-0.6627362,-0.02017057,-0.5854659,-0.6702073,0.8715038,0.5122523,0.1358632,-0.1959597,0.1137346,0.6461754,0.6560726,0.7828023,0.4561286,0.5840728,0.6200209,0.8470433,-0.6491623,0.1543595,0.001493812,-0.8694162,-0.6012464,-0.1945692,0.9715726,0.1149791,-0.1709925,-0.5204742,0.6210532,-0.3486048,0.1066638,0.2748906,0.01197541,0.984163,0.5359597,0.9417448,-0.7832978,0.5393448,-0.006303668,-0.1114506,-0.7895558,-0.7613339,-0.7593136,0.2432398,-0.8113654,-0.6703088,0.9705935,0.5603728,-0.8795011,0.4298014,-0.5388708,0.3019013,0.759743,0.5031168,0.4228737,-0.6205666,0.2235111,0.1938082,-0.3012813,0.2132398,0.5433621,-0.2196409,0.8710604,0.6042233,-0.3098327,-0.6198466,-0.8383274,-0.4527656,-0.7463336,-0.2418734,-0.5168111,0.5418735,0.7733755],[-0.2591568,-0.07256067,0.8367734,-0.9509151,0.5903335,0.1409308,0.1621097,0.05663002,0.7218406,-0.2270192,0.277466,0.9578221,-0.5907166,0.8093691,0.1260535,-0.990793,0.09665787,0.6162179,0.5670466,-0.2863003,-0.5157962,0.5797913,0.7166438,-0.8040895,0.9532042,0.02148354,-0.5672629,0.1358701,-0.7010696,0.132454,0.4800605,-0.05924737,0.6488891,0.6980634,-0.5743403,0.03314269,0.1796397,0.9462516,0.5230117,0.568017,0.9022276,0.8068004,-0.4639243,0.9316986,0.3441233,0.1327838,-0.6421571,0.8017106,-0.2612482,0.8317835,0.03702009,0.001932502,0.4499807,-0.7839441,0.7169662,0.6418118,-0.8884039,-0.1472863,-0.02209604,-0.4723758,0.2259053,-0.832082,0.3855245,-0.535809,-0.8056993,0.1859032,-0.3468031,-0.2592238,0.8624654,-0.1614941,0.7308943,0.727339,-0.1535114,-0.640449,-0.08754909,0.6680837,0.4945621,-0.3766686,0.6998467,-0.389064,-0.09517443,0.21653,-0.1331736,-0.5308862,-0.47923,0.5486081,0.1114725,-0.3260533,-0.5188713,0.5011778,-0.4647075,-0.303141,0.2552612,0.5530624,0.8366053,-0.5848954,0.5711741,-0.6176107,0.4966149,-0.3892497,0.4020574,-0.9192593,-0.9252765,0.3763056,0.1477748,-0.175721,0.4111652,-0.2583185,-0.6929016,0.1833221,-0.01657426,0.5579352,0.6298516,-0.7333195,-0.8045645,0.9816959,-0.9385412,-0.7075758,-0.444151,0.9183376,-0.7678592,-0.8021059,-0.8672569,-0.6229775,-0.9364088,0.7257392,-0.1093274,-0.5666053,-0.825424,-0.886616,-0.6987441,0.5152464,-0.8314326,0.6184978,-0.1270703,0.8178177,0.01963294,-0.01275265,0.1380898,-0.06113851,-0.06016529,-0.7554226,-0.3708237,0.4636781,0.5865963,-0.7851384,-0.6644123,0.01239264,-0.2558314,-0.4343785,0.08777726,-0.1054724,-0.8120239,-0.7625153,0.6828175,0.1060911,-0.2649652,-0.6866019,0.9051321,0.7838476,-0.3545691,0.2172309,-0.9314535,-0.03751695,0.6660845,0.3957524,-0.7150862,0.5434136,0.6309016,-0.7906127,-0.005867362,-0.8264179,-0.8641651,-0.07867944,0.6072762,0.461152,-0.9133179,-0.7483687,-0.9514618,0.934948,-0.09141529,-0.494902,0.2368945,0.3297379,0.7938776,-0.03036892,-0.7043788,-0.2126693,-0.5827589,0.6893449,-0.9640858,-0.4353503,-0.02874768,0.8120129,0.3179664,-0.7769485,0.1889209,0.2412471,-0.4028298,-0.6951699,0.0592984,0.6146522,0.9585781,-0.406438,-0.1615871,-0.4410542,0.8828127,0.1703283,0.7676425,0.9659302,0.7965114,-0.4354407,0.0982548,-0.2420052,0.2512011,-0.4314946,-0.1520621,-0.8366058,-0.515563,-0.05692399,0.6979389,-0.09945428,0.8600399,-0.2673136,-0.3667802,0.8877847,0.9343684,-0.3533891,0.8816893,-0.1573087,-0.1278516,0.3809659,0.1071337,0.4745888,-0.4633852,0.6647172,-0.6806777,0.1453811,0.238402,-0.7301559,-0.7901583,0.6795111,-0.2876061,-0.8830259,-0.6311674,-0.8493311,-0.7516191,-0.04763162,0.0938884,-0.03227031,0.8577325,0.7726612,-0.1311854,0.6786878,0.7790053,-0.7702239],[0.4661669,-0.4256819,-0.8767509,0.7398343,-0.3625926,-0.743788,0.8606343,-0.164976,0.0168699,0.1074449,0.6913116,0.441277,0.1639186,0.9653766,-0.01710546,0.6096604,0.6954155,-0.8088057,-0.7080898,-0.1892959,-0.5876226,0.6190958,0.9464757,0.7776184,0.4862091,-0.212762,-0.3630029,0.3956237,-0.2716118,-0.335519,0.3336711,0.2180129,0.4048268,-0.8208857,0.3639731,0.2742595,0.001384616,-0.2946519,0.504698,0.8797307,0.4987225,0.1517729,0.9644394,-0.1097137,0.4179763,0.3244092,0.5717695,0.2268115]],[[0.2959885,0.8349595,-0.3748597,0.1166815,0.4369228,0.0008832216,0.6869352,-0.5133722,0.7042871,-0.2362839,-0.02859104,0.2258998,-0.9842608,0.7428384,0.7547667,-0.8987932,0.8519931,-0.5549586,0.2409624,-0.1932207,-0.2801307,-0.4609846,-0.1586517,0.1075155,-0.6489365,-0.1042031,0.7040143,-0.6564364,0.6204138,0.3418934,-0.275349,0.1784865,0.5236733,-0.7068589,-0.4878989,-0.2631372,0.9709437,0.01992381,-0.2796401,-0.9239902,0.7414813,-0.9216757,0.984324,-0.9438696,-0.2832979,-0.9614279,0.6926649,0.05196178,-0.5498343,0.3853161,0.7788107,-0.6568916,-0.157077,0.2639837,0.2790849,0.0543164,-0.8560531,0.9063053,0.6710036,-0.1558751,0.8342187,0.7063541,0.6071649,-0.501915,0.6375127,-0.1163481,0.1939915,-0.2914788,-0.5840914,0.5595758,-0.08535278,0.546577,-0.1496316,-0.7517796,0.8515861,-0.146844,-0.03024256,0.7013674,-0.4979159,-0.0520376,-0.2186011,-0.1930875,-0.6053224,0.7390184,-0.810297,-0.5209308,-0.8469996,-0.4920663,0.1880225,-0.1033577,0.9051046,0.9002311,0.5308967,-0.8535893,-0.3948802,-0.02204978,-0.5690181,0.3208105,-0.586314,0.5714102,0.7406006,0.1946384,-0.430817,0.769825,0.3160665,-0.05159342,0.1318556,0.9666047,-0.4437596,-0.8895297,0.8396854,0.7361693,0.6856177,-0.3290058,-0.7806413,-0.3393716,-0.6001265,0.05496132,-0.8244567,-0.7019293,0.852042,-0.6627362,-0.02017057,-0.5854659,-0.6702073,0.8715038,0.5122523,0.1358632,-0.1959597,0.1137346,0.6461754,0.6560726,0.09311211,0.7729161,0.5840728,0.6200209,0.8470433,-0.6491623,0.1543595,0.001493812,-0.8694162,-0.6012464,-0.1945692,0.9715726,0.1149791,-0.1709925,-0.9369354,0.6210532,-0.3486048,0.1066638,0.2748906,0.01197541,0.07147229,0.5359597,0.9417448,-0.7832978,0.5393448,-0.006303668,-0.1114506,-0.7895558,-0.7613339,-0.7593136,0.2432398,-0.8113654,-0.6703088,0.9705935,0.5603728,-0.8795011,0.4298014,-0.5388708,0.3019013,0.759743,0.5031168,0.4228737,-0.6205666,0.2235111,0.1938082,-0.3012813,0.2132398,0.5433621,-0.2196409,0.8710604,0.6042233,-0.3098327,-0.6198466,-0.8383274,-0.4527656,-0.7463336,-0.2418734,-0.5168111,0.5418735,0.7733755],[-0.2591568,-0.07256067,0.8367734,-0.9509151,0.5903335,0.1409308,0.1621097,0.05663002,0.7218406,-0.2270192,0.277466,0.9578221,-0.5907166,0.8093691,0.1260535,-0.990793,0.09665787,0.6162179,0.5670466,-0.2863003,-0.5157962,0.5797913,0.7166438,-0.8040895,0.9532042,0.02148354,-0.5672629,0.1358701,-0.7010696,0.132454,0.4800605,-0.05924737,0.6488891,0.6980634,0.6052389,0.03314269,0.1796397,0.9462516,0.5230117,0.568017,0.9022276,0.8068004,-0.4639243,0.9316986,0.3441233,0.1327838,-0.6421571,0.8017106,-0.2612482,0.8317835,0.03702009,0.001932502,0.4499807,-0.7839441,0.7169662,0.6418118,-0.8884039,-0.1472863,-0.02209604,-0.4723758,0.2259053,-0.832082,0.3855245,-0.535809,-0.8056993,0.1859032,-0.3468031,-0.2592238,0.8624654,-0.1614941,0.7308943,0.727339,-0.1535114,-0.640449,-0.08754909,0.6680837,0.4945621,-0.3766686,0.6998467,-0.389064,-0.09517443,0.21653,-0.1331736,-0.5308862,-0.47923,0.5486081,0.1114725,-0.3260533,-0.5188713,0.5011778,-0.4647075,-0.303141,0.2552612,0.5530624,0.8366053,-0.5848954,0.5711741,-0.6176107,0.4966149,-0.3892497,0.4020574,-0.9192593,-0.9252765,0.3763056,0.1477748,-0.175721,0.4111652,-0.2583185,-0.6929016,0.1833221,-0.01657426,0.5579352,0.6298516,-0.7333195,-0.8045645,0.9816959,-0.9385412,-0.7075758,-0.444151,0.9183376,-0.7678592,-0.8021059,0.3674762,-0.6229775,-0.9364088,0.7257392,-0.1093274,-0.5666053,-0.825424,-0.886616,-0.6987441,0.5152464,-0.5760524,0.6184978,-0.1270703,0.8178177,0.01963294,-0.01275265,0.1380898,-0.06113851,-0.06016529,-0.7554226,-0.3708237,0.4636781,0.5865963,-0.7851384,-0.6644123,0.01239264,-0.2558314,-0.4343785,0.08777726,-0.1054724,-0.8120239,-0.7625153,0.6828175,0.1060911,-0.2649652,-0.6866019,0.9051321,0.7838476,-0.3545691,0.2172309,-0.9314535,-0.03751695,0.6660845,0.3957524,-0.7150862,0.5434136,0.6309016,-0.7906127,-0.005867362,0.3484628,-0.8641651,-0.07867944,0.6072762,0.461152,-0.9133179,-0.7483687,-0.9514618,0.934948,-0.09141529,-0.494902,0.2368945,0.3297379,0.7938776,-0.03036892,-0.7043788,-0.2126693,-0.5827589,0.6893449,-0.9640858,-0.4353503,-0.02874768,0.8120129,0.3179664,-0.7769485,0.1889209,0.2412471,-0.4028298,-0.6951699,-0.3854612,0.6146522,0.9585781,-0.406438,-0.1615871,-0.4410542,0.8828127,0.1703283,0.7676425,0.9659302,0.7965114,-0.4354407,0.0982548,-0.2420052,0.2512011,-0.4314946,-0.1520621,-0.8366058,-0.515563,-0.05692399,0.6979389,-0.09945428,0.8600399,-0.2673136,-0.3667802,0.8877847,0.9343684,-0.3533891,0.8816893,-0.1573087,-0.1278516,0.3809659,-0.9550683,0.4745888,-0.4633852,0.6647172,-0.6806777,0.1453811,0.238402,-0.7301559,-0.7901583,0.6795111,-0.2876061,-0.8830259,-0.6311674,-0.8493311,-0.7516191,-0.04763162,0.0938884,-0.03227031,0.8577325,0.7726612,-0.1311854,0.6786878,0.7790053,-0.7702239],[0.4661669,-0.4256819,-0.8767509,0.7398343,-0.3625926,-0.743788,0.8606343,-0.164976,0.0168699,0.1074449,0.6913116,0.441277,0.1639186,0.9653766,-0.01710546,0.6096604,0.6954155,-0.8088057,-0.7080898,-0.1892959,-0.5876226,0.6190958,0.9464757,0.7776184,0.4862091,-0.212762,-0.3630029,0.3956237,-0.2716118,-0.335519,0.3336711,0.2180129,0.4048268,-0.8208857,0.3639731,0.2742595,0.001384616,-0.2946519,0.504698,0.8797307,0.4987225,0.1517729,0.9644394,-0.1097137,0.4179763,0.3244092,0.5717695,0.2268115]],[[0.2959885,0.8349595,-0.3748597,0.1166815,0.4369228,0.0008832216,0.6869352,-0.5133722,0.7042871,-0.2362839,-0.02859104,0.2258998,-0.9842608,0.7428384,0.7547667,-0.8987932,0.7519047,-0.5549586,0.2409624,-0.1932207,-0.2801307,0.02398908,-0.1586517,0.1075155,-0.6489365,-0.1042031,0.7040143,-0.6564364,0.6204138,0.3418934,-0.275349,0.1784865,0.5236733,-0.7068589,-0.4878989,-0.2631372,0.9709437,0.01992381,-0.2796401,-0.9239902,0.7414813,-0.9216757,0.984324,-0.9438696,-0.2832979,-0.9614279,0.6926649,0.05196178,-0.5498343,0.3853161,0.7788107,-0.6568916,-0.157077,0.2639837,0.4842047,0.0543164,-0.8560531,-0.1485983,0.6710036,-0.1558751,0.8342187,0.7063541,0.6071649,-0.501915,0.6375127,-0.1163481,0.1939915,-0.2914788,-0.5840914,0.5595758,-0.08535278,0.546577,-0.1496316,-0.7517796,0.8515861,-0.146844,-0.03024256,0.7013674,-0.4979159,-0.0520376,-0.2186011,-0.1930875,-0.6053224,0.7390184,0.01557815,-0.5209308,-0.8469996,-0.4920663,0.1880225,-0.1033577,0.9051046,0.9002311,0.5308967,-0.8535893,-0.3948802,-0.02204978,-0.5690181,0.3208105,-0.586314,0.5714102,0.7406006,0.1946384,-0.430817,0.769825,0.3160665,-0.05159342,0.1318556,0.9666047,-0.4437596,-0.8895297,0.8396854,0.7361693,0.6856177,0.7581582,-0.7806413,-0.3393716,-0.6001265,0.05496132,-0.8244567,-0.7019293,0.852042,-0.6627362,-0.02017057,-0.5854659,-0.6702073,0.8715038,0.5122523,0.1358632,-0.1959597,0.1137346,0.02161062,0.6560726,0.7828023,0.8861194,0.5840728,0.6200209,0.8470433,-0.6491623,0.1543595,0.001493812,-0.8694162,-0.6012464,-0.1945692,0.9715726,0.1149791,-0.1709925,-0.5204742,0.6210532,-0.3486048,0.1066638,0.2748906,0.01197541,0.984163,0.5359597,0.9417448,-0.7832978,0.5393448,-0.006303668,-0.1114506,-0.7895558,-0.7613339,-0.7593136,0.2432398,-0.8113654,-0.6703088,0.9705935,0.5603728,-0.8795011,0.4298014,-0.5388708,0.3019013,0.759743,0.5031168,0.4228737,-0.6205666,0.2235111,0.1938082,-0.3012813,0.2132398,0.5433621,-0.2196409,0.8710604,0.6042233,-0.3098327,-0.6198466,-0.8383274,-0.4527656,-0.7463336,-0.2418734,-0.5168111,0.5418735,0.7733755],[-0.2591568,-0.07256067,0.8367734,-0.9509151,0.5903335,0.1409308,0.1621097,0.05663002,0.7218406,-0.2270192,0.277466,0.9578221,-0.5907166,-0.9410205,0.1260535,-0.990793,0.09665787,0.6162179,0.5670466,-0.2863003,-0.5157962,0.5797913,0.7166438,-0.8040895,0.9532042,0.02148354,-0.5672629,0.1358701,-0.7010696,0.132454,0.4800605,-0.05924737,0.6488891,0.6980634,0.6052389,0.03314269,0.1796397,0.9462516,0.5230117,0.568017,0.9022276,0.8068004,-0.4639243,0.9316986,0.3441233,0.1327838,-0.6421571,0.8017106,-0.2612482,0.8317835,0.03702009,0.001932502,0.4499807,-0.7839441,0.7169662,0.6418118,-0.8884039,-0.1472863,-0.02209604,-0.4723758,0.2259053,-0.832082,0.3855245,-0.535809,-0.8056993,0.1859032,-0.3468031,-0.2592238,0.8624654,-0.1614941,0.7308943,0.727339,-0.1535114,-0.640449,-0.08754909,0.6680837,0.4945621,-0.3766686,0.6998467,-0.389064,-0.09517443,0.21653,-0.1331736,-0.5308862,-0.47923,0.5486081,0.1114725,-0.3260533,-0.5188713,0.5011778,-0.4647075,-0.303141,0.2552612,0.5530624,0.8366053,-0.5848954,0.5711741,-0.6176107,0.4966149,-0.3892497,0.4020574,-0.9192593,-0.9252765,0.3763056,0.1477748,-0.175721,0.4111652,-0.2583185,-0.6929016,0.1833221,-0.01657426,-0.9005289,0.6298516,-0.7333195,-0.8045645,0.9816959,-0.9385412,-0.7075758,-0.444151,0.9183376,-0.7678592,-0.8021059,0.3674762,-0.6229775,-0.9364088,0.1233474,-0.1093274,-0.5666053,-0.825424,-0.886616,-0.6987441,0.5152464,-0.5760524,0.6184978,-0.1270703,0.8178177,0.01963294,-0.01275265,0.1380898,-0.06113851,-0.06016529,-0.7554226,-0.3708237,0.4636781,0.5865963,-0.7851384,-0.6644123,0.01239264,-0.2558314,-0.4343785,0.08777726,-0.1054724,-0.8120239,-0.7625153,0.6828175,0.1060911,-0.2649652,-0.6866019,0.9051321,0.7838476,-0.3545691,0.2172309,-0.9314535,-0.03751695,0.6660845,0.3957524,-0.7150862,0.5434136,0.6309016,-0.7906127,-0.005867362,-0.8264179,0.3009801,-0.07867944,0.6072762,0.461152,-0.9133179,-0.7483687,-0.9514618,0.934948,-0.09141529,-0.494902,0.2368945,0.3297379,0.7938776,-0.03036892,-0.7043788,-0.2126693,-0.5827589,0.6893449,-0.9640858,-0.4353503,-0.02874768,0.8120129,0.3179664,-0.7769485,0.1889209,0.2412471,-0.4028298,-0.6951699,0.0592984,0.6146522,0.9585781,-0.406438,-0.1615871,-0.4410542,0.8828127,0.1703283,0.7676425,0.9659302,0.7965114,-0.4354407,0.0982548,-0.2420052,0.2512011,-0.4314946,-0.1520621,-0.8366058,-0.515563,-0.05692399,0.6979389,-0.09945428,0.8600399,-0.2673136,-0.3667802,0.8877847,0.9343684,-0.3533891,0.8816893,-0.1573087,-0.1278516,0.3809659,0.1071337,0.4745888,-0.4633852,0.6647172,-0.6806777,0.1453811,0.238402,-0.7301559,-0.7901583,0.6795111,-0.2876061,-0.8830259,-0.6311674,-0.8493311,-0.7516191,-0.04763162,0.0938884,-0.03227031,0.8577325,0.7726612,-0.1311854,0.6786878,0.7790053,-0.7702239],[0.4661669,-0.4256819,-0.8767509,0.7398343,-0.3625926,-0.743788,0.8606343,-0.164976,0.0168699,0.1074449,0.6913116,0.441277,0.1639186,0.9653766,-0.01710546,0.6096604,0.6954155,-0.8088057,-0.7080898,-0.1892959,-0.5876226,0.6190958,0.9464757,0.7776184,0.4862091,-0.212762,-0.3630029,0.3956237,-0.2716118,-0.335519,0.3336711,0.2180129,0.4048268,-0.8208857,0.3639731,0.2742595,0.001384616,-0.2946519,0.504698,0.8797307,0.4987225,0.1517729,0.9644394,-0.1097137,0.4179763,0.3244092,0.5717695,0.2268115]],[[0.2959885,0.8349595,-0.3748597,0.1979617,0.4369228,0.0008832216,0.6869352,-0.5133722,0.7042871,-0.2362839,-0.02859104,0.2258998,-0.9842608,0.7428384,0.7547667,-0.8987932,0.8519931,-0.5549586,0.2409624,-0.1932207,-0.2801307,-0.4609846,-0.1586517,0.1075155,-0.6489365,-0.1042031,0.7040143,-0.6564364,0.6204138,0.3418934,-0.275349,0.1784865,0.5236733,-0.7068589,-0.4878989,-0.2631372,0.9709437,0.01992381,-0.2796401,-0.9239902,0.7414813,-0.9216757,0.984324,-0.9438696,-0.2832979,-0.9614279,0.6926649,0.05196178,-0.5498343,0.3853161,0.7788107,-0.6568916,-0.157077,0.2639837,0.2790849,0.0543164,-0.8560531,-0.1485983,0.6710036,-0.1558751,0.8342187,0.7063541,0.6071649,-0.501915,0.6375127,-0.1163481,0.1939915,-0.2914788,-0.5840914,0.5595758,-0.08535278,0.546577,-0.1496316,-0.7517796,0.8515861,-0.146844,-0.03024256,